1.041872724890708923e-01
-7.874670624732971191e-02
8.923162706196308136e-03
-4.426098987460136414e-02
-1.020797193050384521e-01
-2.043156884610652924e-02
-8.642872422933578491e-02
6.668202113360166550e-03
8.959545195102691650e-02
7.544742524623870850e-02
-1.075937524437904358e-01
-2.829150110483169556e-02
4.164170473814010620e-02
3.896670043468475342e-02
-3.971669077873229980e-02
-8.809736929833889008e-03
3.676363825798034668e-02
1.288471668958663940e-01
2.222095578908920288e-01
2.189200138673186302e-03
4.586787894368171692e-02
1.519832480698823929e-02
-3.378821536898612976e-02
-1.940206438302993774e-02
2.531764563173055649e-03
3.656833618879318237e-02
-3.141622990369796753e-02
6.242519244551658630e-02
1.179851870983839035e-02
-4.473689943552017212e-02
7.457957416772842407e-02
-3.737977147102355957e-02
-1.687003821134567261e-01
-1.743072271347045898e-02
-9.549710154533386230e-02
1.071780622005462646e-01
-2.596753276884555817e-02
-4.720696806907653809e-02
2.080441638827323914e-02
8.751147985458374023e-02
2.544867694377899170e-01
-2.313141338527202606e-02
6.279203295707702637e-02
7.455524802207946777e-02
-7.568855304270982742e-03
-6.191855296492576599e-02
-4.598039388656616211e-02
-1.209242790937423706e-01
-1.594229601323604584e-02
-6.164924055337905884e-02
