-5.836684629321098328e-02
1.495093554258346558e-01
2.001571841537952423e-02
1.661665886640548706e-01
2.847899869084358215e-02
-1.691182702779769897e-01
-5.074460804462432861e-02
9.258977323770523071e-02
3.542478010058403015e-02
2.683377452194690704e-02
9.184226393699645996e-02
1.779052764177322388e-01
-3.532530367374420166e-02
1.607377827167510986e-01
1.286538839340209961e-01
4.159657284617424011e-03
-8.554998785257339478e-02
-1.948471367359161377e-01
9.915769100189208984e-02
2.863013185560703278e-02
-9.606497734785079956e-02
1.262243092060089111e-01
3.762716427445411682e-02
3.550384892150759697e-03
-7.620735466480255127e-02
1.814440637826919556e-02
-6.452344357967376709e-02
-1.110461950302124023e-01
-1.592718958854675293e-01
-1.376874148845672607e-01
6.178382635116577148e-01
-6.341907382011413574e-02
-4.323743656277656555e-02
4.910396039485931396e-02
-1.700749397277832031e-01
-8.735975623130798340e-02
-4.242897778749465942e-02
-1.838348060846328735e-02
-6.914917845278978348e-03
-1.736560761928558350e-01
5.879004672169685364e-02
1.259903460741043091e-01
9.438947588205337524e-02
-1.316449791193008423e-01
-1.117009669542312622e-02
-1.422738470137119293e-02
5.378331243991851807e-02
5.461837351322174072e-02
1.795572601258754730e-02
5.115709081292152405e-02
