-4.512548446655273438e-02
6.907031685113906860e-02
-1.227616071701049805e-01
2.358175516128540039e-01
-2.380799874663352966e-02
4.336568061262369156e-03
-9.685080498456954956e-03
-2.990370094776153564e-01
6.133517250418663025e-02
5.542228370904922485e-02
-1.912696659564971924e-02
1.708040572702884674e-02
-2.078724652528762817e-01
-6.380680203437805176e-02
-2.249984294176101685e-01
-1.394172608852386475e-01
5.475856363773345947e-02
8.221975713968276978e-02
-7.455451041460037231e-02
-6.516879051923751831e-02
-1.392514109611511230e-01
-9.067180752754211426e-02
8.665678650140762329e-02
7.735705375671386719e-02
1.232646033167839050e-01
2.464428730309009552e-02
-1.243400126695632935e-01
8.269018679857254028e-02
1.511702388525009155e-01
7.769837975502014160e-02
6.952863186597824097e-02
5.329685285687446594e-03
1.567050814628601074e-01
1.194498538970947266e-01
-1.723732948303222656e-01
5.360394343733787537e-02
-1.092021167278289795e-02
-8.187265694141387939e-02
-6.172046437859535217e-02
-8.678457885980606079e-02
7.717393338680267334e-02
-2.248068526387214661e-02
2.813123352825641632e-02
6.373442709445953369e-02
-2.082272619009017944e-01
5.994360148906707764e-02
1.115708798170089722e-01
-1.974563002586364746e-01
-1.817633397877216339e-02
3.554467111825942993e-02
