-2.359248511493206024e-02
8.282368630170822144e-02
-8.072228729724884033e-02
1.942237466573715210e-01
-1.184189021587371826e-01
-4.665367305278778076e-02
-5.532321333885192871e-02
9.610969573259353638e-02
7.113702595233917236e-02
-4.837771411985158920e-03
-3.177076205611228943e-02
-1.847176463343203068e-03
-8.287324011325836182e-02
3.986695036292076111e-02
-1.562912166118621826e-01
-1.933237612247467041e-01
8.664727956056594849e-02
9.546742588281631470e-02
2.670764327049255371e-01
2.021281514316797256e-03
-2.430076450109481812e-01
-3.032018840312957764e-01
1.099679321050643921e-01
3.170342743396759033e-02
2.425201795995235443e-02
3.967214748263359070e-02
-4.235184937715530396e-02
-3.184314817190170288e-02
3.064213395118713379e-01
-8.336479961872100830e-02
5.066357553005218506e-02
-3.789776191115379333e-02
1.548175513744354248e-01
1.481211334466934204e-01
-5.512598529458045959e-02
1.543791741132736206e-01
1.515213958919048309e-02
-2.227376252412796021e-01
-5.950262770056724548e-02
3.438127413392066956e-02
7.456849794834852219e-03
-1.027782037854194641e-01
-4.828274250030517578e-02
8.260437846183776855e-02
-2.734127342700958252e-01
2.769770659506320953e-02
1.321228295564651489e-01
-2.173243016004562378e-01
-2.264225929975509644e-01
4.572332277894020081e-02
