6.474033743143081665e-02
9.268971532583236694e-02
-1.669849269092082977e-02
-6.529298424720764160e-02
1.794780232012271881e-02
2.517301216721534729e-02
-1.177689060568809509e-01
-4.267083015292882919e-03
-1.035892218351364136e-02
-3.104453720152378082e-02
1.586036570370197296e-02
2.764631807804107666e-02
-8.641812205314636230e-02
-4.964585974812507629e-02
5.325802043080329895e-02
-4.815537482500076294e-02
-5.389748513698577881e-02
-4.332145750522613525e-01
6.294722110033035278e-02
-1.802928000688552856e-01
-8.703715167939662933e-03
5.349216237664222717e-02
-2.026573419570922852e-01
2.325727418065071106e-02
-3.655263036489486694e-02
3.779498627409338951e-03
5.643545091152191162e-02
1.388889998197555542e-01
1.133628487586975098e-01
1.585154049098491669e-02
1.407356858253479004e-01
-1.084803417325019836e-02
-4.754817485809326172e-02
5.370659753680229187e-03
2.812412381172180176e-02
4.877004027366638184e-02
2.666248939931392670e-02
-7.598356902599334717e-02
3.149999305605888367e-02
-4.029986262321472168e-02
-2.836708724498748779e-01
-5.939063057303428650e-02
-1.474667787551879883e-01
-1.328179836273193359e-01
1.042750179767608643e-01
2.504091896116733551e-02
-3.982273861765861511e-02
4.164488054811954498e-03
-2.404726594686508179e-01
-6.014052778482437134e-03
