1.972452104091644287e-01
2.318348586559295654e-01
-1.427397876977920532e-01
-6.345609575510025024e-02
-4.910157248377799988e-02
-3.855607286095619202e-02
-1.846831738948822021e-01
1.162769868969917297e-01
-1.616134643554687500e-01
1.711898148059844971e-01
-1.454271003603935242e-02
1.833810508251190186e-01
-1.123439054936170578e-02
-6.592471152544021606e-02
-8.223243802785873413e-02
1.198458746075630188e-01
-1.295661181211471558e-01
1.888719052076339722e-01
1.385372877120971680e-01
1.481323838233947754e-01
-1.855420023202896118e-01
1.167665794491767883e-02
4.057405516505241394e-03
1.953304708003997803e-01
-6.176736578345298767e-02
-7.403250038623809814e-02
-5.062800273299217224e-02
-1.237820461392402649e-01
-2.790446877479553223e-01
1.441315561532974243e-01
-8.287033438682556152e-02
-2.046307325363159180e-01
-1.431947574019432068e-02
-9.066210687160491943e-02
1.597823947668075562e-01
4.540563747286796570e-02
2.153003066778182983e-01
-1.317039430141448975e-01
4.097037948668003082e-03
-3.334619477391242981e-02
1.686230599880218506e-01
8.535685390233993530e-02
-3.504528896883130074e-03
1.533933635801076889e-02
3.601654991507530212e-02
-1.175989210605621338e-01
-2.846870943903923035e-02
-2.731461450457572937e-02
-2.287853658199310303e-01
9.631333500146865845e-02
