-4.304012283682823181e-02
2.172182202339172363e-01
-2.721699886023998260e-02
2.382168024778366089e-01
-8.482407778501510620e-02
-1.647061705589294434e-01
8.783662342466413975e-04
1.308729778975248337e-02
-8.172382414340972900e-02
-3.793737664818763733e-02
7.113670557737350464e-02
2.818226814270019531e-01
-9.885168820619583130e-02
1.025765910744667053e-01
7.002481818199157715e-02
4.587232694029808044e-02
-7.563671469688415527e-02
-2.634238302707672119e-01
5.905873328447341919e-02
1.917270421981811523e-01
-2.110552489757537842e-01
1.091597154736518860e-01
-3.620751574635505676e-02
-6.886788457632064819e-02
-2.116589993238449097e-02
1.325937211513519287e-01
-8.094262331724166870e-02
-2.375327283516526222e-03
-2.261483483016490936e-02
-1.964615881443023682e-01
2.365863770246505737e-01
-1.259409338235855103e-01
-1.122707594186067581e-02
2.543152077123522758e-03
-1.695732623338699341e-01
-2.567161619663238525e-01
1.082567274570465088e-01
5.555185489356517792e-03
3.597211092710494995e-02
-1.092055886983871460e-01
3.105320408940315247e-02
1.677758991718292236e-02
5.821777507662773132e-02
-1.573759615421295166e-01
-4.398294538259506226e-02
-1.631455495953559875e-02
1.212159618735313416e-01
5.721288174390792847e-02
-1.426579616963863373e-02
5.565604194998741150e-02
