1.706179380416870117e-01
2.456741631031036377e-01
-1.585903614759445190e-01
-1.360911577939987183e-01
-9.524402767419815063e-02
4.694845527410507202e-02
-1.448727995157241821e-01
1.296828836202621460e-01
-1.490220874547958374e-01
1.520172059535980225e-01
5.610234290361404419e-02
2.041145712137222290e-01
2.360613271594047546e-02
-3.440381959080696106e-02
-1.356291770935058594e-01
5.594538524746894836e-02
-7.467114180326461792e-02
1.983793377876281738e-01
1.675732284784317017e-01
1.022480726242065430e-01
-9.704647213220596313e-02
6.361199170351028442e-02
-1.086951345205307007e-01
1.918251663446426392e-01
-1.391549967229366302e-02
2.036331035196781158e-02
-2.143116481602191925e-02
-1.430260390043258667e-01
-2.029858678579330444e-01
7.790826261043548584e-02
8.923234045505523682e-02
-1.956342458724975586e-01
-7.170990854501724243e-02
-7.443622499704360962e-02
1.980654299259185791e-01
1.006863936781883240e-01
1.711091995239257812e-01
-1.694505214691162109e-01
-4.711438342928886414e-02
3.681574761867523193e-02
1.824106127023696899e-01
2.468836680054664612e-02
7.444384507834911346e-03
-3.663294762372970581e-02
6.031912192702293396e-02
-6.744322180747985840e-02
-8.559577167034149170e-02
4.208078235387802124e-02
-1.221481785178184509e-01
1.012733280658721924e-01
