4.503392055630683899e-02,-1.400750279426574707e-01,-1.524805724620819092e-01,-1.409731060266494751e-01,-1.137497648596763611e-01,1.998693495988845825e-01,-6.018429994583129883e-02,1.293277144432067871e-01,-5.825198069214820862e-02,6.657075136899948120e-02,-1.228923723101615906e-01,1.295079383999109268e-02,-1.132311448454856873e-01,-2.120935767889022827e-01,1.177651584148406982e-01,1.377775818109512329e-01,-2.169439047574996948e-01,-1.626001596450805664e-01,6.531492620706558228e-02,-6.410203129053115845e-02,-4.557169228792190552e-02,-5.673300474882125854e-03,1.721046268939971924e-01,1.525541394948959351e-01,-2.363477796316146851e-01,2.404606491327285767e-01,-2.220046520233154297e-01,1.009364873170852661e-01,1.864973604679107666e-01,2.181096822023391724e-01,1.164673417806625366e-01,-5.578147247433662415e-02,-2.269290834665298462e-01,-1.267037391662597656e-01,1.320591382682323456e-02,1.216643154621124268e-01,9.720680117607116699e-02,7.715255022048950195e-02,-1.888581737875938416e-02,-1.114463880658149719e-01,1.491159647703170776e-01,-2.101269513368606567e-01,1.129243224859237671e-01,1.668816804885864258e-02,1.042738258838653564e-01,7.582808285951614380e-02,-1.776385009288787842e-01,-8.568889647722244263e-02,2.119860053062438965e-01,6.415733695030212402e-02
1.427048891782760620e-01,-1.577355898916721344e-02,5.627472326159477234e-02,5.640230141580104828e-03,1.506529748439788818e-01,-1.474293619394302368e-01,-8.264070004224777222e-02,-8.367523550987243652e-02,-2.467934936285018921e-01,1.351908892393112183e-01,-5.405146628618240356e-02,-2.079279534518718719e-02,-7.432049512863159180e-02,-1.974717527627944946e-01,-2.659193575382232666e-01,8.016162365674972534e-02,-1.841350644826889038e-01,-6.393436924554407597e-04,-2.238879501819610596e-01,1.206655893474817276e-02,-1.260801106691360474e-01,-4.674614593386650085e-02,1.799925714731216431e-01,1.186412498354911804e-01,1.096958070993423462e-01,-1.747507415711879730e-02,-2.718206122517585754e-02,-2.036429494619369507e-01,1.419604420661926270e-01,-2.007053345441818237e-01,-5.275664106011390686e-02,8.389921486377716064e-02,8.234933763742446899e-02,1.497390121221542358e-01,3.635322302579879761e-02,1.472338140010833740e-01,-7.814342528581619263e-02,7.363519817590713501e-02,2.601093053817749023e-01,-4.641138017177581787e-02,-2.168866544961929321e-01,-5.775374174118041992e-02,2.177873402833938599e-01,1.344596594572067261e-01,1.807517558336257935e-01,-1.966242939233779907e-01,-2.304916828870773315e-01,-1.261539757251739502e-01,-2.404258549213409424e-01,1.691309213638305664e-01
1.689061075448989868e-01,-1.072373315691947937e-01,-1.074955016374588013e-01,4.834406077861785889e-02,9.811031632125377655e-03,-9.602671861648559570e-02,-1.197936851531267166e-02,7.967685163021087646e-02,-7.572108507156372070e-02,2.449175517540425062e-04,1.029320359230041504e-01,1.130187362432479858e-01,-7.422687113285064697e-02,1.284848749637603760e-01,1.910973899066448212e-02,-1.985827386379241943e-01,1.431751102209091187e-01,-1.226859688758850098e-01,6.288359314203262329e-02,5.521891638636589050e-02,4.709710367023944855e-03,9.121748805046081543e-02,-9.562449902296066284e-02,6.455625593662261963e-02,2.825623452663421631e-01,1.402556449174880981e-01,-5.988654494285583496e-02,1.837049722671508789e-01,3.667981829494237900e-03,-4.478421434760093689e-02,5.806929245591163635e-02,1.143483892083168030e-01,1.026878729462623596e-01,3.993196412920951843e-02,-2.323998659849166870e-01,-3.989671915769577026e-02,-4.575254023075103760e-02,1.025760080665349960e-02,4.517059400677680969e-02,-9.965204447507858276e-02,1.087360009551048279e-01,-1.432976275682449341e-01,-5.085670575499534607e-02,-3.038358874619007111e-02,1.571571975946426392e-01,7.522021234035491943e-02,2.430018633604049683e-01,-1.304110884666442871e-01,-3.478188067674636841e-02,2.312569878995418549e-02
-2.198728173971176147e-01,2.999300509691238403e-02,-1.532686799764633179e-01,-5.372686684131622314e-02,9.017927944660186768e-02,1.230475306510925293e-02,-5.091307684779167175e-02,-2.391454577445983887e-01,-8.493816852569580078e-02,1.260216385126113892e-01,2.528490424156188965e-01,-1.411383748054504395e-01,-1.882598400115966797e-01,-8.824130892753601074e-02,9.094049781560897827e-02,-1.149705350399017334e-01,-4.494274035096168518e-02,-1.977774649858474731e-01,-1.431310921907424927e-01,-1.561349164694547653e-02,-5.786948651075363159e-02,3.148881718516349792e-02,5.711011961102485657e-02,4.545873496681451797e-03,1.385762840509414673e-01,6.560515612363815308e-02,-2.452829182147979736e-01,-8.444025367498397827e-02,-2.915041744709014893e-01,4.551507160067558289e-02,-8.107978105545043945e-02,-1.392630785703659058e-01,2.823014259338378906e-01,3.942517936229705811e-02,-1.490173935890197754e-01,-2.954414188861846924e-01,-2.670646011829376221e-01,-7.348569482564926147e-02,-2.057150155305862427e-01,4.585028290748596191e-01,1.930105239152908325e-01,-3.105181641876697540e-02,1.668356508016586304e-01,9.706778079271316528e-02,-1.081776097416877747e-01,1.763724237680435181e-01,2.822089791297912598e-01,-1.499330699443817139e-01,1.169633194804191589e-01,2.698226831853389740e-02
-1.913675107061862946e-02,6.438589096069335938e-02,-5.721946805715560913e-02,2.321895062923431396e-01,-2.364402264356613159e-01,2.824026346206665039e-02,-2.277855277061462402e-01,1.169495210051536560e-01,7.446699775755405426e-03,-1.184202637523412704e-02,1.922769248485565186e-01,1.863034069538116455e-02,1.892891228199005127e-01,-1.824027895927429199e-01,-8.421424776315689087e-02,9.376720339059829712e-02,-1.957947909832000732e-01,5.010433867573738098e-02,-2.466273754835128784e-01,-5.990169197320938110e-02,-1.649668812751770020e-01,4.120919108390808105e-02,5.914001539349555969e-02,3.997275605797767639e-02,2.311801463365554810e-01,-1.228715851902961731e-01,-2.936984896659851074e-01,-1.998439133167266846e-01,4.961657524108886719e-02,-2.356299459934234619e-01,-1.269903928041458130e-01,-1.114162579178810120e-01,1.077017933130264282e-01,-1.318274736404418945e-01,2.590202391147613525e-01,-1.360924541950225830e-01,1.490609645843505859e-01,2.047330737113952637e-01,-2.068879455327987671e-01,5.815194547176361084e-02,-1.638846695423126221e-01,2.979434728622436523e-01,-4.710352793335914612e-02,-1.458443980664014816e-02,5.926970392465591431e-02,-3.318596780300140381e-01,1.165269017219543457e-01,-4.310361575335264206e-03,-2.924612462520599365e-01,1.858352273702621460e-01
7.238850742578506470e-02,-7.348193973302841187e-02,-1.097609251737594604e-01,-1.385913230478763580e-03,2.746652439236640930e-02,-1.009863093495368958e-01,8.657748997211456299e-02,-1.920647025108337402e-01,-1.389557123184204102e-01,1.516959220170974731e-01,7.476556580513715744e-03,-5.651740357279777527e-02,-1.534282714128494263e-01,1.872711479663848877e-01,-2.292247302830219269e-02,-5.024464055895805359e-02,-1.090192142874002457e-02,-2.605349756777286530e-02,8.235052973031997681e-02,-2.041797041893005371e-01,9.416467696428298950e-02,-2.394337058067321777e-01,-2.260854542255401611e-01,4.996908083558082581e-02,-5.377822741866111755e-02,-9.235732257366180420e-02,-3.226329088211059570e-01,-6.373487878590822220e-03,2.357180416584014893e-01,1.926663666963577271e-01,-1.431333720684051514e-01,7.128886133432388306e-02,1.466347277164459229e-01,-2.488135397434234619e-01,-1.282566487789154053e-01,-4.911013320088386536e-02,2.100067138671875000e-01,-2.737030386924743652e-01,7.618763297796249390e-02,-1.517682373523712158e-01,3.070997260510921478e-02,-3.235987573862075806e-02,-1.557399183511734009e-01,-2.777228355407714844e-01,-2.866480052471160889e-01,1.132339052855968475e-02,-4.666397720575332642e-02,4.498982056975364685e-02,-3.269072249531745911e-02,7.236605510115623474e-03
-1.679800003767013550e-01,-1.479319203644990921e-02,9.530144184827804565e-02,1.793580204248428345e-01,6.214284524321556091e-02,-2.969473041594028473e-02,2.656712830066680908e-01,1.968357861042022705e-01,1.758488863706588745e-01,-1.713904179632663727e-02,-9.245702624320983887e-02,-2.513008415699005127e-01,-1.067740004509687424e-02,1.298632919788360596e-01,1.229877844452857971e-01,-2.117662727832794189e-01,-9.391155838966369629e-02,-6.152239628136157990e-03,-1.370769143104553223e-01,1.653927415609359741e-01,8.211879059672355652e-03,-1.070307865738868713e-01,8.843889087438583374e-02,-1.066465154290199280e-01,2.168722450733184814e-01,3.338643908500671387e-02,9.436546266078948975e-02,7.140041142702102661e-02,-9.075405448675155640e-02,-1.796315163373947144e-01,1.977897435426712036e-01,-3.873124253004789352e-03,1.814790964126586914e-01,7.580252736806869507e-02,9.462711215019226074e-02,-7.424309849739074707e-02,-1.925387233495712280e-01,1.426591873168945312e-01,-2.285924367606639862e-02,1.381477713584899902e-01,-2.616300880908966064e-01,-1.021960750222206116e-01,-1.180156990885734558e-01,-1.099605038762092590e-01,-7.300917804241180420e-02,-1.631728261709213257e-01,-3.399025648832321167e-02,-8.388864248991012573e-02,-1.675412207841873169e-01,1.540353149175643921e-02
6.773517280817031860e-02,-2.598531171679496765e-02,-1.383036524057388306e-01,4.018547013401985168e-02,-2.183486074209213257e-01,7.927839457988739014e-02,1.761890575289726257e-02,-2.432794123888015747e-01,-1.599705778062343597e-02,1.716889441013336182e-01,-2.204398252069950104e-02,1.707036346197128296e-01,-2.111065089702606201e-01,-5.574518442153930664e-02,3.051394131034612656e-03,-2.823566272854804993e-02,2.445979118347167969e-01,-1.327267587184906006e-01,8.255641162395477295e-02,3.162173926830291748e-02,1.499145925045013428e-01,-1.825066953897476196e-01,1.473794281482696533e-01,-6.298127770423889160e-02,-8.169704675674438477e-02,2.111643254756927490e-01,-1.770012378692626953e-01,-6.141368672251701355e-02,1.609532088041305542e-01,-3.302276879549026489e-02,-1.199942529201507568e-01,-4.222936183214187622e-02,7.427108474075794220e-03,-9.628213942050933838e-02,1.476714909076690674e-01,-1.716067343950271606e-01,-1.344668269157409668e-01,8.657836914062500000e-02,-1.085975468158721924e-01,-6.145850569009780884e-02,-3.407378867268562317e-02,1.395653635263442993e-01,1.037864238023757935e-01,-6.125303357839584351e-02,7.443055510520935059e-02,-2.604411914944648743e-02,-7.022031396627426147e-02,7.470300793647766113e-02,-7.825833559036254883e-02,-2.324179410934448242e-01
2.122643291950225830e-01,1.799864917993545532e-01,-9.334185719490051270e-02,-6.215628236532211304e-02,-7.173913717269897461e-02,3.072601258754730225e-01,-2.157201059162616730e-02,-1.471974402666091919e-01,-4.832097142934799194e-02,-2.133945077657699585e-01,2.432752698659896851e-01,1.630164831876754761e-01,1.657690852880477905e-01,4.545514658093452454e-02,-9.113570302724838257e-02,-1.856854557991027832e-02,-1.987055987119674683e-01,2.044638842344284058e-01,-1.539906561374664307e-01,-1.714785248041152954e-01,1.175791025161743164e-01,2.121514678001403809e-01,9.761868417263031006e-02,-8.596488088369369507e-02,-1.059060543775558472e-01,1.498195081949234009e-01,-1.381582021713256836e-01,7.813490927219390869e-02,-2.056023925542831421e-01,8.265467733144760132e-02,-1.221504807472229004e-02,9.494266472756862640e-03,1.321171522140502930e-01,-1.196570992469787598e-01,-3.792683407664299011e-02,1.540938019752502441e-01,1.454245182685554028e-03,3.348481282591819763e-02,1.864901036024093628e-01,-8.402138203382492065e-02,-1.107825189828872681e-01,1.484750360250473022e-01,2.621299214661121368e-02,-1.644714921712875366e-01,-9.340041130781173706e-02,-8.748737722635269165e-02,1.810740232467651367e-01,-4.742528498172760010e-02,6.016599014401435852e-02,1.044132336974143982e-01
1.664341539144515991e-01,-1.394356191158294678e-01,-1.694173663854598999e-01,1.956810709089040756e-03,-1.246764510869979858e-01,-1.860997974872589111e-01,-2.866834402084350586e-02,1.978100538253784180e-01,8.609608747065067291e-03,-3.506525605916976929e-02,1.822906583547592163e-01,4.519607126712799072e-02,1.753669679164886475e-01,6.275016069412231445e-02,-3.300395011901855469e-01,-2.778125181794166565e-02,2.042729854583740234e-01,1.005002632737159729e-01,9.244067966938018799e-02,4.748583585023880005e-02,1.679865457117557526e-02,1.677759289741516113e-01,-2.119300365447998047e-01,-2.533598840236663818e-01,1.326998770236968994e-01,2.042945623397827148e-01,-9.143974632024765015e-02,-9.998162277042865753e-03,8.512613922357559204e-02,1.828144304454326630e-02,1.302052587270736694e-01,7.826798409223556519e-02,2.298483848571777344e-01,4.070408642292022705e-02,1.134975105524063110e-01,-2.967526018619537354e-02,-1.539054811000823975e-01,-9.936017543077468872e-02,1.785072381608188152e-03,9.959331899881362915e-02,-2.116671651601791382e-01,1.233937367796897888e-01,-1.865957081317901611e-01,-1.006297767162322998e-01,1.387962549924850464e-01,1.732661575078964233e-01,1.410628259181976318e-01,-1.388241052627563477e-01,-1.283486783504486084e-01,-1.104735489934682846e-02
1.265804842114448547e-02,4.244317486882209778e-02,6.554576009511947632e-02,1.116840466856956482e-01,1.675417870283126831e-01,2.015338093042373657e-01,-1.886283159255981445e-01,1.222487241029739380e-01,1.727596670389175415e-01,-6.232307851314544678e-02,-7.029815018177032471e-02,9.143049269914627075e-02,-5.729528516530990601e-02,-2.608285984024405479e-03,-1.518112123012542725e-01,-6.144374236464500427e-02,7.486796379089355469e-02,3.477080538868904114e-02,-5.545426532626152039e-02,2.660988271236419678e-01,5.824843049049377441e-02,-1.469363719224929810e-01,1.861372143030166626e-01,3.182491660118103027e-02,1.556350290775299072e-01,8.400101214647293091e-03,1.799603104591369629e-01,-2.371432073414325714e-02,5.262055993080139160e-02,8.026290684938430786e-02,-1.117034256458282471e-01,-2.451434172689914703e-02,-1.410036087036132812e-01,1.153357550501823425e-01,1.247442141175270081e-01,1.652198135852813721e-01,-2.574043869972229004e-01,-5.266370996832847595e-02,7.529789209365844727e-02,-1.794831641018390656e-02,-6.817598640918731689e-02,-1.436385959386825562e-01,-8.683918416500091553e-02,7.431714236736297607e-02,1.369884461164474487e-01,1.401245146989822388e-01,7.465376704931259155e-02,2.657942660152912140e-02,2.708040177822113037e-01,1.843535155057907104e-01
-5.036911368370056152e-02,-5.017605051398277283e-02,9.904259443283081055e-02,-2.600100338459014893e-01,-7.928825914859771729e-02,-1.979052573442459106e-01,-5.684547498822212219e-02,-1.723923981189727783e-01,1.775868386030197144e-01,5.939335376024246216e-02,8.349996805191040039e-02,9.626256674528121948e-02,-3.482681512832641602e-02,-4.156409204006195068e-02,2.572533190250396729e-01,-2.328909337520599365e-01,-2.173180878162384033e-01,1.867569237947463989e-02,8.403327316045761108e-02,4.156894981861114502e-02,1.555127948522567749e-01,-1.482650935649871826e-01,1.670253425836563110e-01,5.522370710968971252e-02,1.623203009366989136e-01,9.005173295736312866e-02,1.599996536970138550e-01,-2.667156159877777100e-01,-1.840277016162872314e-01,-2.045181393623352051e-01,3.269949555397033691e-02,5.299960076808929443e-02,-3.276422852650284767e-03,-1.284403800964355469e-01,2.191567122936248779e-01,1.406480222940444946e-01,-9.809456765651702881e-02,-2.306798100471496582e-01,-1.833000481128692627e-01,5.596548318862915039e-02,2.451815009117126465e-01,-1.094144582748413086e-01,-2.283337116241455078e-01,-7.179325819015502930e-02,5.431334301829338074e-02,-2.959077991545200348e-02,1.556843966245651245e-01,-7.079492509365081787e-02,-6.198895629495382309e-03,1.193449273705482483e-01
-8.125761151313781738e-02,1.672274023294448853e-01,-2.102206498384475708e-01,-1.982885412871837616e-02,-1.216977462172508240e-01,-2.437208592891693115e-01,-1.898715943098068237e-01,-7.784618437290191650e-02,1.472707241773605347e-01,1.817444525659084320e-02,-4.858224466443061829e-02,-2.749293446540832520e-01,-1.719993203878402710e-01,8.706164360046386719e-02,1.385077461600303650e-02,-1.230938360095024109e-01,-1.717236638069152832e-01,-4.176845774054527283e-02,-4.844625946134328842e-03,2.830879949033260345e-02,-2.422059029340744019e-01,-1.003359556198120117e-01,-6.740561872720718384e-02,-1.325101107358932495e-01,9.196553379297256470e-02,1.231706365942955017e-01,-6.997104734182357788e-02,-1.196589842438697815e-01,-8.837188035249710083e-02,-1.632431447505950928e-01,-2.101049274206161499e-01,5.595512222498655319e-03,-9.929231554269790649e-02,-3.610713779926300049e-02,-5.004652962088584900e-02,-9.388937056064605713e-02,9.738343209028244019e-02,-7.598673552274703979e-02,-1.551910676062107086e-02,-6.683662533760070801e-02,1.465605497360229492e-01,9.734041988849639893e-02,-4.610641673207283020e-02,-1.684720665216445923e-01,1.555530577898025513e-01,-1.348644644021987915e-01,-7.787699252367019653e-02,-3.225157856941223145e-01,1.845829188823699951e-01,-2.532253861427307129e-01
2.566767930984497070e-01,1.672679185867309570e-01,5.056521669030189514e-02,1.067951880395412445e-02,4.057209566235542297e-02,5.527383834123611450e-02,-8.324760943651199341e-02,2.655598819255828857e-01,-1.463605165481567383e-01,-2.240252941846847534e-01,-1.430083997547626495e-02,6.192703731358051300e-03,1.481324583292007446e-01,-3.665106371045112610e-02,-9.912601113319396973e-02,1.564603894948959351e-01,1.083985939621925354e-01,-7.239737361669540405e-02,-6.071342155337333679e-02,-2.270816117525100708e-01,-4.487873986363410950e-02,1.693592667579650879e-01,-8.548334240913391113e-02,-1.400527264922857285e-02,1.453957408666610718e-01,-7.449162006378173828e-02,1.923724263906478882e-01,7.284212391823530197e-03,-1.449106186628341675e-01,9.587544947862625122e-02,7.836650311946868896e-02,1.206170991063117981e-01,-1.301616281270980835e-01,6.674381345510482788e-02,1.132843121886253357e-01,-3.541187196969985962e-02,-6.724261492490768433e-02,-1.365300118923187256e-01,-1.482069864869117737e-02,6.829150766134262085e-02,1.453205496072769165e-01,-4.590286314487457275e-02,1.504412014037370682e-02,-2.245977669954299927e-01,-7.770870625972747803e-02,1.795330196619033813e-01,5.902896821498870850e-02,-1.207468509674072266e-01,-6.116993352770805359e-02,1.046527177095413208e-01
7.521261461079120636e-03,3.409931957721710205e-01,2.291295230388641357e-01,2.286833822727203369e-01,3.050047717988491058e-02,1.976673118770122528e-02,-1.803975701332092285e-01,-1.936875879764556885e-01,1.783403456211090088e-01,2.900025546550750732e-01,4.830706864595413208e-02,-1.419288665056228638e-01,2.211980968713760376e-01,-8.093009889125823975e-02,1.258691847324371338e-01,-7.585617713630199432e-03,1.133764758706092834e-01,2.638858258724212646e-01,-3.135042488574981689e-01,8.922309428453445435e-02,2.159302532672882080e-01,8.835931867361068726e-02,1.047064438462257385e-01,-1.146308556199073792e-01,-9.701724350452423096e-02,2.872561216354370117e-01,7.911884039640426636e-02,2.328918576240539551e-01,1.270583420991897583e-01,5.645910277962684631e-02,1.461848914623260498e-01,1.393713057041168213e-01,-2.229555696249008179e-01,1.213317885994911194e-01,-7.550638169050216675e-02,1.646669954061508179e-01,-1.600475758314132690e-01,1.296093016862869263e-01,7.351951301097869873e-02,2.271493971347808838e-01,7.138287276029586792e-02,4.825177602469921112e-03,1.784040927886962891e-01,1.895479857921600342e-01,-1.488411575555801392e-01,-2.440761476755142212e-01,-2.225357145071029663e-01,-6.991393119096755981e-02,-9.874840825796127319e-02,-2.149252966046333313e-02
6.875038146972656250e-02,-7.154238410294055939e-03,7.637923210859298706e-02,-1.263735163956880569e-02,-2.714940905570983887e-01,-4.298804327845573425e-02,-1.901557445526123047e-01,8.553136140108108521e-02,-1.002472266554832458e-01,-6.607890874147415161e-02,1.967927208170294762e-03,1.802698075771331787e-01,-1.414051800966262817e-01,-1.068272143602371216e-01,-1.024504452943801880e-01,-5.186513811349868774e-02,-1.035714596509933472e-01,-4.847766086459159851e-02,-9.397110342979431152e-02,-8.347268402576446533e-02,2.956858091056346893e-02,-5.742989853024482727e-02,-2.084862887859344482e-01,1.382756233215332031e-01,-9.048611670732498169e-02,2.087233122438192368e-03,2.997076511383056641e-01,1.466780751943588257e-01,8.080150187015533447e-02,3.296339511871337891e-01,-1.758382767438888550e-01,-3.081818483769893646e-02,5.428170412778854370e-02,1.090064719319343567e-01,-5.081583559513092041e-02,-2.982351779937744141e-01,2.072495967149734497e-02,1.804941296577453613e-01,-1.538629233837127686e-01,-2.866274416446685791e-01,1.520774960517883301e-01,1.724596917629241943e-01,2.937375195324420929e-02,1.399492770433425903e-01,-5.753043666481971741e-02,1.562473326921463013e-01,2.088264375925064087e-02,-1.961714029312133789e-01,-1.617482155561447144e-01,-1.097996309399604797e-01
2.293094992637634277e-02,-3.104567229747772217e-01,-2.965007126331329346e-01,3.427786231040954590e-01,1.079666167497634888e-01,1.852288842201232910e-01,1.036056205630302429e-01,1.106813549995422363e-01,1.043975874781608582e-01,-7.821746170520782471e-02,-1.483141332864761353e-01,1.164941638708114624e-01,-4.320987686514854431e-02,2.980245351791381836e-01,-6.762078404426574707e-02,-1.828829646110534668e-01,2.153871580958366394e-02,-1.515248119831085205e-01,1.855174265801906586e-02,-3.014888800680637360e-02,2.107219696044921875e-01,-1.323911398649215698e-01,-2.495827078819274902e-01,1.979349404573440552e-01,-4.711380228400230408e-02,-2.541608512401580811e-01,1.749031990766525269e-02,-1.005294024944305420e-01,-1.841933280229568481e-01,-5.874474719166755676e-02,5.577525496482849121e-02,2.078691273927688599e-01,1.520646363496780396e-01,-2.103394269943237305e-02,-8.486898243427276611e-02,1.491427868604660034e-01,-6.993510574102401733e-02,1.111433953046798706e-01,3.242882341146469116e-02,2.014657557010650635e-01,-3.089224696159362793e-01,-7.836245000362396240e-03,-4.168093204498291016e-02,1.340922564268112183e-01,2.462724037468433380e-02,2.065797569230198860e-03,2.179327458143234253e-01,1.185058280825614929e-01,1.849708259105682373e-01,-1.218069493770599365e-01
-1.366503387689590454e-01,-9.645961970090866089e-02,-6.166305020451545715e-02,8.609479665756225586e-02,7.163035869598388672e-02,-9.803188592195510864e-02,-9.774946421384811401e-02,1.769852638244628906e-01,-3.150144591927528381e-02,3.085372969508171082e-02,-1.569864153861999512e-01,1.647102087736129761e-01,3.884634748101234436e-02,-3.684653341770172119e-02,3.168941736221313477e-01,-1.851237863302230835e-01,-1.004702411592006683e-03,-1.336593329906463623e-01,5.348186194896697998e-02,1.416242420673370361e-01,-5.255041643977165222e-02,6.578638404607772827e-02,-3.714573103934526443e-04,-6.683369725942611694e-02,1.177702918648719788e-01,5.311889201402664185e-02,-8.077377825975418091e-02,-2.758486866950988770e-01,4.299945756793022156e-02,-3.248529136180877686e-02,-1.089661717414855957e-01,2.417852580547332764e-01,-1.333507001399993896e-01,2.537349760532379150e-01,1.342545151710510254e-01,2.374167293310165405e-01,-6.989716738462448120e-02,-9.119172580540180206e-03,8.760651573538780212e-03,-2.443835325539112091e-02,9.414705634117126465e-02,-4.611300677061080933e-02,-5.651077721267938614e-03,1.523240804672241211e-01,5.215077474713325500e-02,1.244695335626602173e-01,-1.370526105165481567e-01,2.021009474992752075e-02,-1.444727778434753418e-01,1.641040891408920288e-01
1.374311298131942749e-01,1.251818835735321045e-01,1.253261864185333252e-01,1.257721334695816040e-01,2.264584228396415710e-02,1.578103564679622650e-02,1.476315408945083618e-01,-2.264817059040069580e-01,-1.189053282141685486e-01,2.079945802688598633e-01,3.017947636544704437e-02,1.687930524349212646e-02,1.012347266077995300e-02,1.716032810509204865e-02,1.655716300010681152e-01,1.756563931703567505e-01,-2.045426517724990845e-01,1.144244298338890076e-01,7.665097713470458984e-02,2.214069217443466187e-01,3.153952956199645996e-02,2.305464446544647217e-01,-1.278388351202011108e-01,-1.255218833684921265e-01,-5.415350198745727539e-02,4.670022055506706238e-02,9.386813640594482422e-02,1.074056550860404968e-01,-1.584856659173965454e-01,-7.839712500572204590e-02,7.596030831336975098e-02,-8.609548956155776978e-02,-1.719140857458114624e-01,-3.224287927150726318e-02,-2.066166326403617859e-02,-6.757424026727676392e-02,-7.690170407295227051e-02,1.864545792341232300e-01,-1.472877115011215210e-01,1.357462629675865173e-02,2.990044355392456055e-01,1.599823683500289917e-01,-5.364205688238143921e-02,3.591303154826164246e-02,-1.720235645771026611e-01,-1.425535418093204498e-02,-1.833093464374542236e-01,-1.095162611454725266e-02,1.269068866968154907e-01,9.121924638748168945e-03
-2.883175611495971680e-01,-1.138466000556945801e-01,1.342636942863464355e-01,-2.134566605091094971e-01,1.332277357578277588e-01,-3.975914791226387024e-02,9.162707626819610596e-02,8.920869976282119751e-02,-5.776855722069740295e-02,-5.885414034128189087e-02,-2.762902677059173584e-01,1.192465350031852722e-01,-2.623555660247802734e-01,1.214450448751449585e-01,-1.739815175533294678e-01,1.801901608705520630e-01,9.470722824335098267e-02,-7.349328696727752686e-02,1.707384884357452393e-01,1.837517917156219482e-01,-7.262045051902532578e-03,-2.752161324024200439e-01,4.832569882273674011e-02,2.736602127552032471e-01,-1.110484302043914795e-01,-3.097075521945953369e-01,-8.125609718263149261e-03,6.389169394969940186e-02,-1.023424137383699417e-02,2.263167202472686768e-01,-1.084325388073921204e-01,-3.922109026461839676e-03,1.933657675981521606e-01,-1.496601849794387817e-01,-2.243645787239074707e-01,-1.253964006900787354e-01,-1.099642962217330933e-01,2.766924500465393066e-01,-1.915036588907241821e-01,6.993441283702850342e-02,4.052722081542015076e-02,8.721649646759033203e-02,-2.123152613639831543e-01,-1.786240786314010620e-01,-1.229136809706687927e-01,1.277377009391784668e-01,-1.379737406969070435e-01,8.887189626693725586e-02,-1.705676913261413574e-01,-2.162279933691024780e-01
-1.286278218030929565e-01,4.292675852775573730e-02,-2.137517482042312622e-01,-4.808938503265380859e-02,-1.119008585810661316e-01,8.463671803474426270e-02,1.143157035112380981e-01,3.801411762833595276e-02,-1.321087628602981567e-01,1.140542104840278625e-01,1.688798516988754272e-01,-7.710947841405868530e-02,1.367749124765396118e-01,-1.051031276583671570e-01,-9.660930186510086060e-02,8.446740917861461639e-03,-1.184434518218040466e-01,1.256569921970367432e-01,-1.664805114269256592e-01,1.239185333251953125e-01,2.007588595151901245e-01,-2.022626549005508423e-01,1.549858748912811279e-01,6.080342456698417664e-02,-9.518110007047653198e-02,1.198456585407257080e-01,-2.240745723247528076e-01,1.514401584863662720e-01,4.886491969227790833e-02,1.293226778507232666e-01,-4.980337247252464294e-02,-6.218338757753372192e-02,8.143411576747894287e-02,-1.035987138748168945e-01,4.024989157915115356e-02,4.115995392203330994e-02,5.445382744073867798e-02,-1.027616336941719055e-01,-1.311362683773040771e-01,-2.107358276844024658e-01,9.759330004453659058e-02,8.275355398654937744e-02,-6.041101738810539246e-02,3.921171650290489197e-02,6.550601869821548462e-02,1.319283843040466309e-01,2.457084506750106812e-01,-4.331946745514869690e-02,-1.700627058744430542e-02,-6.466265767812728882e-02
6.518954783678054810e-02,5.963082239031791687e-02,-1.501670032739639282e-01,-3.976732492446899414e-02,-5.664944648742675781e-02,-8.533786982297897339e-02,1.172919943928718567e-02,-3.133442252874374390e-02,1.221938878297805786e-01,-1.271027922630310059e-01,-6.968016922473907471e-02,-1.845402419567108154e-01,7.597694545984268188e-02,-2.470110654830932617e-01,-1.645606160163879395e-01,7.086572051048278809e-02,1.303909868001937866e-01,-2.138556167483329773e-02,-3.066393546760082245e-02,2.208445966243743896e-01,1.312919706106185913e-01,7.278299890458583832e-03,5.301305558532476425e-03,-4.447144456207752228e-03,-2.670735716819763184e-01,-2.008066885173320770e-02,-2.165088226320222020e-04,-6.451442092657089233e-02,9.375412948429584503e-03,-1.792058907449245453e-02,-1.076006051152944565e-02,1.253321021795272827e-01,2.419869005680084229e-01,-8.799139410257339478e-03,4.059267938137054443e-01,-1.699531972408294678e-01,-3.170702755451202393e-01,-1.776057854294776917e-02,-1.261080056428909302e-01,-6.003852561116218567e-02,1.000005602836608887e-01,1.484968066215515137e-01,-1.033269762992858887e-01,-1.873420737683773041e-02,7.841249555349349976e-02,-1.464768778532743454e-03,7.952077686786651611e-02,-1.455227136611938477e-01,1.067050918936729431e-01,-6.231478974223136902e-02
-1.235752925276756287e-01,-9.655745327472686768e-02,-8.221274614334106445e-02,1.455785930156707764e-01,2.186366468667984009e-01,-9.281156212091445923e-02,-1.223331838846206665e-01,1.260080784559249878e-01,-1.306442767381668091e-01,-2.013779133558273315e-01,-2.762954495847225189e-02,-2.223782092332839966e-01,-1.184466555714607239e-01,4.519846290349960327e-02,-1.221995707601308823e-02,-1.965858489274978638e-01,-1.709722727537155151e-01,1.404818892478942871e-01,8.878830075263977051e-02,-2.716461382806301117e-02,-1.530108600854873657e-01,2.539904713630676270e-01,8.871739357709884644e-02,1.312797218561172485e-01,-9.312226623296737671e-02,1.288411915302276611e-01,1.610285229980945587e-02,-1.544785797595977783e-01,2.160182297229766846e-01,-1.128205358982086182e-01,1.928023844957351685e-01,9.368114918470382690e-02,-6.936483085155487061e-02,1.928229182958602905e-01,-1.532234549522399902e-01,-6.618607044219970703e-02,1.626349240541458130e-01,-2.556729912757873535e-01,1.444563418626785278e-01,-2.041417211294174194e-01,-2.651150822639465332e-01,-1.204727068543434143e-01,1.206358242779970169e-02,1.041301339864730835e-01,-1.640742830932140350e-02,-1.536024957895278931e-01,6.870549917221069336e-02,9.443006664514541626e-02,1.993900077650323510e-04,-6.615701131522655487e-03
-4.123648256063461304e-02,-7.524929195642471313e-02,-1.361813545227050781e-01,-3.506640717387199402e-02,4.532797727733850479e-03,1.854890286922454834e-01,3.724330291152000427e-02,1.573938578367233276e-01,-1.729007065296173096e-01,2.637262046337127686e-01,3.915971890091896057e-02,2.329165041446685791e-01,-2.416795939207077026e-01,-1.432927250862121582e-01,2.552653476595878601e-02,2.654163166880607605e-02,-1.914704293012619019e-01,2.142366170883178711e-01,1.423704773187637329e-01,1.404052376747131348e-01,1.651266962289810181e-01,-1.359392404556274414e-01,1.951072216033935547e-01,7.465699315071105957e-02,-2.640955150127410889e-02,1.635356098413467407e-01,-7.039888203144073486e-02,-4.512756690382957458e-02,-2.111188881099224091e-02,1.268384326249361038e-02,-1.764175742864608765e-01,1.812205612659454346e-01,-1.856656968593597412e-01,1.105403676629066467e-01,-3.915391117334365845e-02,-4.468019679188728333e-02,-1.759687215089797974e-01,3.085188753902912140e-02,-2.139192819595336914e-02,-5.289176478981971741e-02,1.014076322317123413e-01,-1.705825626850128174e-01,-1.066850721836090088e-01,7.648241519927978516e-02,8.750107884407043457e-02,-1.227782368659973145e-01,2.544413805007934570e-01,2.341622859239578247e-02,-1.525344848632812500e-01,-1.498689055442810059e-01
-3.117251694202423096e-01,1.384461373090744019e-01,-7.846848666667938232e-02,-7.710228860378265381e-02,3.370212763547897339e-02,1.309534013271331787e-01,-9.615004062652587891e-02,-1.627608984708786011e-01,-1.035126596689224243e-01,1.271762549877166748e-01,-3.035700917243957520e-01,7.901394367218017578e-02,-5.338824354112148285e-03,3.724859282374382019e-02,1.856861859560012817e-01,2.842709235846996307e-02,1.300245821475982666e-01,-5.380109325051307678e-02,-2.360710408538579941e-03,-6.481142342090606689e-02,1.863376796245574951e-01,5.250782892107963562e-02,-1.850248724222183228e-01,1.136997267603874207e-01,-2.751454114913940430e-01,1.186164319515228271e-01,-1.792906224727630615e-01,1.071907654404640198e-01,-1.366191208362579346e-01,-1.216777712106704712e-01,-1.395476609468460083e-01,-4.609142988920211792e-02,2.034961432218551636e-01,-2.234846949577331543e-01,1.447415500879287720e-01,-7.044293731451034546e-02,-1.340132951736450195e-01,-2.224285006523132324e-01,4.735814034938812256e-02,-3.516319021582603455e-02,-3.026714362204074860e-02,2.002410031855106354e-02,-1.895334571599960327e-01,-9.810137003660202026e-02,-1.841812431812286377e-01,-2.650622725486755371e-01,-1.317501962184906006e-01,1.607360690832138062e-01,1.689741015434265137e-01,5.090560019016265869e-02
9.123662859201431274e-02,5.761021003127098083e-02,5.270994454622268677e-02,1.126452013850212097e-01,2.808489836752414703e-02,-7.332613226026296616e-03,-2.720957435667514801e-02,1.312526464462280273e-01,-9.465432912111282349e-02,-2.445912212133407593e-01,1.595515757799148560e-01,1.756039708852767944e-01,1.657404750585556030e-01,-1.398096680641174316e-01,8.613450080156326294e-02,8.110821247100830078e-02,1.654840707778930664e-01,-5.038661882281303406e-02,-1.814981848001480103e-01,1.084908396005630493e-01,-9.354729205369949341e-02,7.254650443792343140e-02,7.478218525648117065e-02,-1.498476862907409668e-01,5.729594267904758453e-03,-9.919966757297515869e-02,1.474580615758895874e-01,-3.052159398794174194e-02,8.295591175556182861e-02,-1.706402190029621124e-02,-1.323144882917404175e-01,-2.978158928453922272e-02,-1.505446135997772217e-01,1.798763871192932129e-02,-6.547132134437561035e-02,1.205661818385124207e-01,-5.174331367015838623e-02,-7.535438984632492065e-03,-3.382162377238273621e-02,1.920395344495773315e-01,4.498599097132682800e-02,1.646899431943893433e-01,4.347085952758789062e-02,8.682231605052947998e-02,-1.598250418901443481e-01,-2.826118469238281250e-02,-3.929628059267997742e-02,7.253736257553100586e-02,-5.409738048911094666e-02,-3.191484883427619934e-02
-1.314037442207336426e-01,-7.183270901441574097e-02,-4.705355316400527954e-02,-2.952747344970703125e-01,5.175611376762390137e-02,1.405469179153442383e-01,1.607596427202224731e-01,1.344929039478302002e-01,-9.405581653118133545e-02,-3.601613268256187439e-02,-1.237607374787330627e-01,4.703202843666076660e-02,9.316813945770263672e-02,-5.247141420841217041e-02,1.742344051599502563e-01,-1.511862426996231079e-01,-1.101710498332977295e-01,5.493109300732612610e-02,-1.614792644977569580e-02,-1.712794005870819092e-01,2.163072526454925537e-01,4.594476893544197083e-02,1.557873934507369995e-01,-4.578812792897224426e-02,5.456573888659477234e-02,9.732919931411743164e-02,2.719736397266387939e-01,2.150827646255493164e-02,-3.282538801431655884e-02,2.351503670215606689e-01,-2.445429563522338867e-01,1.730208098888397217e-01,3.358013331890106201e-01,-3.549089282751083374e-02,-1.193570345640182495e-01,2.808685898780822754e-01,-8.339910954236984253e-02,1.848535239696502686e-02,2.459248341619968414e-02,-1.633769124746322632e-01,-1.660302467644214630e-02,-1.254038661718368530e-01,-8.329738676548004150e-02,1.406238824129104614e-01,7.499753683805465698e-02,-1.401017606258392334e-01,-1.302499622106552124e-01,1.502764821052551270e-01,6.522034853696823120e-02,1.926732957363128662e-01
2.000515013933181763e-01,1.115584839135408401e-02,1.117192953824996948e-01,-1.076633557677268982e-01,1.173912361264228821e-01,-3.416799008846282959e-02,9.786612540483474731e-02,-7.956879585981369019e-02,2.140674591064453125e-01,1.029952391982078552e-01,-1.481623500585556030e-01,-1.681503951549530029e-01,6.449256837368011475e-02,-1.951129585504531860e-01,-1.900559216737747192e-01,1.607015579938888550e-01,-9.496284276247024536e-02,9.009280800819396973e-02,3.856201190501451492e-03,1.710174679756164551e-01,1.702119410037994385e-01,1.310260146856307983e-01,1.494207978248596191e-01,1.133570596575737000e-01,1.264869123697280884e-01,2.931965515017509460e-02,1.751876771450042725e-01,1.917423307895660400e-01,1.611519753932952881e-01,7.503892760723829269e-03,1.350064277648925781e-01,-1.716810017824172974e-01,5.612548068165779114e-02,8.847510442137718201e-03,-1.693132817745208740e-01,4.071861132979393005e-02,-1.088126301765441895e-01,-4.341262951493263245e-02,2.575570642948150635e-01,1.495434492826461792e-01,-1.050946861505508423e-01,1.358201354742050171e-01,6.355156004428863525e-02,-4.393281415104866028e-03,-2.069983482360839844e-01,-9.463258087635040283e-02,-1.939360946416854858e-01,5.764999613165855408e-02,1.561298873275518417e-02,1.616871803998947144e-01
2.390992045402526855e-01,1.207846552133560181e-01,2.163573950529098511e-01,-3.615698590874671936e-02,-4.119682684540748596e-02,1.409023851156234741e-01,-7.208096981048583984e-02,-2.003544718027114868e-01,1.634675562381744385e-01,-1.547336280345916748e-01,-1.327022910118103027e-01,-1.556238085031509399e-01,8.803496509790420532e-02,-1.982852583751082420e-03,-5.399178713560104370e-02,-1.160506978631019592e-01,2.270750701427459717e-01,2.262669950723648071e-01,2.669141255319118500e-02,2.134782969951629639e-01,-1.153113767504692078e-01,2.295954227447509766e-01,-7.804508507251739502e-02,4.778691008687019348e-02,1.275581717491149902e-01,2.575916051864624023e-01,1.585128009319305420e-01,7.835505902767181396e-02,8.669782429933547974e-02,9.543720632791519165e-02,1.350470036268234253e-01,-2.700879871845245361e-01,-3.521364033222198486e-01,4.378365725278854370e-02,-1.026071831583976746e-01,-3.369327485561370850e-01,9.376973658800125122e-02,3.086657226085662842e-01,-9.115890413522720337e-02,-1.266520172357559204e-01,-9.260988235473632812e-02,-8.648642897605895996e-02,8.879367262125015259e-02,2.642203569412231445e-01,3.266851305961608887e-01,4.606681689620018005e-02,-2.065223306417465210e-01,-2.280990406870841980e-02,2.323349192738533020e-02,2.745920717716217041e-01
1.328702718019485474e-01,-1.252604182809591293e-02,-3.091726824641227722e-02,2.755732238292694092e-01,-1.932237297296524048e-02,-2.739009857177734375e-01,1.155811622738838196e-01,1.998765021562576294e-01,8.027290552854537964e-02,-4.209863394498825073e-02,-1.644834727048873901e-01,2.390930652618408203e-01,1.455731093883514404e-01,-2.668112702667713165e-02,-3.520077839493751526e-02,-2.400081977248191833e-02,1.660034060478210449e-01,1.488757878541946411e-01,-1.031199172139167786e-01,-2.068295329809188843e-01,1.243069767951965332e-01,-1.603201329708099365e-01,-9.083102643489837646e-02,-1.773256361484527588e-01,2.527861595153808594e-01,-2.479278445243835449e-01,1.641656458377838135e-01,-7.834759354591369629e-02,-3.559366241097450256e-02,-2.077486068010330200e-01,1.520074158906936646e-01,-6.722544878721237183e-02,-1.246954873204231262e-01,-2.521851956844329834e-01,1.804627627134323120e-01,2.552653253078460693e-01,-1.775058917701244354e-02,9.463996440172195435e-02,7.482564542442560196e-03,4.112529009580612183e-02,-1.529916077852249146e-01,1.883510798215866089e-01,-2.712671756744384766e-01,1.797703355550765991e-01,-1.839894801378250122e-01,-1.204739138484001160e-02,1.574007607996463776e-02,7.330442219972610474e-02,-2.173002958297729492e-01,-2.753546833992004395e-02
1.513705253601074219e-01,-5.749657005071640015e-02,-5.979607254266738892e-02,1.191368848085403442e-01,-6.135845556855201721e-02,-1.650469750165939331e-02,-8.033491671085357666e-02,1.190195232629776001e-01,-5.963932722806930542e-02,-3.036223538219928741e-02,-1.006785631179809570e-01,-3.701768070459365845e-02,6.411805003881454468e-02,-5.739330500364303589e-02,-1.396455913782119751e-01,1.326479613780975342e-01,6.844844901934266090e-04,2.440778166055679321e-02,-1.596734821796417236e-01,-6.544171273708343506e-02,8.964924514293670654e-02,-3.558012098073959351e-02,9.967598319053649902e-02,2.732249796390533447e-01,1.614134907722473145e-01,-1.249291524291038513e-01,9.990710020065307617e-02,7.502591609954833984e-02,-4.280477762222290039e-02,4.171442240476608276e-02,-4.069835320115089417e-02,-2.269091457128524780e-01,1.506837904453277588e-01,1.654927432537078857e-01,1.775109171867370605e-01,6.386694312095642090e-02,-2.848882079124450684e-01,1.338156610727310181e-01,1.547374278306961060e-01,3.836616128683090210e-02,-8.732363581657409668e-02,1.008680537343025208e-01,8.269093930721282959e-03,9.026490896940231323e-02,8.129760622978210449e-02,2.704008519649505615e-01,2.612962424755096436e-01,1.460564583539962769e-01,1.587217450141906738e-01,-6.583306938409805298e-02
3.415829315781593323e-02,1.989044398069381714e-01,-1.078367605805397034e-01,4.802797734737396240e-02,3.098679333925247192e-02,-2.923395670950412750e-02,-1.304413378238677979e-02,1.467889845371246338e-01,-1.252273619174957275e-01,7.612040266394615173e-03,-2.419248372316360474e-01,6.384167075157165527e-02,1.088184043765068054e-01,1.658480465412139893e-01,-5.515490658581256866e-03,-3.933258727192878723e-02,1.497723609209060669e-01,-1.410004347562789917e-01,-1.265274584293365479e-01,-1.262748539447784424e-01,1.355091184377670288e-01,-1.278775036334991455e-01,2.176610976457595825e-01,-7.604226004332304001e-03,-7.683555781841278076e-02,2.855436801910400391e-01,6.538081169128417969e-02,-1.113983392715454102e-01,-1.959043554961681366e-02,2.037574350833892822e-01,1.414973139762878418e-01,-7.022275030612945557e-02,7.812007516622543335e-02,1.591537296772003174e-01,1.273189932107925415e-01,8.305499702692031860e-02,2.201419025659561157e-01,-1.420701891183853149e-01,-8.592704683542251587e-02,2.224741429090499878e-01,2.143308371305465698e-01,1.329026371240615845e-01,1.573106944561004639e-01,8.558955788612365723e-02,-5.570461228489875793e-02,2.091408371925354004e-01,-1.853279322385787964e-01,-4.041451960802078247e-02,1.065223366022109985e-01,-3.223034739494323730e-02
4.196513909846544266e-03,-1.176362037658691406e-01,-6.118280068039894104e-02,7.792300730943679810e-02,-6.348416954278945923e-02,-2.335868589580059052e-02,2.201263159513473511e-01,4.315607293392531574e-05,1.234966367483139038e-01,-2.354716658592224121e-01,-1.123336553573608398e-01,8.852823823690414429e-02,1.163736358284950256e-01,-2.710480429232120514e-02,2.102378606796264648e-01,4.209610819816589355e-02,1.699916422367095947e-01,4.736075922846794128e-02,2.455939948558807373e-01,1.668974012136459351e-01,2.667664289474487305e-01,1.505186408758163452e-01,3.623818978667259216e-02,-2.153945863246917725e-01,1.740946806967258453e-02,1.041337549686431885e-01,4.479425400495529175e-02,9.334705024957656860e-02,7.179928570985794067e-02,1.255938261747360229e-01,9.825396537780761719e-02,-1.472099572420120239e-01,9.098678082227706909e-02,7.699754089117050171e-02,-1.962974108755588531e-02,-1.211893409490585327e-01,-3.283994272351264954e-02,-3.447648286819458008e-01,-2.015177905559539795e-01,4.428636282682418823e-02,-9.010735899209976196e-02,1.302796304225921631e-01,2.444426268339157104e-01,7.089088857173919678e-02,-8.916203677654266357e-02,-2.893660031259059906e-02,5.645928904414176941e-03,1.119044870138168335e-01,-9.170482307672500610e-02,2.641839385032653809e-01
1.525795012712478638e-01,-2.466268837451934814e-02,-1.717977970838546753e-02,-2.401922196149826050e-01,5.485511943697929382e-02,1.234535686671733856e-02,2.944768220186233521e-02,-2.115240842103958130e-01,-2.508363313972949982e-02,1.589325666427612305e-01,2.962059676647186279e-01,-1.017889305949211121e-01,-9.162277914583683014e-03,1.343915313482284546e-01,-2.545567043125629425e-02,1.730688959360122681e-01,-3.892253711819648743e-02,2.138638347387313843e-01,1.699125915765762329e-01,1.159305498003959656e-01,-2.074415981769561768e-01,1.349174529314041138e-01,2.172296196222305298e-01,4.561309143900871277e-02,5.058976821601390839e-04,2.649862878024578094e-02,-3.276581317186355591e-02,-9.632359445095062256e-02,-2.583218812942504883e-01,-1.860396750271320343e-02,-1.950250193476676941e-02,-9.755545109510421753e-02,-1.999664902687072754e-01,1.924141496419906616e-01,-1.179825738072395325e-01,1.223376691341400146e-01,-3.824586048722267151e-02,-3.675872832536697388e-02,5.678139254450798035e-02,-7.280933856964111328e-02,-1.243060231208801270e-01,2.516638040542602539e-01,7.752519845962524414e-02,6.117237731814384460e-03,-4.180259071290493011e-03,2.366891354322433472e-01,-8.351282030344009399e-02,-9.964588284492492676e-02,-7.894393056631088257e-02,-1.864975988864898682e-01
8.109883964061737061e-02,-1.160197034478187561e-01,1.591713279485702515e-01,2.160049080848693848e-01,1.016211137175559998e-01,-9.465968608856201172e-02,1.543813794851303101e-01,-1.530231237411499023e-01,-9.714858233928680420e-02,3.442095592617988586e-02,1.658818423748016357e-01,1.181901171803474426e-01,1.638719290494918823e-01,1.001843288540840149e-01,-2.457432597875595093e-01,5.152639001607894897e-02,9.862363338470458984e-03,1.438844501972198486e-01,6.532014161348342896e-02,1.296356022357940674e-01,-3.096620738506317139e-02,2.656311392784118652e-01,9.009052813053131104e-02,-9.086011350154876709e-02,2.276118397712707520e-01,-1.366358697414398193e-01,3.447125256061553955e-01,9.705553948879241943e-02,1.072249710559844971e-01,-1.786789149045944214e-01,5.234813690185546875e-02,-2.036612182855606079e-01,-1.007378846406936646e-01,-4.703963920474052429e-02,1.172249391674995422e-01,7.318002730607986450e-02,2.328113466501235962e-01,-1.057944372296333313e-01,2.291346788406372070e-01,2.205799221992492676e-01,-7.492098957300186157e-02,-2.311335951089859009e-01,2.617689967155456543e-01,1.202170774340629578e-01,-1.296245902776718140e-01,9.320744872093200684e-02,-3.540882170200347900e-01,2.897263318300247192e-02,-6.917347759008407593e-02,1.342398524284362793e-01
-8.399483561515808105e-02,1.920350044965744019e-01,1.827719211578369141e-01,-2.784372568130493164e-01,-1.357205957174301147e-01,7.174517959356307983e-02,2.122759632766246796e-02,-1.672959029674530029e-01,8.276344090700149536e-02,-1.138077080249786377e-01,-1.413823068141937256e-01,2.885136902332305908e-01,-1.890773028135299683e-01,1.076234802603721619e-01,9.044227749109268188e-02,1.762133538722991943e-01,-5.663874372839927673e-02,-8.449137210845947266e-02,-1.655943095684051514e-01,-6.074943765997886658e-02,-3.634826838970184326e-02,-1.531284302473068237e-01,2.193919122219085693e-01,7.884139567613601685e-02,1.494309306144714355e-01,-2.375946193933486938e-01,-4.555587843060493469e-02,9.436944872140884399e-02,-8.625050634145736694e-02,7.699124515056610107e-02,-2.943178117275238037e-01,-1.617892235517501831e-01,-1.320227533578872681e-01,1.264943927526473999e-01,-3.177840113639831543e-01,-3.221838176250457764e-02,2.789870202541351318e-01,1.780082657933235168e-02,5.349500477313995361e-02,-6.213122606277465820e-02,-1.326788514852523804e-01,-1.545986384153366089e-01,1.008860319852828979e-01,5.354730039834976196e-02,-2.123394310474395752e-01,-1.879894584417343140e-01,-2.289343252778053284e-02,4.266829043626785278e-02,9.673681855201721191e-02,1.822005212306976318e-01
1.616005897521972656e-01,1.782074868679046631e-01,1.860961914062500000e-01,-1.137009859085083008e-01,1.495223790407180786e-01,-1.261676952708512545e-04,-4.660278558731079102e-02,-1.004878729581832886e-01,1.191238523460924625e-03,-1.735294014215469360e-01,-1.232692226767539978e-01,-5.623595416545867920e-02,-7.101527601480484009e-02,1.852093636989593506e-01,-2.286885976791381836e-01,-1.141154021024703979e-01,1.842011660337448120e-01,-4.408743977546691895e-02,-2.613965980708599091e-02,-2.867883443832397461e-02,-4.157950356602668762e-02,-1.271382868289947510e-01,2.607151865959167480e-01,-3.694509565830230713e-01,5.166134797036647797e-04,2.056144736707210541e-02,8.763653039932250977e-02,1.780926138162612915e-01,6.915053725242614746e-02,1.040325313806533813e-01,-1.037754341959953308e-01,-2.113346755504608154e-02,1.364171952009201050e-01,1.632383465766906738e-02,3.154737353324890137e-01,-2.926208451390266418e-02,-7.350162416696548462e-02,4.076102748513221741e-02,1.230085566639900208e-01,-1.405431032180786133e-01,-1.118145138025283813e-02,-7.568050920963287354e-02,-8.848323673009872437e-02,1.161270439624786377e-01,-6.128169596195220947e-03,7.868602126836776733e-02,1.884924620389938354e-01,5.655252933502197266e-02,-1.802119910717010498e-01,3.787386417388916016e-02
-2.043780498206615448e-02,-5.732006952166557312e-02,1.559154093265533447e-01,2.457616925239562988e-01,6.736446917057037354e-02,-1.262828856706619263e-01,1.759553998708724976e-01,-3.314238786697387695e-02,-3.693244978785514832e-02,-2.270733267068862915e-01,3.491951897740364075e-02,-1.167250722646713257e-01,-2.052574157714843750e-01,-1.883387565612792969e-02,6.029173359274864197e-02,-2.490988001227378845e-02,5.021935701370239258e-02,-6.307123601436614990e-02,1.837904304265975952e-01,1.772483736276626587e-01,2.352299094200134277e-01,-2.314062565565109253e-01,2.036172151565551758e-01,2.572503089904785156e-01,-1.531043797731399536e-01,1.657178848981857300e-01,1.270084232091903687e-01,-1.405440364032983780e-02,1.710883080959320068e-01,1.461299508810043335e-01,8.310265839099884033e-02,1.057984679937362671e-01,1.369547098875045776e-01,5.904062092304229736e-02,2.209373116493225098e-01,2.945513725280761719e-01,-1.762985587120056152e-01,-3.547253459692001343e-02,5.700030550360679626e-02,6.138394773006439209e-02,1.571945250034332275e-01,-3.381336340680718422e-03,1.542141586542129517e-01,6.836837530136108398e-02,1.216140389442443848e-01,-6.547222286462783813e-02,-1.141707375645637512e-01,9.735529124736785889e-02,1.259220838546752930e-01,-1.569521427154541016e-01
-1.852708160877227783e-01,-1.141574382781982422e-01,1.324612051248550415e-01,-8.913429081439971924e-02,1.041371598839759827e-01,-5.222659185528755188e-02,-3.010928034782409668e-01,7.937022298574447632e-02,1.990857571363449097e-01,-2.069089412689208984e-01,1.587605290114879608e-02,-4.829135537147521973e-02,9.473878890275955200e-02,-1.921158134937286377e-01,4.187585785984992981e-03,5.742044001817703247e-02,-4.154080525040626526e-02,-6.272594630718231201e-02,-2.398287653923034668e-01,2.477390458807349205e-03,-6.063293665647506714e-02,-6.273150444030761719e-02,-8.354141563177108765e-02,-6.078073382377624512e-02,-1.602036058902740479e-01,-8.332937955856323242e-02,-3.415296971797943115e-01,-2.195291370153427124e-01,2.496789842844009399e-01,-2.061152905225753784e-01,-7.831980288028717041e-02,2.807337418198585510e-02,1.491724550724029541e-01,1.537574529647827148e-01,-1.487488299608230591e-01,-1.847497075796127319e-01,1.760235726833343506e-01,1.308339983224868774e-01,-3.636353015899658203e-01,2.454504966735839844e-01,-1.455517113208770752e-01,1.849030330777168274e-02,-1.813734471797943115e-01,2.579704523086547852e-01,3.602489456534385681e-02,6.602596491575241089e-02,2.087255120277404785e-01,1.124182268977165222e-01,7.909812033176422119e-03,-1.730305254459381104e-01
-1.140445917844772339e-01,8.033401519060134888e-02,-9.299270063638687134e-02,1.617881841957569122e-02,2.092362046241760254e-01,-1.197002753615379333e-01,9.805982001125812531e-03,-1.761743128299713135e-01,4.658876731991767883e-02,-1.446093022823333740e-01,-4.802035912871360779e-02,2.833242155611515045e-02,-1.406173557043075562e-01,3.828771784901618958e-02,-3.162992885336279869e-03,1.649324446916580200e-01,9.403429925441741943e-02,-1.454559117555618286e-01,-1.099942177534103394e-01,9.829991310834884644e-02,-1.221383064985275269e-01,-1.838730424642562866e-01,8.195961266756057739e-02,-2.421989291906356812e-02,1.941575109958648682e-01,1.298046410083770752e-01,2.127866894006729126e-01,-2.656215988099575043e-02,-1.455431282520294189e-01,-1.002165824174880981e-01,1.843472123146057129e-01,-1.042569428682327271e-01,-4.292869195342063904e-02,-2.893587648868560791e-01,-2.977105379104614258e-01,3.740091994404792786e-02,2.343566268682479858e-01,-5.111394077539443970e-02,7.524211704730987549e-02,8.586812019348144531e-02,1.807012478820979595e-03,7.200895994901657104e-02,-4.567648097872734070e-02,8.798884600400924683e-02,-4.766241461038589478e-02,1.476410031318664551e-01,-8.343195915222167969e-02,3.875583782792091370e-02,1.416296511888504028e-01,-2.183669209480285645e-01
-2.125238180160522461e-01,2.133903838694095612e-02,-1.497469991445541382e-01,1.318388269282877445e-03,-5.660030990839004517e-02,-1.277299672365188599e-01,7.198939472436904907e-02,3.321968484669923782e-03,-3.750112652778625488e-02,1.074893698096275330e-01,8.634239435195922852e-03,-9.363567829132080078e-02,-1.339011788368225098e-01,-1.021227017045021057e-01,1.827930510044097900e-01,1.967363655567169189e-01,-1.805606186389923096e-01,-2.099681645631790161e-01,-1.400506943464279175e-01,2.226082235574722290e-01,1.273901611566543579e-01,-1.164360493421554565e-01,1.774073839187622070e-01,-2.318088710308074951e-01,3.761413693428039551e-02,7.318317145109176636e-02,-1.419256180524826050e-01,-1.135530322790145874e-01,1.089317575097084045e-01,-8.455856144428253174e-02,-2.053759396076202393e-01,1.811344772577285767e-01,6.656577438116073608e-02,1.645485758781433105e-01,-2.608435153961181641e-01,1.063207462430000305e-01,-9.138426929712295532e-02,1.165740266442298889e-01,-1.387991905212402344e-01,-9.109401702880859375e-02,-1.833718866109848022e-01,-1.988037377595901489e-01,-3.544737398624420166e-02,8.809424191713333130e-02,8.194912225008010864e-02,-2.086983174085617065e-01,2.010169625282287598e-01,6.673968583345413208e-02,7.078492641448974609e-02,2.397074550390243530e-01
-7.005080580711364746e-02,1.058391109108924866e-01,3.730226308107376099e-02,2.486511319875717163e-02,3.436704874038696289e-01,2.139790542423725128e-02,1.936315298080444336e-01,-1.213089674711227417e-01,6.825603544712066650e-02,1.515944208949804306e-02,4.095138609409332275e-02,4.020132869482040405e-02,-1.173323914408683777e-01,-2.741300128400325775e-02,-3.384382426738739014e-01,-1.126230061054229736e-01,4.601681139320135117e-03,1.987393945455551147e-03,-1.404857635498046875e-01,-1.279401034116744995e-02,-1.098304316401481628e-01,-1.784305721521377563e-01,2.430514246225357056e-01,1.751902401447296143e-01,1.774167716503143311e-01,-5.698153004050254822e-02,-1.457771658897399902e-01,1.013124212622642517e-01,-2.754864394664764404e-01,-4.854542016983032227e-02,2.224382609128952026e-01,-5.657165870070457458e-02,-4.196411371231079102e-02,-7.057924289256334305e-03,2.552959136664867401e-02,1.116193383932113647e-01,-1.635991036891937256e-01,-6.119508296251296997e-02,-1.858678460121154785e-01,2.039514482021331787e-02,-7.704995572566986084e-02,-1.858671456575393677e-01,5.618182569742202759e-02,-1.565252542495727539e-01,8.867634087800979614e-02,2.246180921792984009e-02,-1.553432047367095947e-01,3.931554257869720459e-01,6.845824420452117920e-02,-1.381711065769195557e-01
-6.884916871786117554e-02,1.558206826448440552e-01,-1.385046243667602539e-01,8.922605216503143311e-02,3.332353755831718445e-02,-9.528275579214096069e-02,2.195661962032318115e-01,-2.244666069746017456e-01,-2.746872901916503906e-01,-5.195327103137969971e-02,-1.819976866245269775e-01,-7.922813529148697853e-05,7.000116258859634399e-02,-2.301379293203353882e-01,1.479824185371398926e-01,-8.350966870784759521e-02,-7.203930616378784180e-02,1.709242761135101318e-01,1.689582169055938721e-01,1.030529513955116272e-01,1.367859095335006714e-01,-1.469895094633102417e-01,-1.586141139268875122e-01,-7.507140189409255981e-02,-1.412276327610015869e-01,1.297917068004608154e-01,-4.662517085671424866e-02,-4.386222362518310547e-02,2.082230746746063232e-01,-2.821775153279304504e-02,3.004286997020244598e-02,-5.806548148393630981e-02,-2.394922375679016113e-01,1.784262508153915405e-01,-2.071344852447509766e-01,-3.413544595241546631e-02,4.228605329990386963e-02,-1.248856186866760254e-01,7.755115628242492676e-02,-1.082875579595565796e-01,-9.231787174940109253e-02,-1.844017393887042999e-02,3.225278854370117188e-02,2.311636321246623993e-02,-1.487211585044860840e-01,1.884038448333740234e-01,-2.843009829521179199e-01,1.265211999416351318e-01,8.017290383577346802e-02,-8.142308145761489868e-02
-1.640811860561370850e-01,-1.630620360374450684e-01,8.119580149650573730e-02,9.641957283020019531e-02,1.859655380249023438e-01,-6.031159311532974243e-02,3.822907060384750366e-02,-2.303536534309387207e-01,4.457282274961471558e-02,-1.772203296422958374e-01,2.032137708738446236e-03,1.899403333663940430e-02,1.742638796567916870e-01,1.337902098894119263e-01,2.279615849256515503e-01,5.144078284502029419e-02,8.410807698965072632e-02,1.540663689374923706e-01,-1.386838313192129135e-02,-1.088084504008293152e-01,-6.723378598690032959e-02,2.213505357503890991e-01,-1.156853958964347839e-01,-1.510782539844512939e-01,-5.117340385913848877e-02,-1.343407630920410156e-01,-9.826374053955078125e-02,1.850853115320205688e-01,-1.117026284337043762e-01,1.953582465648651123e-01,1.140545234084129333e-01,-2.171911150217056274e-01,7.980576157569885254e-02,-1.731040328741073608e-01,1.767259649932384491e-02,1.134645193815231323e-01,-1.452579051256179810e-01,-2.218245714902877808e-01,-2.081684470176696777e-01,6.600873917341232300e-02,-8.354798890650272369e-03,1.279998719692230225e-01,1.232358515262603760e-01,-2.481339275836944580e-01,-7.317762076854705811e-02,1.957270950078964233e-01,-2.515560090541839600e-01,-1.530580967664718628e-02,1.447228938341140747e-01,-6.289507448673248291e-02
-1.522759050130844116e-01,-2.034269720315933228e-01,-1.764279752969741821e-01,3.453019633889198303e-02,6.003095209598541260e-02,-9.956868737936019897e-02,-1.652588322758674622e-02,-1.221272796392440796e-01,4.276610910892486572e-02,4.644672945141792297e-02,2.149507701396942139e-01,-9.981652349233627319e-02,-7.445808500051498413e-02,1.119626238942146301e-01,9.949626773595809937e-02,-2.899631857872009277e-02,2.579572796821594238e-01,-9.564653784036636353e-02,2.041113525629043579e-01,-1.918473839759826660e-01,-1.298895627260208130e-01,8.834773302078247070e-02,-1.737747527658939362e-02,2.640859596431255341e-02,6.803191453218460083e-02,1.388577669858932495e-01,-1.634425111114978790e-02,1.141070052981376648e-01,1.031456515192985535e-01,-3.578597307205200195e-02,1.210052892565727234e-01,2.136017940938472748e-02,-5.197295546531677246e-02,1.034071147441864014e-01,6.368044018745422363e-02,-2.084620893001556396e-01,-2.282659709453582764e-01,-8.827304095029830933e-02,-7.494510710239410400e-02,1.205537393689155579e-01,-9.295871853828430176e-02,-3.357988223433494568e-02,9.040216356515884399e-02,2.397509105503559113e-02,1.783405691385269165e-01,2.192402034997940063e-01,1.508654057979583740e-01,3.216069191694259644e-03,-7.575104385614395142e-02,8.144603669643402100e-02
-1.751833707094192505e-01,5.546716973185539246e-02,1.584616899490356445e-01,1.590193212032318115e-01,-1.822846010327339172e-02,5.501049105077981949e-03,7.319632917642593384e-02,-1.628109961748123169e-01,-3.311235085129737854e-02,-1.261788010597229004e-01,-2.219345569610595703e-01,1.311439573764801025e-01,1.264177858829498291e-01,1.223645582795143127e-01,1.978648155927658081e-01,-2.091569826006889343e-02,1.854184120893478394e-01,-7.885025441646575928e-02,-2.817221283912658691e-01,1.223162114620208740e-01,-2.771169245243072510e-01,-2.406660616397857666e-01,1.509949415922164917e-01,1.510160118341445923e-01,1.344172954559326172e-01,-2.428421191871166229e-02,-2.442143261432647705e-01,-9.448707103729248047e-03,1.648101806640625000e-01,1.534922569990158081e-01,2.020964026451110840e-01,2.409863322973251343e-01,8.815369755029678345e-02,1.511937677860260010e-01,1.818322390317916870e-01,1.136705726385116577e-01,-1.193521246314048767e-01,2.079594880342483521e-01,-9.580009430646896362e-02,4.099708199501037598e-01,-1.198802292346954346e-01,-9.376371651887893677e-02,-3.405588446184992790e-03,4.226111341267824173e-03,9.388598054647445679e-02,-8.111448585987091064e-02,-9.806358069181442261e-02,-1.675974428653717041e-01,7.236563414335250854e-02,-1.173681393265724182e-01
1.750191301107406616e-01,-1.442785561084747314e-01,-4.957012087106704712e-02,-6.831364333629608154e-02,-1.419405788183212280e-01,1.190332099795341492e-01,-1.097870394587516785e-01,2.830534577369689941e-01,-2.182961553335189819e-01,1.780589073896408081e-01,7.709065079689025879e-02,-3.417667932808399200e-03,1.112936288118362427e-01,6.963700056076049805e-02,-2.277673780918121338e-02,5.533520132303237915e-02,8.776815980672836304e-02,1.857694089412689209e-01,2.402063012123107910e-01,6.433605682104825974e-03,2.063263952732086182e-01,1.106966286897659302e-01,-2.307385057210922241e-01,1.248848438262939453e-01,-1.843985766172409058e-01,-2.525429129600524902e-01,5.761840566992759705e-02,-3.372761607170104980e-02,-1.853546127676963806e-02,-8.250162750482559204e-02,-1.790953800082206726e-02,-1.453273147344589233e-01,-4.323182255029678345e-02,1.346151530742645264e-01,-2.350880056619644165e-01,1.129083335399627686e-01,1.225269585847854614e-01,-5.150286555290222168e-01,9.485046379268169403e-03,-3.525137901306152344e-02,7.991287857294082642e-02,9.123469144105911255e-02,9.244672954082489014e-02,1.652322523295879364e-02,-9.666431695222854614e-03,-1.128468364477157593e-01,-1.869329623878002167e-02,1.077624633908271790e-01,-1.435466110706329346e-01,1.907605864107608795e-02
1.921147108078002930e-01,3.540894016623497009e-02,-1.140715852379798889e-01,-1.558655947446823120e-01,-6.656722724437713623e-02,8.918571472167968750e-02,-5.633831396698951721e-02,3.862684965133666992e-02,9.828622639179229736e-02,-2.944290265440940857e-02,1.778094768524169922e-01,-6.405448913574218750e-02,1.476410031318664551e-02,-1.836172044277191162e-01,-1.907613873481750488e-01,1.491047441959381104e-01,-3.934760019183158875e-02,1.253204345703125000e-01,1.808910444378852844e-02,-1.439428031444549561e-01,-1.063983440399169922e-01,1.200793981552124023e-01,1.836763620376586914e-01,-3.919105976819992065e-02,2.195196039974689484e-02,1.530261933803558350e-01,3.264927268028259277e-01,9.640907496213912964e-02,-1.449778676033020020e-02,-9.250956028699874878e-02,2.342265397310256958e-01,-1.050443723797798157e-01,-1.289209425449371338e-01,-4.632223024964332581e-02,1.167795211076736450e-01,1.887048333883285522e-01,-1.614545136690139771e-01,3.261733427643775940e-02,4.985583946108818054e-02,-1.941907219588756561e-02,5.202273651957511902e-02,3.259991481900215149e-02,-1.778530329465866089e-01,-1.051212325692176819e-01,-1.928438544273376465e-01,1.057448163628578186e-01,1.685338839888572693e-02,-1.001922786235809326e-01,1.441575884819030762e-01,1.464949101209640503e-01
-2.180851995944976807e-01,4.130024835467338562e-02,-3.134930878877639771e-02,-1.001081988215446472e-02,2.213345915079116821e-01,2.158122211694717407e-01,9.607338905334472656e-02,1.731483638286590576e-01,7.835371792316436768e-02,1.880176812410354614e-01,-4.703701473772525787e-03,1.676894873380661011e-01,-8.746351301670074463e-02,6.322328746318817139e-02,-1.481066197156906128e-01,1.270818710327148438e-01,-1.069344505667686462e-01,-6.334507372230291367e-03,-1.189147010445594788e-01,-1.827739775180816650e-01,-1.038178950548171997e-01,9.615883976221084595e-02,-1.094108968973159790e-01,1.701864451169967651e-01,-1.848792880773544312e-01,5.197398364543914795e-03,1.361339241266250610e-01,-2.097632288932800293e-01,1.442033704370260239e-02,-8.617199957370758057e-03,-2.454608976840972900e-01,9.955881536006927490e-02,4.807895794510841370e-02,-3.865266963839530945e-02,-2.725726962089538574e-01,1.105534434318542480e-01,3.794001787900924683e-02,1.629052460193634033e-01,-4.350687190890312195e-02,3.774053230881690979e-02,-8.631551265716552734e-02,6.876739114522933960e-02,-2.396461218595504761e-01,-9.937374293804168701e-02,4.541471973061561584e-02,-9.848279505968093872e-02,-2.631551921367645264e-01,1.056728437542915344e-01,-1.682879775762557983e-01,2.188711166381835938e-01
-3.545336052775382996e-02,-3.721967712044715881e-02,2.259324193000793457e-01,-1.216074526309967041e-01,-3.484930694103240967e-01,-1.395761370658874512e-01,-1.818564347922801971e-02,1.910482197999954224e-01,-1.237930059432983398e-01,5.824849754571914673e-02,-4.532309994101524353e-02,-1.930855661630630493e-01,6.923551857471466064e-02,-3.017136156558990479e-01,3.285666927695274353e-02,1.608529835939407349e-01,1.431922465562820435e-01,1.618901193141937256e-01,-7.515922188758850098e-02,1.769791543483734131e-02,6.952270120382308960e-02,-2.164509845897555351e-03,-2.349187582731246948e-01,2.083620429039001465e-01,3.156914189457893372e-02,1.223347708582878113e-01,2.056993395090103149e-01,7.170306053012609482e-03,1.833507865667343140e-01,2.162131667137145996e-01,1.037466078996658325e-01,-6.572856754064559937e-02,1.463359743356704712e-01,-1.016736701130867004e-01,1.028480827808380127e-01,-5.912063270807266235e-02,-1.969104707241058350e-01,2.690605819225311279e-01,1.389578133821487427e-01,-1.143577042967081070e-03,9.176230430603027344e-02,1.266361679881811142e-02,-1.379098594188690186e-01,1.196772977709770203e-01,-1.132137849926948547e-01,-3.026106059551239014e-01,-1.063893660902976990e-01,9.229612350463867188e-02,1.304395645856857300e-01,-2.856076955795288086e-01
