1.549429893493652344e-01,2.630548179149627686e-02,1.336542814970016479e-01,5.360706523060798645e-02,1.572299599647521973e-01,-1.079617142677307129e-01,-2.647254988551139832e-02,-3.534664586186408997e-02,-2.625009715557098389e-01,7.144904136657714844e-02,-1.978867202997207642e-01,7.259451597929000854e-02,-3.340816125273704529e-02,-1.824177801609039307e-01,-5.696439743041992188e-02,-5.913063883781433105e-02,2.156966775655746460e-01,-5.700419098138809204e-02,-1.119185239076614380e-01,-1.903648823499679565e-01,1.523348093032836914e-01,3.400636315345764160e-01,3.062841296195983887e-02,-1.080992668867111206e-01,1.685915440320968628e-01,2.724609375000000000e-01,1.504878401756286621e-01,-1.515688002109527588e-01,-1.371112614870071411e-01,-8.942580968141555786e-02,-2.441899385303258896e-03,-5.727837234735488892e-02,-1.492471396923065186e-01,-7.511132210493087769e-02,-1.019548550248146057e-01,-1.000560149550437927e-01,-3.967500850558280945e-02,-5.296769738197326660e-02,-9.950930625200271606e-02,7.526446878910064697e-02,1.819390356540679932e-01,1.526970565319061279e-01,1.632717438042163849e-02,-3.559013828635215759e-02,-3.973570466041564941e-02,3.201106190681457520e-01,-8.383278618566691875e-04,-9.839169681072235107e-02,2.123919725418090820e-01,7.925689220428466797e-02
9.399535506963729858e-02,3.364304602146148682e-01,2.669350244104862213e-02,2.924621999263763428e-01,-7.049763947725296021e-02,-2.585564740002155304e-02,-2.413862943649291992e-01,3.927872981876134872e-03,1.643631905317306519e-01,5.677375011146068573e-03,6.663916260004043579e-02,1.664243936538696289e-01,1.260287314653396606e-01,2.422049194574356079e-01,4.825100675225257874e-02,2.456573247909545898e-01,9.206853061914443970e-02,1.392564773559570312e-01,4.297509789466857910e-02,1.618601083755493164e-01,1.056347712874412537e-01,1.235601380467414856e-01,6.201818585395812988e-02,-1.622300297021865845e-01,1.712843626737594604e-01,2.092934399843215942e-01,-1.632798463106155396e-01,-3.087358921766281128e-02,7.455666363239288330e-02,3.104608319699764252e-02,5.663206800818443298e-02,2.634437382221221924e-01,1.498734802007675171e-01,-1.489080339670181274e-01,-1.888894289731979370e-01,-6.473213434219360352e-02,-1.951225847005844116e-02,1.706319451332092285e-01,-8.209466002881526947e-03,1.858684569597244263e-01,2.199863642454147339e-02,7.445843517780303955e-02,1.124731078743934631e-01,-9.747847169637680054e-02,-1.444648299366235733e-02,-1.191724613308906555e-01,-1.453658789396286011e-01,7.572472095489501953e-02,7.985073328018188477e-02,-1.953668594360351562e-01
8.571792393922805786e-02,-9.015069901943206787e-02,-5.561885610222816467e-02,1.066964492201805115e-01,4.961406439542770386e-02,1.730224490165710449e-01,2.465503066778182983e-01,1.668401658535003662e-01,-1.021887660026550293e-01,9.365423768758773804e-02,4.754839092493057251e-02,-1.790687888860702515e-01,2.068576067686080933e-01,-2.290736287832260132e-01,1.730521321296691895e-01,-1.645820736885070801e-01,7.098016887903213501e-02,1.333428323268890381e-01,-8.916286379098892212e-02,-8.340887725353240967e-02,-1.065074279904365540e-01,1.095537170767784119e-01,1.048488095402717590e-01,-2.295951545238494873e-01,9.885923564434051514e-02,-5.053272470831871033e-03,-8.338335901498794556e-02,-2.608875930309295654e-01,-4.405586794018745422e-02,2.653817534446716309e-01,3.969497606158256531e-02,5.226325988769531250e-02,2.479859143495559692e-01,1.218531206250190735e-01,-3.939003124833106995e-02,-8.579070866107940674e-02,1.410750951617956161e-02,9.477549046277999878e-02,2.230364382266998291e-01,2.648104131221771240e-01,2.758679687976837158e-01,-1.790398508310317993e-01,5.986076965928077698e-02,-1.842787265777587891e-01,-1.359267830848693848e-01,-1.764056086540222168e-01,-1.918189376592636108e-01,-5.303363502025604248e-02,-5.612549930810928345e-02,-3.766655176877975464e-02
3.053950965404510498e-01,7.071996331214904785e-01,-1.121312472969293594e-02,-1.708699017763137817e-01,-3.161864355206489563e-02,3.734403848648071289e-02,-1.251167058944702148e-02,-1.345168799161911011e-01,7.662104815244674683e-02,4.563910886645317078e-02,-1.863758414983749390e-01,2.188894599676132202e-01,9.816845506429672241e-02,1.128331720829010010e-01,-2.652620524168014526e-02,-1.382282674312591553e-01,-9.982374310493469238e-02,-2.265607193112373352e-02,-2.161796763539314270e-02,4.454375430941581726e-02,1.137236282229423523e-01,1.600084453821182251e-01,-1.336548328399658203e-01,-5.318871513009071350e-02,1.031656563282012939e-01,6.274484843015670776e-02,-1.335947960615158081e-01,-1.058967933058738708e-01,-1.552556008100509644e-01,-9.576345235109329224e-02,2.720832228660583496e-01,-1.263923794031143188e-01,-4.527754709124565125e-02,-8.085279166698455811e-02,5.180968716740608215e-02,-1.066256687045097351e-01,2.096659839153289795e-01,-2.060399651527404785e-01,-2.474083751440048218e-02,2.818740010261535645e-01,1.822921782732009888e-01,-2.596637420356273651e-02,-2.801899053156375885e-02,-3.531541228294372559e-01,1.870620064437389374e-02,-1.070764362812042236e-01,-2.925323247909545898e-01,1.659295856952667236e-01,-1.233055442571640015e-01,-2.520461380481719971e-01
-2.188214063644409180e-01,8.581394702196121216e-02,-2.541149258613586426e-01,3.030799329280853271e-02,1.123595610260963440e-02,1.103461999446153641e-02,-2.093956172466278076e-01,-1.093000099062919617e-01,6.772524118423461914e-02,1.647509783506393433e-01,1.009104475378990173e-01,-2.733438313007354736e-01,-1.102263256907463074e-01,-1.400671005249023438e-01,6.343606114387512207e-02,1.248614639043807983e-01,1.389994621276855469e-01,-9.201237931847572327e-03,5.518507957458496094e-02,1.592051684856414795e-01,1.754746884107589722e-01,-2.028221487998962402e-01,-1.675689220428466797e-01,8.526929654181003571e-03,1.212774869054555893e-02,9.879074059426784515e-03,9.952713549137115479e-02,-2.326748818159103394e-01,-8.044137805700302124e-02,1.185577586293220520e-01,-3.934939205646514893e-02,-1.481698602437973022e-01,2.659956812858581543e-01,1.099750101566314697e-01,-1.229426711797714233e-01,-1.712622940540313721e-01,2.333004176616668701e-01,1.663477569818496704e-01,5.803917348384857178e-02,-5.157608166337013245e-02,-2.119351029396057129e-01,1.083653420209884644e-01,-2.556740939617156982e-01,-1.793233901262283325e-01,1.066185981035232544e-01,-9.299932047724723816e-03,6.174944713711738586e-02,-1.022422104142606258e-03,1.987701207399368286e-01,9.500291943550109863e-02
-1.859647184610366821e-01,1.470509171485900879e-01,-2.559716403484344482e-01,1.674170941114425659e-01,1.930341869592666626e-01,4.232881590723991394e-03,4.858375340700149536e-02,-9.186943620443344116e-02,4.483264684677124023e-02,1.703018248081207275e-01,1.040174365043640137e-01,6.522555649280548096e-02,-9.056241251528263092e-03,-1.169810816645622253e-01,4.158147796988487244e-02,-1.534698307514190674e-01,-1.253935843706130981e-01,7.350821793079376221e-02,5.650819465517997742e-02,2.783652842044830322e-01,-3.166926801204681396e-01,3.661416936665773392e-03,7.078347355127334595e-02,7.887977361679077148e-02,1.076207980513572693e-01,1.262734979391098022e-01,6.985283643007278442e-02,1.741471588611602783e-01,1.645261645317077637e-01,-2.284246496856212616e-02,1.229445189237594604e-01,-9.257429838180541992e-02,-1.055022552609443665e-01,9.403128176927566528e-02,1.640210300683975220e-02,-3.314220230095088482e-04,-1.273793727159500122e-01,1.243784949183464050e-01,-1.250307261943817139e-01,1.210437044501304626e-01,1.178086027503013611e-01,-1.585187315940856934e-01,-4.657198861241340637e-02,1.711298897862434387e-02,-2.167619913816452026e-01,9.382258355617523193e-02,-1.155393496155738831e-01,-7.229972630739212036e-02,-8.516738191246986389e-03,1.646768115460872650e-02
-3.581595420837402344e-02,4.104601442813873291e-01,9.588038921356201172e-02,7.560253608971834183e-03,1.582072079181671143e-01,-1.449594944715499878e-01,1.709608137607574463e-01,-2.245399504899978638e-01,1.273585706949234009e-01,-1.940727233886718750e-01,-6.667873263359069824e-02,1.598156690597534180e-01,-1.179646477103233337e-01,-3.738056868314743042e-02,8.044370263814926147e-02,2.528428137302398682e-01,7.139381021261215210e-02,-3.245497867465019226e-02,-6.332907825708389282e-02,-3.789329156279563904e-02,6.695646047592163086e-02,-8.284805715084075928e-02,2.403923124074935913e-01,-1.636873483657836914e-01,1.120702251791954041e-01,-2.018314003944396973e-01,2.686921879649162292e-02,5.920262634754180908e-02,-2.541341781616210938e-01,-2.064716517925262451e-01,-6.325611472129821777e-02,9.565598517656326294e-02,-1.871864944696426392e-01,-4.135302081704139709e-02,1.797798462212085724e-02,1.396287232637405396e-01,1.462982296943664551e-01,2.166339010000228882e-02,-2.251378446817398071e-02,3.587876260280609131e-02,1.665126681327819824e-01,-3.912324085831642151e-02,-1.488275378942489624e-01,2.812823951244354248e-01,-6.497028470039367676e-02,-5.669791996479034424e-02,-1.120408847928047180e-01,2.062859386205673218e-01,1.939695775508880615e-01,-1.599094569683074951e-01
6.987752020359039307e-02,4.224219322204589844e-01,6.559973210096359253e-02,5.936366692185401917e-02,1.260576099157333374e-01,-2.215151190757751465e-01,-1.673922240734100342e-01,-2.208148837089538574e-01,-2.332449853420257568e-01,3.201230987906455994e-02,-2.729968400672078133e-03,6.020873412489891052e-02,-1.789809465408325195e-01,-4.917776957154273987e-02,-4.509404301643371582e-02,7.531076669692993164e-02,-3.021011948585510254e-01,-1.277548074722290039e-01,-9.724719822406768799e-02,1.651050895452499390e-01,-1.024787500500679016e-01,4.735576733946800232e-02,5.104261264204978943e-02,1.606233268976211548e-01,-3.757226467132568359e-02,-5.803956836462020874e-02,-2.163365334272384644e-01,1.113553568720817566e-01,-1.237326264381408691e-01,1.212342381477355957e-01,-7.132495939731597900e-02,9.574553929269313812e-03,-6.536266952753067017e-02,5.317721888422966003e-02,4.479484260082244873e-02,-8.546645939350128174e-02,7.812622934579849243e-02,-3.912870958447456360e-02,1.418728232383728027e-01,1.215936988592147827e-02,-9.414903819561004639e-02,-2.867468297481536865e-01,6.242111325263977051e-02,-2.916966974735260010e-01,2.682919204235076904e-01,-2.378293573856353760e-01,9.877812117338180542e-02,-3.557323664426803589e-02,9.581387788057327271e-02,-4.421968013048171997e-02
1.516668475233018398e-03,-1.469473093748092651e-01,1.048426628112792969e-01,-7.757174898870289326e-04,4.921864718198776245e-02,-1.136274486780166626e-01,-2.535139620304107666e-01,3.523072600364685059e-02,1.548194438219070435e-01,-1.106435582041740417e-01,2.292268276214599609e-01,2.148777693510055542e-01,7.448789477348327637e-02,-1.238585487008094788e-01,2.245038282126188278e-03,1.954126060009002686e-01,-1.043511331081390381e-01,2.396962195634841919e-01,3.915021941065788269e-02,-4.112692549824714661e-02,2.502930462360382080e-01,1.515047401189804077e-01,-1.325366050004959106e-01,-1.188163682818412781e-01,1.685961894690990448e-02,-8.918297290802001953e-02,1.299664378166198730e-01,-1.874230206012725830e-01,-1.027587428689002991e-01,-1.785219311714172363e-01,3.020960837602615356e-02,1.771422177553176880e-01,-1.479279994964599609e-01,-6.757241487503051758e-02,8.626682311296463013e-02,8.995750546455383301e-02,1.574359089136123657e-01,7.003270089626312256e-02,4.007130116224288940e-02,-5.571062117815017700e-02,-8.597338944673538208e-02,9.315495938062667847e-02,1.772593706846237183e-01,7.254450768232345581e-02,-1.545377820730209351e-02,7.896355539560317993e-02,1.625576466321945190e-01,-6.252384930849075317e-02,-8.535055816173553467e-02,1.266068965196609497e-01
1.331942528486251831e-01,-1.539275646209716797e-01,1.708531230688095093e-01,-1.130890995264053345e-01,-1.130495443940162659e-01,1.773148775100708008e-01,-1.089054197072982788e-01,-1.262331157922744751e-01,-5.450478196144104004e-02,1.151692271232604980e-01,1.689278036355972290e-01,1.936090588569641113e-01,2.604175806045532227e-01,-1.549711525440216064e-01,2.684004604816436768e-01,-5.198087915778160095e-02,1.840899437665939331e-01,6.474469602108001709e-02,-8.494416624307632446e-02,-1.959288716316223145e-01,-1.228059083223342896e-01,-2.694650739431381226e-02,1.016789823770523071e-01,2.047240585088729858e-01,8.004387840628623962e-03,3.015647456049919128e-02,-7.229327689856290817e-03,-1.244701668620109558e-01,1.146490499377250671e-01,9.771448373794555664e-02,1.056886687874794006e-01,-6.007844954729080200e-02,-1.147274002432823181e-01,5.398903414607048035e-02,1.804048381745815277e-02,-8.087896555662155151e-02,1.674237847328186035e-01,2.375823110342025757e-01,-7.948202639818191528e-02,1.875679567456245422e-02,3.053087554872035980e-02,-1.818210631608963013e-01,1.425293833017349243e-01,-9.584302455186843872e-02,5.219399929046630859e-02,-1.455700397491455078e-01,-1.236808598041534424e-01,1.975237578153610229e-01,-7.481703162193298340e-02,2.167455255985260010e-01
7.924736291170120239e-02,-1.865888833999633789e-01,1.070254370570182800e-01,-4.965628962963819504e-03,-1.430111527442932129e-01,-2.237499803304672241e-01,4.256912320852279663e-02,1.460943222045898438e-01,1.099023073911666870e-01,-1.626850515604019165e-01,2.768019214272499084e-02,7.596955448389053345e-02,-2.094630151987075806e-02,1.702919229865074158e-02,-5.463470891118049622e-02,1.278973817825317383e-01,4.928720742464065552e-02,-1.022398173809051514e-01,1.733731180429458618e-01,-1.967642307281494141e-01,-1.973352134227752686e-01,1.132052466273307800e-01,2.041796743869781494e-01,9.411059319972991943e-03,1.548700630664825439e-01,5.526377633213996887e-02,2.828790061175823212e-02,1.133674532175064087e-01,1.098363567143678665e-02,1.967476457357406616e-01,-1.685437858104705811e-01,-1.173618994653224945e-02,2.008900791406631470e-01,-7.868208736181259155e-02,-1.649436950683593750e-01,2.196480929851531982e-01,-5.048140883445739746e-02,-1.386980563402175903e-01,2.247794568538665771e-01,-7.522915303707122803e-02,-2.815086022019386292e-02,-1.793255656957626343e-02,1.373607665300369263e-01,5.958152934908866882e-03,1.878548264503479004e-01,2.236752957105636597e-02,-4.156312718987464905e-02,2.057691365480422974e-01,2.284845113754272461e-01,-3.337396308779716492e-02
2.302776277065277100e-01,-8.222378045320510864e-02,1.555636227130889893e-01,-3.594817593693733215e-02,-4.541749134659767151e-02,9.758783876895904541e-02,-1.397388279438018799e-01,3.098722733557224274e-02,-6.121856719255447388e-02,-1.934874951839447021e-01,-8.690032362937927246e-02,-9.147239476442337036e-02,1.459371298551559448e-01,2.071710824966430664e-01,1.153256595134735107e-01,-6.807217001914978027e-02,-2.231555804610252380e-02,-1.488934010267257690e-01,1.547285020351409912e-01,1.426924616098403931e-01,-1.559067517518997192e-02,1.203868165612220764e-01,1.590755581855773926e-01,1.823313534259796143e-01,-1.155360322445631027e-02,1.708403378725051880e-01,-8.022527396678924561e-02,1.666716635227203369e-01,-7.747294381260871887e-03,1.552720814943313599e-01,6.850373744964599609e-02,8.697681128978729248e-02,1.740233749151229858e-01,1.024066060781478882e-01,4.559565708041191101e-02,2.128038555383682251e-01,7.023118087090551853e-04,-2.016034536063671112e-02,-9.321928024291992188e-02,6.089167296886444092e-02,-8.703222870826721191e-02,-3.322798386216163635e-02,5.616073310375213623e-02,1.377880424261093140e-01,-2.301288209855556488e-02,-9.640935808420181274e-03,1.399953514337539673e-01,2.440928518772125244e-01,-1.016198694705963135e-01,3.139569982886314392e-02
1.498749405145645142e-01,-1.226576976478099823e-03,-1.406558901071548462e-01,8.096845820546150208e-03,1.397542804479598999e-01,-1.502098292112350464e-01,1.115932613611221313e-01,-1.076585128903388977e-01,2.247390449047088623e-01,-2.089955955743789673e-01,-2.497321665287017822e-01,-2.112887650728225708e-01,-2.612204290926456451e-02,5.806455388665199280e-02,6.603951007127761841e-02,7.955314964056015015e-02,1.137915067374706268e-02,1.544943153858184814e-01,-1.590931862592697144e-01,-1.089063882827758789e-01,-8.694095164537429810e-02,1.726996600627899170e-01,-1.403460502624511719e-01,6.705509126186370850e-02,-3.600393235683441162e-02,-4.399462044239044189e-02,-1.254226416349411011e-01,-3.149224221706390381e-01,1.791120693087577820e-02,6.486161053180694580e-02,9.783804416656494141e-02,-4.210707172751426697e-02,-7.279837131500244141e-02,1.573200821876525879e-01,2.459542602300643921e-01,1.243862286210060120e-01,1.107707992196083069e-01,-6.146762892603874207e-02,2.869966924190521240e-01,-1.772372275590896606e-01,-2.862139046192169189e-01,5.415917187929153442e-02,2.213405370712280273e-01,-1.602289453148841858e-02,2.338652163743972778e-01,-1.456705331802368164e-01,1.750372350215911865e-01,-3.580494970083236694e-02,-1.491625905036926270e-01,-1.084332019090652466e-01
1.209897845983505249e-01,1.593268066644668579e-01,-1.823372691869735718e-01,-1.489717811346054077e-01,1.431265175342559814e-01,2.296089828014373779e-01,-2.153124064207077026e-01,2.631696462631225586e-01,-1.711602807044982910e-01,7.425740361213684082e-02,7.950574904680252075e-02,-1.409340649843215942e-01,-6.985678523778915405e-02,-3.424374014139175415e-02,-1.119588688015937805e-01,7.419609278440475464e-02,1.520721763372421265e-01,-3.236940130591392517e-02,1.696221232414245605e-01,-7.104084640741348267e-02,-3.802462294697761536e-02,-3.575996756553649902e-01,-9.823337197303771973e-02,2.254297956824302673e-02,-2.073686867952346802e-01,-3.254333138465881348e-01,-5.477963760495185852e-02,1.068956553936004639e-01,-1.194885894656181335e-01,-4.015232995152473450e-02,2.411779612302780151e-01,-1.308510303497314453e-01,3.531067073345184326e-01,-1.506883054971694946e-01,1.477447152137756348e-01,-1.175485085695981979e-03,-2.582296133041381836e-01,-2.397472411394119263e-02,-3.799799457192420959e-02,2.079474776983261108e-01,1.444549262523651123e-01,-3.700384497642517090e-01,-2.749469690024852753e-02,1.742499917745590210e-01,-2.534287869930267334e-01,1.592307239770889282e-01,-8.036840707063674927e-03,1.259512733668088913e-02,2.506653368473052979e-01,-5.129803717136383057e-02
-4.747031256556510925e-02,-2.770590782165527344e-02,7.084418833255767822e-02,-1.038897782564163208e-01,2.534221112728118896e-01,-1.122898310422897339e-01,-2.023847103118896484e-01,-6.241163611412048340e-02,-2.314209192991256714e-01,-2.050228565931320190e-01,1.010790765285491943e-01,1.046654433012008667e-01,-1.043190658092498779e-01,1.611166000366210938e-01,-1.631630808115005493e-01,-5.131079629063606262e-02,1.137227267026901245e-01,-1.090590506792068481e-01,2.457090169191360474e-01,-1.235916838049888611e-01,-1.034359931945800781e-01,-7.172295823693275452e-03,3.964655101299285889e-02,-2.010240554809570312e-01,-1.429161429405212402e-01,1.366258412599563599e-01,1.382010150700807571e-02,-1.039530634880065918e-01,3.928399644792079926e-03,5.974634364247322083e-02,-2.715036273002624512e-02,-1.236611306667327881e-01,1.675322204828262329e-01,1.615397334098815918e-01,-1.715445965528488159e-01,-1.395915076136589050e-02,-1.319034695625305176e-01,1.943523734807968140e-01,2.337789237499237061e-01,2.733196597546339035e-04,6.586693227291107178e-02,-3.721661493182182312e-02,6.112340465188026428e-02,7.727189362049102783e-02,-2.016371339559555054e-01,-1.018460281193256378e-02,6.132755056023597717e-02,2.665203623473644257e-02,1.450799554586410522e-01,1.577516049146652222e-01
2.732827961444854736e-01,-1.859542131423950195e-01,1.231323182582855225e-01,1.822448223829269409e-01,-2.556389197707176208e-02,7.258220762014389038e-02,1.849123984575271606e-01,1.210611537098884583e-01,-1.656991839408874512e-01,-4.254369810223579407e-02,-2.625313028693199158e-02,1.520680040121078491e-01,-1.229986995458602905e-01,-8.115866221487522125e-03,7.453554123640060425e-02,-1.132378503680229187e-01,-1.568009853363037109e-01,-2.086642831563949585e-01,3.555697575211524963e-02,-1.595108211040496826e-02,-4.220749810338020325e-02,-6.726627796888351440e-02,-2.632106281816959381e-02,2.464970946311950684e-01,-1.166422516107559204e-01,1.511041522026062012e-01,1.877160519361495972e-01,9.708226472139358521e-02,-1.327474880963563919e-02,4.067812860012054443e-02,-1.087663620710372925e-01,5.671298131346702576e-02,-2.282406948506832123e-02,-6.982606649398803711e-02,-9.004665911197662354e-02,2.237594574689865112e-01,2.572777867317199707e-01,1.210632622241973877e-01,9.722495079040527344e-02,-2.489496469497680664e-01,-1.623851805925369263e-01,2.177064418792724609e-01,-1.020051687955856323e-01,-8.491428196430206299e-02,1.062398105859756470e-01,-1.714440733194351196e-01,-1.286289375275373459e-02,-6.763378530740737915e-02,2.164684087038040161e-01,4.646280780434608459e-02
1.164403837174177170e-02,-1.087142303586006165e-01,1.635888814926147461e-01,2.496595531702041626e-01,1.867393590509891510e-02,1.349058896303176880e-01,-9.041612595319747925e-02,1.494119316339492798e-01,1.532165259122848511e-01,-6.205196678638458252e-02,3.100025653839111328e-01,1.539179980754852295e-01,5.040136724710464478e-02,-6.432770192623138428e-02,4.537207074463367462e-03,-5.305581912398338318e-02,-1.325516104698181152e-01,9.752923250198364258e-02,2.223158776760101318e-01,4.712817445397377014e-02,1.817306876182556152e-01,-1.018968527205288410e-03,2.261958122253417969e-01,-1.062831208109855652e-01,-7.032091170549392700e-02,-5.970395356416702271e-02,-2.215769886970520020e-01,6.634787470102310181e-02,-7.202204316854476929e-03,2.154767364263534546e-01,6.349094212055206299e-02,1.380873844027519226e-02,-5.092629417777061462e-02,2.412712574005126953e-01,-5.207683145999908447e-02,1.520034968852996826e-01,-2.879894152283668518e-02,-1.167578250169754028e-02,-1.593364775180816650e-01,2.613898515701293945e-01,-6.905294209718704224e-02,3.893827646970748901e-02,1.128981336951255798e-01,-4.705148935317993164e-02,1.572996228933334351e-01,1.054530218243598938e-01,-1.621734648942947388e-01,5.627947673201560974e-02,1.412644684314727783e-01,-1.727328747510910034e-01
1.998616904020309448e-01,-2.610554695129394531e-01,1.100048497319221497e-01,-1.518570780754089355e-01,2.083813846111297607e-01,5.808861926198005676e-02,6.380453705787658691e-02,5.361846834421157837e-02,1.304211914539337158e-01,1.280144751071929932e-01,2.479814291000366211e-01,1.283057481050491333e-01,-1.716562956571578979e-01,-1.639106273651123047e-01,1.689505726099014282e-01,-1.099228039383888245e-01,-2.757186815142631531e-02,2.278132438659667969e-01,1.468450725078582764e-01,-5.440581589937210083e-02,-8.074302971363067627e-02,1.339308638125658035e-02,1.235201209783554077e-01,-3.756524249911308289e-02,-8.154768496751785278e-03,-2.140514552593231201e-01,1.385933607816696167e-01,9.071400016546249390e-02,-1.505864709615707397e-01,-6.545066833496093750e-02,-1.844655126333236694e-01,2.797421813011169434e-01,-1.224124804139137268e-02,1.971457749605178833e-01,3.604563325643539429e-02,2.561188302934169769e-03,1.613236814737319946e-01,1.665004491806030273e-01,-1.496969759464263916e-01,-1.191040351986885071e-01,2.118340432643890381e-01,-2.626543343067169189e-01,1.870190501213073730e-01,-2.100634202361106873e-02,-2.161451578140258789e-01,6.042113155126571655e-02,1.506335884332656860e-01,4.400162771344184875e-02,7.214914262294769287e-02,-1.489388793706893921e-01
-2.226399779319763184e-01,-2.066882327198982239e-02,-1.852879375219345093e-01,-1.709974370896816254e-02,-2.585857808589935303e-01,-1.030103676021099091e-02,5.170176923274993896e-02,-2.228722125291824341e-01,-1.866272091865539551e-01,-1.056441515684127808e-01,-1.662112623453140259e-01,-1.287732124328613281e-01,-7.925760746002197266e-02,-6.325484812259674072e-02,-2.547182440757751465e-01,2.415001988410949707e-01,-7.309124618768692017e-02,1.288783550262451172e-01,1.634567081928253174e-01,-2.852274104952812195e-02,1.457777470350265503e-01,-1.461720764636993408e-01,-5.049946531653404236e-02,-6.202326342463493347e-02,1.521769464015960693e-01,1.060873866081237793e-01,1.297159045934677124e-01,7.792543619871139526e-02,1.340942531824111938e-01,-4.022820293903350830e-02,-1.202861443161964417e-01,2.302652597427368164e-01,-6.607240438461303711e-02,5.990070756524801254e-03,2.211510092020034790e-01,-6.537091732025146484e-02,9.081242978572845459e-02,-1.924858242273330688e-02,-1.283707022666931152e-01,1.305958628654479980e-01,1.125305294990539551e-01,7.894736528396606445e-02,-1.068394910544157028e-02,-1.712307035923004150e-01,-2.122069597244262695e-01,6.802900880575180054e-02,3.105172216892242432e-01,2.141694165766239166e-02,2.551317811012268066e-01,-3.535988973453640938e-03
7.255065441131591797e-02,1.980410367250442505e-01,3.920194879174232483e-02,-1.876999735832214355e-01,2.411920726299285889e-01,-3.248063921928405762e-01,1.040560007095336914e-01,-9.928595274686813354e-02,2.920573018491268158e-02,-1.138464920222759247e-02,-2.078037858009338379e-01,4.791188985109329224e-03,-1.269756406545639038e-01,4.288224875926971436e-02,-1.171504780650138855e-01,3.932322561740875244e-02,2.316407263278961182e-01,-5.101783666759729385e-03,-3.064486384391784668e-01,2.766746655106544495e-02,8.154236525297164917e-02,2.872481048107147217e-01,3.844961896538734436e-02,-1.816953867673873901e-01,1.757825613021850586e-01,-1.143576577305793762e-01,-2.036588080227375031e-02,9.903885424137115479e-02,1.795727461576461792e-01,-6.369325518608093262e-02,1.728993803262710571e-01,6.762982159852981567e-02,-2.000287324190139771e-01,1.415998041629791260e-01,-2.081334143877029419e-01,-6.829851865768432617e-02,6.802974641323089600e-02,1.005496159195899963e-01,-4.411470144987106323e-02,2.359657734632492065e-01,4.384246841073036194e-02,1.427878588438034058e-01,1.374404504895210266e-02,-3.362703695893287659e-02,6.460981070995330811e-02,8.442495018243789673e-03,-2.466208785772323608e-01,1.629184484481811523e-01,1.074074730277061462e-01,-7.122125942260026932e-03
4.549450427293777466e-02,-1.551215052604675293e-01,-1.932110935449600220e-01,-1.231330558657646179e-01,3.383519873023033142e-02,1.368051022291183472e-02,1.404680907726287842e-01,-2.382882237434387207e-01,-1.696103811264038086e-01,-2.733466625213623047e-01,6.819739192724227905e-02,-8.003175258636474609e-02,1.216261237859725952e-01,1.360877901315689087e-01,-1.452705413103103638e-01,-2.003841698169708252e-01,-1.683404743671417236e-01,-2.042955756187438965e-01,1.170609816908836365e-01,1.610247641801834106e-01,1.326564550399780273e-01,-3.543407618999481201e-01,1.531095355749130249e-01,7.437372207641601562e-02,-7.260789722204208374e-02,-2.005284130573272705e-01,-1.467639356851577759e-01,9.770030528306961060e-02,1.723627597093582153e-01,-1.012848168611526489e-01,1.555383354425430298e-01,1.478635221719741821e-01,1.385322511196136475e-01,-3.238724917173385620e-02,1.855665594339370728e-01,9.789490699768066406e-02,1.021015644073486328e-01,1.377204246819019318e-02,5.293960496783256531e-02,2.115704864263534546e-01,1.391878351569175720e-02,1.306737810373306274e-01,1.637151241302490234e-01,1.076169982552528381e-01,-1.432099789381027222e-01,-3.646679222583770752e-01,-2.715841531753540039e-01,1.421948075294494629e-01,1.256459355354309082e-01,-2.539530098438262939e-01
-2.387088686227798462e-01,5.111955404281616211e-01,-7.365304231643676758e-02,-3.728577122092247009e-02,1.194542795419692993e-01,1.114250048995018005e-01,-1.101902052760124207e-01,1.417275220155715942e-01,-1.992874443531036377e-01,-3.640880435705184937e-02,-3.206261098384857178e-01,-6.241879239678382874e-02,1.155016347765922546e-01,-1.338789165019989014e-01,-6.213979423046112061e-02,2.062517702579498291e-01,9.198167920112609863e-02,-1.708401590585708618e-01,-2.842547297477722168e-01,-1.154241636395454407e-01,-1.334362030029296875e-01,-2.498646527528762817e-01,-1.254336088895797729e-01,9.585746377706527710e-02,-3.224171325564384460e-02,-2.960101068019866943e-01,1.462649703025817871e-01,2.484815269708633423e-01,-1.342849731445312500e-01,2.426134049892425537e-02,-1.128705963492393494e-01,-3.580249100923538208e-02,6.626377999782562256e-02,4.883626941591501236e-03,-4.880428686738014221e-02,6.913223862648010254e-02,1.925264894962310791e-01,-1.970256865024566650e-01,-6.815888453274965286e-03,1.978648900985717773e-01,-5.682356283068656921e-02,-2.547153830528259277e-01,-1.137386783957481384e-01,-5.978637933731079102e-02,-1.519512105733156204e-02,3.528411984443664551e-01,-1.249166950583457947e-01,-5.234060809016227722e-02,1.229662895202636719e-01,4.798412695527076721e-02
-1.150913611054420471e-01,-1.441685855388641357e-01,9.594450891017913818e-02,-3.226954638957977295e-01,-2.259326875209808350e-01,-1.926413476467132568e-01,-2.556088007986545563e-02,-2.407006919384002686e-02,-6.113125011324882507e-02,-2.101350426673889160e-01,-8.795767277479171753e-02,9.305374324321746826e-02,3.376943171024322510e-01,-2.480071038007736206e-01,-1.689640432596206665e-01,6.171435490250587463e-02,-2.328243106603622437e-01,2.226569056510925293e-01,-2.414318770170211792e-01,-2.092098817229270935e-02,2.735954225063323975e-01,-1.145396307110786438e-01,-1.526515334844589233e-01,1.583066731691360474e-01,1.184956207871437073e-01,-9.126488864421844482e-02,-1.973301023244857788e-01,-1.388926152139902115e-02,-1.439414471387863159e-01,6.254234164953231812e-02,-6.527091562747955322e-02,-2.395272254943847656e-01,1.903547495603561401e-01,-1.475148946046829224e-01,-1.419927477836608887e-01,1.015528440475463867e-01,-2.539626657962799072e-01,-8.169100433588027954e-02,-3.119155168533325195e-01,-1.155187711119651794e-01,2.025119066238403320e-01,1.896073669195175171e-01,-1.175829917192459106e-01,1.380319297313690186e-01,-7.488076388835906982e-02,1.188409551978111267e-01,5.681282281875610352e-02,-5.631681159138679504e-02,7.173226773738861084e-02,-1.997834146022796631e-01
1.613271832466125488e-01,1.885929554700851440e-01,-1.918553262948989868e-01,2.620253153145313263e-02,-3.887700289487838745e-02,1.655255258083343506e-01,-6.243163719773292542e-02,-8.685784041881561279e-02,2.311395257711410522e-01,-1.638257652521133423e-01,-1.053699478507041931e-01,-1.870103776454925537e-01,2.343637794256210327e-01,-1.866529583930969238e-01,-1.363379359245300293e-01,8.546885102987289429e-02,-2.001501619815826416e-01,1.228358149528503418e-01,-4.877919703722000122e-02,3.770599514245986938e-02,2.145240157842636108e-01,-2.558888792991638184e-01,7.942060381174087524e-02,1.924120336771011353e-01,1.916320472955703735e-01,1.074534207582473755e-01,-1.779741793870925903e-02,2.926252223551273346e-02,1.020283177495002747e-01,2.356036603450775146e-01,2.132058888673782349e-02,1.884361654520034790e-01,-1.532386690378189087e-01,-2.238289862871170044e-01,-1.954381912946701050e-01,-1.198026463389396667e-01,1.462453603744506836e-01,-1.785436272621154785e-01,-2.114927768707275391e-01,-4.568702727556228638e-02,-4.847232252359390259e-03,-2.070324718952178955e-01,-9.729830175638198853e-02,-1.844712346792221069e-02,2.816281020641326904e-01,-5.913051217794418335e-02,2.156081981956958771e-02,1.524706631898880005e-01,-8.517490327358245850e-02,-1.868223398923873901e-02
5.974716320633888245e-02,1.150487214326858521e-01,-9.807647019624710083e-02,-2.529796957969665527e-01,1.184151768684387207e-01,1.138169541954994202e-01,1.606380939483642578e-02,1.591176539659500122e-01,4.778647050261497498e-02,-3.268066793680191040e-02,1.442003101110458374e-01,-1.143501326441764832e-01,4.074393212795257568e-02,-1.439739950001239777e-02,2.558612823486328125e-01,1.951825916767120361e-01,6.465900689363479614e-02,6.707067601382732391e-03,-2.178994715213775635e-01,2.543805241584777832e-01,-1.634725332260131836e-01,3.090981766581535339e-02,1.464550346136093140e-01,-5.752568691968917847e-02,-1.712158136069774628e-02,6.295021623373031616e-02,-1.502994447946548462e-01,2.580143213272094727e-01,1.013347059488296509e-01,2.285961061716079712e-01,-2.196040451526641846e-01,-3.961988538503646851e-02,-1.461059451103210449e-01,-1.643807590007781982e-01,8.755297213792800903e-02,-1.556197851896286011e-01,-2.023020833730697632e-01,-1.679770350456237793e-01,-1.914429962635040283e-01,-8.412881195545196533e-02,1.430983394384384155e-01,1.773776412010192871e-01,7.013474404811859131e-02,1.118499487638473511e-01,1.228853166103363037e-01,-6.267416477203369141e-02,4.622252658009529114e-03,1.132515817880630493e-01,-1.215975731611251831e-01,1.716423481702804565e-01
1.507061719894409180e-01,1.274439245462417603e-01,-1.408779323101043701e-01,2.233437448740005493e-01,3.003777861595153809e-01,7.695312798023223877e-02,-2.096537649631500244e-01,1.000955477356910706e-01,7.509772479534149170e-02,2.307940870523452759e-01,7.804474979639053345e-02,-1.245747134089469910e-01,-1.701982915401458740e-01,1.663671582937240601e-01,-1.253363043069839478e-01,1.341221183538436890e-01,-1.328116655349731445e-01,-1.058914288878440857e-01,5.439775064587593079e-02,4.284767434000968933e-02,1.903054863214492798e-02,1.722667813301086426e-01,1.054298281669616699e-01,5.984702706336975098e-02,1.125013157725334167e-01,1.409206632524728775e-02,2.215545326471328735e-01,-1.325545608997344971e-01,-9.263069182634353638e-02,1.650168001651763916e-01,-1.656122505664825439e-01,3.400607109069824219e-01,1.429746001958847046e-01,2.391295731067657471e-01,-1.032577455043792725e-01,2.475590258836746216e-01,-3.794329613447189331e-02,-1.759042143821716309e-01,-1.331103444099426270e-01,-1.346825510263442993e-01,-2.037325641140341759e-03,-1.964257359504699707e-01,9.115393459796905518e-02,2.122609317302703857e-01,-9.328167140483856201e-02,2.639579474925994873e-01,-1.365441828966140747e-01,2.397265285253524780e-01,2.309080399572849274e-02,1.636715978384017944e-01
-5.761259794235229492e-02,2.914507091045379639e-01,1.621255725622177124e-01,1.130961924791336060e-01,1.636411994695663452e-01,-1.518787629902362823e-02,7.201788574457168579e-02,2.987520955502986908e-02,-1.551554501056671143e-01,-1.825099289417266846e-01,-1.487674415111541748e-01,2.228886634111404419e-01,-1.297711879014968872e-01,4.736302420496940613e-02,1.396980881690979004e-01,-2.320276945829391479e-01,-1.474707424640655518e-01,6.463757157325744629e-02,-3.372632199898362160e-03,1.683324724435806274e-01,-1.748579442501068115e-01,1.236617788672447205e-01,-1.154113411903381348e-01,1.168152466416358948e-01,-2.450760304927825928e-01,-5.116031970828771591e-03,9.657333046197891235e-02,-1.904028803110122681e-01,1.683917492628097534e-01,-2.008751332759857178e-01,-2.052221596240997314e-01,-2.100491523742675781e-01,1.107596885412931442e-02,2.231601476669311523e-01,2.526045441627502441e-01,1.142084375023841858e-01,1.663366556167602539e-01,1.564368754625320435e-01,-1.362951844930648804e-01,-1.041393261402845383e-02,-1.217617616057395935e-01,-1.996141374111175537e-01,1.369882076978683472e-01,-2.922727726399898529e-02,7.845760881900787354e-02,1.910004951059818268e-02,5.176367238163948059e-02,-4.384145606309175491e-03,2.557969391345977783e-01,-9.332001954317092896e-02
-1.123841777443885803e-01,3.746065497398376465e-02,-2.086307853460311890e-03,-3.221358731389045715e-02,1.004420872777700424e-02,-7.354882359504699707e-02,1.788905705325305462e-03,-1.582187041640281677e-02,1.860813423991203308e-02,-2.095317840576171875e-01,-1.043626815080642700e-01,2.558305859565734863e-01,-2.623155117034912109e-01,-8.949780464172363281e-02,-1.714845746755599976e-01,-5.327289551496505737e-02,3.191940486431121826e-02,1.866060048341751099e-01,-6.448868662118911743e-02,-1.180475857108831406e-02,1.486300770193338394e-02,-1.099032685160636902e-01,-3.576768934726715088e-02,-7.154133915901184082e-02,1.217379644513130188e-01,5.155495554208755493e-02,1.980141103267669678e-01,-1.550777256488800049e-01,1.561998128890991211e-01,-1.979885995388031006e-01,1.591325402259826660e-01,1.730327457189559937e-01,-1.566751748323440552e-01,8.115271478891372681e-02,-3.343091532588005066e-02,-1.791497617959976196e-01,2.830252051353454590e-02,-2.124508768320083618e-01,2.124334499239921570e-02,4.415765032172203064e-02,3.226560354232788086e-02,2.024837136268615723e-01,2.573665976524353027e-01,5.809772014617919922e-02,5.871470272541046143e-02,-1.627047359943389893e-01,5.276445671916007996e-02,7.929410785436630249e-02,3.675679210573434830e-03,9.605436027050018311e-02
6.560312956571578979e-02,-1.900251954793930054e-01,-1.107560470700263977e-01,-2.738673686981201172e-01,9.252513200044631958e-02,-2.010134756565093994e-01,1.433334350585937500e-01,3.497997820377349854e-01,2.381523139774799347e-02,8.401773869991302490e-02,-8.444835245609283447e-02,-1.954326778650283813e-01,-2.266499996185302734e-01,-2.734054923057556152e-01,-1.460356712341308594e-01,-2.304846495389938354e-01,-2.505372762680053711e-01,2.342666238546371460e-01,-3.591434061527252197e-01,-1.375085324980318546e-03,-9.828239679336547852e-02,1.064155921339988708e-01,2.271156311035156250e-01,-1.206941604614257812e-01,2.780561335384845734e-02,-1.600392609834671021e-01,-1.208037361502647400e-01,5.914979148656129837e-03,-2.617040276527404785e-01,-2.540704905986785889e-01,-4.197692871093750000e-02,-5.679871886968612671e-02,-1.861386150121688843e-01,-1.163762956857681274e-01,-2.482741028070449829e-01,-1.544809248298406601e-02,-2.005706876516342163e-01,8.753725886344909668e-02,-2.238379418849945068e-01,-2.064047604799270630e-01,-4.166477322578430176e-01,-2.009963244199752808e-01,-1.597472429275512695e-01,-3.867405354976654053e-01,-1.295996755361557007e-01,3.349632397294044495e-02,4.596722126007080078e-02,3.339380919933319092e-01,5.188448354601860046e-03,-8.691577613353729248e-02
-1.405738145112991333e-01,-1.825501471757888794e-01,-1.113485768437385559e-01,-1.762933731079101562e-01,2.808029530569911003e-03,2.352931722998619080e-02,1.802352070808410645e-01,-6.452602893114089966e-02,1.409726291894912720e-01,-2.287905104458332062e-02,1.179284416139125824e-02,1.038173437118530273e-01,-5.271059274673461914e-02,-1.079177483916282654e-01,1.623687148094177246e-01,-1.840322315692901611e-01,3.607327491044998169e-02,-1.492504924535751343e-01,1.949598081409931183e-02,-9.052582085132598877e-02,2.287151813507080078e-01,-2.579422891139984131e-01,-4.704265668988227844e-02,-6.023139134049415588e-02,1.495345383882522583e-01,5.357010290026664734e-03,1.142319962382316589e-01,-1.231751069426536560e-01,2.288198769092559814e-01,2.051226198673248291e-01,2.680049836635589600e-01,-1.537257991731166840e-02,1.243485882878303528e-01,-1.262412369251251221e-01,9.905734099447727203e-03,-1.650589853525161743e-01,-4.547781497240066528e-02,4.349142313003540039e-02,-1.805212795734405518e-01,1.700451076030731201e-01,1.703088432550430298e-01,2.117227613925933838e-01,8.893002569675445557e-02,-6.937148422002792358e-02,-2.167159467935562134e-01,1.654511541128158569e-01,-2.156286835670471191e-01,-4.036539234220981598e-03,-8.764523267745971680e-02,-4.509159922599792480e-02
3.551897406578063965e-02,7.670401036739349365e-02,-4.123520478606224060e-02,-1.165710687637329102e-01,1.260456442832946777e-01,1.351286917924880981e-01,1.790847927331924438e-01,4.016889631748199463e-02,1.167961210012435913e-02,6.696699559688568115e-02,-1.248839646577835083e-01,1.827897727489471436e-01,3.546886844560503960e-03,-1.055333390831947327e-01,4.908254370093345642e-02,-6.816345453262329102e-02,7.030024379491806030e-02,4.789893049746751785e-03,-5.340515449643135071e-02,3.502398729324340820e-02,-1.700082123279571533e-01,1.164158731698989868e-01,9.369494020938873291e-02,-1.051848009228706360e-01,-4.557168111205101013e-03,6.975952535867691040e-02,3.262424468994140625e-02,-6.864231079816818237e-02,-1.626140475273132324e-01,2.393080741167068481e-01,-1.411743611097335815e-01,-8.872864767909049988e-03,-9.596100449562072754e-02,-2.772894315421581268e-02,-1.064133942127227783e-01,-3.103612661361694336e-01,1.078288070857524872e-02,1.377411782741546631e-01,-2.365710027515888214e-02,3.539545238018035889e-01,-3.293242305517196655e-02,1.394900381565093994e-01,-2.961725294589996338e-01,-2.356257438659667969e-01,1.210562512278556824e-01,-8.954866975545883179e-02,6.837670505046844482e-02,-1.515858024358749390e-01,8.746845996938645840e-04,-1.627735644578933716e-01
-1.045412197709083557e-01,2.509587407112121582e-01,3.898751363158226013e-02,4.409095644950866699e-02,-6.609510630369186401e-02,-8.693496882915496826e-02,-1.318849921226501465e-01,-1.603528112173080444e-01,1.655792891979217529e-01,8.134691417217254639e-02,5.281675979495048523e-02,-4.327852278947830200e-02,-1.233548447489738464e-01,1.482502818107604980e-01,-1.634493097662925720e-02,-1.099227089434862137e-02,-4.707735963165760040e-03,-2.069145441055297852e-01,-4.432863742113113403e-02,1.762911677360534668e-01,-3.773014247417449951e-02,-9.271565079689025879e-02,2.821100056171417236e-01,2.742160297930240631e-02,-2.856085635721683502e-02,1.470992062240839005e-02,-1.027072221040725708e-01,-1.706057488918304443e-01,-8.694116771221160889e-02,-2.483452111482620239e-01,8.228754252195358276e-02,1.610760390758514404e-01,-3.161838054656982422e-01,-7.750727236270904541e-02,-8.034433424472808838e-02,1.186158508062362671e-01,3.522403165698051453e-02,-1.042042672634124756e-01,2.124069035053253174e-01,5.466563627123832703e-02,-1.367980390787124634e-01,-1.208573877811431885e-01,2.165505290031433105e-01,5.904275923967361450e-02,-8.941018581390380859e-02,8.954742550849914551e-02,-5.267197266221046448e-02,-1.027231514453887939e-01,-9.151783585548400879e-02,1.428349316120147705e-01
-2.030646651983261108e-01,2.591668665409088135e-01,2.242275327444076538e-01,1.973816007375717163e-01,-1.394526660442352295e-01,-1.530164629220962524e-01,9.413140267133712769e-02,3.304931223392486572e-01,2.002551220357418060e-02,8.931792527437210083e-02,-9.945387393236160278e-02,2.019808441400527954e-01,-7.850311696529388428e-02,3.529118373990058899e-02,-1.632258147001266479e-01,-7.607756555080413818e-02,2.452699989080429077e-01,1.706612668931484222e-02,1.409540623426437378e-01,2.552552521228790283e-01,1.536996662616729736e-01,-4.506232216954231262e-03,-8.359839208424091339e-03,5.207724869251251221e-03,7.759027928113937378e-02,-2.316987663507461548e-01,5.721798539161682129e-02,3.039969801902770996e-01,-1.585466414690017700e-01,7.002120465040206909e-02,-2.151663415133953094e-02,9.616060554981231689e-02,-5.774083733558654785e-02,-3.279280290007591248e-02,1.892497688531875610e-01,9.300257265567779541e-02,1.144554689526557922e-01,-9.230203926563262939e-02,-1.790010184049606323e-01,-8.617541193962097168e-02,-6.176771223545074463e-02,7.422266900539398193e-02,7.089540362358093262e-02,1.351931244134902954e-01,1.678418517112731934e-01,-7.492887973785400391e-02,7.459161803126335144e-03,2.329647690057754517e-01,-1.130951717495918274e-01,-2.564311027526855469e-02
1.451766584068536758e-02,1.566487699747085571e-01,-1.293220967054367065e-01,-6.590780615806579590e-02,1.401475537568330765e-02,7.420088350772857666e-02,5.945991352200508118e-02,2.098276466131210327e-01,-1.705517619848251343e-01,-2.089969366788864136e-01,3.383959457278251648e-02,-5.519653856754302979e-02,1.551546063274145126e-02,9.056778997182846069e-02,-2.269816771149635315e-02,-1.762352734804153442e-01,2.585291862487792969e-01,2.124548852443695068e-01,6.670601665973663330e-02,2.014414817094802856e-01,-4.729738831520080566e-02,2.767772376537322998e-01,-1.944835186004638672e-01,-1.383939236402511597e-01,1.537305563688278198e-01,-1.487316787242889404e-01,1.028634309768676758e-01,-6.976383924484252930e-02,3.330456465482711792e-02,1.517553068697452545e-02,6.084774807095527649e-02,-1.066002249717712402e-02,2.770893462002277374e-02,1.875871866941452026e-01,2.033800929784774780e-01,-1.619907170534133911e-01,1.062249392271041870e-01,-1.864385753870010376e-01,9.032750874757766724e-02,2.845080010592937469e-02,-1.090706661343574524e-01,-2.691617608070373535e-01,1.081396415829658508e-01,1.086434200406074524e-01,4.015416651964187622e-02,-1.271224468946456909e-01,-5.363248288631439209e-02,-6.045177578926086426e-02,-7.524296641349792480e-02,-1.257135272026062012e-01
3.924134373664855957e-02,-8.236658573150634766e-02,1.042594686150550842e-01,-8.855281025171279907e-02,-8.227819949388504028e-02,-1.420531142503023148e-02,1.253999620676040649e-01,-6.781718879938125610e-02,1.262049525976181030e-01,7.761733233928680420e-02,-1.365978866815567017e-01,-2.062446922063827515e-01,-2.452849745750427246e-01,1.078389286994934082e-01,1.248580664396286011e-01,5.333777144551277161e-02,1.254784315824508667e-01,1.655695885419845581e-01,1.151848137378692627e-01,-2.339226901531219482e-01,2.714958190917968750e-01,-9.744348376989364624e-02,2.194888889789581299e-01,7.211347669363021851e-02,-9.064906835556030273e-02,-9.194251894950866699e-02,8.149448782205581665e-02,-1.732935011386871338e-01,-5.500689148902893066e-02,8.703503012657165527e-02,3.554539382457733154e-02,6.132036913186311722e-03,-2.195560932159423828e-02,-1.605564355850219727e-02,1.025807857513427734e-02,-1.226025633513927460e-02,-1.231276616454124451e-01,-1.253291368484497070e-01,1.038111522793769836e-01,6.324234604835510254e-02,4.051359742879867554e-02,-3.681143373250961304e-02,-3.063487261533737183e-02,-7.078083604574203491e-02,-5.628454312682151794e-02,-1.192633807659149170e-01,7.426612824201583862e-02,-1.278248131275177002e-01,-1.511881649494171143e-01,2.238278985023498535e-01
2.304934896528720856e-03,-2.491724044084548950e-01,2.220039665699005127e-01,-1.051283255219459534e-01,4.832769185304641724e-02,-1.224877461791038513e-01,-2.320699244737625122e-01,3.515985980629920959e-02,-2.112582772970199585e-01,-1.403340846300125122e-01,-1.860196739435195923e-01,5.947595089673995972e-02,-1.087716221809387207e-01,-2.475346475839614868e-01,-1.744605302810668945e-01,1.797445714473724365e-01,-2.865253388881683350e-01,-3.053500689566135406e-02,7.315026968717575073e-02,-1.795453950762748718e-02,-2.300125658512115479e-01,4.808940365910530090e-02,-2.133926153182983398e-01,9.408650919795036316e-03,1.569702774286270142e-01,1.977494508028030396e-01,2.178688496351242065e-01,-1.554848402738571167e-01,3.727559745311737061e-02,8.022350817918777466e-02,1.914898008108139038e-01,4.814125131815671921e-03,5.125201120972633362e-02,-1.740356087684631348e-01,-8.353947103023529053e-02,-6.155333667993545532e-02,-3.125033676624298096e-01,-2.755399942398071289e-01,8.477289229631423950e-02,-8.020982146263122559e-02,1.227904632687568665e-01,2.544132806360721588e-02,1.389394700527191162e-01,-2.070733308792114258e-01,5.750596523284912109e-03,2.542355656623840332e-01,-1.165360510349273682e-01,1.659563332796096802e-01,-1.915864646434783936e-01,-1.356076747179031372e-01
-2.685281336307525635e-01,9.783661924302577972e-03,-5.752207338809967041e-02,2.096099592745304108e-02,1.865935139358043671e-02,-1.690310239791870117e-01,1.388137340545654297e-01,2.607704102993011475e-01,-1.518378108739852905e-01,1.293453425168991089e-01,2.293826639652252197e-01,1.216794177889823914e-01,-3.722841143608093262e-01,-7.308523356914520264e-02,1.615173667669296265e-01,-3.135452866554260254e-01,-2.360368520021438599e-01,-4.608269408345222473e-02,-1.154874414205551147e-01,-1.994477026164531708e-02,2.046065032482147217e-02,-8.948432654142379761e-02,6.665459368377923965e-03,-6.175687909126281738e-02,-5.901622772216796875e-02,-9.039486199617385864e-02,1.690947711467742920e-01,1.443054154515266418e-02,9.188311547040939331e-02,1.291942596435546875e-01,-4.212011117488145828e-03,-1.523138582706451416e-01,-1.284434348344802856e-01,8.024881780147552490e-02,6.414341181516647339e-02,-1.074904948472976685e-01,-1.513241976499557495e-01,-3.964120447635650635e-01,-1.666024923324584961e-01,1.785101443529129028e-01,-2.616966366767883301e-01,1.402271986007690430e-01,3.182503581047058105e-02,-1.804260313510894775e-01,7.075976580381393433e-02,1.322807222604751587e-01,8.431898429989814758e-03,-1.932284235954284668e-01,-1.284963488578796387e-01,-2.777729630470275879e-01
7.988844811916351318e-02,1.612553149461746216e-01,1.611802875995635986e-01,2.787831798195838928e-02,1.101676300168037415e-01,-6.611688435077667236e-02,2.094473838806152344e-01,2.305953949689865112e-02,5.156216211616992950e-03,-6.519603729248046875e-02,3.854975104331970215e-02,7.286050170660018921e-02,-2.548350580036640167e-02,6.227470561861991882e-02,2.337394356727600098e-01,-9.771580994129180908e-02,-4.760430380702018738e-02,-5.084893852472305298e-02,-7.352947443723678589e-02,-4.582565277814865112e-02,-7.736876606941223145e-02,-3.187287971377372742e-02,-6.114961206912994385e-02,-5.306958779692649841e-02,8.966874331235885620e-03,2.457378059625625610e-01,-2.216928750276565552e-01,-1.489667594432830811e-01,1.263558417558670044e-01,-1.640266478061676025e-01,1.970574073493480682e-02,2.024356424808502197e-01,-7.903758436441421509e-02,6.946759670972824097e-02,2.768991701304912567e-02,-5.253099650144577026e-02,4.391333088278770447e-03,2.888206839561462402e-01,-3.893104149028658867e-03,-1.906847357749938965e-01,-1.886592954397201538e-01,1.172758191823959351e-01,1.091051325201988220e-01,-1.354802548885345459e-01,-1.288717240095138550e-01,5.726957321166992188e-02,-1.938894838094711304e-01,2.237962037324905396e-01,5.316278710961341858e-02,2.154402136802673340e-01
1.183689534664154053e-01,1.179122552275657654e-01,9.178570657968521118e-02,7.945552468299865723e-02,-6.993354763835668564e-04,-1.655032932758331299e-01,3.568360581994056702e-02,-1.541355252265930176e-01,-1.676235795021057129e-01,1.076858416199684143e-01,1.245241761207580566e-01,-1.187324374914169312e-01,3.454648703336715698e-02,1.171735767275094986e-02,2.164540439844131470e-01,-1.127308979630470276e-02,7.473430782556533813e-02,2.253935337066650391e-01,2.185329794883728027e-01,-1.232374012470245361e-01,-1.268146783113479614e-01,5.715198069810867310e-02,3.094889596104621887e-02,-1.956640332937240601e-01,-1.152321323752403259e-01,1.616703569889068604e-01,1.396181285381317139e-01,2.085869759321212769e-01,-1.047664731740951538e-01,7.066923379898071289e-02,-1.739417016506195068e-02,1.426649093627929688e-01,1.016335748136043549e-02,-4.254847392439842224e-02,-1.465865671634674072e-01,2.314953058958053589e-01,2.679089009761810303e-01,8.684438467025756836e-02,4.764401540160179138e-02,9.603613615036010742e-02,-3.310962393879890442e-02,2.056783288717269897e-01,-1.156402751803398132e-01,1.168670877814292908e-01,1.245778873562812805e-01,-1.947975456714630127e-01,-9.030941128730773926e-02,-1.291282773017883301e-01,-5.673675239086151123e-02,1.808648109436035156e-01
-4.530932754278182983e-02,-1.024452224373817444e-01,-1.827355176210403442e-01,2.266794592142105103e-01,5.402890220284461975e-02,-1.296670734882354736e-01,8.112058788537979126e-02,-1.442189514636993408e-01,1.519392728805541992e-01,-1.428491994738578796e-02,-1.172329038381576538e-01,1.184685677289962769e-01,-7.306309789419174194e-02,2.377768792212009430e-02,4.139422625303268433e-02,-1.344392001628875732e-01,-8.534640073776245117e-02,-1.044051796197891235e-01,-3.360539907589554787e-03,1.013948172330856323e-01,5.539495497941970825e-02,-1.022415235638618469e-01,1.751260310411453247e-01,1.654587090015411377e-01,1.701030731201171875e-01,1.187432836741209030e-02,1.979115232825279236e-02,-1.214166954159736633e-01,-4.361974447965621948e-02,-1.626817286014556885e-01,5.868069827556610107e-03,1.177793443202972412e-01,1.805668175220489502e-01,-2.266868501901626587e-01,7.854500412940979004e-02,-8.107299357652664185e-02,9.048420190811157227e-02,-6.067819520831108093e-02,-1.172198951244354248e-01,-7.328531146049499512e-02,-3.963414207100868225e-02,1.068416386842727661e-01,6.177230924367904663e-02,1.353840231895446777e-01,-6.754160672426223755e-02,1.548387557268142700e-01,-1.590376198291778564e-01,1.383740305900573730e-01,2.703041955828666687e-02,-9.175436943769454956e-02
1.666583716869354248e-01,5.408051609992980957e-02,7.034942507743835449e-02,5.508129484951496124e-03,1.499140560626983643e-01,2.457803934812545776e-01,-1.682620048522949219e-01,1.489244848489761353e-01,1.497555673122406006e-01,2.191748023033142090e-01,-3.019740246236324310e-02,-1.435578763484954834e-01,-3.098127990961074829e-02,-1.045608744025230408e-01,-9.247772395610809326e-02,2.115306258201599121e-01,9.173984639346599579e-03,-3.897974640130996704e-02,2.094197124242782593e-01,-1.383652240037918091e-01,5.155728757381439209e-02,-8.935993537306785583e-03,2.009024024009704590e-01,-9.271145612001419067e-02,-2.520273206755518913e-03,2.240435592830181122e-02,-2.640556395053863525e-01,1.363387256860733032e-01,2.224955856800079346e-01,2.121498286724090576e-01,-3.655694052577018738e-02,4.184225574135780334e-02,1.415518075227737427e-01,-6.291750073432922363e-02,7.160559296607971191e-02,-1.044177860021591187e-01,8.817456662654876709e-02,2.412678003311157227e-01,-1.056357696652412415e-01,5.037526041269302368e-02,1.036239042878150940e-01,1.913117915391921997e-01,-7.964482530951499939e-03,-2.111195027828216553e-01,1.244033649563789368e-01,8.614571392536163330e-02,-5.498669669032096863e-02,4.800074920058250427e-02,1.328062415122985840e-01,4.870544001460075378e-02
5.418328568339347839e-03,-2.039375007152557373e-01,2.584563791751861572e-01,-1.441335380077362061e-01,-1.571380048990249634e-01,-1.045820675790309906e-02,-2.518183290958404541e-01,-3.747244179248809814e-02,1.147746224887669086e-03,5.849022418260574341e-02,-1.214748024940490723e-01,1.199396029114723206e-01,1.865738034248352051e-01,1.475080996751785278e-01,1.500765830278396606e-01,-7.270043343305587769e-02,-1.344521939754486084e-01,1.078565120697021484e-01,-9.403312206268310547e-02,-1.133194565773010254e-01,-6.944576650857925415e-02,1.578246057033538818e-01,4.545095935463905334e-02,-1.952773928642272949e-01,-9.275466948747634888e-02,6.311309058219194412e-03,-9.159270673990249634e-02,4.247073829174041748e-02,2.794322557747364044e-02,-1.919476389884948730e-01,2.034722566604614258e-01,-7.952850311994552612e-02,-8.995402604341506958e-02,1.225896328687667847e-01,-3.828553110361099243e-02,-1.286541521549224854e-01,-6.368848681449890137e-02,-3.026589155197143555e-01,3.851173911243677139e-03,5.769665166735649109e-02,-4.792421162128448486e-01,-1.442767977714538574e-01,-1.750006079673767090e-01,1.597418040037155151e-01,1.400987952947616577e-01,-1.089995950460433960e-01,8.011794090270996094e-02,6.029743328690528870e-02,1.982826441526412964e-01,-2.725822627544403076e-01
1.570219695568084717e-01,-1.390007585287094116e-01,-1.162813305854797363e-01,-1.087100654840469360e-01,5.164095386862754822e-02,-2.326694875955581665e-01,1.913042515516281128e-01,-3.193658310920000076e-03,-1.156374588608741760e-01,-2.653803527355194092e-01,1.672855764627456665e-01,-8.249846845865249634e-02,1.406582295894622803e-01,-1.492328345775604248e-01,-6.011224351823329926e-03,-6.401091068983078003e-02,1.006496883928775787e-02,1.512611955404281616e-01,-1.662942580878734589e-02,-8.429697901010513306e-02,-2.898394167423248291e-01,-1.108923852443695068e-01,-3.475119173526763916e-02,1.449382025748491287e-02,-6.599120050668716431e-02,1.050924062728881836e-01,-4.573863372206687927e-02,9.231928735971450806e-02,-1.155185028910636902e-01,-6.094902008771896362e-02,-5.972112715244293213e-02,1.222040802240371704e-01,6.127442419528961182e-02,1.132771298289299011e-01,1.352097392082214355e-01,1.506265252828598022e-01,-2.927362322807312012e-01,-3.064456880092620850e-01,4.628211259841918945e-02,2.430247142910957336e-02,1.048812493681907654e-01,1.925828307867050171e-01,4.475639760494232178e-02,-1.893502622842788696e-01,-2.126204967498779297e-01,3.489569723606109619e-01,-5.412990227341651917e-02,7.879652082920074463e-02,-6.498388946056365967e-03,8.471891283988952637e-02
7.391474395990371704e-02,-2.641591131687164307e-01,-2.218030542135238647e-01,2.068775743246078491e-01,-8.311260491609573364e-02,1.449980735778808594e-01,-3.216557204723358154e-02,-6.989516317844390869e-02,-1.494774669408798218e-01,-2.256680466234683990e-02,6.575518846511840820e-02,1.157493665814399719e-01,2.098217792809009552e-02,-2.854279242455959320e-02,-1.317728906869888306e-01,-1.375954896211624146e-01,-4.966840147972106934e-02,-7.443973794579505920e-03,7.432252168655395508e-02,-1.623661220073699951e-01,3.226615116000175476e-02,-3.556936681270599365e-01,1.196229830384254456e-01,3.588700294494628906e-02,1.547077000141143799e-01,-8.178437501192092896e-02,2.480733990669250488e-01,-7.485098205506801605e-03,7.387982308864593506e-02,3.558362647891044617e-02,-1.385156810283660889e-01,-1.530407834798097610e-02,5.029060319066047668e-02,-1.003597676753997803e-01,-3.300231695175170898e-02,1.356650292873382568e-01,1.623314917087554932e-01,-9.901479631662368774e-02,-8.617143332958221436e-02,-4.478597640991210938e-02,5.160612612962722778e-02,2.317119240760803223e-01,-9.040680527687072754e-02,-4.419258981943130493e-02,2.005634009838104248e-01,-3.503134250640869141e-01,2.331309467554092407e-01,1.387292295694351196e-01,-2.260498553514480591e-01,7.579477876424789429e-02
-1.799248456954956055e-01,4.602086544036865234e-02,2.043831795454025269e-01,1.433157622814178467e-01,2.086924947798252106e-02,-2.561391890048980713e-01,-7.527597993612289429e-02,-2.563540041446685791e-01,-2.036549597978591919e-01,-4.280391335487365723e-02,-1.962770968675613403e-01,-3.980157896876335144e-02,-1.154125779867172241e-01,-1.825372874736785889e-01,-1.159108057618141174e-01,-7.469795644283294678e-02,8.941847831010818481e-03,1.036301180720329285e-01,1.911243200302124023e-01,-1.708463020622730255e-02,-5.269272625446319580e-02,-1.609721928834915161e-01,-2.703407108783721924e-01,2.918246388435363770e-01,-3.549506366252899170e-01,-2.374874949455261230e-01,-1.633495241403579712e-01,-5.322667956352233887e-02,1.319636255502700806e-01,-6.029360368847846985e-02,4.536459688097238541e-03,-1.984347552061080933e-01,1.269559264183044434e-01,4.091929644346237183e-02,-8.464612066745758057e-02,1.097728461027145386e-01,3.234948031604290009e-03,-9.336799383163452148e-02,7.164839655160903931e-02,-1.935351639986038208e-01,-3.377738222479820251e-02,-7.424037158489227295e-02,1.180188637226819992e-02,4.175809398293495178e-02,-5.272406339645385742e-02,2.179558873176574707e-01,-4.698504135012626648e-02,1.658260077238082886e-01,4.357440397143363953e-02,7.183741033077239990e-02
-6.649955362081527710e-02,-1.114030256867408752e-01,2.135713249444961548e-01,-1.075201854109764099e-01,-1.854512393474578857e-01,7.631228864192962646e-02,1.576271653175354004e-01,2.006603926420211792e-01,1.919151544570922852e-01,9.644786268472671509e-02,1.264342665672302246e-01,-1.012750267982482910e-01,-1.515964120626449585e-01,1.741178333759307861e-01,6.184946000576019287e-02,-7.634511590003967285e-02,7.178569585084915161e-02,-5.413683131337165833e-02,3.016173243522644043e-01,2.431667447090148926e-01,-2.143771648406982422e-01,-2.087331116199493408e-01,-1.714948415756225586e-01,4.584739729762077332e-02,1.733474582433700562e-01,2.078782469034194946e-01,2.959626913070678711e-02,-1.875024586915969849e-01,1.526295789517462254e-03,6.025962531566619873e-02,1.664715111255645752e-01,7.461507618427276611e-02,-6.458621472120285034e-02,8.438980579376220703e-02,-1.458413451910018921e-01,-2.206447720527648926e-02,8.351407200098037720e-02,2.035363316535949707e-01,1.514723896980285645e-01,1.154860854148864746e-01,-1.565460115671157837e-02,2.654972374439239502e-01,-1.051066368818283081e-01,-5.861848592758178711e-02,2.543623186647891998e-02,-1.752181909978389740e-02,1.442971229553222656e-01,1.411663144826889038e-01,-6.160450726747512817e-02,-2.094283103942871094e-01
-3.839330375194549561e-02,-8.970709145069122314e-02,1.356638595461845398e-02,1.826047450304031372e-01,-2.414131015539169312e-01,4.300207272171974182e-02,1.499986648559570312e-01,-8.343732357025146484e-02,7.728837430477142334e-02,-1.666070222854614258e-01,4.168627038598060608e-02,-3.032518923282623291e-02,2.684645354747772217e-02,-8.184190094470977783e-02,-2.131846249103546143e-01,9.897235035896301270e-02,-2.388529032468795776e-01,-5.035330355167388916e-02,-9.395119547843933105e-02,3.186205029487609863e-02,-1.749413758516311646e-01,1.400838512927293777e-02,2.175498381257057190e-02,-1.522105932235717773e-01,-3.714214637875556946e-02,2.410119771957397461e-01,-2.244337350130081177e-01,8.456291258335113525e-02,1.151859685778617859e-01,-1.378800570964813232e-01,2.081223428249359131e-01,-5.540452897548675537e-03,2.876948006451129913e-02,-4.283326119184494019e-02,2.532454133033752441e-01,1.480597406625747681e-01,-2.663625590503215790e-02,1.138678416609764099e-01,8.588999044150114059e-04,-1.339490115642547607e-01,1.948705688118934631e-02,7.461945712566375732e-02,2.555798888206481934e-01,-1.611118763685226440e-01,-1.575658619403839111e-01,9.103070944547653198e-02,1.713861227035522461e-01,1.513771861791610718e-01,2.338776737451553345e-01,1.350350081920623779e-01
-2.783815562725067139e-02,2.469228059053421021e-01,-3.042898699641227722e-02,6.613219529390335083e-02,2.500111162662506104e-01,-1.755453497171401978e-01,-3.482573330402374268e-01,1.107454374432563782e-01,-2.089461088180541992e-01,-1.559634655714035034e-01,-9.124538302421569824e-02,-3.461495935916900635e-01,1.779091954231262207e-01,-1.765255928039550781e-01,1.880662143230438232e-01,1.004897989332675934e-03,1.190068125724792480e-01,-7.387296855449676514e-02,4.059571027755737305e-02,-1.372539997100830078e-01,2.183543443679809570e-01,-3.150883913040161133e-01,-2.151322811841964722e-01,-6.509153544902801514e-02,-2.186763137578964233e-01,-1.134854555130004883e-01,9.582767635583877563e-02,-7.593183964490890503e-02,2.406108528375625610e-01,-2.140132784843444824e-01,-1.916292309761047363e-01,1.626105010509490967e-01,5.483790487051010132e-02,7.895672693848609924e-03,9.018422663211822510e-02,-1.581020206212997437e-01,-1.673935949802398682e-01,-8.638489991426467896e-02,1.555467247962951660e-01,-3.891922533512115479e-02,-1.036246791481971741e-01,-1.517499834299087524e-01,9.243978559970855713e-02,3.641178458929061890e-02,-1.147452816367149353e-01,4.258406758308410645e-01,-8.380907028913497925e-02,2.123361676931381226e-01,-7.646352797746658325e-02,2.548533082008361816e-01
-1.143141612410545349e-01,2.585904598236083984e-01,-6.174375116825103760e-02,-2.378866672515869141e-01,1.933663934469223022e-01,-9.431808441877365112e-02,1.343841403722763062e-01,7.435726374387741089e-02,7.017640769481658936e-02,-1.584432125091552734e-01,-9.562976658344268799e-02,-1.462585031986236572e-01,-2.602908015251159668e-02,-1.121780872344970703e-01,-1.253473162651062012e-01,3.670611185953021049e-03,-2.448080629110336304e-01,1.882706396281719208e-02,-6.429958343505859375e-02,-2.188900299370288849e-02,-6.168936192989349365e-02,3.514359295368194580e-01,1.126084290444850922e-02,-7.709018886089324951e-02,-8.033522963523864746e-02,1.168321743607521057e-01,2.571565210819244385e-01,-1.634824424982070923e-01,8.347148448228836060e-02,-2.312365323305130005e-01,2.877665869891643524e-02,-1.430583447217941284e-01,9.050216525793075562e-02,-2.648987770080566406e-01,-1.080134809017181396e-01,1.749156266450881958e-01,1.586951762437820435e-01,3.843808546662330627e-02,2.646616399288177490e-01,-2.360696047544479370e-01,9.026847779750823975e-02,-8.756451308727264404e-03,2.144411504268646240e-01,-2.874657697975635529e-02,-1.656908392906188965e-01,1.115956604480743408e-01,-6.602276116609573364e-02,-1.115439981222152710e-01,-1.465124785900115967e-01,-1.683452576398849487e-01
4.797345772385597229e-02,8.844367414712905884e-02,-1.719541996717453003e-01,1.798765212297439575e-01,-3.605167195200920105e-02,-1.130029335618019104e-01,-7.430030405521392822e-02,-1.544922441244125366e-01,-8.272170089185237885e-03,2.283056229352951050e-01,-3.190666809678077698e-02,1.338244080543518066e-01,4.999829456210136414e-02,2.557722926139831543e-01,-1.217407360672950745e-01,1.947083175182342529e-01,-1.075160205364227295e-01,2.204144746065139771e-01,2.580476105213165283e-01,-1.472421437501907349e-01,-2.376885265111923218e-01,3.330472409725189209e-01,-2.129294574260711670e-01,6.756778806447982788e-02,2.048949599266052246e-01,-1.395346224308013916e-02,2.892371825873851776e-02,-2.923279441893100739e-02,-1.263349223881959915e-02,1.818520575761795044e-01,-2.237360924482345581e-01,-5.528133362531661987e-02,-4.523250460624694824e-02,-1.404363214969635010e-01,2.364450544118881226e-01,-7.824577391147613525e-02,2.245090156793594360e-02,-4.043249413371086121e-02,-1.951801180839538574e-01,-1.668373048305511475e-01,2.345107048749923706e-01,-1.332124918699264526e-01,6.302522029727697372e-03,-1.388649344444274902e-01,3.182084858417510986e-01,8.689423650503158569e-02,-1.761817336082458496e-01,-3.420642809942364693e-03,-2.212526202201843262e-01,1.931263059377670288e-01
