-4.947987943887710571e-02,1.624581813812255859e-01,-3.980844467878341675e-02,8.906577527523040771e-02,1.000761166214942932e-01,2.313430979847908020e-02,-6.141550466418266296e-02,3.399065509438514709e-02,-2.179921716451644897e-01,-8.382330089807510376e-02,-6.818053126335144043e-02,4.130635876208543777e-03,-6.337172538042068481e-02,2.189099043607711792e-01,-1.378908753395080566e-01,-1.668065935373306274e-01,-1.599683761596679688e-01,8.307393640279769897e-02,-2.462681531906127930e-01,6.475315988063812256e-02,1.721320003271102905e-01,9.938406944274902344e-02,-5.568657815456390381e-02,-1.017080098390579224e-01,1.331396996974945068e-01,1.863631159067153931e-01,-2.267209291458129883e-01,-1.401515603065490723e-01,1.765055060386657715e-01,-1.581620424985885620e-01,-1.290329992771148682e-01,-2.562350332736968994e-01,-1.156890317797660828e-01,-3.858137130737304688e-02,2.457342147827148438e-01,-4.022896885871887207e-01,-1.122284214943647385e-02,7.134918123483657837e-02,-4.523905366659164429e-02,-2.712260484695434570e-01,1.541316807270050049e-01,1.674671769142150879e-01,3.596715256571769714e-02,1.080214530229568481e-01,-1.013052389025688171e-01,2.328535616397857666e-01,2.013939172029495239e-01,2.400719076395034790e-01,-1.713366014882922173e-03,2.610581815242767334e-01
4.381441697478294373e-02,6.110922992229461670e-02,-1.580629348754882812e-01,3.723278269171714783e-02,-1.182160899043083191e-01,-2.464384138584136963e-01,1.500101238489151001e-01,-2.496118098497390747e-01,1.905720978975296021e-01,-6.054528057575225830e-02,1.042326465249061584e-01,1.952700614929199219e-01,1.771150231361389160e-01,-7.032603491097688675e-03,-1.913403421640396118e-01,1.040184348821640015e-01,-2.252891063690185547e-01,4.688612744212150574e-02,4.473778232932090759e-02,-2.838889956474304199e-01,1.711509525775909424e-01,-2.590882182121276855e-01,1.291549503803253174e-01,-8.464651554822921753e-02,1.436748206615447998e-01,1.037472113966941833e-01,1.970609724521636963e-01,2.173340022563934326e-01,3.838803619146347046e-02,-1.012097075581550598e-01,-7.641401886940002441e-02,1.230251938104629517e-01,-2.241283655166625977e-01,5.180760845541954041e-02,9.954433888196945190e-02,-2.036871463060379028e-01,3.456629440188407898e-02,9.154275059700012207e-02,-1.693269163370132446e-01,2.111745439469814301e-02,6.839156150817871094e-02,1.659652739763259888e-01,-1.380485296249389648e-02,-1.038732007145881653e-01,2.043552845716476440e-01,2.549403309822082520e-01,1.519469320774078369e-01,1.891890019178390503e-01,-5.138402804732322693e-02,4.609739780426025391e-02
-2.208940126001834869e-02,1.904151439666748047e-01,2.375015616416931152e-01,8.171847462654113770e-02,1.076411604881286621e-01,1.802709549665451050e-01,1.667210608720779419e-01,5.141711980104446411e-02,4.944168031215667725e-02,-1.679672300815582275e-01,2.338034361600875854e-01,1.811695247888565063e-01,5.156508833169937134e-02,6.444075610488653183e-03,1.534195244312286377e-01,1.047642976045608521e-01,-2.383369207382202148e-01,-1.775955408811569214e-02,1.270774900913238525e-01,1.891997456550598145e-02,1.139119546860456467e-02,4.347776994109153748e-03,4.013608396053314209e-02,-6.934834644198417664e-03,1.803456097841262817e-01,-1.922245621681213379e-01,9.634100645780563354e-02,-1.267600357532501221e-01,1.334275156259536743e-01,-1.950290501117706299e-01,-9.918902814388275146e-02,1.607005596160888672e-01,3.478460013866424561e-02,-1.083016768097877502e-01,-1.165178641676902771e-01,2.744273245334625244e-01,-1.849924176931381226e-01,-1.422039121389389038e-01,-1.992911249399185181e-01,6.904454436153173447e-03,3.756337240338325500e-02,7.804936170578002930e-02,1.583655327558517456e-01,-3.053794428706169128e-02,1.624261587858200073e-01,2.341040410101413727e-02,1.087801679968833923e-01,-1.684766560792922974e-01,2.434527426958084106e-01,-3.513853764161467552e-03
3.112211525440216064e-01,8.636742085218429565e-02,-2.011029720306396484e-01,-1.176332458853721619e-01,-1.417118497192859650e-02,-1.260369271039962769e-01,-2.678683772683143616e-02,-1.570272259414196014e-02,1.907650530338287354e-01,-1.016156971454620361e-01,1.791611760854721069e-01,5.490629002451896667e-03,-1.318647265434265137e-01,1.124074310064315796e-01,9.997347742319107056e-02,-2.235718220472335815e-01,6.162077561020851135e-02,-3.591918945312500000e-01,6.543658673763275146e-02,5.632240772247314453e-01,-1.033949255943298340e-01,2.685115672647953033e-02,8.918119966983795166e-02,-1.143914088606834412e-01,2.092985808849334717e-01,-8.833192288875579834e-02,2.371842414140701294e-01,-1.818882822990417480e-01,1.500349640846252441e-01,6.735181063413619995e-02,-3.640312701463699341e-02,-1.688876599073410034e-01,-2.042897194623947144e-01,-2.297654189169406891e-02,-2.916763126850128174e-01,5.453657731413841248e-02,-4.158884584903717041e-01,1.941920667886734009e-01,3.408398106694221497e-02,7.048432528972625732e-02,9.803833067417144775e-02,-3.167831301689147949e-01,1.565516144037246704e-01,5.656000599265098572e-02,1.199293583631515503e-01,-2.053606063127517700e-01,-1.040989011526107788e-01,3.414777517318725586e-01,-7.848831266164779663e-02,4.170300811529159546e-02
2.023994922637939453e-01,-6.513050198554992676e-02,1.898269951343536377e-01,4.278882965445518494e-02,1.022322699427604675e-01,-1.488459259271621704e-01,-1.620057225227355957e-01,4.474468529224395752e-02,2.436694502830505371e-02,-2.472799569368362427e-01,-1.908214539289474487e-01,-2.019060850143432617e-01,1.437047719955444336e-01,-9.060621261596679688e-02,1.636702418327331543e-01,7.077712099999189377e-03,4.721355065703392029e-02,4.288910329341888428e-02,2.531304061412811279e-01,1.090791523456573486e-01,1.987493783235549927e-02,1.122881695628166199e-01,-6.983490311540663242e-04,1.611964702606201172e-01,1.918491423130035400e-01,8.479944616556167603e-02,3.353267610073089600e-01,-1.186553239822387695e-01,9.844554960727691650e-02,-1.024991050362586975e-01,-9.768570214509963989e-02,2.553181909024715424e-02,1.459351927042007446e-01,7.752275466918945312e-02,-2.839361727237701416e-01,1.024790853261947632e-01,5.603180453181266785e-02,-2.200292609632015228e-02,-4.449132084846496582e-02,1.365641411393880844e-02,-2.694431841373443604e-01,-2.589737810194492340e-02,-3.533938527107238770e-01,-9.940238296985626221e-02,-1.608083210885524750e-02,-1.793420016765594482e-01,2.035309225320816040e-01,1.215953454375267029e-01,2.806983292102813721e-01,-1.058795750141143799e-01
-2.356262644752860069e-03,-2.069599032402038574e-01,1.028083935379981995e-01,-6.576200574636459351e-02,6.925304234027862549e-02,2.040751427412033081e-01,-9.831049293279647827e-02,3.225648403167724609e-02,1.701212972402572632e-01,1.366711854934692383e-01,2.214139997959136963e-01,1.291595846414566040e-01,1.675541102886199951e-01,-3.834038600325584412e-02,-1.336497217416763306e-01,1.715581864118576050e-01,-1.116135865449905396e-01,2.331055402755737305e-01,-1.003240942955017090e-01,1.455948948860168457e-01,1.772836297750473022e-01,2.635521292686462402e-01,2.679478824138641357e-01,1.127524524927139282e-01,1.327886432409286499e-02,7.861866801977157593e-02,1.963368803262710571e-02,-1.261045336723327637e-01,1.998769640922546387e-01,-2.307048290967941284e-01,-8.383321017026901245e-02,1.274226456880569458e-01,4.661979526281356812e-02,5.211841687560081482e-02,-1.585652083158493042e-01,-2.416557669639587402e-01,5.375067144632339478e-02,-3.120951727032661438e-02,2.803138792514801025e-01,2.537170946598052979e-01,2.207669019699096680e-01,2.304062843322753906e-01,7.187367975711822510e-02,-1.087869480252265930e-01,-1.224527135491371155e-01,-1.899646781384944916e-02,-1.602396517992019653e-01,-1.986477524042129517e-01,-1.123110353946685791e-01,-1.200096681714057922e-02
1.385361701250076294e-01,6.397133320569992065e-02,-1.439457833766937256e-01,-1.441314816474914551e-01,1.377440989017486572e-01,-4.089364781975746155e-02,1.224647164344787598e-01,2.151201665401458740e-01,-9.249792993068695068e-02,2.925392240285873413e-02,1.458228230476379395e-01,-2.477546334266662598e-01,-1.712128147482872009e-02,-2.218548767268657684e-02,9.948310256004333496e-02,3.237131237983703613e-02,-1.383784264326095581e-01,-8.021258562803268433e-02,9.127315878868103027e-02,-2.174877375364303589e-01,-1.146319136023521423e-01,1.898053735494613647e-01,1.593344658613204956e-01,-1.565835624933242798e-01,-1.088907569646835327e-01,-1.535851210355758667e-01,1.892292201519012451e-01,1.376809775829315186e-01,3.791976347565650940e-02,-1.969223022460937500e-01,-1.131163462996482849e-01,-2.014210671186447144e-01,8.352737873792648315e-02,1.401961743831634521e-01,-3.103762567043304443e-01,-1.422114074230194092e-01,-5.098294094204902649e-02,1.537740603089332581e-02,-8.736925572156906128e-02,2.546290457248687744e-01,-7.967644371092319489e-03,7.059500366449356079e-02,-1.564812958240509033e-01,1.981585323810577393e-01,-8.475051075220108032e-02,-1.608325242996215820e-01,1.218584626913070679e-01,5.783797428011894226e-02,1.295765675604343414e-02,-4.174719378352165222e-02
6.711803376674652100e-02,-2.787800729274749756e-01,2.506637200713157654e-02,-8.630309253931045532e-03,2.047909200191497803e-01,5.159868393093347549e-03,-2.326832264661788940e-01,-7.246666401624679565e-02,-1.010412573814392090e-01,-1.019463688135147095e-01,-1.299093067646026611e-01,-1.671792864799499512e-01,1.829776018857955933e-01,1.814120262861251831e-01,2.389014214277267456e-01,1.012637689709663391e-01,7.373920828104019165e-02,-1.251579225063323975e-01,2.230124771595001221e-01,1.634358167648315430e-01,-2.314760833978652954e-01,-1.704048831015825272e-03,8.151360601186752319e-02,-1.535371690988540649e-01,-9.064920991659164429e-02,-8.732520043849945068e-02,-1.655349880456924438e-01,4.613006487488746643e-02,-8.267857134342193604e-02,1.430471688508987427e-01,8.238327503204345703e-02,-1.262411326169967651e-01,1.995263993740081787e-01,-1.690805852413177490e-01,1.289148181676864624e-01,-1.036847382783889771e-01,-1.799981296062469482e-01,-1.427514404058456421e-01,-5.126382689923048019e-03,-5.430195853114128113e-02,-1.297031641006469727e-01,-1.058289632201194763e-01,3.868337273597717285e-01,-2.338527143001556396e-01,8.920434862375259399e-03,2.198712378740310669e-01,1.959138810634613037e-01,-9.741094708442687988e-02,-2.845836281776428223e-01,-2.076992094516754150e-01
-1.928194910287857056e-01,-5.007642507553100586e-02,-8.362200111150741577e-02,-1.983651071786880493e-01,-8.631739765405654907e-02,-1.568999886512756348e-01,1.318724174052476883e-02,-3.556523919105529785e-01,2.977063122671097517e-04,-7.212146371603012085e-02,1.592831015586853027e-01,6.845968216657638550e-02,-1.724492013454437256e-01,9.256026893854141235e-02,-1.470525860786437988e-01,2.008795440196990967e-01,-1.135598793625831604e-01,-2.442234605550765991e-01,-7.638139277696609497e-02,1.454185843467712402e-01,-5.459390953183174133e-02,7.314500957727432251e-02,2.825563848018646240e-01,1.051839906722307205e-03,-1.966272592544555664e-01,1.988762617111206055e-01,1.184777468442916870e-01,-6.147230044007301331e-02,6.957302987575531006e-02,-3.143337368965148926e-02,-2.483033090829849243e-01,-1.720408797264099121e-01,-5.472942814230918884e-02,-2.111854553222656250e-01,1.362162381410598755e-01,-4.153359308838844299e-02,-1.409699916839599609e-01,1.027607098221778870e-01,-2.479903101921081543e-01,-1.105805486440658569e-02,1.464108098298311234e-02,-1.857946664094924927e-01,-4.900847002863883972e-02,1.816351711750030518e-01,2.427867203950881958e-01,1.300207376480102539e-01,1.459514498710632324e-01,-5.936425551772117615e-02,3.395587205886840820e-01,7.922250032424926758e-02
-9.346842020750045776e-02,-2.944482304155826569e-02,-7.361147552728652954e-02,5.808063969016075134e-02,-5.588131397962570190e-02,-2.660482190549373627e-02,-2.368042171001434326e-01,1.954355984926223755e-01,1.938337087631225586e-01,-1.817255616188049316e-01,2.168429642915725708e-01,1.030577048659324646e-01,-1.801220476627349854e-01,1.138016730546951294e-01,2.103678882122039795e-03,-1.822363436222076416e-01,1.658166050910949707e-01,-7.942184060811996460e-02,2.519522309303283691e-01,1.317243129014968872e-01,-1.661833673715591431e-01,1.360838115215301514e-01,1.765026301145553589e-01,1.053215935826301575e-01,1.626092642545700073e-01,1.821335554122924805e-01,1.294739842414855957e-01,2.221361100673675537e-01,1.843462437391281128e-01,-9.413876384496688843e-02,-1.260052472352981567e-01,-3.412041440606117249e-02,-6.234562024474143982e-02,1.351396739482879639e-01,2.521789073944091797e-01,-4.694574046880006790e-03,-1.156083643436431885e-01,6.247970089316368103e-02,1.646769791841506958e-01,8.530611544847488403e-02,-1.624690443277359009e-01,1.644568294286727905e-01,2.033521234989166260e-01,1.997058987617492676e-01,2.289154976606369019e-01,-7.594934850931167603e-02,1.930814236402511597e-01,6.261911708861589432e-03,1.993663311004638672e-01,4.538880288600921631e-02
-1.794989258050918579e-01,9.101668745279312134e-02,4.538371786475181580e-02,2.214972674846649170e-01,-2.153584361076354980e-01,-1.598615944385528564e-01,-4.252472147345542908e-02,-2.342167347669601440e-01,-5.183511599898338318e-02,-7.612618058919906616e-02,-4.444084316492080688e-02,-1.493658870458602905e-02,-1.458420455455780029e-01,-2.398128062486648560e-01,-8.174741268157958984e-02,1.080224364995956421e-01,1.215939596295356750e-01,5.820709466934204102e-02,3.614579141139984131e-02,1.005581095814704895e-01,-5.913021042943000793e-02,-6.763240322470664978e-03,1.078212484717369080e-01,1.977948695421218872e-01,7.116018980741500854e-02,6.806644052267074585e-02,-1.022330000996589661e-01,1.609786748886108398e-01,-4.109146445989608765e-02,1.401363909244537354e-01,6.718572974205017090e-02,-5.764087289571762085e-02,1.152213141322135925e-01,-5.717347562313079834e-02,-1.794229000806808472e-01,1.407278478145599365e-01,-2.335440367460250854e-01,-1.527115106582641602e-01,1.706506125628948212e-02,2.265481650829315186e-01,1.956845074892044067e-01,1.429921388626098633e-01,3.925530239939689636e-03,-1.429432034492492676e-01,-1.897565275430679321e-01,1.738283336162567139e-01,1.323724240064620972e-01,1.573983952403068542e-02,1.371319231111556292e-04,-2.288151904940605164e-02
5.225737392902374268e-02,1.625757813453674316e-01,-1.920004338026046753e-01,-1.696725636720657349e-01,-1.306526213884353638e-01,1.818185150623321533e-01,-5.187015980482101440e-02,1.442132443189620972e-01,1.022910177707672119e-01,-2.361081391572952271e-01,-2.111416161060333252e-01,2.681025117635726929e-02,-2.502221427857875824e-02,1.076447963714599609e-01,-1.036237999796867371e-01,-4.311350360512733459e-02,-1.877113580703735352e-01,-2.014645487070083618e-01,2.491358518600463867e-01,-1.081478968262672424e-01,8.270016987808048725e-04,9.970561414957046509e-02,-2.373027503490447998e-01,7.562052458524703979e-02,8.336491882801055908e-02,1.501664221286773682e-01,1.992839016020298004e-02,1.456142961978912354e-01,-1.088420525193214417e-01,-2.379095703363418579e-01,-6.486524641513824463e-02,1.469019949436187744e-01,4.140402376651763916e-02,9.156394004821777344e-02,-2.407128065824508667e-01,-3.668905049562454224e-02,1.559879779815673828e-01,1.512024551630020142e-01,-8.214642107486724854e-02,2.155159860849380493e-01,-1.648638546466827393e-01,-1.699481755495071411e-01,4.799733310937881470e-02,-1.797268092632293701e-01,1.589337289333343506e-01,4.639843478798866272e-02,-1.551615148782730103e-01,9.075700491666793823e-02,2.764331400394439697e-01,-1.740322709083557129e-01
-5.555415526032447815e-02,5.959891900420188904e-02,-7.801211625337600708e-02,-9.316622465848922729e-02,5.378471687436103821e-02,1.442174613475799561e-01,-1.150950491428375244e-01,-1.184512525796890259e-01,-1.062308251857757568e-02,-2.924342267215251923e-02,1.380280256271362305e-01,2.667735330760478973e-02,-1.070552095770835876e-01,-3.195145726203918457e-01,-2.317334860563278198e-01,-1.059180404990911484e-02,1.830560714006423950e-01,1.443965882062911987e-01,-2.769594453275203705e-02,1.619937084615230560e-02,2.512533776462078094e-02,-7.469718903303146362e-02,-2.068684846162796021e-01,-7.032014429569244385e-02,2.357522249221801758e-01,-1.115422174334526062e-01,7.158872485160827637e-02,-1.314301192760467529e-01,9.929240494966506958e-02,-6.170336157083511353e-02,-3.425282239913940430e-02,1.652168855071067810e-02,1.400756686925888062e-01,2.184957116842269897e-01,6.159943528473377228e-03,8.570221066474914551e-02,1.592481583356857300e-01,-6.773660331964492798e-02,-6.099535152316093445e-02,-1.909864842891693115e-01,-2.273906208574771881e-02,1.312570422887802124e-01,-1.714135110378265381e-01,3.662437945604324341e-02,-2.299398630857467651e-01,2.805473804473876953e-01,-5.067671090364456177e-02,-2.826894521713256836e-01,8.976075053215026855e-02,6.325835734605789185e-02
5.099984630942344666e-02,1.685960292816162109e-01,-7.883380353450775146e-02,8.616317063570022583e-02,4.080330021679401398e-03,-8.777604997158050537e-02,-1.922069676220417023e-02,-3.580405190587043762e-02,1.467403620481491089e-01,1.590476632118225098e-01,-8.379609882831573486e-02,-1.086277887225151062e-01,-1.486764401197433472e-01,-3.645672276616096497e-02,1.475088298320770264e-01,-2.052611261606216431e-01,9.385477006435394287e-02,-2.657303586602210999e-02,1.194664910435676575e-01,-1.388369351625442505e-01,-1.648742705583572388e-01,-1.420620083808898926e-01,-4.632525146007537842e-02,2.047807127237319946e-01,1.149784252047538757e-01,2.660044431686401367e-01,1.001327037811279297e-01,5.279827397316694260e-03,-2.158232480287551880e-01,-1.383320838212966919e-01,-1.112281903624534607e-01,1.569088101387023926e-01,-2.670930512249469757e-02,-1.027235463261604309e-01,-1.604701727628707886e-01,-3.020131401717662811e-02,-7.527036964893341064e-02,-7.278116047382354736e-02,3.307847678661346436e-02,1.157313436269760132e-01,2.085570394992828369e-01,-2.121331915259361267e-02,9.464911371469497681e-02,-1.370867788791656494e-01,4.174931719899177551e-02,1.059615761041641235e-01,1.695687770843505859e-01,-1.231123432517051697e-01,1.819459795951843262e-01,3.578590750694274902e-01
6.989421695470809937e-02,1.955056339502334595e-01,-3.640648722648620605e-02,-8.710098266601562500e-02,2.024479210376739502e-02,9.035523235797882080e-02,-8.208338171243667603e-02,6.077172234654426575e-02,-1.912975311279296875e-01,-1.403086036443710327e-01,-3.482713829725980759e-03,1.733163446187973022e-01,1.167282015085220337e-01,1.149686425924301147e-01,2.048090547323226929e-01,-1.534764617681503296e-01,2.887178771197795868e-02,-1.809781193733215332e-01,-2.105534523725509644e-01,1.271933168172836304e-01,8.372449874877929688e-02,-7.697204500436782837e-02,-6.526099890470504761e-02,6.923837214708328247e-02,-2.556331455707550049e-01,1.638239026069641113e-01,2.630429565906524658e-01,-8.715815842151641846e-02,-1.953539252281188965e-01,-1.353151649236679077e-01,3.137114224955439568e-03,1.295573711395263672e-01,-2.036954462528228760e-01,-2.535323500633239746e-01,-5.763198435306549072e-02,-3.708098083734512329e-02,-2.049288339912891388e-02,8.059351705014705658e-03,-6.947838515043258667e-02,-7.165960967540740967e-02,-1.890359371900558472e-01,-9.109396487474441528e-02,5.099189467728137970e-03,-6.819031387567520142e-02,-4.583778977394104004e-02,-8.979466557502746582e-02,-2.544260919094085693e-01,-4.932271689176559448e-02,2.449355274438858032e-01,1.674584113061428070e-02
-5.352397263050079346e-02,1.851210594177246094e-01,6.050914525985717773e-02,3.200523555278778076e-01,1.056390628218650818e-01,-8.889153599739074707e-02,2.233163565397262573e-01,2.867509126663208008e-01,-1.692637503147125244e-01,-4.805019416380673647e-04,-1.873310357332229614e-01,-1.546685248613357544e-01,-1.310708522796630859e-01,3.897313773632049561e-02,-2.515985667705535889e-01,8.939518034458160400e-02,-1.845071613788604736e-01,-1.268904209136962891e-01,2.211481779813766479e-01,1.423761546611785889e-01,-7.477717101573944092e-02,1.700023561716079712e-01,3.816910553723573685e-03,1.528853084892034531e-02,2.041557878255844116e-01,9.410358965396881104e-02,-6.482661515474319458e-02,-1.092421784996986389e-01,-8.688528835773468018e-02,-1.529075056314468384e-01,2.523742616176605225e-01,6.570222228765487671e-02,6.781044602394104004e-02,1.277903616428375244e-01,-2.167090624570846558e-01,-2.611500583589076996e-02,-1.200613304972648621e-01,1.841323524713516235e-01,-4.381836950778961182e-02,1.041215732693672180e-01,3.021104075014591217e-02,1.836434006690979004e-01,1.254057884216308594e-01,-7.570507377386093140e-02,-1.467197984457015991e-01,1.341604068875312805e-02,-9.078769385814666748e-02,8.190760388970375061e-03,6.748013198375701904e-02,1.631898107007145882e-03
1.040043216198682785e-02,1.857489198446273804e-01,-5.875941365957260132e-02,-3.200709586963057518e-03,2.979911565780639648e-01,-1.805416047573089600e-01,-1.503760516643524170e-01,1.499248445034027100e-01,-4.680427536368370056e-02,1.332552880048751831e-01,-3.754515573382377625e-02,1.265870332717895508e-01,2.872568964958190918e-01,-2.306799404323101044e-02,-5.013739690184593201e-02,-9.500338882207870483e-02,1.011993661522865295e-01,1.087692975997924805e-01,3.502440080046653748e-02,-1.582072973251342773e-01,-3.243666142225265503e-02,-5.430800840258598328e-03,1.321978867053985596e-02,5.934556946158409119e-02,-1.807402968406677246e-01,1.458729896694421768e-02,-1.062112897634506226e-01,-2.839126810431480408e-02,-2.640057913959026337e-02,-2.020601332187652588e-01,6.277284771203994751e-02,8.850524574518203735e-02,4.458972811698913574e-02,-1.082829758524894714e-01,1.523490343242883682e-02,-9.338077157735824585e-02,-5.675069987773895264e-02,5.957410484552383423e-02,-1.118410080671310425e-01,6.544262915849685669e-02,-2.784646674990653992e-02,-1.180932074785232544e-01,2.063468992710113525e-01,1.348308622837066650e-01,-2.310039699077606201e-01,2.270419336855411530e-02,9.399288147687911987e-02,1.920569539070129395e-01,1.111015230417251587e-01,1.208542510867118835e-01
-1.272510141134262085e-01,1.077117994427680969e-01,4.806356504559516907e-02,-2.507835626602172852e-01,2.527848184108734131e-01,-4.120457172393798828e-02,-2.032557316124439240e-02,-8.866956830024719238e-02,2.493553757667541504e-01,2.845176458358764648e-01,3.284507989883422852e-02,2.289841920137405396e-01,-8.415265381336212158e-02,1.793123632669448853e-01,-1.460184454917907715e-01,-5.873310193419456482e-02,-8.619718253612518311e-02,1.192602962255477905e-01,-1.317412778735160828e-02,-1.509181708097457886e-01,2.977401390671730042e-02,2.679143249988555908e-01,2.783082984387874603e-02,4.212965071201324463e-02,2.492732554674148560e-01,2.557396888732910156e-02,-1.642984449863433838e-01,1.661265343427658081e-01,1.194951012730598450e-01,6.166587024927139282e-02,-4.860638827085494995e-02,1.616751849651336670e-01,-5.474932491779327393e-02,-7.274065166711807251e-02,1.120429262518882751e-01,-2.420048974454402924e-02,1.531155854463577271e-01,-9.894427657127380371e-02,1.007738783955574036e-01,-1.152899041771888733e-01,-1.284253746271133423e-01,-1.214525997638702393e-01,1.597270667552947998e-01,2.458889484405517578e-01,-1.857038885354995728e-01,-6.393141299486160278e-02,1.155960932374000549e-01,-7.495160400867462158e-02,-2.998513281345367432e-01,-6.027081236243247986e-02
2.194985300302505493e-01,-6.952157616615295410e-02,1.826643347740173340e-01,-4.524094238877296448e-02,1.380660235881805420e-01,-5.501094833016395569e-02,6.508214399218559265e-03,3.237610757350921631e-01,-2.094803005456924438e-01,1.270581483840942383e-01,-7.425156980752944946e-02,-1.205425988882780075e-02,-2.771306037902832031e-01,1.724468730390071869e-02,-9.548362344503402710e-02,-5.599869415163993835e-02,-2.533626556396484375e-02,-1.160297356545925140e-02,2.778209187090396881e-02,-2.507515810430049896e-02,3.425629809498786926e-02,-7.423122227191925049e-02,-3.126547858119010925e-02,4.321485385298728943e-02,1.284128874540328979e-01,9.051183587871491909e-04,-4.536528512835502625e-02,-1.105346828699111938e-01,-1.657365821301937103e-02,-7.362261414527893066e-02,4.196146130561828613e-02,-5.103951320052146912e-02,2.569833695888519287e-01,-1.133963745087385178e-02,-2.680557966232299805e-02,-5.861303955316543579e-02,3.466430306434631348e-02,-1.723990291357040405e-01,1.229544803500175476e-01,7.749960571527481079e-02,1.530481576919555664e-01,2.640286684036254883e-01,-7.147159427404403687e-02,2.138434499502182007e-01,-2.622910141944885254e-01,-2.000199705362319946e-01,-1.420764178037643433e-01,-3.033430278301239014e-01,1.318213492631912231e-01,-9.286133199930191040e-02
1.330436915159225464e-01,-1.376709491014480591e-01,8.765653707087039948e-03,9.082721173763275146e-02,-1.011267527937889099e-01,7.680034264922142029e-03,7.903040945529937744e-02,2.640235126018524170e-01,-3.150350227952003479e-02,8.008947223424911499e-02,2.160819172859191895e-01,1.327926963567733765e-01,-2.178445905447006226e-01,3.390720859169960022e-02,1.676337271928787231e-01,7.067243754863739014e-02,-1.332549452781677246e-01,1.547176092863082886e-01,-1.383146941661834717e-01,5.837840959429740906e-02,-2.167121917009353638e-01,1.317854821681976318e-01,-1.262045651674270630e-01,-1.128205060958862305e-01,-5.313833802938461304e-02,1.318738013505935669e-01,1.816769391298294067e-01,-6.257537007331848145e-02,-1.961627304553985596e-01,-2.153442986309528351e-02,7.907301187515258789e-02,1.016435846686363220e-01,1.450844854116439819e-01,-2.475822567939758301e-01,1.579705923795700073e-01,-1.187849566340446472e-01,-1.350700706243515015e-01,1.927963048219680786e-01,9.529731422662734985e-02,1.482961922883987427e-01,1.258447319269180298e-01,-1.941109597682952881e-01,-2.030299045145511627e-02,-3.820242732763290405e-02,-7.797696441411972046e-02,5.595603212714195251e-02,-3.524664416909217834e-02,-1.192218810319900513e-01,-1.037312969565391541e-01,-4.907840117812156677e-02
1.234639436006546021e-01,1.874384433031082153e-01,3.147715702652931213e-02,1.622072309255599976e-01,-1.382754296064376831e-01,2.286415696144104004e-01,-1.805801093578338623e-01,2.708185315132141113e-01,-5.055396258831024170e-02,5.516701191663742065e-02,2.012620121240615845e-01,8.422188460826873779e-03,-8.686593174934387207e-02,1.207873374223709106e-01,-6.795517355203628540e-02,-1.772684454917907715e-01,2.119501382112503052e-01,6.057643145322799683e-02,-6.153704598546028137e-02,1.061061024665832520e-01,1.592196077108383179e-01,1.009706854820251465e-01,-5.551302060484886169e-02,1.855131983757019043e-01,1.536242514848709106e-01,-1.613736152648925781e-01,1.201855018734931946e-01,1.736364513635635376e-01,-1.999327093362808228e-01,-1.355135887861251831e-01,1.876212060451507568e-01,-1.218462288379669189e-01,1.198630630970001221e-01,1.845812648534774780e-01,-1.391205936670303345e-01,-3.554955124855041504e-02,-8.870796114206314087e-02,-1.188395917415618896e-01,-6.038860231637954712e-02,1.081861648708581924e-02,1.307014524936676025e-01,-1.652393788099288940e-01,-8.756689727306365967e-02,5.920844152569770813e-02,-1.065869480371475220e-01,1.852088123559951782e-01,-1.127762123942375183e-01,-2.786500938236713409e-02,-1.783237904310226440e-01,1.857941895723342896e-01
-7.758731022477149963e-03,8.387084305286407471e-02,-2.455083876848220825e-01,-3.099277019500732422e-01,6.528858095407485962e-02,-9.234133362770080566e-02,-1.842467784881591797e-01,-1.305875778198242188e-01,-2.287636399269104004e-01,-1.533032804727554321e-01,4.781357944011688232e-03,1.561430543661117554e-01,-1.089188735932111740e-02,-8.111777901649475098e-02,-2.164817005395889282e-01,-5.074021220207214355e-02,6.137796118855476379e-02,1.490117907524108887e-01,-2.767026126384735107e-01,2.572449147701263428e-01,-2.911656722426414490e-02,6.563378870487213135e-02,2.817933261394500732e-01,1.601016968488693237e-01,-3.414474055171012878e-02,9.542341530323028564e-02,2.114451490342617035e-02,-2.159062623977661133e-01,8.292453736066818237e-02,1.002073511481285095e-01,1.313708126544952393e-01,6.431173533201217651e-02,-2.033679634332656860e-01,-3.421593457460403442e-02,-9.897027164697647095e-03,-9.995223581790924072e-02,-9.677752852439880371e-02,1.675092279911041260e-01,-7.185279577970504761e-02,7.654312998056411743e-02,-1.772065907716751099e-01,9.952796250581741333e-02,-1.213891729712486267e-01,2.422931492328643799e-01,-7.529822736978530884e-02,2.055458724498748779e-02,4.356575664132833481e-03,-1.619707047939300537e-01,5.865456163883209229e-02,2.744651436805725098e-01
-1.585828810930252075e-01,8.357635885477066040e-02,-1.020107343792915344e-01,2.987476289272308350e-01,7.819205522537231445e-02,-7.507357746362686157e-02,-2.157032191753387451e-01,7.662644982337951660e-02,2.604594826698303223e-01,-2.421970292925834656e-02,-1.961763016879558563e-03,1.449294941266998649e-04,1.630287915468215942e-01,1.217728033661842346e-01,-1.668691784143447876e-01,-1.323574036359786987e-02,1.781974136829376221e-01,-2.112517058849334717e-01,1.540989428758621216e-01,-4.245902225375175476e-02,9.886305034160614014e-02,-9.165652841329574585e-02,-2.552207112312316895e-01,3.468951955437660217e-02,-2.710128948092460632e-02,2.183979451656341553e-01,2.542919516563415527e-01,1.051987409591674805e-01,3.075088746845722198e-02,8.056911081075668335e-02,1.132523193955421448e-01,1.238597854971885681e-01,-7.211348414421081543e-02,1.769177056849002838e-02,-1.025667712092399597e-01,2.175029665231704712e-01,-1.976968348026275635e-01,1.467653214931488037e-01,2.177174091339111328e-01,2.327536344528198242e-01,1.029086336493492126e-01,3.636499866843223572e-02,-7.578369230031967163e-02,8.466042578220367432e-03,1.786837279796600342e-01,1.252514868974685669e-01,-6.043334305286407471e-02,3.667042404413223267e-02,3.655948340892791748e-01,-1.363891661167144775e-01
-1.695864945650100708e-01,-1.072632521390914917e-01,1.917151063680648804e-01,9.565515071153640747e-02,1.762592941522598267e-01,-1.220164746046066284e-01,1.007118746638298035e-01,1.821960657835006714e-01,-3.283296152949333191e-02,-1.332947313785552979e-01,-2.038254141807556152e-01,4.750842601060867310e-02,-5.637777969241142273e-02,2.084914445877075195e-01,1.535670310258865356e-01,-1.295169740915298462e-01,-1.317300498485565186e-01,3.099957294762134552e-02,-1.284102201461791992e-01,1.473210379481315613e-02,7.971715182065963745e-02,2.111223153769969940e-02,-1.760934889316558838e-01,1.009209901094436646e-01,2.169533818960189819e-01,2.297060936689376831e-02,-1.638162136077880859e-01,-2.033058553934097290e-02,-1.422180831432342529e-01,1.229451671242713928e-01,5.556600540876388550e-02,-9.986019134521484375e-02,-1.714830994606018066e-01,6.978432834148406982e-02,2.066124677658081055e-01,3.478419035673141479e-02,8.751156926155090332e-02,8.256927877664566040e-02,1.582582667469978333e-02,-3.178052902221679688e-01,-1.178314983844757080e-01,1.664247363805770874e-01,-2.337859869003295898e-01,-1.439423412084579468e-01,1.395680904388427734e-01,-2.211687862873077393e-01,-1.764690577983856201e-01,2.244456708431243896e-01,-1.511770784854888916e-01,-1.388844698667526245e-01
-2.619462907314300537e-01,7.436826825141906738e-02,-1.120415702462196350e-01,-4.041974246501922607e-02,-5.879275873303413391e-02,-8.993184566497802734e-02,8.735231310129165649e-02,-2.111384645104408264e-02,1.661948412656784058e-01,1.052405238151550293e-01,1.595786213874816895e-01,-1.381948888301849365e-01,-2.152897268533706665e-01,2.071585357189178467e-01,-1.495613008737564087e-01,3.625957295298576355e-02,2.159519866108894348e-02,1.424250900745391846e-01,-3.517754673957824707e-01,-5.463362857699394226e-02,-2.842890843749046326e-02,9.151936322450637817e-02,5.449656024575233459e-02,-2.258077710866928101e-01,2.653826475143432617e-01,9.948672354221343994e-02,1.389621794223785400e-01,-3.570191934704780579e-02,-2.080623656511306763e-01,7.150970399379730225e-02,8.703900873661041260e-02,1.351348757743835449e-01,-1.809570640325546265e-01,1.699626296758651733e-01,-2.485985606908798218e-01,2.815382927656173706e-02,-1.209464147686958313e-01,-1.672839969396591187e-01,4.196025431156158447e-02,-1.483598947525024414e-01,1.602091193199157715e-01,-1.702204793691635132e-01,-2.324423380196094513e-02,-2.166302055120468140e-01,-1.075022891163825989e-01,-2.719502747058868408e-01,-1.669869571924209595e-01,5.085253342986106873e-02,3.164428174495697021e-01,8.401552587747573853e-02
1.045752093195915222e-01,1.632210910320281982e-01,2.489371597766876221e-01,9.344113618135452271e-02,1.459538936614990234e-01,-1.610331684350967407e-01,-1.245390400290489197e-01,4.245158657431602478e-02,1.625749021768569946e-01,-8.429670333862304688e-02,-1.945422738790512085e-01,1.245483011007308960e-01,-2.250237576663494110e-02,-5.782926082611083984e-02,1.663510054349899292e-01,1.005878895521163940e-01,-3.378083184361457825e-02,2.856640517711639404e-01,3.305273875594139099e-02,6.295447796583175659e-02,-2.632534503936767578e-02,1.103510409593582153e-01,9.096582978963851929e-02,-1.564808748662471771e-02,1.755435168743133545e-01,8.920179307460784912e-02,1.466326415538787842e-01,-2.380758523941040039e-01,-2.393988519906997681e-01,2.395863384008407593e-01,1.006390452384948730e-01,1.837847568094730377e-02,-2.548009753227233887e-01,1.067333072423934937e-01,-1.415856629610061646e-01,1.415372639894485474e-01,-2.327593415975570679e-01,1.158610731363296509e-01,-7.500445842742919922e-02,-7.721070200204849243e-02,1.330343931913375854e-01,-2.019117623567581177e-01,2.203445695340633392e-02,8.162808604538440704e-03,1.844621747732162476e-01,2.014512419700622559e-01,6.900974363088607788e-02,1.033920943737030029e-01,-1.538404673337936401e-01,-5.891902372241020203e-02
-9.725071489810943604e-03,-1.467871200293302536e-02,-1.084446087479591370e-01,-1.362498700618743896e-01,1.242753956466913223e-02,1.082737073302268982e-01,-5.041636526584625244e-02,1.399722546339035034e-01,3.069488517940044403e-02,-2.855659127235412598e-01,-2.231221944093704224e-01,-1.141669377684593201e-01,-1.239742487668991089e-01,5.555945262312889099e-02,1.320880055427551270e-01,-1.847297400236129761e-01,5.753205716609954834e-02,-1.097041890025138855e-01,5.024401471018791199e-02,1.362926214933395386e-01,5.592848733067512512e-02,-3.756891787052154541e-01,1.881897598505020142e-01,1.284142732620239258e-01,-1.328714787960052490e-01,-2.635609507560729980e-01,-1.603607833385467529e-01,1.047391295433044434e-01,7.778168469667434692e-02,2.944752871990203857e-01,-3.381576016545295715e-02,1.911171972751617432e-01,2.567126452922821045e-01,2.165651917457580566e-01,-2.209902275353670120e-03,1.062025800347328186e-01,1.146870478987693787e-01,-6.572725251317024231e-04,-1.120166033506393433e-01,2.325785309076309204e-01,2.631140686571598053e-02,-9.174654632806777954e-02,5.013727396726608276e-02,1.953052878379821777e-01,5.264328792691230774e-02,-9.794336557388305664e-02,1.920723766088485718e-01,-1.525232344865798950e-01,-1.463500708341598511e-01,1.572610735893249512e-01
7.012889534235000610e-02,-1.575140953063964844e-01,2.078507840633392334e-01,-4.783464595675468445e-02,1.920975744724273682e-01,-1.037273928523063660e-01,2.532530426979064941e-01,-6.196175143122673035e-02,-6.025268509984016418e-02,4.771187156438827515e-02,1.012437231838703156e-02,-1.089137792587280273e-01,-1.796720027923583984e-01,1.293161362409591675e-01,-3.141390532255172729e-02,-1.224185451865196228e-01,1.981920301914215088e-01,-1.883356869220733643e-01,-1.761485785245895386e-01,4.988262057304382324e-02,-1.113560497760772705e-01,4.503507167100906372e-02,-4.259513225406408310e-03,-2.205877900123596191e-01,-1.277572959661483765e-01,-1.810370013117790222e-02,-3.178445994853973389e-01,-1.402473002672195435e-01,-3.066042661666870117e-01,-1.746505349874496460e-01,7.792290300130844116e-02,1.786067485809326172e-01,9.879434108734130859e-02,-1.908518821001052856e-01,2.720441520214080811e-01,2.757715061306953430e-02,2.591678500175476074e-01,-8.536228537559509277e-02,-1.730503588914871216e-01,1.167081817984580994e-01,4.086882807314395905e-03,5.671942234039306641e-02,-3.293697908520698547e-02,1.418702751398086548e-01,1.169268041849136353e-02,3.016457706689834595e-02,-1.374960392713546753e-01,-2.069469988346099854e-01,-1.643400639295578003e-01,1.105599328875541687e-01
-1.357639431953430176e-01,-7.955423742532730103e-02,-1.279655843973159790e-01,-7.662956416606903076e-02,-2.195076048374176025e-01,1.949777901172637939e-01,-3.743962943553924561e-02,1.690402179956436157e-01,-2.393898367881774902e-01,6.715045124292373657e-02,-8.452757447957992554e-02,1.899336464703083038e-02,1.963610351085662842e-01,-1.433396339416503906e-01,-1.847624778747558594e-01,-1.685083061456680298e-01,-1.587677448987960815e-01,6.203921139240264893e-02,-3.301751986145973206e-02,-1.444657742977142334e-01,-2.934858016669750214e-02,2.782091498374938965e-01,-1.037516966462135315e-01,5.390916392207145691e-02,7.192855118773877621e-04,-1.231634914875030518e-01,-1.579283326864242554e-01,-7.483292371034622192e-03,2.263126969337463379e-01,1.586106717586517334e-01,1.318322271108627319e-01,-2.236729115247726440e-01,2.548322081565856934e-01,-6.201158091425895691e-02,-1.853558272123336792e-01,8.379132300615310669e-02,1.287018414586782455e-02,7.428326457738876343e-02,-1.249112486839294434e-01,-2.838625609874725342e-01,-2.046026289463043213e-02,2.261273562908172607e-01,1.817672513425350189e-02,-1.268605142831802368e-01,-2.502233386039733887e-01,-1.258052289485931396e-01,-1.360466182231903076e-01,-2.474971711635589600e-01,2.924236096441745758e-02,9.544839709997177124e-02
3.807316347956657410e-02,-1.110918074846267700e-01,-2.153263390064239502e-01,-9.926579147577285767e-02,-1.290113925933837891e-01,-1.136078871786594391e-02,1.728851199150085449e-01,1.503686904907226562e-01,-6.888061016798019409e-02,-2.394609302282333374e-01,-1.477010399103164673e-01,6.703903526067733765e-02,-6.504345685243606567e-02,1.818233430385589600e-01,-1.083560660481452942e-01,-1.402538567781448364e-01,2.025178223848342896e-01,2.531160712242126465e-01,-1.088277325034141541e-01,9.739802032709121704e-02,-7.109828293323516846e-02,2.036875337362289429e-01,1.955421119928359985e-01,8.158037066459655762e-02,2.947999835014343262e-01,-3.215749561786651611e-02,2.110170572996139526e-02,1.485529541969299316e-01,2.036167085170745850e-01,1.196425757370889187e-03,1.163067892193794250e-01,8.661782741546630859e-02,-3.917731519322842360e-04,-1.667851656675338745e-01,1.180597841739654541e-01,1.064471993595361710e-02,4.556100070476531982e-02,-2.514932118356227875e-02,1.581385582685470581e-01,6.439482420682907104e-02,1.383321136236190796e-01,-1.087621450424194336e-01,-3.010732494294643402e-02,-2.205628901720046997e-01,-3.613083809614181519e-02,1.823915094137191772e-01,-2.928460016846656799e-02,4.026388004422187805e-02,1.981734335422515869e-01,2.814083918929100037e-02
1.700322609394788742e-03,-4.467421397566795349e-02,1.593880951404571533e-01,-1.927782781422138214e-02,2.710434794425964355e-01,-1.212112605571746826e-01,-8.776982314884662628e-03,-1.895025670528411865e-01,1.901950687170028687e-01,1.015892848372459412e-01,-7.219240814447402954e-02,-3.148094564676284790e-02,2.573696672916412354e-01,-1.088704913854598999e-02,1.926476955413818359e-01,1.054298058152198792e-01,1.455048471689224243e-01,-8.494172245264053345e-02,2.050597667694091797e-01,1.812795698642730713e-01,-1.889446973800659180e-01,1.777993142604827881e-01,-6.799250096082687378e-02,7.953687757253646851e-02,-1.821435689926147461e-01,-9.440843015909194946e-02,1.084948778152465820e-01,7.250685989856719971e-02,-2.410033047199249268e-01,2.995522320270538330e-01,-2.173778414726257324e-01,-1.328592598438262939e-01,3.303243592381477356e-02,-1.774935275316238403e-01,2.147783339023590088e-01,1.539648920297622681e-01,2.180369645357131958e-01,4.587895423173904419e-02,8.624313771724700928e-02,1.018605530261993408e-01,-1.692588329315185547e-01,3.925235196948051453e-02,6.035079807043075562e-02,-1.997507363557815552e-01,-1.236683279275894165e-01,1.748528033494949341e-01,-3.496343642473220825e-02,1.287774443626403809e-01,5.387324094772338867e-02,-4.305060952901840210e-02
1.456730216741561890e-01,5.138977989554405212e-02,2.224995940923690796e-01,-5.734138935804367065e-02,-4.455717280507087708e-03,8.870546519756317139e-02,-1.395937949419021606e-01,-1.684098988771438599e-01,2.148708552122116089e-01,-1.479873806238174438e-01,-7.965715229511260986e-02,5.527978762984275818e-02,-8.529872447252273560e-02,-1.093249395489692688e-01,8.900044113397598267e-02,-7.071156799793243408e-02,4.975190013647079468e-02,4.589271545410156250e-02,-3.335624560713768005e-02,-5.531688220798969269e-03,7.351870834827423096e-02,1.266373544931411743e-01,1.830616593360900879e-01,-5.684884265065193176e-02,4.418976977467536926e-02,-2.516638636589050293e-01,-1.740204095840454102e-01,1.819120254367589951e-03,5.086800083518028259e-02,1.030633226037025452e-01,-1.714146286249160767e-01,-6.004029139876365662e-02,-1.658279001712799072e-01,2.095203399658203125e-01,2.510676160454750061e-02,-3.285194933414459229e-01,6.840258091688156128e-02,-2.072433978319168091e-01,-1.201933771371841431e-01,-1.286425888538360596e-01,6.455961614847183228e-02,-2.300926893949508667e-01,-1.797289121896028519e-03,8.381599187850952148e-02,1.227320358157157898e-01,8.853839337825775146e-02,1.369125992059707642e-01,4.782658442854881287e-02,7.992863655090332031e-03,-8.199364691972732544e-02
-3.721990063786506653e-02,-5.568665917962789536e-03,-5.372362211346626282e-02,1.408927589654922485e-01,1.155104637145996094e-01,-1.603791117668151855e-01,6.179416086524724960e-03,1.990956813097000122e-01,4.665913805365562439e-02,-2.353811264038085938e-02,-9.260953217744827271e-02,1.459802873432636261e-02,2.921642363071441650e-02,2.448189444839954376e-02,-1.115570813417434692e-01,-1.804628372192382812e-01,-1.023133173584938049e-01,8.700361847877502441e-02,2.264786958694458008e-01,7.624545693397521973e-02,-1.362258642911911011e-01,-4.564909636974334717e-02,2.936933338642120361e-01,4.674250259995460510e-02,1.399070173501968384e-01,-1.120118573307991028e-01,-6.409433204680681229e-03,-1.373209357261657715e-01,2.300428301095962524e-01,1.187863200902938843e-01,2.161626964807510376e-01,-5.055279657244682312e-02,1.879729032516479492e-01,-8.474338054656982422e-02,-7.601847499608993530e-02,8.877354674041271210e-03,1.655656248331069946e-01,-8.369645476341247559e-02,-3.136050701141357422e-02,7.939482480287551880e-02,6.061563733965158463e-03,-1.778190955519676208e-02,1.059793457388877869e-01,-1.228216439485549927e-01,-1.037695445120334625e-02,1.518705636262893677e-01,1.190797239542007446e-01,-2.986578270792961121e-02,-1.107769832015037537e-01,-2.411372773349285126e-02
4.549784213304519653e-02,8.382686227560043335e-02,2.594216354191303253e-02,-1.319726854562759399e-01,-5.277608986943960190e-03,5.606402829289436340e-02,-1.742831468582153320e-01,-1.710981130599975586e-01,-1.326339244842529297e-01,1.214731186628341675e-01,-6.623218953609466553e-02,7.238330692052841187e-02,9.138945490121841431e-02,-5.210485309362411499e-02,1.580808460712432861e-01,1.328648924827575684e-01,1.210807859897613525e-01,-7.664888352155685425e-02,1.206461414694786072e-01,6.259427219629287720e-02,6.639154255390167236e-02,1.117901653051376343e-01,-1.788323223590850830e-01,1.600997745990753174e-01,6.550645083189010620e-02,-1.479272991418838501e-01,-1.567258983850479126e-01,-1.278599649667739868e-01,-4.254365712404251099e-02,-1.278095841407775879e-01,-7.547809928655624390e-02,1.559925675392150879e-01,-1.645998656749725342e-01,-1.543496102094650269e-01,1.423730850219726562e-01,2.344905436038970947e-01,2.403139621019363403e-01,2.051542848348617554e-01,-2.044123969972133636e-02,-1.681432873010635376e-01,1.487622708082199097e-01,4.907328635454177856e-02,9.218026697635650635e-02,-7.381887733936309814e-02,1.648040115833282471e-01,-2.955698035657405853e-02,-8.765482902526855469e-02,7.450867444276809692e-02,-9.157489985227584839e-02,-1.666539162397384644e-02
-1.573482453823089600e-01,-1.921399980783462524e-01,-2.037083357572555542e-02,-2.558417320251464844e-01,9.927657246589660645e-02,-3.387921303510665894e-02,-1.028739735484123230e-01,-1.889295727014541626e-01,-3.197903186082839966e-02,-1.943601518869400024e-01,-4.879688471555709839e-02,-1.355811953544616699e-02,7.900793850421905518e-02,1.742872446775436401e-01,1.791162341833114624e-01,-2.431538105010986328e-01,-2.503627538681030273e-01,1.225137338042259216e-01,-3.304415941238403320e-01,-8.029444143176078796e-03,-8.904930949211120605e-02,-4.238754138350486755e-02,3.191905617713928223e-01,-1.461274176836013794e-01,9.853643178939819336e-02,-2.061024755239486694e-01,-1.073123067617416382e-01,2.744199335575103760e-02,2.298907041549682617e-01,1.839950829744338989e-01,-1.967260986566543579e-01,1.831406541168689728e-02,-1.627267301082611084e-01,5.870801955461502075e-02,1.530512869358062744e-01,4.950733184814453125e-01,2.544218003749847412e-01,1.372089087963104248e-01,-1.776125282049179077e-01,-2.528116106986999512e-01,5.944116413593292236e-02,-1.147536858916282654e-01,1.691174954175949097e-01,7.332976907491683960e-02,-1.330085545778274536e-01,9.497478604316711426e-02,-5.478689074516296387e-02,-1.568718254566192627e-01,2.263014614582061768e-01,5.963005870580673218e-02
9.524989128112792969e-02,-1.550233215093612671e-01,-5.472001805901527405e-02,-9.723656624555587769e-02,2.070557773113250732e-01,1.481084674596786499e-01,-1.691551953554153442e-01,8.612693101167678833e-02,-1.771639883518218994e-01,-8.602432161569595337e-02,-1.140871644020080566e-01,-1.931010186672210693e-01,-8.679623901844024658e-02,1.321827322244644165e-01,-5.396292358636856079e-02,-1.310092806816101074e-01,-2.273425757884979248e-01,-8.344977349042892456e-02,2.223592847585678101e-01,-9.381555952131748199e-03,4.842540249228477478e-02,1.182492747902870178e-01,-1.785611063241958618e-01,-4.879482463002204895e-02,-1.804929822683334351e-01,2.149834483861923218e-01,2.178964167833328247e-01,-6.182512268424034119e-02,-9.597163647413253784e-02,-1.222740113735198975e-01,-5.736033618450164795e-02,2.456165254116058350e-01,1.061104461550712585e-01,-6.129916757345199585e-02,1.197869181632995605e-01,4.875033199787139893e-01,-8.412668481469154358e-03,7.224839180707931519e-02,-4.165806621313095093e-02,-2.414263188838958740e-01,1.060541868209838867e-01,-2.210354059934616089e-01,1.396268457174301147e-01,-1.132773384451866150e-01,-7.427201420068740845e-02,1.503189951181411743e-01,2.382773905992507935e-02,1.838716715574264526e-01,1.874100416898727417e-01,-5.296495510265231133e-04
-1.365585774183273315e-01,2.493945360183715820e-01,-1.630482524633407593e-01,7.755433022975921631e-02,-2.568647861480712891e-01,1.661563813686370850e-01,1.891860812902450562e-01,-5.431788787245750427e-02,1.292411834001541138e-01,-2.107834666967391968e-01,-7.950523495674133301e-02,1.550070494413375854e-01,6.324370950460433960e-02,8.038281649351119995e-02,-8.634501695632934570e-02,4.215693473815917969e-02,-1.129307001829147339e-01,-1.226625591516494751e-01,2.265707105398178101e-01,1.388583052903413773e-02,-1.478734612464904785e-01,1.537340432405471802e-01,1.041434481739997864e-01,-1.454201191663742065e-01,-1.559994518756866455e-01,2.419995218515396118e-01,-5.020980164408683777e-02,-1.459686905145645142e-01,8.326190710067749023e-02,-3.250052919611334801e-03,-1.825102865695953369e-01,7.234226167201995850e-02,2.262092381715774536e-01,2.311363220214843750e-01,-1.266151517629623413e-01,-1.630141884088516235e-01,2.183179929852485657e-02,-1.054187044501304626e-01,1.076898574829101562e-01,-1.961249262094497681e-01,-5.654215067625045776e-02,-4.509938508272171021e-02,-5.411003157496452332e-02,6.253504008054733276e-02,-1.027185395359992981e-01,-8.426630496978759766e-02,1.113281473517417908e-01,-8.051390945911407471e-02,2.450356036424636841e-01,9.900316596031188965e-02
2.723317220807075500e-02,-2.052730321884155273e-01,-2.583150863647460938e-01,-9.143857657909393311e-02,2.650832198560237885e-02,3.767372295260429382e-02,1.902321428060531616e-01,-8.857701718807220459e-02,5.752210319042205811e-02,5.688391998410224915e-02,2.376712709665298462e-01,-6.633225083351135254e-02,-1.207266971468925476e-01,1.889787316322326660e-01,2.293996959924697876e-01,1.139215007424354553e-01,-2.792679071426391602e-01,-2.540937662124633789e-01,-4.080556705594062805e-02,1.504824124276638031e-02,-5.214063823223114014e-02,1.019064337015151978e-01,2.733671665191650391e-01,3.326255977153778076e-01,-1.916160881519317627e-01,1.205781027674674988e-01,-1.103128120303153992e-01,-2.838139981031417847e-02,-4.881718382239341736e-02,2.586016245186328888e-02,-2.549252510070800781e-01,-1.149711906909942627e-01,-2.142619788646697998e-01,2.194161266088485718e-01,4.865122586488723755e-02,4.270222038030624390e-02,1.270566284656524658e-01,-9.248737245798110962e-02,-1.677820086479187012e-01,2.007518261671066284e-01,2.302750796079635620e-01,-3.023265600204467773e-01,2.026095241308212280e-01,-2.375448644161224365e-01,2.400417774915695190e-01,1.835426241159439087e-01,2.529695630073547363e-02,1.388595104217529297e-01,9.298203140497207642e-02,1.863960772752761841e-01
7.990947365760803223e-02,1.217366475611925125e-02,1.341262012720108032e-01,-7.574500888586044312e-02,1.819856762886047363e-01,1.299739629030227661e-01,8.196301013231277466e-02,-1.629475876688957214e-02,1.741493195295333862e-01,-3.972128778696060181e-02,-1.380636543035507202e-01,-2.314689755439758301e-01,1.147401928901672363e-01,-5.357748270034790039e-02,-2.903285622596740723e-01,1.164694353938102722e-01,2.182039171457290649e-01,-6.452110409736633301e-02,-6.724226474761962891e-02,-1.216977611184120178e-01,4.865601658821105957e-02,6.872601062059402466e-02,-1.243203431367874146e-01,8.540745824575424194e-02,-5.497484654188156128e-02,-1.439721435308456421e-01,-6.033226475119590759e-02,-2.543143630027770996e-01,-7.425220310688018799e-02,-1.183420494198799133e-01,-5.941682681441307068e-02,-4.743831523228436708e-04,2.174496203660964966e-01,1.705201268196105957e-01,-5.155009031295776367e-02,7.240581512451171875e-02,-1.358056962490081787e-01,-2.650443613529205322e-01,-5.654845014214515686e-02,-1.355769578367471695e-02,-2.109589278697967529e-01,2.586797811090946198e-02,-9.754602611064910889e-02,1.425006687641143799e-01,9.029022604227066040e-02,-1.835315488278865814e-02,-2.696005702018737793e-01,1.649872958660125732e-02,-2.118936777114868164e-01,6.266846507787704468e-02
-8.584479242563247681e-02,-1.366316229104995728e-01,-2.152307033538818359e-01,-2.204192578792572021e-01,6.126529350876808167e-02,-2.471489310264587402e-01,1.484522074460983276e-01,1.773422509431838989e-01,1.471578180789947510e-01,7.063141465187072754e-02,-6.493152678012847900e-02,1.376048475503921509e-01,4.028777405619621277e-02,-1.975183188915252686e-01,-7.353629916906356812e-02,1.253423243761062622e-01,-5.397790670394897461e-02,-5.449627712368965149e-02,1.273285895586013794e-01,-8.620329946279525757e-02,3.113664984703063965e-01,1.863300949335098267e-01,-7.179351523518562317e-03,-1.627555489540100098e-01,2.934396564960479736e-01,1.794840246438980103e-01,-1.799365878105163574e-01,2.311923354864120483e-01,1.434878259897232056e-01,-1.561526209115982056e-01,2.578619681298732758e-02,5.485218763351440430e-02,-1.910272687673568726e-01,8.702892065048217773e-02,4.959239065647125244e-02,1.006887033581733704e-01,-4.265446960926055908e-02,2.300813049077987671e-01,-1.081111878156661987e-01,-1.990415453910827637e-01,-9.725715219974517822e-02,1.095899194478988647e-01,-8.297495543956756592e-03,1.384118106216192245e-02,1.333990991115570068e-01,-2.217433750629425049e-01,1.116331517696380615e-01,2.377877682447433472e-01,2.677766047418117523e-02,2.425417304039001465e-02
-5.427682399749755859e-02,-9.516376070678234100e-03,5.171573534607887268e-02,1.269333660602569580e-01,-1.443884670734405518e-01,-1.609860211610794067e-01,4.893560707569122314e-02,-2.056028693914413452e-02,-1.900094561278820038e-02,-1.370152086019515991e-01,1.425876282155513763e-02,4.742879886180162430e-03,7.534349709749221802e-02,-1.290466785430908203e-01,1.749343238770961761e-02,1.324867457151412964e-01,-9.256551973521709442e-03,-5.842947214841842651e-02,1.995156854391098022e-01,1.090466901659965515e-01,3.350064158439636230e-02,1.556155234575271606e-01,4.644542187452316284e-02,8.107938617467880249e-02,2.217922955751419067e-01,1.741520762443542480e-01,1.700317412614822388e-01,-4.630401358008384705e-02,-2.262764424085617065e-01,-1.913527995347976685e-01,-1.116071641445159912e-01,2.181696146726608276e-01,2.311869710683822632e-01,9.070858359336853027e-02,1.514223515987396240e-01,-1.402479410171508789e-01,-5.021765083074569702e-02,2.169034630060195923e-02,1.003087982535362244e-01,-1.000559329986572266e-01,-4.459081962704658508e-02,-1.332744490355253220e-02,2.006940841674804688e-01,-2.830857932567596436e-01,-3.135971026495099068e-03,-1.197141334414482117e-01,5.750063061714172363e-02,9.916946291923522949e-03,4.579719603061676025e-01,-1.592902690172195435e-01
-1.853645890951156616e-01,-1.119697466492652893e-01,1.294440180063247681e-01,-1.757766306400299072e-01,-1.419130414724349976e-01,-1.470480561256408691e-01,-2.049152404069900513e-01,-3.808979690074920654e-02,1.953163743019104004e-01,1.726313531398773193e-01,-2.532469108700752258e-02,-1.388912200927734375e-01,-2.840799093246459961e-02,-1.159597113728523254e-01,2.069284468889236450e-01,-1.668258905410766602e-01,2.043440937995910645e-01,-4.079875349998474121e-02,-9.802066534757614136e-02,3.192700445652008057e-03,-7.411842793226242065e-02,-1.522122472524642944e-01,2.059113979339599609e-01,-4.225343838334083557e-02,-1.084315869957208633e-02,4.575207084417343140e-02,1.479307115077972412e-01,1.387945562601089478e-01,1.518216878175735474e-01,-4.281579703092575073e-02,6.823007017374038696e-02,2.014218866825103760e-01,1.397400945425033569e-01,-1.229408569633960724e-02,-7.723849266767501831e-02,-1.219755411148071289e-01,6.066923961043357849e-02,-6.244474276900291443e-02,-2.698808014392852783e-01,2.775016799569129944e-02,1.901967823505401611e-01,-1.596983373165130615e-01,6.296946108341217041e-02,-1.876851171255111694e-02,-1.535893380641937256e-01,-9.482247382402420044e-02,1.346282511949539185e-01,-1.057163476943969727e-01,2.121693193912506104e-01,-4.190692305564880371e-02
-3.122951090335845947e-01,1.178374588489532471e-01,8.278842270374298096e-02,1.110491692088544369e-03,1.430892348289489746e-01,4.757984727621078491e-02,1.483510881662368774e-01,4.359012097120285034e-02,1.818314343690872192e-01,-9.772624820470809937e-02,9.335792064666748047e-02,-1.611494421958923340e-01,-1.357055455446243286e-01,-6.793347001075744629e-02,-4.403122887015342712e-02,6.511236727237701416e-02,9.800252318382263184e-02,7.246331125497817993e-02,1.947933994233608246e-02,9.061021357774734497e-02,-1.874541044235229492e-01,3.486499562859535217e-02,7.381080090999603271e-02,2.393496781587600708e-02,-8.320811390876770020e-02,3.176754340529441833e-02,-1.984999626874923706e-01,-7.138371467590332031e-02,-2.273572087287902832e-01,2.880488634109497070e-01,1.642577536404132843e-02,-1.356953382492065430e-01,1.172920316457748413e-01,1.634965538978576660e-01,1.708368360996246338e-01,-2.688526809215545654e-01,-4.059164598584175110e-02,-6.194294244050979614e-02,1.174676418304443359e-01,2.345793247222900391e-01,3.380215726792812347e-03,-1.242436021566390991e-01,-7.570142298936843872e-02,1.085654739290475845e-02,1.946988850831985474e-01,1.134156361222267151e-01,8.679953217506408691e-02,1.917679905891418457e-01,-1.812379807233810425e-01,1.730678528547286987e-01
3.424460813403129578e-02,-3.365211933851242065e-02,-1.222788318991661072e-01,-2.542593888938426971e-02,-1.950342208147048950e-01,-3.690145909786224365e-02,-4.975649341940879822e-02,2.543145716190338135e-01,-1.215992867946624756e-01,2.695387005805969238e-01,-7.956290245056152344e-02,1.143292710185050964e-01,1.164981275796890259e-01,3.419742360711097717e-02,1.353540122509002686e-01,-6.690530478954315186e-02,-5.835697054862976074e-02,-6.455983221530914307e-02,3.575699776411056519e-02,8.834452927112579346e-02,-1.530540734529495239e-01,-1.322913169860839844e-01,1.528965085744857788e-01,-3.760221600532531738e-02,4.230035468935966492e-02,-5.338905006647109985e-02,1.132443472743034363e-01,2.027999758720397949e-01,-2.632775902748107910e-01,-1.688489317893981934e-01,1.411799043416976929e-01,-4.521188884973526001e-02,-1.501552611589431763e-01,3.324960544705390930e-02,3.770905360579490662e-02,9.754602611064910889e-02,-2.998754680156707764e-01,-5.217242240905761719e-02,-1.501255780458450317e-01,-6.483671069145202637e-02,5.753019824624061584e-02,1.334382444620132446e-01,-5.632254108786582947e-02,-7.735703885555267334e-02,1.513391286134719849e-01,6.382244825363159180e-02,-1.511096209287643433e-01,2.116947621107101440e-02,-2.512630224227905273e-01,1.254408955574035645e-01
1.754309833049774170e-01,1.788106560707092285e-01,7.201829552650451660e-02,-1.569849252700805664e-02,-4.886304959654808044e-02,6.360166519880294800e-02,-3.504608571529388428e-02,7.703605294227600098e-02,-1.469417382031679153e-02,1.049563512206077576e-01,-1.455673128366470337e-01,2.151287794113159180e-01,-6.087234243750572205e-02,6.202171370387077332e-02,4.046219214797019958e-02,-1.858012168668210506e-03,6.195188499987125397e-03,6.629490107297897339e-02,1.773065775632858276e-01,8.572414517402648926e-02,-1.414385586977005005e-01,-1.014227569103240967e-01,1.354493945837020874e-01,2.046433389186859131e-01,9.165966510772705078e-02,-9.865584969520568848e-02,-1.451616585254669189e-01,-1.899519190192222595e-02,-2.750001475214958191e-02,-2.580427825450897217e-01,-8.587484806776046753e-02,1.098788008093833923e-01,-7.138375937938690186e-02,3.796405345201492310e-02,1.124373003840446472e-01,-1.323080062866210938e-01,5.170177295804023743e-02,8.784154802560806274e-02,-7.189451903104782104e-02,4.222668334841728210e-02,1.016750857234001160e-01,1.961256749927997589e-02,1.047664061188697815e-01,-2.139426581561565399e-02,1.739846169948577881e-01,-2.045312821865081787e-01,1.432068496942520142e-01,-2.128226915374398232e-03,3.160616010427474976e-02,9.387268126010894775e-02
1.525562405586242676e-01,-9.161816537380218506e-02,-2.241952717304229736e-01,8.798879384994506836e-02,1.601438522338867188e-01,3.013550639152526855e-01,1.780996024608612061e-01,1.910952329635620117e-01,-2.386461244896054268e-03,2.740903496742248535e-01,-1.642370969057083130e-01,1.047366783022880554e-01,9.926480054855346680e-02,1.114085018634796143e-01,-3.119435608386993408e-01,-7.541588693857192993e-02,-3.771598916500806808e-03,-7.638102024793624878e-02,-3.981216996908187866e-02,-1.602010279893875122e-01,1.227830201387405396e-01,1.800012141466140747e-01,-1.058392971754074097e-01,9.687742590904235840e-02,-1.668121516704559326e-01,-1.206401176750659943e-02,2.335005849599838257e-01,-4.348323680460453033e-03,8.486868441104888916e-02,7.554294168949127197e-02,-1.649914085865020752e-01,-9.710349142551422119e-02,1.113265678286552429e-01,-4.318610206246376038e-02,-3.878089785575866699e-02,-3.139088302850723267e-02,-1.617236733436584473e-01,-3.302096426486968994e-01,2.506878376007080078e-01,-1.077236905694007874e-01,1.010824069380760193e-01,3.620248287916183472e-02,-2.048686742782592773e-01,-3.083061892539262772e-03,9.198345243930816650e-02,1.880057454109191895e-01,-7.574883103370666504e-02,1.185414381325244904e-02,-2.136416733264923096e-02,2.593844234943389893e-01
-1.382819563150405884e-01,-2.788610756397247314e-01,-4.967040941119194031e-02,-1.946019232273101807e-01,-9.586296230554580688e-02,-1.590528339147567749e-01,3.021956607699394226e-02,1.129501760005950928e-01,-1.304099559783935547e-01,-6.680633872747421265e-02,1.894295066595077515e-01,-1.328478604555130005e-01,1.101739704608917236e-01,2.403577975928783417e-02,3.344515338540077209e-02,2.738096117973327637e-01,1.655612438917160034e-01,-1.269129067659378052e-01,2.031827121973037720e-01,3.412132710218429565e-02,-4.253057762980461121e-02,-1.702144742012023926e-01,4.863644391298294067e-02,1.988097876310348511e-01,-4.122063890099525452e-02,-1.135340481996536255e-01,2.358822524547576904e-01,1.336962133646011353e-01,2.330704033374786377e-01,-6.291513144969940186e-02,-6.338517367839813232e-02,-1.035764738917350769e-01,-1.985635906457901001e-01,-2.021238207817077637e-01,-4.296340793371200562e-02,4.320637322962284088e-03,-1.396144777536392212e-01,8.000936359167098999e-02,1.413688063621520996e-01,2.197725325822830200e-01,-1.359361261129379272e-01,-4.533380270004272461e-02,-3.256338462233543396e-02,-8.476909995079040527e-02,1.171524748206138611e-01,9.420951828360557556e-03,3.947925940155982971e-02,-3.803915157914161682e-02,3.544386476278305054e-02,1.400306671857833862e-01
1.567548811435699463e-01,-2.183804064989089966e-01,2.128634005784988403e-01,-2.777438163757324219e-01,2.436114996671676636e-01,-1.384987961500883102e-02,1.359820067882537842e-01,1.370106730610132217e-02,-1.605021655559539795e-01,-1.740714311599731445e-01,-9.856935590505599976e-02,-1.297815591096878052e-01,7.164606451988220215e-02,2.196960747241973877e-01,-4.008784145116806030e-02,-1.893836110830307007e-01,2.472427859902381897e-02,-1.175401136279106140e-01,3.752516806125640869e-01,-7.580795325338840485e-03,1.506138443946838379e-01,-1.158975213766098022e-01,1.968434266746044159e-02,-9.538926929235458374e-02,-2.057722657918930054e-01,1.989487856626510620e-01,1.796438694000244141e-01,2.402610927820205688e-01,8.180358260869979858e-02,-1.227799206972122192e-01,-2.700800076127052307e-02,6.976301223039627075e-02,-1.817180961370468140e-01,-1.331179291009902954e-01,-1.666538715362548828e-01,2.491414994001388550e-01,1.965437233448028564e-01,-4.106930643320083618e-02,-1.140421140007674694e-03,1.758212968707084656e-02,-8.224561065435409546e-02,-5.734001845121383667e-02,2.368736714124679565e-01,2.732684314250946045e-01,-7.251566648483276367e-02,-9.267979115247726440e-02,7.176559418439865112e-02,-1.301173567771911621e-01,-5.412515718489885330e-03,2.149934321641921997e-01
-3.542142361402511597e-02,2.442025020718574524e-02,4.872334748506546021e-02,9.136081486940383911e-02,2.494004927575588226e-02,-1.192336976528167725e-01,1.486847251653671265e-01,2.873832127079367638e-03,-1.079505458474159241e-01,1.986739225685596466e-02,1.131413318216800690e-02,1.734708100557327271e-01,-1.252284795045852661e-01,-1.269901692867279053e-01,2.991870045661926270e-01,1.797246038913726807e-01,-2.990818209946155548e-02,1.266733705997467041e-01,1.018471345305442810e-01,1.221331357955932617e-01,1.794198900461196899e-01,6.116971373558044434e-02,-1.517967730760574341e-01,6.285012513399124146e-02,-4.773298278450965881e-02,1.420583575963973999e-01,-6.322345137596130371e-02,1.277270168066024780e-01,9.116126596927642822e-02,7.003712654113769531e-02,1.548534333705902100e-01,-2.446619421243667603e-01,1.059299707412719727e-01,-1.394484099000692368e-02,-6.211553886532783508e-02,2.306377887725830078e-01,-2.170382738113403320e-01,1.051227226853370667e-01,-7.004307210445404053e-02,-1.866000592708587646e-01,-1.099502965807914734e-01,3.812287375330924988e-02,-6.729774177074432373e-02,1.027306765317916870e-01,-2.687000632286071777e-01,-2.225540950894355774e-02,-1.029201522469520569e-01,1.893453449010848999e-01,4.215359315276145935e-02,-3.430814668536186218e-02
-5.913742631673812866e-02,9.090767800807952881e-02,2.193302065134048462e-01,1.596272438764572144e-01,2.494690418243408203e-01,-1.000078022480010986e-01,1.717082560062408447e-01,1.692388504743576050e-01,-6.658490747213363647e-02,-7.541041076183319092e-02,-2.333309035748243332e-03,1.065168306231498718e-01,1.854927539825439453e-01,-8.030399680137634277e-02,-1.159972175955772400e-01,1.903482154011726379e-02,2.499571256339550018e-02,1.542220711708068848e-01,1.001603454351425171e-01,4.710981249809265137e-02,-1.189895793795585632e-01,9.970570355653762817e-02,-1.540418714284896851e-01,-2.471906878054141998e-02,8.922287076711654663e-02,1.222275644540786743e-01,2.201922833919525146e-01,-1.909368671476840973e-02,1.333467215299606323e-01,1.243344694375991821e-01,1.913279891014099121e-01,-8.885274827480316162e-02,1.913051605224609375e-01,-6.291165947914123535e-02,-1.824644356966018677e-01,-2.588383555412292480e-01,2.931643128395080566e-01,-4.884748160839080811e-02,-2.949100360274314880e-02,-1.458526253700256348e-01,-1.456802785396575928e-01,-1.333234608173370361e-01,-1.833031699061393738e-02,9.670628607273101807e-02,9.080968797206878662e-02,-5.024080350995063782e-02,8.066291362047195435e-02,1.075864881277084351e-01,-2.835104800760746002e-02,-8.882747963070869446e-03
