-9.916128218173980713e-02,1.518447995185852051e-01,-8.190850913524627686e-02,1.319934874773025513e-01,1.681886017322540283e-01,3.164456225931644440e-03,-8.924534916877746582e-02,1.828388497233390808e-02,-2.285058647394180298e-01,-7.831606268882751465e-02,-1.001331359148025513e-01,2.719693072140216827e-02,-1.177701950073242188e-01,1.582293957471847534e-01,-2.110619097948074341e-01,-1.780354976654052734e-01,-1.604142338037490845e-01,5.172455310821533203e-02,-1.948391944169998169e-01,-3.601870685815811157e-02,3.817350417375564575e-02,1.522052884101867676e-01,3.529696911573410034e-02,-1.169355884194374084e-01,1.762759387493133545e-01,1.569855213165283203e-01,-9.286423772573471069e-02,-1.157250851392745972e-01,2.219972163438796997e-01,-2.027885019779205322e-01,-4.745354503393173218e-02,-2.195443361997604370e-01,-7.301505655050277710e-02,-7.310180366039276123e-02,2.762565314769744873e-01,-1.609928309917449951e-01,-7.576315850019454956e-02,1.231048703193664551e-01,-7.403237372636795044e-02,-2.934167385101318359e-01,1.752467155456542969e-01,1.510650366544723511e-01,-3.028120100498199463e-02,6.394112855195999146e-02,-6.902543455362319946e-02,1.924448460340499878e-01,1.654585152864456177e-01,1.763533800840377808e-01,8.702230453491210938e-02,2.139293402433395386e-01
-3.784959699260070920e-05,7.231765240430831909e-02,-1.940440684556961060e-01,-7.897121459245681763e-02,-1.840673387050628662e-01,-2.241041064262390137e-01,1.917115151882171631e-01,-2.054571658372879028e-01,1.953552067279815674e-01,-5.838484317064285278e-02,1.177022978663444519e-01,2.252036333084106445e-01,1.826519072055816650e-01,-2.145353890955448151e-02,-1.726082265377044678e-01,1.029287874698638916e-01,-1.918029785156250000e-01,1.009694486856460571e-01,6.447467207908630371e-02,-2.687228918075561523e-01,1.742247492074966431e-01,-2.654851973056793213e-01,7.503218203783035278e-02,-6.945255398750305176e-02,1.967058777809143066e-01,1.280532330274581909e-01,2.069641202688217163e-01,1.632444411516189575e-01,1.373574323952198029e-02,-1.949356198310852051e-01,-1.238248720765113831e-01,1.174087226390838623e-01,-2.326114177703857422e-01,7.331419736146926880e-02,3.342014097142964602e-04,-1.760326921939849854e-01,-2.901540882885456085e-02,5.680113285779953003e-02,-1.053706705570220947e-01,-3.457102179527282715e-02,6.898787617683410645e-02,2.255340963602066040e-01,-2.174443379044532776e-02,-1.377000957727432251e-01,1.350576579570770264e-01,2.344910055398941040e-01,1.806449294090270996e-01,2.181340456008911133e-01,-1.667627990245819092e-01,3.580605238676071167e-02
-1.230306103825569153e-01,1.826597303152084351e-01,1.844071298837661743e-01,1.902418211102485657e-02,7.837209850549697876e-02,1.826634407043457031e-01,1.448797434568405151e-01,1.291681379079818726e-01,5.861618742346763611e-02,-2.430610209703445435e-01,2.455719262361526489e-01,1.762956380844116211e-01,9.289848059415817261e-02,-7.282929494976997375e-03,1.741333156824111938e-01,5.880477279424667358e-02,-2.543639242649078369e-01,-8.567041903734207153e-02,1.084896475076675415e-01,5.006095021963119507e-02,1.464284956455230713e-01,-2.967424690723419189e-03,4.010675475001335144e-02,4.954160004854202271e-02,1.207223758101463318e-01,-2.059323489665985107e-01,-1.151646208018064499e-02,-1.725866496562957764e-01,1.400008201599121094e-01,-3.195816874504089355e-01,-5.660068616271018982e-02,1.893169730901718140e-01,6.713726092129945755e-03,-4.843865334987640381e-02,-9.991120547056198120e-02,2.774823904037475586e-01,-1.957817077636718750e-01,-1.540273129940032959e-01,-1.865685135126113892e-01,-2.078144997358322144e-02,1.392832258716225624e-03,1.803269386291503906e-01,1.968116909265518188e-01,-7.534285075962543488e-03,1.184313446283340454e-01,-1.396211236715316772e-02,1.787433177232742310e-01,-1.908498406410217285e-01,2.116386890411376953e-01,4.956598859280347824e-03
3.458964228630065918e-01,7.855095714330673218e-02,-2.060964107513427734e-01,-5.174662545323371887e-02,-1.025498956441879272e-01,-5.804392322897911072e-02,-1.038195788860321045e-01,-1.656384468078613281e-01,1.741504371166229248e-01,7.530225906521081924e-03,1.907431632280349731e-01,6.810645759105682373e-02,-4.100266471505165100e-02,-6.625543534755706787e-02,1.726026982069015503e-01,-1.976194530725479126e-01,5.965559929609298706e-02,-2.677247226238250732e-01,-1.400498952716588974e-02,5.500737428665161133e-01,-1.320729404687881470e-01,-1.312292665243148804e-01,1.084367036819458008e-01,-9.523054212331771851e-02,2.371551394462585449e-01,-2.048628926277160645e-01,1.553411036729812622e-01,-8.080917410552501678e-03,2.236867994070053101e-01,6.123805791139602661e-02,6.161692552268505096e-03,-2.526534795761108398e-01,-2.057556062936782837e-01,-1.784829497337341309e-01,-1.760241389274597168e-01,3.929938375949859619e-02,-3.025868833065032959e-01,1.276836544275283813e-01,2.611193433403968811e-02,5.824817344546318054e-02,3.958568349480628967e-02,-3.038623332977294922e-01,1.828954219818115234e-01,8.015376329421997070e-02,2.366860955953598022e-01,-1.779233366250991821e-01,3.416436491534113884e-03,4.230099618434906006e-01,-2.854490280151367188e-01,1.252122968435287476e-01
1.495656073093414307e-01,-6.380476057529449463e-02,1.567150652408599854e-01,1.837278604507446289e-01,1.498653739690780640e-01,-1.692560017108917236e-01,-1.214609295129776001e-01,6.767174601554870605e-02,-3.101144172251224518e-02,-2.482276409864425659e-01,-2.563710510730743408e-01,-1.786420047283172607e-01,1.366467922925949097e-01,-1.095443218946456909e-01,2.845884263515472412e-01,-1.607533893547952175e-03,1.260596048086881638e-02,3.760507330298423767e-02,2.161523848772048950e-01,1.340670138597488403e-01,-9.082951396703720093e-02,1.269565522670745850e-01,-3.055259771645069122e-02,1.384483277797698975e-01,1.338728964328765869e-01,9.479715675115585327e-02,1.559634953737258911e-01,-3.272149860858917236e-01,1.144029498100280762e-01,-1.723257303237915039e-01,-4.275750368833541870e-02,1.811169786378741264e-03,8.807335048913955688e-02,-5.302825476974248886e-03,-2.424334138631820679e-01,1.027936208993196487e-02,2.325830049812793732e-02,-2.338287979364395142e-02,6.490824371576309204e-02,-3.990591317415237427e-02,-2.242740243673324585e-01,6.579937785863876343e-02,-2.107861638069152832e-01,-6.477210670709609985e-02,8.725229650735855103e-02,-2.165662199258804321e-01,1.251671463251113892e-01,1.492378562688827515e-01,1.758925765752792358e-01,-8.295746892690658569e-02
4.547198861837387085e-02,-2.324810773134231567e-01,6.128910183906555176e-02,4.721310734748840332e-02,1.177256032824516296e-01,1.659306287765502930e-01,-1.703429520130157471e-01,1.682400107383728027e-01,1.489568799734115601e-01,1.742181479930877686e-01,2.139969915151596069e-01,1.162751242518424988e-01,2.025485634803771973e-01,-7.843882590532302856e-02,-1.718478351831436157e-01,1.560459285974502563e-01,-1.315065771341323853e-01,2.257786095142364502e-01,-5.361674353480339050e-02,1.305150836706161499e-01,2.291886061429977417e-01,2.145695239305496216e-01,2.434491515159606934e-01,1.077120676636695862e-01,2.937740460038185120e-02,6.533985584974288940e-02,7.015793770551681519e-02,-7.088509202003479004e-02,2.275850921869277954e-01,-2.061666250228881836e-01,-1.568111777305603027e-02,3.685235232114791870e-02,1.237744372338056564e-02,9.558562934398651123e-02,-2.244049459695816040e-01,-1.672877520322799683e-01,1.053049936890602112e-01,-1.115210726857185364e-01,2.336490154266357422e-01,1.071004495024681091e-01,1.922042667865753174e-01,1.616173833608627319e-01,8.398865163326263428e-02,-1.448397040367126465e-01,-1.254627257585525513e-01,3.849641885608434677e-03,-2.685645222663879395e-01,-2.496611326932907104e-01,6.768204271793365479e-02,-6.081346422433853149e-02
1.749433875083923340e-01,7.192874699831008911e-02,-1.362970024347305298e-01,-9.945616126060485840e-02,1.208999976515769958e-01,-4.038092680275440216e-03,5.160007625818252563e-02,1.129509285092353821e-01,-1.061210855841636658e-01,6.843151152133941650e-02,1.108645051717758179e-01,-2.377227842807769775e-01,-8.801069855690002441e-02,7.172520738095045090e-03,-3.687605634331703186e-02,7.573063671588897705e-02,-1.482646167278289795e-01,-2.069849893450737000e-02,7.863086648285388947e-03,-2.973222136497497559e-01,-2.333864569664001465e-01,2.411406785249710083e-01,1.861141026020050049e-01,-1.258774995803833008e-01,-1.681624501943588257e-01,-9.604208171367645264e-02,2.887409366667270660e-02,3.629310755059123039e-03,-1.855300739407539368e-02,-2.110691666603088379e-01,-1.616229265928268433e-01,-1.593708395957946777e-01,1.228752881288528442e-01,7.889682799577713013e-02,-2.330805510282516479e-01,-1.988222897052764893e-01,-2.142626941204071045e-01,-2.116540446877479553e-02,-9.971564263105392456e-02,1.786433160305023193e-01,1.039328332990407944e-02,7.212080061435699463e-02,-1.869421154260635376e-01,1.894017904996871948e-01,-4.245642572641372681e-02,-1.733859628438949585e-01,1.395855545997619629e-01,5.957116559147834778e-02,-2.230350673198699951e-02,7.424229383468627930e-02
1.406526193022727966e-02,-2.315956503152847290e-01,7.992023602128028870e-04,-1.403897106647491455e-01,2.141094654798507690e-01,2.781410142779350281e-02,-1.942282915115356445e-01,-1.025020331144332886e-01,-1.398594975471496582e-01,-1.092014312744140625e-01,-8.500678837299346924e-02,-1.564237028360366821e-01,1.938513219356536865e-01,2.744030654430389404e-01,2.346939891576766968e-01,1.265335679054260254e-01,1.041761115193367004e-01,-1.597717702388763428e-01,1.348362863063812256e-01,9.972949326038360596e-02,-2.273328006267547607e-01,5.776668712496757507e-02,9.770553559064865112e-02,-1.270671337842941284e-01,-1.076210364699363708e-01,-6.083811447024345398e-02,-1.472487747669219971e-01,2.428053133189678192e-02,-9.502900391817092896e-02,1.402692347764968872e-01,6.713351607322692871e-02,-9.691318124532699585e-02,2.643994987010955811e-01,-2.707639634609222412e-01,1.133813858032226562e-01,-7.309518754482269287e-02,-2.635203003883361816e-01,-1.832197606563568115e-01,-2.290210686624050140e-02,1.848019426688551903e-03,-9.185167402029037476e-02,-9.916751831769943237e-02,2.773193717002868652e-01,-1.780745685100555420e-01,4.221897572278976440e-02,2.173802554607391357e-01,1.355995386838912964e-01,-1.396214514970779419e-01,-1.393003463745117188e-01,-2.284433841705322266e-01
-9.548671543598175049e-02,-6.812812387943267822e-02,4.461824893951416016e-02,-2.576672434806823730e-01,-1.135932877659797668e-01,-1.669166684150695801e-01,3.098312392830848694e-02,-2.379463464021682739e-01,-8.159455657005310059e-02,-1.496903300285339355e-01,1.171478629112243652e-01,7.540259510278701782e-02,-1.372122764587402344e-01,1.439820230007171631e-01,-2.286236137151718140e-01,1.508579999208450317e-01,-9.987031668424606323e-02,-2.175638675689697266e-01,6.508489139378070831e-03,2.949743866920471191e-01,-1.622269116342067719e-02,9.079574048519134521e-02,1.424820125102996826e-01,-5.033721774816513062e-02,-1.350959390401840210e-01,2.232630252838134766e-01,6.837509572505950928e-02,-6.313554197549819946e-02,8.098264038562774658e-02,-1.086176652461290359e-02,-2.786585986614227295e-01,-2.420916259288787842e-01,-7.873448543250560760e-03,-9.382954239845275879e-02,2.139535397291183472e-01,-1.331346929073333740e-01,-5.880419164896011353e-02,7.043574750423431396e-02,-1.761002987623214722e-01,-6.836412101984024048e-02,2.934861369431018829e-02,-1.513833403587341309e-01,-5.241195857524871826e-02,1.469674259424209595e-01,1.082729250192642212e-01,1.397909075021743774e-01,2.210138142108917236e-01,-1.701774001121520996e-01,1.112243011593818665e-01,4.718704521656036377e-02
-1.929555088281631470e-01,-1.089124940335750580e-02,-1.080051884055137634e-01,-5.531082302331924438e-02,-5.449422821402549744e-02,2.147580729797482491e-03,-1.525234878063201904e-01,2.346747368574142456e-02,1.638363897800445557e-01,-2.115055173635482788e-01,1.879195123910903931e-01,1.154551506042480469e-01,-1.952054500579833984e-01,5.838065966963768005e-02,1.081454083323478699e-01,-1.877750456333160400e-01,1.650321185588836670e-01,-8.008074015378952026e-02,2.338317930698394775e-01,1.627427190542221069e-01,-7.237450778484344482e-02,1.362253129482269287e-01,1.404536366462707520e-01,1.263999789953231812e-01,1.014061346650123596e-01,1.975496411323547363e-01,9.985069930553436279e-02,2.059812992811203003e-01,1.081928685307502747e-01,-1.707933247089385986e-01,9.542194753885269165e-02,-8.969725668430328369e-02,2.060887170955538750e-03,1.411084234714508057e-01,2.762974202632904053e-01,-5.977936089038848877e-02,-8.552195876836776733e-02,1.520143896341323853e-01,1.543343216180801392e-01,3.219693526625633240e-02,-1.576791405677795410e-01,2.732094824314117432e-01,1.699793487787246704e-01,1.095921099185943604e-01,2.434185892343521118e-01,-1.130946632474660873e-02,1.925844550132751465e-01,1.126909554004669189e-01,1.294835377484560013e-02,8.468046784400939941e-03
-2.153215259313583374e-01,1.045999825000762939e-01,4.382852464914321899e-02,2.055203318595886230e-01,-1.655132621526718140e-01,-1.748611927032470703e-01,-3.206145018339157104e-02,-2.577998638153076172e-01,-2.887096256017684937e-02,-1.006335616111755371e-01,-1.764848083257675171e-02,-1.810341887176036835e-02,-1.641950160264968872e-01,-2.431523799896240234e-01,-6.206113472580909729e-02,1.343831121921539307e-01,1.327964812517166138e-01,6.306637823581695557e-02,-1.198783144354820251e-02,7.338770478963851929e-02,-6.519736349582672119e-02,3.358111903071403503e-02,1.020573452115058899e-01,1.751652508974075317e-01,5.230385437607765198e-02,6.875541061162948608e-02,-1.699358820915222168e-01,1.613808423280715942e-01,-4.602158814668655396e-02,2.260317057371139526e-01,1.287606805562973022e-01,-8.198800683021545410e-02,1.321843713521957397e-01,-8.475974947214126587e-02,-1.774368137121200562e-01,3.665804490447044373e-02,-2.332656681537628174e-01,-5.391836911439895630e-02,-1.491646841168403625e-02,1.950402706861495972e-01,2.059414535760879517e-01,1.210126280784606934e-01,-1.537246163934469223e-03,-1.673148572444915771e-01,-1.709606349468231201e-01,1.927127093076705933e-01,1.645482629537582397e-01,3.472374752163887024e-02,6.673909723758697510e-02,-1.079057455062866211e-01
1.046532094478607178e-01,1.742360442876815796e-01,-1.081233993172645569e-01,-1.113449558615684509e-01,-1.245796233415603638e-01,1.974553465843200684e-01,-1.422169967554509640e-03,1.728047132492065430e-01,1.027674674987792969e-01,-2.111210823059082031e-01,-2.581265270709991455e-01,3.389605507254600525e-02,5.684034898877143860e-03,2.095490135252475739e-02,-8.276827633380889893e-02,3.841307770926505327e-04,-1.528380215167999268e-01,-2.215351015329360962e-01,2.294320315122604370e-01,-1.138543635606765747e-01,-3.799036378040909767e-03,2.115236669778823853e-01,-2.295654118061065674e-01,6.869986653327941895e-02,7.019036263227462769e-02,1.361297518014907837e-01,-1.855698879808187485e-03,1.254335939884185791e-01,-1.366090476512908936e-01,-1.420701146125793457e-01,-3.664711117744445801e-02,1.901862025260925293e-01,2.574763819575309753e-02,1.357517112046480179e-02,-1.646969914436340332e-01,-1.140557304024696350e-01,1.759299933910369873e-01,1.729829013347625732e-01,-2.495289407670497894e-02,2.212297767400741577e-01,-1.064437627792358398e-01,-1.105706989765167236e-01,-2.810768969357013702e-02,-1.383603662252426147e-01,2.479385882616043091e-01,8.002321422100067139e-02,-1.141514703631401062e-01,1.136610731482505798e-01,1.558389067649841309e-01,-1.823620200157165527e-01
-1.214485988020896912e-01,7.542376220226287842e-02,-8.611843734979629517e-02,-1.973071098327636719e-01,7.961564511060714722e-02,1.567549854516983032e-01,-5.941039323806762695e-02,7.822372019290924072e-02,1.260117068886756897e-02,-4.083665460348129272e-02,1.501549929380416870e-01,2.875687368214130402e-02,-4.682398587465286255e-02,-3.117933869361877441e-01,-8.062338083982467651e-02,2.623121812939643860e-02,1.990110874176025391e-01,1.401007026433944702e-01,-6.065330654382705688e-02,2.121192216873168945e-02,-6.368183530867099762e-03,-6.848048418760299683e-02,-2.068836838006973267e-01,-4.118324816226959229e-02,1.804466098546981812e-01,-1.067823395133018494e-01,5.932245403528213501e-02,-1.245827823877334595e-01,1.036867201328277588e-01,-9.643063694238662720e-02,-6.421969737857580185e-03,-1.610703952610492706e-02,1.058854535222053528e-01,1.549211293458938599e-01,-5.900624021887779236e-02,2.465920150279998779e-01,1.232617199420928955e-01,-6.376849114894866943e-02,-4.941506311297416687e-02,-1.305302530527114868e-01,-3.645070269703865051e-02,1.261316239833831787e-01,-1.536048054695129395e-01,6.127160042524337769e-03,-3.096241056919097900e-01,2.359110116958618164e-01,-6.600473821163177490e-02,-3.109199106693267822e-01,1.675998121500015259e-01,5.663977190852165222e-02
7.628799974918365479e-02,1.660742163658142090e-01,-3.113278187811374664e-02,3.207379952073097229e-02,4.126993007957935333e-03,-3.162978217005729675e-02,-5.476173246279358864e-04,-6.774299591779708862e-02,1.756660491228103638e-01,1.389771997928619385e-01,-8.394400775432586670e-02,-1.069957017898559570e-01,-2.385275065898895264e-01,-1.053225174546241760e-01,1.761838644742965698e-01,-2.281002700328826904e-01,1.109197810292243958e-01,-1.475614123046398163e-02,1.512516438961029053e-01,-1.830297261476516724e-01,-2.429258078336715698e-01,-1.756122708320617676e-01,7.695090956985950470e-03,2.189549058675765991e-01,1.421159654855728149e-01,2.610208392143249512e-01,6.959471851587295532e-02,1.914558699354529381e-03,-1.792563199996948242e-01,-9.550985693931579590e-02,-8.849407732486724854e-02,1.485688537359237671e-01,1.950537785887718201e-02,-1.196192950010299683e-01,-1.825412213802337646e-01,-9.158597327768802643e-03,-3.551416471600532532e-02,-8.695923537015914917e-02,7.925112545490264893e-02,1.556524932384490967e-01,1.986569762229919434e-01,-3.288717195391654968e-02,8.701206743717193604e-02,-1.883272230625152588e-01,7.218018919229507446e-02,9.254988282918930054e-02,1.610942184925079346e-01,-1.040125489234924316e-01,4.216700326651334763e-03,3.530311584472656250e-01
6.301818788051605225e-02,2.221008688211441040e-01,-7.379301637411117554e-02,-5.699964612722396851e-02,-6.705542560666799545e-03,1.080970019102096558e-01,-1.125837340950965881e-01,5.234278365969657898e-02,-1.733417212963104248e-01,-2.390338294208049774e-02,-3.264138102531433105e-02,1.724568307399749756e-01,8.635931462049484253e-02,1.212520450353622437e-01,2.152558565139770508e-01,-1.746774315834045410e-01,-6.838946789503097534e-02,-2.623867690563201904e-01,-1.993807405233383179e-01,1.011330708861351013e-01,2.020827122032642365e-02,-6.584304571151733398e-02,-7.822960615158081055e-02,1.000945270061492920e-01,-1.936053782701492310e-01,1.846140623092651367e-01,1.944959014654159546e-01,-8.149055391550064087e-02,-1.939341425895690918e-01,-1.905164122581481934e-01,-4.745144024491310120e-02,1.941035687923431396e-01,-2.247194498777389526e-01,-1.161901801824569702e-01,-5.620761960744857788e-02,-7.288385182619094849e-02,-8.149641752243041992e-02,-3.431570529937744141e-02,-3.465699777007102966e-02,1.376527994871139526e-01,-2.551552653312683105e-01,1.567772775888442993e-01,-4.300747066736221313e-02,-1.328098922967910767e-01,8.139532990753650665e-03,-9.808393567800521851e-02,-2.523007988929748535e-01,7.551237195730209351e-02,-1.969796791672706604e-02,1.218123063445091248e-01
4.668262228369712830e-02,1.471921503543853760e-01,-9.172723442316055298e-02,2.102359533309936523e-01,1.455616503953933716e-01,-4.193709045648574829e-02,2.735430598258972168e-01,1.747651547193527222e-01,-1.809041947126388550e-01,-5.196558684110641479e-02,-2.406277507543563843e-01,-1.717010587453842163e-01,-2.206287235021591187e-01,-1.610885746777057648e-02,-1.816171258687973022e-01,1.562788188457489014e-01,-2.237849235534667969e-01,-7.532013952732086182e-02,1.822998821735382080e-01,1.494152694940567017e-01,-5.446349829435348511e-02,1.844000369310379028e-01,-4.270839504897594452e-03,-1.139715984463691711e-01,2.289627194404602051e-01,1.426493078470230103e-01,-8.603610098361968994e-03,-5.054973438382148743e-02,-4.547256603837013245e-02,-2.050534486770629883e-01,1.017694473266601562e-01,1.101299598813056946e-01,4.302392527461051941e-02,2.071711421012878418e-01,-9.466890245676040649e-02,-4.513198509812355042e-02,-1.054589375853538513e-01,1.547806262969970703e-01,-4.103090241551399231e-02,7.196868211030960083e-02,8.649123460054397583e-02,2.014448642730712891e-01,1.172791421413421631e-01,-1.492432057857513428e-01,-5.815361440181732178e-02,5.994707345962524414e-02,-1.947610676288604736e-01,-4.101919010281562805e-03,-4.369212687015533447e-02,1.615852303802967072e-02
-6.809241324663162231e-02,1.885449737310409546e-01,1.431745244190096855e-03,2.191319130361080170e-02,2.983869314193725586e-01,-1.898865401744842529e-01,-1.681226491928100586e-01,1.047529876232147217e-01,-5.173227190971374512e-02,1.346641033887863159e-01,-2.591168042272329330e-03,1.384708881378173828e-01,2.425529211759567261e-01,-1.246421411633491516e-01,-4.247719794511795044e-02,-9.358460456132888794e-02,1.427436172962188721e-01,1.205805465579032898e-01,-1.831592246890068054e-02,-9.644515067338943481e-02,-1.546705961227416992e-01,-3.392360359430313110e-02,8.607861399650573730e-02,7.976707816123962402e-02,-1.680852472782135010e-01,-2.243069699034094810e-03,-1.939035505056381226e-01,-3.950162231922149658e-02,-3.207406494766473770e-03,-1.797621846199035645e-01,-7.580119650810956955e-03,7.997356355190277100e-02,3.846567496657371521e-02,-1.296355128288269043e-01,-3.387175267562270164e-03,-2.019287943840026855e-01,-8.261147886514663696e-02,4.033768922090530396e-02,-7.458004355430603027e-02,1.595139354467391968e-01,2.690662629902362823e-02,-7.148338109254837036e-02,1.042023971676826477e-01,1.292282491922378540e-01,-2.254349887371063232e-01,-1.294496096670627594e-02,1.034486517310142517e-01,1.876454055309295654e-01,9.697646647691726685e-02,6.272080540657043457e-02
-1.039200574159622192e-01,1.292588412761688232e-01,-9.715617634356021881e-03,-1.170009821653366089e-01,2.576501369476318359e-01,-1.133154332637786865e-02,1.015636138617992401e-03,-4.926534742116928101e-02,2.103711068630218506e-01,2.101897150278091431e-01,4.879433289170265198e-02,2.239061892032623291e-01,-1.091949790716171265e-01,1.353001594543457031e-01,-2.267989665269851685e-01,-6.617828458547592163e-02,-8.337549865245819092e-02,1.255123913288116455e-01,-3.730057552456855774e-02,-1.363563686609268188e-01,-4.423371574375778437e-04,2.427121251821517944e-01,-3.604749590158462524e-02,1.749853976070880890e-02,2.580694258213043213e-01,2.680772356688976288e-02,-1.009817346930503845e-01,1.814298629760742188e-01,1.487661749124526978e-01,7.729663979262113571e-03,-3.219267725944519043e-02,1.179366633296012878e-01,-2.487532794475555420e-02,-5.934424325823783875e-02,1.162784323096275330e-01,-1.105870380997657776e-01,1.290200948715209961e-01,-9.255561977624893188e-02,8.811967819929122925e-02,-2.019496560096740723e-01,-1.294576525688171387e-01,-1.658074706792831421e-01,1.921663805842399597e-02,2.552941441535949707e-01,-1.995486915111541748e-01,-5.565781518816947937e-02,1.438433527946472168e-01,-1.508921235799789429e-01,-1.509370803833007812e-01,-1.255874484777450562e-01
1.631216555833816528e-01,-4.558008536696434021e-02,1.479557603597640991e-01,-1.396182030439376831e-01,1.809766888618469238e-01,-3.394457697868347168e-02,-8.789578825235366821e-02,1.282494366168975830e-01,-1.965448409318923950e-01,7.223688066005706787e-02,-7.453733682632446289e-02,-1.204517297446727753e-02,-3.153765797615051270e-01,-6.440161913633346558e-02,-1.410086154937744141e-01,-4.991496726870536804e-02,-8.920449763536453247e-03,9.163185022771358490e-03,6.620692554861307144e-03,2.141052391380071640e-03,9.109522402286529541e-02,-4.761953651905059814e-02,-5.323594063520431519e-02,1.021788734942674637e-02,1.218851208686828613e-01,3.434805944561958313e-02,-1.696732342243194580e-01,-9.556829184293746948e-02,-2.988680265843868256e-03,-1.027726456522941589e-01,-1.330727059394121170e-02,-2.610222250223159790e-02,2.952945232391357422e-01,9.001816506497561932e-04,-3.789667412638664246e-02,-8.209206908941268921e-02,5.424532666802406311e-02,-1.487664282321929932e-01,7.678811252117156982e-02,-1.554359775036573410e-02,1.790189743041992188e-01,1.633789688348770142e-01,-1.644225716590881348e-01,1.752712726593017578e-01,-2.380478978157043457e-01,-1.696336567401885986e-01,-2.002056688070297241e-01,-2.852668762207031250e-01,3.463307768106460571e-02,-1.087279841303825378e-01
9.135710448026657104e-02,-1.407082378864288330e-01,-2.585170418024063110e-02,3.495198115706443787e-02,-1.003554090857505798e-01,-1.109250634908676147e-02,3.471300005912780762e-02,1.469846218824386597e-01,-3.493287041783332825e-02,9.339478611946105957e-02,2.389635294675827026e-01,1.497711092233657837e-01,-1.991744637489318848e-01,3.991412743926048279e-02,1.830627173185348511e-01,7.380497455596923828e-02,-1.257641166448593140e-01,1.512449234724044800e-01,-1.257901489734649658e-01,1.242321077734231949e-02,-1.408546566963195801e-01,6.412930786609649658e-02,-1.892216950654983521e-01,-1.488868296146392822e-01,-1.293747118324972689e-06,1.213545426726341248e-01,2.362490892410278320e-01,-2.736952155828475952e-02,-1.954095661640167236e-01,-5.031230300664901733e-02,-1.559303887188434601e-02,1.517080366611480713e-01,1.333645731210708618e-01,-2.254690825939178467e-01,2.304389476776123047e-01,-1.865598261356353760e-01,-1.827885955572128296e-01,1.715363562107086182e-01,1.109394282102584839e-01,1.007913202047348022e-01,1.698041856288909912e-01,-2.237008213996887207e-01,3.750929608941078186e-02,-1.785133150406181812e-03,-5.504552647471427917e-02,9.275451302528381348e-02,5.550489202141761780e-02,-2.176988273859024048e-01,-1.509997397661209106e-01,-1.140138134360313416e-01
1.287026554346084595e-01,2.025127708911895752e-01,4.951300472021102905e-02,1.768596619367599487e-01,-1.329235285520553589e-01,2.406682372093200684e-01,-1.590173393487930298e-01,2.108003199100494385e-01,-5.001176521182060242e-02,5.550973117351531982e-02,1.791170984506607056e-01,5.416421685367822647e-03,-8.836815506219863892e-02,7.089618593454360962e-02,-7.620337605476379395e-02,-1.785072237253189087e-01,2.282721251249313354e-01,6.223284080624580383e-02,-7.804407179355621338e-02,1.275017410516738892e-01,1.171676218509674072e-01,1.042993962764739990e-01,-9.042783826589584351e-02,1.518146097660064697e-01,1.493955552577972412e-01,-1.608329117298126221e-01,2.600228488445281982e-01,1.799748986959457397e-01,-2.084510028362274170e-01,-1.626703888177871704e-01,1.681199371814727783e-01,-6.696014106273651123e-02,1.390824019908905029e-01,1.792878955602645874e-01,-1.045226752758026123e-01,5.653687193989753723e-02,-4.951168596744537354e-02,-1.159192174673080444e-01,-6.650523096323013306e-02,1.228177361190319061e-02,1.305331140756607056e-01,-1.576426327228546143e-01,-1.680087149143218994e-01,2.634011022746562958e-02,-1.458535343408584595e-01,2.156052738428115845e-01,-1.583465039730072021e-01,-1.346849277615547180e-02,-1.691763997077941895e-01,1.541511416435241699e-01
3.863388905301690102e-03,1.046004965901374817e-01,-1.301217377185821533e-01,-1.772876083850860596e-01,1.660592108964920044e-01,-3.932508453726768494e-02,-1.361205428838729858e-01,-1.875896900892257690e-01,-1.596563756465911865e-01,-1.570828109979629517e-01,-8.591301157139241695e-04,1.478143483400344849e-01,-3.280807519331574440e-03,-9.875033050775527954e-02,-1.987006366252899170e-01,-1.166596636176109314e-01,7.536162436008453369e-02,1.497400999069213867e-01,-2.810520231723785400e-01,2.587449550628662109e-01,-1.998845189809799194e-01,1.216949373483657837e-01,1.652443856000900269e-01,2.444873750209808350e-01,-4.984682798385620117e-02,1.479948014020919800e-01,-8.160903304815292358e-02,-2.058370411396026611e-01,1.231660135090351105e-02,2.263626158237457275e-01,1.851765066385269165e-01,1.420926749706268311e-01,-1.771239340305328369e-01,-5.542704835534095764e-02,6.122366338968276978e-02,-6.644883751869201660e-02,-1.225551888346672058e-01,1.381709426641464233e-01,1.103303302079439163e-02,5.711265280842781067e-02,-1.430765837430953979e-01,-5.285914614796638489e-02,-1.005844846367835999e-01,2.321634590625762939e-01,-1.599326878786087036e-01,1.478543281555175781e-01,2.930124849081039429e-02,-2.109137177467346191e-01,3.104668483138084412e-02,3.110322654247283936e-01
-1.431407779455184937e-01,6.859984993934631348e-02,-1.304664611816406250e-01,3.359326124191284180e-01,8.664470165967941284e-02,-8.062331378459930420e-02,-1.129269823431968689e-01,1.576904654502868652e-01,2.154579460620880127e-01,5.661481991410255432e-02,-2.798460423946380615e-02,-2.187098190188407898e-02,1.309699565172195435e-01,9.619374573230743408e-02,-1.485882699489593506e-01,-8.163782767951488495e-03,1.865749955177307129e-01,-2.388239800930023193e-01,1.413744837045669556e-01,-9.630469605326652527e-03,7.588429003953933716e-02,-4.510353878140449524e-02,-7.303417474031448364e-02,-4.431952163577079773e-02,4.400533810257911682e-02,1.682972759008407593e-01,2.803375385701656342e-02,9.797511994838714600e-02,6.479503959417343140e-02,1.584939956665039062e-01,7.902738451957702637e-02,1.562742143869400024e-01,-5.298083648085594177e-02,-1.393742626532912254e-03,2.008879929780960083e-02,1.364015489816665649e-01,-2.408776879310607910e-01,9.611085057258605957e-02,2.522949576377868652e-01,1.672886162996292114e-01,6.794554740190505981e-02,2.502609789371490479e-01,9.484641999006271362e-02,1.101330891251564026e-01,2.401349097490310669e-01,7.155205309391021729e-02,-1.143948063254356384e-01,1.403706371784210205e-01,1.702383458614349365e-01,-1.227697581052780151e-01
-1.842732280492782593e-01,-1.086903959512710571e-01,2.240220457315444946e-01,1.937146671116352081e-02,1.880404204130172729e-01,-7.044715434312820435e-02,1.119036823511123657e-01,5.896241217851638794e-02,-6.023958325386047363e-02,-8.945912867784500122e-02,-2.028100937604904175e-01,5.449926480650901794e-02,-1.251392364501953125e-01,2.358440756797790527e-01,1.978221386671066284e-01,-9.767665714025497437e-02,-6.740936636924743652e-02,8.431875705718994141e-02,-1.972422152757644653e-01,2.147099934518337250e-03,1.845148652791976929e-01,3.532811999320983887e-02,-2.463216632604598999e-01,3.876119107007980347e-02,2.301082760095596313e-01,7.522610574960708618e-02,4.119421914219856262e-02,-4.580485075712203979e-02,-2.003013044595718384e-01,1.215626671910285950e-01,4.093023017048835754e-02,-1.311761587858200073e-01,-1.019927859306335449e-01,7.634780555963516235e-02,2.577336132526397705e-01,-1.818930208683013916e-01,8.379258215427398682e-02,4.610062018036842346e-02,4.047475382685661316e-02,-2.272304445505142212e-01,-6.673669070005416870e-02,2.154757380485534668e-01,-2.650217115879058838e-01,-2.750333584845066071e-02,8.998702466487884521e-02,-2.253213971853256226e-01,-1.811145693063735962e-01,1.961594372987747192e-01,-2.195503413677215576e-01,-1.075962409377098083e-01
-2.216317802667617798e-01,8.572390675544738770e-02,-7.742595672607421875e-02,2.141957730054855347e-02,-6.940512359142303467e-02,-6.770158559083938599e-02,1.263573616743087769e-01,-5.531224608421325684e-02,2.323622554540634155e-01,8.188369125127792358e-02,1.236208453774452209e-01,-1.245179548859596252e-01,-1.756943464279174805e-01,1.482104659080505371e-01,-4.289131984114646912e-02,-2.038922160863876343e-02,4.094211012125015259e-02,1.664253771305084229e-01,-2.389373779296875000e-01,-6.541039794683456421e-02,-1.390690654516220093e-01,1.085388585925102234e-01,-2.484692260622978210e-02,-2.126966565847396851e-01,2.048714011907577515e-01,1.627748310565948486e-01,1.500146836042404175e-01,-3.878402337431907654e-02,-2.217692732810974121e-01,6.057990714907646179e-02,8.939845860004425049e-02,1.207599341869354248e-01,-2.054611742496490479e-01,1.985188871622085571e-01,-8.826595544815063477e-02,4.302525147795677185e-02,-3.964116424322128296e-02,-2.906410098075866699e-01,9.648177027702331543e-02,-1.130175143480300903e-01,1.411721259355545044e-01,-4.742868617177009583e-02,-6.797900795936584473e-02,-2.728937864303588867e-01,-1.649127006530761719e-01,-1.908884644508361816e-01,-1.132053285837173462e-01,1.235145330429077148e-02,1.113104969263076782e-01,1.432916373014450073e-01
1.355589032173156738e-01,2.044547498226165771e-01,2.147349864244461060e-01,1.123498007655143738e-01,2.028982192277908325e-01,-1.681268513202667236e-01,-1.456824988126754761e-01,-3.187723085284233093e-02,1.625949293375015259e-01,-7.018440961837768555e-02,-1.362332999706268311e-01,1.178908348083496094e-01,-4.999900702387094498e-03,1.992842741310596466e-02,1.087684780359268188e-01,1.439712345600128174e-01,-8.057276904582977295e-02,2.281619012355804443e-01,3.249247325584292412e-03,6.457649171352386475e-02,-7.172111421823501587e-02,1.999502182006835938e-01,7.539322972297668457e-02,-1.933882245793938637e-03,1.674746721982955933e-01,9.444546699523925781e-02,5.128920823335647583e-02,-1.769856661558151245e-01,-2.566153407096862793e-01,2.681378424167633057e-01,3.929238021373748779e-02,6.273289769887924194e-02,-3.116949200630187988e-01,7.543217390775680542e-02,-1.407629400491714478e-01,1.532363295555114746e-01,-3.954827785491943359e-01,1.253633648157119751e-01,-8.830643258988857269e-03,-4.049851745367050171e-02,1.222032904624938965e-01,-1.997773051261901855e-01,-2.310132607817649841e-02,6.723645329475402832e-02,2.141859829425811768e-01,1.366646289825439453e-01,8.745115250349044800e-03,1.458365470170974731e-01,-2.179486118257045746e-02,-3.128607571125030518e-02
-1.451139338314533234e-02,-2.558259479701519012e-02,-1.374938488006591797e-01,-2.272930145263671875e-01,5.907569080591201782e-02,9.954545646905899048e-02,-9.880188107490539551e-02,1.219319403171539307e-01,5.694586411118507385e-02,-3.287108540534973145e-01,-1.757526993751525879e-01,-7.259050756692886353e-02,-1.568813323974609375e-01,4.074108973145484924e-02,2.376043051481246948e-01,-2.191383391618728638e-01,5.572505295276641846e-02,-5.753736943006515503e-02,1.735012680292129517e-01,1.847970634698867798e-01,-2.340270578861236572e-02,-2.860075533390045166e-01,1.596542894840240479e-01,1.573678851127624512e-01,-1.486540138721466064e-01,-2.794473469257354736e-01,-1.895790100097656250e-01,1.002139374613761902e-01,8.060087263584136963e-02,1.632903516292572021e-01,-4.506894946098327637e-02,2.293452620506286621e-01,2.225134968757629395e-01,2.070216089487075806e-01,4.951256886124610901e-02,1.992750912904739380e-01,8.298572897911071777e-02,1.823579072952270508e-01,-1.023595333099365234e-01,9.278815239667892456e-02,2.644530124962329865e-02,-1.077381893992424011e-01,1.311958134174346924e-01,1.638477742671966553e-01,7.987188547849655151e-02,-4.393874481320381165e-02,2.206640243530273438e-01,-1.077675670385360718e-01,-1.515607386827468872e-01,8.806920796632766724e-02
1.778515428304672241e-01,-1.410951018333435059e-01,2.603613138198852539e-01,2.582250535488128662e-01,1.730871498584747314e-01,-5.168307106941938400e-03,2.224625349044799805e-01,4.531988501548767090e-02,-2.596936523914337158e-01,-8.931286633014678955e-02,-5.410151183605194092e-02,-1.283890306949615479e-01,-3.401974141597747803e-01,1.629267632961273193e-01,-4.250681772828102112e-02,-1.058358848094940186e-01,1.914649754762649536e-01,-1.484615653753280640e-01,-1.223012655973434448e-01,1.887807995080947876e-01,-6.609094887971878052e-02,1.261146664619445801e-01,-4.851823300123214722e-02,-9.505743533372879028e-02,-1.606921702623367310e-01,-2.416531555354595184e-03,-6.586732715368270874e-02,-2.045606821775436401e-01,-3.067761659622192383e-01,-1.045451164245605469e-01,1.409391164779663086e-01,3.292635828256607056e-02,9.278933703899383545e-02,-1.962941884994506836e-01,1.108908206224441528e-01,-1.576377451419830322e-02,2.162649184465408325e-01,-1.358446031808853149e-01,-2.008106559514999390e-01,2.182925678789615631e-02,1.116663403809070587e-02,-5.449494812637567520e-03,-7.293180376291275024e-02,2.529055178165435791e-01,-1.190881151705980301e-02,1.813894137740135193e-03,-2.386105358600616455e-01,-2.087534070014953613e-01,-2.219425737857818604e-01,1.240082532167434692e-01
-6.607007980346679688e-02,-8.528038859367370605e-02,-9.867261350154876709e-02,-5.216426402330398560e-02,-2.249761670827865601e-01,2.494394183158874512e-01,-6.357388943433761597e-02,1.034902185201644897e-01,-1.914806663990020752e-01,1.037510633468627930e-01,-7.349716871976852417e-02,1.951080560684204102e-02,2.227926701307296753e-01,-1.991146057844161987e-01,-2.516493201255798340e-01,-1.127898842096328735e-01,-1.341884881258010864e-01,6.773301959037780762e-02,-9.008054435253143311e-02,-7.262709736824035645e-02,5.933393537998199463e-02,2.396984398365020752e-01,-1.490683108568191528e-01,2.161478623747825623e-03,-9.759239852428436279e-03,-1.170989349484443665e-01,-1.582281440496444702e-01,5.253660306334495544e-02,1.925626546144485474e-01,2.950444817543029785e-01,1.040899902582168579e-01,-1.604793667793273926e-01,2.521165013313293457e-01,5.096795409917831421e-02,-1.162958666682243347e-01,-1.465811729431152344e-01,9.581989049911499023e-02,5.919300392270088196e-02,-9.071449749171733856e-03,-1.614509373903274536e-01,-5.677116289734840393e-02,1.302165538072586060e-01,5.447938665747642517e-02,-1.614004969596862793e-01,-2.689751684665679932e-01,-4.361863061785697937e-02,-7.648582756519317627e-02,-2.719329297542572021e-01,1.346157789230346680e-01,9.828950464725494385e-02
9.644831717014312744e-02,-8.593519032001495361e-02,-1.090217754244804382e-01,-6.784727424383163452e-02,-9.475179761648178101e-02,2.346760965883731842e-02,1.790493130683898926e-01,2.649116329848766327e-02,-9.074503183364868164e-02,-2.069796323776245117e-01,-1.764436811208724976e-01,2.201422303915023804e-02,-3.171889111399650574e-02,1.933179646730422974e-01,-1.186252087354660034e-01,-1.721812039613723755e-01,2.375663667917251587e-01,2.412992268800735474e-01,-2.087981551885604858e-01,1.207145601511001587e-01,-1.398714780807495117e-01,2.524084448814392090e-01,2.320779860019683838e-01,5.771877244114875793e-02,2.709444165229797363e-01,-1.280883420258760452e-02,7.671634852886199951e-02,1.467746496200561523e-01,1.759861260652542114e-01,-4.668463394045829773e-02,1.280017197132110596e-01,1.238489001989364624e-01,-1.195461861789226532e-02,-5.200132355093955994e-02,7.602093368768692017e-02,-4.676818847656250000e-02,-3.810362145304679871e-02,-8.825434488244354725e-04,1.762104481458663940e-01,2.301452867686748505e-02,1.333034783601760864e-01,-5.770412459969520569e-02,-1.520449016243219376e-02,-2.185347974300384521e-01,3.462301567196846008e-02,1.871584802865982056e-01,-3.042846359312534332e-02,9.742877632379531860e-02,2.398758530616760254e-01,-2.313830330967903137e-02
-5.055607482790946960e-02,-1.588550209999084473e-02,1.598620265722274780e-01,-5.062852799892425537e-02,2.844686508178710938e-01,-5.743919685482978821e-02,-9.777316451072692871e-02,-1.452597677707672119e-01,1.573580801486968994e-01,1.694378852844238281e-01,-1.138444021344184875e-01,-9.548450820147991180e-03,2.004552632570266724e-01,-9.907645871862769127e-04,2.624345570802688599e-02,1.289083212614059448e-01,1.090116351842880249e-01,-1.322406381368637085e-01,2.575915455818176270e-01,1.815170943737030029e-01,-2.749980092048645020e-01,2.603391110897064209e-01,-5.446433648467063904e-02,2.629307657480239868e-02,-1.379483342170715332e-01,-1.106754466891288757e-01,-1.059525180608034134e-02,7.219233363866806030e-02,-2.017923891544342041e-01,2.579627931118011475e-01,-2.481281012296676636e-01,-3.918036445975303650e-02,2.488862164318561554e-02,-1.322339922189712524e-01,1.444857716560363770e-01,2.525881528854370117e-01,2.380368262529373169e-01,1.294725537300109863e-01,7.859482616186141968e-02,2.248284816741943359e-01,-1.420666724443435669e-01,4.815315082669258118e-02,1.306293755769729614e-01,-2.928403615951538086e-01,5.414686724543571472e-02,2.195913940668106079e-01,2.646989375352859497e-02,2.640554010868072510e-01,2.344785444438457489e-02,2.284925058484077454e-02
1.576046496629714966e-01,1.083952561020851135e-01,2.370108366012573242e-01,-2.829653955996036530e-02,-1.824265532195568085e-02,1.206240281462669373e-01,-7.262381911277770996e-02,-2.594015002250671387e-01,1.999177634716033936e-01,-1.072530522942543030e-01,-7.108955178409814835e-03,9.086197614669799805e-02,-5.259738862514495850e-02,-8.711861073970794678e-02,1.123763322830200195e-01,-9.061652421951293945e-02,3.125976771116256714e-02,6.923222914338111877e-03,-3.833502763882279396e-03,-8.226263336837291718e-03,1.730138808488845825e-01,1.248102411627769470e-01,1.878094822168350220e-01,-6.118524074554443359e-02,1.228939183056354523e-02,-1.985587477684020996e-01,-1.542347222566604614e-01,9.618949890136718750e-02,1.204794552177190781e-02,1.986445486545562744e-01,-1.939432024955749512e-01,3.786409646272659302e-02,-1.601030975580215454e-01,2.307148128747940063e-01,1.704888418316841125e-02,-2.229995578527450562e-01,-1.114867925643920898e-01,-2.896734774112701416e-01,3.967662341892719269e-03,6.552484631538391113e-02,7.036309689283370972e-02,-6.110515817999839783e-02,-2.922920696437358856e-02,-4.700676538050174713e-03,8.197158575057983398e-02,1.027471721172332764e-01,1.756455600261688232e-01,5.377569422125816345e-02,8.478144556283950806e-02,-9.994476288557052612e-02
-4.318698495626449585e-02,8.773822337388992310e-03,-9.646517783403396606e-02,2.145550698041915894e-01,5.975032225251197815e-02,-1.566739976406097412e-01,-7.446573674678802490e-02,4.257563874125480652e-02,2.886162325739860535e-02,-3.650796785950660706e-02,-3.022224409505724907e-03,5.027562007308006287e-02,-2.462651953101158142e-02,-4.350447654724121094e-02,-1.807272732257843018e-01,-9.522682428359985352e-02,-7.077088952064514160e-02,1.652359515428543091e-01,1.601703464984893799e-01,3.480533882975578308e-02,-7.109517604112625122e-02,-1.126638278365135193e-01,3.197598159313201904e-01,5.078004673123359680e-02,9.056927263736724854e-02,1.726190932095050812e-02,5.684570968151092529e-02,-1.175669580698013306e-01,1.763428598642349243e-01,2.207838445901870728e-01,9.988564252853393555e-02,-1.008996888995170593e-01,2.371002137660980225e-01,-1.367188096046447754e-01,-3.864681348204612732e-02,1.730267107486724854e-01,1.925000697374343872e-01,-2.350114285945892334e-01,7.280947640538215637e-03,-1.478028297424316406e-01,-3.227500244975090027e-02,6.650519371032714844e-02,2.643308043479919434e-01,-1.416902691125869751e-01,5.510093271732330322e-02,1.070304214954376221e-01,1.852626912295818329e-02,-2.487480454146862030e-02,-6.378588825464248657e-02,1.029909960925579071e-02
1.205926537513732910e-01,8.737921714782714844e-02,-6.770149618387222290e-02,-2.494479864835739136e-01,2.253119274973869324e-02,3.981417417526245117e-02,-2.252353578805923462e-01,-2.261522859334945679e-01,-1.430481821298599243e-01,1.528290212154388428e-01,-3.744764253497123718e-02,6.878852099180221558e-02,9.128183871507644653e-02,8.494441211223602295e-02,1.894342005252838135e-01,1.293799281120300293e-01,8.449037373065948486e-02,-1.014450415968894958e-01,5.665036663413047791e-02,6.600540876388549805e-02,3.704172000288963318e-02,1.583777964115142822e-01,-1.762977391481399536e-01,1.840111315250396729e-01,8.458200097084045410e-02,-1.408996731042861938e-01,-1.539676487445831299e-01,-1.624272763729095459e-01,-3.885304182767868042e-02,-5.410753190517425537e-02,-1.203150823712348938e-01,1.894439607858657837e-01,-2.257634550333023071e-01,-2.062356621026992798e-01,1.263662874698638916e-01,1.516081541776657104e-01,9.629532694816589355e-02,1.424609720706939697e-01,3.724448755383491516e-02,-2.264916449785232544e-01,1.426351815462112427e-01,8.342485129833221436e-02,3.975944593548774719e-02,2.594921551644802094e-02,1.492694467306137085e-01,-6.906493008136749268e-02,-4.684739932417869568e-02,5.004577338695526123e-02,6.177470460534095764e-02,1.163253840059041977e-02
-1.910193115472793579e-01,-7.624182850122451782e-02,7.771331351250410080e-03,-4.613511860370635986e-01,6.847443291917443275e-04,1.070380434393882751e-01,-7.993685454130172729e-02,-1.498531848192214966e-01,1.027502939105033875e-01,-1.603401005268096924e-01,-3.021550923585891724e-02,1.379153225570917130e-02,9.033247083425521851e-02,1.426503621041774750e-02,1.187915802001953125e-01,-3.056129217147827148e-01,-1.132232472300529480e-01,1.941468715667724609e-01,-1.223072856664657593e-01,-1.403573155403137207e-01,-4.366149008274078369e-02,4.645829275250434875e-02,3.348568677902221680e-01,-2.668529450893402100e-01,3.051324747502803802e-02,-1.585555523633956909e-01,-1.632997393608093262e-01,-3.902999684214591980e-02,1.602526903152465820e-01,1.246102079749107361e-01,-1.249407455325126648e-01,6.904447823762893677e-02,-7.804681360721588135e-02,-1.201807484030723572e-01,6.186763197183609009e-02,5.352240204811096191e-01,2.504622638225555420e-01,7.281599938869476318e-02,-2.036727964878082275e-01,-1.392757296562194824e-01,6.801233440637588501e-02,9.840842336416244507e-03,1.436796337366104126e-01,2.370367050170898438e-01,-5.829422920942306519e-02,1.485433131456375122e-01,1.520606130361557007e-01,-1.688500121235847473e-02,2.710478007793426514e-01,3.282964602112770081e-02
-1.103108897805213928e-01,-1.673956662416458130e-01,-3.516655415296554565e-02,-2.471777498722076416e-01,9.758573770523071289e-02,7.587466388940811157e-02,-2.638546228408813477e-01,1.245113760232925415e-01,-4.801272600889205933e-02,-1.563493721187114716e-02,-6.307804584503173828e-02,-1.536136418581008911e-01,-6.897470448166131973e-03,3.057211637496948242e-01,-1.843724250793457031e-01,-5.430648103356361389e-02,-1.367587149143218994e-01,3.511961549520492554e-02,2.011203020811080933e-01,-1.731036305427551270e-01,1.817829906940460205e-02,2.562419176101684570e-01,-2.139125764369964600e-01,4.267421085387468338e-03,-1.022214740514755249e-01,2.090395539999008179e-01,4.653419926762580872e-02,7.843961007893085480e-03,-1.157993227243423462e-01,-3.034859709441661835e-02,-1.199511140584945679e-01,2.786329388618469238e-01,1.140774711966514587e-01,-9.050595760345458984e-02,1.506759673357009888e-01,5.022161006927490234e-01,1.814926275983452797e-03,-1.061701476573944092e-01,-1.243366971611976624e-01,-9.455844759941101074e-02,1.659777164459228516e-01,-2.435971200466156006e-01,1.414686888456344604e-01,-2.908434160053730011e-02,1.949861496686935425e-01,1.728794574737548828e-01,1.171227321028709412e-01,3.225421309471130371e-01,3.242104351520538330e-01,-1.017563641071319580e-01
-1.355760991573333740e-01,2.138515710830688477e-01,-2.313326299190521240e-01,6.365978717803955078e-02,-2.397812753915786743e-01,1.131045892834663391e-01,1.931447833776473999e-01,-1.348553895950317383e-01,1.599261015653610229e-01,-2.340918779373168945e-01,-1.252971291542053223e-01,9.331665933132171631e-02,6.491709500551223755e-02,8.323127776384353638e-02,2.421333268284797668e-02,2.360797487199306488e-03,-1.347475200891494751e-01,-1.275325119495391846e-01,1.266335695981979370e-01,5.767272412776947021e-02,-2.342816628515720367e-02,1.060436591506004333e-01,4.492110013961791992e-02,-1.983455121517181396e-01,-1.698881536722183228e-01,2.452085614204406738e-01,-1.131290197372436523e-01,-1.473492830991744995e-01,1.010518968105316162e-01,4.151795804500579834e-02,-1.003036648035049438e-01,1.088362559676170349e-01,1.671399325132369995e-01,2.386036962270736694e-01,-8.896055817604064941e-02,-2.044474184513092041e-01,1.075863372534513474e-03,-1.028713434934616089e-01,8.466606587171554565e-02,-1.659696251153945923e-01,-5.200347304344177246e-02,-5.154051259160041809e-02,2.069267071783542633e-02,7.394412904977798462e-02,-1.662877351045608521e-01,-4.738402366638183594e-02,1.090918481349945068e-01,-3.942203521728515625e-02,1.493682563304901123e-01,2.878998219966888428e-02
-1.688742637634277344e-02,-2.018087208271026611e-01,-1.128294244408607483e-01,-9.778014570474624634e-02,7.257563527673482895e-03,6.283542513847351074e-02,1.660007089376449585e-01,-8.342923223972320557e-02,-6.715881824493408203e-02,5.824356898665428162e-02,2.253018915653228760e-01,-7.037591934204101562e-02,-6.747572124004364014e-02,-8.042529225349426270e-03,2.302685678005218506e-01,1.193287745118141174e-01,-2.615744173526763916e-01,-2.709171772003173828e-01,5.080398917198181152e-02,-7.430838048458099365e-02,-2.256806008517742157e-02,-4.485671967267990112e-02,1.977198868989944458e-01,2.482061386108398438e-01,-1.487062871456146240e-01,7.312297821044921875e-02,-3.337374422699213028e-03,-9.151913225650787354e-02,-1.037876587361097336e-03,4.864921420812606812e-02,-1.983901858329772949e-01,-1.652097702026367188e-01,-3.410748541355133057e-01,1.547827869653701782e-01,1.029834058135747910e-02,-8.136551827192306519e-02,9.636690467596054077e-02,-5.855614691972732544e-02,-2.642806768417358398e-01,-7.422631978988647461e-02,2.361426502466201782e-01,-2.809717357158660889e-01,2.310605645179748535e-01,-2.481480836868286133e-01,4.556323885917663574e-01,2.115919589996337891e-01,1.510655581951141357e-01,1.451950967311859131e-01,2.935636974871158600e-02,5.385897681117057800e-02
1.398465782403945923e-01,7.636870141141116619e-04,4.509982094168663025e-02,-1.113040670752525330e-01,2.060943394899368286e-01,7.858923077583312988e-02,-4.379080235958099365e-02,-1.275628060102462769e-01,2.180428057909011841e-01,-6.961780041456222534e-02,-2.025664150714874268e-01,-2.979103326797485352e-01,1.912231445312500000e-01,-2.961841411888599396e-02,-3.029138147830963135e-01,-3.138728439807891846e-02,2.211422920227050781e-01,-1.345396488904953003e-01,-8.805594593286514282e-02,-1.320228278636932373e-01,-8.705510408617556095e-04,8.564377576112747192e-02,-1.145044416189193726e-01,8.241824805736541748e-02,-7.148803025484085083e-02,-1.885473877191543579e-01,-1.242225021123886108e-01,-2.573720216751098633e-01,-3.809750452637672424e-02,-1.323360353708267212e-01,-2.107270210981369019e-01,-6.610839813947677612e-02,1.828583776950836182e-01,2.087346613407135010e-01,5.695335566997528076e-02,2.798485569655895233e-02,-8.342209458351135254e-02,-1.632379442453384399e-01,-1.743249595165252686e-01,-1.026207357645034790e-01,-2.218862026929855347e-01,-1.887954771518707275e-03,-1.419901847839355469e-01,1.558212935924530029e-01,1.276240050792694092e-01,4.205708205699920654e-02,-1.900483816862106323e-01,1.623697951436042786e-02,-2.310091555118560791e-01,1.324815005064010620e-01
-9.248567372560501099e-02,-1.374883204698562622e-01,-1.994449049234390259e-01,-3.428341746330261230e-01,1.156495362520217896e-01,-1.230645328760147095e-01,1.375010311603546143e-01,2.187623083591461182e-01,1.649135947227478027e-01,1.089716404676437378e-01,-1.329926103353500366e-01,1.245437785983085632e-01,4.421281162649393082e-03,-2.326291501522064209e-01,-5.145495757460594177e-02,1.389636844396591187e-01,3.203528746962547302e-02,-4.992996156215667725e-02,8.787005394697189331e-02,-1.610988527536392212e-01,2.757827043533325195e-01,1.949831694364547729e-01,-4.326194152235984802e-02,-2.604807615280151367e-01,2.237067073583602905e-01,1.926790326833724976e-01,-1.128557324409484863e-01,2.295272648334503174e-01,7.986482977867126465e-02,-1.200390681624412537e-01,1.079956442117691040e-01,9.059758484363555908e-02,-1.630229353904724121e-01,8.738283812999725342e-02,-5.979165807366371155e-02,9.981213510036468506e-02,2.850678004324436188e-02,2.096070051193237305e-01,-8.875156193971633911e-02,-9.110924601554870605e-02,-8.428704738616943359e-02,8.929667621850967407e-02,-6.477326899766921997e-02,2.699492499232292175e-02,1.577131599187850952e-01,-1.841316521167755127e-01,1.004610061645507812e-01,1.873593330383300781e-01,-1.607308089733123779e-01,-4.368105903267860413e-02
-1.275536883622407913e-02,2.686423063278198242e-02,6.380360573530197144e-04,2.389655262231826782e-02,-1.447369605302810669e-01,-1.244736164808273315e-01,6.581339240074157715e-02,1.180182471871376038e-01,3.438090533018112183e-02,-1.164221391081809998e-01,-3.665873548015952110e-03,1.402288768440485001e-02,1.015440672636032104e-01,-1.079578250646591187e-01,1.235131081193685532e-02,1.479467302560806274e-01,2.143682166934013367e-02,-5.968589335680007935e-02,1.201291829347610474e-01,8.259409666061401367e-02,3.905648738145828247e-02,2.325343191623687744e-01,5.648401565849781036e-03,1.791779547929763794e-01,2.025347203016281128e-01,1.779159158468246460e-01,7.351613789796829224e-02,-7.918275892734527588e-02,-2.504728436470031738e-01,-2.936108708381652832e-01,-7.811767607927322388e-02,2.651401162147521973e-01,1.664579361677169800e-01,1.284645348787307739e-01,5.311138182878494263e-02,-5.765052139759063721e-02,1.984920166432857513e-02,1.732901111245155334e-02,1.196839809417724609e-01,-2.043539434671401978e-01,-2.413753233850002289e-02,9.262982755899429321e-02,8.481743186712265015e-02,-2.366243749856948853e-01,-7.003460079431533813e-02,-6.137640774250030518e-02,4.503161087632179260e-02,-3.245978802442550659e-02,2.840304076671600342e-01,-2.289935499429702759e-01
-1.565139740705490112e-01,-1.342950314283370972e-01,2.005521506071090698e-01,-2.232987731695175171e-01,-5.936508253216743469e-02,-1.830701231956481934e-01,-2.256624549627304077e-01,2.878735214471817017e-02,1.770190745592117310e-01,2.099703848361968994e-01,-7.757157087326049805e-02,-1.322125941514968872e-01,-5.329389870166778564e-02,-1.530759781599044800e-01,1.749780029058456421e-01,-1.644814163446426392e-01,1.898002177476882935e-01,-5.426612123847007751e-02,-4.267368838191032410e-02,-3.230720013380050659e-02,-1.085395812988281250e-01,-1.165051311254501343e-01,2.607248723506927490e-01,-6.030755490064620972e-02,-2.052070759236812592e-02,2.628031559288501740e-02,1.502330452203750610e-01,1.408564746379852295e-01,1.746769398450851440e-01,-1.459280252456665039e-01,3.187107294797897339e-02,1.633322685956954956e-01,1.041896417737007141e-01,-5.743579566478729248e-02,-1.252399832010269165e-01,-5.315235629677772522e-02,3.413707762956619263e-02,-6.016602367162704468e-02,-3.056128919124603271e-01,-5.228965356945991516e-02,1.804812252521514893e-01,-1.121022775769233704e-01,1.671308279037475586e-02,-2.082799375057220459e-02,-2.053169310092926025e-01,-1.403097212314605713e-01,9.839304536581039429e-02,-1.408629566431045532e-01,2.255517989397048950e-01,-8.782763034105300903e-02
-2.842106521129608154e-01,1.005576774477958679e-01,6.083462387323379517e-02,9.299581870436668396e-03,1.279342025518417358e-01,3.124942071735858917e-02,1.368654221296310425e-01,3.044248558580875397e-02,1.887552589178085327e-01,-1.179372593760490417e-01,7.282876968383789062e-02,-1.646534204483032227e-01,-1.067732572555541992e-01,9.852027148008346558e-02,5.219230428338050842e-03,9.121508896350860596e-02,1.368521153926849365e-01,1.073426231741905212e-01,-1.609821617603302002e-02,6.618972867727279663e-02,-1.765116602182388306e-01,6.902515143156051636e-02,5.678638070821762085e-02,-2.604511193931102753e-02,-1.116437539458274841e-01,6.152515485882759094e-02,-1.727348864078521729e-01,-4.578828439116477966e-02,-2.234841734170913696e-01,2.716629803180694580e-01,-7.916819304227828979e-03,-1.039341986179351807e-01,1.224339753389358521e-01,1.792174726724624634e-01,9.830851107835769653e-02,-3.053544461727142334e-01,-2.321726642549037933e-02,-9.196241199970245361e-02,1.623404324054718018e-01,1.592582762241363525e-01,1.843570731580257416e-02,-1.279775351285934448e-01,-1.892197579145431519e-01,-7.145972549915313721e-02,1.231131553649902344e-01,1.051383316516876221e-01,-1.567772962152957916e-02,1.866938471794128418e-01,-2.445542812347412109e-01,1.723953783512115479e-01
5.205271020531654358e-02,8.309554308652877808e-03,-1.376656889915466309e-01,-8.175562322139739990e-02,-1.717936694622039795e-01,-1.510050427168607712e-02,-1.957794576883316040e-01,3.149537742137908936e-01,-1.311298012733459473e-01,1.940273642539978027e-01,7.167448755353689194e-03,1.100667342543601990e-01,1.791763305664062500e-01,5.315797403454780579e-02,1.948353350162506104e-01,-2.197455614805221558e-02,-7.119814306497573853e-02,-2.285746484994888306e-02,-4.707714542746543884e-02,1.042528524994850159e-01,-1.377762705087661743e-01,-1.269839853048324585e-01,1.243128404021263123e-01,-1.219636052846908569e-01,5.547550320625305176e-02,-1.074051037430763245e-01,1.672995388507843018e-01,2.142741978168487549e-01,-2.485257238149642944e-01,-2.587419450283050537e-01,2.190230041742324829e-01,7.381830364465713501e-02,-1.364015191793441772e-01,7.520756870508193970e-02,-1.337390206754207611e-02,-5.990679189562797546e-02,-2.473408579826354980e-01,2.453689835965633392e-02,-6.996379792690277100e-02,-1.380096524953842163e-01,-3.449103608727455139e-02,7.466854900121688843e-02,-5.002201348543167114e-02,2.278045378625392914e-02,6.225327402353286743e-02,6.052112951874732971e-02,-1.073546707630157471e-01,-3.395079448819160461e-02,-6.122481543570756912e-03,1.368119120597839355e-01
2.018657773733139038e-01,1.778098642826080322e-01,7.717473804950714111e-02,4.612835124135017395e-02,9.819269180297851562e-03,5.483824014663696289e-02,-1.400907710194587708e-02,-1.659474335610866547e-02,-3.126467391848564148e-02,8.822006732225418091e-02,-1.398598402738571167e-01,2.130560874938964844e-01,-1.777172088623046875e-02,7.737725228071212769e-02,2.840389311313629150e-02,-2.699013054370880127e-02,5.147270858287811279e-03,5.479948967695236206e-02,1.720218509435653687e-01,5.941995605826377869e-02,-9.480016678571701050e-02,-1.459637433290481567e-01,1.113689616322517395e-01,2.019340246915817261e-01,9.983438253402709961e-02,-1.342934072017669678e-01,-1.648984551429748535e-01,-2.613366581499576569e-02,-2.112322300672531128e-02,-1.886316537857055664e-01,-4.557140544056892395e-02,6.174264475703239441e-02,-9.465014934539794922e-02,2.657797746360301971e-02,1.342225968837738037e-01,-1.403542459011077881e-01,1.237501949071884155e-01,1.143743693828582764e-01,-9.535897523164749146e-02,-6.068467721343040466e-02,1.063668429851531982e-01,4.427768290042877197e-02,1.408391147851943970e-01,2.145615965127944946e-02,2.024520188570022583e-01,-2.061417400836944580e-01,1.540854275226593018e-01,-2.220556326210498810e-02,1.580547094345092773e-01,7.796246558427810669e-02
1.161341965198516846e-01,-8.315090835094451904e-02,-2.633077502250671387e-01,1.195954233407974243e-01,1.367189586162567139e-01,2.456842958927154541e-01,1.502326279878616333e-01,2.303495854139328003e-01,-3.125676512718200684e-02,2.421531826257705688e-01,-1.124423816800117493e-01,1.195893287658691406e-01,9.264898300170898438e-02,5.822880938649177551e-02,-2.815493643283843994e-01,-8.351924270391464233e-02,-6.445999722927808762e-03,-1.152757704257965088e-01,1.258171945810317993e-01,-1.106387376785278320e-01,-1.556877605617046356e-02,1.275560259819030762e-01,-8.141832053661346436e-02,1.639635413885116577e-01,-1.886679679155349731e-01,-1.920301653444766998e-02,2.568161785602569580e-01,2.247108705341815948e-02,1.215255856513977051e-01,9.487272053956985474e-02,-2.104542404413223267e-01,-1.862743794918060303e-01,1.368181556463241577e-01,-8.505084365606307983e-02,-1.209092065691947937e-01,-1.259051412343978882e-01,-1.949690729379653931e-01,-3.368856608867645264e-01,2.414484769105911255e-01,-4.323295503854751587e-02,1.446833312511444092e-01,1.146878451108932495e-01,-2.339652925729751587e-01,4.923466220498085022e-02,2.227047085762023926e-01,1.328789740800857544e-01,-8.030615746974945068e-03,7.139225024729967117e-03,-1.573688536882400513e-01,2.473375052213668823e-01
-1.810982078313827515e-01,-2.784171402454376221e-01,-4.019267484545707703e-02,-1.331048160791397095e-01,5.291840806603431702e-02,-2.679126262664794922e-01,-2.783989533782005310e-02,1.053578108549118042e-01,-1.414138078689575195e-01,5.365771357901394367e-04,1.782145649194717407e-01,-1.577757894992828369e-01,2.297413349151611328e-01,-2.083379542455077171e-03,-3.611046075820922852e-02,1.727189123630523682e-01,1.431033313274383545e-01,-1.811465919017791748e-01,1.456228643655776978e-01,-2.462453767657279968e-02,-1.078499183058738708e-01,-1.628759950399398804e-01,3.486128523945808411e-03,4.921436309814453125e-02,-6.452971696853637695e-02,-1.134159788489341736e-01,1.171760037541389465e-01,-7.207981497049331665e-02,1.698389351367950439e-01,1.635895669460296631e-01,-7.330227643251419067e-02,-8.440823107957839966e-02,-2.841253280639648438e-01,-1.598303765058517456e-01,-2.581420354545116425e-03,1.395819708704948425e-03,-1.549598127603530884e-01,1.061170920729637146e-01,1.400985866785049438e-01,4.153514802455902100e-01,-1.141077056527137756e-01,-2.420231699943542480e-01,1.378250191919505596e-03,-2.930505387485027313e-02,1.778246313333511353e-01,1.024051755666732788e-01,2.022587694227695465e-02,1.196624040603637695e-01,9.468819946050643921e-02,1.718458533287048340e-01
2.480097711086273193e-01,-2.164400368928909302e-01,1.588075608015060425e-01,-2.115650475025177002e-01,1.282165199518203735e-01,-3.914877772331237793e-02,8.760526031255722046e-02,-3.866223618388175964e-02,-2.222916781902313232e-01,-7.841122150421142578e-02,-8.732209354639053345e-02,-7.698510587215423584e-02,6.571429222822189331e-02,2.035368680953979492e-01,-3.622542694211006165e-02,-1.180334985256195068e-01,7.159449160099029541e-02,-6.941071897745132446e-02,2.894361019134521484e-01,-1.796935871243476868e-02,2.365336865186691284e-01,-1.828737109899520874e-01,1.843428798019886017e-02,-1.121424585580825806e-01,-1.598649173974990845e-01,1.962042301893234253e-01,7.635503262281417847e-02,1.515610516071319580e-01,5.648144707083702087e-02,-3.934997320175170898e-02,-3.515034914016723633e-02,7.869133353233337402e-02,-1.399150341749191284e-01,-2.480245381593704224e-01,-1.260770857334136963e-01,1.178956776857376099e-01,1.498426347970962524e-01,-1.596200838685035706e-02,-1.783983968198299408e-02,-7.995470613241195679e-02,4.069724306464195251e-02,-6.243479624390602112e-02,2.419420629739761353e-01,2.720610201358795166e-01,-4.574874415993690491e-02,-1.090657711029052734e-01,1.223838850855827332e-01,-2.145369797945022583e-01,-1.764595657587051392e-01,1.718142181634902954e-01
2.788679115474224091e-02,3.783019632101058960e-02,5.282070860266685486e-02,6.175807863473892212e-02,4.059502854943275452e-02,-7.611478865146636963e-02,1.266344338655471802e-01,-1.378944069147109985e-01,-1.117219328880310059e-01,3.359105065464973450e-02,2.957133017480373383e-02,1.686767190694808960e-01,-1.354030370712280273e-01,-1.181464344263076782e-01,1.832203865051269531e-01,1.658424437046051025e-01,-2.294193208217620850e-02,1.498074382543563843e-01,9.071800857782363892e-02,8.710715174674987793e-02,5.672978609800338745e-02,1.144044771790504456e-01,-1.309577971696853638e-01,3.369725868105888367e-02,-2.739881910383701324e-02,1.862862855195999146e-01,-4.667947441339492798e-02,1.302619725465774536e-01,8.518025279045104980e-02,7.173317484557628632e-03,1.626560091972351074e-01,-1.999658048152923584e-01,1.003542914986610413e-01,1.396471052430570126e-03,-1.155330315232276917e-01,1.922086179256439209e-01,-2.841749489307403564e-01,3.520866483449935913e-02,-4.925877228379249573e-02,-1.470204740762710571e-01,-1.717179715633392334e-01,8.076439797878265381e-02,-1.340946704149246216e-01,5.192952230572700500e-02,-2.540880739688873291e-01,2.312745153903961182e-02,-1.221295595169067383e-01,1.329891681671142578e-01,3.994387015700340271e-02,2.001406997442245483e-02
-5.271404609084129333e-02,7.876616716384887695e-02,2.213972508907318115e-01,1.683936864137649536e-01,2.360658496618270874e-01,-1.051786765456199646e-01,1.685153245925903320e-01,1.380917727947235107e-01,-4.212927073240280151e-02,-6.700582802295684814e-02,2.953457646071910858e-02,1.487140357494354248e-01,2.718073129653930664e-01,-1.080707311630249023e-01,4.495319724082946777e-02,2.315852418541908264e-02,-1.743684150278568268e-02,1.753185540437698364e-01,1.067787706851959229e-01,1.377965658903121948e-01,-1.159855723381042480e-01,8.216817677021026611e-02,-1.818547397851943970e-01,-2.377852797508239746e-02,3.057278506457805634e-02,1.396021246910095215e-01,2.016452997922897339e-01,-1.135357376188039780e-02,1.308076083660125732e-01,-3.969538956880569458e-02,1.074509844183921814e-01,-7.667113095521926880e-02,1.792841106653213501e-01,-6.186714768409729004e-02,-9.615354984998703003e-02,6.228318437933921814e-02,1.221858933568000793e-01,-4.765412956476211548e-02,-2.529079094529151917e-03,-1.988473385572433472e-01,-1.636045575141906738e-01,-1.325810998678207397e-01,1.690942645072937012e-01,-6.680167466402053833e-02,5.936652421951293945e-02,-2.172321081161499023e-02,9.665764123201370239e-02,1.705033779144287109e-01,-2.046272456645965576e-01,1.065144166350364685e-01
