-2.242580056190490723e-02,4.175604134798049927e-02,-1.851958930492401123e-01,-4.317573085427284241e-02,-2.061477601528167725e-01,1.751727610826492310e-01,-3.920901566743850708e-02,-1.533267740160226822e-02,-1.075014322996139526e-01,1.266003251075744629e-01,-1.508519351482391357e-01,-4.964810237288475037e-02,-2.002595737576484680e-02,9.744931757450103760e-02,4.596303682774305344e-03,2.405663020908832550e-02,4.232374206185340881e-02,1.368663311004638672e-01,-9.789168089628219604e-02,-4.121937602758407593e-02,1.355978250503540039e-01,-1.511762142181396484e-01,1.249046549201011658e-01,-1.353569626808166504e-01,-1.169836334884166718e-02,-1.873754523694515228e-02,1.499564796686172485e-01,1.157962158322334290e-01,-1.172380223870277405e-01,-6.617850065231323242e-02,3.705292567610740662e-02,-3.887728974223136902e-02,-4.458826966583728790e-03,-1.765858829021453857e-01,1.581137068569660187e-02,-1.412142366170883179e-01,-3.364565595984458923e-02,1.641383022069931030e-01,-1.819851547479629517e-01,-1.004949063062667847e-01,3.737985342741012573e-02,-2.697345102205872536e-03,1.689609587192535400e-01,-1.480710655450820923e-01,-1.515039205551147461e-01,-8.072610199451446533e-02,8.725950866937637329e-02,1.140659749507904053e-01,-1.209605783224105835e-01,-6.116796657443046570e-02
1.007244437932968140e-01,1.989865116775035858e-02,-2.035882920026779175e-01,2.906753309071063995e-02,-2.150419652462005615e-01,1.264699995517730713e-01,-2.996105551719665527e-01,-2.154896408319473267e-01,-5.949371494352817535e-03,-2.057852298021316528e-01,-2.464755065739154816e-02,1.719052046537399292e-01,-1.864140108227729797e-02,-8.014160394668579102e-02,-6.055279076099395752e-02,-1.311641633510589600e-01,-6.120820716023445129e-02,3.563411533832550049e-02,1.771830320358276367e-01,1.157188564538955688e-01,-2.508081793785095215e-01,-1.085341200232505798e-01,-2.134542465209960938e-01,-1.356016993522644043e-01,1.768498332239687443e-03,9.844712913036346436e-02,1.170336455106735229e-01,1.436280608177185059e-01,-8.451576530933380127e-02,1.836621947586536407e-02,-7.336645852774381638e-03,2.746366262435913086e-01,-1.310839354991912842e-01,-1.358811557292938232e-01,1.589590609073638916e-01,3.166070878505706787e-01,3.297442942857742310e-02,-2.895120978355407715e-01,6.129766255617141724e-02,2.184439450502395630e-01,3.004796057939529419e-02,1.634096652269363403e-01,-3.742950409650802612e-02,2.172118611633777618e-02,-2.541724741458892822e-01,-1.884501986205577850e-02,2.192465588450431824e-02,-2.018465846776962280e-01,2.346909493207931519e-01,-2.703195903450250626e-03
-2.426527440547943115e-01,1.284680962562561035e-01,-1.028411090373992920e-01,-1.174241006374359131e-01,3.419673144817352295e-01,-2.022950202226638794e-01,1.835228949785232544e-01,1.475347727537155151e-01,1.006647720932960510e-01,1.109550222754478455e-01,-2.138300836086273193e-01,1.543946862220764160e-01,1.271751075983047485e-01,1.670919805765151978e-01,3.592899441719055176e-01,-1.691013425588607788e-01,-1.759086549282073975e-02,-2.923360653221607208e-02,-8.145379275083541870e-02,-1.612460017204284668e-01,1.932569593191146851e-02,-6.176597252488136292e-02,3.627163544297218323e-02,-9.028696268796920776e-02,8.099138736724853516e-02,7.755609601736068726e-02,5.562758073210716248e-02,-1.387849301099777222e-01,-4.994707554578781128e-02,3.507898747920989990e-01,1.991453580558300018e-03,2.717179358005523682e-01,-6.348656862974166870e-02,-5.047028139233589172e-02,-3.647677972912788391e-02,-6.474685668945312500e-02,1.795589029788970947e-01,-1.094879508018493652e-01,-6.306236237287521362e-02,-4.981985688209533691e-02,-1.480248421430587769e-01,1.379907578229904175e-01,4.811502527445554733e-03,-1.734307408332824707e-01,-8.704742789268493652e-02,3.056980483233928680e-02,-5.114351958036422729e-02,-4.056856036186218262e-02,2.502358518540859222e-02,-4.261175636202096939e-03
-7.430578768253326416e-02,-6.735976785421371460e-02,2.308707088232040405e-01,-2.691811695694923401e-02,-2.199838124215602875e-02,2.665748894214630127e-01,9.295994788408279419e-02,5.314569920301437378e-02,1.225094869732856750e-01,-7.692075520753860474e-02,7.829222083091735840e-02,4.588035866618156433e-02,-1.646485775709152222e-01,4.204425960779190063e-02,-3.237174823880195618e-02,3.159864246845245361e-02,2.512045763432979584e-02,-9.883513301610946655e-02,-3.146198391914367676e-02,1.228941790759563446e-02,-8.471436798572540283e-02,2.021113783121109009e-01,6.002124398946762085e-02,4.945781454443931580e-02,-8.104283362627029419e-03,2.500404417514801025e-02,7.539644837379455566e-02,3.926910459995269775e-02,-2.335888594388961792e-01,3.287920951843261719e-01,6.544888019561767578e-03,7.921914756298065186e-02,1.547344774007797241e-01,1.579922437667846680e-01,1.649294197559356689e-01,9.009769558906555176e-02,2.493842132389545441e-02,-1.858964748680591583e-02,-2.317435592412948608e-01,7.441435754299163818e-02,-3.696542605757713318e-02,3.421032428741455078e-02,4.579429328441619873e-02,2.054698914289474487e-01,2.019029259681701660e-01,-7.572852075099945068e-02,8.890003710985183716e-02,-8.805812150239944458e-02,6.442391872406005859e-02,5.360650271177291870e-02
