-4.711179528385400772e-03,-1.514840126037597656e-01,-1.712997555732727051e-01,-1.053873077034950256e-01,-1.285720169544219971e-01,2.141105383634567261e-01,-6.873813271522521973e-02,1.528947651386260986e-01,-1.518420279026031494e-01,1.079182513058185577e-02,-2.243159860372543335e-01,7.309354841709136963e-02,-8.271588385105133057e-02,-1.739610880613327026e-01,2.013516128063201904e-01,3.301454707980155945e-02,-1.206471845507621765e-01,-5.097358673810958862e-02,5.612150952219963074e-02,-1.270021945238113403e-01,-5.972085520625114441e-03,-2.611745595932006836e-01,1.716710031032562256e-01,1.034273207187652588e-01,-2.655680775642395020e-01,2.202591598033905029e-01,-2.062612622976303101e-01,1.773355454206466675e-01,1.446418911218643188e-01,1.659920811653137207e-01,1.196156591176986694e-01,-1.277386397123336792e-01,-2.731521129608154297e-01,-7.012200355529785156e-02,-3.515012934803962708e-02,1.430983841419219971e-01,1.231412440538406372e-01,8.979342877864837646e-02,1.203109100461006165e-01,-9.248799085617065430e-02,1.380735486745834351e-01,-2.169705778360366821e-01,9.015901945531368256e-03,-6.690413504838943481e-02,6.878033280372619629e-02,-5.820725485682487488e-02,-2.015984803438186646e-01,-7.836570590734481812e-02,2.159740179777145386e-01,6.166591867804527283e-02
-2.111519500613212585e-02,-1.222412064671516418e-01,1.551614254713058472e-01,1.042589917778968811e-01,7.406125962734222412e-02,-1.698217988014221191e-01,-4.702061042189598083e-02,-8.686020225286483765e-02,-2.146406620740890503e-01,1.788633763790130615e-01,-7.156509906053543091e-02,-3.174233436584472656e-02,-1.626630127429962158e-01,-1.665162742137908936e-01,-2.540991008281707764e-01,3.159354999661445618e-02,-1.213646978139877319e-01,1.038222610950469971e-01,-3.485417366027832031e-01,7.745455205440521240e-02,-1.677572429180145264e-01,-1.667478978633880615e-01,1.901947706937789917e-01,1.689666882157325745e-02,1.427056342363357544e-01,-6.129029765725135803e-02,-8.516491390764713287e-03,-1.768802553415298462e-01,1.156575083732604980e-01,-2.216445505619049072e-01,-1.682525277137756348e-01,6.725461035966873169e-02,-1.485095079988241196e-02,8.487111330032348633e-02,7.231880724430084229e-02,1.792574077844619751e-01,-6.381785869598388672e-02,7.673614658415317535e-03,1.784837841987609863e-01,-2.353758513927459717e-01,-1.471332758665084839e-01,-1.358536481857299805e-01,2.133802920579910278e-01,1.449593156576156616e-01,1.961926221847534180e-01,-1.184040009975433350e-01,-1.861524283885955811e-01,-5.232975259423255920e-02,-2.838152945041656494e-01,9.248901903629302979e-02
1.592312008142471313e-01,-1.493400931358337402e-01,-1.395885646343231201e-01,7.557874917984008789e-02,1.985892280936241150e-02,-8.039039373397827148e-02,-3.536739572882652283e-02,1.197046041488647461e-01,-1.646083593368530273e-01,2.157526835799217224e-02,1.319402754306793213e-01,1.023892909288406372e-01,4.201200604438781738e-02,1.187237873673439026e-01,7.007825374603271484e-02,-2.132504135370254517e-01,1.962010115385055542e-01,-1.434334740042686462e-02,9.924902021884918213e-02,1.446677930653095245e-02,6.061967089772224426e-02,4.778099805116653442e-02,-1.266259253025054932e-01,-7.314933463931083679e-03,1.850205510854721069e-01,1.484730094671249390e-01,-1.198703348636627197e-01,1.369429975748062134e-01,5.768403783440589905e-02,-5.697098374366760254e-02,8.349846303462982178e-02,1.847987920045852661e-01,1.190156787633895874e-01,4.386882297694683075e-03,-1.496866345405578613e-01,-3.317715600132942200e-02,-1.505802199244499207e-02,-2.286328189074993134e-02,4.184565320611000061e-02,6.817874498665332794e-03,6.778336316347122192e-02,-1.173349246382713318e-01,-5.801699683070182800e-02,-3.521261503919959068e-03,1.332642585039138794e-01,5.783262476325035095e-02,1.985155194997787476e-01,-1.137269660830497742e-01,-8.833681792020797729e-02,6.345939636230468750e-02
-2.156593352556228638e-01,-1.178598254919052124e-01,-1.915521621704101562e-01,-9.260610491037368774e-02,8.802714943885803223e-02,3.095175512135028839e-02,3.403417393565177917e-02,-1.990749686956405640e-01,-2.150999307632446289e-01,2.117691636085510254e-01,2.217739969491958618e-01,-7.468305528163909912e-02,-8.824432641267776489e-02,7.623651623725891113e-02,1.657692342996597290e-01,-1.420310288667678833e-01,-1.306696087121963501e-01,-7.085216790437698364e-02,-1.020335182547569275e-01,9.700660593807697296e-03,-3.821533545851707458e-02,-6.026235222816467285e-02,5.514422059059143066e-02,-4.073969274759292603e-02,1.367751657962799072e-01,5.293781310319900513e-02,-1.493781954050064087e-01,1.105047762393951416e-02,-2.522072196006774902e-01,2.779662050306797028e-02,-1.798006892204284668e-01,-1.287482827901840210e-01,2.012815028429031372e-01,4.242226853966712952e-02,-2.190624475479125977e-01,-2.618781328201293945e-01,-1.640651822090148926e-01,-1.594589054584503174e-01,-4.192480072379112244e-02,2.501480281352996826e-01,2.237364798784255981e-01,-1.413997262716293335e-02,2.158811688423156738e-01,-3.562133759260177612e-02,-1.209176853299140930e-01,1.563678979873657227e-01,1.528664529323577881e-01,-3.872197493910789490e-02,2.043701410293579102e-01,5.268619209527969360e-02
9.908011555671691895e-02,4.827138781547546387e-02,-5.249403417110443115e-02,2.908551692962646484e-01,-1.381892710924148560e-01,3.840058296918869019e-02,-2.330422401428222656e-01,1.356726437807083130e-01,1.541452948004007339e-02,9.212581813335418701e-02,2.255357503890991211e-01,2.744289860129356384e-02,1.471061706542968750e-01,-2.293781340122222900e-01,-6.507465243339538574e-02,1.541449725627899170e-01,-1.582722067832946777e-01,-1.838379539549350739e-02,-2.083304971456527710e-01,-2.914627268910408020e-02,-1.892228424549102783e-01,6.405533850193023682e-02,8.679677546024322510e-02,1.096180379390716553e-01,2.368794083595275879e-01,-9.217642247676849365e-02,-2.921044230461120605e-01,-2.263384908437728882e-01,5.736434832215309143e-02,-2.236264944076538086e-01,-2.963354252278804779e-02,-1.668229401111602783e-01,1.750139296054840088e-01,-1.161072850227355957e-01,2.319158613681793213e-01,-3.010285459458827972e-02,1.389944106340408325e-01,1.552892327308654785e-01,-2.020089179277420044e-01,1.236063614487648010e-01,-1.443575918674468994e-01,2.609497606754302979e-01,2.995450049638748169e-02,-1.362659633159637451e-01,6.749051809310913086e-02,-3.299437463283538818e-01,8.130772411823272705e-02,-9.339477866888046265e-03,-2.752075195312500000e-01,2.014605104923248291e-01
7.934461534023284912e-02,-8.555357344448566437e-03,-1.310358643531799316e-01,-2.389131113886833191e-03,2.320331782102584839e-01,-1.790924221277236938e-01,1.093691308051347733e-02,-1.639385819435119629e-01,-1.111733913421630859e-01,1.565199345350265503e-01,-3.829803317785263062e-02,-1.094452887773513794e-01,-9.358868002891540527e-02,1.910270005464553833e-01,-6.212443113327026367e-02,-9.326356649398803711e-02,-3.415832668542861938e-02,2.396162413060665131e-02,1.101099252700805664e-01,-2.503364682197570801e-01,1.667352169752120972e-01,-2.115353643894195557e-01,-2.354659140110015869e-01,4.858267307281494141e-02,-1.273570954799652100e-01,-7.569795101881027222e-02,-2.749934196472167969e-01,-2.149724029004573822e-02,2.391264587640762329e-01,1.676552295684814453e-01,-1.714754253625869751e-01,6.105112656950950623e-02,1.026329100131988525e-01,-2.860259711742401123e-01,-8.969479054212570190e-02,-1.244501620531082153e-01,1.812635064125061035e-01,-2.555010616779327393e-01,6.766438484191894531e-02,-1.468125879764556885e-01,-1.019501965492963791e-02,-1.718121953308582306e-02,-1.556882262229919434e-01,-1.291688233613967896e-01,-2.490890473127365112e-01,-8.688504248857498169e-02,-4.789510741829872131e-02,-1.209512725472450256e-01,-6.058712676167488098e-02,-1.742121949791908264e-02
-1.264074593782424927e-01,-9.585133939981460571e-02,9.930783510208129883e-02,2.156371325254440308e-01,7.968835532665252686e-02,-3.572815284132957458e-02,1.818219125270843506e-01,2.476415932178497314e-01,3.145920932292938232e-01,-5.884897708892822266e-02,-8.532490581274032593e-02,-2.545937895774841309e-01,1.134652737528085709e-02,1.550038605928421021e-01,1.336209625005722046e-01,-1.646353453397750854e-01,-1.552104353904724121e-01,-4.779346659779548645e-02,-1.258614510297775269e-01,1.866848170757293701e-01,2.780236536636948586e-03,-1.321980357170104980e-01,1.049227192997932434e-01,-1.078543886542320251e-01,2.124041318893432617e-01,2.068682946264743805e-02,1.260028034448623657e-01,1.338126952759921551e-03,-5.824499204754829407e-02,-1.513966917991638184e-01,1.464597135782241821e-01,-7.510869204998016357e-02,2.478958666324615479e-01,8.325619995594024658e-02,1.177878007292747498e-01,-2.315926179289817810e-02,-2.097082734107971191e-01,2.127299457788467407e-01,-5.166030302643775940e-02,7.534587383270263672e-02,-2.922185659408569336e-01,-8.242705464363098145e-02,-3.335634246468544006e-02,-1.274285018444061279e-01,-6.871546804904937744e-02,-1.778859794139862061e-01,-3.469561412930488586e-02,-9.327089041471481323e-02,-1.664261966943740845e-01,-9.934050962328910828e-03
1.427646577358245850e-01,-1.016888208687305450e-02,-1.824293285608291626e-01,1.394127011299133301e-01,-2.890405654907226562e-01,7.504947483539581299e-02,1.694414317607879639e-01,-2.191454619169235229e-01,5.056916177272796631e-02,2.107597291469573975e-01,3.348920727148652077e-03,1.190948709845542908e-01,-1.535084396600723267e-01,-5.694214254617691040e-02,3.007675288245081902e-03,5.573284626007080078e-02,2.215251922607421875e-01,-1.493248641490936279e-01,7.005185633897781372e-02,4.155996069312095642e-02,1.738732308149337769e-01,-1.672867983579635620e-01,2.002197206020355225e-01,1.382682025432586670e-01,-1.127986833453178406e-01,2.300774157047271729e-01,-1.727383136749267578e-01,-5.998672172427177429e-02,1.544532626867294312e-01,-1.685276743955910206e-03,-3.575305640697479248e-02,1.451199967414140701e-02,6.828078068792819977e-03,-3.866748884320259094e-02,1.315800547599792480e-01,-1.681566089391708374e-01,-1.043570637702941895e-01,-2.589764073491096497e-02,-6.665436923503875732e-02,-1.548984460532665253e-02,-6.668404489755630493e-02,1.532897353172302246e-01,1.657367795705795288e-01,-1.193777099251747131e-01,1.048481017351150513e-01,-4.913044348359107971e-02,-1.214089393615722656e-01,5.161257460713386536e-02,-7.650128006935119629e-02,-2.749689817428588867e-01
1.880898773670196533e-01,1.531005650758743286e-01,-6.804720312356948853e-02,-4.426895454525947571e-02,-3.033603169023990631e-02,2.961133718490600586e-01,-1.056650280952453613e-01,-1.533088237047195435e-01,3.636495023965835571e-02,-1.755298376083374023e-01,1.545307636260986328e-01,1.325794160366058350e-01,1.049204543232917786e-01,-3.391486406326293945e-02,-9.598845615983009338e-03,5.219457671046257019e-02,-2.002379447221755981e-01,2.206447869539260864e-01,-1.269718110561370850e-01,-1.514399796724319458e-01,3.010516613721847534e-02,2.300255894660949707e-01,9.277674555778503418e-02,-1.157243773341178894e-01,-1.862472295761108398e-01,1.136118993163108826e-01,-3.778282925486564636e-02,2.441945485770702362e-02,-2.153730988502502441e-01,1.020079385489225388e-02,-2.321460843086242676e-02,-1.227908506989479065e-01,1.677358150482177734e-01,-1.309908032417297363e-01,-5.820810049772262573e-02,2.052698284387588501e-01,6.276839226484298706e-02,5.432096123695373535e-02,1.717211455106735229e-01,-1.698541939258575439e-01,-8.161343634128570557e-02,1.008911505341529846e-01,1.960307173430919647e-02,-1.920470297336578369e-01,-1.237594410777091980e-01,-1.481665819883346558e-01,2.257153093814849854e-01,-9.005726873874664307e-02,8.501493930816650391e-02,1.172508820891380310e-01
6.327686714939773083e-04,-9.601639956235885620e-02,-7.270016707479953766e-03,-3.327118605375289917e-02,-1.434129476547241211e-01,-2.002556174993515015e-01,-3.297943249344825745e-02,1.158862859010696411e-01,1.769026368856430054e-01,-8.333528786897659302e-02,1.279632300138473511e-01,2.634050548076629639e-01,2.015498727560043335e-01,1.000795438885688782e-01,-1.973119527101516724e-01,5.434326827526092529e-02,1.735795438289642334e-01,1.235506460070610046e-01,1.601888053119182587e-02,4.525416344404220581e-02,-3.007914405316114426e-03,1.344855278730392456e-01,-1.817452013492584229e-01,-1.552040278911590576e-01,1.324726790189743042e-01,1.089825779199600220e-01,-1.433825492858886719e-01,3.856593742966651917e-02,5.352215096354484558e-02,-3.019437892362475395e-03,1.244724094867706299e-01,-4.629092290997505188e-02,1.818094253540039062e-01,8.646578341722488403e-02,-1.030044406652450562e-01,-1.449845880270004272e-01,1.275311857461929321e-01,-5.692625418305397034e-02,1.456349492073059082e-01,-6.426206976175308228e-02,-1.565631628036499023e-01,8.783195912837982178e-02,-1.863783001899719238e-01,-1.067624613642692566e-01,1.554083079099655151e-01,1.692688167095184326e-01,7.320906221866607666e-02,-1.666202545166015625e-01,-8.646992594003677368e-02,2.285122685134410858e-02
4.237845912575721741e-02,9.575001895427703857e-02,5.059317499399185181e-02,9.662148356437683105e-02,2.251043915748596191e-01,2.100788950920104980e-01,-1.754670441150665283e-01,1.268906593322753906e-01,7.949879765510559082e-02,-1.596945673227310181e-01,-1.484163105487823486e-01,-2.127465605735778809e-02,-3.033818490803241730e-02,-7.885415107011795044e-02,-9.381653368473052979e-02,-6.998264789581298828e-02,7.810881733894348145e-02,4.357162863016128540e-02,-1.599132828414440155e-02,2.640448808670043945e-01,5.548341572284698486e-02,-1.445137411355972290e-01,1.721918582916259766e-01,8.584724366664886475e-02,1.804457753896713257e-01,6.055349111557006836e-02,1.696551740169525146e-01,2.806331031024456024e-02,1.774863898754119873e-02,1.257335990667343140e-01,-2.118327617645263672e-01,-1.160641089081764221e-01,-2.229757606983184814e-01,1.407451927661895752e-01,1.904577612876892090e-01,1.420872211456298828e-01,-2.074556499719619751e-01,-6.456513702869415283e-02,9.066236764192581177e-02,-9.064161032438278198e-02,-9.510772675275802612e-02,-1.878749728202819824e-01,-1.663953661918640137e-01,8.014214783906936646e-02,1.324467509984970093e-01,7.520604133605957031e-02,3.746631741523742676e-02,-6.050884351134300232e-02,2.877053022384643555e-01,2.229140698909759521e-01
1.490156259387731552e-02,-4.718728363513946533e-02,1.555948853492736816e-01,-2.676524817943572998e-01,-9.722638130187988281e-02,-1.723701059818267822e-01,-6.698325276374816895e-02,-2.259985208511352539e-01,2.444130331277847290e-01,9.180319309234619141e-02,6.590858101844787598e-02,1.046202555298805237e-01,8.755400776863098145e-03,-2.235878817737102509e-02,3.047000765800476074e-01,-2.024386823177337646e-01,-1.587950438261032104e-01,1.299892086535692215e-02,3.539641574025154114e-02,3.930415958166122437e-02,1.768834590911865234e-01,-1.245447993278503418e-01,1.931430101394653320e-01,7.781573385000228882e-02,1.789972931146621704e-01,1.415579468011856079e-01,1.991978138685226440e-01,-2.585093080997467041e-01,-2.236831933259963989e-01,-2.306172847747802734e-01,4.769934713840484619e-02,1.095023602247238159e-01,1.100182905793190002e-02,-7.513769716024398804e-02,1.583710163831710815e-01,1.619978696107864380e-01,-3.121778555214405060e-02,-1.565709263086318970e-01,-1.356092840433120728e-01,-5.688499286770820618e-02,2.920833230018615723e-01,-9.056182205677032471e-02,-2.199120074510574341e-01,-5.383410677313804626e-02,7.885612547397613525e-02,4.805359244346618652e-02,1.866617202758789062e-01,-3.550026938319206238e-02,-2.343802340328693390e-02,1.574167013168334961e-01
-9.772905707359313965e-02,1.375872641801834106e-01,-1.982759088277816772e-01,-1.393744442611932755e-02,-1.688896864652633667e-01,-2.236095368862152100e-01,-1.948322057723999023e-01,-7.246233522891998291e-02,1.573601514101028442e-01,-1.446412354707717896e-01,-6.227093562483787537e-02,-1.770713478326797485e-01,-1.063642799854278564e-01,7.608863711357116699e-02,1.476246863603591919e-01,-1.501328200101852417e-01,-1.589546650648117065e-01,3.114567836746573448e-03,-3.899027407169342041e-02,6.494589149951934814e-02,-2.964254617691040039e-01,-2.950264513492584229e-02,-8.465681970119476318e-02,-1.592399775981903076e-01,7.112435996532440186e-02,1.412829309701919556e-01,-1.418220996856689453e-01,-5.543982144445180893e-03,-9.670928120613098145e-02,-2.683629095554351807e-01,-2.525747418403625488e-01,-2.804446965456008911e-02,-1.143499016761779785e-01,-2.054635249078273773e-02,-9.304019808769226074e-02,-1.041135266423225403e-01,7.512941956520080566e-02,-1.285465341061353683e-02,-1.152157634496688843e-01,-2.171650081872940063e-01,1.906409710645675659e-01,1.352189630270004272e-01,-1.178523153066635132e-02,-1.975328624248504639e-01,1.495439261198043823e-01,-2.525921761989593506e-01,1.944595202803611755e-02,-2.899625599384307861e-01,9.714429080486297607e-02,-2.924429774284362793e-01
2.319678962230682373e-01,1.545286625623703003e-01,5.144327878952026367e-02,3.615189716219902039e-02,-3.152230381965637207e-02,-2.366703003644943237e-03,-1.600200831890106201e-01,2.493025511503219604e-01,-1.830540448427200317e-01,-2.275534868240356445e-01,-6.610610336065292358e-02,-1.856821775436401367e-01,1.724383234977722168e-01,-1.115681137889623642e-02,-1.598244309425354004e-01,1.801131069660186768e-01,4.422127828001976013e-02,-4.503928124904632568e-02,-4.827674850821495056e-02,-2.442923337221145630e-01,-4.590950533747673035e-02,2.458268702030181885e-01,-9.727058559656143188e-02,-1.239145994186401367e-01,2.296146303415298462e-01,-1.189647987484931946e-01,2.632251381874084473e-01,6.327057722955942154e-03,-1.428116858005523682e-01,9.642126411199569702e-02,-4.354869306553155184e-04,6.397861242294311523e-02,-1.491711288690567017e-01,1.564272306859493256e-02,1.034822762012481689e-01,-6.691338866949081421e-02,-8.572911471128463745e-02,-2.694472111761569977e-02,-9.167667478322982788e-02,1.478421688079833984e-01,1.380561441183090210e-01,-2.592776343226432800e-02,-7.854362949728965759e-03,-1.747673749923706055e-01,-1.028816625475883484e-01,-1.257758401334285736e-02,5.142278969287872314e-02,-1.053196340799331665e-01,-1.719265244901180267e-02,6.477219611406326294e-02
-1.119773685932159424e-01,2.444363236427307129e-01,2.494252771139144897e-01,2.370775490999221802e-01,2.515140362083911896e-02,4.042237624526023865e-02,-1.212771460413932800e-01,-2.311413437128067017e-01,2.488990277051925659e-01,2.659406065940856934e-01,6.238699704408645630e-02,-1.123189479112625122e-01,2.613089382648468018e-01,-4.734651744365692139e-02,1.287976950407028198e-01,-1.273664087057113647e-02,7.466191053390502930e-02,2.225006967782974243e-01,-3.268904685974121094e-01,9.842926263809204102e-02,2.296575605869293213e-01,6.560762971639633179e-02,1.418418437242507935e-01,-2.406025677919387817e-01,-3.753107041120529175e-02,2.254208326339721680e-01,1.477458626031875610e-01,1.949496418237686157e-01,1.405527889728546143e-01,1.063196584582328796e-01,1.232062578201293945e-01,7.235744595527648926e-02,-1.695790439844131470e-01,1.115045174956321716e-01,-1.108061447739601135e-01,1.816990822553634644e-01,-1.758949756622314453e-01,5.996000394225120544e-02,1.280409991741180420e-01,1.076258122920989990e-01,1.122942715883255005e-01,-7.151198573410511017e-03,2.274388968944549561e-01,1.704271584749221802e-01,-1.658076345920562744e-01,-2.311975657939910889e-01,-1.725147217512130737e-01,-8.911800384521484375e-02,-1.328516006469726562e-01,-2.513081580400466919e-02
1.075792387127876282e-01,-1.214773952960968018e-02,-4.704038612544536591e-03,3.751478716731071472e-02,-1.946184486150741577e-01,-1.077157184481620789e-01,-2.478114664554595947e-01,1.507990211248397827e-01,-1.264197230339050293e-01,-1.331052780151367188e-01,1.844940707087516785e-02,1.329642534255981445e-01,-1.597536802291870117e-01,-1.973259449005126953e-01,-1.501450836658477783e-01,5.214125290513038635e-02,-9.133119136095046997e-02,-5.092574656009674072e-02,-8.571106940507888794e-02,-7.152327150106430054e-02,-3.100915253162384033e-02,1.580141950398683548e-03,-2.182113826274871826e-01,2.871955037117004395e-01,-6.513933837413787842e-02,4.556459560990333557e-02,1.865049898624420166e-01,2.611263990402221680e-01,8.248202502727508545e-02,2.702170312404632568e-01,-1.113155707716941833e-01,-1.273804455995559692e-01,-4.214815795421600342e-02,6.664131581783294678e-02,-7.493754476308822632e-02,-2.166837900876998901e-01,3.856717422604560852e-02,-9.073312394320964813e-03,-2.036658078432083130e-01,-1.714417785406112671e-01,1.047783493995666504e-01,1.506991535425186157e-01,2.434956654906272888e-02,7.499710656702518463e-03,-7.858842611312866211e-02,2.027332186698913574e-01,-1.757098883390426636e-01,-1.621823757886886597e-01,-8.917639404535293579e-02,-1.000067293643951416e-01
-5.418262258172035217e-02,-2.327799052000045776e-01,-1.992424577474594116e-01,3.009392321109771729e-01,4.528692737221717834e-02,2.424952834844589233e-01,2.333663776516914368e-02,1.278021335601806641e-01,2.325147539377212524e-01,-3.295813128352165222e-02,-1.047086864709854126e-01,-6.228318810462951660e-02,2.927484363317489624e-02,2.846251428127288818e-01,-8.153209090232849121e-02,-1.620419621467590332e-01,3.808043897151947021e-02,-1.453253477811813354e-01,5.440612882375717163e-02,1.321433763951063156e-02,2.032907009124755859e-01,-5.744890496134757996e-02,-2.335260659456253052e-01,5.071751028299331665e-02,-5.408937484025955200e-02,-2.057553231716156006e-01,7.803942263126373291e-02,-7.149822264909744263e-02,-2.422059774398803711e-01,-4.114054515957832336e-02,-1.295827049762010574e-02,-5.088213458657264709e-02,6.275985389947891235e-02,-2.156640030443668365e-02,-3.943138197064399719e-02,7.443546503782272339e-02,-2.611465156078338623e-01,1.796017438173294067e-01,-6.649545393884181976e-03,1.823550313711166382e-01,-2.296722382307052612e-01,-2.785945311188697815e-02,-7.053931802511215210e-02,1.960196942090988159e-01,9.862826019525527954e-02,8.949765004217624664e-03,1.602221876382827759e-01,2.869353629648685455e-02,1.815237700939178467e-01,-1.125284656882286072e-01
-4.414537549018859863e-02,-1.719271093606948853e-01,-1.395636498928070068e-01,7.471456378698348999e-02,9.020923823118209839e-02,-1.722340583801269531e-01,-7.044167816638946533e-02,2.273080646991729736e-01,-8.901582099497318268e-03,1.210164353251457214e-01,-8.738062530755996704e-02,1.328696459531784058e-01,-8.628226071596145630e-02,-4.665954038500785828e-02,2.272563725709915161e-01,-1.287490725517272949e-01,1.611769199371337891e-02,-2.475074529647827148e-01,9.583312273025512695e-02,1.762129515409469604e-01,1.744041405618190765e-02,3.182150796055793762e-02,-1.473839860409498215e-03,-3.150842338800430298e-02,2.006452232599258423e-01,1.850050687789916992e-02,-7.141760736703872681e-02,-6.252645701169967651e-02,1.776665076613426208e-02,-8.985478430986404419e-02,9.494768083095550537e-02,3.550693988800048828e-01,2.688186801970005035e-02,1.451101303100585938e-01,7.425161451101303101e-02,2.126270383596420288e-01,-6.235316768288612366e-02,4.031642153859138489e-02,1.588647626340389252e-02,-1.109715923666954041e-01,1.364868134260177612e-01,-7.437583059072494507e-02,1.087112426757812500e-01,1.796038001775741577e-01,8.310884237289428711e-02,1.497355550527572632e-01,-1.644522398710250854e-01,-3.473440930247306824e-02,-1.529348939657211304e-01,1.818383634090423584e-01
1.485604792833328247e-01,1.189409941434860229e-01,9.422716498374938965e-02,1.717175841331481934e-01,9.635293483734130859e-02,-1.450484432280063629e-02,2.576694488525390625e-01,-2.347604483366012573e-01,-1.817950457334518433e-01,1.828111857175827026e-01,2.777994796633720398e-02,7.488376926630735397e-03,-2.458519302308559418e-02,-7.498187571763992310e-02,1.828001290559768677e-01,1.599053144454956055e-01,-2.166964411735534668e-01,7.044561952352523804e-02,8.342986553907394409e-02,1.676062941551208496e-01,3.654664754867553711e-02,1.505778580904006958e-01,-1.387833505868911743e-01,-9.430354088544845581e-02,-3.112861886620521545e-02,9.391619823873043060e-03,3.673169761896133423e-02,1.785396635532379150e-01,-1.356988251209259033e-01,-7.076562196016311646e-02,8.675543218851089478e-02,1.392783224582672119e-02,-2.098693400621414185e-01,-6.393650919198989868e-02,-3.419987112283706665e-02,-2.239813841879367828e-02,-5.763771757483482361e-02,7.347574084997177124e-02,-9.977344423532485962e-02,6.707575917243957520e-02,2.739996612071990967e-01,1.227177903056144714e-01,-1.380761116743087769e-01,-1.774520426988601685e-02,-2.496154308319091797e-01,-3.912502899765968323e-02,-2.522040307521820068e-01,2.246545813977718353e-02,1.378230601549148560e-01,1.528257131576538086e-02
-1.940364688634872437e-01,-2.196912840008735657e-02,1.068227738142013550e-01,-2.031766474246978760e-01,2.252924069762229919e-02,-5.161196365952491760e-02,1.630685180425643921e-01,2.165541611611843109e-02,-1.984495073556900024e-01,-3.322765976190567017e-02,-2.708097994327545166e-01,1.698523461818695068e-01,-3.060383796691894531e-01,1.296607553958892822e-01,-1.308017671108245850e-01,1.915962398052215576e-01,1.228419542312622070e-01,-1.259668320417404175e-01,1.600066125392913818e-01,1.879851967096328735e-01,-4.649738222360610962e-02,-2.574982643127441406e-01,8.901499211788177490e-02,2.026900053024291992e-01,-1.556902527809143066e-01,-2.406927794218063354e-01,-4.800723865628242493e-02,-1.901840418577194214e-02,-6.379424035549163818e-02,1.550933867692947388e-01,-5.955649539828300476e-02,2.113717794418334961e-02,1.283562779426574707e-01,-1.573948115110397339e-01,-2.376782894134521484e-01,-1.756327748298645020e-01,-1.083620861172676086e-01,1.898081600666046143e-01,-2.642173469066619873e-01,1.254696696996688843e-01,5.193403363227844238e-02,1.173557564616203308e-01,-2.345188111066818237e-01,-1.357928961515426636e-01,-1.095547825098037720e-01,-2.124099846696481109e-04,-1.584300100803375244e-01,2.527935616672039032e-02,-1.554069966077804565e-01,-2.167676091194152832e-01
-1.839266270399093628e-01,2.628689259290695190e-02,-1.832341104745864868e-01,1.236372254788875580e-02,-1.244040578603744507e-01,7.375697046518325806e-02,4.473890177905559540e-03,9.760123491287231445e-02,-8.285500109195709229e-02,1.192025989294052124e-01,2.178002595901489258e-01,-8.091595768928527832e-02,2.262130230665206909e-01,-7.152714580297470093e-02,-1.881550066173076630e-02,-6.092577055096626282e-02,-1.061249226331710815e-01,1.888875216245651245e-01,-1.797307133674621582e-01,1.086641401052474976e-01,2.431710213422775269e-01,-1.820609271526336670e-01,1.415933370590209961e-01,1.137133873999118805e-02,-9.899169951677322388e-02,1.181693151593208313e-01,-1.861151456832885742e-01,2.639051526784896851e-02,7.353671640157699585e-02,1.072643920779228210e-01,-7.142743468284606934e-02,-5.549306049942970276e-02,1.566812098026275635e-01,-6.807261705398559570e-02,3.654576465487480164e-02,3.932626172900199890e-02,2.593467943370342255e-02,-1.453895121812820435e-01,-1.422966867685317993e-01,-9.576196968555450439e-02,7.872349023818969727e-02,1.062743440270423889e-01,-1.839327812194824219e-02,9.929379820823669434e-02,1.003967225551605225e-01,1.752051413059234619e-01,1.830616444349288940e-01,-1.024131774902343750e-01,-3.572056815028190613e-02,-6.561941653490066528e-02
1.116216927766799927e-01,8.765751123428344727e-02,-1.563897281885147095e-01,6.738698109984397888e-03,-8.740246295928955078e-02,-1.816310919821262360e-02,-1.256867349147796631e-01,-6.254255026578903198e-02,1.739662736654281616e-01,-1.709709316492080688e-01,-1.205077245831489563e-01,-2.752220630645751953e-01,-2.060207072645425797e-03,-3.141471743583679199e-01,-7.360827922821044922e-02,-8.861580491065979004e-02,6.907895207405090332e-02,2.455903403460979462e-02,-1.199368014931678772e-01,2.599411308765411377e-01,2.302290350198745728e-01,8.436827361583709717e-02,-1.480772066861391068e-02,-6.222002208232879639e-03,-2.088348120450973511e-01,-3.613793104887008667e-02,2.286623604595661163e-02,-1.205232110805809498e-03,3.468039631843566895e-02,1.028340086340904236e-01,5.020690709352493286e-02,1.881494820117950439e-01,1.991243660449981689e-01,7.187065482139587402e-02,2.392581254243850708e-01,-1.564921140670776367e-01,-2.263493537902832031e-01,5.512702465057373047e-02,-1.612011790275573730e-01,-9.692243486642837524e-02,1.022912487387657166e-01,1.677450388669967651e-01,-9.404055774211883545e-02,-1.827074214816093445e-02,5.073333904147148132e-02,-1.099987234920263290e-02,1.087877303361892700e-01,-2.199324220418930054e-01,-5.346325412392616272e-02,-2.873438224196434021e-02
-1.546963006258010864e-01,-1.006605997681617737e-01,-8.718629926443099976e-02,1.208832114934921265e-01,1.459779739379882812e-01,-1.255620419979095459e-01,-2.096418142318725586e-01,1.510392129421234131e-01,-4.744275286793708801e-02,-2.413360029458999634e-01,-3.894839435815811157e-02,-2.649155855178833008e-01,-7.831265032291412354e-02,5.356547236442565918e-02,-3.874633833765983582e-02,-2.016139626502990723e-01,-2.352705895900726318e-01,1.421749293804168701e-01,1.288055479526519775e-01,-1.495004910975694656e-02,-1.308133900165557861e-01,1.938726454973220825e-01,7.898560166358947754e-02,1.509424448013305664e-01,-1.445051878690719604e-01,8.909101784229278564e-02,6.887169927358627319e-02,-9.992061555385589600e-02,2.247137278318405151e-01,-1.020693331956863403e-01,1.515041887760162354e-01,-4.081279039382934570e-02,-7.095499336719512939e-02,1.385769844055175781e-01,-1.223159581422805786e-01,-7.477360218763351440e-02,1.331156045198440552e-01,-2.344792932271957397e-01,1.217280477285385132e-01,-2.541701495647430420e-01,-2.915093600749969482e-01,-1.503062248229980469e-01,1.445125415921211243e-02,9.362330287694931030e-02,-1.333379931747913361e-02,-1.945978999137878418e-01,4.316430538892745972e-02,1.104283109307289124e-01,-4.925391986034810543e-04,-2.505715377628803253e-02
4.698457662016153336e-03,-1.006430312991142273e-01,-1.805961430072784424e-01,-1.418355293571949005e-02,1.169791892170906067e-01,1.497472375631332397e-01,1.973153650760650635e-01,1.933084130287170410e-01,-2.413153201341629028e-01,4.214780330657958984e-01,4.443786665797233582e-02,1.170759275555610657e-01,-1.294444352388381958e-01,-1.766124069690704346e-01,-2.040017209947109222e-02,1.660992950201034546e-02,-1.755252629518508911e-01,1.717241406440734863e-01,1.382514983415603638e-01,1.343625634908676147e-01,1.469743847846984863e-01,-1.419580578804016113e-01,1.894792020320892334e-01,7.251732051372528076e-02,-5.525360256433486938e-02,2.466186732053756714e-01,-7.597678154706954956e-02,-5.467822402715682983e-02,-4.921839386224746704e-02,1.139325555413961411e-02,-8.619099855422973633e-02,2.116396129131317139e-01,-2.232377231121063232e-01,1.099654734134674072e-01,-1.233439799398183823e-02,-9.988832473754882812e-02,-2.406557202339172363e-01,1.436040997505187988e-01,-5.112056061625480652e-02,-1.797592616640031338e-03,9.633581340312957764e-02,-1.464478969573974609e-01,-9.796909242868423462e-02,9.004482626914978027e-02,1.286953687667846680e-01,-1.414959579706192017e-01,1.622627377510070801e-01,-6.490696221590042114e-02,-1.460707038640975952e-01,-1.402916163206100464e-01
-2.312769591808319092e-01,2.815260589122772217e-01,-1.217557191848754883e-01,-4.645261168479919434e-02,-1.061313226819038391e-02,2.138928882777690887e-02,2.511823773384094238e-01,-1.966138035058975220e-01,-1.143104285001754761e-01,1.722013503313064575e-01,-3.113074302673339844e-01,1.244726479053497314e-01,-1.032851915806531906e-02,6.839649379253387451e-02,1.696934551000595093e-01,5.250106379389762878e-02,1.859016120433807373e-01,1.515733003616333008e-01,4.484251886606216431e-02,-1.126769185066223145e-01,1.204864606261253357e-01,2.407846897840499878e-01,-1.576532274484634399e-01,6.795667111873626709e-02,-8.942606300115585327e-02,1.760431528091430664e-01,-1.579032242298126221e-01,1.816550828516483307e-02,-1.240611001849174500e-01,-1.642127484083175659e-01,-5.218903347849845886e-02,-1.202697753906250000e-01,2.305368781089782715e-01,-1.904559731483459473e-01,1.359506696462631226e-01,-9.435492753982543945e-02,-1.234479844570159912e-01,-1.310178637504577637e-01,3.005650267004966736e-02,1.830461248755455017e-02,-7.193629443645477295e-02,4.407460987567901611e-02,-1.505951732397079468e-01,-1.654269993305206299e-01,-1.487847715616226196e-01,-2.018434405326843262e-01,-1.040361821651458740e-01,5.659037828445434570e-02,7.194219529628753662e-02,3.041789401322603226e-03
6.883202493190765381e-02,8.495891094207763672e-02,5.308616906404495239e-02,9.730920940637588501e-02,2.294880151748657227e-02,-4.767976701259613037e-02,1.094667427241802216e-02,6.888858228921890259e-02,-2.010671645402908325e-01,-2.344259321689605713e-01,8.761048316955566406e-02,1.687111556529998779e-01,1.524095535278320312e-01,-1.486232578754425049e-01,6.242281571030616760e-02,1.936462819576263428e-01,1.711685359477996826e-01,6.125397980213165283e-02,-7.894683629274368286e-02,1.298551075160503387e-02,-9.643902629613876343e-02,4.167697951197624207e-02,8.157022297382354736e-02,-8.375454694032669067e-02,6.988160312175750732e-02,-1.330505013465881348e-01,2.348418533802032471e-01,-2.070459574460983276e-01,1.079217344522476196e-01,1.001503840088844299e-01,-1.562482863664627075e-01,-1.146795377135276794e-01,-1.993983983993530273e-01,1.746551506221294403e-02,-9.621296823024749756e-02,1.000195965170860291e-01,-2.073381468653678894e-02,5.912848189473152161e-02,-4.169129300862550735e-03,6.602358072996139526e-02,5.342789366841316223e-02,1.312397569417953491e-01,4.802965093404054642e-03,1.967622935771942139e-01,-1.573382914066314697e-01,-4.094447568058967590e-02,-3.882497176527976990e-02,7.916548103094100952e-02,-9.183432906866073608e-02,-3.331282734870910645e-02
-8.961109071969985962e-02,-8.243472129106521606e-02,-8.258909732103347778e-02,-2.647165656089782715e-01,2.541032806038856506e-02,1.493018418550491333e-01,1.552127599716186523e-01,1.557703912258148193e-01,-1.168327629566192627e-01,-2.999306470155715942e-02,-5.943515524268150330e-02,1.211056485772132874e-01,6.848175823688507080e-02,2.967458218336105347e-02,-6.171229109168052673e-02,-2.108185440301895142e-01,-9.713635593652725220e-02,1.117738783359527588e-01,-6.724617630243301392e-02,-1.253125220537185669e-01,2.278293371200561523e-01,-1.146787330508232117e-01,1.569954007863998413e-01,-4.571509361267089844e-02,1.243730913847684860e-02,1.281890720129013062e-01,3.041220605373382568e-01,9.911782294511795044e-02,-4.764683544635772705e-02,1.458401829004287720e-01,-5.751932039856910706e-02,2.244368642568588257e-01,2.333363890647888184e-01,1.510273292660713196e-02,-8.598893880844116211e-02,2.055342346429824829e-01,-1.004576086997985840e-01,8.527904748916625977e-02,4.380781576037406921e-02,-1.821959167718887329e-01,-5.145957693457603455e-02,-1.162574738264083862e-01,-7.156017422676086426e-02,-8.065540343523025513e-02,1.341802328824996948e-01,-1.983059793710708618e-01,-3.346591070294380188e-02,2.683555781841278076e-01,6.124714389443397522e-02,1.518070548772811890e-01
7.134806364774703979e-02,-6.944204797036945820e-04,9.519113600254058838e-02,-1.945621669292449951e-01,1.478121131658554077e-01,-5.219830200076103210e-02,8.500727266073226929e-02,-8.648551255464553833e-02,1.783360093832015991e-01,3.894482180476188660e-02,-1.501351594924926758e-01,-1.734239161014556885e-01,3.034134954214096069e-02,-2.035534679889678955e-01,-2.739368379116058350e-01,1.552702337503433228e-01,-9.386977553367614746e-02,6.627274304628372192e-02,-3.844168782234191895e-02,1.651158779859542847e-01,1.489800363779067993e-01,1.340465992689132690e-01,1.260022819042205811e-01,1.857955008745193481e-01,3.783874958753585815e-02,3.909061662852764130e-03,1.461454331874847412e-01,2.112007737159729004e-01,1.466625630855560303e-01,2.370680496096611023e-02,1.503174453973770142e-01,-1.386441588401794434e-01,-5.238664895296096802e-02,2.334441430866718292e-02,-1.765078455209732056e-01,-4.654544219374656677e-02,-1.318275779485702515e-01,-6.913933157920837402e-02,2.385168671607971191e-01,2.054205387830734253e-01,-1.159055531024932861e-01,1.450853198766708374e-01,1.036458555608987808e-02,-3.049146384000778198e-02,-1.888711005449295044e-01,-1.295955926179885864e-01,-8.367596566677093506e-02,7.160917669534683228e-02,3.740438818931579590e-02,1.549358963966369629e-01
1.779052466154098511e-01,1.126442849636077881e-01,2.295923978090286255e-01,6.249576434493064880e-02,7.373391091823577881e-02,1.543506681919097900e-01,-9.904667735099792480e-02,-1.392133086919784546e-01,5.821369588375091553e-02,-1.213084161281585693e-01,-1.140095517039299011e-01,-5.131203681230545044e-02,8.295390754938125610e-02,5.675711110234260559e-02,-1.344550400972366333e-02,-1.305799186229705811e-01,2.454840242862701416e-01,1.899474859237670898e-01,1.519412267953157425e-03,1.982436478137969971e-01,-1.691360026597976685e-01,2.767400443553924561e-01,-7.502346485853195190e-02,-1.172330696135759354e-03,2.332041263580322266e-01,2.816979587078094482e-01,8.979895710945129395e-02,3.621243685483932495e-02,8.605638146400451660e-02,9.366849809885025024e-02,1.786666512489318848e-01,-2.131341099739074707e-01,-2.642148733139038086e-01,1.204743906855583191e-01,-1.492265909910202026e-01,-2.913286983966827393e-01,1.082293763756752014e-01,2.524774372577667236e-01,-1.355783641338348389e-01,-3.451165929436683655e-02,-4.800687730312347412e-02,-9.857097268104553223e-02,8.548996597528457642e-02,1.536917090415954590e-01,3.037799000740051270e-01,5.571617558598518372e-02,-2.108067274093627930e-01,-3.485041484236717224e-02,-5.794001044705510139e-04,2.808767557144165039e-01
2.431704849004745483e-01,-3.073072060942649841e-02,1.258064620196819305e-02,2.797781825065612793e-01,-8.615298569202423096e-02,-2.255487740039825439e-01,5.440479516983032227e-02,1.980661153793334961e-01,2.638855278491973877e-01,-3.208521381020545959e-02,-1.106012538075447083e-01,1.707477569580078125e-01,1.234078183770179749e-01,-3.592565655708312988e-02,-8.776495605707168579e-02,5.826316401362419128e-02,1.577998995780944824e-01,1.091646850109100342e-01,-1.093004047870635986e-01,-1.264795809984207153e-01,1.221928000450134277e-01,-1.879000067710876465e-01,-8.414495736360549927e-02,-1.415141373872756958e-01,1.342942714691162109e-01,-2.344916164875030518e-01,1.384699344635009766e-01,-1.053795963525772095e-01,-6.262781471014022827e-02,-1.152358427643775940e-01,2.181455790996551514e-01,-9.447228908538818359e-02,-1.396421343088150024e-01,-3.080536425113677979e-01,2.110843807458877563e-01,2.572724521160125732e-01,-5.308238416910171509e-02,1.734240800142288208e-01,-1.380616147071123123e-02,-5.473785847425460815e-02,-1.630889326333999634e-01,1.859213411808013916e-01,-2.014383524656295776e-01,1.174580007791519165e-01,-1.337775737047195435e-01,8.736871927976608276e-02,2.827570959925651550e-02,3.481576964259147644e-02,-1.964383721351623535e-01,-3.904237225651741028e-02
5.862252041697502136e-02,3.699409961700439453e-02,-1.430847961455583572e-02,1.924439072608947754e-01,1.284708268940448761e-02,-9.871983528137207031e-02,-7.632810738869011402e-04,1.077144742012023926e-01,1.985554024577140808e-02,-7.185609638690948486e-02,-1.175784319639205933e-01,2.516861259937286377e-02,1.083020493388175964e-01,-3.295458154752850533e-04,-1.679530590772628784e-01,9.174802154302597046e-02,-1.061339676380157471e-02,1.108645424246788025e-01,-2.543480396270751953e-01,-9.167452901601791382e-02,7.264785468578338623e-02,-9.324491955339908600e-03,9.954370558261871338e-02,1.290033906698226929e-01,1.093733534216880798e-01,-1.332082748413085938e-01,1.664200127124786377e-01,6.853294372558593750e-02,-6.346224993467330933e-02,6.549152731895446777e-02,-1.076084598898887634e-01,-2.645345032215118408e-01,2.265307903289794922e-01,1.174656823277473450e-01,2.112042754888534546e-01,3.382556512951850891e-02,-1.971027255058288574e-01,1.335539221763610840e-01,1.292741745710372925e-01,1.389157772064208984e-02,-1.009024605154991150e-01,1.379498094320297241e-01,4.775098711252212524e-02,1.320806890726089478e-01,1.102439165115356445e-01,1.062214896082878113e-01,2.043235898017883301e-01,8.775461465120315552e-02,7.304123789072036743e-02,-5.980311334133148193e-02
3.480136021971702576e-02,2.066216468811035156e-01,-1.168941035866737366e-01,1.006595268845558167e-01,2.068184502422809601e-02,-6.979624927043914795e-02,-9.371399879455566406e-02,1.063726395368576050e-01,-1.439455300569534302e-01,2.774797752499580383e-02,-2.288574129343032837e-01,6.759416311979293823e-02,1.169883236289024353e-01,1.814853698015213013e-01,1.369247026741504669e-02,-2.568916045129299164e-02,2.102422714233398438e-01,-1.705223321914672852e-01,-1.211968213319778442e-01,-1.494547873735427856e-01,1.139392927289009094e-01,-1.989576369524002075e-01,2.241739779710769653e-01,5.205992981791496277e-02,-1.097980663180351257e-01,2.696959972381591797e-01,-7.738653570413589478e-03,-3.817867487668991089e-02,-4.023011308163404465e-03,2.078808546066284180e-01,1.421042680740356445e-01,-1.657553948462009430e-02,1.606020033359527588e-01,1.449076235294342041e-01,1.533446013927459717e-01,1.014449372887611389e-01,1.782648265361785889e-01,-1.661746948957443237e-01,-8.195345103740692139e-02,1.021869108080863953e-01,2.129979133605957031e-01,1.617310941219329834e-01,1.176094561815261841e-01,2.285249829292297363e-01,-1.190965250134468079e-01,1.857519298791885376e-01,-9.121240675449371338e-02,-3.687578812241554260e-02,2.980627678334712982e-02,-4.879237711429595947e-02
3.203663602471351624e-02,-1.170032173395156860e-01,-8.596426248550415039e-02,5.572535097599029541e-02,-6.822860240936279297e-02,-5.222803354263305664e-02,1.582809686660766602e-01,2.453645132482051849e-02,1.971199661493301392e-01,-1.663788706064224243e-01,-1.645763218402862549e-01,1.028400883078575134e-01,1.374518424272537231e-01,-1.955535262823104858e-02,1.718472391366958618e-01,2.082136087119579315e-02,1.661931127309799194e-01,6.275710463523864746e-02,2.466537654399871826e-01,1.474452018737792969e-01,2.816969156265258789e-01,1.237048581242561340e-01,5.433402955532073975e-02,-1.755527406930923462e-01,-6.448707729578018188e-02,1.337414383888244629e-01,9.433582425117492676e-02,1.519301999360322952e-02,7.352369278669357300e-02,9.133516252040863037e-02,1.008074358105659485e-01,-2.948139607906341553e-01,-2.644779160618782043e-02,6.250867247581481934e-02,4.943408071994781494e-02,-1.164483428001403809e-01,-1.338650379329919815e-02,-2.126273363828659058e-01,-2.145359516143798828e-01,1.184098497033119202e-01,-1.345180273056030273e-01,1.218084394931793213e-01,2.190704196691513062e-01,1.670090109109878540e-01,-7.213295251131057739e-02,5.525450687855482101e-03,-9.637543000280857086e-03,1.470848023891448975e-01,-1.104776933789253235e-01,2.488342821598052979e-01
2.249507009983062744e-01,-7.050526887178421021e-02,-2.083865553140640259e-02,-2.068282961845397949e-01,2.746012061834335327e-02,-4.719399288296699524e-02,-8.288336545228958130e-02,-1.435969471931457520e-01,5.759328976273536682e-02,-1.679912768304347992e-02,2.897100746631622314e-01,-2.320000231266021729e-01,2.732346951961517334e-02,4.811526834964752197e-02,-1.079330071806907654e-01,2.098754495382308960e-01,-1.103270202875137329e-01,2.144681066274642944e-01,1.377271711826324463e-01,8.942388743162155151e-02,-1.397275775671005249e-01,1.366726458072662354e-01,1.711564064025878906e-01,-3.636375814676284790e-02,-5.826576426625251770e-02,3.355376049876213074e-02,-3.491976484656333923e-02,-1.856627762317657471e-01,-2.869639992713928223e-01,-1.022124588489532471e-01,-3.591404110193252563e-02,-5.440749600529670715e-02,-2.865256965160369873e-01,2.311450093984603882e-01,-1.737475246191024780e-01,1.129843294620513916e-01,2.568683587014675140e-02,5.549993738532066345e-02,7.323276251554489136e-02,-1.714822351932525635e-01,-1.887194663286209106e-01,1.683342158794403076e-01,7.925014942884445190e-02,9.382513910531997681e-02,-3.119471669197082520e-02,6.530192494392395020e-02,-1.588831692934036255e-01,-1.400510817766189575e-01,1.089466083794832230e-02,-2.000485956668853760e-01
2.132311463356018066e-01,-1.646555811166763306e-01,1.545534878969192505e-01,1.517088115215301514e-01,7.492948323488235474e-02,-7.813139259815216064e-02,1.292178332805633545e-01,-2.361859530210494995e-01,-8.846358954906463623e-02,-1.486509572714567184e-02,1.125438064336776733e-01,1.097098663449287415e-01,1.502858847379684448e-01,1.164134666323661804e-01,-2.258991450071334839e-01,1.304829269647598267e-01,-2.334274537861347198e-02,1.567040085792541504e-01,2.986213192343711853e-02,1.370296031236648560e-01,-6.390466541051864624e-02,3.127307891845703125e-01,8.343299478292465210e-02,4.073980450630187988e-02,1.836159825325012207e-01,-1.315925419330596924e-01,3.358014523983001709e-01,1.375026255846023560e-02,1.014315411448478699e-01,-1.927220523357391357e-01,-2.613098546862602234e-02,-1.700644046068191528e-01,-1.966725438833236694e-01,-6.757072359323501587e-02,1.259398162364959717e-01,2.424211986362934113e-02,2.867884635925292969e-01,2.729018405079841614e-02,2.273059338331222534e-01,1.926600486040115356e-01,-7.047960907220840454e-02,-2.104498893022537231e-01,2.227288484573364258e-01,1.423869431018829346e-01,-1.404921561479568481e-01,1.053521335124969482e-01,-2.578299641609191895e-01,4.729015380144119263e-02,-4.888697341084480286e-02,1.139046251773834229e-01
7.380710449069738388e-03,1.730990856885910034e-01,1.483666151762008667e-01,-2.414749711751937866e-01,-1.066923364996910095e-01,6.486348807811737061e-02,1.806308478116989136e-01,-1.667286455631256104e-01,1.294194757938385010e-01,-2.034340351819992065e-01,-1.123755499720573425e-01,2.385089844465255737e-01,-2.241247296333312988e-01,4.714810475707054138e-02,1.437660306692123413e-01,1.523098945617675781e-01,4.564181342720985413e-02,1.425157338380813599e-01,-1.598729491233825684e-01,-1.058564931154251099e-01,-7.107752561569213867e-02,-5.474558845162391663e-02,1.921688765287399292e-01,1.112957894802093506e-01,9.414021670818328857e-02,-2.065571695566177368e-01,-1.185829639434814453e-01,4.206410050392150879e-02,-8.745677024126052856e-02,4.488223697990179062e-03,-2.058314681053161621e-01,-2.049699872732162476e-01,-1.817953437566757202e-01,1.400544792413711548e-01,-3.091774284839630127e-01,-9.793778508901596069e-02,2.699191868305206299e-01,-5.184699222445487976e-02,1.009818166494369507e-01,-1.092322245240211487e-01,-1.757283806800842285e-01,-8.524800091981887817e-02,7.007783651351928711e-02,-5.447905883193016052e-02,-1.856611073017120361e-01,-2.285580039024353027e-01,-1.797904260456562042e-02,2.932429872453212738e-02,1.102147102355957031e-01,1.772712767124176025e-01
9.135138243436813354e-02,1.915070414543151855e-01,2.263192385435104370e-01,-4.671652987599372864e-02,5.992875620722770691e-02,1.418884005397558212e-02,-7.882796227931976318e-02,-1.354045122861862183e-01,4.935085773468017578e-02,-1.535960733890533447e-01,-1.874302774667739868e-01,-5.927522107958793640e-02,2.049514092504978180e-03,2.240612804889678955e-01,-1.923299729824066162e-01,-1.064249575138092041e-01,1.958287507295608521e-01,-4.625241085886955261e-02,2.654597628861665726e-03,-4.259217530488967896e-02,-1.550767384469509125e-02,-1.359293460845947266e-01,2.533106803894042969e-01,-1.121968403458595276e-01,2.058405987918376923e-02,-3.620733739808201790e-03,7.360427081584930420e-02,1.569020152091979980e-01,7.325168699026107788e-02,2.740295231342315674e-01,-9.149277210235595703e-02,-1.187834814190864563e-01,7.651430368423461914e-02,6.047805771231651306e-02,2.763211131095886230e-01,-2.707220055162906647e-02,-1.202700361609458923e-01,1.153472140431404114e-01,9.260898828506469727e-02,-2.079314738512039185e-01,3.838755562901496887e-02,-5.415773019194602966e-02,-9.433837980031967163e-02,1.348365992307662964e-01,-7.271254900842905045e-03,-1.257515326142311096e-02,2.384778857231140137e-01,5.376080423593521118e-02,-1.597284525632858276e-01,5.510696023702621460e-02
-5.562124401330947876e-02,-5.892269313335418701e-02,1.344583332538604736e-01,2.442491948604583740e-01,7.822411507368087769e-02,-1.680333763360977173e-01,5.190549045801162720e-02,-4.374703858047723770e-03,8.960367267718538642e-05,-2.326884418725967407e-01,7.697267085313796997e-02,-9.075165539979934692e-02,-2.622418999671936035e-01,-1.667764969170093536e-02,2.751228772103786469e-02,2.766505628824234009e-02,-6.121763493865728378e-03,-4.406152758747339249e-03,1.892882287502288818e-01,1.882235705852508545e-01,2.607468962669372559e-01,-2.491515874862670898e-01,1.990931034088134766e-01,1.925365030765533447e-01,-8.585580438375473022e-02,1.470685452222824097e-01,1.364029794931411743e-01,-3.246051818132400513e-02,1.648647338151931763e-01,1.360880732536315918e-01,3.474076837301254272e-02,9.664095938205718994e-02,7.978378981351852417e-02,9.700381779111921787e-04,2.218682318925857544e-01,2.327058166265487671e-01,-1.906677037477493286e-01,-5.669811367988586426e-02,1.950148679316043854e-02,8.635386079549789429e-02,1.059172078967094421e-01,3.172911005094647408e-03,1.713843643665313721e-01,-4.361117258667945862e-02,1.396119445562362671e-01,-6.584614515304565430e-02,-1.617228686809539795e-01,1.284603476524353027e-01,1.353806257247924805e-01,-1.777982562780380249e-01
-4.423585906624794006e-02,-3.678838908672332764e-02,8.206341415643692017e-02,-5.057068075984716415e-03,1.845506429672241211e-01,-6.542168557643890381e-02,-2.958073616027832031e-01,9.845563024282455444e-02,2.522871196269989014e-01,-1.542457193136215210e-01,3.506889194250106812e-02,-2.016828022897243500e-02,1.179585680365562439e-01,-2.754508554935455322e-01,1.161046847701072693e-01,5.563193559646606445e-02,4.588752985000610352e-02,-5.728037282824516296e-02,-2.181701064109802246e-01,-8.864474296569824219e-02,-9.581348299980163574e-02,8.880510926246643066e-02,-8.572386205196380615e-02,3.444476798176765442e-02,-1.216374561190605164e-01,-1.408703159540891647e-02,-4.348201751708984375e-01,-2.198192477226257324e-01,2.691718041896820068e-01,-1.663131415843963623e-01,-2.714690379798412323e-02,1.294614523649215698e-01,1.705475300550460815e-01,2.752489745616912842e-01,-1.529709398746490479e-01,-1.573945134878158569e-01,1.693023145198822021e-01,1.495381742715835571e-01,-3.291594386100769043e-01,3.360579907894134521e-01,-1.523048430681228638e-01,1.862818002700805664e-02,-1.921160072088241577e-01,1.486008167266845703e-01,2.883911691606044769e-02,-3.921812027692794800e-02,2.032962739467620850e-01,9.882589429616928101e-02,7.926288992166519165e-03,-1.558816134929656982e-01
-1.611938029527664185e-01,8.991269767284393311e-02,-6.616166234016418457e-02,7.182345539331436157e-02,2.305380851030349731e-01,-8.433380722999572754e-02,7.067383825778961182e-02,-2.115344107151031494e-01,9.397921711206436157e-02,-8.346541225910186768e-02,1.980772241950035095e-03,2.460614964365959167e-02,-1.338394880294799805e-01,-4.697199538350105286e-02,-1.877094060182571411e-02,1.355273872613906860e-01,6.944021582603454590e-02,1.311430037021636963e-01,-8.103699237108230591e-02,6.885166466236114502e-02,-8.485971391201019287e-02,-1.589753329753875732e-01,6.854499131441116333e-02,-8.313154429197311401e-02,1.651705205440521240e-01,1.298618614673614502e-01,1.469325274229049683e-01,-1.014386638998985291e-01,-1.479329913854598999e-01,1.094468832015991211e-01,2.453517317771911621e-01,4.208631813526153564e-03,-1.299160271883010864e-01,-2.040177732706069946e-01,-3.224649429321289062e-01,-2.393206581473350525e-02,2.689327895641326904e-01,9.830264747142791748e-02,1.176131516695022583e-01,3.412262070924043655e-03,2.290080301463603973e-02,-2.870826236903667450e-02,-6.290335208177566528e-02,6.432437151670455933e-02,-8.930516242980957031e-02,1.902454495429992676e-01,-9.992951899766921997e-02,8.987233787775039673e-02,1.840424090623855591e-01,-2.096957117319107056e-01
-2.005781084299087524e-01,2.622620016336441040e-02,-2.335633188486099243e-01,3.109098598361015320e-02,-3.874205425381660461e-02,-1.526169478893280029e-01,1.853164434432983398e-01,6.800620257854461670e-02,-9.098490327596664429e-02,2.053355723619461060e-01,-6.853219866752624512e-02,-1.076894104480743408e-01,-2.690480351448059082e-01,-6.187044829130172729e-02,-1.069673746824264526e-01,2.213208675384521484e-01,-1.656134277582168579e-01,-1.110125705599784851e-01,-1.016244143247604370e-01,2.245062291622161865e-01,1.131517812609672546e-01,-1.542776823043823242e-01,1.262738853693008423e-01,-1.097638607025146484e-01,2.384299226105213165e-02,5.087784305214881897e-02,-2.481255978345870972e-01,-6.938284635543823242e-02,2.066169977188110352e-01,-1.119536608457565308e-01,-1.356365382671356201e-01,1.843006014823913574e-01,1.130669191479682922e-02,9.087763726711273193e-02,-2.721535265445709229e-01,1.274119913578033447e-01,-1.896032541990280151e-01,-7.556863129138946533e-03,-6.857943534851074219e-02,-9.559926390647888184e-02,-2.086701393127441406e-01,-2.423638254404067993e-01,-8.425787836313247681e-02,8.200404793024063110e-02,9.164426475763320923e-02,-9.949515759944915771e-02,8.926509320735931396e-02,8.165419846773147583e-02,1.083923578262329102e-01,2.545695900917053223e-01
-1.929836720228195190e-01,1.508506387472152710e-01,1.039571836590766907e-01,4.260896146297454834e-02,2.918698489665985107e-01,-1.648830436170101166e-02,2.707869410514831543e-01,-1.728496849536895752e-01,1.800686120986938477e-01,-5.693703889846801758e-02,-4.490935429930686951e-02,-6.185502931475639343e-02,-2.390421479940414429e-01,-1.472250074148178101e-01,-2.620158493518829346e-01,-2.203073352575302124e-03,-3.589771687984466553e-02,-4.484540596604347229e-02,-1.301621496677398682e-01,-7.252051681280136108e-02,-7.883156090974807739e-02,-1.190085858106613159e-01,2.189153730869293213e-01,1.628935784101486206e-01,1.155067384243011475e-01,-1.162801608443260193e-01,-1.112532168626785278e-01,6.992596387863159180e-02,-2.392159253358840942e-01,5.395621433854103088e-02,2.610630691051483154e-01,-6.851790845394134521e-02,2.307618036866188049e-02,1.741069108247756958e-01,-1.934925443492829800e-03,4.114737734198570251e-02,-1.088906973600387573e-01,-4.072053357958793640e-02,-1.081272661685943604e-01,1.433623880147933960e-01,-5.936761572957038879e-02,-1.683552861213684082e-01,6.986630707979202271e-02,-1.525883674621582031e-01,4.134139046072959900e-02,-4.724006354808807373e-02,-7.493730634450912476e-02,2.237829416990280151e-01,2.712118253111839294e-02,-9.477239847183227539e-02
-1.172802075743675232e-01,9.895707666873931885e-02,-1.645895838737487793e-01,2.546937763690948486e-02,4.438440501689910889e-02,-1.195750385522842407e-01,1.855647563934326172e-01,-2.174012660980224609e-01,-1.713790297508239746e-01,2.679394744336605072e-02,-1.734863966703414917e-01,-6.148653849959373474e-02,1.417667120695114136e-01,-1.846272349357604980e-01,2.151540964841842651e-01,-1.933991909027099609e-01,-4.426731541752815247e-02,2.682625949382781982e-01,1.639830619096755981e-01,1.069211810827255249e-01,2.250127792358398438e-01,-3.963204473257064819e-02,-9.933989495038986206e-02,-2.347385138273239136e-01,-9.806928038597106934e-02,1.580754965543746948e-01,1.136801168322563171e-01,-1.624583452939987183e-01,2.524660825729370117e-01,-5.976552888751029968e-02,6.832612305879592896e-02,-4.556763172149658203e-02,-7.839040458202362061e-02,1.800396144390106201e-01,-1.819218993186950684e-01,1.234396174550056458e-02,7.158888131380081177e-02,1.208064258098602295e-01,1.452060341835021973e-01,1.363039314746856689e-01,-7.176867127418518066e-02,-1.572782546281814575e-02,9.416204690933227539e-02,5.205630511045455933e-02,-1.505793780088424683e-01,9.142611920833587646e-02,-3.232433497905731201e-01,8.521964401006698608e-02,4.267542064189910889e-02,-8.895223587751388550e-02
8.436553925275802612e-02,-1.397851109504699707e-01,8.636084944009780884e-02,5.199009552597999573e-02,1.959388107061386108e-01,-1.251274645328521729e-01,3.402365371584892273e-02,-1.826399564743041992e-01,2.670557610690593719e-02,-6.530581414699554443e-02,-5.358045548200607300e-02,-5.353717505931854248e-02,1.630031466484069824e-01,1.097314134240150452e-01,1.997178941965103149e-01,9.662581235170364380e-02,5.913960188627243042e-02,8.493824303150177002e-02,-1.202649786137044430e-03,-1.545712202787399292e-01,-7.262809574604034424e-02,1.734579205513000488e-01,-9.836027026176452637e-02,-1.807545311748981476e-02,-2.170409560203552246e-01,-7.961343228816986084e-02,-7.648857682943344116e-02,1.684979200363159180e-01,-1.590186804533004761e-01,1.568851023912429810e-01,1.452089399099349976e-01,-2.701958715915679932e-01,4.756311699748039246e-02,-2.138503044843673706e-01,6.563986092805862427e-02,6.061309576034545898e-02,-8.361195772886276245e-02,-1.595408618450164795e-01,-1.733199059963226318e-01,-4.036319255828857422e-02,-5.316518247127532959e-02,1.228827089071273804e-01,1.104897782206535339e-01,-1.723307520151138306e-01,-1.244003772735595703e-01,1.613271534442901611e-01,-2.617588639259338379e-01,-7.457570731639862061e-02,1.691372394561767578e-01,-4.598638415336608887e-02
-2.010112702846527100e-01,-1.825952976942062378e-01,-1.340077370405197144e-01,1.595403701066970825e-01,9.061153978109359741e-02,-1.117572188377380371e-01,2.846326120197772980e-02,-1.254389286041259766e-01,-3.063567355275154114e-02,1.776013895869255066e-02,2.662082314491271973e-01,-5.434849858283996582e-02,-3.574232757091522217e-02,1.147116795182228088e-01,1.056377291679382324e-01,3.108888119459152222e-02,2.244446277618408203e-01,-8.302219212055206299e-02,1.521910727024078369e-01,-2.524839937686920166e-01,-8.488637953996658325e-02,1.418620906770229340e-02,-6.856147944927215576e-02,6.616812199354171753e-02,9.983125329017639160e-02,1.338078081607818604e-01,1.355432160198688507e-02,1.558360159397125244e-01,3.525189682841300964e-02,-6.151873618364334106e-02,2.590565085411071777e-01,1.249834075570106506e-01,-2.031767964363098145e-01,1.092762127518653870e-01,-3.462168946862220764e-02,-2.582366764545440674e-01,-1.666890829801559448e-01,-5.169777944684028625e-02,-3.255425021052360535e-02,1.036314293742179871e-01,-1.390760987997055054e-01,-3.412209451198577881e-02,1.305871009826660156e-01,1.105308998376131058e-03,1.958884000778198242e-01,1.039185002446174622e-01,1.146138310432434082e-01,-7.460533641278743744e-03,-1.007849499583244324e-01,1.222204938530921936e-01
-1.761532127857208252e-01,-2.235884405672550201e-02,1.768263429403305054e-01,1.555779129266738892e-01,-9.000187367200851440e-02,5.123325809836387634e-02,5.460597947239875793e-02,-1.440310925245285034e-01,-7.673421502113342285e-02,-8.687341958284378052e-02,-1.898699849843978882e-01,5.014942958950996399e-02,1.510495245456695557e-01,1.285624653100967407e-01,2.728306353092193604e-01,-4.464198648929595947e-02,1.991551369428634644e-01,-6.335905939340591431e-02,-2.327115088701248169e-01,1.552266925573348999e-01,-2.424269914627075195e-01,-1.695062518119812012e-01,1.086838319897651672e-01,7.320249825716018677e-02,8.986452221870422363e-02,1.332874782383441925e-02,-1.226982697844505310e-01,-5.094784498214721680e-02,2.065571695566177368e-01,2.071237564086914062e-01,1.529925912618637085e-01,2.213544845581054688e-01,1.653271168470382690e-01,1.713042259216308594e-01,1.935509294271469116e-01,1.631455123424530029e-01,-1.464282274246215820e-01,2.255561798810958862e-01,-2.128743752837181091e-02,4.813559651374816895e-01,-8.432095497846603394e-02,-1.396774947643280029e-01,-2.919511403888463974e-03,-1.014491841197013855e-01,1.086605340242385864e-01,-1.228356640785932541e-02,-8.061263943091034889e-04,-3.649187982082366943e-01,5.591739714145660400e-02,-6.005066633224487305e-02
1.679406315088272095e-01,-1.274104863405227661e-01,-9.829363971948623657e-02,-1.874131262302398682e-01,-5.919274687767028809e-02,1.018549203872680664e-01,-2.162336558103561401e-01,2.693726420402526855e-01,-1.411485522985458374e-01,2.975090444087982178e-01,8.884117752313613892e-02,1.405705809593200684e-01,4.729958623647689819e-02,9.642831236124038696e-02,-5.653857812285423279e-02,1.074321269989013672e-01,4.436085745692253113e-02,1.946757137775421143e-01,2.285655885934829712e-01,3.495835140347480774e-02,1.772571057081222534e-01,9.843820333480834961e-02,-2.428201586008071899e-01,1.277940571308135986e-01,-1.605287343263626099e-01,-2.769583165645599365e-01,5.701674520969390869e-02,-7.676509767770767212e-02,4.666281864047050476e-02,-7.599490135908126831e-02,-7.002346217632293701e-02,-2.119071781635284424e-01,-2.938066050410270691e-02,1.464940980076789856e-02,-2.212722599506378174e-01,1.119173690676689148e-01,1.598591804504394531e-01,-3.689891397953033447e-01,4.682516679167747498e-03,2.418827265501022339e-01,1.209891587495803833e-01,5.916766449809074402e-02,8.191962540149688721e-02,5.132997781038284302e-02,-4.758134856820106506e-02,-1.705370992422103882e-01,-6.283152848482131958e-03,3.667342290282249451e-02,-1.340639144182205200e-01,1.442202646285295486e-02
1.654998213052749634e-01,2.482205256819725037e-02,-7.109700143337249756e-02,-1.034956127405166626e-01,-7.909701019525527954e-02,1.163665354251861572e-01,4.780478402972221375e-02,9.296704083681106567e-02,8.347868174314498901e-02,-4.049123823642730713e-02,2.263336926698684692e-01,-6.407880783081054688e-02,4.867006838321685791e-02,-2.027528882026672363e-01,-2.353232651948928833e-01,1.558569520711898804e-01,-7.099047768861055374e-03,1.698702275753021240e-01,1.849364675581455231e-02,-1.627451181411743164e-01,-1.005755960941314697e-01,1.742770820856094360e-01,2.234838455915451050e-01,-7.911125570535659790e-02,2.968779392540454865e-02,1.630514562129974365e-01,2.809302210807800293e-01,8.363503217697143555e-02,3.532392531633377075e-02,-4.687367752194404602e-02,1.902045309543609619e-01,-7.115830481052398682e-02,-5.762844532728195190e-02,-8.776817470788955688e-02,1.407217532396316528e-01,1.795606613159179688e-01,-2.127539962530136108e-01,5.991744808852672577e-03,2.919768169522285461e-02,-4.278009012341499329e-02,6.342981010675430298e-03,4.548855498433113098e-02,-1.977408528327941895e-01,-1.767478324472904205e-02,-1.605411469936370850e-01,1.324477344751358032e-01,1.133693195879459381e-02,-1.388084515929222107e-02,1.069161444902420044e-01,1.546064913272857666e-01
-1.463554352521896362e-01,8.538053929805755615e-02,-1.077268049120903015e-01,9.394383989274501801e-03,4.019949585199356079e-02,1.572330147027969360e-01,1.147269159555435181e-01,1.642878949642181396e-01,5.317865684628486633e-02,1.659871935844421387e-01,5.927778407931327820e-02,1.841164976358413696e-01,-8.582669496536254883e-02,1.854421943426132202e-02,-1.804374456405639648e-01,1.666698306798934937e-01,-7.823040336370468140e-02,-5.064507946372032166e-02,-2.072299867868423462e-01,-1.036130040884017944e-01,-1.441531330347061157e-01,1.216722130775451660e-01,-8.993214368820190430e-02,2.383416593074798584e-01,-7.087811082601547241e-02,-1.567213051021099091e-02,8.715030550956726074e-02,-1.089028920978307724e-02,-2.135456353425979614e-02,7.304215431213378906e-02,-1.988956779241561890e-01,1.144870370626449585e-01,2.193076722323894501e-02,-3.920916095376014709e-02,-2.715466022491455078e-01,1.086491644382476807e-01,4.375687241554260254e-02,1.563539728522300720e-02,-1.218028888106346130e-01,-1.776196807622909546e-01,-1.159498095512390137e-01,3.900244086980819702e-02,-1.752503216266632080e-01,-3.236316442489624023e-01,3.796004876494407654e-02,-1.360410749912261963e-01,-2.511214613914489746e-01,3.974453806877136230e-01,-1.873156279325485229e-01,1.792688220739364624e-01
-1.665736548602581024e-02,-6.573046743869781494e-02,2.061830461025238037e-01,2.954530343413352966e-02,-2.228808104991912842e-01,-2.363185286521911621e-01,1.603281497955322266e-01,2.675266563892364502e-01,-1.691942662000656128e-01,6.869928538799285889e-02,-7.075516879558563232e-02,-5.571403354406356812e-02,1.259762495756149292e-01,-3.177851438522338867e-01,-4.152394365519285202e-03,2.152535468339920044e-01,2.006059885025024414e-01,1.775764673948287964e-02,-1.200001314282417297e-01,-3.994126617908477783e-02,1.767212711274623871e-02,-6.388907134532928467e-02,-2.588699758052825928e-01,2.035097032785415649e-01,-1.036052778363227844e-01,1.798945814371109009e-01,1.286790817975997925e-01,1.694307290017604828e-02,1.424170434474945068e-01,2.020164430141448975e-01,2.498793900012969971e-01,-6.366563588380813599e-02,1.022663414478302002e-01,-5.599565058946609497e-02,-1.514278259128332138e-02,-3.889929875731468201e-02,-1.789209395647048950e-01,2.741376161575317383e-01,1.470474451780319214e-01,6.469256430864334106e-02,1.085427924990653992e-01,-7.096389681100845337e-02,-1.563991606235504150e-01,5.982488859444856644e-03,-9.184679388999938965e-02,-2.065892517566680908e-01,-1.461312919855117798e-01,-2.610163576900959015e-02,1.263926029205322266e-01,-2.292817980051040649e-01
