-8.741021901369094849e-02,3.788563981652259827e-02,-7.080516964197158813e-02,1.879564523696899414e-01,-3.423970341682434082e-01,-1.573413610458374023e-01,-1.680581569671630859e-01,-8.445508778095245361e-02,-4.888308700174093246e-03,4.269223660230636597e-02,-3.173154219985008240e-02,-6.714645773172378540e-02,-2.765153348445892334e-01,1.006716936826705933e-01,2.881498038768768311e-01,-1.075558587908744812e-01,1.198114380240440369e-01,-1.607022732496261597e-01,2.729986980557441711e-02,2.477043420076370239e-01,1.967055648565292358e-01,4.275771230459213257e-02,8.013280481100082397e-02,-1.580239832401275635e-01,1.749405264854431152e-01,1.579922437667846680e-01,7.844334095716476440e-02,6.693768501281738281e-02,1.899255961179733276e-01,-5.173623561859130859e-03,-2.114871740341186523e-01,1.527945250272750854e-01,-6.375974416732788086e-02,1.072066351771354675e-01,-2.011446505784988403e-01,1.985823176801204681e-02,-2.327970787882804871e-02,9.745606780052185059e-02,-7.291846908628940582e-03,-5.202242359519004822e-02,3.125434517860412598e-01,-1.424724049866199493e-02,-1.756379008293151855e-02,-1.446175426244735718e-01,1.421989351511001587e-01,1.756685227155685425e-01,-1.539860963821411133e-01,1.632276326417922974e-01,2.208455055952072144e-01,-2.000931352376937866e-01
2.362040877342224121e-01,1.086782570928335190e-02,-2.182287275791168213e-01,1.762681156396865845e-01,1.065937951207160950e-01,-7.398033887147903442e-02,1.604346781969070435e-01,-2.562784254550933838e-01,-1.265479177236557007e-01,-9.657678008079528809e-02,-1.801632046699523926e-01,-1.339043397456407547e-02,1.378072649240493774e-01,-1.395739614963531494e-01,-1.499008983373641968e-01,-3.738086223602294922e-01,1.176612451672554016e-01,1.280327737331390381e-01,-1.737969741225242615e-02,1.145932264626026154e-02,-1.384741663932800293e-01,-6.405936926603317261e-02,7.392343133687973022e-02,8.613744378089904785e-02,-1.146490350365638733e-01,1.106725037097930908e-01,1.545359790325164795e-01,-1.267539709806442261e-01,4.975506290793418884e-02,1.263276189565658569e-01,-7.035773247480392456e-03,1.000721752643585205e-02,-2.519982159137725830e-01,-1.648233681917190552e-01,-4.683289304375648499e-02,-1.180646419525146484e-01,-3.364080190658569336e-02,1.405660659074783325e-01,-6.405486911535263062e-02,-2.317072153091430664e-01,-2.281863428652286530e-02,-3.470866978168487549e-01,-1.236052140593528748e-01,-2.408419549465179443e-01,-3.011106252670288086e-01,-4.966967925429344177e-02,5.495758727192878723e-03,6.487496197223663330e-02,2.949844598770141602e-01,-5.517399311065673828e-02
-4.188527539372444153e-02,3.000158630311489105e-02,1.564190685749053955e-01,-4.194706305861473083e-02,-1.436442881822586060e-01,-1.634150743484497070e-01,1.415457427501678467e-01,1.848699748516082764e-01,1.150834038853645325e-01,-8.055887371301651001e-02,-7.187407463788986206e-02,8.401115238666534424e-02,7.196652889251708984e-02,1.301246434450149536e-01,1.496988385915756226e-01,-1.254288554191589355e-01,2.823755741119384766e-01,6.700616795569658279e-03,-4.406086355447769165e-02,-3.027410991489887238e-02,2.183990031480789185e-01,1.297958046197891235e-01,4.154060408473014832e-02,-5.377788469195365906e-02,-1.301033347845077515e-01,1.648423522710800171e-01,-1.586915254592895508e-01,-2.343828529119491577e-01,-1.960531324148178101e-01,-7.294692099094390869e-02,1.034145057201385498e-01,6.367325782775878906e-02,1.436417847871780396e-01,7.327910512685775757e-02,-2.080629914999008179e-01,-8.490383625030517578e-03,1.071830466389656067e-01,-4.434625431895256042e-02,-2.737535536289215088e-01,8.984456211328506470e-02,1.305066347122192383e-01,3.126544132828712463e-02,-3.249178873375058174e-03,7.381802052259445190e-02,-5.107682198286056519e-02,1.513217687606811523e-01,-1.174202114343643188e-01,1.350353509187698364e-01,1.305594295263290405e-01,-5.737500265240669250e-03
3.045845627784729004e-01,2.329271733760833740e-01,2.247318252921104431e-02,1.036961004137992859e-01,-6.601566821336746216e-02,1.204182161018252373e-03,-1.395282596349716187e-01,-1.914144307374954224e-02,1.210371628403663635e-01,2.863757908344268799e-01,1.093973964452743530e-01,3.217554390430450439e-01,2.559269964694976807e-01,-1.439075730741024017e-02,-1.061590984463691711e-01,-1.378701776266098022e-01,2.325801998376846313e-01,3.231023252010345459e-01,4.810554534196853638e-02,2.574882004410028458e-03,1.653879731893539429e-01,9.142000228166580200e-02,1.554245352745056152e-01,-1.503877490758895874e-01,1.947164833545684814e-01,-3.664478287100791931e-02,5.648000538349151611e-02,1.058831289410591125e-01,3.950029984116554260e-02,9.440114349126815796e-02,2.984392046928405762e-01,1.291232407093048096e-01,-8.406510949134826660e-02,-4.016507416963577271e-02,2.276723533868789673e-01,5.375899374485015869e-03,2.061402052640914917e-01,-5.787610635161399841e-02,2.965285778045654297e-01,4.297465831041336060e-02,1.364022046327590942e-01,2.274194359779357910e-01,1.226608082652091980e-01,-4.302809014916419983e-02,1.998732239007949829e-01,1.220982521772384644e-01,1.360730826854705811e-01,3.105206787586212158e-02,-3.088064864277839661e-02,9.035297483205795288e-02
1.433070451021194458e-01,-9.078831970691680908e-02,-5.077584180980920792e-03,-6.365183740854263306e-02,-1.303110867738723755e-01,8.582525700330734253e-02,-3.362965956330299377e-02,-5.804193019866943359e-02,-1.913018375635147095e-01,-3.299439698457717896e-02,6.306537240743637085e-02,-1.836884766817092896e-02,1.380790174007415771e-01,1.015058951452374458e-03,-1.349331997334957123e-02,-1.477421969175338745e-01,9.688839316368103027e-02,2.845443040132522583e-02,-1.542286872863769531e-01,-9.927603602409362793e-02,2.250689864158630371e-01,2.095798999071121216e-01,-1.542854160070419312e-01,-3.736032545566558838e-01,-2.400215268135070801e-01,-1.226399093866348267e-01,2.471420317888259888e-01,1.516264826059341431e-01,-4.114543274044990540e-02,1.050272956490516663e-01,-8.645563572645187378e-02,-3.070540912449359894e-02,-1.128785535693168640e-01,1.583072245121002197e-01,-1.381325162947177887e-02,-5.329426378011703491e-02,5.350783094763755798e-02,2.299587428569793701e-01,2.111756801605224609e-01,-3.139750659465789795e-02,2.646429464221000671e-02,-7.658544182777404785e-02,-3.408807516098022461e-02,-1.289401799440383911e-01,-1.156225129961967468e-01,-1.491236221045255661e-02,1.031890977174043655e-02,2.460368424654006958e-01,2.846567034721374512e-01,-1.188883092254400253e-02
6.294044107198715210e-02,1.951041817665100098e-01,-1.768887192010879517e-01,-7.070612907409667969e-02,-1.322082728147506714e-01,-2.100549787282943726e-01,-2.274233847856521606e-02,2.872511744499206543e-01,-5.893881246447563171e-02,-1.727352440357208252e-01,2.388395667076110840e-01,1.172549426555633545e-01,-1.848069876432418823e-01,1.758661270141601562e-01,-1.233764514327049255e-01,-4.174720495939254761e-02,6.775946915149688721e-02,-2.577190287411212921e-02,-1.042455434799194336e-02,-1.401932388544082642e-01,3.278317674994468689e-02,1.236071959137916565e-01,2.693507969379425049e-01,-1.183206886053085327e-01,2.114661037921905518e-01,5.864721536636352539e-02,-1.113045439124107361e-01,5.198989436030387878e-02,-4.922577179968357086e-03,-6.714778393507003784e-02,3.142952919006347656e-02,-1.534543745219707489e-02,5.592669174075126648e-02,-1.259609311819076538e-01,1.425422877073287964e-01,-7.000751327723264694e-03,2.583663910627365112e-02,2.583180367946624756e-01,2.330543547868728638e-01,-2.582988440990447998e-01,3.042335510253906250e-01,4.076766222715377808e-02,2.481967955827713013e-01,1.211005002260208130e-01,-1.758874207735061646e-01,-2.996380925178527832e-01,-3.647685423493385315e-02,6.089798361063003540e-02,-1.552726775407791138e-01,2.078318148851394653e-01
3.091383874416351318e-01,-5.726404860615730286e-02,6.209565326571464539e-03,-5.209658760577440262e-03,1.221564486622810364e-01,1.154285669326782227e-02,-1.102482452988624573e-01,-1.400902420282363892e-01,-1.395811140537261963e-01,-1.965198367834091187e-01,1.068534329533576965e-01,-4.873442277312278748e-02,5.368961393833160400e-02,1.233574673533439636e-01,-6.449887901544570923e-02,8.103302866220474243e-02,-6.995586305856704712e-02,3.117215528618544340e-04,-1.838067024946212769e-01,1.396245360374450684e-01,-1.805918067693710327e-01,-1.079681068658828735e-01,1.037955135107040405e-01,2.084433436393737793e-01,-2.670937478542327881e-01,1.406546533107757568e-01,-2.107794582843780518e-02,1.524100154638290405e-01,-2.275254130363464355e-01,3.033069195225834846e-03,-2.297224402427673340e-01,1.599579602479934692e-01,2.201116532087326050e-01,7.022116333246231079e-02,-4.673971980810165405e-02,6.356929894536733627e-03,-2.109002768993377686e-01,-2.492925226688385010e-01,1.916010528802871704e-01,-1.620598696172237396e-02,-1.890435963869094849e-01,-1.896999776363372803e-01,1.840332597494125366e-01,-4.396851640194654465e-03,9.891714900732040405e-02,1.453442219644784927e-02,1.629669368267059326e-01,9.344280511140823364e-02,-2.006062418222427368e-01,-1.586859077215194702e-01
-2.496190369129180908e-01,3.643717989325523376e-02,7.567640393972396851e-02,-1.184285283088684082e-01,3.357120323926210403e-03,2.612416148185729980e-01,-1.117823943495750427e-01,1.961137950420379639e-01,-2.615500707179307938e-03,2.193261533975601196e-01,-6.064812623662874103e-06,8.916877210140228271e-02,1.774212904274463654e-02,2.743224203586578369e-01,9.236507117748260498e-02,3.339876830577850342e-01,2.466005533933639526e-01,9.365146048367023468e-03,-6.395400315523147583e-02,1.751348674297332764e-01,-3.502479195594787598e-01,-1.468845009803771973e-01,-7.061881572008132935e-02,1.193038001656532288e-01,2.384111434221267700e-01,1.999866664409637451e-01,1.170856505632400513e-01,3.687191754579544067e-02,7.640828192234039307e-02,1.953526586294174194e-01,1.890744082629680634e-02,-9.018257260322570801e-02,1.693872213363647461e-01,-6.316699832677841187e-02,9.196875989437103271e-02,3.891964629292488098e-02,6.250973790884017944e-02,2.340661548078060150e-02,-3.889982402324676514e-02,-5.498364940285682678e-02,-2.762485444545745850e-01,-1.028886958956718445e-01,-1.640552133321762085e-01,1.882010102272033691e-01,1.728351861238479614e-01,-1.156119927763938904e-01,1.950217038393020630e-01,-2.276379466056823730e-01,-2.123230844736099243e-01,1.106684058904647827e-01
-1.019598394632339478e-01,6.136782839894294739e-02,6.905360613018274307e-03,-6.173305958509445190e-02,7.283828407526016235e-02,1.573229022324085236e-02,-8.946157246828079224e-02,2.272384464740753174e-01,2.132660597562789917e-01,-1.445183604955673218e-01,-8.917337656021118164e-02,-6.070826202630996704e-02,4.410189762711524963e-02,5.948375537991523743e-02,1.172138825058937073e-01,2.612795531749725342e-01,2.254052758216857910e-01,1.674211770296096802e-02,1.178460121154785156e-01,7.132685184478759766e-02,-1.527278572320938110e-01,-3.950680419802665710e-02,1.285045146942138672e-01,2.901375591754913330e-01,1.414294075220823288e-02,2.505271136760711670e-01,1.385657340288162231e-01,1.280505210161209106e-01,-6.100157275795936584e-02,2.066907286643981934e-01,-8.784623444080352783e-02,7.134992629289627075e-02,-3.420347347855567932e-02,-1.285960823297500610e-01,6.454391032457351685e-02,2.528393408283591270e-03,1.399579085409641266e-02,-7.314230501651763916e-02,5.523643456399440765e-03,1.294007748365402222e-01,2.712956666946411133e-01,2.087696492671966553e-01,-5.910742655396461487e-02,3.634239779785275459e-03,1.923315227031707764e-01,1.044877469539642334e-01,3.310842812061309814e-01,-1.847773343324661255e-01,-1.681065112352371216e-01,-1.269930787384510040e-02
1.244642436504364014e-01,1.646452248096466064e-01,1.056009903550148010e-01,-1.483929753303527832e-01,7.635433971881866455e-02,-2.910969406366348267e-02,8.648496866226196289e-02,-1.181395649909973145e-01,-9.154553711414337158e-02,-7.216015458106994629e-02,-1.625764667987823486e-01,1.397339254617691040e-01,2.528496682643890381e-01,-1.941270530223846436e-01,-2.253797650337219238e-02,4.999152198433876038e-02,-2.605167217552661896e-02,8.354233205318450928e-02,2.077446579933166504e-01,-7.565463427454233170e-03,2.613848447799682617e-01,1.380493044853210449e-01,1.061945483088493347e-01,-6.729265674948692322e-03,-1.015600711107254028e-01,2.103227525949478149e-01,1.051111146807670593e-01,-1.296513676643371582e-01,4.139781743288040161e-02,5.357790738344192505e-02,2.877245284616947174e-02,2.096085548400878906e-01,4.964357987046241760e-02,1.533146500587463379e-01,-2.868034318089485168e-02,-5.107576027512550354e-02,-6.284840404987335205e-02,1.160437390208244324e-01,1.043329164385795593e-01,-8.305495977401733398e-02,9.845358133316040039e-02,1.961661875247955322e-01,1.578640043735504150e-01,8.648496121168136597e-02,2.269201576709747314e-01,-1.588114798069000244e-01,-1.343044936656951904e-01,3.866042792797088623e-01,-6.412915140390396118e-02,4.530087113380432129e-02
5.583076551556587219e-02,4.363073408603668213e-02,-1.019578054547309875e-01,-1.739350110292434692e-01,-6.455323100090026855e-02,-2.694607377052307129e-01,1.542054414749145508e-01,2.170007824897766113e-01,4.053748026490211487e-02,1.480739116668701172e-01,-7.848159223794937134e-02,1.279293000698089600e-01,-1.337320655584335327e-01,-5.419054627418518066e-02,9.150101244449615479e-02,-1.209386438131332397e-01,1.244359612464904785e-01,6.542091816663742065e-02,-2.196447923779487610e-02,3.813266009092330933e-02,-1.648493260145187378e-01,-9.909455664455890656e-03,-1.432530730962753296e-01,3.170804977416992188e-01,-7.975742220878601074e-02,-1.574703902006149292e-01,-5.115330219268798828e-02,-1.705288141965866089e-01,5.374104902148246765e-02,-1.037299633026123047e-01,2.045571058988571167e-01,-7.641639560461044312e-02,-7.976148277521133423e-02,-1.048030480742454529e-01,1.331296861171722412e-01,4.657969251275062561e-02,1.060064733028411865e-01,5.563624668866395950e-03,1.936653852462768555e-01,-9.814921766519546509e-02,-3.736232593655586243e-02,2.498401552438735962e-01,-2.462674528360366821e-01,-5.141420662403106689e-02,1.491435170173645020e-01,1.446510404348373413e-01,1.936309486627578735e-01,-2.180474251508712769e-01,1.169385388493537903e-01,3.376220911741256714e-02
2.781088054180145264e-01,2.480563372373580933e-01,-1.186339408159255981e-01,1.033973693847656250e-01,-3.412795439362525940e-02,4.575931001454591751e-03,1.150927767157554626e-01,2.156284153461456299e-01,-4.626526683568954468e-02,1.287977490574121475e-02,1.268250346183776855e-01,2.014076411724090576e-01,1.742344796657562256e-01,5.061638727784156799e-02,4.356783255934715271e-02,1.701547503471374512e-01,-1.075032949447631836e-01,1.264104247093200684e-01,2.655400633811950684e-01,2.805174887180328369e-01,-8.691517263650894165e-02,-3.743685409426689148e-02,-8.521956205368041992e-02,-4.302311688661575317e-02,2.538181543350219727e-01,2.753601223230361938e-02,1.266333162784576416e-01,2.009759992361068726e-01,1.593730598688125610e-01,1.300266832113265991e-01,5.013330653309822083e-02,4.669451713562011719e-02,2.021461538970470428e-02,1.446558237075805664e-01,4.413043148815631866e-03,-1.730128079652786255e-01,9.529847651720046997e-02,1.510512381792068481e-01,-7.547695934772491455e-02,1.367337852716445923e-01,-1.431270688772201538e-01,-3.026905953884124756e-01,2.519088089466094971e-01,-2.271399348974227905e-01,7.096500694751739502e-02,-2.019636780023574829e-01,-1.639939248561859131e-01,-1.498286519199609756e-02,-2.090447247028350830e-01,2.092027217149734497e-01
1.212210743688046932e-03,6.126452609896659851e-02,-2.989204786717891693e-02,2.255035191774368286e-02,-1.602791994810104370e-01,1.948025822639465332e-01,-2.816487289965152740e-02,3.339152038097381592e-01,2.119339555501937866e-01,-5.960978567600250244e-02,4.557183384895324707e-02,1.209762878715991974e-02,1.474581658840179443e-01,-9.453715384006500244e-02,-3.747296705842018127e-02,-6.891683489084243774e-02,3.657007962465286255e-02,-3.225400298833847046e-02,2.822933346033096313e-02,-2.657129801809787750e-02,-1.167655959725379944e-01,1.070585325360298157e-01,1.451525241136550903e-01,6.678393483161926270e-02,9.544064849615097046e-02,3.254419192671775818e-02,-2.743340469896793365e-02,-3.781039034947752953e-03,-1.337367296218872070e-01,6.243164464831352234e-02,4.579419270157814026e-03,1.152018979191780090e-01,-5.615191161632537842e-02,-7.583782821893692017e-02,-5.777984112501144409e-02,-4.488864913582801819e-02,-7.321596145629882812e-02,-7.736619561910629272e-02,-7.984543591737747192e-02,1.718595772981643677e-01,2.566511631011962891e-01,2.409715354442596436e-01,-1.617339700460433960e-01,-1.415471732616424561e-01,8.212136477231979370e-02,1.700494885444641113e-01,1.458120942115783691e-01,5.158573761582374573e-02,6.795218586921691895e-02,9.341646917164325714e-03
7.599665224552154541e-02,-1.735033839941024780e-01,-2.465543448925018311e-01,2.833597064018249512e-01,-7.778286188840866089e-02,-2.343039065599441528e-01,-1.479716389440000057e-03,-8.466818928718566895e-02,9.388644248247146606e-02,2.179798185825347900e-01,1.009598374366760254e-02,1.341426223516464233e-01,-1.919844895601272583e-01,-1.765554994344711304e-01,8.327677100896835327e-02,5.684672296047210693e-02,-2.860191091895103455e-02,2.026906758546829224e-01,-3.109918348491191864e-02,1.447212994098663330e-01,1.331097334623336792e-01,8.623313042335212231e-04,7.838485389947891235e-02,-2.933806739747524261e-02,-1.262701600790023804e-01,-4.739479720592498779e-02,7.670970261096954346e-02,1.799593865871429443e-02,1.084700152277946472e-01,1.755439341068267822e-01,2.924250438809394836e-02,2.489376217126846313e-01,6.966266036033630371e-02,1.535414457321166992e-01,-2.665987014770507812e-01,-6.113782897591590881e-02,3.118359148502349854e-01,-9.088496863842010498e-02,1.637319475412368774e-01,1.479623466730117798e-01,1.504429802298545837e-02,-5.566896870732307434e-02,5.515236034989356995e-02,-1.376978605985641479e-01,-1.405112594366073608e-01,2.366303950548171997e-01,9.137225896120071411e-02,-8.354464173316955566e-02,-3.093688562512397766e-02,-1.972851157188415527e-01
-1.694229245185852051e-01,1.730150133371353149e-01,-1.340415179729461670e-01,1.695127934217453003e-01,-1.979672610759735107e-01,2.274856269359588623e-01,1.260137706995010376e-01,2.042423933744430542e-01,-2.201101183891296387e-01,-1.588345468044281006e-01,1.300517749041318893e-02,-8.137325197458267212e-02,-2.372715249657630920e-02,2.896384596824645996e-01,3.314881920814514160e-01,-1.449091639369726181e-02,1.665192842483520508e-01,2.650676071643829346e-01,-2.376797944307327271e-01,-5.745481327176094055e-02,-1.179003268480300903e-01,1.283754706382751465e-01,2.030760794878005981e-01,-8.690364658832550049e-02,-3.086704388260841370e-02,-9.299580007791519165e-02,1.791009455919265747e-01,-5.566047132015228271e-02,1.436633169651031494e-01,1.944123394787311554e-02,-1.128557994961738586e-01,1.594390720129013062e-01,6.642714887857437134e-02,2.561827898025512695e-01,-1.769106835126876831e-01,-1.446893513202667236e-01,-2.843842841684818268e-02,1.049916520714759827e-01,1.079275980591773987e-01,1.464499253779649734e-02,-5.982881039381027222e-02,7.297132909297943115e-02,-8.803080767393112183e-02,-2.875342965126037598e-01,-1.474612057209014893e-01,-1.131060346961021423e-02,7.817194610834121704e-02,2.494043111801147461e-02,-4.259278625249862671e-02,-1.734200417995452881e-01
8.099246025085449219e-02,1.271272823214530945e-02,1.690027862787246704e-01,2.537343204021453857e-01,1.997736692428588867e-01,1.619738526642322540e-02,4.212248325347900391e-02,-2.507977746427059174e-02,-2.503539621829986572e-01,6.208773702383041382e-02,2.094393223524093628e-01,2.351110428571701050e-02,1.067347154021263123e-01,-1.338693052530288696e-01,-7.566393911838531494e-02,-3.678863169625401497e-03,-3.154039382934570312e-01,-7.816352881491184235e-03,-3.742657974362373352e-02,-1.577459573745727539e-01,-1.402442157268524170e-01,-5.378916114568710327e-02,1.096969097852706909e-01,7.061677426099777222e-02,-9.467361122369766235e-02,-2.121307700872421265e-01,1.614869944751262665e-02,1.027323678135871887e-01,-8.550213277339935303e-02,-9.959087520837783813e-02,-5.796795338392257690e-02,1.376047134399414062e-01,-1.969929635524749756e-01,-3.316035261377692223e-03,-9.895972907543182373e-02,-3.380168601870536804e-02,-8.106837421655654907e-02,-2.583342231810092926e-02,-9.037715941667556763e-02,1.280328631401062012e-01,8.611611276865005493e-02,-1.647783517837524414e-01,-2.663715481758117676e-01,1.690147817134857178e-01,7.914271950721740723e-02,2.779023945331573486e-01,-1.838094368577003479e-02,8.869911544024944305e-03,9.013108164072036743e-02,2.893601916730403900e-02
3.060532510280609131e-01,1.670540720224380493e-01,1.195691674947738647e-01,2.455151379108428955e-01,1.136852130293846130e-01,7.454151660203933716e-02,1.379065513610839844e-01,-1.958721280097961426e-01,1.143280938267707825e-01,2.038881480693817139e-01,1.221668571233749390e-01,3.096860945224761963e-01,6.528016179800033569e-02,2.445015907287597656e-01,1.955281794071197510e-01,-7.759579271078109741e-02,1.653536260128021240e-01,-2.750270962715148926e-01,-3.294163197278976440e-02,-3.819243237376213074e-02,-3.707709535956382751e-02,-1.724332123994827271e-01,-5.387292429804801941e-02,-2.545998990535736084e-01,-2.214470058679580688e-01,1.765630990266799927e-01,7.903175055980682373e-02,8.033683523535728455e-03,-8.884219080209732056e-02,-1.087121199816465378e-02,3.424505144357681274e-02,-2.121123671531677246e-01,-1.795999109745025635e-01,-5.840585101395845413e-03,2.313729524612426758e-01,-4.749643430113792419e-02,2.613053657114505768e-02,-2.395738959312438965e-01,-1.697584241628646851e-02,-2.606864087283611298e-02,1.015376076102256775e-01,-2.871395647525787354e-01,2.185941487550735474e-01,4.818648472428321838e-02,6.495743989944458008e-02,-9.613917768001556396e-02,-1.536065936088562012e-01,9.949548542499542236e-02,7.060763239860534668e-02,1.138320118188858032e-01
-1.290674805641174316e-01,2.157030701637268066e-01,1.618227809667587280e-01,2.397792488336563110e-01,-1.261058747768402100e-01,1.113166660070419312e-02,-1.095414310693740845e-01,1.102413535118103027e-01,-1.347906440496444702e-01,2.835392653942108154e-01,2.917455323040485382e-02,6.116066500544548035e-02,-1.180692762136459351e-01,-3.061567549593746662e-04,-1.121459677815437317e-01,2.355423569679260254e-01,-1.184886172413825989e-01,2.533208020031452179e-02,1.513514518737792969e-01,4.696340486407279968e-02,-2.457411959767341614e-02,1.988038718700408936e-01,1.949140578508377075e-01,2.475036680698394775e-01,-1.261666975915431976e-02,5.303537100553512573e-02,1.583633273839950562e-01,5.374156683683395386e-02,-1.141281276941299438e-01,-2.770971059799194336e-01,6.714352220296859741e-02,-2.014615535736083984e-01,-5.734598636627197266e-02,1.462645083665847778e-01,1.567118614912033081e-01,8.011416345834732056e-02,1.603818088769912720e-01,-1.693294197320938110e-01,-8.791938424110412598e-02,-2.291600704193115234e-01,2.469043880701065063e-01,-2.878138050436973572e-02,3.166570514440536499e-02,-2.130407541990280151e-01,-1.271588504314422607e-01,8.703450113534927368e-02,1.204271912574768066e-01,2.939180135726928711e-01,-1.909716874361038208e-01,-9.173939377069473267e-02
-4.152877256274223328e-03,-7.883287966251373291e-02,-5.591946467757225037e-02,1.830194592475891113e-01,1.157207638025283813e-01,-1.744090020656585693e-01,2.587364614009857178e-02,2.227071523666381836e-01,-7.886715233325958252e-02,-6.871972978115081787e-02,-1.763336360454559326e-01,8.178318291902542114e-02,-1.227313652634620667e-01,-1.057803537696599960e-02,2.726363018155097961e-02,2.452649921178817749e-01,-2.457845658063888550e-01,6.790161877870559692e-02,4.980899021029472351e-02,8.163025230169296265e-02,-4.058263897895812988e-01,7.653221487998962402e-02,-1.435105204582214355e-01,-9.711510501801967621e-03,4.075787961483001709e-02,1.839037835597991943e-01,5.959397554397583008e-02,-7.233154773712158203e-02,2.719327807426452637e-03,-2.110562473535537720e-01,5.152621865272521973e-02,-5.738218128681182861e-02,8.364418148994445801e-02,1.351266950368881226e-01,-1.561528593301773071e-01,-2.441195771098136902e-02,1.373018920421600342e-01,-1.505465507507324219e-01,3.778488561511039734e-02,-1.205896288156509399e-01,1.179816424846649170e-01,2.007850557565689087e-01,-1.472740918397903442e-01,1.725312322378158569e-01,4.611270036548376083e-03,1.252552419900894165e-01,8.046795427799224854e-02,-2.874888777732849121e-01,-2.773924171924591064e-01,1.700278520584106445e-01
1.697351336479187012e-01,1.822967231273651123e-01,8.289365470409393311e-02,1.647950410842895508e-01,1.584893912076950073e-01,-1.086070537567138672e-01,1.060171946883201599e-01,1.790972054004669189e-01,-6.333933770656585693e-02,6.728518009185791016e-02,-5.633025243878364563e-02,3.652625158429145813e-02,6.653200834989547729e-02,-2.180886417627334595e-01,-2.111162990331649780e-02,4.135591909289360046e-02,-9.683319181203842163e-02,1.940995603799819946e-01,-3.862483799457550049e-02,-3.501807898283004761e-02,2.623826563358306885e-01,-8.386807888746261597e-02,-1.917100846767425537e-01,8.883435279130935669e-02,-1.396278142929077148e-01,-2.078621387481689453e-01,-1.045289263129234314e-01,-3.373286873102188110e-02,2.109029442071914673e-01,-8.111426979303359985e-02,5.973687767982482910e-02,-2.110682129859924316e-01,-1.881121844053268433e-02,-3.458749735727906227e-03,-9.298188984394073486e-02,3.771547228097915649e-02,2.244894802570343018e-01,-8.117468096315860748e-03,1.087877228856086731e-01,-1.294405758380889893e-01,-3.228022158145904541e-02,-1.000486686825752258e-01,-1.203635409474372864e-01,1.630157530307769775e-01,-1.782120168209075928e-01,1.456753462553024292e-01,-2.458837479352951050e-01,-1.463991254568099976e-01,1.122325286269187927e-01,2.435078173875808716e-01
-2.046634443104267120e-02,1.269461810588836670e-01,3.576722741127014160e-02,-4.795899987220764160e-02,-1.397770196199417114e-01,2.872157990932464600e-01,6.011384353041648865e-02,-7.385832816362380981e-02,6.568937748670578003e-02,-1.484826505184173584e-01,-4.662096127867698669e-02,1.994469910860061646e-01,-9.106710553169250488e-02,-1.503774672746658325e-01,-2.390139698982238770e-01,-1.066166535019874573e-01,-9.517588187009096146e-04,-4.496381059288978577e-02,1.320309191942214966e-01,1.483893096446990967e-01,-3.435124456882476807e-02,7.034851610660552979e-02,9.840013831853866577e-02,-6.613324396312236786e-03,-3.209586814045906067e-02,2.808805368840694427e-02,2.052225023508071899e-01,4.896102100610733032e-02,2.333915233612060547e-02,2.648631036281585693e-01,7.376348972320556641e-02,-1.561809144914150238e-02,2.080904096364974976e-01,6.170828640460968018e-02,6.614425219595432281e-03,5.272361636161804199e-02,1.213196143507957458e-01,-2.707225084304809570e-01,1.338517665863037109e-01,1.180340871214866638e-01,2.513917088508605957e-01,-3.214555680751800537e-01,4.985656589269638062e-02,4.738144949078559875e-02,4.683627933263778687e-02,-2.351599931716918945e-01,-9.534038603305816650e-02,1.588390767574310303e-01,-1.570948213338851929e-02,-8.055270463228225708e-02
1.292045712471008301e-01,-1.324799656867980957e-01,1.144707947969436646e-01,1.885783821344375610e-01,3.100838661193847656e-01,3.646363317966461182e-02,-1.482568383216857910e-01,2.138102892786264420e-03,9.500676393508911133e-02,1.391871273517608643e-01,1.641184464097023010e-02,-4.471813142299652100e-02,-1.546396687626838684e-02,-1.894119568169116974e-02,1.474990248680114746e-01,1.106040552258491516e-02,-2.939782738685607910e-01,2.203728258609771729e-01,-1.368971467018127441e-01,-1.678809672594070435e-01,1.232829061336815357e-03,-7.133220136165618896e-02,-2.806541323661804199e-01,1.680465191602706909e-01,-2.562092617154121399e-02,1.564527153968811035e-01,8.670981973409652710e-02,-4.453934356570243835e-02,6.934558507055044174e-03,-2.734235487878322601e-02,-2.099188715219497681e-01,-2.093681842088699341e-01,6.563897430896759033e-02,1.494542807340621948e-01,-2.289469540119171143e-01,3.328363224864006042e-02,3.188375532627105713e-01,-1.851145178079605103e-01,-3.840901255607604980e-01,-1.475185900926589966e-01,1.580087691545486450e-01,-2.976857721805572510e-01,-9.469810873270034790e-02,-3.437472283840179443e-01,3.085610084235668182e-02,2.868164777755737305e-01,8.365216851234436035e-02,-1.286189258098602295e-01,-4.671320319175720215e-02,-1.325130164623260498e-01
-3.468562364578247070e-01,-3.615092113614082336e-02,-2.037294209003448486e-01,-1.621039956808090210e-01,-1.098973676562309265e-02,3.788333013653755188e-02,-9.698081761598587036e-02,1.005471944808959961e-01,-1.325235664844512939e-01,2.100799381732940674e-01,6.273020803928375244e-02,7.781132310628890991e-02,3.598494222387671471e-03,8.405312895774841309e-03,6.703626364469528198e-02,2.126277685165405273e-01,-1.195393875241279602e-01,1.184320263564586639e-02,1.816082298755645752e-01,1.634702235460281372e-01,1.190454512834548950e-01,1.997400224208831787e-01,1.756976097822189331e-01,-1.226213946938514709e-01,2.613721191883087158e-01,1.928197965025901794e-02,-1.651929169893264771e-01,1.405259817838668823e-01,1.743394136428833008e-01,-4.141652956604957581e-02,8.657146990299224854e-02,1.521786749362945557e-01,9.428523480892181396e-03,4.145218431949615479e-02,5.938178673386573792e-02,-4.396478459239006042e-02,9.679526835680007935e-02,1.658477485179901123e-01,-1.370390802621841431e-01,-1.490203589200973511e-01,1.043464336544275284e-02,-1.851189732551574707e-01,-4.319686815142631531e-02,4.706311598420143127e-02,-1.643366962671279907e-01,-1.934034377336502075e-01,2.274341322481632233e-02,2.477874010801315308e-01,-2.084068655967712402e-01,1.139901503920555115e-01
-1.724925637245178223e-01,-7.841036468744277954e-02,1.232218816876411438e-01,-1.278051286935806274e-01,1.393990498036146164e-02,-2.027534879744052887e-02,-3.789088502526283264e-02,-4.953880980610847473e-02,-2.070204466581344604e-01,-1.821860112249851227e-02,2.365584820508956909e-01,1.683453656733036041e-02,-1.775346323847770691e-02,6.921260803937911987e-02,2.378604412078857422e-01,-2.010098658502101898e-02,1.956645697355270386e-01,1.789424419403076172e-01,4.958020895719528198e-02,1.176840662956237793e-01,-1.211033016443252563e-01,-3.595059365034103394e-02,1.143580973148345947e-01,-2.861621379852294922e-01,9.156104177236557007e-02,-9.509700536727905273e-02,-1.081068441271781921e-01,4.230727627873420715e-02,-2.867679484188556671e-02,1.836607903242111206e-01,-5.937317386269569397e-02,1.567923277616500854e-01,-2.772357687354087830e-02,-7.983342558145523071e-02,1.862767636775970459e-01,1.003172993659973145e-01,2.007054239511489868e-01,3.497780114412307739e-02,-1.218906342983245850e-01,-2.079380303621292114e-01,9.683195501565933228e-02,3.108670935034751892e-02,-5.789648741483688354e-02,-7.707053422927856445e-02,-1.178351789712905884e-01,1.120310574769973755e-01,2.589523093774914742e-03,8.899571001529693604e-02,1.547247469425201416e-01,-6.792826950550079346e-02
-3.564857877790927887e-03,-8.399780094623565674e-02,1.320689916610717773e-01,-1.047697663307189941e-01,-3.892425447702407837e-02,-1.681168563663959503e-02,-9.989959001541137695e-02,4.027812182903289795e-02,-1.921897828578948975e-01,6.570656597614288330e-02,-1.144775524735450745e-01,-3.891102969646453857e-02,1.334518939256668091e-01,5.293626338243484497e-03,2.518285810947418213e-02,-3.234929591417312622e-02,-5.678911879658699036e-02,9.454128146171569824e-02,-8.324873633682727814e-03,4.111247882246971130e-02,-9.211678802967071533e-02,1.746968477964401245e-01,-1.374954134225845337e-01,2.566267549991607666e-01,1.822022944688796997e-01,-2.226345539093017578e-01,1.473544389009475708e-01,-2.926370594650506973e-03,1.404796093702316284e-01,4.074495658278465271e-02,-7.658342123031616211e-01,1.210033893585205078e-01,-8.197683840990066528e-02,8.669958263635635376e-02,2.088408023118972778e-01,-1.874605379998683929e-02,2.511950433254241943e-01,2.934404276311397552e-02,-1.345199532806873322e-02,-3.247533738613128662e-02,-1.285365968942642212e-01,-1.673612296581268311e-01,1.185278818011283875e-01,-1.190450638532638550e-01,2.510730177164077759e-02,-6.348670460283756256e-03,2.814633771777153015e-03,7.680130004882812500e-02,-1.034175604581832886e-01,1.648662686347961426e-01
-1.638444215059280396e-01,-1.394235938787460327e-01,2.176781594753265381e-01,1.796948015689849854e-01,8.652640879154205322e-02,3.127100467681884766e-01,-7.290928065776824951e-02,1.602630019187927246e-01,-1.279354989528656006e-01,-1.956817228347063065e-03,-5.204725638031959534e-02,-2.564426660537719727e-01,-1.939729601144790649e-02,-6.111812964081764221e-02,1.722565889358520508e-01,1.067075654864311218e-01,-6.329873949289321899e-02,-6.228924263268709183e-03,1.702849417924880981e-01,1.140874698758125305e-01,1.150055825710296631e-01,-9.265299141407012939e-02,-9.856148064136505127e-02,1.615495085716247559e-01,1.178163141012191772e-01,-6.186311691999435425e-02,-3.572909161448478699e-02,1.838494539260864258e-01,-6.691487878561019897e-02,1.611435413360595703e-01,-5.988433212041854858e-02,-2.470329031348228455e-02,-2.396787852048873901e-01,1.008564978837966919e-01,1.511597335338592529e-01,-4.058355465531349182e-02,1.403287891298532486e-02,-1.450335420668125153e-02,1.147145405411720276e-01,-7.148313522338867188e-02,1.080065518617630005e-01,3.296406473964452744e-03,2.048512846231460571e-01,-8.395002782344818115e-02,1.736500859260559082e-02,-4.842829704284667969e-02,1.381931006908416748e-01,1.632981002330780029e-01,-2.328250557184219360e-01,-1.728166192770004272e-01
9.177798777818679810e-02,4.820084944367408752e-02,-1.232604980468750000e-01,-3.056273097172379494e-03,6.327319145202636719e-02,1.828141361474990845e-01,1.245530396699905396e-01,-4.389401897788047791e-02,4.885934293270111084e-02,1.860629767179489136e-01,-3.205037489533424377e-02,6.190518662333488464e-02,-1.990730464458465576e-01,-3.021661750972270966e-02,-2.101261019706726074e-01,-1.904474794864654541e-01,1.071300134062767029e-01,2.208237498998641968e-01,1.501954048871994019e-01,4.258966073393821716e-02,7.937924563884735107e-02,1.857072561979293823e-01,3.002978563308715820e-01,-2.001076340675354004e-01,4.260861501097679138e-02,1.018857508897781372e-01,1.143621630035340786e-03,-1.631226018071174622e-02,1.585305035114288330e-01,-1.344179511070251465e-01,-9.484677016735076904e-02,1.859303936362266541e-02,9.292557090520858765e-02,-1.339846700429916382e-01,-1.670699864625930786e-01,1.745868623256683350e-01,-1.126203313469886780e-01,1.973275989294052124e-01,2.111926376819610596e-01,-1.798492968082427979e-01,-1.670999228954315186e-01,8.692494779825210571e-02,1.182252317667007446e-01,1.832049638032913208e-01,9.212406352162361145e-03,-9.152932465076446533e-02,-1.246295869350433350e-01,2.021984308958053589e-01,2.034884840250015259e-01,-1.153579726815223694e-01
1.036614105105400085e-01,1.947753280401229858e-01,-7.503852993249893188e-02,-1.879942603409290314e-02,-1.102836579084396362e-01,9.801592677831649780e-02,-2.217144519090652466e-01,-7.179795205593109131e-02,1.813488900661468506e-01,3.553552180528640747e-02,1.222094446420669556e-01,1.290220022201538086e-01,-2.168298065662384033e-01,1.747203618288040161e-01,2.352369576692581177e-01,4.690007492899894714e-02,-9.864591062068939209e-02,1.616496890783309937e-01,1.547594070434570312e-01,7.236969191581010818e-03,4.262014478445053101e-02,1.769388318061828613e-01,-1.432694643735885620e-01,-2.567439079284667969e-01,-8.235849440097808838e-02,1.070145592093467712e-01,1.098351851105690002e-01,1.740995794534683228e-01,1.747220456600189209e-01,-2.060485929250717163e-01,-2.561459690332412720e-02,3.736888989806175232e-02,5.165088921785354614e-02,1.253070980310440063e-01,-2.369758486747741699e-02,-2.095712348818778992e-02,1.495813578367233276e-01,9.901447594165802002e-02,-1.583850085735321045e-01,-1.500312983989715576e-01,-6.278925575315952301e-04,1.865619793534278870e-02,2.733232639729976654e-02,-7.963036745786666870e-02,-4.098695144057273865e-02,-8.059399574995040894e-02,-1.857621828094124794e-04,2.282799482345581055e-01,5.556014180183410645e-02,4.500812385231256485e-03
3.272289037704467773e-02,4.134901240468025208e-02,5.904571339488029480e-02,6.729983538389205933e-02,1.748252362012863159e-01,2.409829497337341309e-01,2.815015800297260284e-02,9.885798394680023193e-02,-6.370814889669418335e-02,-1.856324821710586548e-01,-3.931428864598274231e-02,8.509349822998046875e-02,4.783334210515022278e-02,6.915576010942459106e-02,5.029078200459480286e-02,4.705860465764999390e-02,1.297705769538879395e-01,1.649084538221359253e-01,-1.999424099922180176e-01,9.943305514752864838e-03,-1.134463176131248474e-01,-2.197792381048202515e-01,-1.627873480319976807e-01,1.059390008449554443e-01,2.785354554653167725e-01,-2.011849582195281982e-01,-7.174224406480789185e-02,-1.749965846538543701e-01,1.355232149362564087e-01,1.543348580598831177e-01,-1.935899630188941956e-02,-2.148832976818084717e-01,-2.326319366693496704e-01,-7.628336548805236816e-02,3.434337675571441650e-02,6.995870172977447510e-02,-2.096667438745498657e-01,1.820059269666671753e-01,2.705166935920715332e-01,1.695845276117324829e-01,4.902563989162445068e-02,6.456636637449264526e-02,1.129411309957504272e-01,-5.507757142186164856e-02,8.673335611820220947e-02,-9.318098425865173340e-02,-6.960171461105346680e-02,8.225227892398834229e-02,-2.805143892765045166e-01,-5.948083102703094482e-02
-3.584849536418914795e-01,1.346289515495300293e-01,-1.643771827220916748e-01,1.779756098985671997e-01,-2.733932137489318848e-01,-2.919027209281921387e-01,-3.286562394350767136e-03,2.201097644865512848e-02,-1.572778970003128052e-01,1.965025812387466431e-01,-3.375586494803428650e-02,-9.010408818721771240e-02,-4.821954667568206787e-02,9.626108407974243164e-02,1.741238683462142944e-01,1.098477318882942200e-01,-2.948233671486377716e-02,1.434097159653902054e-02,-3.121206350624561310e-02,9.686871431767940521e-03,-2.493890225887298584e-01,9.914080053567886353e-02,-1.385296583175659180e-01,-1.904099583625793457e-01,-1.475708186626434326e-01,-1.891558766365051270e-01,3.637710586190223694e-02,5.652528256177902222e-03,-7.374873012304306030e-02,-6.556025892496109009e-02,7.375781238079071045e-02,6.973353028297424316e-02,-7.283939421176910400e-02,1.224317699670791626e-01,-1.111205890774726868e-01,-7.347059994935989380e-02,3.792184591293334961e-02,-1.572526991367340088e-01,-1.115043535828590393e-01,-2.741706073284149170e-01,2.066211104393005371e-01,3.039304539561271667e-02,9.607455134391784668e-02,-3.517815768718719482e-01,1.981562376022338867e-02,-1.336097344756126404e-02,6.007924675941467285e-02,2.306031621992588043e-02,2.085975259542465210e-01,-2.682726979255676270e-01
-2.908670008182525635e-01,8.260262757539749146e-02,2.152961939573287964e-01,-5.219021812081336975e-02,-4.207608848810195923e-02,2.649089097976684570e-01,-3.359451591968536377e-01,-2.566050887107849121e-01,1.737850010395050049e-01,4.591216519474983215e-02,-2.293184101581573486e-01,-2.602302432060241699e-01,1.498855799436569214e-01,-5.732362717390060425e-02,-1.765131503343582153e-01,1.444961726665496826e-01,-8.610951155424118042e-02,4.903830587863922119e-03,-3.025743961334228516e-01,1.258571445941925049e-01,-2.281694263219833374e-01,1.377789527177810669e-01,1.400351226329803467e-01,-2.892418503761291504e-01,9.044924378395080566e-02,1.141439080238342285e-01,-7.219110429286956787e-02,8.807507157325744629e-02,-2.093704789876937866e-02,2.499751448631286621e-01,-1.570158898830413818e-01,4.603833425790071487e-03,-2.422344870865345001e-02,1.510569453239440918e-01,-2.078793048858642578e-01,4.186669588088989258e-01,9.682990610599517822e-03,-2.572742989286780357e-03,1.723024249076843262e-01,-5.970696732401847839e-02,5.137316882610321045e-02,7.897273451089859009e-02,-9.982502460479736328e-02,8.946443349123001099e-02,-4.156904667615890503e-02,8.288280107080936432e-03,-9.424456954002380371e-02,-6.281177699565887451e-02,-1.023244261741638184e-01,9.793078899383544922e-02
1.314198970794677734e-01,8.536460250616073608e-02,-2.119218558073043823e-01,1.681252717971801758e-01,2.668197825551033020e-02,1.485703736543655396e-01,3.271595109254121780e-03,3.435878828167915344e-02,7.001250237226486206e-02,9.072609245777130127e-02,-4.287695884704589844e-02,2.761379070580005646e-02,9.864313900470733643e-02,-1.427125334739685059e-01,-3.725303411483764648e-01,1.180520728230476379e-01,1.219896823167800903e-01,2.237270474433898926e-01,-1.028611585497856140e-01,1.780342161655426025e-01,1.438096314668655396e-01,3.770838305354118347e-02,-1.439055949449539185e-01,-4.676229506731033325e-02,-1.221227124333381653e-01,5.628343205899000168e-03,-2.411219924688339233e-01,8.992507122457027435e-03,3.311653062701225281e-02,1.865328848361968994e-01,5.041772127151489258e-02,-5.810668319463729858e-02,-1.833324134349822998e-02,-1.128379106521606445e-01,6.064761802554130554e-02,-5.945399403572082520e-02,1.910506188869476318e-01,1.295190453529357910e-01,2.124816924333572388e-01,8.276582509279251099e-02,-1.742579042911529541e-01,4.367796778678894043e-01,1.368864029645919800e-01,2.792477011680603027e-01,-9.760224074125289917e-02,-1.239676401019096375e-01,-1.589035093784332275e-01,1.155871823430061340e-01,-1.148044094443321228e-01,-1.964451074600219727e-01
4.448672011494636536e-02,-7.182443886995315552e-02,9.826508164405822754e-02,-8.715953677892684937e-02,-1.997700631618499756e-01,-1.551433205604553223e-01,3.203383982181549072e-01,-9.738012403249740601e-02,-2.343482822179794312e-01,-5.024130269885063171e-02,1.568762809038162231e-01,3.864227235317230225e-02,1.369039267301559448e-01,1.480839252471923828e-01,-3.429995477199554443e-02,-8.107966929674148560e-02,1.099213957786560059e-01,-7.458776235580444336e-02,6.498180329799652100e-02,-6.021915003657341003e-02,-2.978928089141845703e-01,3.618936240673065186e-02,-1.764689832925796509e-01,5.590363964438438416e-02,-9.775543212890625000e-02,-1.432976573705673218e-01,2.516988217830657959e-01,1.136273220181465149e-01,7.127045840024948120e-02,1.204126700758934021e-01,8.183320751413702965e-04,3.220671042799949646e-02,1.152988001704216003e-01,-5.455768667161464691e-03,-6.987781077623367310e-02,-9.617595374584197998e-02,3.893121331930160522e-02,2.888995222747325897e-02,1.306698024272918701e-01,1.965600550174713135e-01,5.390242673456668854e-03,-2.092439979314804077e-01,-2.304270416498184204e-01,6.063393130898475647e-02,1.112208366394042969e-01,1.754929311573505402e-02,-6.217094883322715759e-02,7.566569000482559204e-02,-1.962025612592697144e-01,-4.757668077945709229e-02
-2.681361734867095947e-01,-9.980706125497817993e-02,-2.082657217979431152e-01,8.334539830684661865e-02,1.461891382932662964e-01,1.486040204763412476e-01,9.867584705352783203e-02,1.053518652915954590e-01,4.009341076016426086e-02,-1.135904937982559204e-01,-1.342881917953491211e-01,7.620812207460403442e-02,2.155704647302627563e-01,2.421020343899726868e-02,5.116527155041694641e-02,-4.097338765859603882e-03,-9.089183807373046875e-02,3.681468963623046875e-02,-8.121696114540100098e-02,9.377429634332656860e-02,1.123549491167068481e-01,-1.610254347324371338e-01,-1.396890729665756226e-01,5.961989760398864746e-01,-2.300106287002563477e-01,-2.014030069112777710e-01,-2.862996980547904968e-02,-1.098252460360527039e-02,1.741099208593368530e-01,2.044786810874938965e-01,1.102595031261444092e-01,2.543889917433261871e-02,2.035550773143768311e-02,1.684684157371520996e-01,-8.943005651235580444e-02,3.983449935913085938e-02,-8.394432812929153442e-02,-8.551779389381408691e-02,-2.390857040882110596e-02,1.402009725570678711e-01,-1.314653754234313965e-01,-4.427400827407836914e-01,-5.882388353347778320e-02,7.487154006958007812e-02,1.327677816152572632e-01,7.820440456271171570e-03,-1.480664610862731934e-01,2.645982243120670319e-02,-2.560540847480297089e-02,-5.931840837001800537e-02
-8.011767640709877014e-03,-4.501615837216377258e-02,6.966677308082580566e-02,1.028654258698225021e-02,2.943584322929382324e-01,7.075010240077972412e-02,-1.081575453281402588e-01,-1.443532854318618774e-01,1.995873600244522095e-01,3.466710746288299561e-01,-9.713792055845260620e-02,1.622861772775650024e-01,2.937325239181518555e-01,-2.235684096813201904e-01,-5.445264279842376709e-02,1.614760756492614746e-01,-2.409273087978363037e-01,5.607105419039726257e-02,-4.478352889418601990e-02,2.255999296903610229e-02,-9.164386987686157227e-02,-1.980577362701296806e-03,5.886135995388031006e-02,1.393632292747497559e-01,-1.391122341156005859e-01,1.418329924345016479e-01,1.362846940755844116e-01,-1.074451059103012085e-01,1.300986409187316895e-01,2.419256232678890228e-02,1.603646874427795410e-01,-3.243872821331024170e-01,-4.573693498969078064e-02,-2.447858750820159912e-01,2.315461337566375732e-01,1.322473734617233276e-01,3.030022978782653809e-01,7.297563552856445312e-02,1.705636978149414062e-01,1.148959398269653320e-01,-2.717277109622955322e-01,-9.607192873954772949e-02,1.649838984012603760e-01,3.757571280002593994e-01,-2.224164158105850220e-01,-2.486014515161514282e-01,2.951249107718467712e-02,6.805574148893356323e-02,-9.703732281923294067e-02,1.127886027097702026e-01
-3.258565440773963928e-02,2.101113647222518921e-01,1.544468700885772705e-01,1.645487248897552490e-01,4.834279045462608337e-02,-1.192444041371345520e-01,-1.484770774841308594e-01,1.970426291227340698e-01,-2.044250071048736572e-01,-1.262691803276538849e-03,6.330558098852634430e-03,-3.269408643245697021e-02,3.639366477727890015e-02,1.604038327932357788e-01,2.556108124554157257e-02,-1.608355045318603516e-01,-2.641464769840240479e-01,-1.954260915517807007e-01,-2.040852755308151245e-01,5.810284987092018127e-03,-8.579300716519355774e-03,-8.455815166234970093e-02,1.063245385885238647e-01,1.331847757101058960e-01,4.353884607553482056e-02,-5.274896696209907532e-02,2.790556252002716064e-01,7.627460360527038574e-02,3.497838228940963745e-02,-6.056170538067817688e-02,-9.674309194087982178e-02,1.104530170559883118e-01,-5.833258107304573059e-02,9.999363869428634644e-02,-3.499272763729095459e-01,-1.108891889452934265e-01,2.380197644233703613e-01,1.871030032634735107e-01,-1.740110367536544800e-01,-1.394178569316864014e-01,6.345304101705551147e-02,9.632463008165359497e-02,5.087507143616676331e-02,2.674820460379123688e-02,-1.364542394876480103e-01,3.133662045001983643e-01,-1.325941234827041626e-01,-1.350287795066833496e-01,1.277051866054534912e-01,1.766940951347351074e-01
1.879807114601135254e-01,1.329710613936185837e-02,-9.401956945657730103e-02,7.831082493066787720e-02,1.083489060401916504e-01,-4.679143056273460388e-02,5.024672672152519226e-02,2.205940932035446167e-01,-1.526163071393966675e-01,4.133602604269981384e-02,2.527893781661987305e-01,-1.356237977743148804e-01,4.322440922260284424e-02,-8.567432314157485962e-02,1.758066266775131226e-01,-7.659927755594253540e-02,-2.426418475806713104e-02,2.265021391212940216e-02,5.953304935246706009e-03,5.426780786365270615e-03,1.185949519276618958e-01,-6.411928683519363403e-02,-7.535161823034286499e-02,-2.014463692903518677e-01,-2.015519887208938599e-01,-1.448835432529449463e-02,-1.101355403661727905e-01,5.767855420708656311e-02,7.730971276760101318e-02,1.615770757198333740e-01,2.366907894611358643e-01,1.762397885322570801e-01,5.534083768725395203e-02,1.221618801355361938e-01,-7.771605253219604492e-02,-1.268137097358703613e-01,1.419087033718824387e-02,1.189495548605918884e-01,-1.084276288747787476e-01,-9.257335960865020752e-02,1.962089240550994873e-01,6.619949825108051300e-03,1.204627379775047302e-01,-1.513510048389434814e-01,-1.565857380628585815e-01,-2.234844565391540527e-01,4.174610599875450134e-02,2.089764177799224854e-01,1.432544142007827759e-01,-6.486020237207412720e-02
-1.825738102197647095e-01,-1.653381437063217163e-01,7.932237535715103149e-02,-6.331121921539306641e-02,-1.957411020994186401e-01,-9.496783837676048279e-03,1.827586591243743896e-01,-2.036816477775573730e-01,-2.215631157159805298e-01,-2.989125251770019531e-01,-6.025156006217002869e-02,2.474241144955158234e-02,-1.437107473611831665e-01,3.345915973186492920e-01,2.466838359832763672e-01,-5.455173179507255554e-02,-1.716312319040298462e-01,2.231328003108501434e-02,-7.830748707056045532e-02,8.026300370693206787e-02,1.689707934856414795e-01,-1.698325127363204956e-01,3.164435923099517822e-01,8.392958343029022217e-02,3.139327839016914368e-02,1.028268113732337952e-01,-1.145465299487113953e-01,7.476265728473663330e-02,3.936837241053581238e-02,-3.851971123367547989e-03,-3.743063658475875854e-02,6.527590006589889526e-02,2.355049923062324524e-02,1.567613929510116577e-01,3.348292037844657898e-02,-3.048771619796752930e-02,2.059818208217620850e-01,-2.387533187866210938e-01,-5.103198811411857605e-02,-6.654447410255670547e-03,1.822057068347930908e-01,-2.076754160225391388e-02,-7.032866030931472778e-02,-2.575078308582305908e-01,2.827363908290863037e-01,-1.503603253513574600e-02,9.218088537454605103e-02,-8.373504877090454102e-02,-8.851841092109680176e-02,-2.654129266738891602e-01
3.381660878658294678e-01,-6.310033798217773438e-02,-1.212749723345041275e-02,1.732674241065979004e-01,8.415295183658599854e-02,-2.013549357652664185e-01,7.816195487976074219e-02,3.833474963903427124e-02,1.857069879770278931e-01,-1.212597489356994629e-01,8.609861135482788086e-02,-2.082108054310083389e-03,2.418752908706665039e-01,8.568341284990310669e-02,-4.001910611987113953e-02,9.838827699422836304e-02,-4.523281939327716827e-03,-1.365913450717926025e-01,4.373214021325111389e-02,-3.861499577760696411e-02,1.511006206274032593e-01,-1.561926454305648804e-01,-1.856525987386703491e-01,2.704833745956420898e-01,2.728876657783985138e-02,4.715921729803085327e-02,-2.256209105253219604e-01,-3.884645923972129822e-02,8.787178248167037964e-02,-1.916073262691497803e-01,-8.851197361946105957e-02,1.557492762804031372e-01,-8.162562153302133083e-04,1.265549808740615845e-01,1.090030074119567871e-01,9.980511665344238281e-02,-2.010814100503921509e-02,1.027966588735580444e-01,1.692452430725097656e-01,-1.015101373195648193e-01,-8.236604183912277222e-02,1.876571774482727051e-01,-1.372901052236557007e-01,1.142580583691596985e-01,1.586001962423324585e-01,1.601839959621429443e-01,3.516832366585731506e-02,1.257105320692062378e-01,2.882110513746738434e-02,1.427949219942092896e-01
9.114614874124526978e-02,4.018954560160636902e-02,1.697124093770980835e-01,-8.294780552387237549e-02,-3.029848337173461914e-01,1.261481344699859619e-01,-2.232737652957439423e-02,6.575271487236022949e-03,1.170503124594688416e-01,-1.091535761952400208e-01,1.427267342805862427e-01,1.775407493114471436e-01,8.419817686080932617e-02,1.559915370307862759e-03,-2.145821005105972290e-01,-2.699919939041137695e-01,-7.825894653797149658e-02,-2.741742134094238281e-01,-2.312129735946655273e-01,1.244836002588272095e-01,3.027277588844299316e-01,-3.566441684961318970e-02,1.290206164121627808e-01,-2.254745662212371826e-01,-2.604842185974121094e-01,-2.168273925781250000e-01,2.908023297786712646e-01,2.614549994468688965e-01,-1.368855033069849014e-02,6.606031954288482666e-02,-3.629526123404502869e-02,-1.854370683431625366e-01,3.157659173011779785e-01,-3.952762857079505920e-02,2.713836431503295898e-01,7.871535606682300568e-03,-1.233004331588745117e-01,1.123113036155700684e-01,4.769814386963844299e-02,6.695465743541717529e-02,-4.637662786990404129e-03,5.952320992946624756e-02,2.040607482194900513e-01,-1.683589965105056763e-01,2.326236851513385773e-02,2.158433757722377777e-02,1.853852123022079468e-01,3.492490947246551514e-02,2.134657204151153564e-01,-6.393128633499145508e-02
-9.953596442937850952e-02,1.032114252448081970e-01,2.168125063180923462e-01,-1.296011507511138916e-01,2.513768896460533142e-02,1.175544559955596924e-01,-1.113397330045700073e-01,4.955726116895675659e-02,2.812616527080535889e-02,-1.908411979675292969e-01,-6.919866055250167847e-02,6.986252963542938232e-02,-1.671852916479110718e-02,9.497585892677307129e-02,-5.298783257603645325e-02,-2.421325892210006714e-01,1.298495084047317505e-01,5.363138765096664429e-02,-1.670256704092025757e-01,-1.126888617873191833e-01,1.459558214992284775e-02,-2.147492468357086182e-01,1.951698958873748779e-02,1.618694812059402466e-01,2.071559056639671326e-02,1.708040386438369751e-01,1.358746886253356934e-01,-4.696785658597946167e-02,-1.640992239117622375e-02,1.581314355134963989e-01,3.877432346343994141e-01,-2.376825064420700073e-01,-1.324019432067871094e-01,-1.234165802597999573e-01,-6.192617863416671753e-02,2.686749696731567383e-01,1.876962487585842609e-03,-1.625919342041015625e-01,2.349067330360412598e-01,1.153883486986160278e-01,-9.349365532398223877e-02,-1.400926113128662109e-01,-1.732093095779418945e-01,2.037154883146286011e-01,1.952935606241226196e-01,3.456366062164306641e-02,-2.069556564092636108e-01,-1.908584833145141602e-01,1.418913006782531738e-01,-1.803390830755233765e-01
-2.031305730342864990e-01,1.144816800951957703e-01,2.876868546009063721e-01,-2.077536135911941528e-01,-3.350029140710830688e-02,2.942079901695251465e-01,9.917472302913665771e-02,1.497975438833236694e-01,8.525089919567108154e-02,-2.418962121009826660e-01,-1.311512291431427002e-02,1.536018848419189453e-01,9.944465011358261108e-02,2.261110246181488037e-01,1.760969012975692749e-01,2.503807544708251953e-01,6.113427504897117615e-02,-1.274726539850234985e-01,-6.103014200925827026e-02,1.626238673925399780e-01,-1.059321463108062744e-01,-1.277266293764114380e-01,-9.259353578090667725e-02,1.045315861701965332e-01,9.742379933595657349e-02,-7.660605479031801224e-03,-1.740731596946716309e-01,-2.210564762353897095e-01,9.393624961376190186e-02,-7.854311913251876831e-02,-2.930056303739547729e-02,-2.554832994937896729e-01,-1.340022981166839600e-01,1.245367005467414856e-01,9.958241879940032959e-02,-2.506227418780326843e-02,-1.136087998747825623e-01,3.571653366088867188e-02,-1.665840297937393188e-01,1.242101117968559265e-01,1.076446920633316040e-01,1.557172387838363647e-01,-7.241746783256530762e-02,3.678906708955764771e-02,-1.713884435594081879e-02,5.907485261559486389e-02,-1.456021964550018311e-01,1.430814266204833984e-01,5.214144289493560791e-02,1.419000327587127686e-01
7.164257764816284180e-02,7.576849311590194702e-02,-4.106301814317703247e-02,2.451174408197402954e-01,-5.882830917835235596e-02,1.875767409801483154e-01,6.762733310461044312e-02,1.054854840040206909e-01,8.673438429832458496e-02,5.789978057146072388e-02,1.873949617147445679e-01,2.038214504718780518e-01,-9.890477359294891357e-02,1.764834076166152954e-01,1.641412824392318726e-02,-6.837937235832214355e-02,-2.367026209831237793e-01,1.851283386349678040e-02,9.431830607354640961e-03,1.278742700815200806e-01,-1.371096670627593994e-01,-1.817995607852935791e-01,1.965175718069076538e-01,3.641085624694824219e-01,-1.980136930942535400e-01,2.181397527456283569e-01,-1.222048923373222351e-01,-1.754184812307357788e-02,9.048218280076980591e-02,1.293565779924392700e-01,7.342321425676345825e-02,2.411037832498550415e-01,-2.562520653009414673e-02,-5.633577331900596619e-02,2.696002833545207977e-02,-1.279824674129486084e-01,-1.207246258854866028e-01,1.995257437229156494e-01,9.369459748268127441e-02,-4.449324682354927063e-02,2.018630504608154297e-01,4.537291228771209717e-01,-1.516425609588623047e-01,7.106763869524002075e-02,-1.196659281849861145e-01,3.894299864768981934e-01,5.742518696933984756e-03,1.101128384470939636e-02,1.939017325639724731e-02,1.081684008240699768e-01
2.856210172176361084e-01,-1.107662245631217957e-01,-7.248561084270477295e-02,8.358408510684967041e-02,6.325525045394897461e-02,-1.445369869470596313e-01,3.227321058511734009e-02,-7.669534534215927124e-02,-1.855190247297286987e-01,1.232016086578369141e-01,3.132039308547973633e-01,-4.230559989809989929e-02,6.102553755044937134e-02,3.196589648723602295e-02,-3.135689347982406616e-02,-1.482874969951808453e-03,-2.127008885145187378e-01,2.024408727884292603e-01,1.418984681367874146e-01,6.035634130239486694e-02,8.853987604379653931e-02,-9.244263172149658203e-02,-3.754499927163124084e-02,-1.165958493947982788e-02,-2.939073145389556885e-01,-9.996945410966873169e-02,-1.512025594711303711e-01,2.931309342384338379e-01,-6.663434207439422607e-03,-8.087748289108276367e-02,-5.054792854934930801e-03,1.656885743141174316e-01,-3.758495673537254333e-02,-2.386068180203437805e-02,6.266826391220092773e-02,4.333300143480300903e-02,-3.774514049291610718e-02,1.336678266525268555e-01,1.602136343717575073e-01,1.956174671649932861e-01,1.104572564363479614e-01,-1.335015892982482910e-01,1.434333771467208862e-01,4.016691446304321289e-02,-2.012090981006622314e-01,-2.222951650619506836e-01,5.243435129523277283e-02,4.669157788157463074e-02,1.465789135545492172e-02,-2.476734519004821777e-01
6.940718158148229122e-04,1.071009412407875061e-01,-5.031783506274223328e-02,1.729413866996765137e-01,2.342031896114349365e-01,-1.306939423084259033e-01,1.024593040347099304e-01,2.448282577097415924e-02,-2.895887754857540131e-02,8.025919646024703979e-02,-4.108852893114089966e-02,3.951623737812042236e-01,-1.626815646886825562e-01,-2.682727295905351639e-03,-9.974655508995056152e-02,1.874055117368698120e-01,-1.808800250291824341e-01,1.855712532997131348e-01,1.189830526709556580e-01,3.420204296708106995e-02,1.458598393946886063e-02,2.488854527473449707e-01,-4.277756810188293457e-02,-5.713231116533279419e-02,-8.560778200626373291e-02,1.488542407751083374e-01,-4.145009815692901611e-02,-8.417007327079772949e-02,2.545753028243780136e-03,6.822408735752105713e-02,9.177077561616897583e-02,5.377858504652976990e-02,5.171201750636100769e-02,1.453828811645507812e-01,1.938714534044265747e-01,-1.261566728353500366e-01,3.012814372777938843e-02,-1.346104741096496582e-01,-7.347566634416580200e-02,-1.080568581819534302e-01,2.049677222967147827e-01,7.365529984235763550e-02,3.383953273296356201e-01,-2.180186808109283447e-01,3.554771840572357178e-02,-5.489373952150344849e-02,6.333322823047637939e-02,3.004829883575439453e-01,-1.073356438428163528e-02,2.439845651388168335e-01
5.542634427547454834e-02,-3.050519227981567383e-01,2.113620191812515259e-01,-1.417409330606460571e-01,-8.559702336788177490e-02,6.205458939075469971e-02,-9.591209702193737030e-03,-7.987651973962783813e-02,-1.769876331090927124e-01,2.296628989279270172e-02,1.471559554338455200e-01,1.279753893613815308e-01,-3.157747909426689148e-02,-1.392464637756347656e-01,9.116026759147644043e-02,1.374215036630630493e-01,1.994805037975311279e-02,-7.106576114892959595e-02,-1.920434385538101196e-01,1.827419251203536987e-01,2.006361931562423706e-01,2.605610713362693787e-02,1.294905990362167358e-01,8.192207664251327515e-02,-8.579365909099578857e-02,-1.304129362106323242e-01,3.482962772250175476e-02,1.922820210456848145e-01,9.139046818017959595e-02,3.195060044527053833e-02,-3.197768628597259521e-01,4.548089951276779175e-02,1.389166861772537231e-01,-1.607232540845870972e-01,-1.235364824533462524e-01,1.878743618726730347e-01,3.344735503196716309e-02,-1.547152642160654068e-02,2.257930785417556763e-01,2.591977715492248535e-01,-2.944657802581787109e-01,1.738443970680236816e-01,1.782161891460418701e-01,5.331714823842048645e-02,2.055200338363647461e-01,2.112653851509094238e-01,-3.380443202331662178e-03,-2.807584404945373535e-01,-3.003996610641479492e-01,-2.019381225109100342e-01
-3.607823550701141357e-01,2.071495503187179565e-01,-2.043282389640808105e-01,4.993319883942604065e-02,-9.278791258111596107e-04,1.768576330505311489e-03,2.276012450456619263e-01,-1.103477180004119873e-02,-1.466343998908996582e-01,1.227769106626510620e-01,-1.771072298288345337e-01,1.274171024560928345e-01,1.282414942979812622e-01,2.117918245494365692e-02,2.583009004592895508e-01,2.918004803359508514e-02,1.573696136474609375e-01,3.770467301364988089e-04,1.517009176313877106e-02,1.717839986085891724e-01,-1.661390811204910278e-01,7.376127690076828003e-02,7.414019107818603516e-02,1.374983042478561401e-01,3.091444373130798340e-01,8.161885291337966919e-02,1.252636872231960297e-02,1.221691071987152100e-01,1.810198724269866943e-01,-1.008103340864181519e-01,1.351295411586761475e-01,9.353104978799819946e-02,-7.578636705875396729e-02,2.292742580175399780e-02,1.474818736314773560e-01,-1.998035982251167297e-02,-1.064204960130155087e-03,-6.726520508527755737e-02,-7.618214935064315796e-02,-7.494409382343292236e-02,-1.656506657600402832e-01,1.610655486583709717e-01,1.987678110599517822e-01,3.087969683110713959e-02,3.498065844178199768e-02,1.898708045482635498e-01,1.990198045969009399e-01,2.085140943527221680e-01,-6.156125664710998535e-02,-9.139652550220489502e-02
-1.607378125190734863e-01,6.584960222244262695e-02,-1.745279282331466675e-01,-7.878360152244567871e-02,7.326754275709390640e-03,7.502407580614089966e-02,-5.648298934102058411e-02,9.611294418573379517e-02,-1.660091727972030640e-01,5.631840601563453674e-02,1.026067361235618591e-01,-8.308081887662410736e-03,-2.263563126325607300e-02,-7.553578168153762817e-02,2.041943520307540894e-01,-6.915438175201416016e-02,4.856689833104610443e-03,-8.410636335611343384e-02,-4.555700421333312988e-01,1.269169449806213379e-01,-3.015256226062774658e-01,-2.536735534667968750e-01,-6.768440455198287964e-02,-1.682982593774795532e-02,-2.972068488597869873e-01,9.919814020395278931e-02,1.636225879192352295e-01,1.347472667694091797e-01,6.825233250856399536e-02,2.085891664028167725e-01,5.867832899093627930e-02,1.428169906139373779e-01,-1.301468610763549805e-01,-1.096371337771415710e-01,-1.818998754024505615e-01,7.223170995712280273e-02,-1.931439898908138275e-02,2.383313626050949097e-01,-5.840989947319030762e-02,3.801339864730834961e-02,1.132309660315513611e-01,-1.210833317600190639e-03,-9.209211915731430054e-02,-9.940256178379058838e-02,2.933563105762004852e-02,5.058041214942932129e-02,-1.093826889991760254e-01,-3.446587324142456055e-01,-1.551359742879867554e-01,-2.002510428428649902e-01
-2.092582285404205322e-01,-1.506000608205795288e-01,-1.654889285564422607e-01,5.673589929938316345e-02,9.917894005775451660e-02,8.751238696277141571e-03,2.994207106530666351e-02,-4.220583289861679077e-02,4.803483188152313232e-02,2.267029136419296265e-01,2.471127361059188843e-01,5.208995193243026733e-02,-1.544099897146224976e-01,2.241403795778751373e-02,2.885095477104187012e-01,2.325554341077804565e-01,-1.424066871404647827e-01,-3.930735867470502853e-03,-1.837485730648040771e-01,-2.979715466499328613e-01,9.930410236120223999e-02,1.654548197984695435e-02,2.254539132118225098e-01,-2.238804101943969727e-01,-2.820186614990234375e-01,1.355176568031311035e-01,1.853433251380920410e-01,8.873204886913299561e-02,5.575447529554367065e-02,-4.689520597457885742e-02,-2.375899404287338257e-01,-5.112238228321075439e-03,-7.344502210617065430e-02,1.664701402187347412e-01,-9.846268594264984131e-02,-1.169328391551971436e-01,-1.660592406988143921e-01,-2.258359640836715698e-01,-2.197005897760391235e-01,-1.024878993630409241e-01,-1.553424894809722900e-01,-1.972292214632034302e-01,6.175579503178596497e-02,-6.027225777506828308e-02,-1.379886716604232788e-01,3.847537189722061157e-02,1.650220155715942383e-01,1.268424093723297119e-01,-6.072322279214859009e-02,2.076044231653213501e-01
-9.570342302322387695e-02,1.188389137387275696e-01,-6.008472666144371033e-02,-9.429225325584411621e-02,1.300459802150726318e-01,-4.009386152029037476e-02,5.210539698600769043e-02,-1.150940656661987305e-01,-5.565812438726425171e-02,-4.220272600650787354e-01,-5.409681424498558044e-02,3.402794897556304932e-02,-4.127468913793563843e-02,1.585839986801147461e-01,2.588714659214019775e-01,1.266930252313613892e-01,1.688593327999114990e-01,-8.297238498926162720e-03,-1.796818971633911133e-01,-1.523571908473968506e-01,-1.546971350908279419e-01,1.974276602268218994e-01,1.453032195568084717e-01,-1.264467984437942505e-01,-2.734459638595581055e-01,-6.092348136007785797e-03,6.162423267960548401e-02,-5.551509931683540344e-02,-1.708677113056182861e-01,2.735356427729129791e-02,-1.116084530949592590e-01,1.772272884845733643e-01,4.351064562797546387e-02,-1.075819600373506546e-02,3.202705644071102142e-03,-8.376821875572204590e-02,-4.732815176248550415e-02,2.182677537202835083e-01,-9.125101566314697266e-02,9.863077104091644287e-02,1.752861738204956055e-01,1.148468703031539917e-01,-2.862059324979782104e-02,-3.450771570205688477e-01,1.196695715188980103e-01,-9.711010009050369263e-02,-1.840893179178237915e-01,5.805737152695655823e-02,2.285248972475528717e-02,3.085267543792724609e-02
