-5.691235885024070740e-02,3.241491690278053284e-02,-1.631231158971786499e-01,-1.146014034748077393e-01,-2.096085697412490845e-01,2.187264561653137207e-01,-1.471077203750610352e-01,-2.694323286414146423e-02,-1.352675855159759521e-01,2.468944936990737915e-01,-1.426828503608703613e-01,-3.841078653931617737e-02,-3.065331839025020599e-02,2.194503992795944214e-01,2.701838873326778412e-02,-5.140070989727973938e-02,-7.490093261003494263e-02,3.284480869770050049e-01,-1.501480340957641602e-01,-1.236314512789249420e-02,2.440543025732040405e-01,-1.689659655094146729e-01,1.256756782531738281e-01,-1.959623694419860840e-01,-2.381940372288227081e-02,5.280723050236701965e-02,2.681552469730377197e-01,2.441786378622055054e-01,-1.053625941276550293e-01,-1.304120719432830811e-01,2.036046087741851807e-01,-3.977077547460794449e-03,3.187508136034011841e-02,-2.316329479217529297e-01,7.613559812307357788e-02,-1.629096567630767822e-01,-9.393949992954730988e-03,2.118495702743530273e-01,-2.426996380090713501e-01,-9.034286439418792725e-02,6.619822233915328979e-02,1.026427298784255981e-01,3.109665513038635254e-01,-1.326297819614410400e-01,-1.682214885950088501e-01,-1.843157708644866943e-01,2.163798362016677856e-01,2.670051455497741699e-01,-3.562337532639503479e-02,-3.127560392022132874e-02
1.190785542130470276e-01,7.736031711101531982e-02,-2.532483637332916260e-01,6.555780768394470215e-02,-1.254400461912155151e-01,-1.078744046390056610e-02,-4.236983060836791992e-01,-1.542490869760513306e-01,1.803866005502641201e-03,-1.390889734029769897e-01,-1.048707515001296997e-01,2.530325353145599365e-01,-1.474691368639469147e-02,-1.360042393207550049e-01,-1.184574365615844727e-01,-2.739166617393493652e-01,-6.256927549839019775e-02,1.861595362424850464e-01,2.501159608364105225e-01,9.917319566011428833e-02,-2.609965503215789795e-01,-8.114229142665863037e-02,-2.262769490480422974e-01,-1.418037265539169312e-01,1.580185629427433014e-02,2.195632308721542358e-01,7.617077231407165527e-02,1.375580430030822754e-01,-1.602584123611450195e-01,-5.190566182136535645e-02,-1.053775399923324585e-01,2.988702952861785889e-01,-8.174686878919601440e-02,-2.744444906711578369e-01,1.932218670845031738e-01,2.352701872587203979e-01,1.475758291780948639e-02,-2.353036105632781982e-01,1.176476255059242249e-01,2.102374732494354248e-01,-1.444845497608184814e-01,1.502054482698440552e-01,-1.584563851356506348e-01,3.787178546190261841e-02,-1.447561085224151611e-01,6.621654331684112549e-02,9.923373907804489136e-02,-1.155347749590873718e-01,3.014929592609405518e-01,-9.075323492288589478e-02
-2.648964226245880127e-01,3.307759463787078857e-01,-1.346384882926940918e-01,-1.000421941280364990e-01,2.457122504711151123e-01,-1.288353353738784790e-01,2.553164362907409668e-01,1.671575009822845459e-01,1.899478733539581299e-01,2.026368677616119385e-01,-1.427295804023742676e-01,1.233516931533813477e-01,9.020929783582687378e-02,1.440802365541458130e-01,3.023692965507507324e-01,-2.786165177822113037e-01,-8.648641407489776611e-02,-8.578293956816196442e-03,-1.383364200592041016e-01,-2.303098738193511963e-01,-3.398316726088523865e-02,2.176051959395408630e-03,3.696745960041880608e-03,-1.873083114624023438e-01,1.992941349744796753e-01,1.298913508653640747e-01,-1.389804761856794357e-02,-1.483221799135208130e-01,-4.503631219267845154e-02,5.495548248291015625e-02,1.498135086148977280e-02,2.300320267677307129e-01,-1.344063878059387207e-01,-1.060723885893821716e-01,-1.231053769588470459e-01,-6.147876381874084473e-02,2.036605775356292725e-01,-1.202964708209037781e-01,-1.090775802731513977e-01,-5.415585637092590332e-02,-4.543160200119018555e-01,2.377274036407470703e-01,3.025862015783786774e-02,-8.180859684944152832e-02,-1.931237801909446716e-02,4.458302259445190430e-02,-1.292830705642700195e-01,2.114405669271945953e-02,1.527722477912902832e-01,-7.403010129928588867e-02
-9.790226817131042480e-02,5.288640037178993225e-02,2.189228683710098267e-01,-1.148264482617378235e-01,-1.761764585971832275e-01,1.891569644212722778e-01,3.545578941702842712e-02,4.334032163023948669e-02,1.405422091484069824e-01,-2.879088371992111206e-02,2.205763943493366241e-02,4.053495649714022875e-05,-1.451780647039413452e-01,8.005574345588684082e-02,-2.599135227501392365e-02,4.517102614045143127e-02,1.140569895505905151e-01,-2.329714000225067139e-01,-1.763694584369659424e-01,7.523769047111272812e-03,-6.469728052616119385e-02,6.369838863611221313e-02,-8.759222924709320068e-02,-4.860877245664596558e-02,7.163789868354797363e-02,9.574277698993682861e-02,1.321347355842590332e-01,3.383144363760948181e-02,-2.539657950401306152e-01,1.340788453817367554e-01,-3.067827410995960236e-02,1.224559769034385681e-01,1.499182581901550293e-01,7.962401956319808960e-02,2.105101197957992554e-01,-5.674762651324272156e-02,-1.120052766054868698e-02,4.385326465126127005e-04,-1.926326900720596313e-01,5.852189287543296814e-02,-2.404140867292881012e-02,1.184373870491981506e-01,-1.207199320197105408e-02,1.648340374231338501e-01,1.729669272899627686e-01,-2.127097994089126587e-01,1.265139430761337280e-01,-1.408432573080062866e-01,-5.928381159901618958e-02,-1.356543600559234619e-01
