7.488626241683959961e-02,1.509845852851867676e-01,-4.329695552587509155e-02,7.577303051948547363e-02,1.697498559951782227e-01,8.446853607892990112e-03,-6.829930841922760010e-02,-1.519336551427841187e-01,-1.949684023857116699e-01,-1.609407179057598114e-02,-6.298292428255081177e-02,-1.692979037761688232e-02,-1.880218461155891418e-02,1.363774240016937256e-01,-2.825620174407958984e-01,-1.824237555265426636e-01,-1.418758332729339600e-01,-7.654415816068649292e-02,-1.699901670217514038e-01,1.728903204202651978e-01,8.068212866783142090e-02,3.940925002098083496e-02,-7.682023197412490845e-02,-1.615639775991439819e-01,2.313973158597946167e-01,1.845283508300781250e-01,-1.229063421487808228e-02,-1.178826168179512024e-01,1.065227985382080078e-01,-1.360489875078201294e-01,-8.132500946521759033e-02,-2.008813619613647461e-01,-2.697299234569072723e-02,-5.341739580035209656e-02,3.633259236812591553e-01,-1.826132088899612427e-01,8.202387019991874695e-03,-2.492418326437473297e-02,2.940935641527175903e-02,-2.595517635345458984e-01,2.119746655225753784e-01,1.897368431091308594e-01,6.727333366870880127e-02,6.271622329950332642e-02,-1.006734669208526611e-01,1.539517492055892944e-01,3.124876022338867188e-01,1.872329860925674438e-01,1.516130864620208740e-01,2.849949896335601807e-01
1.584176719188690186e-01,4.878633841872215271e-02,-1.855360716581344604e-01,7.778833806514739990e-02,-1.971581131219863892e-01,-2.064673751592636108e-01,2.080388516187667847e-01,-2.724744677543640137e-01,2.731996178627014160e-01,-1.077972427010536194e-01,3.315131738781929016e-02,1.583137363195419312e-01,1.925364881753921509e-01,6.045538000762462616e-03,-1.372718364000320435e-01,1.301997452974319458e-01,-2.003754973411560059e-01,9.911163896322250366e-02,-2.649886719882488251e-02,-2.127444446086883545e-01,1.120165735483169556e-01,-1.886917948722839355e-01,1.450807899236679077e-01,-1.194396018981933594e-01,9.446526318788528442e-02,1.448847204446792603e-01,2.047116160392761230e-01,1.567428857088088989e-01,5.352478101849555969e-02,-5.380935221910476685e-02,-2.544054090976715088e-01,1.674394607543945312e-01,-2.364040613174438477e-01,4.123627766966819763e-02,1.605874001979827881e-01,-1.772717982530593872e-01,-2.769026532769203186e-02,3.206906840205192566e-02,-1.237541958689689636e-01,1.696798764169216156e-02,9.446828812360763550e-02,2.014852762222290039e-01,-4.622481390833854675e-02,-1.443933248519897461e-01,2.553504705429077148e-01,2.457149624824523926e-01,2.086899727582931519e-01,2.136694341897964478e-01,-5.456706508994102478e-02,4.604620113968849182e-02
-2.523460611701011658e-02,1.973301172256469727e-01,2.317935377359390259e-01,1.390423178672790527e-01,1.061263903975486755e-01,1.847747564315795898e-01,1.467454433441162109e-01,2.481378987431526184e-02,7.855886220932006836e-02,-2.153180539608001709e-01,2.157791256904602051e-01,1.422775536775588989e-01,1.060072034597396851e-01,1.564040482044219971e-01,9.784501791000366211e-02,1.156548187136650085e-01,-2.103330641984939575e-01,-2.378255687654018402e-02,7.550075650215148926e-02,3.835893422365188599e-02,8.126113563776016235e-02,1.326736342161893845e-02,5.710799247026443481e-02,4.564718157052993774e-02,1.153482422232627869e-01,-1.915535032749176025e-01,-1.032664719969034195e-02,-1.904304772615432739e-01,1.268606334924697876e-01,-1.841338872909545898e-01,-4.242421686649322510e-02,1.589171141386032104e-01,-1.289053540676832199e-02,-8.399976789951324463e-02,3.043399378657341003e-02,7.727081328630447388e-02,-1.977357715368270874e-01,-1.306130588054656982e-01,-1.999846398830413818e-01,6.683758459985256195e-03,4.702104628086090088e-02,1.124472618103027344e-01,2.205213904380798340e-01,9.646832942962646484e-02,2.696124315261840820e-01,4.126130789518356323e-02,1.127485632896423340e-01,-1.341501176357269287e-01,1.415378749370574951e-01,6.055352464318275452e-02
6.443090736865997314e-02,7.756631076335906982e-02,-4.305837750434875488e-01,1.091909334063529968e-01,-1.705604195594787598e-01,-2.884832024574279785e-01,9.068290889263153076e-02,-8.456570655107498169e-02,2.685373127460479736e-01,-7.157738436944782734e-04,1.645325124263763428e-01,-3.924277424812316895e-02,4.583200439810752869e-02,2.316752970218658447e-01,-1.208737306296825409e-02,2.127775549888610840e-02,1.997248083353042603e-02,-1.821228712797164917e-01,7.249841094017028809e-02,2.932876944541931152e-01,1.588798314332962036e-01,1.694507747888565063e-01,-1.433776505291461945e-02,-1.457390636205673218e-01,3.115092515945434570e-01,-1.973752677440643311e-01,-1.312466412782669067e-01,-7.706179283559322357e-03,1.083283349871635437e-01,1.615503281354904175e-01,-7.642773538827896118e-02,-8.925189077854156494e-02,-2.424166053533554077e-01,-2.352663129568099976e-01,7.849368453025817871e-02,1.087127700448036194e-01,-4.037012755870819092e-01,-8.142679929733276367e-02,-2.507340908050537109e-02,-6.178631260991096497e-02,1.525096595287322998e-01,-2.329222410917282104e-01,-2.887862026691436768e-01,1.440632194280624390e-01,-5.871153250336647034e-02,-8.702301979064941406e-02,-5.463951081037521362e-02,2.150835692882537842e-01,-3.930242359638214111e-02,-2.769303694367408752e-02
2.283304482698440552e-01,-1.257435679435729980e-01,1.604761034250259399e-01,1.073222607374191284e-01,3.505531549453735352e-01,-1.488382220268249512e-01,-2.595127820968627930e-01,2.204554229974746704e-01,-1.290826313197612762e-02,-1.876151859760284424e-01,-2.091108560562133789e-01,-2.225397974252700806e-01,1.236215531826019287e-01,-2.094451934099197388e-01,2.964170277118682861e-01,1.105708777904510498e-01,-1.701756566762924194e-02,4.405931383371353149e-02,1.436204761266708374e-01,3.956093639135360718e-02,-1.361347269266843796e-02,1.962489187717437744e-01,-9.305012226104736328e-02,-2.676797658205032349e-02,1.069612577557563782e-01,1.006136164069175720e-01,3.549062311649322510e-01,-1.789806932210922241e-01,1.789478808641433716e-01,-2.216281741857528687e-01,-9.227148443460464478e-02,8.756740391254425049e-02,1.091328486800193787e-01,4.482069611549377441e-02,-2.426084727048873901e-01,6.897543370723724365e-02,9.350232779979705811e-02,9.906428307294845581e-02,7.143875956535339355e-02,-2.423424273729324341e-01,-2.666595876216888428e-01,-4.198515415191650391e-02,-2.066648304462432861e-01,-5.253188684582710266e-02,-2.734375894069671631e-01,-3.113534450531005859e-01,1.275698989629745483e-01,1.659924164414405823e-02,2.460084110498428345e-01,-2.388410968706011772e-03
1.313870656304061413e-03,-2.358939796686172485e-01,1.013672575354576111e-01,-1.722287572920322418e-02,7.581875473260879517e-02,1.314984560012817383e-01,-1.327198296785354614e-01,1.427144259214401245e-01,1.454766690731048584e-01,1.912958323955535889e-01,1.793144643306732178e-01,1.055384799838066101e-01,1.509359627962112427e-01,-9.304181486368179321e-02,-2.816159129142761230e-01,1.761524379253387451e-01,-1.374847292900085449e-01,2.182249575853347778e-01,6.974195688962936401e-02,1.923415958881378174e-01,7.610867172479629517e-02,2.000324130058288574e-01,1.991619020700454712e-01,1.298158168792724609e-01,6.196765974164009094e-02,8.383595198392868042e-02,-3.550684452056884766e-02,-2.233476936817169189e-01,1.557627916336059570e-01,-2.570425271987915039e-01,-6.884551793336868286e-02,1.446190476417541504e-01,2.237921394407749176e-02,1.259277462959289551e-01,-1.226427257061004639e-01,-1.360281463712453842e-02,-1.502467598766088486e-02,-6.068135052919387817e-02,3.224819898605346680e-01,1.379340589046478271e-01,2.411242872476577759e-01,1.898533403873443604e-01,3.963530436158180237e-02,-8.211324363946914673e-02,-9.246728569269180298e-02,-9.214424341917037964e-02,-1.878557652235031128e-01,-1.352297961711883545e-01,-1.032470315694808960e-01,2.589319646358489990e-02
1.630383580923080444e-01,9.460616111755371094e-02,-1.618527323007583618e-01,-1.417805850505828857e-01,1.235807612538337708e-01,-1.221145968884229660e-02,1.055865734815597534e-01,2.780374586582183838e-01,-1.133929565548896790e-01,3.718328103423118591e-02,1.675613075494766235e-01,-3.265003263950347900e-01,2.492096833884716034e-02,2.219661325216293335e-01,-1.890544779598712921e-02,1.165266111493110657e-01,-1.516285091638565063e-01,-3.208598867058753967e-02,3.064974956214427948e-02,-2.239797860383987427e-01,-8.004768937826156616e-02,1.903992593288421631e-01,1.483035236597061157e-01,-1.356563419103622437e-01,-1.186833232641220093e-01,-1.796568483114242554e-01,1.600906997919082642e-02,1.168173402547836304e-01,1.755909994244575500e-02,-2.040481567382812500e-01,-9.490109980106353760e-02,-2.161836028099060059e-01,1.313575357198715210e-01,7.757095992565155029e-02,-2.073517143726348877e-01,-2.117484509944915771e-01,-1.533555835485458374e-01,-4.644481092691421509e-02,-5.972199887037277222e-02,2.633449435234069824e-01,4.950555413961410522e-02,1.432148814201354980e-01,-8.759676665067672729e-02,1.953532546758651733e-01,-1.740452200174331665e-01,-1.069913432002067566e-01,2.491937130689620972e-01,-2.825944218784570694e-03,-8.938249666243791580e-04,-5.323694646358489990e-02
1.827757209539413452e-01,-3.448500037193298340e-01,-5.288702994585037231e-02,-6.489302217960357666e-02,7.191340625286102295e-02,5.083209276199340820e-02,-1.065194532275199890e-01,-1.534760892391204834e-01,-1.249429117888212204e-02,-3.308088332414627075e-02,-1.851914227008819580e-01,-1.245453879237174988e-01,1.370163112878799438e-01,-1.353601692244410515e-03,2.502391338348388672e-01,1.067210510373115540e-01,1.083525344729423523e-01,-6.784544140100479126e-02,1.974085569381713867e-01,2.301429361104965210e-01,-1.418326497077941895e-01,1.092452704906463623e-01,1.159258261322975159e-01,-1.659234762191772461e-01,-1.280391365289688110e-01,-1.284621953964233398e-01,-6.291652470827102661e-02,-4.004486277699470520e-02,-5.568008124828338623e-02,1.324150711297988892e-01,8.258797973394393921e-02,-1.180962100625038147e-01,1.685838848352432251e-01,-1.154079139232635498e-01,6.028901785612106323e-02,-2.199897766113281250e-01,-1.397772878408432007e-01,-1.746508777141571045e-01,-7.822080701589584351e-02,1.776639558374881744e-02,-1.217802688479423523e-01,-1.665155030786991119e-02,2.926747798919677734e-01,-1.429413408041000366e-01,-5.103393923491239548e-03,1.829607188701629639e-01,1.630039513111114502e-01,-2.269359230995178223e-01,-1.736467182636260986e-01,-2.316997945308685303e-01
-7.469990104436874390e-02,-7.961451262235641479e-02,5.300614237785339355e-02,-1.598664075136184692e-01,-9.366487711668014526e-02,-2.847601175308227539e-01,-1.097547784447669983e-01,-3.257916569709777832e-01,-1.219655945897102356e-01,-2.884830161929130554e-02,1.218689903616905212e-01,8.246698975563049316e-02,-1.237831041216850281e-01,-9.366557747125625610e-02,-2.235868871212005615e-01,1.284559369087219238e-01,-1.614078283309936523e-01,-2.855959236621856689e-01,-4.883306100964546204e-02,2.067350000143051147e-01,-1.553528308868408203e-01,1.046581938862800598e-01,2.024638354778289795e-01,-8.823213167488574982e-03,-1.081443056464195251e-01,1.826081126928329468e-01,5.747742578387260437e-02,-1.105465590953826904e-01,2.059918083250522614e-02,1.253235042095184326e-01,-2.978218495845794678e-01,-1.927231699228286743e-01,-1.717116534709930420e-01,-2.570193707942962646e-01,-1.627498120069503784e-02,-8.288124203681945801e-02,-2.159378230571746826e-01,1.665658652782440186e-01,-1.849617063999176025e-01,1.261073201894760132e-01,6.748055666685104370e-02,-1.171447038650512695e-01,-6.646396219730377197e-02,1.964869648218154907e-01,2.039478570222854614e-01,1.279359757900238037e-01,2.214579880237579346e-01,-1.328855603933334351e-01,2.490628957748413086e-01,6.487271934747695923e-02
-1.874560117721557617e-01,4.336514323949813843e-02,-1.584931463003158569e-01,-4.021192342042922974e-02,1.032749563455581665e-01,8.117382973432540894e-02,-1.636130511760711670e-01,1.161952316761016846e-01,1.735266894102096558e-01,-2.069577574729919434e-01,1.638854891061782837e-01,9.146217256784439087e-02,-1.764600425958633423e-01,5.446148291230201721e-02,-3.212387859821319580e-02,-2.461259067058563232e-01,1.274464428424835205e-01,-5.003065988421440125e-02,1.525679510086774826e-02,1.491035073995590210e-01,6.940354593098163605e-03,8.942272514104843140e-02,1.354772746562957764e-01,1.219011321663856506e-01,5.398451164364814758e-02,9.816927462816238403e-02,2.579622268676757812e-01,3.139534294605255127e-01,1.537066996097564697e-01,-4.125168174505233765e-02,-5.167767032980918884e-02,5.029463768005371094e-02,-9.902335703372955322e-02,1.258399933576583862e-01,2.862976491451263428e-01,1.427128538489341736e-02,-1.173588782548904419e-01,1.262205392122268677e-01,2.025978416204452515e-01,2.565105557441711426e-01,-2.055048346519470215e-01,2.378724366426467896e-01,8.197719603776931763e-02,9.533783048391342163e-02,1.675684899091720581e-01,5.675128474831581116e-02,2.847808003425598145e-01,8.774217218160629272e-02,1.394209265708923340e-01,-5.632057040929794312e-02
-1.080967932939529419e-01,8.462643623352050781e-02,-4.037635400891304016e-02,1.962878406047821045e-01,-2.229870557785034180e-01,-1.369466334581375122e-01,-3.135584667325019836e-02,-2.138519138097763062e-01,-8.110787719488143921e-02,-5.644000321626663208e-02,-6.258336454629898071e-02,-1.980722509324550629e-02,-1.371939480304718018e-01,-9.765820205211639404e-02,-3.327306360006332397e-02,9.336248785257339478e-02,8.141843229532241821e-02,2.506260573863983154e-02,-1.830411609262228012e-03,2.325693145394325256e-02,1.427767705172300339e-02,-1.356715150177478790e-02,1.443890929222106934e-01,1.417438387870788574e-01,5.432558059692382812e-02,2.214402146637439728e-02,-1.172649115324020386e-02,3.227902650833129883e-01,1.096385624259710312e-02,1.714241653680801392e-01,7.346346229314804077e-02,-8.354981988668441772e-02,8.789706975221633911e-02,-1.021584644913673401e-01,-1.909540146589279175e-01,4.426185972988605499e-03,-1.748446971178054810e-01,-4.929100349545478821e-02,-2.714973874390125275e-02,1.781452298164367676e-01,1.727998554706573486e-01,1.476259529590606689e-01,-4.037556424736976624e-02,-2.436608076095581055e-01,-1.904300898313522339e-01,1.394692957401275635e-01,1.349493712186813354e-01,5.496191978454589844e-02,1.061642318964004517e-01,-9.392014890909194946e-02
3.007312491536140442e-02,1.811576187610626221e-01,-5.708116292953491211e-02,-1.725849956274032593e-01,-1.289023756980895996e-01,1.139979064464569092e-01,8.108098991215229034e-03,-5.000585317611694336e-02,6.578250974416732788e-02,-3.995188772678375244e-01,-1.271969377994537354e-01,4.268900677561759949e-02,-1.134098786860704422e-02,8.747763931751251221e-02,-1.013198569416999817e-01,6.748134642839431763e-02,-2.013530880212783813e-01,-2.614125311374664307e-01,2.164009958505630493e-01,-5.789092928171157837e-02,2.286312542855739594e-02,8.190021663904190063e-02,-8.864992111921310425e-02,-7.347872108221054077e-02,1.467118412256240845e-01,1.701566278934478760e-01,-2.588966162875294685e-03,2.780982255935668945e-01,-1.323863863945007324e-01,-1.409737765789031982e-01,9.607622772455215454e-02,1.105407625436782837e-01,1.251724511384963989e-01,4.404318705201148987e-02,-2.858635187149047852e-01,2.883672015741467476e-03,2.040376961231231689e-01,2.817009389400482178e-02,1.528273988515138626e-02,1.683439761400222778e-01,-1.128808781504631042e-01,-1.651280075311660767e-01,-8.872039616107940674e-02,-1.321917474269866943e-01,1.386353969573974609e-01,9.283332526683807373e-02,5.311661399900913239e-03,-1.412027776241302490e-01,2.233532369136810303e-01,-1.543182283639907837e-01
-7.941594719886779785e-02,3.990581259131431580e-02,8.009234815835952759e-02,-1.934508830308914185e-01,5.056179594248533249e-03,4.290277510881423950e-02,-1.052403748035430908e-01,-6.869098544120788574e-02,2.734022215008735657e-02,-9.172727167606353760e-02,1.391349881887435913e-01,3.202066943049430847e-02,-1.307270303368568420e-02,-2.019107788801193237e-01,-1.856032758951187134e-02,6.707362830638885498e-02,1.658143848180770874e-01,1.181727573275566101e-01,-7.311821728944778442e-02,2.406094782054424286e-02,4.898673668503761292e-02,-1.085395887494087219e-01,-3.250105977058410645e-01,-4.235691577196121216e-02,1.444440037012100220e-01,-1.247143968939781189e-01,-3.947013989090919495e-02,-9.915769100189208984e-02,1.143342852592468262e-01,-2.208577841520309448e-02,-6.475819647312164307e-02,-3.038081340491771698e-02,7.871110923588275909e-03,1.987873762845993042e-01,5.425836890935897827e-02,2.509991526603698730e-01,1.240795403718948364e-01,-1.651055216789245605e-01,-4.255130887031555176e-02,-1.185329928994178772e-01,-6.503042578697204590e-02,1.757892817258834839e-01,-1.101813763380050659e-01,2.687317878007888794e-02,-2.337668091058731079e-01,2.287230789661407471e-01,-8.385600894689559937e-02,-2.334222346544265747e-01,9.405633062124252319e-02,7.788995653390884399e-02
1.069097667932510376e-01,1.703946292400360107e-01,-1.780882664024829865e-02,1.255402714014053345e-01,5.537275969982147217e-02,-1.675991341471672058e-02,4.463341087102890015e-03,1.688986271619796753e-02,1.405876725912094116e-01,1.118119582533836365e-01,-4.255685582756996155e-02,-1.583239585161209106e-01,-1.612919867038726807e-01,-7.327928394079208374e-02,2.234698683023452759e-01,-2.106864005327224731e-01,9.701748192310333252e-02,-1.033583730459213257e-01,5.397034436464309692e-02,-1.014421656727790833e-01,-1.743331402540206909e-01,-2.143665254116058350e-01,-9.882424026727676392e-02,2.244068980216979980e-01,1.650334298610687256e-01,3.135614991188049316e-01,5.740113556385040283e-02,1.352757066488265991e-01,-1.409819722175598145e-01,-1.236196681857109070e-01,-1.813168972730636597e-01,1.832266300916671753e-01,9.865454584360122681e-02,-8.724901825189590454e-02,-7.888612896203994751e-02,1.022145897150039673e-01,-2.376117743551731110e-02,-4.345914721488952637e-02,1.108866259455680847e-01,1.652643829584121704e-01,1.682566404342651367e-01,-4.012116789817810059e-02,3.479651734232902527e-02,-1.766082048416137695e-01,7.724605500698089600e-02,1.156156659126281738e-01,1.127982139587402344e-01,-1.624819189310073853e-01,1.086476966738700867e-01,3.639658391475677490e-01
2.253320515155792236e-01,2.628793716430664062e-01,-5.098696053028106689e-02,-2.812775671482086182e-01,-1.938635110855102539e-01,-4.244319722056388855e-02,-9.503171592950820923e-02,-1.381469368934631348e-01,-1.056049913167953491e-01,-2.826584279537200928e-01,-1.177424099296331406e-02,1.605837643146514893e-01,1.007810086011886597e-01,6.889972090721130371e-02,1.752041876316070557e-01,-1.507607102394104004e-01,6.607511080801486969e-03,-2.519757114350795746e-02,-2.661375701427459717e-01,1.567085087299346924e-01,1.386538892984390259e-01,-9.930958971381187439e-03,-2.483195438981056213e-02,1.868996918201446533e-01,9.450138313695788383e-04,1.872003525495529175e-01,-3.633916005492210388e-02,-7.977051287889480591e-02,-1.445520669221878052e-01,-2.840184867382049561e-01,1.358240395784378052e-01,6.267604231834411621e-02,-1.904712766408920288e-01,-9.494005888700485229e-02,-1.227530390024185181e-01,9.897400438785552979e-02,-2.228878624737262726e-02,-1.640573740005493164e-01,-5.028705671429634094e-02,8.505523949861526489e-02,-1.599923819303512573e-01,4.398882761597633362e-02,7.355715148150920868e-03,2.141952663660049438e-01,9.881396777927875519e-03,-1.151220574975013733e-01,-2.461625486612319946e-01,-1.280791461467742920e-01,4.343414306640625000e-01,-2.522805146872997284e-02
-1.558900475502014160e-01,1.201598271727561951e-01,2.983329631388187408e-02,1.253524515777826309e-02,1.940271109342575073e-01,-1.555598825216293335e-01,1.010922193527221680e-01,4.495830833911895752e-01,-1.699277907609939575e-01,5.987891927361488342e-03,-1.088704168796539307e-01,-1.780963987112045288e-01,-2.712468206882476807e-01,1.661286652088165283e-01,-2.851003706455230713e-01,1.966754496097564697e-01,-2.372957468032836914e-01,-1.570733189582824707e-01,1.574023663997650146e-01,1.316272020339965820e-01,3.630153834819793701e-02,1.060019880533218384e-01,3.415660560131072998e-02,2.779174037277698517e-02,1.868365257978439331e-01,6.569933146238327026e-02,9.943004697561264038e-02,-6.945670396089553833e-02,-1.003356873989105225e-01,-3.698331490159034729e-02,2.764840126037597656e-01,2.687394246459007263e-02,-5.603363737463951111e-02,2.637679874897003174e-01,-2.979828417301177979e-01,-3.387777134776115417e-02,1.282807290554046631e-01,2.491215020418167114e-01,-6.287910044193267822e-03,6.541971862316131592e-02,6.467038393020629883e-02,2.622296810150146484e-01,1.631895601749420166e-01,1.025106851011514664e-02,-2.272249907255172729e-01,6.460604816675186157e-02,-1.013157367706298828e-01,4.582991078495979309e-02,-1.563405543565750122e-01,1.217774599790573120e-01
-3.365074470639228821e-02,1.648950576782226562e-01,4.193409532308578491e-02,7.638357579708099365e-02,2.576223611831665039e-01,-1.861083805561065674e-01,-1.969697773456573486e-01,-2.482825331389904022e-02,-7.699451595544815063e-02,1.455900222063064575e-01,2.215343154966831207e-02,9.814527630805969238e-02,1.991367787122726440e-01,-1.054345667362213135e-01,-2.189918234944343567e-02,-4.251402243971824646e-02,1.153202429413795471e-01,4.611177369952201843e-02,-5.258447676897048950e-02,-2.153368443250656128e-01,-1.332765519618988037e-01,5.920241028070449829e-02,3.604052215814590454e-02,-6.316059827804565430e-02,-2.200187593698501587e-01,-1.781045086681842804e-02,-2.121948450803756714e-01,-1.672769933938980103e-01,-4.054021835327148438e-02,-1.125379726290702820e-01,7.065270096063613892e-02,3.196921572089195251e-02,-3.437256207689642906e-03,-1.799101233482360840e-01,8.579558134078979492e-02,-7.496998459100723267e-02,1.294592767953872681e-01,5.734030902385711670e-02,-9.445417672395706177e-02,1.392312645912170410e-01,6.329413503408432007e-03,-7.595191895961761475e-02,1.302481442689895630e-01,5.861667916178703308e-02,-1.826245337724685669e-01,-2.393541159108281136e-03,1.026848554611206055e-01,2.136300057172775269e-01,1.261404901742935181e-01,1.081679612398147583e-01
-3.847771883010864258e-02,1.242188736796379089e-01,-5.084816738963127136e-02,-9.011419862508773804e-02,2.121014595031738281e-01,-7.755053043365478516e-02,-3.490286320447921753e-02,-2.580528892576694489e-02,2.318135052919387817e-01,3.116178810596466064e-01,2.833780273795127869e-02,1.982135027647018433e-01,-5.251619964838027954e-03,1.188889220356941223e-01,-2.304780930280685425e-01,-9.548285603523254395e-02,-9.793559461832046509e-02,1.302608698606491089e-01,-2.517314441502094269e-02,-1.028683930635452271e-01,-1.619894951581954956e-01,1.529783904552459717e-01,-7.867339253425598145e-02,1.139758434146642685e-02,2.751025259494781494e-01,1.488127466291189194e-02,3.641249611973762512e-02,1.722072064876556396e-01,1.372472196817398071e-01,6.159649789333343506e-02,1.241806056350469589e-02,9.176946431398391724e-02,-4.066775739192962646e-02,-4.377990588545799255e-02,3.694178536534309387e-02,-6.252808868885040283e-02,5.524577945470809937e-02,-5.388603731989860535e-02,1.099337339401245117e-01,-1.427087932825088501e-01,-1.135265901684761047e-01,-1.227809116244316101e-01,5.261138826608657837e-02,2.492633610963821411e-01,-1.424402594566345215e-01,-1.176941916346549988e-01,9.556577354669570923e-02,-1.092606186866760254e-01,-1.890645027160644531e-01,-4.346529766917228699e-02
1.276727169752120972e-01,-6.155044212937355042e-02,1.712423712015151978e-01,-5.189250409603118896e-02,1.740776449441909790e-01,-4.174670949578285217e-02,-4.521925002336502075e-02,2.591397762298583984e-01,-2.426215708255767822e-01,6.104905903339385986e-02,-3.341656178236007690e-02,-3.909902274608612061e-02,-3.281596601009368896e-01,-2.151675224304199219e-01,-8.484522253274917603e-02,-7.441266626119613647e-02,-4.077451676130294800e-02,-3.045248158741742373e-04,-8.525124751031398773e-03,6.911986321210861206e-02,4.790152981877326965e-02,-1.170607283711433411e-01,-1.517976969480514526e-01,1.392332371324300766e-02,1.052739769220352173e-01,2.012390829622745514e-02,-8.370916545391082764e-02,-7.529250532388687134e-02,-1.648858934640884399e-02,-4.888219013810157776e-02,-4.191130865365266800e-03,-1.430185046046972275e-02,3.131767511367797852e-01,-4.794040694832801819e-02,-2.285366952419281006e-01,-2.937498092651367188e-01,6.841930747032165527e-02,9.887865744531154633e-03,7.933203130960464478e-02,2.568225562572479248e-02,1.528439670801162720e-01,2.360626608133316040e-01,-1.649031341075897217e-01,1.436759233474731445e-01,-2.427224963903427124e-01,-1.324039250612258911e-01,-2.389446049928665161e-01,-1.841102242469787598e-01,1.520355492830276489e-01,-1.042723953723907471e-01
-8.874212391674518585e-03,-1.307993531227111816e-01,-1.132437214255332947e-01,-2.305190311744809151e-03,-1.558557003736495972e-01,8.022776246070861816e-02,1.018781512975692749e-01,2.967123687267303467e-01,-6.528213620185852051e-02,1.064427569508552551e-01,1.592181175947189331e-01,1.484775841236114502e-01,-1.676037907600402832e-01,3.413862362504005432e-02,2.805984020233154297e-02,5.598002299666404724e-02,-9.852308034896850586e-02,1.341425031423568726e-01,-2.110310196876525879e-01,3.148829191923141479e-02,-2.451420128345489502e-01,1.813044995069503784e-01,-2.310212552547454834e-01,-1.138449013233184814e-01,-6.189322099089622498e-03,9.800820797681808472e-02,2.462440580129623413e-01,-2.535384297370910645e-01,-2.750918865203857422e-01,-2.760940231382846832e-02,1.905009150505065918e-02,1.531969308853149414e-01,1.425133645534515381e-01,-1.119128391146659851e-01,6.992198526859283447e-02,-1.496763676404953003e-01,-2.613676488399505615e-01,2.492114752531051636e-01,1.738032698631286621e-01,1.330355107784271240e-01,1.820299625396728516e-01,-1.905707567930221558e-01,-1.908278167247772217e-01,-3.701353445649147034e-02,6.070356070995330811e-02,-4.951216280460357666e-02,3.188108652830123901e-02,-1.030233725905418396e-01,-2.035487294197082520e-01,-4.376408457756042480e-02
2.144092693924903870e-02,1.867929100990295410e-01,5.466967076063156128e-02,1.039434373378753662e-01,4.715193808078765869e-02,1.925723999738693237e-01,-1.686711013317108154e-01,1.129962131381034851e-01,-7.370102405548095703e-02,5.080683529376983643e-02,7.700913399457931519e-02,-5.522898212075233459e-02,-3.994847461581230164e-02,6.052149832248687744e-02,-1.320325583219528198e-01,-1.414714604616165161e-01,2.071801871061325073e-01,6.209966912865638733e-02,-1.525433734059333801e-02,6.642981618642807007e-02,1.329421252012252808e-01,7.357864081859588623e-02,-2.054059058427810669e-01,5.228489637374877930e-02,1.967680007219314575e-01,-1.083066388964653015e-01,2.384679466485977173e-01,2.039197385311126709e-01,-1.583095639944076538e-01,-1.132089570164680481e-01,1.241089105606079102e-01,-1.037099808454513550e-01,1.357174515724182129e-01,1.760140061378479004e-01,-5.843817815184593201e-02,-6.471514701843261719e-02,-5.197824910283088684e-02,-1.295584142208099365e-01,-7.937286794185638428e-02,3.299417346715927124e-02,9.027554094791412354e-02,-2.620788812637329102e-01,-1.581379026174545288e-01,-1.614092849195003510e-02,-3.166428208351135254e-01,1.651540547609329224e-01,-2.135209292173385620e-01,-1.992046386003494263e-01,-2.019395828247070312e-01,1.760240793228149414e-01
6.415580213069915771e-02,9.370880573987960815e-02,-2.026877105236053467e-01,-2.887676954269409180e-01,6.956862658262252808e-02,-9.130961447954177856e-02,-2.343599051237106323e-01,-1.346796452999114990e-01,-2.519610226154327393e-01,-7.635764032602310181e-02,-5.893103778362274170e-02,1.751786470413208008e-01,7.344245910644531250e-02,-5.227526649832725525e-02,-5.081217363476753235e-02,-9.411681443452835083e-02,6.792625039815902710e-02,1.794344037771224976e-01,-1.617247313261032104e-01,1.152196899056434631e-01,-2.893104851245880127e-01,5.497358366847038269e-02,1.814129352569580078e-01,2.229220867156982422e-01,2.464882098138332367e-02,1.384999006986618042e-01,-8.203095197677612305e-02,-9.088385105133056641e-02,3.969125077128410339e-02,9.342028945684432983e-02,1.999242156744003296e-01,1.054043844342231750e-01,-2.046109139919281006e-01,-1.288133859634399414e-01,2.649467065930366516e-02,-8.042764663696289062e-02,-7.791097462177276611e-02,2.203068584203720093e-01,-5.022217519581317902e-03,4.532666876912117004e-02,-1.390205323696136475e-01,1.464086025953292847e-01,-1.380475759506225586e-01,2.296370118856430054e-01,-6.938809156417846680e-02,1.677403599023818970e-01,-1.017797216773033142e-01,-9.524396061897277832e-02,7.015512883663177490e-02,2.148784846067428589e-01
-2.038476020097732544e-01,9.017001837491989136e-02,-4.038257058709859848e-03,1.938924044370651245e-01,8.770422637462615967e-02,1.977926120162010193e-02,-1.799421161413192749e-01,1.572063565254211426e-01,2.489251196384429932e-01,1.176265999674797058e-01,-3.272917494177818298e-02,5.603409186005592346e-02,1.445174068212509155e-01,1.272662281990051270e-01,-2.202980518341064453e-01,6.019992381334304810e-02,2.198188751935958862e-01,-1.196738556027412415e-01,2.869378328323364258e-01,-2.870458178222179413e-02,5.360538512468338013e-02,5.456955730915069580e-02,-2.108869254589080811e-01,1.542345881462097168e-01,-5.085741356015205383e-02,1.666290909051895142e-01,1.211763769388198853e-01,2.438806593418121338e-01,-4.449651017785072327e-02,1.198357790708541870e-01,2.787232697010040283e-01,2.961865626275539398e-02,-5.283160880208015442e-02,2.490954007953405380e-03,-1.981221139430999756e-01,1.353254169225692749e-01,-9.901667386293411255e-02,1.502593010663986206e-01,2.356801480054855347e-01,2.430576682090759277e-01,2.424033917486667633e-02,1.832099407911300659e-01,-3.439008141867816448e-04,1.031919866800308228e-01,3.419437110424041748e-01,6.217018142342567444e-02,-5.136923491954803467e-02,-2.466391399502754211e-02,2.843420803546905518e-01,-1.925345659255981445e-01
-1.126436218619346619e-01,-1.643358767032623291e-01,2.667908370494842529e-01,4.819938540458679199e-02,1.870905905961990356e-01,-1.339593529701232910e-01,1.510689109563827515e-01,2.827248573303222656e-01,-1.863298714160919189e-01,-1.107422560453414917e-01,-2.446147948503494263e-01,4.036129266023635864e-02,-1.393956243991851807e-01,1.636479794979095459e-01,8.509962260723114014e-02,-8.978199213743209839e-02,-1.695954352617263794e-01,1.029003411531448364e-01,-1.089570894837379456e-01,9.160935878753662109e-02,1.272594183683395386e-01,-1.934689655900001526e-02,-1.635324209928512573e-01,1.283184438943862915e-01,2.033342570066452026e-01,1.246072538197040558e-02,-1.831332594156265259e-01,-3.841821104288101196e-03,-1.426859647035598755e-01,1.989532262086868286e-01,5.647040158510208130e-02,-1.261550188064575195e-01,-1.352654248476028442e-01,3.760788962244987488e-02,1.100639030337333679e-01,-8.553452044725418091e-02,1.098918095231056213e-01,5.012602359056472778e-02,-1.056707464158535004e-02,-2.611646950244903564e-01,-8.377829194068908691e-02,1.450979262590408325e-01,-1.794549375772476196e-01,-9.490410238504409790e-02,1.650190502405166626e-01,-3.596222698688507080e-01,-2.166137546300888062e-01,2.515749335289001465e-01,-2.799898087978363037e-01,-2.376851141452789307e-01
-2.766966521739959717e-01,6.493901461362838745e-02,-2.012371271848678589e-01,1.893290691077709198e-02,8.038662490434944630e-04,-8.486106246709823608e-02,1.243778318166732788e-01,1.811273209750652313e-02,6.754862517118453979e-02,6.275203824043273926e-02,1.368525773286819458e-01,-1.484955996274948120e-01,-2.041489034891128540e-01,1.144194230437278748e-01,-7.167639583349227905e-02,2.749998681247234344e-02,3.926022723317146301e-02,1.508293151855468750e-01,-1.577208638191223145e-01,-4.708173498511314392e-02,-9.752205014228820801e-02,1.228716671466827393e-01,-5.666841566562652588e-02,-2.473009228706359863e-01,1.328354328870773315e-01,9.875281155109405518e-02,2.286827377974987030e-02,-1.553589850664138794e-02,-1.931794434785842896e-01,2.619202136993408203e-01,5.718674138188362122e-02,8.128188550472259521e-02,-9.098166972398757935e-02,1.055414751172065735e-01,3.727953881025314331e-02,1.069368347525596619e-01,-6.124295666813850403e-02,-2.022769302129745483e-01,2.487760409712791443e-02,-1.742209941148757935e-01,1.589713990688323975e-01,-6.060335412621498108e-02,8.247260749340057373e-02,-3.476451635360717773e-01,-2.035607844591140747e-01,-1.017784252762794495e-01,-1.751917451620101929e-01,4.815113544464111328e-02,2.006706297397613525e-01,8.092483133077621460e-02
1.468243896961212158e-01,2.075910568237304688e-01,2.112529277801513672e-01,9.992390871047973633e-02,1.705254465341567993e-01,-1.158260032534599304e-01,-1.964792609214782715e-01,-1.060582846403121948e-01,1.727794855833053589e-01,2.143082953989505768e-02,-1.707661151885986328e-01,1.376850754022598267e-01,7.709401845932006836e-02,-6.653186678886413574e-02,2.096801996231079102e-01,8.961364626884460449e-02,-6.634771078824996948e-02,2.234746217727661133e-01,1.836590655148029327e-02,1.409897506237030029e-01,-1.548779755830764771e-01,1.611060649156570435e-01,-8.590629324316978455e-03,6.676541175693273544e-03,1.727242469787597656e-01,4.501741752028465271e-02,-2.327330969274044037e-02,-1.840874850749969482e-01,-2.976941466331481934e-01,3.081688582897186279e-01,9.411594271659851074e-02,4.789898917078971863e-02,-2.347351312637329102e-01,8.256220072507858276e-02,-1.737129390239715576e-01,1.218269318342208862e-01,-2.716940045356750488e-01,1.199312359094619751e-01,-5.122644454240798950e-02,-1.610012957826256752e-03,1.528574377298355103e-01,-2.008435428142547607e-01,-3.665997833013534546e-02,7.390205562114715576e-02,2.211028784513473511e-01,1.608053445816040039e-01,4.119535163044929504e-02,2.018589079380035400e-01,-6.946606189012527466e-02,1.125994920730590820e-01
1.032641995698213577e-02,-1.545342151075601578e-02,-1.265331357717514038e-01,-1.960391253232955933e-01,5.596181377768516541e-03,7.304704934358596802e-02,-5.230108276009559631e-02,1.433746963739395142e-01,3.212460875511169434e-02,-2.123906016349792480e-01,-1.658390164375305176e-01,8.854549378156661987e-02,-1.294783353805541992e-01,3.436755388975143433e-02,3.131482303142547607e-01,-9.707460552453994751e-02,6.647336483001708984e-02,1.576271839439868927e-02,1.105512976646423340e-01,1.392310112714767456e-01,-1.490930560976266861e-02,-1.585803031921386719e-01,-7.658100128173828125e-02,5.036981031298637390e-02,-1.564506739377975464e-01,-1.918973624706268311e-01,-1.876896917819976807e-01,3.225302696228027344e-02,8.651572465896606445e-02,1.350403130054473877e-01,1.852663420140743256e-02,2.490312457084655762e-01,3.018256127834320068e-01,2.332185655832290649e-01,2.212363779544830322e-01,-6.128108594566583633e-03,1.232559606432914734e-01,1.656526327133178711e-01,3.826327249407768250e-02,8.950675278902053833e-02,2.578814886510372162e-02,-8.330059051513671875e-02,-3.515181317925453186e-02,1.349888890981674194e-01,-1.614976823329925537e-01,-1.348578184843063354e-01,1.911333054304122925e-01,-2.524969279766082764e-01,-1.948902904987335205e-01,1.753452718257904053e-01
-1.762006990611553192e-02,-1.834151893854141235e-01,2.540020644664764404e-01,1.184640824794769287e-01,3.067873418331146240e-01,-1.299250870943069458e-01,1.266177147626876831e-01,7.754460722208023071e-02,-1.655201315879821777e-01,8.068558759987354279e-03,7.031702250242233276e-02,-3.404943048954010010e-01,-2.024522423744201660e-01,4.582443833351135254e-02,-1.049875691533088684e-01,-1.068372204899787903e-01,9.884814918041229248e-02,-2.275548130273818970e-01,-9.282614290714263916e-02,2.227237522602081299e-01,-1.241886243224143982e-01,-1.297345906496047974e-01,-8.401758037507534027e-03,-1.093870550394058228e-01,-1.119537800550460815e-01,2.051776088774204254e-02,-3.558234274387359619e-01,-1.613760292530059814e-01,-2.714582383632659912e-01,-1.237950325012207031e-01,1.437357366085052490e-01,1.831559240818023682e-01,6.812865287065505981e-02,-1.718683540821075439e-02,1.585659235715866089e-01,-1.363388299942016602e-01,3.058845102787017822e-01,-1.038105562329292297e-01,-1.405393332242965698e-01,5.415716767311096191e-02,1.841180026531219482e-02,-1.296692490577697754e-01,-3.285763412714004517e-02,2.036022841930389404e-01,1.111126318573951721e-02,1.580530107021331787e-01,6.444875616580247879e-03,-2.227687388658523560e-01,-2.842289805412292480e-01,1.058042272925376892e-01
-1.572111248970031738e-01,-1.667755693197250366e-01,-1.242473945021629333e-01,-1.891544908285140991e-01,-2.283721268177032471e-01,1.489810347557067871e-01,-5.775673314929008484e-02,-2.640077471733093262e-02,-1.534273028373718262e-01,1.825606673955917358e-01,-2.309573292732238770e-01,-1.106195673346519470e-01,2.388688623905181885e-01,-3.056161403656005859e-01,-2.567260265350341797e-01,-2.333674877882003784e-01,-1.233028694987297058e-01,8.764321357011795044e-02,-5.783814564347267151e-02,-6.421372294425964355e-02,-3.948056325316429138e-02,3.109270930290222168e-01,-2.243499159812927246e-01,-4.692066833376884460e-02,4.113619774580001831e-02,-2.045101225376129150e-01,-1.592983752489089966e-01,1.086363121867179871e-01,2.593523859977722168e-01,2.615702748298645020e-01,1.664803773164749146e-01,-3.268749117851257324e-01,2.126266807317733765e-01,-5.169486999511718750e-02,-2.616380155086517334e-01,-2.132217735052108765e-01,1.684913039207458496e-01,1.670962572097778320e-01,-2.237714082002639771e-01,-4.431074485182762146e-02,-2.239978685975074768e-02,2.515354156494140625e-01,1.784465759992599487e-01,-1.364621222019195557e-01,-2.752207517623901367e-01,6.211238447576761246e-03,-1.340819150209426880e-01,-1.911672502756118774e-01,1.510062217712402344e-01,-2.419630810618400574e-02
2.321959845721721649e-02,-1.087633147835731506e-01,-3.196830302476882935e-02,-1.646495759487152100e-01,-2.090523391962051392e-02,-2.088565193116664886e-02,2.729589939117431641e-01,2.161537408828735352e-01,-8.981709182262420654e-02,-1.860964000225067139e-01,-1.344590634107589722e-01,2.901067771017551422e-02,3.917246684432029724e-02,3.606533110141754150e-01,1.343616750091314316e-02,-1.247568055987358093e-01,2.343163639307022095e-01,2.109298855066299438e-01,-2.051518261432647705e-01,3.700890243053436279e-01,-1.040414199233055115e-01,1.935268938541412354e-01,5.640043690800666809e-02,5.543824657797813416e-02,1.467250734567642212e-01,3.068779967725276947e-02,-2.170972898602485657e-02,5.366313457489013672e-02,9.922070056200027466e-02,4.548729211091995239e-02,1.465152800083160400e-01,1.062893122434616089e-01,-9.516572207212448120e-02,-1.406087130308151245e-01,6.304990500211715698e-02,-1.240825429558753967e-01,-7.926347851753234863e-02,4.758413881063461304e-02,1.827451586723327637e-01,1.310764402151107788e-01,1.458540409803390503e-01,-2.412014640867710114e-02,4.500801116228103638e-02,-1.578065901994705200e-01,2.018495202064514160e-01,2.049775868654251099e-01,8.848007023334503174e-02,6.432281434535980225e-02,1.025766581296920776e-01,6.059367209672927856e-02
2.766747958958148956e-02,-9.628657251596450806e-02,8.697532862424850464e-02,4.229321144521236420e-03,2.183288335800170898e-01,-2.707748711109161377e-01,1.147686690092086792e-02,-1.784825474023818970e-01,1.802070587873458862e-01,1.743253618478775024e-01,-1.641925871372222900e-01,-5.201652646064758301e-02,2.009218186140060425e-01,-1.150083243846893311e-01,-4.945455864071846008e-02,1.407376378774642944e-01,9.009609371423721313e-02,-1.193471923470497131e-01,1.534202396869659424e-01,6.105614826083183289e-02,-3.127683997154235840e-01,1.919408291578292847e-01,3.729937225580215454e-02,8.978658169507980347e-02,-2.196328043937683105e-01,-2.885084040462970734e-02,-4.008220881223678589e-02,2.999015711247920990e-02,-2.264210432767868042e-01,3.257179558277130127e-01,-2.392400354146957397e-01,-1.700339764356613159e-01,1.045303232967853546e-02,-3.384177684783935547e-01,2.067865580320358276e-01,2.921987771987915039e-01,2.140238732099533081e-01,9.058815240859985352e-02,4.445678740739822388e-02,-3.101765550673007965e-02,-1.079005226492881775e-01,-2.999593690037727356e-02,3.484035134315490723e-01,-1.494973897933959961e-01,-1.799045503139495850e-02,1.287203580141067505e-01,3.020112589001655579e-02,1.173974499106407166e-01,9.624892473220825195e-02,-4.224625229835510254e-02
1.479550600051879883e-01,6.325668096542358398e-02,2.243341207504272461e-01,-2.126960158348083496e-01,-2.575888857245445251e-02,2.178384363651275635e-01,3.913562744855880737e-02,-4.393867552280426025e-01,2.213853448629379272e-01,-3.357894122600555420e-01,-8.940982073545455933e-02,-1.500615011900663376e-02,-1.995350718498229980e-01,2.255074083805084229e-01,1.196278929710388184e-01,-7.527418434619903564e-02,-4.191280342638492584e-03,-1.023196987807750702e-02,-6.674674153327941895e-02,-1.024015322327613831e-01,1.367665678262710571e-01,1.237488612532615662e-01,4.257947206497192383e-01,-1.098805591464042664e-01,4.861858114600181580e-02,-2.688749134540557861e-01,-1.597742736339569092e-01,2.228579223155975342e-01,5.671087652444839478e-03,2.407395392656326294e-01,-2.067165821790695190e-02,-9.578230232000350952e-02,-1.016464158892631531e-01,1.982751041650772095e-01,-1.343260556459426880e-01,-1.918312907218933105e-01,4.537191241979598999e-02,-2.303672879934310913e-01,-1.820928156375885010e-01,-6.797356158494949341e-02,6.478826701641082764e-02,-2.208569645881652832e-01,1.024061441421508789e-01,-5.585822835564613342e-02,1.650215089321136475e-01,1.383505761623382568e-01,1.372814327478408813e-01,1.152216084301471710e-02,2.621195465326309204e-02,-4.544002562761306763e-02
6.711722817271947861e-03,-2.352846786379814148e-02,-8.166802674531936646e-02,1.645089834928512573e-01,8.708371967077255249e-02,-2.030338048934936523e-01,-3.866183757781982422e-02,1.575971096754074097e-01,4.456186667084693909e-02,-7.441361248493194580e-02,-3.222636878490447998e-02,6.048728898167610168e-02,-4.123513773083686829e-02,1.077228337526321411e-01,-5.957124382257461548e-02,-9.942436218261718750e-02,-5.642852932214736938e-02,1.940487772226333618e-01,2.155001163482666016e-01,-1.095368415117263794e-01,-1.779200285673141479e-01,6.016097962856292725e-02,3.123227655887603760e-01,8.936689235270023346e-03,1.489458233118057251e-01,-1.866772025823593140e-02,-2.551713585853576660e-02,-4.951578006148338318e-02,2.673119902610778809e-01,2.889552526175975800e-02,9.650092571973800659e-02,-1.868481375277042389e-02,2.023157030344009399e-01,-2.156150341033935547e-01,-2.015774250030517578e-01,3.380333632230758667e-02,1.321262270212173462e-01,-1.431093215942382812e-01,-6.359286606311798096e-02,-4.911061748862266541e-02,-7.184779644012451172e-02,-1.599182374775409698e-02,1.050057262182235718e-01,-4.176140204071998596e-02,-5.326369032263755798e-02,3.596152737736701965e-02,8.441418409347534180e-02,-9.065751917660236359e-03,-5.270710960030555725e-02,5.409151781350374222e-03
1.677401214838027954e-01,1.077089384198188782e-01,4.234367236495018005e-02,-2.704505026340484619e-01,-3.159674350172281265e-03,1.234561651945114136e-01,-2.667254507541656494e-01,-1.970145255327224731e-01,-1.871751397848129272e-01,2.011895775794982910e-01,-1.099258512258529663e-01,9.965684264898300171e-02,5.771689116954803467e-02,8.391159027814865112e-02,2.638571262359619141e-01,8.673273772001266479e-02,7.875757664442062378e-02,-1.170539781451225281e-01,1.075852736830711365e-01,1.490241438150405884e-01,1.055640168488025665e-02,1.450330466032028198e-01,-2.001067101955413818e-01,9.529870748519897461e-02,9.066130965948104858e-02,-1.159984990954399109e-01,-1.252468675374984741e-01,-1.290075778961181641e-01,-3.965642675757408142e-02,-4.462262243032455444e-02,-1.596235483884811401e-01,2.470412403345108032e-01,-1.197465360164642334e-01,-2.045849412679672241e-01,-4.308949224650859833e-03,1.764442920684814453e-01,1.488207876682281494e-01,1.614436507225036621e-01,-1.809714711271226406e-03,-2.342287749052047729e-01,1.073112785816192627e-01,8.334738761186599731e-02,1.104702204465866089e-01,-1.858472637832164764e-02,1.895743757486343384e-01,-1.023990511894226074e-01,-1.230210810899734497e-01,1.004422456026077271e-01,3.714049607515335083e-02,8.570015430450439453e-02
-1.711230576038360596e-01,-8.921813964843750000e-02,1.111225318163633347e-02,-1.047935932874679565e-01,5.330590531229972839e-02,1.783539354801177979e-01,-1.151271536946296692e-01,-3.179529607295989990e-01,3.465225175023078918e-02,-2.528790533542633057e-01,-1.844211481511592865e-02,1.891829445958137512e-02,2.461474388837814331e-03,1.727376133203506470e-01,1.540909409523010254e-01,-1.136386841535568237e-01,-1.038946807384490967e-01,1.719026565551757812e-01,-1.548202037811279297e-01,-2.383239865303039551e-01,2.059588581323623657e-01,-2.948510460555553436e-02,1.799932271242141724e-01,-1.435692310333251953e-01,-1.068626418709754944e-01,-1.972998082637786865e-01,-1.659484952688217163e-01,-1.547950506210327148e-02,2.063522487878799438e-01,3.522980213165283203e-02,-8.122491091489791870e-02,2.170328944921493530e-01,-2.127649039030075073e-01,-8.850684016942977905e-02,9.456487745046615601e-02,1.127910986542701721e-01,2.541130781173706055e-01,2.275663763284683228e-01,-2.238775491714477539e-01,-1.139895915985107422e-01,9.134309366345405579e-03,-4.686740040779113770e-02,9.393189102411270142e-02,1.515117138624191284e-01,-2.861713524907827377e-03,1.725690960884094238e-01,9.701737016439437866e-02,-2.763477265834808350e-01,1.390079408884048462e-01,1.212616413831710815e-01
1.360967662185430527e-02,-1.354121565818786621e-01,-1.130512952804565430e-01,-1.808287501335144043e-01,2.081199735403060913e-01,1.345698982477188110e-01,4.776870459318161011e-02,-7.813572883605957031e-02,-1.643493622541427612e-01,-2.532452158629894257e-02,3.134590387344360352e-02,-8.972573280334472656e-02,6.017074361443519592e-02,7.579573243856430054e-02,8.961219340562820435e-02,-3.587576746940612793e-02,-2.142047137022018433e-02,6.705140322446823120e-02,3.370902240276336670e-01,-1.779495775699615479e-01,3.209662437438964844e-02,3.524465560913085938e-01,-5.344003066420555115e-02,2.372915670275688171e-02,-1.275118291378021240e-01,1.633227765560150146e-01,3.335061371326446533e-01,4.461514204740524292e-02,-1.419633477926254272e-01,-8.934274315834045410e-02,-5.466406699270009995e-03,1.583828777074813843e-01,2.059035189449787140e-02,-1.106091141700744629e-01,2.207587510347366333e-01,4.755186438560485840e-01,-1.691860705614089966e-01,4.988718777894973755e-02,-2.064766734838485718e-01,-1.164879128336906433e-01,6.660072505474090576e-02,-2.961836159229278564e-01,1.307760179042816162e-02,2.994794771075248718e-02,2.256850004196166992e-01,1.203515380620956421e-01,1.632775925099849701e-02,-8.135250955820083618e-02,2.923908233642578125e-01,1.423782557249069214e-01
-5.854735895991325378e-02,2.478941977024078369e-01,-8.649898320436477661e-02,-1.452141404151916504e-01,-1.835577934980392456e-01,1.625145077705383301e-01,1.462681293487548828e-01,-1.987937241792678833e-01,1.658304184675216675e-01,-9.156191349029541016e-02,-1.185117661952972412e-01,8.165948837995529175e-02,8.104885369539260864e-02,2.450802028179168701e-01,-9.985889494419097900e-02,-1.420394424349069595e-02,-1.274994611740112305e-01,-1.560581773519515991e-01,1.284045577049255371e-01,-3.687429428100585938e-02,-1.085122749209403992e-01,1.672767400741577148e-01,1.406014710664749146e-01,-2.079042047262191772e-01,-1.540652811527252197e-01,2.663579583168029785e-01,-4.108478128910064697e-02,-1.349926590919494629e-01,1.147437915205955505e-01,1.112534701824188232e-01,-1.348857879638671875e-01,7.141567021608352661e-02,1.029636263847351074e-01,2.184580117464065552e-01,-9.928166866302490234e-02,-1.564611941576004028e-01,-1.313831210136413574e-01,-1.533371768891811371e-02,1.414245665073394775e-01,-2.725259661674499512e-01,-6.983873993158340454e-02,-6.208764761686325073e-02,6.893169134855270386e-02,4.415879771113395691e-02,-6.674048956483602524e-03,-5.221400037407875061e-02,1.595512926578521729e-01,-4.055471718311309814e-02,2.904078066349029541e-01,3.231193497776985168e-02
-2.658730745315551758e-01,-1.960473805665969849e-01,9.185030311346054077e-02,-4.877398908138275146e-02,-1.580974459648132324e-01,6.089745089411735535e-02,1.645450294017791748e-01,-3.794878125190734863e-01,-1.064025387167930603e-01,1.170536782592535019e-02,2.019980698823928833e-01,1.233764458447694778e-02,-7.037444412708282471e-02,-1.013901978731155396e-01,2.456206977367401123e-01,1.796571165323257446e-01,-2.412128150463104248e-01,-1.913078278303146362e-01,-1.037115976214408875e-01,-1.852184683084487915e-01,-1.735909283161163330e-01,-2.309920266270637512e-02,6.207433715462684631e-02,2.182360887527465820e-01,-4.050389677286148071e-02,9.559232741594314575e-02,-6.133092194795608521e-02,-1.290838569402694702e-01,-3.797316458076238632e-03,2.340030483901500702e-02,8.206465840339660645e-02,-6.721159815788269043e-02,-2.826690673828125000e-01,2.102252393960952759e-01,-5.051319673657417297e-02,-1.083072870969772339e-01,2.474951148033142090e-01,1.842206716537475586e-02,-2.187135070562362671e-01,-5.579515174031257629e-02,2.405022233724594116e-01,-1.946520954370498657e-01,1.576223522424697876e-01,-1.118826270103454590e-01,4.545889794826507568e-01,2.425517290830612183e-01,6.015179306268692017e-02,2.699961364269256592e-01,1.148836389183998108e-01,-6.944149499759078026e-04
-4.487894847989082336e-02,1.320872921496629715e-03,1.738381683826446533e-01,-2.737173438072204590e-02,5.040053725242614746e-01,1.073187366127967834e-01,9.566561132669448853e-02,-3.634661808609962463e-02,1.526274383068084717e-01,-8.169355988502502441e-02,-2.723771631717681885e-01,-4.374122023582458496e-01,-7.437617983669042587e-03,5.703859403729438782e-02,-2.031279951333999634e-01,-1.808037757873535156e-01,2.448309957981109619e-01,-1.841509342193603516e-01,6.923868507146835327e-02,-9.999576210975646973e-02,-2.367440611124038696e-02,5.163470283150672913e-03,-3.236253857612609863e-01,6.354264169931411743e-02,-1.501379609107971191e-01,-1.059264466166496277e-01,-2.483331970870494843e-02,-4.939783811569213867e-01,-3.339745476841926575e-02,-1.330087184906005859e-01,-2.132435292005538940e-01,-1.379754114896059036e-02,1.525053083896636963e-01,2.421507239341735840e-01,1.411020904779434204e-01,1.514053940773010254e-01,-5.406227707862854004e-02,-2.242076545953750610e-01,-8.934427052736282349e-02,1.386008039116859436e-02,-2.329334914684295654e-01,4.749289900064468384e-02,-1.395600140094757080e-01,5.701033771038055420e-02,2.332785874605178833e-01,8.244247734546661377e-02,-1.374844014644622803e-01,7.324388250708580017e-03,-1.415692269802093506e-01,1.316936314105987549e-01
-4.899738356471061707e-02,-1.977496296167373657e-01,-4.052839875221252441e-01,-2.309525758028030396e-01,9.153747558593750000e-02,-3.506631255149841309e-01,8.337899297475814819e-02,-3.818354010581970215e-02,2.688422799110412598e-01,7.221680879592895508e-02,-1.509669274091720581e-01,7.898953557014465332e-02,-7.139535993337631226e-02,1.327366679906845093e-01,-1.824189275503158569e-01,7.847023010253906250e-02,9.094592183828353882e-02,1.658450253307819366e-02,1.188237741589546204e-01,-1.441025584936141968e-01,9.221521019935607910e-02,9.012421220541000366e-02,-4.663061723113059998e-02,-3.209024965763092041e-01,3.063329160213470459e-01,1.643050163984298706e-01,-1.141792163252830505e-01,2.844002842903137207e-01,2.143549919128417969e-01,-1.680135279893875122e-01,2.069364301860332489e-02,-7.371827214956283569e-02,-2.003769278526306152e-01,1.092117652297019958e-01,1.158175393939018250e-01,3.406135141849517822e-01,-3.442365303635597229e-02,1.793936938047409058e-01,-7.000648975372314453e-02,-2.265303581953048706e-01,-9.310699999332427979e-02,3.703169897198677063e-02,-2.367734611034393311e-01,1.698570549488067627e-01,4.084346890449523926e-01,-1.360347494482994080e-02,2.670819312334060669e-02,2.058903723955154419e-01,-4.737497121095657349e-02,-2.954313158988952637e-02
-1.500885337591171265e-01,-6.769469007849693298e-03,8.207296580076217651e-02,-8.051437139511108398e-02,-1.641913950443267822e-01,-1.306475698947906494e-01,3.903476521372795105e-02,9.220695123076438904e-03,7.289183791726827621e-03,-1.343923360109329224e-01,4.869719967246055603e-03,-2.046403661370277405e-02,9.140732884407043457e-02,-6.254911422729492188e-02,-1.234533935785293579e-01,1.849863827228546143e-01,6.208950281143188477e-02,-2.612832700833678246e-03,1.679580658674240112e-02,3.958755359053611755e-02,1.202211752533912659e-01,1.972896009683609009e-01,-2.802408486604690552e-02,1.209335848689079285e-01,2.046794891357421875e-01,1.765197068452835083e-01,1.315445750951766968e-01,-8.796793967485427856e-02,-2.402633875608444214e-01,-2.155971378087997437e-01,-6.879025697708129883e-02,2.196944952011108398e-01,8.384783565998077393e-02,9.482192993164062500e-02,6.630020588636398315e-02,-1.987649947404861450e-01,-8.790463954210281372e-02,-5.880432203412055969e-03,1.106976270675659180e-01,-2.801504731178283691e-01,-1.853416860103607178e-02,4.812455177307128906e-02,1.179792508482933044e-01,-2.051177769899368286e-01,1.273743212223052979e-01,-1.044966354966163635e-01,1.908397115767002106e-02,-1.156661137938499451e-01,2.726200222969055176e-01,-1.873610913753509521e-01
-7.693136483430862427e-02,-1.372509449720382690e-01,7.877366244792938232e-02,-1.484644114971160889e-01,-1.570418030023574829e-01,-1.533078402280807495e-01,-8.158596605062484741e-02,-4.827958997339010239e-03,3.117052912712097168e-01,2.580414414405822754e-01,-5.941927060484886169e-02,-1.364019811153411865e-01,4.065304249525070190e-02,-4.416773468255996704e-02,1.207370534539222717e-01,-1.489392220973968506e-01,2.015759795904159546e-01,-1.482123434543609619e-01,-1.852355003356933594e-01,8.489567041397094727e-02,-1.090393662452697754e-01,-1.171384304761886597e-01,1.947401463985443115e-01,-5.055008828639984131e-02,-5.519119650125503540e-02,9.827605634927749634e-02,2.516452968120574951e-01,1.985933780670166016e-01,1.524273902177810669e-01,-1.394047588109970093e-01,-9.900995343923568726e-02,1.506065577268600464e-01,1.150237843394279480e-01,-1.229003146290779114e-01,-3.257252871990203857e-01,-3.130312636494636536e-02,1.121606603264808655e-01,1.135080382227897644e-01,-2.054326683282852173e-01,5.797244235873222351e-02,1.631208360195159912e-01,-7.097940891981124878e-02,-2.869851700961589813e-02,5.881495028734207153e-02,-1.513050645589828491e-01,-1.312033981084823608e-01,9.645878523588180542e-02,-1.503943651914596558e-01,1.764111667871475220e-01,-5.089682340621948242e-02
-3.323377072811126709e-01,8.764036744832992554e-02,1.457368582487106323e-01,3.564433753490447998e-02,1.176917254924774170e-01,2.015010919421911240e-03,4.920484498143196106e-02,-1.049287244677543640e-02,1.662651151418685913e-01,-8.602931350469589233e-02,1.168648377060890198e-01,-1.701065301895141602e-01,-2.804861590266227722e-02,1.421871781349182129e-01,-3.788597881793975830e-02,1.491568684577941895e-01,1.273259669542312622e-01,8.502012491226196289e-02,7.516971975564956665e-02,1.252031698822975159e-02,-2.021773904561996460e-01,3.224133700132369995e-02,3.125295788049697876e-02,-1.843841630034148693e-03,9.617513976991176605e-03,4.094140604138374329e-02,-1.776258945465087891e-01,3.872568951919674873e-03,-2.319469451904296875e-01,3.366956114768981934e-01,-3.044710494577884674e-02,-1.609488278627395630e-01,2.092998027801513672e-01,1.555886268615722656e-01,2.492396831512451172e-01,-2.256033569574356079e-01,-2.522224187850952148e-02,-6.244314089417457581e-02,4.904707521200180054e-02,1.406004279851913452e-01,1.212853565812110901e-02,-2.204541265964508057e-01,-1.370878219604492188e-01,-6.699559092521667480e-02,9.135854989290237427e-02,2.818380948156118393e-03,1.173795852810144424e-02,1.465992778539657593e-01,-3.105786740779876709e-01,1.529019922018051147e-01
5.044773221015930176e-02,8.522260189056396484e-02,-3.015736676752567291e-02,-1.278681755065917969e-01,-2.406520098447799683e-01,8.620947599411010742e-03,-4.116349816322326660e-01,1.645732671022415161e-01,-9.243874251842498779e-02,2.082486897706985474e-01,3.395351767539978027e-02,1.843550354242324829e-01,9.469158947467803955e-02,-1.181565877050161362e-02,2.080063223838806152e-01,-1.323277354240417480e-01,-6.334558129310607910e-02,5.594401620328426361e-03,-1.759402640163898468e-02,9.932119399309158325e-02,-1.478093117475509644e-01,-8.994761109352111816e-02,1.059609428048133850e-01,-1.469914522022008896e-02,3.060555271804332733e-02,-7.519129663705825806e-02,-7.479509711265563965e-02,1.119976416230201721e-01,-2.558673620223999023e-01,-5.090026929974555969e-02,2.132608890533447266e-01,4.507483541965484619e-02,-1.123642101883888245e-01,6.301818042993545532e-02,-2.066529542207717896e-01,1.340228617191314697e-01,-3.677764236927032471e-01,1.007224433124065399e-02,-1.124197319149971008e-01,-1.054876297712326050e-01,-4.776386916637420654e-02,2.215021997690200806e-01,-1.323442012071609497e-01,-8.286572247743606567e-02,2.922642529010772705e-01,1.227805018424987793e-01,4.028859548270702362e-03,1.750434488058090210e-01,-1.448733508586883545e-01,1.385421119630336761e-02
2.272214740514755249e-01,1.910543441772460938e-01,5.408928170800209045e-02,8.461096882820129395e-02,1.608073245733976364e-03,7.485774904489517212e-02,-4.433075711131095886e-02,3.192212432622909546e-02,-2.018081396818161011e-02,6.297347694635391235e-02,-9.300345182418823242e-02,1.396875232458114624e-01,-6.366707384586334229e-02,1.047500818967819214e-01,6.215961650013923645e-02,-1.617472432553768158e-02,-1.002470776438713074e-02,7.854466885328292847e-02,2.245658040046691895e-01,7.858108729124069214e-02,1.040517631918191910e-02,-9.456152468919754028e-02,5.432351306080818176e-02,1.759906858205795288e-01,2.290306054055690765e-02,-1.381928026676177979e-01,-1.611193567514419556e-01,4.395228624343872070e-02,-2.138766832649707794e-02,-1.374312490224838257e-01,-4.726950451731681824e-02,1.278844326734542847e-01,-9.618178009986877441e-02,4.427041858434677124e-02,7.679086178541183472e-02,-2.947247028350830078e-01,1.122992709279060364e-01,1.257193684577941895e-01,-2.358093857765197754e-02,-5.792689695954322815e-02,1.336704343557357788e-01,-5.280332267284393311e-02,6.450915336608886719e-02,3.227064013481140137e-02,1.446999311447143555e-01,-1.999584883451461792e-01,1.547630131244659424e-01,6.311370432376861572e-02,8.810048550367355347e-02,7.617122679948806763e-02
2.015260159969329834e-01,-7.093363255262374878e-02,-1.543106138706207275e-01,2.559236623346805573e-02,1.450549811124801636e-01,2.075711488723754883e-01,1.538363844156265259e-01,4.214271306991577148e-01,-4.195258766412734985e-02,2.731610834598541260e-01,-3.472649678587913513e-02,1.447150856256484985e-01,1.339557468891143799e-01,-2.696164883673191071e-02,-1.144371703267097473e-01,-1.128021851181983948e-01,-2.414130419492721558e-02,-1.148819923400878906e-01,1.629031151533126831e-01,7.829192280769348145e-02,-7.978441566228866577e-02,9.050137549638748169e-02,-3.595468401908874512e-02,1.303351074457168579e-01,-9.121133387088775635e-02,-7.125448435544967651e-02,1.246389672160148621e-01,1.060547828674316406e-01,1.574847549200057983e-01,5.997989699244499207e-02,-8.308296650648117065e-02,-8.443436771631240845e-02,2.392846643924713135e-01,-9.375847876071929932e-02,-8.788381516933441162e-02,-9.680663794279098511e-02,-1.323009133338928223e-01,-2.942357659339904785e-01,2.688322961330413818e-01,-9.660305082798004150e-02,1.502632051706314087e-01,1.406406015157699585e-01,-2.899830043315887451e-01,-2.698365040123462677e-02,6.008281558752059937e-02,1.160631328821182251e-01,-1.411572992801666260e-01,4.750268533825874329e-02,-1.411758065223693848e-01,2.177298516035079956e-01
5.045659374445676804e-03,-2.895119786262512207e-01,-8.308319002389907837e-02,-2.212407290935516357e-01,2.344249561429023743e-02,-2.965965270996093750e-01,-4.721598327159881592e-02,-1.546610295772552490e-01,-4.183143377304077148e-02,1.598790138959884644e-01,1.886224150657653809e-01,-7.252898067235946655e-02,8.413212746381759644e-02,-3.414062261581420898e-01,-2.329353243112564087e-02,-2.946306020021438599e-02,1.287292242050170898e-01,-2.819029688835144043e-01,-3.487006993964314461e-03,1.188524533063173294e-02,-1.031486466526985168e-01,-1.857191622257232666e-01,2.175443470478057861e-01,-1.642773672938346863e-02,1.093594804406166077e-01,-9.042531996965408325e-02,1.464572995901107788e-01,-2.153186872601509094e-02,1.316414326429367065e-01,8.365696668624877930e-02,-2.451611161231994629e-01,9.027443826198577881e-02,-3.025432825088500977e-01,-5.082863569259643555e-02,1.208116039633750916e-01,-5.557153839617967606e-03,-1.105731949210166931e-01,1.924894899129867554e-01,1.966443061828613281e-01,1.460595577955245972e-01,-9.348902851343154907e-02,-9.953714907169342041e-02,1.718349903821945190e-01,-2.988351285457611084e-01,2.409119457006454468e-01,-9.905996732413768768e-03,-1.286498904228210449e-01,3.705070912837982178e-01,1.167562208138406277e-03,8.049885183572769165e-02
1.352002322673797607e-01,-2.178817391395568848e-01,-6.950042396783828735e-02,-1.483163237571716309e-01,2.263538837432861328e-01,-6.984391063451766968e-02,1.898904591798782349e-01,-1.060766056180000305e-01,-2.013670057058334351e-01,-5.593995004892349243e-02,-2.151640355587005615e-01,-6.598507612943649292e-02,1.431945413351058960e-01,1.426329612731933594e-01,-1.248620003461837769e-01,-1.235490366816520691e-01,-7.629995793104171753e-02,-7.356552779674530029e-02,2.983549833297729492e-01,1.365978121757507324e-01,8.999526500701904297e-02,-4.827711880207061768e-01,-7.134797051548957825e-03,-6.284038722515106201e-02,-2.410039752721786499e-01,1.599227041006088257e-01,-8.464864641427993774e-02,1.853736340999603271e-01,1.621221564710140228e-02,-6.992745399475097656e-02,-3.261060118675231934e-01,-1.699989885091781616e-01,-6.268302351236343384e-02,-1.044871471822261810e-02,-1.970179080963134766e-01,-1.273511350154876709e-01,-5.891038570553064346e-03,-9.025003015995025635e-02,1.443960219621658325e-01,-1.340579241514205933e-01,-8.347123116254806519e-02,-6.790791451930999756e-02,-6.641924381256103516e-02,4.140503704547882080e-01,9.307111799716949463e-02,-1.877153068780899048e-01,-3.972816467285156250e-02,-3.507757484912872314e-01,1.770985126495361328e-01,1.151859164237976074e-01
1.498920144513249397e-03,7.610845845192670822e-03,2.628572881221771240e-01,-2.065515145659446716e-02,7.608743011951446533e-02,-1.611990630626678467e-01,2.067525237798690796e-01,2.777489833533763885e-02,-1.268686056137084961e-01,5.216284841299057007e-02,-3.286079736426472664e-03,1.191061660647392273e-01,-1.850477010011672974e-01,-5.962189286947250366e-02,1.342336982488632202e-01,1.203876733779907227e-01,-3.545318171381950378e-02,1.506389826536178589e-01,1.652458608150482178e-01,1.133973300457000732e-01,-9.669025242328643799e-02,-6.112090870738029480e-02,-1.481165736913681030e-01,1.457661390304565430e-01,-1.043872088193893433e-01,1.646502315998077393e-01,-1.621739268302917480e-01,1.396646201610565186e-01,6.304756551980972290e-02,5.013360083103179932e-02,1.575332731008529663e-01,-1.858704388141632080e-01,4.998576268553733826e-02,-2.754790894687175751e-02,-2.080774456262588501e-01,2.109025865793228149e-01,-2.970677912235260010e-01,1.154112815856933594e-01,-7.231672108173370361e-02,-8.532213419675827026e-02,-1.156483963131904602e-01,4.990018531680107117e-02,-2.931245788931846619e-02,5.454074591398239136e-02,-1.293206959962844849e-01,-2.249089255928993225e-02,-6.965394318103790283e-02,1.460057944059371948e-01,6.392113864421844482e-02,-5.525620188564062119e-03
-1.380438357591629028e-01,8.790674060583114624e-02,1.439473330974578857e-01,1.672924458980560303e-01,1.802339553833007812e-01,-1.813265532255172729e-01,1.057290434837341309e-01,2.151568681001663208e-01,-1.633979082107543945e-01,-1.335614323616027832e-01,6.234554573893547058e-02,1.391458809375762939e-01,2.137123793363571167e-01,-2.289947122335433960e-01,-5.422656890004873276e-03,6.294260174036026001e-02,-2.211510203778743744e-02,7.162374258041381836e-02,6.256406754255294800e-02,3.341576457023620605e-02,-1.463122069835662842e-01,1.897582262754440308e-01,-2.538093030452728271e-01,-3.974074870347976685e-02,5.371583160012960434e-03,2.057334780693054199e-01,1.160541400313377380e-01,-7.807376235723495483e-02,1.569516658782958984e-01,1.009191721677780151e-01,1.239530965685844421e-01,-6.203070655465126038e-02,1.498027145862579346e-01,-1.080587282776832581e-01,-4.080104455351829529e-02,2.594766020774841309e-02,6.104956939816474915e-02,9.791301190853118896e-02,-8.373433956876397133e-04,-1.058456078171730042e-01,-2.041020393371582031e-01,-4.413149505853652954e-02,1.746762394905090332e-01,-7.065887749195098877e-02,3.585737943649291992e-02,-4.376261495053768158e-03,9.594542533159255981e-02,1.338449269533157349e-01,-2.482662796974182129e-01,7.117321342229843140e-02
