1.237948089838027954e-01,-6.162182614207267761e-02,1.553184688091278076e-01,9.181762486696243286e-02,2.584733963012695312e-01,-2.513917163014411926e-02,4.631835222244262695e-02,-9.128849953413009644e-03,-1.543416231870651245e-01,1.244975626468658447e-01,3.336566686630249023e-02,1.143396571278572083e-01,-1.602589190006256104e-01,-1.355713009834289551e-01,-8.286710828542709351e-03,-4.828029498457908630e-02,1.692532598972320557e-01,-9.919764846563339233e-02,-1.429082304239273071e-01,-5.757929757237434387e-02,1.423829942941665649e-01,4.065691530704498291e-01,6.359944492578506470e-02,-1.195125654339790344e-01,2.549531757831573486e-01,2.344534993171691895e-01,2.071178406476974487e-01,-2.128347009420394897e-01,-2.097633630037307739e-01,-9.018602222204208374e-02,-2.609462477266788483e-02,-7.990933209657669067e-02,-5.965615436434745789e-02,-7.399480044841766357e-02,-1.506830900907516479e-01,-7.160963118076324463e-02,-1.490637473762035370e-02,-6.646852195262908936e-02,-1.537583768367767334e-01,7.149084657430648804e-02,1.300663650035858154e-01,9.071968495845794678e-02,-2.826179005205631256e-02,-6.642627716064453125e-02,1.666064932942390442e-02,3.031671643257141113e-01,5.312740802764892578e-02,-1.592646092176437378e-01,2.410403490066528320e-01,6.824500858783721924e-02
6.619933992624282837e-02,3.008655011653900146e-01,3.955427929759025574e-02,3.423455059528350830e-01,-8.760064095258712769e-02,1.064236182719469070e-02,-1.270247846841812134e-01,1.203419361263513565e-02,1.127966940402984619e-01,3.992101550102233887e-02,1.069514006376266479e-01,1.287682801485061646e-01,2.181093543767929077e-01,2.315348833799362183e-01,6.267033517360687256e-02,2.102977484464645386e-01,7.940084487199783325e-02,1.004776880145072937e-01,1.608310639858245850e-02,1.235751286149024963e-01,6.784892827272415161e-02,1.418036371469497681e-01,2.780331484973430634e-02,-1.336543262004852295e-01,1.398118734359741211e-01,1.592735797166824341e-01,-1.589198410511016846e-01,-6.739935278892517090e-02,1.091225519776344299e-01,-2.575770951807498932e-02,1.000933274626731873e-01,2.671148180961608887e-01,2.023839950561523438e-01,-1.299520879983901978e-01,-1.679102480411529541e-01,-1.203257143497467041e-01,-2.303716912865638733e-02,8.211135119199752808e-02,-3.673174977302551270e-02,1.240188404917716980e-01,-4.119942313991487026e-04,1.280652582645416260e-01,1.107287332415580750e-01,-6.929963082075119019e-02,1.120431069284677505e-02,-1.658980399370193481e-01,-6.838101893663406372e-02,1.251865625381469727e-01,1.130386292934417725e-01,-2.314142137765884399e-01
1.004484966397285461e-01,-1.659291386604309082e-01,-1.234480589628219604e-01,1.125499382615089417e-01,7.980144023895263672e-02,2.246935367584228516e-01,2.900220453739166260e-01,9.230313450098037720e-02,-4.479745030403137207e-02,1.134666353464126587e-01,-1.617258787155151367e-02,-1.741185337305068970e-01,1.536329239606857300e-01,-2.757985591888427734e-01,1.689421683549880981e-01,-2.530361115932464600e-01,6.826644763350486755e-03,1.535083353519439697e-01,3.874401003122329712e-02,-7.920435070991516113e-02,-1.372247785329818726e-01,5.770118907094001770e-02,9.359111636877059937e-02,-1.656565815210342407e-01,-9.283120185136795044e-02,-1.316791921854019165e-01,-4.391023516654968262e-02,-2.546182870864868164e-01,-2.345355600118637085e-02,3.218364119529724121e-01,4.245996475219726562e-02,7.758071273565292358e-02,3.109684288501739502e-01,1.292687058448791504e-01,5.640052258968353271e-02,-9.180831722915172577e-03,5.877840891480445862e-02,1.963015273213386536e-02,1.973510086536407471e-01,1.867125630378723145e-01,2.173934131860733032e-01,-2.245502918958663940e-01,6.998386979103088379e-02,-1.903765499591827393e-01,-1.116721779108047485e-01,-1.592052429914474487e-01,-7.895324379205703735e-02,-8.508579432964324951e-02,-3.333730250597000122e-02,-2.860932424664497375e-02
2.777303457260131836e-01,5.394576191902160645e-01,-1.328458338975906372e-01,-1.559666842222213745e-01,3.703056275844573975e-02,9.408725053071975708e-02,-4.472934082150459290e-02,-1.570751518011093140e-01,4.979787394404411316e-02,7.214039564132690430e-02,-1.796041727066040039e-01,1.513514816761016846e-01,1.722371019423007965e-02,9.869674593210220337e-02,3.811381012201309204e-02,-9.039814025163650513e-02,-6.752569228410720825e-02,1.312841176986694336e-01,2.111905813217163086e-01,1.651611179113388062e-01,1.576368361711502075e-01,1.571259647607803345e-01,-1.553753018379211426e-01,-1.144540682435035706e-02,-7.877931743860244751e-02,2.008849987760186195e-03,-9.119824320077896118e-02,-1.430606544017791748e-01,-1.913268864154815674e-01,-1.034306213259696960e-01,2.099283486604690552e-01,1.377620100975036621e-01,9.634815156459808350e-02,-9.544521570205688477e-02,-1.796802133321762085e-02,-1.201478913426399231e-01,2.015518993139266968e-01,-1.803556084632873535e-01,8.772160112857818604e-02,2.574277520179748535e-01,2.324869036674499512e-01,-2.357669770717620850e-01,2.975201047956943512e-02,-3.146530985832214355e-01,8.075557649135589600e-02,-4.736411571502685547e-02,-2.305730581283569336e-01,1.872608810663223267e-01,-7.404330372810363770e-02,-1.751067340373992920e-01
-2.118319123983383179e-01,1.350344717502593994e-01,-2.219053655862808228e-01,1.822049915790557861e-02,5.083816871047019958e-02,4.005483537912368774e-02,-1.036524921655654907e-01,-9.177239984273910522e-02,5.383027717471122742e-02,2.019093781709671021e-01,1.107302531599998474e-01,-2.450216859579086304e-01,-1.458948850631713867e-01,-1.469591856002807617e-01,1.001432538032531738e-01,1.288780122995376587e-01,1.966599375009536743e-01,1.062757521867752075e-02,3.379828482866287231e-02,1.400024443864822388e-01,1.837998777627944946e-01,-2.039555758237838745e-01,-1.708196252584457397e-01,1.624379307031631470e-02,-2.895761653780937195e-02,-5.287607386708259583e-02,1.574819982051849365e-01,-2.247651815414428711e-01,-5.075283721089363098e-02,8.730393648147583008e-02,-1.477308664470911026e-02,-1.578846126794815063e-01,2.854745984077453613e-01,1.146994680166244507e-01,-5.839719250798225403e-02,-1.328569948673248291e-01,1.682941615581512451e-01,1.337256878614425659e-01,9.127625077962875366e-02,-4.093537107110023499e-02,-1.609545052051544189e-01,1.512866169214248657e-01,-2.375262677669525146e-01,-1.845837682485580444e-01,1.032721027731895447e-01,-9.807371534407138824e-03,1.077855825424194336e-01,-2.945495396852493286e-02,2.031762599945068359e-01,1.304569691419601440e-01
-1.350735425949096680e-01,1.617052108049392700e-01,-1.629000306129455566e-01,1.734567284584045410e-01,2.552938461303710938e-01,2.299819886684417725e-02,2.357340417802333832e-03,-8.463098853826522827e-02,7.916948199272155762e-02,1.696829646825790405e-01,1.547029763460159302e-01,6.311486661434173584e-02,1.107039302587509155e-02,-4.701924696564674377e-02,1.329169422388076782e-01,-1.636580973863601685e-01,-7.256495207548141479e-02,4.329165816307067871e-02,-1.498517245054244995e-01,2.606883943080902100e-01,-2.664548158645629883e-01,-5.223722383379936218e-02,1.369411051273345947e-01,-2.377713657915592194e-02,4.373535886406898499e-02,7.913672178983688354e-02,1.306580752134323120e-01,2.083953768014907837e-01,1.295282095670700073e-01,-1.102706640958786011e-01,7.358436286449432373e-02,2.907814085483551025e-02,-3.594432026147842407e-02,1.748265177011489868e-01,-4.057032614946365356e-02,7.103817071765661240e-03,-1.012783423066139221e-01,1.312856972217559814e-01,-1.492050290107727051e-01,8.915574103593826294e-02,8.403672277927398682e-02,-1.569585055112838745e-01,-3.457237780094146729e-02,3.203256754204630852e-03,-1.811092942953109741e-01,1.949167549610137939e-01,-5.708381906151771545e-02,-2.196590043604373932e-02,4.405876249074935913e-02,4.598093405365943909e-02
2.654695883393287659e-03,3.532665669918060303e-01,7.940107583999633789e-02,2.809994108974933624e-02,1.476975083351135254e-01,-1.910883188247680664e-01,1.359109431505203247e-01,-1.776286512613296509e-01,1.073464378714561462e-01,-2.182903885841369629e-01,-6.682978570461273193e-02,1.358833163976669312e-01,-9.754186868667602539e-02,6.141323596239089966e-03,9.604209661483764648e-02,2.746939063072204590e-01,9.135240316390991211e-02,-3.529379889369010925e-02,-1.557244639843702316e-02,3.151029348373413086e-02,3.389351442456245422e-02,-1.188304424285888672e-01,2.340945899486541748e-01,-2.129000723361968994e-01,1.312247812747955322e-01,-2.222601324319839478e-01,5.125806480646133423e-02,5.514794215559959412e-02,-2.530493140220642090e-01,-1.125077158212661743e-01,1.573186218738555908e-01,1.365919113159179688e-01,-1.535732001066207886e-01,-4.578266292810440063e-02,2.170462347567081451e-02,1.400464773178100586e-01,1.484572887420654297e-01,-1.103476732969284058e-01,1.915832608938217163e-02,1.931635476648807526e-02,1.291175931692123413e-01,7.113438565284013748e-03,-1.223598271608352661e-01,2.655169963836669922e-01,-4.056528955698013306e-02,8.791199885308742523e-03,-1.368855983018875122e-01,1.664553284645080566e-01,1.873728036880493164e-01,-1.227653250098228455e-01
1.391237676143646240e-01,6.271818876266479492e-01,2.036971971392631531e-02,1.422575581818819046e-02,2.196944355964660645e-01,-3.158503472805023193e-01,-8.105311542749404907e-02,-1.548875272274017334e-01,-2.518360614776611328e-01,5.369978770613670349e-02,1.189425773918628693e-02,1.464315354824066162e-01,-2.434497922658920288e-01,-1.695237606763839722e-01,-6.116239354014396667e-02,4.327077418565750122e-03,-2.333123981952667236e-01,-1.885089129209518433e-01,-1.136610135436058044e-01,1.940374821424484253e-01,1.542582362890243530e-01,3.352358937263488770e-01,2.374218404293060303e-02,6.927787512540817261e-02,1.067877262830734253e-01,-1.347234193235635757e-02,-1.758012324571609497e-01,1.655093133449554443e-01,-6.965621560811996460e-02,1.596384048461914062e-01,2.014035135507583618e-01,2.953442633152008057e-01,-1.007028222084045410e-01,-3.213587775826454163e-02,6.425082683563232422e-02,-8.183486759662628174e-02,1.721115112304687500e-01,8.722540736198425293e-02,7.959595322608947754e-02,1.198635548353195190e-01,1.054279729723930359e-01,-2.675053477287292480e-01,5.633611232042312622e-03,-3.999044299125671387e-01,2.444533258676528931e-01,-2.394255995750427246e-01,1.671985164284706116e-02,-3.050177171826362610e-02,-3.461806476116180420e-02,-3.589161485433578491e-02
-4.044113308191299438e-02,2.323697879910469055e-02,2.175705134868621826e-02,-3.712375834584236145e-02,5.949610844254493713e-02,-1.667852252721786499e-01,-2.360979020595550537e-01,4.891230538487434387e-02,1.425232887268066406e-01,-1.045010685920715332e-01,1.929832696914672852e-01,1.947291046380996704e-01,4.932775348424911499e-02,-1.125002056360244751e-01,-7.805521599948406219e-03,2.058530151844024658e-01,-9.032994508743286133e-02,1.769805401563644409e-01,-1.615626364946365356e-02,-1.064506471157073975e-01,1.308969110250473022e-01,2.111202180385589600e-01,-1.096184104681015015e-01,-1.323457658290863037e-01,-3.262512758374214172e-02,-1.061107739806175232e-01,1.323721259832382202e-01,-2.003296017646789551e-01,-1.540950387716293335e-01,-1.966896802186965942e-01,7.353340089321136475e-02,2.321459501981735229e-01,-1.089280769228935242e-01,-1.200663149356842041e-01,5.203185603022575378e-02,2.849250473082065582e-02,2.147195637226104736e-01,6.941878795623779297e-02,5.960952490568161011e-02,-1.041143089532852173e-01,-9.306029975414276123e-02,1.145693585276603699e-01,2.204277366399765015e-01,3.629641234874725342e-02,-6.475738435983657837e-02,2.042050361633300781e-01,1.655902713537216187e-01,-4.833477362990379333e-02,-1.323898732662200928e-01,1.603612452745437622e-01
1.098385453224182129e-01,-2.743809223175048828e-01,1.411079615354537964e-01,-1.099539399147033691e-01,-1.210891529917716980e-01,2.634032368659973145e-01,-2.178207971155643463e-02,-1.247207298874855042e-01,4.670253954827785492e-03,1.085525602102279663e-01,1.291418671607971191e-01,1.920313090085983276e-01,2.624994218349456787e-01,-1.784009635448455811e-01,2.596250772476196289e-01,-9.031579643487930298e-02,1.495378017425537109e-01,5.603704228997230530e-02,-6.609917432069778442e-02,-2.255296409130096436e-01,-1.845363676548004150e-01,5.440759658813476562e-02,8.287311345338821411e-02,1.734040081501007080e-01,3.937657177448272705e-02,-5.840253550559282303e-03,-1.343145687133073807e-02,-1.770678311586380005e-01,1.350716054439544678e-01,1.522043943405151367e-01,1.321993917226791382e-01,-5.335436016321182251e-02,-6.856502592563629150e-02,6.320535391569137573e-02,-3.164803609251976013e-02,-9.271495789289474487e-02,2.204974293708801270e-01,2.432691007852554321e-01,-1.534558087587356567e-01,-2.085457788780331612e-03,1.210494041442871094e-01,-1.341146081686019897e-01,8.788012713193893433e-02,-9.074509143829345703e-02,6.496242433786392212e-02,-1.916069239377975464e-01,-1.066930890083312988e-01,1.821290999650955200e-01,-9.499126672744750977e-02,2.238447368144989014e-01
8.021713793277740479e-02,8.148380368947982788e-02,1.469106227159500122e-01,-4.788780584931373596e-03,-1.108188554644584656e-01,-2.561012804508209229e-01,-8.737260475754737854e-03,1.384446322917938232e-01,1.273317635059356689e-01,-1.288348287343978882e-01,-4.917632415890693665e-02,9.927800297737121582e-02,-7.115512341260910034e-02,3.904869034886360168e-02,1.875807344913482666e-02,1.773958355188369751e-01,1.131362169981002808e-01,-1.036427319049835205e-01,1.991778165102005005e-01,-1.648554652929306030e-01,-9.491518139839172363e-02,-9.357696399092674255e-03,2.088182717561721802e-01,2.413268759846687317e-02,1.748000085353851318e-01,4.935887828469276428e-02,2.185984887182712555e-02,9.490019083023071289e-02,9.105305187404155731e-03,1.173834279179573059e-01,-2.063996940851211548e-01,8.711176365613937378e-02,1.930111199617385864e-01,-5.553322657942771912e-02,-7.462869584560394287e-02,2.225821316242218018e-01,-6.843718141317367554e-02,-8.229496330022811890e-02,2.395369857549667358e-01,-1.334334164857864380e-01,-9.445220232009887695e-03,-2.164977416396141052e-02,1.315691322088241577e-01,-3.487064270302653313e-03,1.969669610261917114e-01,8.786640316247940063e-02,-7.774517685174942017e-02,1.485422104597091675e-01,3.243859708309173584e-01,-3.674411028623580933e-02
2.239518314599990845e-01,9.784002788364887238e-03,1.641963869333267212e-01,-6.680126488208770752e-02,-4.994037002325057983e-02,1.912536919116973877e-01,-1.518882513046264648e-01,6.939430534839630127e-02,-5.716192349791526794e-02,-1.731073558330535889e-01,-8.188442140817642212e-02,-6.681877374649047852e-02,1.203785017132759094e-01,1.607828438282012939e-01,1.384208798408508301e-01,-8.384037017822265625e-02,-4.178630188107490540e-02,-1.922612786293029785e-01,1.100883930921554565e-01,1.211195290088653564e-01,3.045254619792103767e-03,1.840442866086959839e-01,1.748146414756774902e-01,2.214348614215850830e-01,3.730208380147814751e-03,1.039628535509109497e-01,-5.781901255249977112e-02,1.620468944311141968e-01,3.658644855022430420e-02,1.600769162178039551e-01,3.456236049532890320e-02,9.470447152853012085e-02,1.742840260267257690e-01,1.177448257803916931e-01,2.977347746491432190e-02,2.044900357723236084e-01,-4.293873533606529236e-02,-2.831942634657025337e-03,-1.271487325429916382e-01,8.699782937765121460e-02,-1.004836186766624451e-01,2.964985324069857597e-03,6.753549724817276001e-02,1.308756917715072632e-01,-3.726676106452941895e-02,-6.022204831242561340e-02,1.762410402297973633e-01,2.270113676786422729e-01,-8.783758431673049927e-02,5.720667913556098938e-02
1.569846272468566895e-01,1.289550121873617172e-02,-7.665676623582839966e-02,3.124711476266384125e-02,1.378072649240493774e-01,-1.185877993702888489e-01,4.635724797844886780e-02,-1.228795722126960754e-01,1.716185510158538818e-01,-2.316941916942596436e-01,-2.593210637569427490e-01,-1.664754748344421387e-01,3.977099899202585220e-03,5.052183568477630615e-02,6.596375256776809692e-02,8.896059542894363403e-02,9.267441183328628540e-02,1.247850209474563599e-01,-2.537222802639007568e-01,-1.456913650035858154e-01,-1.922479569911956787e-01,1.577075719833374023e-01,-1.403346657752990723e-01,4.857625812292098999e-02,-6.161196902394294739e-02,-5.797854810953140259e-02,-1.393167674541473389e-01,-2.811250686645507812e-01,1.418724842369556427e-02,1.467969268560409546e-01,6.580942124128341675e-02,-4.818446934223175049e-02,-1.052817925810813904e-01,1.726434230804443359e-01,1.121326535940170288e-01,1.342098861932754517e-01,7.246752083301544189e-02,-4.442928358912467957e-02,2.403127998113632202e-01,-1.381695568561553955e-01,-2.869643568992614746e-01,3.524793311953544617e-02,2.133794873952865601e-01,8.798779919743537903e-03,1.910040825605392456e-01,-1.772902160882949829e-01,1.687751561403274536e-01,1.088767871260643005e-02,-2.253320813179016113e-01,-1.349751502275466919e-01
7.920463383197784424e-02,-3.422563523054122925e-02,-1.466174572706222534e-01,-1.110362485051155090e-01,2.414502203464508057e-02,2.746232151985168457e-01,-1.804848462343215942e-01,2.420103251934051514e-01,-2.118667811155319214e-01,1.190460249781608582e-01,3.644706681370735168e-02,-1.226401627063751221e-01,-1.631246507167816162e-02,1.438275631517171860e-02,4.459260962903499603e-03,1.240091770887374878e-01,3.381483629345893860e-02,-2.099500969052314758e-02,1.225558109581470490e-02,-6.173904240131378174e-02,-4.120388254523277283e-02,-1.773801147937774658e-01,-1.480481773614883423e-01,6.096142344176769257e-03,-1.914075016975402832e-01,-3.784407675266265869e-01,3.747187554836273193e-02,7.323590666055679321e-02,-1.387495994567871094e-01,3.684923425316810608e-02,1.961163729429244995e-01,-1.069563701748847961e-01,3.288020789623260498e-01,-1.463992297649383545e-01,-7.589177787303924561e-02,3.343791142106056213e-02,-2.280067652463912964e-01,-1.933508515357971191e-01,-6.859608739614486694e-02,2.606002688407897949e-01,2.046691775321960449e-01,-1.136386543512344360e-01,3.286362066864967346e-02,1.538370996713638306e-01,-3.153650164604187012e-01,2.103993147611618042e-01,-3.977549076080322266e-02,1.671245507895946503e-02,2.839184999465942383e-01,-5.629034340381622314e-02
-6.132202222943305969e-03,-1.013590991497039795e-01,5.341690033674240112e-02,-1.080035865306854248e-01,2.744312286376953125e-01,-1.022118031978607178e-01,-4.877142980694770813e-02,-6.327544152736663818e-02,-9.452032297849655151e-02,-2.088724672794342041e-01,3.788559883832931519e-02,8.590232580900192261e-02,-1.246593520045280457e-01,8.345443010330200195e-02,-1.984349638223648071e-01,-2.244745008647441864e-02,2.170890569686889648e-02,-1.086430847644805908e-01,3.227003216743469238e-01,-1.599701792001724243e-01,9.818597882986068726e-02,2.786829601973295212e-03,-2.162980847060680389e-02,-2.251351177692413330e-01,-8.351224660873413086e-02,4.877993464469909668e-02,-2.243498899042606354e-02,-1.465746164321899414e-01,1.871523559093475342e-01,1.687482446432113647e-01,2.239252440631389618e-02,-9.424048475921154022e-03,3.365073204040527344e-01,1.986408531665802002e-01,-1.316836029291152954e-01,8.244713768362998962e-03,-1.152264624834060669e-01,2.006454318761825562e-01,1.180434152483940125e-01,-3.645759820938110352e-02,1.164834648370742798e-01,1.193881314247846603e-02,3.058124100789427757e-03,-5.762869119644165039e-02,-2.193915843963623047e-01,6.428094953298568726e-02,-8.834172971546649933e-03,4.224377917125821114e-04,1.129296049475669861e-01,2.140571922063827515e-01
2.707049846649169922e-01,-1.846260577440261841e-01,1.281185299158096313e-01,1.721354424953460693e-01,-4.533010721206665039e-02,5.344073101878166199e-02,1.941516697406768799e-01,1.606152951717376709e-01,-2.236329764127731323e-01,-9.338626638054847717e-03,-4.883660376071929932e-02,2.031032741069793701e-01,-1.742901206016540527e-01,-3.049046359956264496e-02,7.452633231878280640e-02,-8.583427965641021729e-02,-1.043810695409774780e-01,-1.948960572481155396e-01,3.929264470934867859e-02,-2.686671726405620575e-02,2.957656607031822205e-02,-7.101416587829589844e-02,5.917211063206195831e-03,2.350018173456192017e-01,-8.547388762235641479e-02,1.307997852563858032e-01,2.146162688732147217e-01,1.260724067687988281e-01,-2.271397411823272705e-02,6.461484730243682861e-02,-1.822549402713775635e-01,-1.427093148231506348e-02,-6.442412734031677246e-02,-1.436593383550643921e-01,-2.239862456917762756e-02,2.081168889999389648e-01,2.364895194768905640e-01,1.134610846638679504e-01,8.052783459424972534e-02,-2.184527963399887085e-01,-8.273460716009140015e-02,1.926649808883666992e-01,-9.527932852506637573e-02,-7.572400569915771484e-02,1.876348853111267090e-01,-1.652969866991043091e-01,-2.477733045816421509e-02,-9.895725548267364502e-02,2.497209608554840088e-01,2.702496713027358055e-03
-4.686017346102744341e-04,-1.222239956259727478e-01,1.295691430568695068e-01,2.593471407890319824e-01,1.947552809724584222e-04,1.539555042982101440e-01,-5.760352686047554016e-02,1.451209932565689087e-01,1.659034937620162964e-01,-5.368147045373916626e-02,2.581170201301574707e-01,1.369715481996536255e-01,4.501383379101753235e-02,-6.822433322668075562e-02,5.965237505733966827e-03,-4.364399239420890808e-02,-9.500899910926818848e-02,1.063880622386932373e-01,2.314040362834930420e-01,1.135384198278188705e-02,1.820044368505477905e-01,-1.104469671845436096e-01,2.462422996759414673e-01,-8.221931755542755127e-02,-1.187987849116325378e-01,-6.282505393028259277e-02,-2.550076246261596680e-01,7.293109595775604248e-02,-2.537251450121402740e-02,1.875998526811599731e-01,1.336698830127716064e-01,-3.204306587576866150e-02,-1.818635500967502594e-02,2.362576127052307129e-01,9.447331540286540985e-03,1.560926139354705811e-01,-4.234380275011062622e-02,-5.546290799975395203e-02,-1.584009677171707153e-01,1.464803218841552734e-01,-3.122967667877674103e-02,5.891158804297447205e-02,1.607165932655334473e-01,-6.696681678295135498e-02,7.876708358526229858e-02,1.377509683370590210e-01,-1.053715199232101440e-01,4.333532601594924927e-02,1.274676173925399780e-01,-1.410717964172363281e-01
1.912635266780853271e-01,-2.953424453735351562e-01,7.074790447950363159e-02,-9.510547667741775513e-02,1.781508028507232666e-01,1.099265441298484802e-01,1.037672311067581177e-01,4.072897136211395264e-02,1.114182174205780029e-01,1.592876017093658447e-01,1.768143773078918457e-01,1.428370922803878784e-01,-1.693695187568664551e-01,-1.594217121601104736e-01,1.480302810668945312e-01,-9.648187458515167236e-02,-5.754674598574638367e-02,2.049483060836791992e-01,1.125127375125885010e-01,-3.771721199154853821e-02,-1.309747695922851562e-01,3.327943012118339539e-02,1.164296716451644897e-01,2.158303186297416687e-02,-4.511788114905357361e-02,-1.807077378034591675e-01,8.787152916193008423e-02,1.249307319521903992e-01,-1.159308627247810364e-01,-7.254824787378311157e-02,-1.535102725028991699e-01,3.425545096397399902e-01,-2.189316973090171814e-02,1.637668162584304810e-01,9.510625898838043213e-02,2.744800411164760590e-02,9.159854799509048462e-02,1.915606856346130371e-01,-1.657243967056274414e-01,-1.089194864034652710e-01,2.381977140903472900e-01,-2.469230294227600098e-01,1.994983702898025513e-01,-4.275267571210861206e-02,-2.805357873439788818e-01,-3.733110148459672928e-03,1.742263287305831909e-01,5.858615040779113770e-02,7.042887806892395020e-02,-1.313984096050262451e-01
-1.811687201261520386e-01,1.115499138832092285e-01,-1.795109212398529053e-01,-9.486830979585647583e-02,-3.737401068210601807e-01,-8.658498525619506836e-02,4.538971185684204102e-02,-2.489997446537017822e-01,-2.404394745826721191e-01,-1.895240694284439087e-01,-6.003512069582939148e-03,-1.829399913549423218e-01,-1.077091023325920105e-01,-1.612167358398437500e-01,-3.055232763290405273e-01,1.771601438522338867e-01,-2.381046861410140991e-01,1.534117460250854492e-01,2.211643308401107788e-01,7.210297137498855591e-02,1.448748111724853516e-01,2.206869274377822876e-01,-4.477581474930047989e-03,-1.389900743961334229e-01,1.627956926822662354e-01,8.507249504327774048e-02,2.212242931127548218e-01,-4.079786885995417833e-04,-4.888487979769706726e-03,1.527495235204696655e-01,-2.070661187171936035e-01,3.141597211360931396e-01,-1.565603762865066528e-01,2.536950260400772095e-02,1.121289581060409546e-01,-1.294822245836257935e-01,-5.053474754095077515e-02,-8.315991610288619995e-03,-2.143169753253459930e-02,1.741677522659301758e-01,1.754995435476303101e-01,-2.524703741073608398e-01,1.002888754010200500e-02,-9.396845102310180664e-02,-2.450888752937316895e-01,-9.913630038499832153e-02,3.136292994022369385e-01,6.992639601230621338e-02,2.227174490690231323e-01,-2.103030495345592499e-02
7.730240374803543091e-02,1.065327674150466919e-01,9.159355610609054565e-02,-1.560651361942291260e-01,1.786963194608688354e-01,-2.786542475223541260e-01,1.109572574496269226e-01,-7.778353244066238403e-02,9.199504554271697998e-02,-4.907241463661193848e-02,-2.905121445655822754e-01,-1.372884865850210190e-02,-1.291811466217041016e-01,3.159822151064872742e-02,-1.081052571535110474e-01,5.967308953404426575e-02,2.216755449771881104e-01,1.165553089231252670e-02,-1.623813807964324951e-01,7.573774456977844238e-02,2.300600558519363403e-01,1.754427701234817505e-01,9.641853393986821175e-04,-1.246989518404006958e-01,2.220137715339660645e-01,-1.524426192045211792e-01,-6.344631314277648926e-02,7.796822488307952881e-02,2.069162428379058838e-01,-1.486527547240257263e-02,1.398582309484481812e-01,1.045564115047454834e-01,-1.738060712814331055e-01,1.062069013714790344e-01,-2.158436626195907593e-01,4.190708696842193604e-02,8.789954334497451782e-02,6.050504744052886963e-02,-5.992235615849494934e-02,1.832563132047653198e-01,4.546735435724258423e-02,2.120481431484222412e-01,-1.319253630936145782e-02,-1.130239441990852356e-01,6.376262009143829346e-02,-1.391972452402114868e-01,-2.427430301904678345e-01,1.509360224008560181e-01,5.575652047991752625e-02,-1.213470194488763809e-02
-9.119319729506969452e-03,-2.405539005994796753e-01,-9.446943551301956177e-02,-1.167431697249412537e-01,-1.422006040811538696e-01,-4.826322942972183228e-02,1.488124877214431763e-01,-1.870631724596023560e-01,-1.632322221994400024e-01,-1.818929910659790039e-01,2.827097661793231964e-02,-4.630864784121513367e-02,9.593912959098815918e-02,1.664168983697891235e-01,-5.932667851448059082e-02,-2.000122368335723877e-01,-1.076907068490982056e-01,-1.217088475823402405e-01,4.054484516382217407e-02,1.837019473314285278e-01,1.876361519098281860e-01,-2.726722657680511475e-01,2.282288521528244019e-01,7.261822372674942017e-02,-6.425058003515005112e-03,-1.478768587112426758e-01,-1.542163491249084473e-01,1.208047419786453247e-01,2.363646775484085083e-02,-1.552828848361968994e-01,2.165405750274658203e-01,2.011035829782485962e-01,1.595364958047866821e-01,-3.781183063983917236e-02,2.290181666612625122e-01,1.021692454814910889e-01,7.919965684413909912e-02,5.295794457197189331e-02,5.164222046732902527e-02,2.472478896379470825e-01,5.975121632218360901e-02,2.052736729383468628e-01,2.174769788980484009e-01,1.976030506193637848e-02,-7.455482333898544312e-02,-2.317009866237640381e-01,-2.137866765260696411e-01,1.883254647254943848e-01,2.376676201820373535e-01,-1.950558125972747803e-01
-2.049529850482940674e-01,2.133628278970718384e-01,-6.904675159603357315e-03,-3.128851950168609619e-02,6.043003872036933899e-02,1.470667868852615356e-01,-1.742912083864212036e-01,1.341263204813003540e-01,-2.508420348167419434e-01,-1.183713600039482117e-01,-3.292304575443267822e-01,-7.093665003776550293e-02,2.292689234018325806e-01,-1.082084327936172485e-01,-3.572883829474449158e-02,2.039595544338226318e-01,9.867439419031143188e-02,-1.693841964006423950e-01,-2.916737496852874756e-01,-5.810971185564994812e-02,-1.166113540530204773e-01,-1.350925266742706299e-01,-2.257552891969680786e-01,1.047407910227775574e-01,5.216212570667266846e-02,-2.593183219432830811e-01,1.395706087350845337e-01,1.746099889278411865e-01,-1.561760604381561279e-01,1.077362615615129471e-02,-1.314327567815780640e-01,-1.229457929730415344e-02,-6.173274293541908264e-02,1.089419052004814148e-02,-5.414726957678794861e-02,1.103641092777252197e-01,1.701193898916244507e-01,-2.778086960315704346e-01,-5.763476714491844177e-02,1.908735185861587524e-02,-1.328805834054946899e-01,-2.355573773384094238e-01,-2.123426049947738647e-01,-6.349683552980422974e-02,-6.346262246370315552e-02,1.929715722799301147e-01,-2.358731180429458618e-01,-1.189049407839775085e-01,9.811643511056900024e-02,1.255926638841629028e-01
-1.319000571966171265e-01,-2.096259295940399170e-01,8.073544502258300781e-02,-3.885902762413024902e-01,-1.242773085832595825e-01,-1.666105836629867554e-01,3.787496313452720642e-02,-4.839333891868591309e-02,2.789128571748733521e-02,-2.719314396381378174e-01,-8.450072258710861206e-02,4.765054211020469666e-02,3.212006390094757080e-01,-2.789515554904937744e-01,-1.454660743474960327e-01,5.908988043665885925e-02,-2.611948251724243164e-01,2.024970501661300659e-01,-1.772260069847106934e-01,-9.091727435588836670e-02,1.851911544799804688e-01,-2.259225994348526001e-01,-1.419490277767181396e-01,2.050261944532394409e-01,9.182402491569519043e-02,-1.857789605855941772e-01,-2.045660763978958130e-01,5.965840443968772888e-02,-1.502376645803451538e-01,6.143323332071304321e-02,-8.054783940315246582e-02,-3.297834992408752441e-01,2.754107415676116943e-01,-1.379079967737197876e-01,-2.112318426370620728e-01,7.912363857030868530e-02,-2.571368813514709473e-01,-1.831312328577041626e-01,-2.474752068519592285e-01,-2.307714521884918213e-01,3.068519234657287598e-01,2.638604938983917236e-01,-2.224108949303627014e-02,1.010174229741096497e-01,-4.045312106609344482e-02,2.217123210430145264e-01,1.578698493540287018e-02,1.194224227219820023e-02,1.647346317768096924e-01,-4.891147091984748840e-02
1.315981298685073853e-01,8.933071047067642212e-02,-1.551413536071777344e-01,1.131338998675346375e-01,8.227279037237167358e-02,1.702322214841842651e-01,1.380174048244953156e-02,-1.045148745179176331e-01,1.918017119169235229e-01,-8.540200442075729370e-02,-2.025259584188461304e-01,-1.718811094760894775e-01,2.227336317300796509e-01,-1.804835796356201172e-01,-1.046728566288948059e-01,1.297036409378051758e-01,-2.016532868146896362e-01,1.331364959478378296e-01,-3.024540841579437256e-02,1.290764063596725464e-01,2.195664644241333008e-01,-2.536748945713043213e-01,1.109826341271400452e-01,1.871748417615890503e-01,1.892261654138565063e-01,9.293029457330703735e-02,-2.493073977530002594e-02,7.222219370305538177e-03,1.072567924857139587e-01,1.418438553810119629e-01,3.595991060137748718e-02,1.460785865783691406e-01,-1.413732767105102539e-01,-2.420213073492050171e-01,-7.270233333110809326e-02,-1.027007326483726501e-01,1.635339856147766113e-01,-2.392992377281188965e-01,-1.795963793992996216e-01,-8.623236417770385742e-02,2.385750785470008850e-02,-1.401437520980834961e-01,-5.798158422112464905e-02,-6.530563533306121826e-02,2.506937086582183838e-01,-9.830570220947265625e-02,7.956193387508392334e-02,8.847617357969284058e-02,-1.664410084486007690e-01,-4.091652855277061462e-02
2.620999887585639954e-02,-9.042810648679733276e-02,-1.663359105587005615e-01,-2.586379647254943848e-01,1.602130234241485596e-01,1.218125671148300171e-01,1.529603265225887299e-02,1.470397561788558960e-01,4.751336202025413513e-02,-2.592383511364459991e-02,1.618176996707916260e-01,-1.610575765371322632e-01,8.441445231437683105e-02,4.088964313268661499e-03,1.156339272856712341e-01,2.400898635387420654e-01,6.726980954408645630e-02,1.180410850793123245e-02,-2.046988606452941895e-01,2.746274769306182861e-01,-1.602240502834320068e-01,1.688245683908462524e-01,1.017709225416183472e-01,-2.152485772967338562e-02,-8.586767315864562988e-02,2.409402467310428619e-02,-1.582061648368835449e-01,2.703056335449218750e-01,5.533352121710777283e-02,2.776560187339782715e-01,-1.840496510267257690e-01,7.075048238039016724e-02,-1.852425038814544678e-01,-1.735287457704544067e-01,1.113272458314895630e-01,-1.721292585134506226e-01,-2.256130576133728027e-01,-1.682921797037124634e-01,-1.363377571105957031e-01,-8.488206565380096436e-02,2.122261226177215576e-01,1.859727650880813599e-01,1.245744526386260986e-01,1.450326144695281982e-01,1.286469548940658569e-01,-5.037170648574829102e-02,3.124423325061798096e-03,1.914929002523422241e-01,-1.231538206338882446e-01,1.215800419449806213e-01
1.503259390592575073e-01,6.859463453292846680e-02,-1.544986963272094727e-01,2.534199953079223633e-01,2.575048506259918213e-01,8.775583654642105103e-02,-1.886910647153854370e-01,1.383583843708038330e-01,8.174344897270202637e-02,2.018250823020935059e-01,6.440538913011550903e-02,-1.020407974720001221e-01,-8.384284377098083496e-02,1.857726573944091797e-01,-9.144687652587890625e-02,1.184836402535438538e-01,-1.234775483608245850e-01,-7.704395055770874023e-02,1.019617822021245956e-02,6.829707324504852295e-02,-3.913125838153064251e-04,8.679129928350448608e-02,1.207496225833892822e-01,3.782094269990921021e-02,8.403030037879943848e-02,8.974450081586837769e-02,1.604657173156738281e-01,-1.456407010555267334e-01,-5.659238621592521667e-02,1.622989624738693237e-01,-2.038472741842269897e-01,2.930983603000640869e-01,5.687556415796279907e-02,2.284611016511917114e-01,-7.979092001914978027e-02,2.416503578424453735e-01,-8.042473345994949341e-02,-1.259321272373199463e-01,-1.521099358797073364e-01,-1.418641954660415649e-01,-3.663515672087669373e-02,-1.914573013782501221e-01,9.233775734901428223e-02,2.238216698169708252e-01,-6.899207830429077148e-02,2.668681442737579346e-01,-1.539103984832763672e-01,2.206566333770751953e-01,3.786977007985115051e-02,1.302442550659179688e-01
-3.408908960409462452e-04,3.429966866970062256e-01,1.895007044076919556e-01,6.075625494122505188e-02,1.708744168281555176e-01,1.927917636930942535e-02,6.056198477745056152e-02,5.468228831887245178e-02,-1.392018198966979980e-01,-1.792460232973098755e-01,-5.117388069629669189e-02,2.574275135993957520e-01,-1.411977559328079224e-01,4.409524053335189819e-02,1.342609226703643799e-01,-2.059874832630157471e-01,-9.619858860969543457e-02,1.199901476502418518e-01,2.126769274473190308e-01,1.377840787172317505e-01,-2.966998815536499023e-01,2.599818110466003418e-01,-1.146414577960968018e-01,7.367306947708129883e-02,-2.319969087839126587e-01,9.206984192132949829e-02,4.589090868830680847e-02,-2.139982283115386963e-01,1.390108317136764526e-01,-1.398320347070693970e-01,-3.034584522247314453e-01,-1.587977558374404907e-01,-1.169486865401268005e-01,2.478322833776473999e-01,1.749232262372970581e-01,1.428856551647186279e-01,1.442481577396392822e-01,2.037675976753234863e-01,-1.461375802755355835e-01,9.362567961215972900e-02,-1.617673933506011963e-01,-1.752118021249771118e-01,1.678627282381057739e-01,3.865221515297889709e-02,1.311434358358383179e-01,4.690732806921005249e-02,-2.904975041747093201e-02,-3.753013536334037781e-02,2.889430820941925049e-01,-1.520365178585052490e-01
-8.086791634559631348e-02,1.818165183067321777e-02,-1.181624233722686768e-01,-4.590204358100891113e-02,3.702498972415924072e-02,-4.612108692526817322e-02,-1.157328188419342041e-01,-3.853156045079231262e-02,4.040956497192382812e-02,-2.315373867750167847e-01,-1.028658524155616760e-01,2.079821676015853882e-01,-2.070496380329132080e-01,-7.741067558526992798e-02,-2.659674286842346191e-01,-5.099069327116012573e-02,8.548620156943798065e-03,2.446461766958236694e-01,-8.959672600030899048e-02,1.221958324313163757e-01,1.109543815255165100e-01,-3.062422759830951691e-02,-6.804776191711425781e-02,-1.245076879858970642e-01,1.534611582756042480e-01,7.456632703542709351e-02,2.000367194414138794e-01,-1.347179710865020752e-01,1.278235167264938354e-01,-1.584018170833587646e-01,1.556075215339660645e-01,1.814570873975753784e-01,-1.865916848182678223e-01,1.084998399019241333e-01,-7.412301003932952881e-02,-1.795992106199264526e-01,-2.900690399110317230e-02,-7.529725134372711182e-02,9.020942263305187225e-03,3.477881895378232002e-03,5.483809486031532288e-02,1.737535297870635986e-01,1.964306980371475220e-01,9.281116724014282227e-02,4.051678255200386047e-02,-2.485781311988830566e-01,-8.024019002914428711e-02,5.769771337509155273e-02,-7.298875600099563599e-02,8.249498903751373291e-02
1.801726222038269043e-02,-9.751730412244796753e-02,-1.576705574989318848e-01,-3.439798057079315186e-01,1.781092435121536255e-01,-2.214091867208480835e-01,2.317228121683001518e-03,3.128032684326171875e-01,-2.309757843613624573e-02,6.857743859291076660e-02,-1.031061038374900818e-01,-1.189071163535118103e-01,-3.233449757099151611e-01,-2.564409971237182617e-01,-9.151679277420043945e-02,-1.657593548297882080e-01,-3.105133771896362305e-01,2.431504875421524048e-01,-2.256744801998138428e-01,1.244326159358024597e-01,-1.281798481941223145e-01,-4.624558612704277039e-02,1.930402666330337524e-01,-5.699150264263153076e-02,-5.468950141221284866e-03,-1.220095902681350708e-01,-1.666080355644226074e-01,5.018366128206253052e-02,-4.434948265552520752e-01,-1.805869936943054199e-01,-1.578867733478546143e-01,-7.353121787309646606e-02,-1.486846357583999634e-01,-1.229517087340354919e-01,-2.763635218143463135e-01,9.742257744073867798e-02,-1.909802705049514771e-01,-6.233300268650054932e-02,-1.307844221591949463e-01,-1.542445719242095947e-01,-3.664936125278472900e-01,-1.789134442806243896e-01,-1.309290528297424316e-01,-4.146660268306732178e-01,-2.583479285240173340e-01,-1.004001051187515259e-01,4.331908002495765686e-02,2.583183944225311279e-01,6.778474152088165283e-02,-9.004987776279449463e-02
-8.929991722106933594e-02,-1.343463808298110962e-01,-9.784898906946182251e-02,-1.385926306247711182e-01,1.098897382616996765e-01,1.213888078927993774e-02,1.909094452857971191e-01,-1.202345937490463257e-01,1.535360068082809448e-01,-1.310123503208160400e-02,-2.357403934001922607e-02,8.190944045782089233e-02,-4.586528986692428589e-02,-2.034092396497726440e-01,1.539124548435211182e-01,-1.140124648809432983e-01,-6.667231768369674683e-02,-1.125445216894149780e-01,1.678525358438491821e-01,-3.625272959470748901e-02,1.361261606216430664e-01,-1.800929941236972809e-02,-3.910033032298088074e-02,6.533792614936828613e-02,2.136637419462203979e-01,-4.381722584366798401e-02,1.001725345849990845e-01,-9.662225842475891113e-02,2.406474351882934570e-01,7.774111628532409668e-02,2.496400773525238037e-01,-1.200733333826065063e-02,1.545190811157226562e-01,-1.384282410144805908e-01,-9.369846433401107788e-03,-1.643723845481872559e-01,8.083721622824668884e-03,8.977000415325164795e-02,-1.872290372848510742e-01,1.113206520676612854e-01,1.567058116197586060e-01,2.115012854337692261e-01,1.409279704093933105e-01,-1.051329672336578369e-01,-1.810955852270126343e-01,1.074908748269081116e-01,-2.514339387416839600e-01,7.859473675489425659e-02,-9.965564310550689697e-02,-5.394175276160240173e-02
-1.532986667007207870e-02,-1.587372273206710815e-01,-1.058686673641204834e-01,-8.634114265441894531e-02,2.057242393493652344e-01,1.146378964185714722e-01,8.297395706176757812e-02,5.050638318061828613e-02,5.156723409891128540e-02,1.138807311654090881e-01,-1.255604773759841919e-01,2.444410622119903564e-01,2.389618009328842163e-02,2.693550847470760345e-02,-2.163800876587629318e-03,-1.208917275071144104e-01,1.154926791787147522e-01,2.441195026040077209e-02,7.671213150024414062e-02,1.416013687849044800e-01,-1.253920644521713257e-01,1.876131147146224976e-01,1.057974696159362793e-01,-5.502568557858467102e-02,3.371180966496467590e-02,7.912845909595489502e-02,6.716860085725784302e-02,-2.122712507843971252e-02,-1.606866270303726196e-01,1.190260872244834900e-01,-3.775557503104209900e-02,1.018888410180807114e-02,-1.004876792430877686e-01,-1.819930225610733032e-01,-1.011928822845220566e-02,-2.236108779907226562e-01,4.443208500742912292e-02,8.818811923265457153e-02,-1.117857396602630615e-01,3.289533257484436035e-01,-5.694929137825965881e-02,9.121733903884887695e-02,-3.594180345535278320e-01,-1.507274359464645386e-01,1.194838732481002808e-01,-2.308513596653938293e-02,1.949827000498771667e-02,-1.240914314985275269e-01,1.649358682334423065e-02,-1.557685881853103638e-01
-1.300256699323654175e-01,4.803866893053054810e-02,-9.533649310469627380e-03,8.940666168928146362e-02,-7.716857641935348511e-02,-1.226022988557815552e-01,-1.075684651732444763e-01,-1.300959587097167969e-01,1.647043228149414062e-01,9.177450835704803467e-02,9.094746410846710205e-02,-1.166287343949079514e-02,-8.421446382999420166e-02,1.347501128911972046e-01,-1.500498503446578979e-02,-3.112364001572132111e-02,-3.707430511713027954e-02,-1.543945968151092529e-01,-6.213700398802757263e-03,1.679591387510299683e-01,1.012867782264947891e-02,-6.943755596876144409e-02,2.131028473377227783e-01,1.010932587087154388e-02,2.507533878087997437e-02,-5.421928688883781433e-02,-1.053180992603302002e-01,-1.699082851409912109e-01,-8.893349766731262207e-02,-1.938475221395492554e-01,7.252277433872222900e-02,1.653505116701126099e-01,-2.731826901435852051e-01,-7.158377766609191895e-02,-1.142297759652137756e-01,1.127744093537330627e-01,3.751873224973678589e-02,-2.103024870157241821e-01,1.756252497434616089e-01,5.097134783864021301e-02,-1.679396778345108032e-01,-1.176278442144393921e-01,2.324365824460983276e-01,9.502728283405303955e-02,-2.476201578974723816e-02,1.185035482048988342e-01,-2.320714667439460754e-02,-9.770103543996810913e-02,6.506760418415069580e-02,1.120053082704544067e-01
-1.780495941638946533e-01,1.261636465787887573e-01,2.511612474918365479e-01,2.176756262779235840e-01,-1.029821634292602539e-01,-1.232592090964317322e-01,9.481290727853775024e-02,2.832722067832946777e-01,-1.486559677869081497e-02,7.111252099275588989e-02,-1.411322802305221558e-01,1.728591918945312500e-01,-7.840666174888610840e-02,6.099851056933403015e-02,-1.479733586311340332e-01,-5.878681316971778870e-02,2.635357379913330078e-01,4.239835217595100403e-02,1.325701773166656494e-01,2.252419888973236084e-01,1.280791759490966797e-01,5.052850767970085144e-02,-3.563042357563972473e-02,2.974266372621059418e-02,3.786392137408256531e-02,-2.010427564382553101e-01,3.259870782494544983e-02,2.872027456760406494e-01,-1.795111000537872314e-01,5.770918354392051697e-02,6.501509924419224262e-04,1.610963940620422363e-01,-3.761017322540283203e-02,-7.618160545825958252e-02,2.698677182197570801e-01,1.074012890458106995e-01,1.099159494042396545e-01,-1.238060146570205688e-01,-1.276701539754867554e-01,-6.671740859746932983e-02,-5.988789722323417664e-02,1.043653711676597595e-01,7.336920499801635742e-02,1.744975149631500244e-01,1.229660734534263611e-01,-3.020745702087879181e-02,-3.636865690350532532e-02,2.487092018127441406e-01,-8.641447871923446655e-02,-5.169469118118286133e-02
-9.977289475500583649e-03,9.385188668966293335e-02,-2.589313089847564697e-01,2.098647411912679672e-03,-1.385571062564849854e-01,7.791111618280410767e-02,6.251427531242370605e-02,2.115807235240936279e-01,-1.488333344459533691e-01,-2.148665189743041992e-01,-1.216222252696752548e-02,-8.632858842611312866e-02,1.050499007105827332e-01,6.632206588983535767e-02,-5.367835983633995056e-02,-1.911958903074264526e-01,1.058492287993431091e-01,2.135512828826904297e-01,1.311151087284088135e-01,1.363666057586669922e-01,-5.697721242904663086e-02,1.517724096775054932e-01,-1.972077339887619019e-01,-9.221433848142623901e-02,1.294159740209579468e-01,-1.116775870323181152e-01,1.224457547068595886e-01,-6.877460330724716187e-02,3.392067551612854004e-02,7.600822299718856812e-02,9.421066939830780029e-02,-7.633574306964874268e-02,8.324567228555679321e-02,5.619700253009796143e-02,2.669772207736968994e-01,-2.118227630853652954e-01,1.876441091299057007e-01,-2.898243963718414307e-01,2.568782120943069458e-02,-7.339034229516983032e-02,-7.098698616027832031e-02,-1.718436926603317261e-01,1.783509105443954468e-01,4.214738681912422180e-02,4.682691022753715515e-02,-1.455606967210769653e-01,5.107304453849792480e-02,-1.638419367372989655e-02,-1.929116696119308472e-01,-1.290088593959808350e-01
5.775435641407966614e-02,-9.099308401346206665e-02,8.685363084077835083e-02,-9.664922207593917847e-02,-1.105280891060829163e-01,-1.784974150359630585e-02,9.360607713460922241e-02,-9.586667269468307495e-02,2.331954985857009888e-01,1.064205020666122437e-01,-2.129170298576354980e-01,-9.929298609495162964e-02,-2.850460410118103027e-01,6.462692469358444214e-02,1.738801896572113037e-01,-1.219321507960557938e-02,2.197955548763275146e-02,6.783477962017059326e-02,1.701099425554275513e-01,-2.395590245723724365e-01,1.679263859987258911e-01,-5.606942623853683472e-02,2.461459934711456299e-01,4.980916902422904968e-02,1.335970684885978699e-02,-9.606867283582687378e-02,6.454031169414520264e-02,-2.600732147693634033e-01,-5.957340076565742493e-02,1.174378916621208191e-01,4.574899096041917801e-03,2.080961316823959351e-02,-1.125177815556526184e-01,-4.301342368125915527e-02,-2.065677195787429810e-02,4.306947812438011169e-03,1.731416583061218262e-02,-8.350726962089538574e-02,1.089681237936019897e-01,3.502621501684188843e-02,5.499101802706718445e-02,-1.562255024909973145e-01,7.460911292582750320e-03,-1.407606750726699829e-01,-6.446558982133865356e-02,-1.690330654382705688e-01,1.003744751214981079e-01,-1.328303068876266479e-01,-6.953132897615432739e-02,1.974980533123016357e-01
-4.529519006609916687e-02,-2.820262610912322998e-01,1.819081008434295654e-01,-2.885237894952297211e-02,-3.199893981218338013e-02,-5.971276015043258667e-02,-2.157623171806335449e-01,7.297030836343765259e-02,-1.681096702814102173e-01,-1.507416367530822754e-01,-1.466110795736312866e-01,5.143451318144798279e-02,-1.106314882636070251e-01,-1.685373038053512573e-01,-1.958507746458053589e-01,1.566389948129653931e-01,-2.503359615802764893e-01,2.426586672663688660e-02,-6.326987058855593204e-04,2.292362600564956665e-02,-3.016584515571594238e-01,1.553477346897125244e-01,-1.416603475809097290e-01,3.856021910905838013e-02,1.198132410645484924e-01,1.935734748840332031e-01,2.589128017425537109e-01,-6.945040822029113770e-02,-5.913803353905677795e-02,4.846559837460517883e-02,3.515151441097259521e-01,-9.674925357103347778e-02,1.025424227118492126e-01,-1.960196495056152344e-01,-3.853816888295114040e-04,-8.507901430130004883e-02,-3.652549684047698975e-01,-2.488974183797836304e-01,1.128652095794677734e-01,6.790100038051605225e-02,1.685015857219696045e-01,-6.797258555889129639e-02,1.791878789663314819e-01,-2.049226611852645874e-01,5.767180025577545166e-02,2.548526227474212646e-01,-1.014482602477073669e-01,1.904791593551635742e-01,-2.059990353882312775e-02,-1.351990699768066406e-01
-2.527737915515899658e-01,-1.768913418054580688e-01,-1.419094204902648926e-02,2.484593167901039124e-02,1.747728884220123291e-02,-1.411892026662826538e-01,5.436314269900321960e-03,2.522084116935729980e-01,-1.070318743586540222e-01,1.514398008584976196e-01,2.991677224636077881e-01,1.236682534217834473e-01,-2.828190326690673828e-01,-4.629303887486457825e-02,1.752305328845977783e-01,-2.753331363201141357e-01,-2.907013595104217529e-01,-3.015413135290145874e-02,-1.228496432304382324e-01,3.572721779346466064e-02,1.732963472604751587e-01,-2.017629742622375488e-01,3.043085150420665741e-02,-1.287965625524520874e-01,-3.827272728085517883e-02,-1.742629855871200562e-01,1.866748481988906860e-01,1.930891908705234528e-02,8.112722635269165039e-02,1.893803775310516357e-01,-2.488130331039428711e-02,-1.781118810176849365e-01,-1.623722165822982788e-01,1.339125186204910278e-01,7.494637370109558105e-02,-1.025250479578971863e-01,-1.557956784963607788e-01,-3.698102235794067383e-01,-1.172624900937080383e-01,1.099488735198974609e-01,-3.134675323963165283e-01,4.413612931966781616e-02,7.219514250755310059e-02,-1.550926119089126587e-01,1.009499803185462952e-01,4.903754964470863342e-02,1.090042889118194580e-01,-2.244758456945419312e-01,-4.623722657561302185e-02,-2.154237180948257446e-01
1.018933430314064026e-01,1.576482802629470825e-01,2.133736610412597656e-01,2.188723720610141754e-02,2.111990451812744141e-01,-5.757453665137290955e-02,1.260147392749786377e-01,1.005524098873138428e-01,1.721062290016561747e-04,-6.734525412321090698e-02,-4.474972188472747803e-02,9.465430676937103271e-02,6.126249674707651138e-03,5.544394999742507935e-02,2.603299319744110107e-01,-1.158724650740623474e-01,-4.692870751023292542e-02,1.134054269641637802e-02,-6.735126674175262451e-02,-6.692826002836227417e-02,-7.289385795593261719e-02,6.327091902494430542e-02,-1.964030973613262177e-02,-5.445009469985961914e-02,5.736214295029640198e-02,2.333275377750396729e-01,-1.820840090513229370e-01,-1.421627402305603027e-01,9.245100617408752441e-02,-1.244982182979583740e-01,-7.803513854742050171e-02,1.618339270353317261e-01,-7.551374286413192749e-02,7.546582818031311035e-02,1.909805275499820709e-02,-4.936477169394493103e-02,3.201040998101234436e-02,2.576856315135955811e-01,1.517233252525329590e-02,-1.871706247329711914e-01,-2.431296706199645996e-01,8.863573521375656128e-02,6.883884966373443604e-02,-7.276045531034469604e-02,-1.716789007186889648e-01,3.327797353267669678e-02,-1.843748241662979126e-01,2.186458408832550049e-01,1.342671364545822144e-01,2.090160250663757324e-01
1.633952260017395020e-01,1.163799688220024109e-01,7.915467768907546997e-02,4.141858965158462524e-02,1.457245647907257080e-01,-1.726797372102737427e-01,1.213306039571762085e-01,-1.145240813493728638e-01,-1.390827000141143799e-01,6.256917119026184082e-02,1.098236069083213806e-01,-1.089122369885444641e-01,5.807810276746749878e-02,7.859475165605545044e-02,2.326751500368118286e-01,-7.144202827475965023e-04,6.780299823731184006e-03,2.295125573873519897e-01,5.709915980696678162e-02,-1.108646169304847717e-01,-9.560910612344741821e-02,3.724840655922889709e-02,1.050874590873718262e-01,-2.391219288110733032e-01,-9.619791060686111450e-02,1.859386861324310303e-01,2.168540805578231812e-01,1.745134294033050537e-01,-6.690329313278198242e-02,4.776073247194290161e-02,2.911778911948204041e-02,1.554332375526428223e-01,-4.023335408419370651e-03,-5.913856253027915955e-02,-1.527309715747833252e-01,2.078242897987365723e-01,3.038770258426666260e-01,1.344498246908187866e-01,9.271682240068912506e-03,1.700190305709838867e-01,3.302725404500961304e-02,1.320957690477371216e-01,-1.264965832233428955e-01,1.425038725137710571e-01,2.961712703108787537e-02,-3.197629004716873169e-02,-1.335384100675582886e-01,-2.118790596723556519e-01,-1.086743921041488647e-01,1.568003445863723755e-01
-4.554939642548561096e-02,-4.406879246234893799e-01,-8.286555856466293335e-02,2.206895500421524048e-01,1.563300490379333496e-01,-1.438853591680526733e-01,1.090454459190368652e-01,-1.816619485616683960e-01,9.344481676816940308e-02,7.800013758242130280e-03,-4.866228997707366943e-02,1.033161208033561707e-01,-3.035415150225162506e-02,1.682961918413639069e-02,6.574546545743942261e-02,-7.704371213912963867e-02,-1.999807655811309814e-01,-7.014916092157363892e-02,2.392374165356159210e-02,5.660998821258544922e-02,6.183143332600593567e-02,-6.231119856238365173e-02,1.703318655490875244e-01,2.143671661615371704e-01,8.944039791822433472e-02,-9.568011760711669922e-02,-2.324684709310531616e-02,-7.215778529644012451e-02,-8.173125982284545898e-02,-1.099566221237182617e-01,8.432472497224807739e-02,6.631700694561004639e-02,1.745731830596923828e-01,-2.813503146171569824e-01,4.252572357654571533e-02,-7.503651827573776245e-02,4.309197142720222473e-02,-3.622082620859146118e-02,-1.355246603488922119e-01,-4.984680563211441040e-02,-2.944143675267696381e-02,4.123088344931602478e-02,9.836350381374359131e-02,1.176160946488380432e-01,4.631672427058219910e-02,1.677275598049163818e-01,-2.427140325307846069e-01,1.373973041772842407e-01,-3.478405624628067017e-02,-1.059665158390998840e-01
2.161454111337661743e-01,4.682374373078346252e-02,8.892574906349182129e-02,-7.071963977068662643e-03,1.400602757930755615e-01,2.857355177402496338e-01,-8.487606793642044067e-02,1.537973284721374512e-01,2.026559859514236450e-01,1.708953678607940674e-01,-3.408918157219886780e-02,-2.022788971662521362e-01,-3.326848521828651428e-02,-7.626090198755264282e-02,-8.551736921072006226e-02,2.045871615409851074e-01,-7.060654461383819580e-02,-4.513476043939590454e-02,1.902741044759750366e-01,-1.913434416055679321e-01,2.767335996031761169e-02,1.302659213542938232e-01,1.606631875038146973e-01,-3.675514832139015198e-02,-7.362599670886993408e-02,-5.208054557442665100e-02,-2.218380570411682129e-01,2.794509753584861755e-02,1.852808147668838501e-01,1.736562699079513550e-02,-2.485214732587337494e-02,2.033655494451522827e-01,1.292746067047119141e-01,-1.373836398124694824e-01,6.988654285669326782e-02,-1.178966760635375977e-01,1.036906018853187561e-01,2.178364098072052002e-01,-8.691601105965673923e-04,8.935367222875356674e-04,4.678818956017494202e-02,1.686345487833023071e-01,2.672660723328590393e-02,-1.003461480140686035e-01,1.322813034057617188e-01,-1.456956751644611359e-02,-7.985845953226089478e-02,5.876456201076507568e-02,8.423423767089843750e-02,5.305421352386474609e-02
-3.455015271902084351e-02,-3.325970172882080078e-01,1.410093754529953003e-01,-1.387865692377090454e-01,-9.932724386453628540e-02,-2.640795148909091949e-02,-5.659055337309837341e-02,-3.857959806919097900e-02,1.397520862519741058e-02,8.697700500488281250e-02,-2.136524468660354614e-01,1.353338062763214111e-01,8.968045562505722046e-02,4.550111666321754456e-02,1.573282927274703979e-01,-1.986894756555557251e-01,-3.545416519045829773e-02,4.689805582165718079e-02,-8.300656080245971680e-02,-1.727843284606933594e-01,2.196746505796909332e-02,-1.562219262123107910e-01,1.125282272696495056e-01,-2.249090671539306641e-01,-1.488448977470397949e-01,7.358286529779434204e-02,-9.846901893615722656e-02,4.994555935263633728e-02,-2.469737268984317780e-02,-2.502659559249877930e-01,1.879228949546813965e-01,-8.198875188827514648e-02,5.010053887963294983e-02,-1.299678087234497070e-01,-4.407225176692008972e-02,-1.444837749004364014e-01,4.634460806846618652e-02,-6.695505231618881226e-02,-1.522300988435745239e-01,1.006217151880264282e-01,-2.411350160837173462e-01,-1.554033458232879639e-01,-9.330575354397296906e-03,1.443075686693191528e-01,3.521599620580673218e-02,1.683343797922134399e-01,1.177234798669815063e-01,5.176018178462982178e-02,1.659404784440994263e-01,-1.885770708322525024e-01
1.024760678410530090e-01,-1.352411508560180664e-01,-2.108460813760757446e-01,-5.544795095920562744e-02,-7.840734720230102539e-02,-2.400226593017578125e-01,2.157212495803833008e-01,-6.440123915672302246e-02,8.008618839085102081e-03,-1.924230456352233887e-01,1.803727447986602783e-01,-1.028650701045989990e-01,1.645152866840362549e-01,-1.024655476212501526e-01,3.645574301481246948e-02,-1.899977773427963257e-01,1.273581236600875854e-01,1.233904287219047546e-01,3.568978607654571533e-02,-1.093690767884254456e-01,-8.662465959787368774e-02,-1.506185233592987061e-01,-6.359821557998657227e-02,-2.224600687623023987e-02,-9.965167939662933350e-02,1.207892224192619324e-01,-7.310672104358673096e-02,3.552785143256187439e-02,-1.242968291044235229e-01,-5.157510563731193542e-02,-5.836480110883712769e-02,1.775458455085754395e-01,6.691835075616836548e-02,9.994290024042129517e-02,1.072989553213119507e-01,1.520159691572189331e-01,-1.807927787303924561e-01,-2.418688535690307617e-01,8.454536646604537964e-02,5.539621040225028992e-02,1.666678637266159058e-01,1.817176043987274170e-01,8.948686718940734863e-02,-1.891933083534240723e-01,-1.752198487520217896e-01,2.967315912246704102e-01,4.591300338506698608e-02,1.090046986937522888e-01,1.107525825500488281e-01,1.132624074816703796e-01
2.877845801413059235e-02,-1.410227417945861816e-01,-1.916842162609100342e-01,1.324244290590286255e-01,-3.420521318912506104e-02,9.075038880109786987e-02,-3.165475651621818542e-02,-9.589165449142456055e-02,-1.914609372615814209e-01,-1.645432040095329285e-02,1.261781454086303711e-01,9.309475868940353394e-02,5.722519382834434509e-02,-8.567473292350769043e-02,-1.800246834754943848e-01,-1.893607527017593384e-01,5.442760139703750610e-02,-6.933412980288267136e-03,1.296017169952392578e-01,-1.447225213050842285e-01,-3.785514127230271697e-05,-1.199844479560852051e-01,1.086493358016014099e-01,-4.371908307075500488e-02,1.709428131580352783e-01,2.485609240829944611e-02,2.494183629751205444e-01,-6.515754759311676025e-02,7.651563733816146851e-02,-4.529486224055290222e-02,-1.377681791782379150e-01,1.479118969291448593e-02,2.221579197794198990e-03,-1.656069457530975342e-01,3.082631900906562805e-02,4.632421210408210754e-02,2.254236191511154175e-01,-1.305144131183624268e-01,-2.160963565111160278e-01,-2.294242195785045624e-02,1.024911925196647644e-02,1.912169307470321655e-01,-8.522003144025802612e-02,-5.750774219632148743e-02,2.098711431026458740e-01,-3.812637627124786377e-01,1.258676797151565552e-01,1.074861288070678711e-01,-3.198675513267517090e-01,2.127204835414886475e-02
-1.887364983558654785e-01,8.300901949405670166e-02,1.567457169294357300e-01,1.678153723478317261e-01,-4.439211450517177582e-03,-2.046069651842117310e-01,3.771195933222770691e-02,-2.334132790565490723e-01,-1.873224675655364990e-01,-1.909596659243106842e-02,-9.518353641033172607e-02,-2.508055604994297028e-02,-6.412186473608016968e-02,-1.649293005466461182e-01,-8.657121658325195312e-02,-6.377135962247848511e-02,-9.918591938912868500e-03,6.487609446048736572e-02,1.214769780635833740e-01,4.543911665678024292e-02,-2.383564971387386322e-02,-1.484665274620056152e-01,-2.554464340209960938e-01,2.594811022281646729e-01,-3.043347895145416260e-01,-2.018325924873352051e-01,-8.270847052335739136e-02,-5.995957925915718079e-02,1.173419058322906494e-01,-4.791795741766691208e-03,-4.896762222051620483e-02,-2.415918260812759399e-01,1.465907394886016846e-01,8.443052321672439575e-02,-1.490625888109207153e-01,7.370600104331970215e-02,4.282835125923156738e-02,-1.316939145326614380e-01,-9.076460450887680054e-02,-2.158661335706710815e-01,-1.344469487667083740e-01,-6.665043532848358154e-02,3.280606470070779324e-04,7.954873889684677124e-02,-2.604493126273155212e-02,2.236156910657882690e-01,-7.048562169075012207e-02,1.135735511779785156e-01,-1.010865345597267151e-02,5.991730466485023499e-02
-9.060404449701309204e-02,-7.362130284309387207e-02,1.600566655397415161e-01,-6.693776696920394897e-02,-2.221882045269012451e-01,-2.899402519688010216e-03,1.901049315929412842e-01,2.170003950595855713e-01,2.180352956056594849e-01,1.280355602502822876e-01,4.694772511720657349e-02,-2.642308361828327179e-02,-1.872722804546356201e-01,1.830409318208694458e-01,2.062357217073440552e-02,-7.493866980075836182e-02,8.472269028425216675e-02,-5.332162976264953613e-02,3.185244500637054443e-01,2.113151401281356812e-01,-1.268664300441741943e-01,-1.354823857545852661e-01,-1.811134070158004761e-01,4.842846840620040894e-02,1.467055231332778931e-01,2.546133995056152344e-01,-1.065336354076862335e-02,-1.796849817037582397e-01,-6.556957215070724487e-02,-3.598446398973464966e-02,1.994240432977676392e-01,7.847216911613941193e-03,-1.140621826052665710e-01,1.268047839403152466e-01,-8.506938815116882324e-02,-1.704108715057373047e-02,4.727957025170326233e-02,1.314917355775833130e-01,1.905679553747177124e-01,7.455950230360031128e-02,-4.054442420601844788e-02,2.990474700927734375e-01,-9.437293559312820435e-02,-2.849927730858325958e-02,-5.807377398014068604e-02,-1.112662404775619507e-01,2.781543135643005371e-01,1.457663029432296753e-01,-1.486056894063949585e-01,-2.118288576602935791e-01
-1.959322579205036163e-02,2.678623422980308533e-02,-3.793641459196805954e-03,1.580473184585571289e-01,-2.175318449735641479e-01,5.729759112000465393e-02,2.116502970457077026e-01,-1.411960124969482422e-01,5.430858582258224487e-02,-1.700917184352874756e-01,1.029294542968273163e-02,-5.297534633427858353e-03,-2.929578907787799835e-02,-1.154117882251739502e-01,-1.883244216442108154e-01,5.546490848064422607e-02,-2.614305615425109863e-01,-8.535163849592208862e-02,-1.432105749845504761e-01,1.019046176224946976e-02,-1.489239335060119629e-01,1.223331689834594727e-01,2.618701010942459106e-02,-1.274619400501251221e-01,2.856317721307277679e-02,2.579058408737182617e-01,-1.693913042545318604e-01,5.900156497955322266e-02,8.900465816259384155e-02,-2.309208363294601440e-02,1.964927762746810913e-01,-6.661012023687362671e-02,-3.226735070347785950e-02,-6.521014869213104248e-02,2.330432236194610596e-01,7.263890653848648071e-02,-5.363064259290695190e-02,1.105520352721214294e-01,1.315173041075468063e-02,-1.307349801063537598e-01,-6.092519499361515045e-03,3.068992868065834045e-03,1.855650395154953003e-01,-1.384938061237335205e-01,-2.359436452388763428e-01,-3.178357332944869995e-02,1.928683370351791382e-01,6.752675026655197144e-02,1.704843044281005859e-01,1.620442420244216919e-01
-2.342531690374016762e-03,3.807563334703445435e-02,-1.095803827047348022e-01,1.005653068423271179e-01,1.273906826972961426e-01,-2.010003328323364258e-01,-1.815415620803833008e-01,1.476062983274459839e-01,-1.606872528791427612e-01,-2.044285088777542114e-01,-1.157385110855102539e-01,-3.162074089050292969e-01,1.284886449575424194e-01,-1.426994651556015015e-01,2.846518158912658691e-01,-7.284049689769744873e-02,2.091024965047836304e-01,-1.513959914445877075e-01,5.472081527113914490e-02,-1.057709231972694397e-01,2.795700132846832275e-01,-1.677390187978744507e-01,-2.388131320476531982e-01,-2.167429625988006592e-01,-1.716132462024688721e-01,-1.286885440349578857e-01,1.005400419235229492e-01,-2.000341936945915222e-02,2.842852771282196045e-01,-2.415724843740463257e-01,-1.664024591445922852e-01,1.091002300381660461e-01,5.325342342257499695e-02,1.598112434148788452e-01,3.324398770928382874e-02,-7.278630882501602173e-02,-1.026188656687736511e-01,-4.193584620952606201e-02,1.110340654850006104e-01,-1.167368292808532715e-01,-1.045629009604454041e-01,-1.450633108615875244e-01,4.587686434388160706e-02,-7.573797553777694702e-02,-4.758081212639808655e-02,1.876925975084304810e-01,6.254889816045761108e-02,1.985927373170852661e-01,-1.368364412337541580e-02,1.644874513149261475e-01
-9.600402414798736572e-02,3.684930801391601562e-01,-1.465064734220504761e-01,-1.406923532485961914e-01,2.322709858417510986e-01,-9.276409447193145752e-02,9.074682369828224182e-03,1.352809369564056396e-01,-2.309225313365459442e-02,-8.079612255096435547e-02,5.407076328992843628e-02,-1.523374617099761963e-01,1.580735109746456146e-02,-1.913467645645141602e-01,5.577681213617324829e-02,1.742603071033954620e-02,-3.918735086917877197e-01,5.040489882230758667e-02,-7.607675343751907349e-02,-6.604266911745071411e-02,-1.159202493727207184e-02,7.192657887935638428e-02,1.326100248843431473e-02,2.248343266546726227e-02,-1.267143487930297852e-01,-2.848539501428604126e-02,4.406251311302185059e-01,-2.516195476055145264e-01,6.120435148477554321e-02,-1.930166780948638916e-01,1.876787394285202026e-01,-5.613570287823677063e-02,2.187353223562240601e-01,-3.673750162124633789e-01,-1.361915171146392822e-01,9.484486281871795654e-02,1.942254155874252319e-01,-9.172802418470382690e-02,2.953127622604370117e-01,-1.233312040567398071e-01,2.001178264617919922e-01,-3.617884963750839233e-02,2.646999061107635498e-01,2.842245250940322876e-02,-1.773526668548583984e-01,1.729451864957809448e-01,-1.866774111986160278e-01,-1.567996442317962646e-01,-1.066751778125762939e-01,-1.447956636548042297e-02
5.864970386028289795e-02,1.765706837177276611e-01,-1.523327380418777466e-01,1.989915519952774048e-01,-9.509453177452087402e-02,-7.384211570024490356e-02,-5.737328529357910156e-02,-1.197971180081367493e-01,-3.387787938117980957e-02,2.345081269741058350e-01,-4.433788359165191650e-03,1.290769428014755249e-01,1.189858093857765198e-01,3.045162260532379150e-01,-8.957235515117645264e-02,2.311956286430358887e-01,-1.353254541754722595e-02,2.092889547348022461e-01,1.410880535840988159e-01,-1.670136600732803345e-01,-1.241203397512435913e-01,1.805696636438369751e-01,-1.664323508739471436e-01,4.086077958345413208e-02,1.985151320695877075e-01,-2.807201631367206573e-02,5.442890897393226624e-02,-1.608760654926300049e-02,-6.100210826843976974e-03,8.608037978410720825e-02,-1.185818314552307129e-01,-8.162920176982879639e-02,-1.167691722512245178e-01,-1.239538118243217468e-01,2.434057593345642090e-01,-1.063913404941558838e-01,-2.700365521013736725e-02,-5.218111351132392883e-02,-1.436394304037094116e-01,-1.226001083850860596e-01,3.193445801734924316e-01,-8.140873163938522339e-02,1.985069923102855682e-02,-1.968421638011932373e-01,3.354738652706146240e-01,5.380107462406158447e-02,-1.862379759550094604e-01,-1.733188331127166748e-02,-1.451912075281143188e-01,2.193110883235931396e-01
