1.320123672485351562e-01,3.675590455532073975e-02,7.994505763053894043e-02,-6.931731849908828735e-02,-1.764859631657600403e-02,3.547901660203933716e-02,-8.481232449412345886e-03,-1.108111068606376648e-01,3.931702375411987305e-01,-3.032146096229553223e-01,4.816928505897521973e-01,-3.086581528186798096e-01,-6.415998190641403198e-02,5.545748025178909302e-02,3.604098558425903320e-01,-4.601499997079372406e-03,-3.145322902128100395e-03,7.792591582983732224e-03,4.601046815514564514e-02,4.585162550210952759e-02,3.952470049262046814e-02,3.858392313122749329e-02,-1.480359933339059353e-03,-1.044555008411407471e-01,-4.046268295496702194e-03,4.932791367173194885e-02,3.821843490004539490e-02,1.086240168660879135e-02,3.919548168778419495e-02
1.285343319177627563e-01,-5.128192529082298279e-02,-5.090337991714477539e-02,8.908703178167343140e-02,-4.200260341167449951e-02,1.252158731222152710e-01,-3.428220003843307495e-02,4.470835924148559570e-01,-1.880050897598266602e-01,-1.043468415737152100e-01,3.046908974647521973e-01,6.171045899391174316e-01,3.460881859064102173e-02,-2.657344192266464233e-02,2.439503371715545654e-01,1.362656988203525543e-02,-7.828649878501892090e-02,3.289657831192016602e-02,2.093255054205656052e-03,1.315544825047254562e-02,6.529206037521362305e-02,5.266030877828598022e-02,7.719326764345169067e-02,-1.143085956573486328e-02,5.198099836707115173e-02,1.057966351509094238e-01,6.135620176792144775e-02,2.545522712171077728e-02,8.117203414440155029e-02
2.013618350028991699e-01,-2.994093596935272217e-01,-2.050164639949798584e-01,-1.481153536587953568e-02,4.999354854226112366e-02,-1.032135635614395142e-01,1.171061303466558456e-02,-3.034697175025939941e-01,1.834945529699325562e-01,2.922428548336029053e-01,-2.198369801044464111e-01,2.459742873907089233e-01,-1.978715956211090088e-01,-2.710936218500137329e-02,-7.539834827184677124e-02,-1.859098486602306366e-02,-1.213359460234642029e-02,-1.186391618102788925e-02,5.791851319372653961e-03,-7.770203053951263428e-03,-3.837579861283302307e-02,-5.498225986957550049e-02,-2.984656579792499542e-02,-4.362869262695312500e-02,-2.607398852705955505e-02,2.494375687092542648e-03,-3.867448866367340088e-02,-1.643506251275539398e-02,-5.150889232754707336e-02
-4.636843223124742508e-03,2.358254045248031616e-01,-4.072288423776626587e-02,-4.866626113653182983e-02,3.179427608847618103e-02,6.015091389417648315e-02,2.018220163881778717e-02,-5.783449858427047729e-02,3.797745406627655029e-01,4.756401777267456055e-01,-1.837064921855926514e-01,-3.051708340644836426e-01,-3.426777943968772888e-02,-1.045142635703086853e-01,-3.299344182014465332e-01,-3.768012300133705139e-02,-2.157351747155189514e-02,-2.121385745704174042e-02,6.788706034421920776e-02,1.165315732359886169e-01,1.194661110639572144e-01,1.089815944433212280e-01,-2.629431709647178650e-02,-2.174040973186492920e-01,1.099531352519989014e-01,1.380999684333801270e-01,1.203460320830345154e-01,1.037778034806251526e-01,1.409255117177963257e-01
-1.196974050253629684e-02,-2.795224189758300781e-01,7.779359817504882812e-02,-1.587981581687927246e-01,-2.147758454084396362e-01,7.271257787942886353e-02,-1.047894917428493500e-02,8.857319504022598267e-02,3.389503955841064453e-01,-2.278615534305572510e-01,-2.130856662988662720e-01,-1.678464747965335846e-02,4.878606181591749191e-03,4.500290751457214355e-02,-1.721644699573516846e-01,2.273049391806125641e-02,-3.609518706798553467e-02,1.098250318318605423e-02,-3.032881021499633789e-02,1.926720701158046722e-02,2.385875396430492401e-02,2.474216744303703308e-02,-6.479723006486892700e-02,2.232384979724884033e-01,-8.766413666307926178e-03,2.030299417674541473e-02,2.278464660048484802e-02,1.263562683016061783e-02,5.147055536508560181e-02
-1.547129601240158081e-01,-4.572856426239013672e-01,6.644707918167114258e-02,2.259134650230407715e-01,-1.064871028065681458e-01,6.677485257387161255e-02,-7.608975749462842941e-03,1.631170660257339478e-01,5.283992290496826172e-01,-2.574936747550964355e-01,-3.580534458160400391e-01,1.719372868537902832e-01,-1.817201077938079834e-01,1.609496474266052246e-01,1.771484613418579102e-01,1.060649054124951363e-03,3.329791501164436340e-02,2.577896928414702415e-03,4.885855317115783691e-02,1.504962798207998276e-02,2.901881746947765350e-02,3.038900345563888550e-02,-1.113134920597076416e-01,-3.306145966053009033e-02,-1.118449717760086060e-01,2.089261822402477264e-02,2.610198222100734711e-02,-4.018693417310714722e-02,2.598313987255096436e-02
1.658551990985870361e-01,-1.015903502702713013e-01,1.425303518772125244e-01,-1.302817612886428833e-01,4.996189475059509277e-02,3.045530803501605988e-02,6.438853219151496887e-03,-2.571977376937866211e-01,-1.064125299453735352e-01,-3.172332644462585449e-01,1.708792448043823242e-01,-5.076446756720542908e-02,3.121702373027801514e-02,1.070301458239555359e-01,1.832323074340820312e-01,7.909989356994628906e-02,9.004693478345870972e-02,-7.470672950148582458e-03,-7.206202298402786255e-02,-5.160638689994812012e-02,-5.091586336493492126e-02,-4.424636811017990112e-02,-2.472614869475364685e-02,-4.724322259426116943e-02,-6.782060861587524414e-02,-2.744490653276443481e-02,-4.902305826544761658e-02,-9.805980324745178223e-02,-6.446609646081924438e-02
-1.057719290256500244e-01,-1.794627457857131958e-01,1.942592561244964600e-01,1.391474306583404541e-01,1.451697796583175659e-01,8.765946142375469208e-03,1.054209843277931213e-02,2.811928391456604004e-01,-4.356737732887268066e-01,4.456379413604736328e-01,1.018351316452026367e-01,2.066378295421600342e-02,5.852519720792770386e-02,-7.588630914688110352e-02,2.762903273105621338e-01,-1.026189848780632019e-01,-6.182987987995147705e-02,-1.201103720813989639e-02,1.957876682281494141e-01,1.786928325891494751e-01,1.739205420017242432e-01,1.700222790241241455e-01,6.237629055976867676e-02,2.374502718448638916e-01,9.162822365760803223e-02,1.864521503448486328e-01,1.759295910596847534e-01,2.220028638839721680e-01,1.830198019742965698e-01
8.462717384099960327e-02,2.832691371440887451e-01,-3.197744190692901611e-01,1.634158194065093994e-01,8.265865594148635864e-02,4.697589203715324402e-02,5.455219186842441559e-03,3.069273382425308228e-02,5.708743929862976074e-01,3.146896362304687500e-01,-5.624905824661254883e-01,1.326543986797332764e-01,-9.135198593139648438e-02,3.760391473770141602e-02,-3.052179515361785889e-01,7.057724893093109131e-02,8.945289999246597290e-02,-2.987198997288942337e-03,-4.303198680281639099e-02,-1.013503670692443848e-01,-1.107081174850463867e-01,-8.223139494657516479e-02,7.497907429933547974e-02,7.325205206871032715e-02,3.947296738624572754e-02,-1.658525168895721436e-01,-1.087447404861450195e-01,-7.446296513080596924e-02,-1.151761114597320557e-01
6.253246963024139404e-02,2.656883299350738525e-01,-6.864744424819946289e-02,9.310071915388107300e-02,1.480667740106582642e-01,-1.073671802878379822e-01,7.764960825443267822e-02,2.908015847206115723e-01,3.409635126590728760e-01,-6.391765922307968140e-02,3.458362519741058350e-01,1.288920491933822632e-01,1.424933224916458130e-01,1.805043406784534454e-02,3.686237931251525879e-01,-5.501062143594026566e-03,9.800393879413604736e-02,-7.412029802799224854e-02,1.744702905416488647e-01,2.093018293380737305e-01,2.199783921241760254e-01,2.123330235481262207e-01,1.367540061473846436e-01,-2.716203033924102783e-02,9.592156112194061279e-02,2.278110533952713013e-01,2.222446054220199585e-01,2.434222251176834106e-01,1.774002015590667725e-01
-2.493662983179092407e-01,-1.690545817837119102e-03,1.368686705827713013e-01,2.337625026702880859e-01,-3.725782036781311035e-02,5.474601313471794128e-02,-3.427968826144933701e-03,1.200548484921455383e-01,-3.384108096361160278e-02,-6.648074984550476074e-01,1.487650573253631592e-01,-1.529678702354431152e-01,1.653086990118026733e-01,2.683084607124328613e-01,-1.793147474527359009e-01,5.496825277805328369e-02,4.722499474883079529e-02,5.471267271786928177e-03,3.302805870771408081e-02,2.811241708695888519e-02,3.328069299459457397e-02,2.609075047075748444e-02,-3.098167292773723602e-02,1.142135560512542725e-01,1.474754884839057922e-02,5.099724233150482178e-02,3.303132206201553345e-02,4.726800695061683655e-02,-7.325354032218456268e-03
1.099517941474914551e-01,1.067467778921127319e-01,-1.155062764883041382e-01,-8.795790374279022217e-02,-2.240336872637271881e-02,-7.487273961305618286e-02,-2.312147058546543121e-03,3.826570510864257812e-01,-2.374481558799743652e-01,-4.611209928989410400e-01,2.845666706562042236e-01,9.004485607147216797e-02,-9.179712086915969849e-02,-4.049012437462806702e-02,3.097334802150726318e-01,-5.021869018673896790e-02,-1.344408374279737473e-02,-1.561532611958682537e-03,1.174119934439659119e-01,1.828113496303558350e-01,1.716518253087997437e-01,1.665304154157638550e-01,1.885371953248977661e-01,2.186586856842041016e-01,1.690944582223892212e-01,1.647337228059768677e-01,1.725676953792572021e-01,1.627331078052520752e-01,1.606004834175109863e-01
-3.721294552087783813e-02,1.495060920715332031e-01,-1.171308085322380066e-01,5.036543682217597961e-02,1.659537293016910553e-02,-3.391420096158981323e-02,-6.969762966036796570e-03,2.306407541036605835e-01,4.857355952262878418e-01,1.177209541201591492e-01,-6.528017576783895493e-03,2.069471627473831177e-01,7.857859879732131958e-02,-1.743830889463424683e-01,1.105331480503082275e-01,-4.955235496163368225e-02,-4.189632087945938110e-02,8.243113756179809570e-03,-8.723787032067775726e-03,3.870308399200439453e-03,2.353704348206520081e-02,2.335312217473983765e-02,7.676151394844055176e-02,1.676256358623504639e-01,7.009618729352951050e-02,4.005543142557144165e-02,2.516753785312175751e-02,1.870228536427021027e-02,4.286959301680326462e-03
3.199578225612640381e-01,-1.185765787959098816e-01,2.436904013156890869e-01,-1.814389526844024658e-01,1.533007174730300903e-01,-1.674067601561546326e-02,3.112231381237506866e-02,1.570508033037185669e-01,-3.064950406551361084e-01,-1.848007738590240479e-01,-2.588678598403930664e-01,-1.103170216083526611e-01,-2.097987979650497437e-01,-4.994922876358032227e-02,-2.447241991758346558e-01,1.318213623017072678e-02,3.688201308250427246e-02,-2.931026555597782135e-02,3.126622363924980164e-02,3.266010433435440063e-02,2.672640234231948853e-02,2.681121416389942169e-02,-4.799769073724746704e-02,-4.244881868362426758e-02,-3.091359883546829224e-02,2.882204204797744751e-02,3.000414185225963593e-02,6.400526314973831177e-02,6.128226965665817261e-02
-2.267599850893020630e-02,-2.010634839534759521e-01,-1.745060682296752930e-01,-7.889951765537261963e-02,-4.643840342760086060e-02,1.275387592613697052e-02,-5.582246929407119751e-02,-1.611948162317276001e-01,-6.546851992607116699e-02,-2.603168040513992310e-02,-4.108764529228210449e-01,-4.875036478042602539e-01,3.217369318008422852e-03,6.762499362230300903e-02,-4.998998641967773438e-01,-3.414031118154525757e-02,-7.502623647451400757e-02,5.421258509159088135e-02,-1.165519431233406067e-01,-1.048462167382240295e-01,-8.630402386188507080e-02,-8.443664759397506714e-02,-7.739433646202087402e-02,-8.031632006168365479e-02,-1.581552922725677490e-01,-8.865658938884735107e-02,-9.022898226976394653e-02,-1.198581978678703308e-01,-9.963904321193695068e-02
7.640585303306579590e-02,4.205320402979850769e-02,2.677688300609588623e-01,2.125586569309234619e-01,1.538411825895309448e-01,1.420115083456039429e-01,7.363573461771011353e-02,1.802791506052017212e-01,1.675616055727005005e-01,-7.517129182815551758e-02,3.795957863330841064e-01,3.810596168041229248e-01,3.184972330927848816e-02,-3.953769057989120483e-02,3.954110145568847656e-01,4.132180288434028625e-02,8.232270181179046631e-02,-6.940227746963500977e-02,1.655757799744606018e-02,4.314783215522766113e-02,-9.789885021746158600e-03,-4.263116046786308289e-02,-6.301824003458023071e-02,-2.942597866058349609e-02,1.987210288643836975e-02,4.850775003433227539e-02,-8.057473227381706238e-03,-2.385082654654979706e-02,5.099950730800628662e-02
-7.330120354890823364e-02,-1.734490245580673218e-01,1.089537963271141052e-01,2.717398852109909058e-02,-3.073014132678508759e-02,9.810768067836761475e-02,2.859690785408020020e-02,-2.965045571327209473e-01,-5.624823570251464844e-01,-1.008846312761306763e-01,-3.594456911087036133e-01,-1.031183172017335892e-02,1.350405067205429077e-02,4.046520590782165527e-02,-2.010592222213745117e-01,2.779766358435153961e-02,2.379440329968929291e-02,-2.605858258903026581e-02,-4.771578684449195862e-02,-9.475084394216537476e-02,-1.114463284611701965e-01,-1.083289980888366699e-01,-1.425952911376953125e-01,-6.311748921871185303e-02,-3.935698792338371277e-02,-1.191670522093772888e-01,-1.125153377652168274e-01,-1.479987353086471558e-01,-6.125189363956451416e-02
1.921032927930355072e-02,-3.500513732433319092e-02,-2.672290802001953125e-02,-6.009744107723236084e-02,3.462541382759809494e-03,-5.722151696681976318e-02,-1.260758470743894577e-02,-1.462689340114593506e-01,6.524627804756164551e-01,1.203686371445655823e-01,4.491761028766632080e-01,1.699132472276687622e-01,-6.789936125278472900e-02,-1.776199601590633392e-02,1.756218522787094116e-01,-7.101743947714567184e-03,-2.426524274051189423e-02,1.194400805979967117e-02,8.580562472343444824e-02,1.007940545678138733e-01,1.124888807535171509e-01,1.104595586657524109e-01,1.232871636748313904e-01,-4.455894231796264648e-03,1.590625345706939697e-01,1.188218966126441956e-01,1.126338616013526917e-01,1.192498877644538879e-01,4.672737792134284973e-02
-7.836583256721496582e-02,-6.088017672300338745e-02,-4.364480450749397278e-02,7.221806049346923828e-02,-5.448685586452484131e-02,-4.116739332675933838e-02,1.930245384573936462e-02,4.062411785125732422e-01,-7.934570312500000000e-02,-6.045510526746511459e-03,-1.303386241197586060e-01,-1.704108864068984985e-01,2.741075754165649414e-01,-1.338427513837814331e-01,-5.522236973047256470e-02,-5.867314338684082031e-02,-2.340581454336643219e-02,-1.853038184344768524e-02,2.384808510541915894e-01,1.656319946050643921e-01,1.479071378707885742e-01,1.467371433973312378e-01,6.604650616645812988e-02,1.532911658287048340e-01,7.682432979345321655e-02,1.360927969217300415e-01,1.479302048683166504e-01,1.569132506847381592e-01,1.985283941030502319e-01
2.799080498516559601e-02,1.279451102018356323e-01,-1.808016598224639893e-01,7.157599925994873047e-02,-1.640658825635910034e-01,2.399956062436103821e-02,9.950392879545688629e-03,2.077724933624267578e-01,-1.288715749979019165e-01,2.309362143278121948e-01,-1.735095679759979248e-01,5.240233540534973145e-01,-7.037760317325592041e-02,9.249450266361236572e-02,-1.375156641006469727e-01,3.548353537917137146e-02,3.648633882403373718e-02,-1.152494736015796661e-02,1.558075249195098877e-01,1.421665847301483154e-01,1.625644266605377197e-01,1.605107039213180542e-01,8.796976506710052490e-02,1.886241436004638672e-01,-1.194125190377235413e-01,1.767458766698837280e-01,1.616968065500259399e-01,1.226981133222579956e-01,1.871380656957626343e-01
-1.119609847664833069e-01,-9.731360524892807007e-02,-4.302623867988586426e-01,2.465428113937377930e-01,1.748988777399063110e-01,3.417896572500467300e-03,1.449578534811735153e-02,-4.410584867000579834e-01,9.811522811651229858e-02,-2.609843015670776367e-01,-2.521349787712097168e-01,-8.246397972106933594e-02,9.815274924039840698e-02,-2.793166041374206543e-01,1.933066248893737793e-01,1.710147410631179810e-02,1.963335089385509491e-03,-1.356747373938560486e-02,-7.990538328886032104e-02,-1.026548817753791809e-01,-1.007054895162582397e-01,-7.784804701805114746e-02,-1.419704109430313110e-01,2.464933097362518311e-01,-7.644779980182647705e-02,-8.844003826379776001e-02,-9.975641965866088867e-02,-1.176453307271003723e-01,-6.061161682009696960e-02
4.698435962200164795e-02,1.194978058338165283e-01,-1.179973706603050232e-01,-1.063807457685470581e-01,-2.535337954759597778e-02,-7.785582542419433594e-02,7.314812857657670975e-03,3.406153246760368347e-02,-2.190579175949096680e-01,-4.654861986637115479e-01,-6.365044042468070984e-03,1.784944832324981689e-01,-1.915964931249618530e-01,-1.389276832342147827e-01,-1.428280174732208252e-01,6.419927626848220825e-02,7.402324676513671875e-02,-7.244505919516086578e-03,-1.203101724386215210e-01,-9.616692364215850830e-02,-9.316213428974151611e-02,-9.612188488245010376e-02,1.160090789198875427e-01,-2.483360469341278076e-01,9.907586500048637390e-03,-1.186487898230552673e-01,-9.452006220817565918e-02,-6.073708087205886841e-02,-1.321910023689270020e-01
-1.618241518735885620e-01,3.890938311815261841e-02,1.777836084365844727e-01,1.346952468156814575e-01,-7.399693876504898071e-02,6.283402442932128906e-02,-4.517617449164390564e-02,-3.045357167720794678e-01,-5.454180836677551270e-01,-1.429153233766555786e-01,-8.455397561192512512e-03,-1.544255018234252930e-01,3.518248721957206726e-02,2.844220399856567383e-02,2.176651544868946075e-02,6.030340213328599930e-03,-7.307109236717224121e-02,4.356719553470611572e-02,4.600795358419418335e-02,7.243662327527999878e-02,7.149979472160339355e-02,7.350441813468933105e-02,4.700545966625213623e-02,-2.254294455051422119e-01,3.849373012781143188e-02,6.215760484337806702e-02,6.816372275352478027e-02,7.109422236680984497e-02,7.078378647565841675e-02
1.062870547175407410e-01,1.058490052819252014e-01,-9.401655197143554688e-02,-1.860710084438323975e-01,-7.711382210254669189e-02,-8.741138875484466553e-02,-6.615457590669393539e-03,3.620519936084747314e-01,-1.205253973603248596e-01,8.519546389579772949e-01,1.768935173749923706e-01,6.069175153970718384e-02,-4.749490320682525635e-02,-5.072418972849845886e-02,-6.477732211351394653e-02,-1.671227626502513885e-02,3.715556114912033081e-03,5.355672445148229599e-03,5.266914144158363342e-02,8.849497884511947632e-02,7.791374623775482178e-02,7.243420928716659546e-02,1.262542903423309326e-01,1.318113505840301514e-01,1.131254136562347412e-01,7.310134172439575195e-02,7.925797998905181885e-02,6.954432278871536255e-02,8.344592899084091187e-02
-4.007738828659057617e-02,2.589115500450134277e-01,-2.809651792049407959e-01,-2.057758904993534088e-02,9.832687675952911377e-03,-1.099225226789712906e-02,8.763905614614486694e-03,3.030350804328918457e-02,-4.908545613288879395e-01,4.210089743137359619e-01,1.904596984386444092e-01,-3.609337806701660156e-01,1.920076757669448853e-01,-1.648172885179519653e-01,-1.104381084442138672e-01,-3.589053079485893250e-02,-1.861759647727012634e-02,-9.033937938511371613e-03,-1.880092769861221313e-01,-1.351869404315948486e-01,-1.294581741094589233e-01,-1.381427794694900513e-01,-1.293291449546813965e-01,1.836065948009490967e-01,-1.149224936962127686e-01,-1.100743636488914490e-01,-1.300888657569885254e-01,-1.298567652702331543e-01,-1.442845016717910767e-01
-1.343731768429279327e-02,-8.504965901374816895e-02,-1.668265312910079956e-01,-7.686696201562881470e-02,-1.431502848863601685e-01,1.414386369287967682e-02,2.183010987937450409e-02,2.554869512096047401e-03,9.004072099924087524e-02,3.331109285354614258e-01,-3.759670853614807129e-01,2.326412051916122437e-01,-2.163609266281127930e-01,4.246843233704566956e-02,-3.009300827980041504e-01,-4.987216554582118988e-03,-4.562797548715025187e-04,-2.316800504922866821e-02,-6.029577180743217468e-02,2.096420340240001678e-02,1.399042364209890366e-02,1.682438701391220093e-02,1.062670648097991943e-01,-1.877641826868057251e-01,1.440163254737854004e-01,-3.230395913124084473e-02,1.223403681069612503e-02,-5.106249824166297913e-02,5.873485002666711807e-03
-1.702259331941604614e-01,2.233023755252361298e-02,-7.507994025945663452e-02,-1.150113642215728760e-01,-4.755092784762382507e-02,5.953983217477798462e-02,-3.708065487444400787e-03,-3.643194586038589478e-02,3.359561860561370850e-01,-4.321961700916290283e-01,1.280154474079608917e-02,-1.079879887402057648e-02,8.903533220291137695e-02,-8.823475986719131470e-02,-2.754381299018859863e-01,-4.546581581234931946e-02,-3.067195788025856018e-02,2.837158739566802979e-03,2.892379881814122200e-03,-2.522710151970386505e-02,-9.626471437513828278e-03,-3.746439702808856964e-03,-5.290273204445838928e-02,1.860337555408477783e-01,-4.274322092533111572e-02,-4.711261764168739319e-02,-5.795614793896675110e-03,2.161079272627830505e-02,6.511189043521881104e-02
-1.030735969543457031e-01,1.040669307112693787e-01,8.775430731475353241e-03,-1.654618233442306519e-01,1.139280200004577637e-01,-6.150411441922187805e-02,2.026981115341186523e-02,1.317956149578094482e-01,4.519440531730651855e-01,-2.783953547477722168e-01,-2.453550249338150024e-01,-1.334209293127059937e-01,1.000293865799903870e-01,-8.402568101882934570e-02,-5.536189675331115723e-01,-9.750813245773315430e-03,-3.894637152552604675e-02,-2.259546145796775818e-02,2.892315201461315155e-02,3.260924015194177628e-03,-3.829283639788627625e-02,-4.586021974682807922e-02,1.859597861766815186e-02,1.614901721477508545e-01,2.593933977186679840e-02,-2.316327579319477081e-02,-3.985574096441268921e-02,-8.099994063377380371e-02,-2.296241233125329018e-03
-8.503822237253189087e-02,2.922052517533302307e-02,-2.138283997774124146e-01,-9.713620692491531372e-02,8.589778095483779907e-02,-2.824196964502334595e-02,-9.017416276037693024e-03,-1.868181377649307251e-01,-1.884255707263946533e-01,4.827579855918884277e-01,-4.768653810024261475e-01,3.749119117856025696e-03,1.558331847190856934e-01,-2.729398608207702637e-01,2.129160016775131226e-01,1.225766818970441818e-02,-3.343762457370758057e-02,9.904172271490097046e-03,-8.982741832733154297e-02,-1.129345446825027466e-01,-1.555440574884414673e-01,-1.892296224832534790e-01,-2.320973128080368042e-01,-2.476111799478530884e-01,-7.612063735723495483e-02,-5.955171585083007812e-02,-1.589445024728775024e-01,-1.345418244600296021e-01,-1.645443737506866455e-01
-1.089987382292747498e-01,-1.022091880440711975e-01,-3.121631145477294922e-01,1.378695815801620483e-01,-6.581787019968032837e-03,4.365975409746170044e-02,1.171554438769817352e-02,-3.104760944843292236e-01,1.204778179526329041e-01,-1.888480968773365021e-03,3.446720838546752930e-01,8.107936382293701172e-02,-7.683051377534866333e-02,-1.444955468177795410e-01,3.781626820564270020e-01,5.834760144352912903e-02,7.001077383756637573e-02,-1.344781834632158279e-02,7.435701042413711548e-02,6.592398136854171753e-02,1.249124109745025635e-01,1.278092712163925171e-01,4.959950596094131470e-02,-1.884219050407409668e-01,9.101119637489318848e-02,7.450769096612930298e-02,1.266801357269287109e-01,1.907199472188949585e-01,7.649458944797515869e-02
-1.352187246084213257e-01,-5.282143130898475647e-02,-1.889754086732864380e-01,1.450342684984207153e-01,1.303489953279495239e-01,1.240095719695091248e-01,-1.354295015335083008e-02,1.547616273164749146e-01,-2.798792123794555664e-01,-4.444227367639541626e-02,5.279045924544334412e-02,5.866028070449829102e-01,2.188531011343002319e-01,7.712811976671218872e-02,2.038242071866989136e-01,6.658784300088882446e-02,3.306418657302856445e-02,9.168604388833045959e-03,-4.395400360226631165e-02,2.218301966786384583e-02,-6.824904680252075195e-02,-9.908050298690795898e-02,-1.907079219818115234e-01,1.640951633453369141e-02,-3.472901135683059692e-02,-7.931271195411682129e-02,-6.913852691650390625e-02,-7.110725343227386475e-02,-1.855812594294548035e-02
-1.931866556406021118e-01,1.625526696443557739e-01,1.190367117524147034e-01,-3.344361437484622002e-03,3.165883943438529968e-02,-1.867011934518814087e-02,3.769174590706825256e-02,-4.879953265190124512e-01,7.960177212953567505e-02,5.672408640384674072e-02,-3.669206798076629639e-01,-5.843525528907775879e-01,-5.684829317033290863e-03,2.967623062431812286e-02,-5.164072513580322266e-01,-1.179896295070648193e-02,8.630455285310745239e-02,-3.664336353540420532e-02,-8.631468564271926880e-02,-1.572602242231369019e-01,-2.101992517709732056e-01,-1.988144218921661377e-01,-1.628100723028182983e-01,7.906207442283630371e-02,-1.625308990478515625e-01,-2.269715368747711182e-01,-2.056068331003189087e-01,-1.956502646207809448e-01,-1.666990816593170166e-01
-1.143611520528793335e-01,-9.433624148368835449e-02,1.913540214300155640e-01,1.093702763319015503e-02,-5.032485350966453552e-02,6.062598153948783875e-02,5.987525219097733498e-04,2.703361213207244873e-01,-5.006922781467437744e-02,-2.845097780227661133e-01,-1.275962591171264648e-01,2.319840937852859497e-01,-5.697852000594139099e-02,2.033207379281520844e-02,-4.850873649120330811e-01,-7.749004662036895752e-02,-5.175039172172546387e-02,-2.805035328492522240e-03,9.207958728075027466e-02,5.553705990314483643e-02,5.390697717666625977e-02,4.645699635148048401e-02,-1.142716184258460999e-01,1.921384632587432861e-01,-7.685083150863647461e-02,7.551424205303192139e-02,5.468831956386566162e-02,7.139816880226135254e-02,1.053447499871253967e-01
-1.162541285157203674e-01,-1.142178550362586975e-01,-1.649871170520782471e-01,-1.374764144420623779e-01,-1.473931223154067993e-01,-5.292860046029090881e-02,-4.410720244050025940e-02,-4.151429533958435059e-01,-4.315173625946044922e-02,-1.665217131376266479e-01,1.189785078167915344e-01,-3.540259003639221191e-01,-4.248619079589843750e-02,-1.194103285670280457e-01,-8.810526132583618164e-02,3.929283842444419861e-02,-6.568952649831771851e-02,4.224023222923278809e-02,-2.285847067832946777e-01,-1.890231221914291382e-01,-1.928194612264633179e-01,-1.907123774290084839e-01,-8.388030529022216797e-02,-6.846757233142852783e-02,-6.732551753520965576e-02,-1.988919079303741455e-01,-1.951581090688705444e-01,-1.412523686885833740e-01,-1.868303865194320679e-01
-3.459211289882659912e-01,1.137749925255775452e-01,-4.403329268097877502e-02,-2.758182883262634277e-01,-2.399859763681888580e-02,4.048433402203954756e-05,-6.538250017911195755e-03,3.324184119701385498e-01,-2.880292236804962158e-01,1.084072142839431763e-01,1.950589418411254883e-01,5.528599396347999573e-02,1.751021295785903931e-01,-6.554734706878662109e-02,2.790947854518890381e-01,9.563452564179897308e-03,-1.343164034187793732e-02,8.944745175540447235e-03,1.440110057592391968e-01,5.321876704692840576e-02,2.862597629427909851e-02,6.179618462920188904e-02,1.237990893423557281e-02,1.411986947059631348e-01,1.098644062876701355e-01,-2.066838787868618965e-03,3.078749962151050568e-02,2.208649180829524994e-02,7.626669108867645264e-02
-1.435831934213638306e-01,3.731420636177062988e-02,-2.195233479142189026e-02,8.830346167087554932e-02,-1.176756545901298523e-01,-6.129835173487663269e-02,1.701353117823600769e-02,3.737966120243072510e-01,-3.913930058479309082e-02,1.168807446956634521e-01,-1.217673299834132195e-03,3.431179523468017578e-01,-1.548833400011062622e-01,7.597211003303527832e-02,2.252122014760971069e-01,-2.241019718348979950e-02,8.028166741132736206e-02,-1.628115959465503693e-02,4.877083748579025269e-02,9.879649430513381958e-02,1.072597652673721313e-01,1.175691485404968262e-01,-2.741285562515258789e-01,1.397415697574615479e-01,3.984820470213890076e-02,8.166322857141494751e-02,1.081694513559341431e-01,1.326756328344345093e-01,-6.261664628982543945e-02
-1.146447062492370605e-01,-1.177261024713516235e-02,-1.240754649043083191e-01,8.163105696439743042e-02,-8.691355586051940918e-02,-3.284965455532073975e-02,-1.786918379366397858e-02,1.968941241502761841e-01,5.634700655937194824e-01,3.026941977441310883e-02,3.971829116344451904e-01,-4.329132661223411560e-02,1.610954701900482178e-01,3.414737433195114136e-02,2.581508159637451172e-01,1.024478580802679062e-02,1.592783071100711823e-02,1.455955952405929565e-02,5.030300840735435486e-02,4.755047336220741272e-02,3.736603260040283203e-02,4.319679364562034607e-02,2.260876148939132690e-01,1.570767164230346680e-01,2.800507843494415283e-02,-4.243646282702684402e-03,3.674906119704246521e-02,7.572348415851593018e-02,8.231130242347717285e-02
1.199348121881484985e-01,1.189132556319236755e-01,-7.632745802402496338e-02,-1.786543726921081543e-01,-1.043259873986244202e-01,-1.380499303340911865e-01,-1.713402383029460907e-02,7.999519258737564087e-02,-1.546925753355026245e-01,2.735875546932220459e-02,-3.767682015895843506e-01,-3.870143592357635498e-01,1.437473744153976440e-01,1.536093652248382568e-02,-1.753417700529098511e-01,3.760019317269325256e-03,-2.117548137903213501e-02,1.504034548997879028e-02,-1.542946994304656982e-01,-1.046111136674880981e-01,-6.876808404922485352e-02,-7.099635899066925049e-02,-1.163875982165336609e-01,3.728759288787841797e-02,-1.015802994370460510e-01,-9.854675084352493286e-02,-6.554313749074935913e-02,-1.320707518607378006e-02,-1.272295266389846802e-01
3.037625178694725037e-02,4.360438585281372070e-01,-6.520493328571319580e-02,9.483085013926029205e-03,-1.787948305718600750e-03,2.576170023530721664e-03,-4.579945001751184464e-03,-4.270943701267242432e-01,-6.665140986442565918e-01,4.365558270364999771e-03,-1.330590844154357910e-01,-7.680396735668182373e-02,2.242114245891571045e-01,6.058324500918388367e-02,4.040537476539611816e-01,-6.939695216715335846e-03,-5.305594764649868011e-03,4.804201424121856689e-03,-9.683942794799804688e-02,-1.035113930702209473e-01,-1.035274043679237366e-01,-1.010292023420333862e-01,-1.009441763162612915e-01,1.982069015502929688e-01,-1.379849016666412354e-01,-1.108444333076477051e-01,-1.055596992373466492e-01,-1.145373433828353882e-01,-1.079408377408981323e-01
-1.626926213502883911e-01,-2.169584333896636963e-01,2.157854288816452026e-01,-9.025074541568756104e-04,-2.260230928659439087e-01,-7.084152661263942719e-03,2.293055178597569466e-03,-3.539476096630096436e-01,3.457422256469726562e-01,-1.874209195375442505e-01,9.498798847198486328e-02,-2.995266318321228027e-01,8.237811177968978882e-02,6.727114319801330566e-02,4.840112030506134033e-01,-7.423096895217895508e-02,-6.287550181150436401e-02,-1.367731019854545593e-03,-8.451133966445922852e-02,-2.562360465526580811e-02,-3.665363043546676636e-02,-4.283966496586799622e-02,-2.364962920546531677e-02,-8.415228128433227539e-02,-5.547055229544639587e-02,-6.549712270498275757e-02,-3.709643334150314331e-02,-7.943213731050491333e-02,-1.985034532845020294e-02
4.518490284681320190e-02,-2.017629593610763550e-01,-1.169331446290016174e-01,-4.967636987566947937e-02,-1.213662996888160706e-01,-1.948002167046070099e-02,8.150958456099033356e-03,-3.339415490627288818e-01,-3.851477503776550293e-01,1.092308089137077332e-01,4.915122091770172119e-01,-2.192028015851974487e-01,-1.777022890746593475e-02,3.826893493533134460e-02,3.455111682415008545e-01,1.492838375270366669e-03,-5.947496974840760231e-04,-8.970668539404869080e-03,2.513910830020904541e-01,2.429119348526000977e-01,2.473608553409576416e-01,2.403596043586730957e-01,1.537790298461914062e-01,-3.003473579883575439e-02,1.182479113340377808e-01,2.561651766300201416e-01,2.464527040719985962e-01,2.159392088651657104e-01,2.676458954811096191e-01
2.604950033128261566e-02,4.083190858364105225e-01,3.566780984401702881e-01,-4.851066321134567261e-02,3.665535151958465576e-02,1.161166187375783920e-02,1.183592132292687893e-03,-3.477407395839691162e-01,-2.421510517597198486e-01,-4.272306561470031738e-01,2.717491984367370605e-01,-9.399178624153137207e-02,-1.233313828706741333e-01,9.434156119823455811e-02,5.274524539709091187e-02,-2.465626597404479980e-02,-2.257308736443519592e-02,-1.806914689950644970e-03,3.579882532358169556e-02,4.821171239018440247e-02,4.409329965710639954e-02,3.991112112998962402e-02,8.341588824987411499e-02,1.645477116107940674e-01,1.212118119001388550e-01,6.283814460039138794e-02,4.501803219318389893e-02,3.359911963343620300e-02,4.858941212296485901e-02
4.449280351400375366e-02,-1.700658500194549561e-01,-3.159806877374649048e-02,-9.213134646415710449e-03,-4.014549776911735535e-02,-3.037625178694725037e-02,2.255804091691970825e-02,-2.944307588040828705e-02,8.665977418422698975e-02,-5.141747593879699707e-01,-1.550244688987731934e-01,-4.214204475283622742e-02,1.160811036825180054e-01,-1.876740008592605591e-01,9.689398109912872314e-02,-2.295560017228126526e-02,-8.045759052038192749e-03,-1.957952789962291718e-02,-1.227623876184225082e-02,-1.243144366890192032e-02,-3.142799064517021179e-02,-3.042832575738430023e-02,-6.841782014816999435e-03,2.661446630954742432e-01,8.789578452706336975e-03,-4.129070416092872620e-02,-3.051171451807022095e-02,-3.273570910096168518e-04,-5.843656882643699646e-02
1.213627979159355164e-01,3.045243620872497559e-01,5.014315247535705566e-02,-1.715606749057769775e-01,-5.989287793636322021e-02,-1.087394822388887405e-02,-2.562684379518032074e-02,-6.150675192475318909e-02,2.519816458225250244e-01,-3.097768127918243408e-01,-2.716279625892639160e-01,2.766449153423309326e-01,-3.538405150175094604e-02,-1.266964059323072433e-02,-2.793053984642028809e-01,5.192582309246063232e-02,9.265870787203311920e-03,2.710985019803047180e-02,7.082093507051467896e-02,5.530038848519325256e-02,6.986396759748458862e-02,8.645898848772048950e-02,-1.972570084035396576e-02,-2.457812130451202393e-01,8.739964663982391357e-02,6.815581023693084717e-02,6.658333539962768555e-02,5.753002688288688660e-02,6.418270617723464966e-02
1.277204453945159912e-01,-3.127047717571258545e-01,1.340781301259994507e-01,1.842643916606903076e-01,3.491396084427833557e-02,-4.018285870552062988e-02,-3.437222912907600403e-02,-1.353824883699417114e-01,-3.373734056949615479e-01,1.884964704513549805e-01,2.786921858787536621e-01,1.861572712659835815e-01,-1.961215585470199585e-01,1.160968318581581116e-01,3.892974257469177246e-01,2.775403484702110291e-02,1.822643680498003960e-03,3.310626372694969177e-02,-1.641057729721069336e-01,-1.426160633563995361e-01,-1.090476140379905701e-01,-1.074462905526161194e-01,1.808334290981292725e-01,-1.126384735107421875e-02,8.380392938852310181e-02,-1.504255682229995728e-01,-1.062691286206245422e-01,3.533379733562469482e-02,-1.472117453813552856e-01
-4.423355311155319214e-02,-1.943413019180297852e-01,2.633854150772094727e-01,1.160459313541650772e-02,8.355191349983215332e-02,-6.459326017647981644e-03,2.824693219736218452e-04,-4.579756855964660645e-01,2.765359878540039062e-01,3.558937907218933105e-01,-2.817224264144897461e-01,-3.229266032576560974e-02,1.698814034461975098e-01,7.463853806257247925e-02,-9.045290201902389526e-02,6.062135472893714905e-02,8.600500412285327911e-03,2.788636367768049240e-03,6.031509116291999817e-02,-2.582699619233608246e-02,-9.235530160367488861e-03,-3.434820566326379776e-03,-4.592943936586380005e-02,-1.857816576957702637e-01,-6.141084246337413788e-03,8.401575498282909393e-03,-1.022376213222742081e-02,4.535459727048873901e-02,6.114535499364137650e-03
4.150987043976783752e-02,-8.754697442054748535e-02,-9.231919795274734497e-02,1.102775260806083679e-01,-4.354979842901229858e-02,1.000726073980331421e-01,-2.292789705097675323e-02,-1.696162074804306030e-01,7.593195885419845581e-02,6.219728589057922363e-01,1.685429066419601440e-01,-1.005144715309143066e-01,-3.786635771393775940e-02,5.190816149115562439e-02,-7.867460697889328003e-02,3.000172786414623260e-02,-4.291655495762825012e-03,2.107800729572772980e-02,-3.279721830040216446e-03,-1.598377339541912079e-02,2.306799404323101044e-03,1.335106207989156246e-04,-8.298718184232711792e-02,2.080840170383453369e-01,-9.716632962226867676e-02,8.919807150959968567e-03,-3.941867616958916187e-04,-4.716504737734794617e-02,-5.702825728803873062e-03
6.546664983034133911e-02,1.236463412642478943e-01,-2.998977899551391602e-01,6.054569035768508911e-03,1.741541326045989990e-01,1.494939476251602173e-01,1.409349031746387482e-02,-5.033895000815391541e-02,-3.311161100864410400e-01,-2.713087946176528931e-02,1.561572998762130737e-01,-1.654261946678161621e-01,-7.359838485717773438e-02,-2.478245943784713745e-01,2.296216189861297607e-01,-7.989472895860671997e-02,-8.458683267235755920e-03,-1.282014697790145874e-02,-7.802543789148330688e-02,-1.028382107615470886e-01,-1.233380436897277832e-01,-1.292674988508224487e-01,-1.021990180015563965e-01,-9.720699489116668701e-02,-1.559558808803558350e-01,-1.487131416797637939e-01,-1.237719431519508362e-01,-1.841726303100585938e-01,-1.256208121776580811e-01
9.473062306642532349e-02,6.096855923533439636e-02,1.209012344479560852e-01,-9.322375804185867310e-02,4.800996556878089905e-02,1.724098692648112774e-03,3.828323259949684143e-02,-2.130209952592849731e-01,9.738669544458389282e-02,-3.433820307254791260e-01,-3.930932283401489258e-01,1.430394873023033142e-02,1.617994457483291626e-01,-1.808659136295318604e-01,-5.245552062988281250e-01,-3.616426140069961548e-02,1.391845056787133217e-03,-3.664424642920494080e-02,-7.025382667779922485e-02,-1.127798631787300110e-01,-1.231718063354492188e-01,-1.272242069244384766e-01,4.360798280686140060e-03,2.519815266132354736e-01,-8.920894563198089600e-02,-1.098817586898803711e-01,-1.224684715270996094e-01,-1.100143268704414368e-01,-9.604892879724502563e-02
5.572079494595527649e-02,-1.488376259803771973e-01,3.328649401664733887e-01,-6.113692373037338257e-02,-1.176488846540451050e-01,2.515757828950881958e-02,-3.045481443405151367e-02,1.520512104034423828e-01,1.462839841842651367e-01,1.560325026512145996e-01,1.041577011346817017e-01,3.835284337401390076e-02,-3.193309158086776733e-02,3.497564494609832764e-01,-1.357171386480331421e-01,-6.509540975093841553e-02,-9.373012185096740723e-02,2.545656636357307434e-02,3.011763095855712891e-02,6.356257200241088867e-02,3.402725234627723694e-02,1.786937937140464783e-02,5.495712161064147949e-02,1.822483837604522705e-01,-4.046472907066345215e-02,4.155402258038520813e-02,3.339445590972900391e-02,5.431778728961944580e-02,3.123889118432998657e-02
