-1.775463819503784180e-01
-2.861480712890625000e-01
-6.386582553386688232e-02
9.497730433940887451e-02
-9.724693000316619873e-02
5.830636247992515564e-02
3.341199457645416260e-02
-5.811001360416412354e-02
-3.933131396770477295e-01
-7.198871672153472900e-02
-1.222788020968437195e-01
-6.430573016405105591e-02
-2.122965082526206970e-02
6.332429647445678711e-01
-3.993331491947174072e-01
-5.318265873938798904e-03
5.085368826985359192e-02
-4.367451071739196777e-01
-7.066538929939270020e-02
1.685811281204223633e-01
-6.034637987613677979e-02
-3.177160620689392090e-01
5.990316867828369141e-01
-6.644032895565032959e-02
9.692103415727615356e-02
-7.126809656620025635e-02
-6.070399656891822815e-02
1.074116528034210205e-01
5.838603526353836060e-02
9.449344128370285034e-03
-3.907113894820213318e-02
1.785560846328735352e-01
-1.513263769447803497e-02
-2.541677057743072510e-01
-1.881419569253921509e-01
-6.593368202447891235e-02
-2.994930744171142578e-01
-1.668370515108108521e-01
-1.472083181142807007e-01
-3.269627690315246582e-01
7.098101079463958740e-02
-1.227207202464342117e-02
4.422397166490554810e-02
-4.179863631725311279e-02
-2.831315100193023682e-01
1.203373074531555176e-01
-3.219671845436096191e-01
7.555331289768218994e-02
-1.143936514854431152e-01
-2.298192828893661499e-01
