-5.873984098434448242e-01
3.856767714023590088e-01
-2.917507849633693695e-02
-3.009411394596099854e-01
-1.636368036270141602e-01
1.214723363518714905e-01
-2.494933456182479858e-01
-5.094697475433349609e-01
-7.493998408317565918e-01
-1.223981603980064392e-01
-9.834913611412048340e-01
8.184805512428283691e-03
-1.162142679095268250e-01
-2.391303032636642456e-01
-6.517353653907775879e-01
-3.577590687200427055e-03
-5.352562069892883301e-01
-3.222658932209014893e-01
2.224115133285522461e-01
-4.279124438762664795e-01
-1.432176232337951660e-01
2.680226564407348633e-01
-4.684020280838012695e-01
-2.634994983673095703e-01
-5.740702152252197266e-01
1.707392036914825439e-01
-7.995306253433227539e-01
-6.202943325042724609e-01
-2.504631876945495605e-01
-5.974470973014831543e-01
-4.183552265167236328e-01
-2.571306526660919189e-01
-1.915660947561264038e-01
-1.508337259292602539e+00
-1.127593159675598145e+00
-5.594484210014343262e-01
-2.979415059089660645e-01
-6.639893054962158203e-01
-5.533909797668457031e-01
-4.069682955741882324e-01
-5.290303751826286316e-02
1.417375206947326660e-01
2.300274074077606201e-01
-4.827583432197570801e-01
1.897014379501342773e-01
2.578228339552879333e-02
5.268480777740478516e-01
8.012350201606750488e-01
6.973515450954437256e-02
9.373956918716430664e-02
