-2.113861739635467529e-01
-2.291291803121566772e-01
1.393830478191375732e-01
7.047653794288635254e-01
-5.913344621658325195e-01
-2.558905184268951416e-01
9.130901694297790527e-01
-6.672406196594238281e-01
-6.908178925514221191e-01
-3.770656585693359375e-01
-6.926712393760681152e-01
-2.662659585475921631e-01
2.884024288505315781e-04
-6.966386437416076660e-01
-3.884584903717041016e-01
-2.196699529886245728e-01
1.253715157508850098e-01
2.020886093378067017e-01
3.284839689731597900e-01
-4.635855853557586670e-01
-3.329364061355590820e-01
-6.113773584365844727e-01
-3.636602759361267090e-01
3.661285936832427979e-01
5.268719792366027832e-01
-3.459475338459014893e-01
5.968019962310791016e-01
-1.634521126747131348e+00
-4.945750534534454346e-01
-2.592169344425201416e-01
5.961710214614868164e-01
4.168848320841789246e-02
1.411317735910415649e-01
-4.212179481983184814e-01
-6.766049563884735107e-02
-5.576222538948059082e-01
-1.392277598381042480e+00
-4.959263205528259277e-01
-6.081762313842773438e-01
7.979893684387207031e-01
-4.397478997707366943e-01
2.985683269798755646e-03
-5.278244614601135254e-01
-1.430277377367019653e-01
4.017926454544067383e-01
1.336514472961425781e+00
-4.705517292022705078e-01
-8.222886919975280762e-02
-3.371393978595733643e-01
-3.851285576820373535e-01
