-1.644946813583374023e+00
-2.210368156433105469e+00
-1.805693984031677246e+00
-9.133616089820861816e-01
-7.235153913497924805e-01
-1.512641191482543945e+00
-7.159952521324157715e-01
-4.745182581245899200e-03
-1.525750279426574707e+00
4.974501430988311768e-01
-1.845215559005737305e+00
-2.245522588491439819e-01
-1.911353349685668945e+00
-3.065414190292358398e+00
-1.472459077835083008e+00
2.516936302185058594e+00
-1.564916729927062988e+00
-8.809133172035217285e-01
-3.983349561691284180e+00
-2.655092000961303711e+00
6.991516798734664917e-02
-1.478560328483581543e+00
-5.242383480072021484e-01
5.581175442785024643e-03
1.866782665252685547e+00
-1.833753943443298340e+00
-1.171506285667419434e+00
-3.462626218795776367e+00
1.215437706559896469e-02
-1.618250250816345215e+00
-2.434972047805786133e+00
-1.996487736701965332e+00
3.366579711437225342e-01
-2.261065483093261719e+00
-1.703382372856140137e+00
-2.149755477905273438e+00
-2.791491746902465820e+00
-3.784926235675811768e-02
-5.914134383201599121e-01
-1.614821076393127441e+00
-2.233274459838867188e+00
-4.808106422424316406e-01
-1.301622152328491211e+00
-3.514089882373809814e-01
-2.292064428329467773e+00
-2.776525020599365234e+00
2.042636394500732422e+00
1.378103345632553101e-01
6.973950266838073730e-01
-1.870239973068237305e+00
