-1.999078869819641113e+00
2.727844476699829102e+00
3.469022512435913086e+00
-3.439573526382446289e+00
2.074867010116577148e+00
1.023869737982749939e-01
3.326169028878211975e-02
-1.808513641357421875e+00
2.641186118125915527e-01
3.625584363937377930e+00
-1.975464463233947754e+00
9.184633493423461914e-01
9.065335392951965332e-01
-2.411168813705444336e+00
-1.802392005920410156e+00
1.786142110824584961e+00
1.025822877883911133e+00
1.067878246307373047e+00
6.816507577896118164e-01
1.415627360343933105e+00
8.384941220283508301e-01
-2.418697357177734375e+00
2.278738737106323242e+00
1.054326772689819336e+00
-2.800806164741516113e-01
-1.458515405654907227e+00
-8.589679598808288574e-01
-1.827821016311645508e+00
-3.599104583263397217e-01
-1.619735240936279297e+00
-2.960249185562133789e-01
-3.485513687133789062e+00
1.942782521247863770e+00
1.370647430419921875e+00
1.149060010910034180e+00
8.386655449867248535e-01
-1.769217371940612793e+00
1.919962882995605469e+00
-7.232640981674194336e-01
2.037646532058715820e+00
-3.781610131263732910e-01
-2.341323375701904297e+00
-1.172039985656738281e+00
-3.884643018245697021e-01
2.160979270935058594e+00
1.228026032447814941e+00
-1.779383897781372070e+00
7.338225841522216797e-01
8.849410414695739746e-01
-1.601215004920959473e+00
