-6.159003376960754395e-01
-1.715468168258666992e+00
1.160126686096191406e+00
-1.071849346160888672e+00
1.613800287246704102e+00
-1.015000820159912109e+00
-2.144912332296371460e-01
3.646344318985939026e-02
9.179974198341369629e-01
7.636190056800842285e-01
-1.031262636184692383e+00
2.260541617870330811e-01
2.251440882682800293e-01
-6.603951454162597656e-01
-2.168254137039184570e+00
2.042996644973754883e+00
-2.558897435665130615e-02
1.592770665884017944e-01
-1.056044220924377441e+00
1.130559682846069336e+00
3.492324948310852051e-01
-1.312780976295471191e+00
-3.404194116592407227e-02
2.690227925777435303e-01
-4.705938696861267090e-01
-5.500447750091552734e-01
1.363184452056884766e-01
1.620739340782165527e+00
3.943699598312377930e-01
-3.365956246852874756e-01
3.254204988479614258e-01
-4.850537776947021484e-01
9.703679084777832031e-01
1.779354214668273926e+00
1.338659077882766724e-01
5.318589806556701660e-01
-8.340577483177185059e-01
9.351823925971984863e-01
8.933199048042297363e-01
1.039690613746643066e+00
2.170393168926239014e-01
-6.197410225868225098e-01
9.985144138336181641e-01
-1.202328801155090332e+00
-5.028927326202392578e-01
7.470526695251464844e-01
-1.153374433517456055e+00
5.485208630561828613e-01
-1.728300303220748901e-01
5.866673588752746582e-01
