-1.051667630672454834e-01,7.783488929271697998e-02,2.793360054492950439e-01,1.228753849864006042e-01,4.218955934047698975e-01,3.494492471218109131e-01,1.765731424093246460e-01,1.608313024044036865e-01,-1.668470799922943115e-01,1.562359780073165894e-01,3.822848573327064514e-02,-7.278415840119123459e-03,5.808095335960388184e-01,-3.983822166919708252e-01,5.251486226916313171e-02,-1.587433367967605591e-01,1.408150196075439453e-01,1.977612078189849854e-01,-3.002574443817138672e-01,-1.800808757543563843e-01,-3.549878671765327454e-02,-2.677517533302307129e-01,-6.238824874162673950e-02,8.499359339475631714e-02,1.926025599241256714e-01,7.637604326009750366e-02,5.017986893653869629e-02,6.328609585762023926e-02,-8.611264824867248535e-02,2.838701382279396057e-02,-2.931717410683631897e-02,4.415684193372726440e-02,2.143903523683547974e-01,-2.353633493185043335e-01,3.330066502094268799e-01,3.143300712108612061e-01,-1.673580259084701538e-01,1.911487281322479248e-01,-2.323382645845413208e-01,-7.385327666997909546e-02,1.961331367492675781e-01,3.502696156501770020e-01,4.168161153793334961e-01,2.025333046913146973e-01,1.387717872858047485e-01,-2.805767208337783813e-02,2.195431478321552277e-02,-4.675588756799697876e-02,-1.912443190813064575e-01,2.156646400690078735e-01
-2.455780655145645142e-01,6.906181573867797852e-01,3.454141318798065186e-02,6.016406230628490448e-03,3.632668778300285339e-02,1.293014585971832275e-01,2.417778819799423218e-01,4.696226119995117188e-02,2.349526286125183105e-01,4.942483082413673401e-02,4.823238775134086609e-02,-4.911679774522781372e-02,3.266945481300354004e-01,-4.760938286781311035e-01,1.281241327524185181e-01,-2.656884193420410156e-01,1.689909584820270538e-02,2.969975471496582031e-01,-4.045111238956451416e-01,-7.735201716423034668e-01,-3.400205075740814209e-01,-2.702302634716033936e-01,-2.279398441314697266e-01,4.059098958969116211e-01,3.542361781001091003e-02,9.712347388267517090e-02,9.461027383804321289e-02,-2.619131803512573242e-01,3.334781527519226074e-01,2.749481201171875000e-01,6.738106906414031982e-02,-6.575948745012283325e-02,1.019289195537567139e-01,1.921342127025127411e-02,3.478971719741821289e-01,-2.554918825626373291e-01,-2.484231591224670410e-01,-4.763684868812561035e-01,-3.298746645450592041e-01,2.616181969642639160e-01,-3.546103835105895996e-02,5.760583877563476562e-01,1.025519967079162598e-01,-1.900156885385513306e-01,-2.568866610527038574e-01,-2.521619498729705811e-01,1.458650380373001099e-01,2.091320306062698364e-01,-1.908762902021408081e-01,1.242723017930984497e-01
3.367785811424255371e-01,6.572926789522171021e-02,2.510471940040588379e-01,-3.774143382906913757e-02,-2.523496448993682861e-01,1.243748813867568970e-01,-8.791449363343417645e-04,-1.642847061157226562e-01,-2.049247622489929199e-01,1.668531149625778198e-01,-1.075441315770149231e-01,-2.081747204065322876e-01,-3.179214522242546082e-02,-1.924139559268951416e-01,-3.103051781654357910e-01,1.015710905194282532e-01,5.480740591883659363e-02,1.589290946722030640e-01,-8.024307340383529663e-02,-1.856135874986648560e-01,-2.760464847087860107e-01,1.212991308420896530e-02,-1.099461913108825684e-01,-1.225612983107566833e-01,8.893153630197048187e-03,1.531075537204742432e-01,1.724344193935394287e-01,1.624013036489486694e-01,1.098044514656066895e-01,-8.633707650005817413e-03,4.127599671483039856e-02,7.901611179113388062e-02,-6.417082250118255615e-02,-1.330237984657287598e-01,1.322484016418457031e-01,-1.590288877487182617e-01,-1.362821608781814575e-01,-3.673124313354492188e-01,1.464762687683105469e-01,-7.508567720651626587e-02,1.730693727731704712e-01,1.936819702386856079e-01,3.596090525388717651e-02,-1.054078638553619385e-01,-1.463349070399999619e-02,2.994932532310485840e-01,-4.671904817223548889e-02,-2.792237997055053711e-01,-3.932164311408996582e-01,4.383243154734373093e-03
-7.223913818597793579e-02,3.244691491127014160e-01,-2.874609529972076416e-01,-7.454150319099426270e-01,-3.521747142076492310e-02,1.437281370162963867e-01,1.787788718938827515e-01,-9.462527930736541748e-03,1.835955530405044556e-01,1.807674467563629150e-01,-3.391406834125518799e-01,-4.137629866600036621e-01,-2.821002304553985596e-01,3.888303786516189575e-02,3.183122575283050537e-01,2.305643856525421143e-01,-2.161222994327545166e-01,-9.565484523773193359e-02,-1.853421926498413086e-01,-2.650481462478637695e-01,2.517504096031188965e-01,-1.545283049345016479e-01,-2.063897848129272461e-01,-5.162951350212097168e-02,-2.335766404867172241e-01,-3.077431209385395050e-02,-1.574873328208923340e-01,5.790820345282554626e-02,-7.432568073272705078e-02,-1.028217598795890808e-01,-1.391852647066116333e-01,1.382325291633605957e-01,-1.624774634838104248e-01,-9.483139216899871826e-02,-1.732109189033508301e-01,7.260369509458541870e-02,5.519650876522064209e-02,-8.401682227849960327e-02,-2.335262596607208252e-01,5.432044342160224915e-02,1.006827279925346375e-01,-2.145494818687438965e-01,-9.998841583728790283e-02,-1.140943765640258789e-01,-2.557861804962158203e-02,-1.427075713872909546e-01,-4.696501493453979492e-01,-2.190718352794647217e-01,-7.307299971580505371e-02,-4.904726445674896240e-01
1.751601099967956543e-01,-7.049461454153060913e-02,1.392155438661575317e-01,1.786725968122482300e-02,-1.520197689533233643e-01,-1.320872604846954346e-01,-7.818596810102462769e-02,1.171931102871894836e-01,-1.166098937392234802e-02,-3.486435860395431519e-03,-7.111671566963195801e-02,-2.419673204421997070e-01,7.400930672883987427e-02,-1.608284562826156616e-02,-1.693212240934371948e-01,-1.109519079327583313e-01,4.127376526594161987e-02,-4.780859500169754028e-02,7.198286801576614380e-02,-8.764535188674926758e-03,9.729944169521331787e-02,-7.065588235855102539e-02,1.262184381484985352e-01,-5.951498076319694519e-02,1.022277772426605225e-01,-1.054698303341865540e-01,-1.681376099586486816e-01,1.136239022016525269e-01,3.377357870340347290e-02,-9.716500341892242432e-02,2.881195545196533203e-01,-2.788018621504306793e-02,3.166160546243190765e-03,2.667992003262042999e-02,5.534714832901954651e-02,4.350093379616737366e-02,6.790775805711746216e-02,-2.383232861757278442e-01,-7.483598589897155762e-02,4.755497723817825317e-02,5.198929831385612488e-02,1.786045134067535400e-01,3.593250364065170288e-02,-1.285305768251419067e-01,-9.028767794370651245e-02,-1.129588857293128967e-01,-1.345030590891838074e-02,8.080129325389862061e-02,3.933407738804817200e-02,-6.768776476383209229e-02
1.480358839035034180e-01,4.081360995769500732e-01,-2.664297223091125488e-01,-4.313344359397888184e-01,-2.263626754283905029e-01,2.279769629240036011e-01,2.385491877794265747e-01,-2.543888986110687256e-01,-3.696681559085845947e-01,4.537597000598907471e-01,-4.789343178272247314e-01,-3.070473372936248779e-01,-2.813191339373588562e-02,-1.230977848172187805e-01,1.551725268363952637e-01,-9.422925114631652832e-02,-3.890497088432312012e-01,2.137594372034072876e-01,-6.177517771720886230e-02,-3.245639204978942871e-01,3.024604022502899170e-01,1.315828859806060791e-01,-3.554486036300659180e-01,-1.227062493562698364e-01,5.120288208127021790e-02,1.294981390237808228e-01,-1.794561147689819336e-01,-8.914003521203994751e-02,1.440219581127166748e-01,-8.605487644672393799e-02,-8.167114108800888062e-02,3.292410075664520264e-01,-2.846044488251209259e-02,-3.211271390318870544e-02,-1.702732294797897339e-01,-3.334611058235168457e-01,2.788384854793548584e-01,8.339890837669372559e-02,9.606167674064636230e-02,-1.800602674484252930e-02,2.374710291624069214e-01,2.063781768083572388e-01,4.381593465805053711e-01,-4.409714415669441223e-02,2.426557391881942749e-01,1.258510351181030273e-02,-4.438006877899169922e-01,-1.847226470708847046e-01,9.350728243589401245e-02,-5.774447917938232422e-01
2.726722508668899536e-02,1.115844100713729858e-01,-5.039919540286064148e-02,-3.760026097297668457e-01,-1.940302252769470215e-01,-1.140047013759613037e-01,2.711008787155151367e-01,-2.619596123695373535e-01,1.358560472726821899e-01,3.283576369285583496e-01,-3.501717746257781982e-01,-4.230211079120635986e-01,-3.411011025309562683e-02,-2.277139574289321899e-01,-2.062779851257801056e-02,-1.472056657075881958e-01,-3.720575571060180664e-01,-1.223777756094932556e-01,-2.491431087255477905e-01,-2.342187017202377319e-01,2.366071641445159912e-01,5.409011989831924438e-02,-1.340549886226654053e-01,-8.895215392112731934e-02,-2.586260251700878143e-02,-2.656742036342620850e-01,1.525768637657165527e-01,-1.780264526605606079e-01,2.706183791160583496e-01,-5.030071735382080078e-02,2.362565100193023682e-01,1.811098903417587280e-01,2.614077739417552948e-02,-3.591115772724151611e-01,5.860490351915359497e-02,-4.400328733026981354e-03,2.112969458103179932e-01,2.847362458705902100e-01,7.120195776224136353e-02,1.317869722843170166e-01,2.122013717889785767e-01,9.464132040739059448e-02,-3.539481759071350098e-01,-7.477519661188125610e-02,-2.795806713402271271e-02,-3.761359304189682007e-02,-4.805158078670501709e-01,-2.886268496513366699e-01,-5.605842545628547668e-02,-2.430791556835174561e-01
2.041354328393936157e-01,3.338000923395156860e-02,-1.615662425756454468e-01,-6.358495738822966814e-05,9.505977481603622437e-02,4.095562547445297241e-02,5.703628808259963989e-02,-9.089698642492294312e-02,-1.066677346825599670e-01,3.797066863626241684e-03,4.127124696969985962e-02,-7.266817986965179443e-02,-6.821491755545139313e-03,-6.880707573145627975e-03,-1.842180341482162476e-01,2.129876166582107544e-01,3.813849529251456261e-03,2.470267564058303833e-02,-1.669915914535522461e-01,-1.199713200330734253e-01,-3.957834839820861816e-02,1.042793393135070801e-01,7.950864732265472412e-02,-5.000909417867660522e-02,7.435885816812515259e-02,7.576854526996612549e-02,1.134718134999275208e-01,-2.544536255300045013e-02,-1.490313932299613953e-02,-8.835153281688690186e-02,3.015936911106109619e-02,4.125995188951492310e-02,-3.095492534339427948e-02,-5.564107373356819153e-02,1.469832509756088257e-01,1.300192475318908691e-01,1.107873320579528809e-01,1.286806762218475342e-01,8.915298432111740112e-02,-1.147981435060501099e-01,-1.751859486103057861e-01,6.587485969066619873e-02,1.073473319411277771e-01,4.711243510246276855e-02,-6.569354981184005737e-02,1.541612446308135986e-01,-1.010082066059112549e-01,-6.002732366323471069e-02,8.397915214300155640e-02,6.135965883731842041e-02
1.859221607446670532e-01,1.396621763706207275e-01,5.143345519900321960e-02,1.695368885993957520e-01,1.217663474380970001e-02,9.392660856246948242e-02,4.402315318584442139e-01,-1.528009865432977676e-02,2.109825760126113892e-01,-1.596742421388626099e-01,-2.345806360244750977e-01,1.217534691095352173e-01,3.660078346729278564e-01,-2.314418554306030273e-01,1.765034534037113190e-02,3.050600290298461914e-01,-4.381539300084114075e-02,1.783916354179382324e-01,-1.864777505397796631e-01,3.005901277065277100e-01,-1.005921512842178345e-01,-2.563467323780059814e-01,2.074659764766693115e-01,2.602035701274871826e-01,-9.120718389749526978e-02,3.759377002716064453e-01,-4.669471085071563721e-02,9.830923378467559814e-02,1.845159828662872314e-01,-1.309334486722946167e-01,2.819530367851257324e-01,-1.689480995992198586e-04,3.708060383796691895e-01,2.403810769319534302e-01,3.477733209729194641e-02,8.846610039472579956e-02,6.638305634260177612e-02,1.501768231391906738e-01,-1.898950189352035522e-01,8.565085381269454956e-02,1.148581057786941528e-01,9.088275581598281860e-02,-1.524335592985153198e-01,1.201193481683731079e-01,9.725946933031082153e-02,1.245641559362411499e-01,9.483852982521057129e-01,1.157215796411037445e-02,-4.597455635666847229e-02,-1.910061985254287720e-01
1.476066857576370239e-01,-9.663477540016174316e-02,-1.568701267242431641e-01,-3.827098757028579712e-02,1.300643682479858398e-01,-2.357920072972774506e-02,1.496504340320825577e-02,-3.391193225979804993e-02,8.783158659934997559e-02,2.125968039035797119e-02,2.367091178894042969e-02,6.233533471822738647e-02,9.139111638069152832e-02,-1.636904478073120117e-02,6.976051628589630127e-02,1.096818000078201294e-01,-6.468243896961212158e-02,1.904859691858291626e-01,-5.575199052691459656e-02,-7.568832486867904663e-03,-3.999785706400871277e-02,3.216260299086570740e-02,-3.445053473114967346e-02,-3.656237199902534485e-02,-2.730332314968109131e-01,-4.048747569322586060e-02,5.493235960602760315e-02,-9.531811624765396118e-02,6.997373420745134354e-03,-2.773461937904357910e-01,-1.451326254755258560e-02,-1.517201494425535202e-02,3.486333880573511124e-03,5.918546114116907120e-03,-9.035525470972061157e-02,-6.161074340343475342e-02,3.795839101076126099e-02,-1.313630044460296631e-01,-3.213746845722198486e-02,-6.102067232131958008e-02,1.363474316895008087e-02,-1.336227357387542725e-01,-1.100878268480300903e-01,7.822579145431518555e-02,1.018927916884422302e-01,-8.286820724606513977e-03,-5.293148010969161987e-02,-2.056632190942764282e-01,1.852587051689624786e-02,-8.363259024918079376e-03
1.101681292057037354e-01,1.439859867095947266e-01,-1.831164509057998657e-01,1.468865722417831421e-01,3.065916299819946289e-01,-1.674205511808395386e-01,8.581029623746871948e-02,-1.971684098243713379e-01,-1.513214707374572754e-01,-9.026032686233520508e-02,-1.952017471194267273e-02,1.079324260354042053e-01,3.392241299152374268e-01,-1.024005636572837830e-01,5.823558568954467773e-02,-1.681561470031738281e-01,-1.150464732199907303e-02,1.100220307707786560e-01,-2.245378494262695312e-02,-5.170937627553939819e-02,-1.028320286422967911e-02,9.317780286073684692e-02,-1.325591206550598145e-01,-1.308813840150833130e-01,1.454160958528518677e-01,9.197266399860382080e-02,1.276727169752120972e-01,1.871514879167079926e-02,7.775999605655670166e-02,-1.997408121824264526e-01,5.362026765942573547e-02,-1.732511669397354126e-01,7.688983529806137085e-02,-8.512344211339950562e-02,-6.046551465988159180e-02,2.553713917732238770e-01,-1.424483209848403931e-01,-2.763373553752899170e-01,9.173136204481124878e-02,-1.187983229756355286e-01,-1.145941913127899170e-01,2.486687004566192627e-01,1.370856612920761108e-01,-6.318818777799606323e-03,2.046652883291244507e-01,9.075254946947097778e-02,4.425747320055961609e-02,7.819549739360809326e-02,1.660616695880889893e-01,1.645074188709259033e-01
3.964969888329505920e-02,1.939909458160400391e-01,2.571227401494979858e-02,5.741587281227111816e-02,-6.761413067579269409e-02,1.161455584224313498e-04,-4.088485985994338989e-02,-1.392552256584167480e-01,-1.013825908303260803e-01,4.757346957921981812e-02,-8.082610368728637695e-02,1.341504007577896118e-01,2.301118075847625732e-01,-1.549704223871231079e-01,1.712493896484375000e-01,-9.785282611846923828e-02,7.072310149669647217e-02,-2.789041027426719666e-02,1.092040762305259705e-01,1.143978089094161987e-01,-1.939210295677185059e-01,7.498382776975631714e-02,-1.932728737592697144e-01,-3.727825358510017395e-02,-6.753765046596527100e-02,-5.246692523360252380e-02,5.802246928215026855e-02,2.852224931120872498e-02,1.459141969680786133e-01,5.190401524305343628e-02,-2.941188961267471313e-02,-5.752865970134735107e-02,4.732933826744556427e-03,-1.004113405942916870e-01,-5.343970656394958496e-02,-3.801785036921501160e-02,1.691144891083240509e-02,-3.403793871402740479e-01,8.257097005844116211e-02,-9.824620187282562256e-02,7.740694284439086914e-02,2.203161567449569702e-01,7.738894969224929810e-02,-3.721705079078674316e-02,1.985658407211303711e-01,1.960313133895397186e-02,4.636875912547111511e-02,8.900801837444305420e-02,-2.215946465730667114e-01,3.508017212152481079e-02
-1.283587329089641571e-02,2.249866724014282227e-01,-1.143227666616439819e-01,-1.742539554834365845e-01,1.094698160886764526e-01,2.348537743091583252e-01,-1.943101882934570312e-01,1.545087695121765137e-01,-4.342741891741752625e-02,4.914340972900390625e-01,3.230791911482810974e-02,7.770140469074249268e-02,-3.660514652729034424e-01,1.014636307954788208e-01,1.556486338376998901e-01,6.059249117970466614e-02,-1.119571924209594727e-01,-1.989332735538482666e-01,4.538627341389656067e-02,1.018088236451148987e-01,-9.422501921653747559e-02,2.629914134740829468e-02,6.250417232513427734e-02,-4.484875202178955078e-01,1.146024912595748901e-01,-4.012598097324371338e-01,3.271718323230743408e-01,-1.455138474702835083e-01,2.169362008571624756e-01,2.035831511020660400e-01,2.699505686759948730e-01,3.363814353942871094e-01,-2.550806403160095215e-01,-1.352688521146774292e-01,1.156837716698646545e-01,4.602913558483123779e-02,-6.775190681219100952e-02,4.969949647784233093e-02,4.121750295162200928e-01,4.782293736934661865e-02,1.695281118154525757e-01,3.084436953067779541e-01,-4.424870908260345459e-01,-2.845538258552551270e-01,1.808936744928359985e-01,3.281258642673492432e-01,-5.851769447326660156e-02,-2.559465938247740269e-04,-2.699949145317077637e-01,-5.755175352096557617e-01
9.193109720945358276e-02,2.223093658685684204e-01,-2.619162797927856445e-01,-7.289735227823257446e-02,-3.070845603942871094e-01,-5.197339504957199097e-02,-1.205696463584899902e+00,5.900386571884155273e-01,-9.976427555084228516e-01,1.449445188045501709e-01,-3.713781237602233887e-01,-2.538322508335113525e-01,-6.412063837051391602e-01,2.898695766925811768e-01,-1.491611897945404053e-01,-1.063261032104492188e-01,-3.695802092552185059e-01,4.307887554168701172e-01,-3.450914472341537476e-02,1.071423888206481934e-01,5.361376404762268066e-01,-3.905101865530014038e-02,3.457844257354736328e-02,2.403865307569503784e-01,-4.266115427017211914e-01,-4.531775414943695068e-01,-2.608737647533416748e-01,-1.136348992586135864e-01,-4.346808493137359619e-01,-6.069316342473030090e-02,4.544281065464019775e-01,7.043035328388214111e-02,-3.877683281898498535e-01,-3.863488137722015381e-02,-1.989132314920425415e-01,4.865758121013641357e-02,3.201628923416137695e-01,6.846850365400314331e-02,2.429517731070518494e-02,1.346808224916458130e-01,2.319298982620239258e-01,-1.614811867475509644e-01,-4.496042728424072266e-01,-3.886326551437377930e-01,2.928861677646636963e-01,1.863777935504913330e-01,-2.053888440132141113e-01,5.471174418926239014e-02,1.368971765041351318e-01,4.741432368755340576e-01
2.417842447757720947e-01,1.443402767181396484e-01,-3.129174932837486267e-03,5.250936746597290039e-02,3.748432099819183350e-01,-7.825428992509841919e-02,1.258471012115478516e-01,-1.111006438732147217e-01,2.533158361911773682e-01,1.245702430605888367e-01,1.201638355851173401e-01,5.186524242162704468e-02,4.377149045467376709e-01,-1.608326286077499390e-01,-8.315624296665191650e-02,-1.146271638572216034e-02,1.644387394189834595e-01,3.599067330360412598e-01,-2.114594727754592896e-01,4.247234389185905457e-02,-2.639146447181701660e-01,-1.197647824883460999e-01,-1.826068907976150513e-01,1.141149178147315979e-01,-4.530858248472213745e-02,-2.447846718132495880e-02,3.304146230220794678e-01,-4.022246897220611572e-01,4.785307347774505615e-01,4.915919154882431030e-02,4.157005995512008667e-02,-1.830577701330184937e-01,3.573685884475708008e-01,-2.840308547019958496e-01,-2.314602397382259369e-02,1.726330220699310303e-01,-3.372231721878051758e-01,-1.124131679534912109e-01,-1.620824337005615234e-01,2.009712308645248413e-01,4.793067649006843567e-02,3.959960117936134338e-02,3.505491316318511963e-01,8.824970573186874390e-02,-1.465982049703598022e-01,-3.947907686233520508e-01,-2.033989280462265015e-01,-1.070626303553581238e-01,-1.576201021671295166e-01,-8.893470279872417450e-03
-5.989691987633705139e-02,2.933593690395355225e-01,-3.825348615646362305e-02,-4.039358794689178467e-01,-3.277100250124931335e-02,4.586371034383773804e-02,-6.166403889656066895e-01,3.114215433597564697e-01,-7.339476943016052246e-01,3.042848706245422363e-01,-1.460805684328079224e-01,-1.709691286087036133e-01,9.602678567171096802e-02,-1.717959344387054443e-02,-8.267037570476531982e-02,1.397660672664642334e-01,-4.385798573493957520e-01,-1.191806048154830933e-01,-5.258418917655944824e-01,-5.658600926399230957e-01,2.420793101191520691e-02,-1.408330500125885010e-01,-4.625535607337951660e-01,-3.512866497039794922e-01,-1.819725185632705688e-01,-3.952175751328468323e-02,-3.899897933006286621e-01,-1.723762452602386475e-01,-1.067735552787780762e-01,2.500951588153839111e-01,-2.055123299360275269e-01,1.068302914500236511e-01,-7.549945712089538574e-01,4.285138249397277832e-01,-8.408699929714202881e-02,-8.867275901138782501e-03,1.392297148704528809e-01,-1.691473573446273804e-01,-2.271180599927902222e-01,1.209712587296962738e-02,2.507337033748626709e-01,2.174045741558074951e-01,2.410648763179779053e-01,-4.405588209629058838e-01,-1.134383007884025574e-01,1.649643629789352417e-01,4.856458008289337158e-01,-2.473752051591873169e-01,-2.784862518310546875e-01,2.393521368503570557e-01
2.868377268314361572e-01,3.670021891593933105e-01,-3.113271296024322510e-01,-5.508116483688354492e-01,-2.482818663120269775e-01,-4.736291617155075073e-02,2.175355106592178345e-01,-4.149560630321502686e-01,-4.411531984806060791e-01,7.144218087196350098e-01,-8.945724964141845703e-01,-2.140613347291946411e-01,-2.814045548439025879e-01,-6.951220333576202393e-02,2.633969783782958984e-01,4.128745198249816895e-02,-4.933755993843078613e-01,-6.192860752344131470e-02,-4.589620977640151978e-02,-1.364607214927673340e-01,1.407106965780258179e-01,1.603953391313552856e-01,1.012661159038543701e-01,-1.228651031851768494e-01,-6.113223265856504440e-03,-1.174972299486398697e-02,-1.454720622859895229e-03,-2.280547916889190674e-01,2.058223932981491089e-01,-1.373455524444580078e-01,1.405412852764129639e-01,1.746189147233963013e-01,-3.372946977615356445e-01,2.723704650998115540e-02,-2.338038235902786255e-01,-3.294033408164978027e-01,2.623879313468933105e-01,-2.332772314548492432e-01,-1.276258192956447601e-02,2.711214721202850342e-01,1.501979231834411621e-01,1.609949916601181030e-01,-2.870183438062667847e-02,-2.969250082969665527e-01,-8.406876027584075928e-02,-1.488982979208230972e-02,-2.051725536584854126e-01,-2.289709299802780151e-01,1.653188318014144897e-01,-6.207140684127807617e-01
5.354806184768676758e-01,7.102587819099426270e-01,-2.184653580188751221e-01,-8.449768275022506714e-02,3.910517394542694092e-01,-1.862038671970367432e-02,5.126114189624786377e-02,-1.861487627029418945e-01,5.539576411247253418e-01,5.291290879249572754e-01,-1.512528508901596069e-01,8.540887385606765747e-02,6.506867408752441406e-01,-6.896917819976806641e-01,-4.493178799748420715e-03,-9.344778954982757568e-02,3.706073760986328125e-01,4.328146278858184814e-01,-2.535456717014312744e-01,2.738046646118164062e-01,-8.146783709526062012e-01,-2.627015411853790283e-01,-3.248311877250671387e-01,4.220869243144989014e-01,2.973524630069732666e-01,4.587775096297264099e-02,4.499779939651489258e-01,-8.201821446418762207e-01,5.777353048324584961e-01,4.614962637424468994e-02,1.865126192569732666e-01,-7.002471387386322021e-02,-1.550392806529998779e-02,4.594422876834869385e-02,-3.507571667432785034e-02,3.956313431262969971e-01,-2.323020249605178833e-02,3.798303306102752686e-01,2.377414703369140625e-02,4.055120348930358887e-01,-5.207293480634689331e-02,-5.372612178325653076e-02,7.428250312805175781e-01,-1.698528230190277100e-01,4.302231594920158386e-02,-6.433322429656982422e-01,1.578446775674819946e-01,-2.308063507080078125e-01,1.101905331015586853e-01,-1.126631349325180054e-01
-1.503551155328750610e-01,-1.263969242572784424e-01,3.835349529981613159e-02,-1.007370930165052414e-02,-1.583226472139358521e-01,-1.600710004568099976e-01,-1.035141665488481522e-02,5.726530030369758606e-02,-1.060230135917663574e-01,5.496399477124214172e-02,-4.128451272845268250e-02,-8.591958135366439819e-02,7.487635314464569092e-02,-5.225149169564247131e-02,1.559186130762100220e-01,2.143598161637783051e-02,-4.416844621300697327e-02,-7.445989549160003662e-02,-1.975219510495662689e-02,6.440388411283493042e-02,-1.059030443429946899e-01,7.262323051691055298e-02,-7.207575440406799316e-02,-1.513232756406068802e-02,-2.839785814285278320e-02,-6.763757020235061646e-02,2.124012075364589691e-02,7.129099220037460327e-02,-1.237182226032018661e-02,-1.757483035326004028e-01,3.854673728346824646e-02,3.993427380919456482e-03,-1.385620050132274628e-02,-6.630690395832061768e-02,1.120652854442596436e-01,-2.011678181588649750e-02,-3.356411308050155640e-02,-1.671398431062698364e-01,5.303552374243736267e-02,1.110074073076248169e-01,8.619090914726257324e-02,5.002224817872047424e-02,1.364682018756866455e-01,-2.786152437329292297e-02,1.915998309850692749e-01,1.270598545670509338e-02,5.367569159716367722e-03,-5.957249924540519714e-02,2.348685450851917267e-02,-2.997943945229053497e-02
9.140372276306152344e-02,2.753156423568725586e-01,-2.040460109710693359e-01,-5.828818678855895996e-01,5.544233601540327072e-03,6.913118809461593628e-02,-2.403494864702224731e-01,1.185946837067604065e-01,-2.338951826095581055e-02,1.722589433193206787e-01,-4.506071507930755615e-01,-4.004494547843933105e-01,-3.145877718925476074e-01,-3.159609157592058182e-03,-6.424748152494430542e-02,2.263148277997970581e-01,2.925072014331817627e-01,7.320009917020797729e-02,-1.745041608810424805e-01,-3.125676810741424561e-01,2.456254363059997559e-01,1.278251037001609802e-02,-3.456059396266937256e-01,-3.965128958225250244e-01,-2.035818547010421753e-01,-1.443816274404525757e-01,-1.009539514780044556e-02,-1.994177140295505524e-02,-7.006163895130157471e-02,-3.609198331832885742e-02,-8.480100333690643311e-02,3.901882469654083252e-01,-6.404379755258560181e-02,-1.771420985460281372e-01,1.157449707388877869e-01,-2.352556735277175903e-01,1.188858970999717712e-01,-1.080900654196739197e-01,1.721350997686386108e-01,-3.117427527904510498e-01,-2.272991985082626343e-01,1.233459115028381348e-01,-3.863238692283630371e-01,-1.145842485129833221e-02,2.700203657150268555e-01,-5.727932974696159363e-02,-6.654486656188964844e-01,-3.066005706787109375e-01,6.903848052024841309e-02,-8.467499017715454102e-01
-8.000493794679641724e-02,1.785780638456344604e-01,-2.289714664220809937e-01,-6.106463447213172913e-02,-8.899058401584625244e-02,8.275765925645828247e-02,-6.303818523883819580e-02,1.336647570133209229e-01,5.766354873776435852e-02,-1.304325461387634277e-01,4.400549083948135376e-02,-2.158791124820709229e-01,2.422720193862915039e-01,1.372154206037521362e-01,-1.499398425221443176e-02,3.383180499076843262e-02,-1.490996628999710083e-01,-1.395181119441986084e-01,-1.092712134122848511e-01,4.602826759219169617e-02,1.179792061448097229e-01,8.448817580938339233e-02,4.863650351762771606e-02,-1.145135425031185150e-02,-1.570597440004348755e-01,-6.442593038082122803e-02,2.424815297126770020e-01,7.244912907481193542e-03,-1.654684096574783325e-01,-1.894485205411911011e-01,1.212335452437400818e-01,-8.081239461898803711e-02,2.553858980536460876e-02,-9.922295063734054565e-02,-1.391504555940628052e-01,-1.259147003293037415e-02,-9.286046028137207031e-02,-9.383259713649749756e-02,2.858555503189563751e-02,-1.621720343828201294e-01,8.504032343626022339e-02,2.973622083663940430e-01,2.437351085245609283e-02,-2.105913907289505005e-01,-1.471314281225204468e-01,-7.402165234088897705e-02,-1.350535918027162552e-02,-1.888334602117538452e-01,-2.511034607887268066e-01,-8.153724670410156250e-02
6.851490586996078491e-02,3.830686807632446289e-01,2.317368090152740479e-01,1.989431120455265045e-02,3.097873330116271973e-01,2.759040296077728271e-01,8.821827918291091919e-02,6.942085921764373779e-02,3.057198226451873779e-01,2.130891680717468262e-01,6.726370006799697876e-02,-2.375072687864303589e-01,6.099269390106201172e-01,-1.566531956195831299e-01,4.615481495857238770e-01,-2.208017408847808838e-01,-1.809858381748199463e-01,2.929913103580474854e-01,-5.674088597297668457e-01,-6.689353287220001221e-02,-3.986775875091552734e-01,-1.275587379932403564e-01,1.926224096678197384e-03,3.068038523197174072e-01,4.100760817527770996e-01,-1.470873504877090454e-01,-1.174790635704994202e-01,-4.309981167316436768e-01,2.418800592422485352e-01,-1.325609441846609116e-02,9.839232265949249268e-02,2.500813901424407959e-01,3.862242102622985840e-01,-1.242784112691879272e-01,1.688071936368942261e-01,3.101056516170501709e-01,-2.126080393791198730e-01,2.013324946165084839e-01,-9.176292270421981812e-02,3.343980312347412109e-01,2.568139880895614624e-02,1.006930395960807800e-01,3.511696457862854004e-01,1.170612946152687073e-01,1.987444460391998291e-01,-1.828234195709228516e-01,-1.313174813985824585e-01,2.369583398103713989e-02,-1.288246065378189087e-01,-1.428480725735425949e-02
-1.277629137039184570e-01,2.537651658058166504e-01,-2.411440312862396240e-01,5.840259790420532227e-02,1.220184415578842163e-01,-4.788516089320182800e-02,-1.211065128445625305e-01,2.082057744264602661e-01,-4.324048385024070740e-02,1.644392758607864380e-01,1.960240155458450317e-01,1.944136470556259155e-01,-1.706743836402893066e-01,1.900997385382652283e-02,1.848948150873184204e-01,-5.751336216926574707e-01,1.444243490695953369e-01,2.362841218709945679e-01,5.249379947781562805e-02,-4.669223353266716003e-02,2.382234185934066772e-01,1.857889741659164429e-01,9.974094480276107788e-02,2.140967249870300293e-01,-1.261880099773406982e-01,-1.322593772783875465e-03,-3.289459347724914551e-01,5.613849163055419922e-01,-3.735158741474151611e-01,2.428961098194122314e-01,4.402390420436859131e-01,1.179916039109230042e-01,-2.707257866859436035e-01,-1.296013742685317993e-01,-7.188434898853302002e-02,2.494114488363265991e-01,1.600253582000732422e-01,-1.082707121968269348e-01,1.597751677036285400e-01,4.531703144311904907e-02,3.263714164495468140e-02,2.792906761169433594e-01,-5.673530697822570801e-01,2.541523277759552002e-01,1.794807165861129761e-01,3.357384800910949707e-01,-7.885210514068603516e-01,-9.904696047306060791e-02,3.647453710436820984e-02,-1.936320811510086060e-01
1.954867392778396606e-01,3.648130968213081360e-02,-1.098856404423713684e-01,1.823924668133258820e-02,8.795814961194992065e-02,-1.043569222092628479e-01,4.247729852795600891e-02,-1.068378090858459473e-01,-3.032076358795166016e-02,7.696413248777389526e-02,-1.027388200163841248e-01,-9.705259650945663452e-02,7.649194449186325073e-02,-4.394702985882759094e-02,5.860534310340881348e-02,9.020410478115081787e-02,-3.579274192452430725e-02,5.516356229782104492e-02,7.740082591772079468e-02,-2.946898713707923889e-02,-1.243137940764427185e-01,-7.190182805061340332e-02,1.485497877001762390e-02,-3.102529421448707581e-02,1.606075465679168701e-01,1.396501064300537109e-02,-4.698349535465240479e-02,3.814639151096343994e-02,-9.355430491268634796e-03,-8.563562482595443726e-02,3.770937398076057434e-02,6.927312165498733521e-02,-2.389008551836013794e-02,4.265914112329483032e-02,-1.112591922283172607e-01,1.112042069435119629e-01,-7.407352328300476074e-02,-2.391199916601181030e-01,-2.756956592202186584e-02,-7.029896974563598633e-02,-1.972694322466850281e-02,1.389403939247131348e-01,-5.860751960426568985e-03,6.688173860311508179e-03,1.061422079801559448e-01,-7.595900446176528931e-03,-3.733802586793899536e-02,-9.495978802442550659e-02,-1.876819580793380737e-01,2.287608757615089417e-02
2.701920270919799805e-01,8.571203798055648804e-02,-4.390120506286621094e-03,-1.584565266966819763e-02,-1.262947171926498413e-01,-1.573968231678009033e-01,-1.464679185301065445e-02,6.779363751411437988e-02,2.792303077876567841e-02,-9.685560315847396851e-02,1.251780614256858826e-02,8.619940280914306641e-02,-6.269600242376327515e-02,-9.180982597172260284e-03,-7.304427027702331543e-02,-7.380214333534240723e-02,-5.427922005765140057e-04,8.045977354049682617e-02,1.410274114459753036e-02,7.740016095340251923e-03,2.938818186521530151e-02,-4.953819792717695236e-03,-3.833414241671562195e-02,-5.689412355422973633e-02,-1.223268732428550720e-01,-1.496036164462566376e-02,-2.196833118796348572e-02,-1.118681430816650391e-01,-1.198029592633247375e-01,-7.877535186707973480e-03,1.807638853788375854e-01,2.220540642738342285e-01,2.036243677139282227e-02,3.527933359146118164e-02,-1.718324571847915649e-01,2.954007983207702637e-01,-1.937870979309082031e-01,1.101220399141311646e-02,5.776541680097579956e-02,3.765266388654708862e-03,1.558229923248291016e-01,5.895612761378288269e-02,4.452084749937057495e-02,2.604778856039047241e-02,9.710098803043365479e-02,1.417731940746307373e-01,5.466549657285213470e-03,1.218256130814552307e-01,-2.313999086618423462e-01,-4.472386464476585388e-02
2.484902888536453247e-01,3.480140492320060730e-02,1.139069814234972000e-02,-5.750819295644760132e-02,-1.108866557478904724e-01,6.361795216798782349e-02,1.180282607674598694e-01,-1.240677163004875183e-01,2.414294891059398651e-02,1.416275948286056519e-01,-1.052554771304130554e-01,-1.634716689586639404e-01,-6.931918114423751831e-02,-2.484910935163497925e-02,1.762120723724365234e-01,7.827010005712509155e-03,4.769442602992057800e-02,-3.769624978303909302e-02,-2.472637034952640533e-02,4.490148648619651794e-02,-1.562953889369964600e-01,-3.253433108329772949e-02,-1.824527978897094727e-01,1.589060574769973755e-02,-1.666104346513748169e-01,1.555371563881635666e-02,-4.510607197880744934e-02,-3.415440395474433899e-02,-3.032013773918151855e-02,-4.418985247611999512e-01,-7.383776456117630005e-02,5.037179961800575256e-02,-4.243321251124143600e-03,9.385290741920471191e-02,8.787449449300765991e-02,2.015079557895660400e-01,-1.098798811435699463e-01,5.461591482162475586e-02,6.723071914166212082e-03,2.271338179707527161e-02,-9.718853235244750977e-02,-9.327238053083419800e-02,1.971735246479511261e-02,7.678049802780151367e-02,1.299493014812469482e-01,-7.375279814004898071e-02,-1.262648850679397583e-01,6.204974278807640076e-02,-6.064558774232864380e-02,2.162877283990383148e-02
1.630933582782745361e-01,1.398208737373352051e-01,-2.571524977684020996e-01,4.401170648634433746e-03,4.909250140190124512e-02,1.434194296598434448e-01,-7.334913313388824463e-02,-2.370399981737136841e-02,-8.669839054346084595e-02,-2.722304165363311768e-01,7.244327664375305176e-02,-1.278297603130340576e-01,2.361653149127960205e-01,1.195256784558296204e-01,1.885339468717575073e-01,4.026813432574272156e-02,-1.064228452742099762e-02,2.286635339260101318e-01,-5.959380045533180237e-02,9.135638922452926636e-02,1.033199857920408249e-02,1.004656553268432617e-01,1.140897348523139954e-01,-5.896040424704551697e-02,-7.794422563165426254e-03,3.446895629167556763e-02,1.912837773561477661e-01,1.876588463783264160e-01,-3.571316599845886230e-02,1.413130313158035278e-01,-3.223293274641036987e-02,3.888993337750434875e-02,6.449133157730102539e-02,-2.262131124734878540e-01,1.833812892436981201e-02,-7.291942834854125977e-02,-6.177640333771705627e-02,-1.772928237915039062e-01,9.617234021425247192e-02,-3.011148981750011444e-02,1.247924566268920898e-01,7.604186981916427612e-02,-1.901663653552532196e-02,-1.731045246124267578e-01,-1.417960077524185181e-01,-1.152206584811210632e-01,1.063449308276176453e-01,8.295935392379760742e-02,2.186184972524642944e-01,6.225286517292261124e-03
1.442892402410507202e-01,1.948553919792175293e-01,1.051171869039535522e-02,-2.427216172218322754e-01,-3.148667216300964355e-01,1.925420761108398438e-02,1.737429946660995483e-01,-1.640909165143966675e-01,-8.279830217361450195e-03,1.997496038675308228e-01,-4.889726340770721436e-01,-1.892621964216232300e-01,2.940153703093528748e-02,-3.210162520408630371e-01,-2.431973628699779510e-02,2.586281597614288330e-01,5.185271799564361572e-02,-1.130778789520263672e-01,-9.122328460216522217e-02,7.948217540979385376e-02,-1.149820908904075623e-01,-2.738337777554988861e-02,-1.765849739313125610e-01,-1.614815443754196167e-01,-1.718973368406295776e-01,-3.157489597797393799e-01,-7.463882863521575928e-02,-6.448248028755187988e-02,-1.057617459446191788e-02,-1.738384813070297241e-01,7.691888511180877686e-02,1.522493660449981689e-01,-1.271643936634063721e-01,-1.436973810195922852e-01,1.693741828203201294e-01,1.484439074993133545e-01,-4.177215322852134705e-02,2.734487354755401611e-01,-9.250026196241378784e-03,1.253001689910888672e-01,-1.859799176454544067e-01,9.413606673479080200e-02,3.676156327128410339e-02,-2.352624386548995972e-02,1.384492069482803345e-01,5.589388310909271240e-02,-3.642058372497558594e-01,-2.615988552570343018e-01,4.457681626081466675e-02,-1.312801986932754517e-01
9.287991374731063843e-02,2.799090445041656494e-01,-2.738400101661682129e-01,-3.079250454902648926e-01,1.590547733940184116e-03,-5.584354698657989502e-02,2.406698018312454224e-01,-3.134849965572357178e-01,8.588652312755584717e-02,4.477455615997314453e-01,-2.715213000774383545e-01,-2.697461545467376709e-01,-1.967720240354537964e-01,-1.490937620401382446e-01,1.914330571889877319e-01,-9.004822373390197754e-02,-1.223721131682395935e-01,1.068899035453796387e-01,-1.608146727085113525e-02,7.515484094619750977e-02,1.070864498615264893e-01,1.067475695163011551e-02,1.096388548612594604e-01,-4.893635958433151245e-02,-2.506057918071746826e-01,-2.364556118845939636e-02,-3.595450222492218018e-01,-3.324985131621360779e-02,4.426093772053718567e-02,-1.537893414497375488e-01,1.822772622108459473e-01,1.018549054861068726e-01,-5.283597484230995178e-02,2.855831384658813477e-01,3.768994659185409546e-02,7.724380493164062500e-02,1.069959998130798340e-01,-9.774991869926452637e-02,8.157888054847717285e-02,9.441412985324859619e-02,-1.426782310009002686e-01,3.733762204647064209e-01,-3.640016168355941772e-02,7.355932146310806274e-02,1.828820630908012390e-02,1.345546692609786987e-01,-2.043783217668533325e-01,1.090442389249801636e-01,-1.300665736198425293e-01,-1.744154244661331177e-01
2.034700959920883179e-01,5.556964501738548279e-02,9.320880472660064697e-02,-1.100058108568191528e-01,1.337548792362213135e-01,9.608790278434753418e-02,-4.948588088154792786e-02,-1.743650808930397034e-02,3.542193397879600525e-02,2.161424756050109863e-01,-7.544955611228942871e-02,4.182650148868560791e-02,-2.399586737155914307e-01,2.214558981359004974e-02,1.851538866758346558e-01,1.665659099817276001e-01,2.045314759016036987e-01,-1.270747780799865723e-01,-4.113994911313056946e-02,-2.710178196430206299e-01,-1.864480823278427124e-01,-1.348213553428649902e-01,2.493946626782417297e-02,5.083639547228813171e-02,-1.394772976636886597e-01,5.234956368803977966e-02,-2.557308971881866455e-01,1.181140542030334473e-01,-1.526364982128143311e-01,1.758212596178054810e-01,1.461816430091857910e-01,1.830435693264007568e-01,-5.564891733229160309e-03,1.535445600748062134e-01,-7.681614160537719727e-02,7.846984267234802246e-02,1.114125400781631470e-01,-8.914804458618164062e-02,-1.066530272364616394e-01,6.453332304954528809e-02,-1.660612225532531738e-01,4.651200026273727417e-02,1.222347989678382874e-01,3.238864243030548096e-02,-6.752246618270874023e-02,8.045748621225357056e-02,-1.511855274438858032e-01,3.153270855545997620e-02,-3.557648137211799622e-02,-5.634797364473342896e-02
-3.030028007924556732e-02,3.638657182455062866e-02,-8.441681414842605591e-02,6.752297747880220413e-03,2.611577212810516357e-01,-1.821925938129425049e-01,4.181266948580741882e-02,3.366582095623016357e-02,-2.940567396581172943e-02,-8.833742141723632812e-02,-1.315121948719024658e-01,-2.912375703454017639e-02,8.112682402133941650e-02,6.792625645175576210e-04,3.104688134044408798e-03,6.097025424242019653e-02,-5.040854960680007935e-02,7.754633575677871704e-02,-4.329219087958335876e-02,4.305669665336608887e-02,8.596082031726837158e-02,1.308354269713163376e-02,-8.916957676410675049e-02,-1.289599575102329254e-02,1.593227237462997437e-01,-1.521369367837905884e-01,2.237109094858169556e-01,-8.611247688531875610e-02,-6.919521838426589966e-02,1.357162557542324066e-02,1.407110784202814102e-02,1.624745689332485199e-02,1.425492856651544571e-02,-2.110770158469676971e-02,-8.544617146253585815e-02,6.816576421260833740e-02,-9.530778229236602783e-02,-2.641969323158264160e-01,2.246410585939884186e-02,-1.858373545110225677e-02,9.472950547933578491e-02,-2.033469378948211670e-01,-1.883032172918319702e-01,1.007407680153846741e-01,1.038375422358512878e-01,-2.677413523197174072e-01,2.346993610262870789e-02,1.683890968561172485e-01,-8.478751778602600098e-02,-4.931390285491943359e-02
1.504520773887634277e-01,-8.890757337212562561e-03,-5.985083431005477905e-02,-1.893435716629028320e-01,-1.867420971393585205e-01,-1.347763538360595703e-01,-4.140798449516296387e-01,4.103097319602966309e-01,-5.540878176689147949e-01,4.686711132526397705e-01,-1.505096107721328735e-01,2.790142297744750977e-01,-2.263004630804061890e-01,1.086654141545295715e-01,1.017762795090675354e-01,-1.632458418607711792e-01,-1.878518462181091309e-01,3.561426997184753418e-01,-2.484645545482635498e-01,-1.450798213481903076e-01,2.384034693241119385e-01,-1.318497359752655029e-01,6.187191978096961975e-02,3.624550700187683105e-01,-2.156273275613784790e-01,-4.108241200447082520e-02,2.270853221416473389e-01,-1.845222525298595428e-02,1.892243623733520508e-01,-1.388674415647983551e-02,1.876078844070434570e-01,3.911129236221313477e-01,-2.604979574680328369e-01,2.704882621765136719e-01,-1.605396568775177002e-01,1.476784795522689819e-01,1.445338875055313110e-01,-8.838086575269699097e-02,-1.714843362569808960e-01,-8.488473296165466309e-02,9.732287377119064331e-02,-5.920135602355003357e-02,-1.096961647272109985e-01,-2.817486599087715149e-02,3.031481802463531494e-01,7.781866937875747681e-02,1.122468560934066772e-01,6.616879254579544067e-02,1.653479598462581635e-02,1.431904286146163940e-01
-1.816672533750534058e-01,1.575132757425308228e-01,1.752975583076477051e-02,-3.946428745985031128e-02,1.439693719148635864e-01,2.175057232379913330e-01,-3.974634036421775818e-02,1.190235167741775513e-01,-5.685820430517196655e-02,4.493667185306549072e-02,-1.133385393768548965e-02,-3.693425655364990234e-02,6.031763623468577862e-04,2.155329287052154541e-01,-9.213180840015411377e-02,-4.378553852438926697e-02,-1.070123687386512756e-01,2.071157563477754593e-03,-6.320079416036605835e-02,2.613358944654464722e-02,-9.967974573373794556e-02,7.574755698442459106e-02,-1.855811178684234619e-01,-1.401407271623611450e-02,-3.224587813019752502e-02,-2.470017969608306885e-02,-7.136546820402145386e-02,2.386047504842281342e-03,-2.718400210142135620e-02,-1.273621022701263428e-01,-5.102070048451423645e-02,1.305967271327972412e-01,-2.236750675365328789e-03,1.779903620481491089e-01,-1.893279999494552612e-01,1.664616167545318604e-01,1.331215351819992065e-02,-2.508463561534881592e-01,1.908247731626033783e-02,-1.384791135787963867e-01,2.397421002388000488e-01,5.322739854454994202e-02,5.927943810820579529e-02,-1.768034398555755615e-01,-1.524672657251358032e-01,9.170834720134735107e-02,-6.598406285047531128e-02,-1.417937725782394409e-01,1.184777021408081055e-01,-4.079265519976615906e-02
-1.372075080871582031e-01,-1.102622970938682556e-01,1.181505843997001648e-01,3.619839251041412354e-02,-2.710032463073730469e-02,1.183081567287445068e-01,-3.177377581596374512e-01,3.447731435298919678e-01,-3.181725367903709412e-02,8.721621334552764893e-02,2.725545167922973633e-01,-6.913003744557499886e-04,-2.725296318531036377e-01,1.308904588222503662e-01,3.463104665279388428e-01,2.005032598972320557e-01,3.711929023265838623e-01,6.422761082649230957e-02,-2.586992457509040833e-02,-1.039701327681541443e-01,-1.736252158880233765e-01,-7.579202204942703247e-02,7.451614737510681152e-02,-6.025167927145957947e-02,-3.010411001741886139e-02,-2.320415377616882324e-01,1.608152985572814941e-01,-3.825486078858375549e-02,2.899590879678726196e-02,-1.026254296302795410e-01,-1.510608792304992676e-01,4.181874990463256836e-01,-3.345515206456184387e-02,1.307239234447479248e-01,2.566720843315124512e-01,-1.379215624183416367e-02,-3.433205783367156982e-01,-1.628779172897338867e-01,7.731126993894577026e-02,2.012981027364730835e-01,1.259479969739913940e-01,2.076410204172134399e-01,-4.961759448051452637e-01,2.991724200546741486e-02,2.442320138216018677e-01,4.738905653357505798e-02,3.901082575321197510e-01,8.709950745105743408e-02,-1.301337629556655884e-01,-1.402741074562072754e-01
7.255753874778747559e-02,1.628879308700561523e-01,8.256530389189720154e-03,1.043680831789970398e-01,6.269417703151702881e-03,1.792963445186614990e-01,-8.859786391258239746e-02,4.651556536555290222e-02,-8.548604696989059448e-02,7.832632213830947876e-02,2.918056212365627289e-02,9.199859946966171265e-02,4.153707027435302734e-01,-1.579494625329971313e-01,4.098522663116455078e-02,9.667625278234481812e-02,7.029682397842407227e-02,5.895946640521287918e-03,-1.603551022708415985e-02,1.679973118007183075e-02,-4.724958539009094238e-02,4.695231094956398010e-02,-1.434810757637023926e-01,-8.683133125305175781e-02,-1.875578165054321289e-01,-5.794749036431312561e-02,1.298021525144577026e-01,-1.519802063703536987e-01,-1.843308061361312866e-01,-1.067212000489234924e-01,-3.765895962715148926e-02,1.409521549940109253e-01,5.238061770796775818e-02,9.607037156820297241e-02,-1.136625781655311584e-01,9.928159415721893311e-02,-5.928711965680122375e-02,-3.166120350360870361e-01,5.693985149264335632e-02,-2.613166272640228271e-01,7.530548423528671265e-02,1.849270761013031006e-01,1.722259372472763062e-01,5.365607514977455139e-02,-2.797374874353408813e-02,1.412762850522994995e-01,3.275855211541056633e-03,-2.311959564685821533e-01,-1.017690896987915039e-01,9.808851033449172974e-02
3.424261212348937988e-01,3.478209301829338074e-02,8.950004726648330688e-02,-7.265799492597579956e-02,-6.413941085338592529e-02,1.576998084783554077e-01,-9.325169026851654053e-02,-5.294311419129371643e-02,-1.081370115280151367e-01,8.434172719717025757e-02,7.667863368988037109e-02,4.905576258897781372e-02,-2.112082391977310181e-01,4.930467111989855766e-04,-7.305431365966796875e-02,1.368184760212898254e-02,4.564578831195831299e-02,-6.335309892892837524e-02,7.557622343301773071e-02,-2.450288273394107819e-02,-2.630487643182277679e-02,-8.577153086662292480e-02,-9.845130145549774170e-02,-1.785799115896224976e-02,7.673657685518264771e-02,1.696046143770217896e-01,-1.519998311996459961e-01,5.752065777778625488e-02,5.529876425862312317e-02,-1.657262071967124939e-02,1.551689207553863525e-01,4.431528225541114807e-02,-2.289917506277561188e-02,-1.403526030480861664e-02,9.131375700235366821e-02,3.892723619937896729e-01,5.196636542677879333e-03,9.831856936216354370e-02,-2.837509475648403168e-02,7.190987467765808105e-02,-5.747927725315093994e-02,1.092598121613264084e-02,1.780035942792892456e-01,1.329694688320159912e-01,1.907709985971450806e-02,1.010511144995689392e-01,-1.125451177358627319e-02,-1.131416037678718567e-01,-5.985520035028457642e-02,-4.423398640938103199e-04
1.357534676790237427e-01,1.006302237510681152e-01,2.761466801166534424e-01,8.641096949577331543e-02,-2.093383818864822388e-01,-1.165023725479841232e-02,-4.913373664021492004e-02,8.086347579956054688e-02,3.035247921943664551e-01,2.374887913465499878e-01,-1.456574946641921997e-01,-1.028701812028884888e-01,-3.162686526775360107e-01,-2.877692282199859619e-01,1.877716630697250366e-01,-7.793323695659637451e-02,3.822994828224182129e-01,2.279357612133026123e-01,-1.029004901647567749e-01,9.884859435260295868e-03,-2.856811881065368652e-01,-1.797733753919601440e-01,-8.605355769395828247e-02,-4.611888527870178223e-01,-3.518000990152359009e-02,-2.416020482778549194e-01,2.283723466098308563e-02,-5.832744762301445007e-02,-1.854055188596248627e-02,7.104952633380889893e-02,1.923705264925956726e-02,5.673524141311645508e-01,8.810027688741683960e-02,2.089634239673614502e-01,7.345042377710342407e-02,6.823790818452835083e-02,-4.971731007099151611e-01,2.166588008403778076e-01,2.318253368139266968e-01,4.361244142055511475e-01,2.355755865573883057e-01,4.454634785652160645e-01,-9.029156565666198730e-01,-1.651497036218643188e-01,2.140906304121017456e-01,-3.413012996315956116e-02,2.270129919052124023e-01,2.635344266891479492e-01,-1.482134908437728882e-01,8.618473657406866550e-04
1.281357109546661377e-01,9.197138994932174683e-02,-1.113385930657386780e-01,1.219342947006225586e-01,-2.134102433919906616e-01,3.424029052257537842e-01,-1.111493185162544250e-01,2.255061268806457520e-01,-7.058975845575332642e-02,5.244602560997009277e-01,-1.222110018134117126e-01,2.513802610337734222e-02,-2.447778582572937012e-01,3.940332215279340744e-03,3.729009255766868591e-02,1.307526975870132446e-01,1.317626237869262695e-01,-1.973432600498199463e-01,-1.994492858648300171e-01,1.591586917638778687e-01,-3.033775687217712402e-01,2.579419612884521484e-01,1.355801224708557129e-01,-9.958954900503158569e-02,-2.196906059980392456e-01,-1.376517117023468018e-02,3.381384313106536865e-01,-4.583783447742462158e-02,1.683973968029022217e-01,-2.270951122045516968e-01,1.354466974735260010e-01,2.209638208150863647e-01,-1.883366256952285767e-01,-1.309247314929962158e-01,-1.039979085326194763e-01,-1.282445639371871948e-01,6.246822699904441833e-02,1.505931019783020020e-01,3.330235183238983154e-01,-1.130803953856229782e-02,1.582444161176681519e-01,2.004792839288711548e-01,-2.153371125459671021e-01,6.655439734458923340e-02,2.901186421513557434e-02,2.338254824280738831e-02,4.353611767292022705e-01,1.211500018835067749e-01,-2.554665803909301758e-01,-1.780640333890914917e-01
1.999991387128829956e-01,7.967541366815567017e-02,-1.366472989320755005e-01,-1.410721894353628159e-02,1.822180449962615967e-01,-4.942499473690986633e-02,4.761426523327827454e-02,4.211574420332908630e-02,-8.778179436922073364e-02,-6.915958598256111145e-03,2.559156715869903564e-02,1.503949016332626343e-01,-6.592511385679244995e-02,4.869823902845382690e-02,1.891361474990844727e-01,-4.473222792148590088e-02,-5.389905348420143127e-02,-3.357534483075141907e-02,-7.923140190541744232e-03,-2.348870597779750824e-02,-9.737958014011383057e-02,5.171387642621994019e-02,4.947785660624504089e-02,2.119927667081356049e-02,-4.649534448981285095e-02,1.398688107728958130e-01,8.287347853183746338e-02,-1.036947667598724365e-01,1.626427099108695984e-02,-1.603164672851562500e-01,3.365667304024100304e-03,4.286729544401168823e-02,2.126964554190635681e-02,-2.201539464294910431e-02,8.416289091110229492e-02,-8.334594219923019409e-02,1.055710483342409134e-02,-2.654348611831665039e-01,-8.037765655899420381e-05,-1.143526360392570496e-01,-1.063016802072525024e-01,-7.141082733869552612e-02,6.700140237808227539e-02,3.081358969211578369e-02,-1.973059214651584625e-02,1.250568330287933350e-01,-3.638573363423347473e-02,-2.067630887031555176e-01,7.413410395383834839e-02,-4.548048134893178940e-03
2.893784344196319580e-01,7.448887825012207031e-01,2.465231120586395264e-01,-1.770637482404708862e-01,-1.504313349723815918e-01,-3.238490521907806396e-01,-8.084703981876373291e-02,1.837142854928970337e-01,-2.985810041427612305e-01,7.426619529724121094e-01,-3.823593957349658012e-03,-7.417645305395126343e-02,2.357095032930374146e-01,-1.864212006330490112e-02,1.183644458651542664e-01,6.692916899919509888e-02,-2.381582707166671753e-01,4.517954587936401367e-01,-8.949366807937622070e-01,-1.044942259788513184e+00,-1.490681767463684082e-01,-6.942094564437866211e-01,-1.822290569543838501e-01,-8.519160561263561249e-03,1.264539510011672974e-01,-1.941293179988861084e-01,-1.235750541090965271e-01,-4.902640283107757568e-01,-8.755262196063995361e-02,5.714500695466995239e-02,-2.738763391971588135e-01,-5.225456133484840393e-02,-2.916862666606903076e-01,-7.092883586883544922e-01,1.918636411428451538e-01,1.794915795326232910e-01,-3.872036039829254150e-01,-7.687573321163654327e-03,-6.311724781990051270e-01,5.650680139660835266e-02,1.999414861202239990e-01,1.078671514987945557e-01,3.518531471490859985e-02,-1.029544994235038757e-01,-2.999321520328521729e-01,2.734303176403045654e-01,2.306402027606964111e-01,2.230108380317687988e-01,-6.126341223716735840e-01,1.552692502737045288e-01
-6.278067082166671753e-02,2.955748736858367920e-01,-2.594290114939212799e-02,-6.140496134757995605e-01,7.674548029899597168e-02,8.879708498716354370e-02,-9.002417922019958496e-01,2.725205123424530029e-01,-1.087945222854614258e+00,4.592980742454528809e-01,-1.825273931026458740e-01,-2.824572324752807617e-01,-9.189511090517044067e-02,1.056602373719215393e-01,-1.963579803705215454e-01,4.715742170810699463e-01,-6.311413049697875977e-01,7.526345085352659225e-03,-2.224366962909698486e-01,-4.119630753993988037e-01,5.120059475302696228e-02,-4.266821593046188354e-02,-3.876622915267944336e-01,-4.052758216857910156e-01,-3.180713057518005371e-01,-9.113135933876037598e-02,-1.368730664253234863e-01,-3.162837326526641846e-01,-1.832324266433715820e-01,3.799363225698471069e-02,-5.935019850730895996e-01,3.992084562778472900e-01,-8.800074458122253418e-01,4.044733941555023193e-01,1.698521338403224945e-02,1.272915303707122803e-01,-1.539709568023681641e-01,-2.474704384803771973e-01,-1.669935733079910278e-01,4.718634188175201416e-01,3.446345031261444092e-02,2.586247920989990234e-01,3.900759816169738770e-01,-1.262577474117279053e-01,-1.170464381575584412e-01,2.607915103435516357e-01,5.568714141845703125e-01,-1.563944369554519653e-01,-2.952830195426940918e-01,2.516587078571319580e-01
-9.937885403633117676e-02,1.376626789569854736e-01,-1.049413606524467468e-01,-9.230342507362365723e-02,-1.357515454292297363e-01,-1.385966390371322632e-01,-2.559787780046463013e-02,-1.276536732912063599e-01,-4.744098335504531860e-02,9.192226082086563110e-02,1.134424954652786255e-01,-1.380103826522827148e-01,-4.457027465105056763e-02,-3.879003971815109253e-02,1.661591082811355591e-01,1.786873936653137207e-01,1.998823434114456177e-01,-2.565029859542846680e-01,-1.450460255146026611e-01,-1.523758471012115479e-02,3.451079130172729492e-02,3.468843176960945129e-02,2.201647609472274780e-01,-2.581612206995487213e-02,-1.096550300717353821e-01,-7.193785905838012695e-02,-5.482947453856468201e-02,-1.375264525413513184e-01,-8.871077001094818115e-02,-9.519421309232711792e-02,1.083480790257453918e-01,-9.513624012470245361e-02,-7.399207353591918945e-02,-1.444729864597320557e-01,-2.484112083911895752e-01,-6.456422060728073120e-02,5.807898938655853271e-02,-2.154868245124816895e-01,3.006267175078392029e-02,-6.465084850788116455e-02,1.391519308090209961e-01,2.570182681083679199e-01,1.275725215673446655e-01,4.220755025744438171e-02,-6.736745685338973999e-02,-9.474255889654159546e-02,-1.510355621576309204e-01,-1.576994061470031738e-01,2.631381750106811523e-01,-6.810840964317321777e-02
1.061738878488540649e-01,1.383253484964370728e-01,-5.758967623114585876e-02,-1.528963744640350342e-01,-3.739666193723678589e-02,-8.185056969523429871e-03,5.035276710987091064e-02,6.276591867208480835e-02,-7.728048413991928101e-02,1.387894898653030396e-01,-3.197583854198455811e-01,5.729586631059646606e-02,6.150012835860252380e-02,-2.520868182182312012e-01,2.355187982320785522e-01,3.894109278917312622e-02,-3.390718102455139160e-01,4.459998756647109985e-02,2.170917950570583344e-02,-1.857913136482238770e-01,1.293818950653076172e-01,-1.355280261486768723e-02,3.137751016765832901e-03,4.611117765307426453e-02,9.668501466512680054e-02,1.376225203275680542e-01,-3.416844084858894348e-02,-1.416992545127868652e-01,1.588916778564453125e-02,5.959871783852577209e-02,4.734783619642257690e-02,2.365218289196491241e-02,-6.730651855468750000e-02,-1.098206713795661926e-01,4.430781304836273193e-02,-1.399421095848083496e-01,2.763577736914157867e-02,-5.656260624527931213e-02,4.321420937776565552e-02,-9.935895353555679321e-02,-9.542717039585113525e-02,7.872427254915237427e-02,1.229046806693077087e-01,-2.892568111419677734e-01,4.996905848383903503e-02,1.768786013126373291e-01,-2.000770717859268188e-01,1.396185159683227539e-01,1.017436459660530090e-01,-2.934865057468414307e-01
1.828959733247756958e-01,2.554248459637165070e-02,1.308003515005111694e-01,9.142235852777957916e-03,6.966250389814376831e-02,-2.355990260839462280e-01,4.001250956207513809e-03,1.035018414258956909e-01,7.251853495836257935e-02,-3.236776217818260193e-02,-1.603775843977928162e-02,-2.170037776231765747e-01,2.311265096068382263e-02,-1.835841834545135498e-01,9.063915163278579712e-02,-2.237340062856674194e-02,1.620729714632034302e-01,3.525149077177047729e-02,-7.814984023571014404e-02,-4.753635078668594360e-02,-5.763146653771400452e-02,-1.649047434329986572e-02,-1.290930714458227158e-02,-1.598726399242877960e-02,-6.468123197555541992e-02,-4.345079883933067322e-02,-8.644837886095046997e-02,1.338452249765396118e-01,-7.128425687551498413e-02,7.631225138902664185e-02,-7.634706050157546997e-02,1.628144532442092896e-01,5.393704632297158241e-04,3.101366385817527771e-02,7.364843040704727173e-02,2.074365019798278809e-01,6.484574824571609497e-02,8.863233029842376709e-02,4.371704999357461929e-03,-6.510805338621139526e-02,1.210820954293012619e-02,-1.722426712512969971e-01,-1.348698735237121582e-01,-4.886630550026893616e-02,-1.789708882570266724e-01,8.355534076690673828e-02,-5.016788840293884277e-02,-1.601494699716567993e-01,5.251447483897209167e-02,-2.062494866549968719e-02
5.296497419476509094e-02,2.162529081106185913e-01,9.248857945203781128e-02,8.338866382837295532e-02,-9.561403840780258179e-02,2.981166169047355652e-02,-2.390848100185394287e-01,2.137049436569213867e-01,1.062401570379734039e-02,8.097352832555770874e-02,1.456105262041091919e-01,7.824284955859184265e-03,-2.069023102521896362e-01,-1.203360706567764282e-01,3.439479172229766846e-01,-1.516889333724975586e-01,2.141780555248260498e-01,1.051803156733512878e-01,7.763458043336868286e-02,-8.079311810433864594e-03,-1.141491904854774475e-01,-1.307871043682098389e-01,7.277081254869699478e-03,-2.707203626632690430e-01,2.125454545021057129e-01,5.420997738838195801e-02,5.081322044134140015e-02,-9.885900467634201050e-02,2.304557412862777710e-01,-8.489198982715606689e-02,8.758562803268432617e-02,3.989748358726501465e-01,-8.647358417510986328e-02,5.566770210862159729e-02,1.739284247159957886e-01,2.985767647624015808e-02,-3.544583618640899658e-01,-5.351296067237854004e-02,9.953708201646804810e-02,7.592246681451797485e-02,4.121459275484085083e-02,2.560190558433532715e-01,-9.532678723335266113e-01,-2.920264191925525665e-02,2.492875158786773682e-01,1.671086102724075317e-01,6.054917573928833008e-01,-2.189194783568382263e-02,-1.538710594177246094e-01,-5.462358519434928894e-02
3.278950229287147522e-02,4.560984671115875244e-01,-9.335669688880443573e-03,-2.104406356811523438e-01,7.622194243595004082e-04,1.726589798927307129e-01,-1.458182632923126221e-01,-8.686472475528717041e-02,-4.056359454989433289e-02,3.714388906955718994e-01,-9.573869407176971436e-02,-1.033319458365440369e-01,-2.959918677806854248e-01,-1.995212733745574951e-01,1.600770838558673859e-02,-1.671322286128997803e-01,-2.372038066387176514e-01,3.530289605259895325e-02,9.862545132637023926e-02,2.719384729862213135e-01,2.826653718948364258e-01,1.907906681299209595e-01,-1.566997021436691284e-01,-1.399289518594741821e-01,4.069974645972251892e-02,-2.282632291316986084e-01,1.476496905088424683e-01,-3.042898178100585938e-01,1.194546893239021301e-01,3.536997139453887939e-01,1.309991627931594849e-01,-9.245289862155914307e-02,1.272482722997665405e-01,-5.158731248229742050e-03,5.640992894768714905e-03,-2.800432145595550537e-01,-1.115035861730575562e-01,3.355080261826515198e-02,1.920912265777587891e-01,1.442655324935913086e-01,7.835984975099563599e-02,1.873573511838912964e-01,-3.560395166277885437e-02,-2.670176327228546143e-01,-2.625286877155303955e-01,2.363196909427642822e-01,-1.512516438961029053e-01,-1.936181262135505676e-02,-2.760686352849006653e-02,-4.720748662948608398e-01
7.442720979452133179e-02,1.726335436105728149e-01,2.388082295656204224e-01,-1.298107020556926727e-02,4.814908802509307861e-01,2.800933122634887695e-01,2.572138905525207520e-01,3.144883513450622559e-01,5.091740563511848450e-02,3.550069872289896011e-03,1.079636961221694946e-01,-1.817820966243743896e-01,6.124848127365112305e-01,-4.335321485996246338e-01,2.633143365383148193e-01,-3.365382552146911621e-01,7.871451228857040405e-02,5.096567273139953613e-01,-4.755499064922332764e-01,6.088635697960853577e-02,-1.568697765469551086e-02,-2.942217290401458740e-01,-2.234640270471572876e-01,1.964606940746307373e-01,1.275420933961868286e-01,-2.075041178613901138e-03,1.016922108829021454e-02,-2.609724700450897217e-01,4.458924010396003723e-02,1.041764765977859497e-01,1.648103296756744385e-01,1.678297370672225952e-01,1.947340071201324463e-01,2.005885839462280273e-01,3.934900164604187012e-01,4.275335371494293213e-01,-4.807945787906646729e-01,2.123327404260635376e-01,-2.491203397512435913e-01,1.997785270214080811e-01,-7.818026095628738403e-02,3.559665679931640625e-01,3.416111469268798828e-01,-9.350740909576416016e-02,2.090882062911987305e-01,-4.709128290414810181e-03,1.484511345624923706e-01,-7.026464492082595825e-02,-1.451978981494903564e-01,3.879027208313345909e-03
4.825752377510070801e-01,1.220888495445251465e-01,4.962022230029106140e-02,-6.194851994514465332e-01,-2.434445023536682129e-01,1.576051115989685059e-02,5.318885669112205505e-03,-9.323605149984359741e-02,-3.550264537334442139e-01,3.885803520679473877e-01,-3.397119939327239990e-01,-1.589862257242202759e-01,9.253112971782684326e-02,-2.482811361551284790e-02,-7.421804964542388916e-02,2.179986983537673950e-01,-3.837379813194274902e-01,-9.366489201784133911e-02,-1.104766651988029480e-01,-2.052430659532546997e-01,2.205837368965148926e-01,8.951561897993087769e-02,9.118037670850753784e-02,-1.658916920423507690e-01,7.428162544965744019e-02,-2.987301349639892578e-01,-7.383081316947937012e-02,-9.297174215316772461e-02,2.064011693000793457e-01,3.195783197879791260e-01,5.231976509094238281e-02,-1.628046780824661255e-01,-3.496635556221008301e-01,-4.887581467628479004e-01,-1.740325987339019775e-02,-1.673429459333419800e-01,1.952878385782241821e-01,2.123670838773250580e-02,-5.541455745697021484e-02,1.505480706691741943e-01,-1.721653155982494354e-02,2.384230196475982666e-01,-1.128505542874336243e-01,-3.375346958637237549e-01,1.409259885549545288e-01,8.764884434640407562e-03,-5.885899662971496582e-01,-6.981235346756875515e-04,1.536092720925807953e-02,-5.703157186508178711e-01
-4.261877015233039856e-02,1.965017430484294891e-02,4.360901191830635071e-02,-6.624720245599746704e-02,8.967295289039611816e-02,1.567390114068984985e-01,-1.668237149715423584e-01,2.204452827572822571e-02,-1.024937033653259277e-01,6.246837228536605835e-02,1.040328964591026306e-01,-5.021110549569129944e-02,1.340130120515823364e-01,-1.375828403979539871e-03,-1.667909324169158936e-01,-4.294992238283157349e-02,1.650508493185043335e-01,-1.191160827875137329e-01,7.200229912996292114e-02,4.813571646809577942e-02,1.634898930788040161e-01,-5.641658976674079895e-02,-2.625790424644947052e-02,4.437242820858955383e-02,-1.019162312150001526e-01,1.013049408793449402e-01,2.437618793919682503e-03,-1.417393088340759277e-01,1.142708361148834229e-01,5.854734033346176147e-02,4.908605013042688370e-03,-6.545598804950714111e-02,4.422857984900474548e-02,6.509068608283996582e-02,-4.205415491014719009e-03,-2.765473723411560059e-01,-3.923230245709419250e-02,1.721882373094558716e-01,1.299605816602706909e-01,-2.507734484970569611e-02,1.101020425558090210e-01,3.034873306751251221e-01,1.154941227287054062e-02,-1.077263057231903076e-01,2.462889105081558228e-01,1.255856156349182129e-01,-4.840343445539474487e-02,1.705378592014312744e-01,-7.824997603893280029e-02,-6.558870524168014526e-02
4.012000858783721924e-01,1.013516262173652649e-01,-1.604586094617843628e-01,-6.789579391479492188e-01,-3.040441274642944336e-01,-6.414217501878738403e-02,-2.214409559965133667e-01,1.959622204303741455e-01,3.202623128890991211e-01,7.502467036247253418e-01,-1.361664980649948120e-01,3.001415170729160309e-02,-1.873018592596054077e-01,2.765209600329399109e-02,3.623718917369842529e-01,2.436492405831813812e-02,4.016284048557281494e-01,-1.907538175582885742e-01,-2.686130404472351074e-01,-2.025443613529205322e-01,-2.666491456329822540e-02,5.832887068390846252e-02,7.098050788044929504e-03,-9.488782882690429688e-01,1.811681687831878662e-01,2.490440607070922852e-01,3.292357623577117920e-01,-1.213663890957832336e-01,4.611270427703857422e-01,-1.577388495206832886e-01,-4.552241265773773193e-01,1.881981045007705688e-01,-3.195038735866546631e-01,3.094991743564605713e-01,-7.672028243541717529e-02,4.978159442543983459e-02,-2.106323242187500000e-01,8.103789389133453369e-02,2.826644182205200195e-01,-6.189521774649620056e-02,3.698684871196746826e-01,6.665297746658325195e-01,-2.437558723613619804e-03,7.934143394231796265e-02,-1.954089850187301636e-02,3.015654087066650391e-01,4.453732371330261230e-01,1.460872143507003784e-01,4.155934322625398636e-03,-6.115101575851440430e-01
