-1.738870330154895782e-02,3.991162478923797607e-01,-2.467610388994216919e-01,-3.504897654056549072e-02,4.780289158225059509e-02,-1.194432973861694336e+00,-2.005395293235778809e-01,1.151098683476448059e-01,1.035425782203674316e+00,-1.698925137519836426e+00,-3.844783827662467957e-02,-5.699493288993835449e-01,-1.407184481620788574e+00,1.945194363594055176e+00,-8.417653441429138184e-01,-2.601288557052612305e+00,-2.985677003860473633e+00,1.785254329442977905e-01,5.455346703529357910e-01,-1.173934578895568848e+00,-6.973125934600830078e-01,-7.137209177017211914e-03,1.445473432540893555e-01,-1.044555008411407471e-01,1.239221096038818359e-01,-4.972199499607086182e-01,-6.436653137207031250e-01,-1.376584410667419434e+00,2.372819334268569946e-01
1.259525716304779053e-01,1.079671263694763184e+00,-5.924058333039283752e-02,-3.267560303211212158e-01,6.572567224502563477e-01,-5.782635807991027832e-01,-4.182887077331542969e-02,4.296903014183044434e-01,1.197187304496765137e-01,-9.914574772119522095e-02,-5.263595581054687500e-01,-4.564855694770812988e-01,5.604762434959411621e-01,2.953183650970458984e-01,-1.364143133163452148e+00,6.444379091262817383e-01,-2.065458774566650391e+00,1.765759587287902832e-01,1.250842660665512085e-01,-7.502545118331909180e-01,-1.262443065643310547e+00,-1.012560129165649414e-01,-1.050232291221618652e+00,-1.143085956573486328e-02,-7.489361763000488281e-01,-9.693954586982727051e-01,-1.203306794166564941e+00,-8.837638497352600098e-01,-1.027503609657287598e+00
-2.581297159194946289e-01,-6.907816231250762939e-02,-7.153235673904418945e-01,9.386501461267471313e-02,-3.302971124649047852e-01,-1.701746731996536255e-01,1.793677657842636108e-01,-2.554099559783935547e-01,9.572386741638183594e-01,6.810445785522460938e-01,1.526317298412322998e-01,1.854921817779541016e+00,1.266966462135314941e+00,7.646465208381414413e-03,2.675633192062377930e+00,1.222160384058952332e-01,-1.666474491357803345e-01,-1.226414577104151249e-03,1.230780959129333496e+00,1.619260311126708984e+00,5.167217254638671875e-01,3.392727971076965332e-01,-1.928151249885559082e-01,-4.362869262695312500e-02,3.881642222404479980e-01,3.215437531471252441e-01,5.322193503379821777e-01,4.766284227371215820e-01,-4.409550726413726807e-01
-1.084430962800979614e-01,5.612666010856628418e-01,7.649344205856323242e-01,1.408797800540924072e-01,-6.770503520965576172e-01,1.876921355724334717e-01,-1.272354722023010254e-01,5.940121132880449295e-03,1.323059558868408203e+00,3.199481010437011719e+00,1.463963389396667480e-01,2.522484064102172852e-01,-1.772829771041870117e+00,-3.758902311325073242e+00,-2.908408045768737793e-01,5.317623913288116455e-02,7.059948444366455078e-01,5.413711443543434143e-02,-4.246128201484680176e-01,-4.362504482269287109e-01,-2.821803987026214600e-01,-2.854992449283599854e-01,-1.402547806501388550e-01,-2.174040973186492920e-01,-5.777521729469299316e-01,1.410257816314697266e-01,-1.861655414104461670e-01,-6.422662734985351562e-01,-1.271014362573623657e-01
-3.612306118011474609e-01,-2.629455626010894775e-01,5.516551136970520020e-01,-1.600861400365829468e-01,-2.933121442794799805e+00,1.122542500495910645e+00,-6.505852937698364258e-01,-8.481303602457046509e-02,3.963677287101745605e-01,-6.155840754508972168e-01,1.898219585418701172e-01,1.796035170555114746e+00,-2.169293910264968872e-01,-6.865014135837554932e-02,2.743109464645385742e+00,-7.375144958496093750e-02,6.176003068685531616e-02,7.228678464889526367e-02,9.465981721878051758e-01,1.709976911544799805e+00,1.648728489875793457e+00,-9.434759020805358887e-01,-8.536258339881896973e-01,2.232384979724884033e-01,-5.156717300415039062e-01,-8.769760727882385254e-01,1.545075535774230957e+00,2.101151466369628906e+00,6.608331799507141113e-01
3.469398245215415955e-02,-5.203215479850769043e-01,-6.103491783142089844e-02,7.513023912906646729e-02,-2.352805435657501221e-01,3.533863723278045654e-01,9.685488045215606689e-02,2.205048501491546631e-01,3.355994820594787598e-01,-3.866687297821044922e+00,-3.075949847698211670e-01,8.112974166870117188e-01,1.839922666549682617e-01,3.935628652572631836e+00,7.204763889312744141e-01,1.299550533294677734e-01,2.619670331478118896e-01,-1.916143447160720825e-01,-5.054280757904052734e-01,-7.773145288228988647e-02,-3.855459392070770264e-02,-6.791923046112060547e-01,-1.511863619089126587e-01,-3.306145966053009033e-02,-1.468333125114440918e+00,-1.309358477592468262e+00,-6.293720006942749023e-02,-4.812927246093750000e-01,-3.272682130336761475e-01
2.437435686588287354e-01,-1.182694911956787109e+00,3.437335789203643799e-01,-5.702342987060546875e-01,9.758246690034866333e-02,7.582175135612487793e-01,7.442733049392700195e-01,9.893324226140975952e-02,-3.420418500900268555e+00,-2.440209537744522095e-01,4.974699020385742188e-02,5.700565576553344727e-01,4.760116100311279297e+00,-8.725881576538085938e-03,6.535279154777526855e-01,3.632931113243103027e-01,5.282671451568603516e-01,-5.888543128967285156e-01,2.243023365736007690e-01,3.425575792789459229e-01,2.764761447906494141e-01,6.685642898082733154e-02,-1.608963489532470703e+00,-4.724322259426116943e-02,-1.827529072761535645e+00,-4.033800661563873291e-01,3.735152184963226318e-01,7.399467378854751587e-02,1.829137653112411499e-01
-1.022137477993965149e-01,-5.932559370994567871e-01,4.574678838253021240e-02,1.635940819978713989e-01,-4.701460245996713638e-03,-1.169987842440605164e-01,7.616609930992126465e-01,-1.519699767231941223e-02,-3.422644615173339844e+00,1.029731869697570801e+00,6.216054782271385193e-02,-1.027800321578979492e+00,4.007205486297607422e+00,-1.080780625343322754e+00,-7.777865529060363770e-01,-5.066465735435485840e-01,-7.293590158224105835e-02,-8.245536088943481445e-01,7.068162411451339722e-02,1.263423413038253784e-01,7.074788212776184082e-02,-8.653911761939525604e-03,5.890587568283081055e-01,2.374502718448638916e-01,3.652694448828697205e-02,7.958463579416275024e-02,1.097972840070724487e-01,1.193247660994529724e-01,1.692243367433547974e-01
-1.278386358171701431e-02,4.580291211605072021e-01,-5.058339834213256836e-01,-1.068708673119544983e-01,7.871533930301666260e-02,-4.286301434040069580e-01,2.645849943161010742e+00,5.056919530034065247e-02,3.410661458969116211e+00,3.367944359779357910e-01,5.315728485584259033e-02,3.426016122102737427e-02,-3.856402635574340820e+00,1.432361900806427002e-01,1.079435795545578003e-01,-1.491497874259948730e+00,4.752391874790191650e-01,-2.613524675369262695e+00,8.047712445259094238e-01,2.893531322479248047e-01,4.072919487953186035e-01,3.269106447696685791e-01,2.816622257232666016e-01,7.325205206871032715e-02,3.087377548217773438e-01,3.947156071662902832e-01,4.015951752662658691e-01,1.266566067934036255e-01,6.998576521873474121e-01
8.879113942384719849e-02,-5.739283934235572815e-02,-3.084812164306640625e-01,1.872385293245315552e-02,-2.254012227058410645e-01,-1.948302268981933594e+00,6.092726230621337891e+00,6.715755164623260498e-02,-4.035104811191558838e-01,-2.489573508501052856e-01,7.792309392243623734e-03,5.509302020072937012e-01,2.751897871494293213e-01,4.990513622760772705e-01,7.573252916336059570e-01,-3.870116233825683594e+00,2.243024110794067383e+00,-6.056556224822998047e+00,-6.616490334272384644e-02,1.248624444007873535e+00,8.792624473571777344e-01,-1.732100009918212891e+00,1.097267940640449524e-01,-2.716203033924102783e-02,-1.386021852493286133e+00,2.738111615180969238e-01,9.006152153015136719e-01,1.007694482803344727e+00,1.038975715637207031e+00
-2.898596227169036865e-01,-6.325281858444213867e-01,-2.242034375667572021e-01,1.389003843069076538e-01,-2.949511110782623291e-01,-1.161690950393676758e-01,1.795766502618789673e-01,2.065751850605010986e-01,-1.871490955352783203e+00,-2.658163785934448242e+00,9.332363307476043701e-02,-1.493107825517654419e-01,2.535392522811889648e+00,2.866759061813354492e+00,-5.030151605606079102e-01,-3.617065548896789551e-01,-1.977580636739730835e-01,-1.645796895027160645e-01,-2.690525352954864502e-01,2.565924078226089478e-02,-5.364742875099182129e-01,-6.010973453521728516e-01,-3.821359574794769287e-01,1.142135560512542725e-01,-2.030776888132095337e-01,7.296010255813598633e-01,-4.842857122421264648e-01,-5.781608819961547852e-01,-3.249195814132690430e-01
8.939723670482635498e-02,1.465224504470825195e+00,-7.364403009414672852e-01,-1.470097061246633530e-02,2.280182093381881714e-01,-4.778418317437171936e-02,-9.435308575630187988e-01,1.383495032787322998e-01,7.170417904853820801e-01,-1.970207214355468750e+00,-1.583900600671768188e-01,6.819540858268737793e-01,-2.702603816986083984e+00,2.518880605697631836e+00,1.194066286087036133e+00,4.611947536468505859e-01,-2.256116122007369995e-01,1.045094966888427734e+00,2.454724609851837158e-01,-6.271397471427917480e-01,3.612568676471710205e-01,1.780150085687637329e-01,-1.921481639146804810e-01,2.186586856842041016e-01,4.199100434780120850e-01,2.100365757942199707e-01,2.383426427841186523e-01,1.368350535631179810e-01,4.140784144401550293e-01
-3.827388584613800049e-01,-2.274173021316528320e+00,-2.933685064315795898e+00,9.221246838569641113e-02,3.679326772689819336e-01,-2.968668639659881592e-01,1.809832267463207245e-02,2.256105840206146240e-01,3.070002794265747070e+00,4.500919342041015625e+00,-4.184433519840240479e-01,1.142708063125610352e+00,-5.775703191757202148e-01,-1.543365955352783203e+00,1.687427997589111328e+00,-1.602386683225631714e-02,-6.721702963113784790e-02,4.761663451790809631e-02,-7.375739514827728271e-02,4.248186945915222168e-01,2.763891518115997314e-01,3.192647695541381836e-01,4.754653945565223694e-02,1.676256358623504639e-01,-4.482681453227996826e-01,5.943068861961364746e-01,3.394268751144409180e-01,1.003380775451660156e+00,3.803894519805908203e-01
3.995655179023742676e-01,5.038559436798095703e-01,1.453816771507263184e+00,3.763207420706748962e-02,6.301214694976806641e-01,5.265606045722961426e-01,-5.333350896835327148e-01,-4.962164163589477539e-01,9.289466738700866699e-01,1.348418951034545898e+00,-2.177066355943679810e-01,-5.327461957931518555e-01,-1.377693772315979004e+00,-2.878460645675659180e+00,-6.344532370567321777e-01,1.350081562995910645e-01,-3.259278088808059692e-02,4.041168093681335449e-01,-8.771163411438465118e-03,-1.738921552896499634e-01,-1.217569876462221146e-02,-8.600920438766479492e-02,3.095040470361709595e-02,-4.244881868362426758e-02,-1.306285262107849121e+00,-1.276595115661621094e+00,-8.369911462068557739e-02,1.275039166212081909e-01,1.640096008777618408e-01
4.642747044563293457e-01,-8.173628449440002441e-01,-1.150953412055969238e+00,4.134107753634452820e-02,2.462509423494338989e-01,5.534185171127319336e-01,-2.878590859472751617e-02,-1.355428248643875122e-01,-3.879249393939971924e-01,-1.838151812553405762e+00,-2.726924605667591095e-03,-1.634714566171169281e-02,1.210405349731445312e+00,-4.413087666034698486e-02,-7.197112441062927246e-01,-2.442025095224380493e-01,-5.630388855934143066e-01,4.288033023476600647e-02,-6.226935982704162598e-01,-7.675729990005493164e-01,-9.795494675636291504e-01,-1.007442235946655273e+00,-7.412034273147583008e-01,-8.031632006168365479e-02,-5.679390430450439453e-01,-1.007870793342590332e+00,-1.036473393440246582e+00,-6.582474112510681152e-01,8.741478621959686279e-02
-3.032693564891815186e-01,2.363290637731552124e-01,2.887095212936401367e-01,-2.564294636249542236e-01,2.444654226303100586e+00,3.573429107666015625e+00,1.306515187025070190e-01,-6.251362711191177368e-02,-4.609636664390563965e-01,-4.130752086639404297e-01,1.553926765918731689e-01,1.825196623802185059e+00,-3.674595654010772705e-01,1.428931504487991333e-01,3.438469648361206055e+00,-3.402831777930259705e-02,5.053251236677169800e-02,3.036420233547687531e-02,3.234470129013061523e+00,1.250271677970886230e+00,1.130425572395324707e+00,5.137121677398681641e-01,-1.164143681526184082e+00,-2.942597866058349609e-02,-1.137628078460693359e+00,8.307392597198486328e-01,1.227522730827331543e+00,7.811225056648254395e-01,2.556783437728881836e+00
-2.525329589843750000e-01,2.080960720777511597e-01,7.638390660285949707e-01,-4.233908653259277344e-01,1.871025413274765015e-01,-2.786605060100555420e-01,1.424854397773742676e-01,2.724238634109497070e-01,-7.024943828582763672e-01,-1.027529001235961914e+00,-2.936609387397766113e-01,1.136846184730529785e+00,5.439668893814086914e-01,1.874335855245590210e-01,4.739212095737457275e-01,6.729342788457870483e-02,-2.465915679931640625e-01,-1.199163571000099182e-01,-1.399948894977569580e-01,-7.940402030944824219e-01,1.569593250751495361e-01,4.486437439918518066e-01,6.331066489219665527e-01,-6.311748921871185303e-02,5.683488845825195312e-01,2.787814736366271973e-01,1.665707379579544067e-01,-5.601306557655334473e-01,-4.293735325336456299e-01
2.489680498838424683e-01,-3.565757870674133301e-01,-3.217225372791290283e-01,-1.427019387483596802e-01,1.250552684068679810e-01,5.792853236198425293e-01,-5.633019447326660156e+00,-1.677421033382415771e-01,8.029108643531799316e-01,1.369502842426300049e-01,1.702009588479995728e-01,1.247416734695434570e-01,-7.871711850166320801e-01,2.064892798662185669e-01,-2.472081482410430908e-01,2.723057031631469727e+00,-6.074414253234863281e-01,5.582317829132080078e+00,1.843284443020820618e-02,1.941343992948532104e-01,3.047649562358856201e-01,-2.136836498975753784e-01,-7.554247975349426270e-01,-4.455894231796264648e-03,-5.509913563728332520e-01,-5.276293158531188965e-01,3.537075221538543701e-01,7.648521661758422852e-01,5.102909207344055176e-01
3.912823274731636047e-02,-1.122501134872436523e+00,7.124372124671936035e-01,-2.319818735122680664e-01,-4.354607462882995605e-01,9.247107058763504028e-02,3.387477695941925049e-01,8.717609941959381104e-02,-1.859285593032836914e+00,2.456231832504272461e+00,-9.221271425485610962e-02,7.111097127199172974e-02,2.744031190872192383e+00,-3.179973363876342773e+00,-2.785201556980609894e-02,-9.751949906349182129e-01,-9.576388597488403320e-01,-3.783399462699890137e-01,2.945992946624755859e-01,-3.014349145814776421e-03,-9.231903403997421265e-02,-5.446085929870605469e-01,-9.702363014221191406e-01,1.532911658287048340e-01,-7.770529985427856445e-01,-6.645114421844482422e-01,-9.294020012021064758e-03,-1.550451219081878662e-01,-5.293895602226257324e-01
5.726295337080955505e-02,7.363605499267578125e-01,-4.076800942420959473e-01,5.270566344261169434e-01,-7.131570577621459961e-01,-1.119790554046630859e+00,-2.433241009712219238e-01,-5.379863455891609192e-02,2.753474400378763676e-04,3.829630017280578613e-01,-7.580550014972686768e-02,1.366129755973815918e+00,-1.334769248962402344e+00,3.505276516079902649e-02,1.643148422241210938e+00,7.216475903987884521e-02,-6.886676698923110962e-02,1.282939221709966660e-02,2.590296864509582520e-01,1.241757035255432129e+00,8.913953900337219238e-01,1.013565182685852051e+00,-1.058447003364562988e+00,1.886241436004638672e-01,-9.290485978126525879e-01,-1.379233300685882568e-01,1.023531436920166016e+00,7.904293537139892578e-01,-3.235847502946853638e-02
-2.851482927799224854e-01,2.587029218673706055e+00,-2.533986568450927734e+00,-5.308672040700912476e-02,1.960739940404891968e-01,-2.302364110946655273e-01,2.578282952308654785e-01,1.446100771427154541e-01,-3.242057085037231445e+00,3.207704544067382812e+00,-4.485747516155242920e-01,9.765548706054687500e-01,8.597798943519592285e-01,-6.631829142570495605e-01,1.914793133735656738e+00,-1.323325634002685547e-01,-3.596198931336402893e-02,-3.006325364112854004e-01,1.159159898757934570e+00,-5.419715642929077148e-01,5.211690664291381836e-01,4.578478038311004639e-01,1.553598046302795410e-01,2.464933097362518311e-01,7.499830424785614014e-02,5.634872913360595703e-01,4.015627801418304443e-01,1.520038545131683350e-01,1.306580305099487305e+00
1.088913008570671082e-01,1.521574616432189941e+00,5.070943832397460938e-01,1.164073646068572998e-01,5.549694895744323730e-01,1.831732094287872314e-01,6.163206696510314941e-01,4.886632412672042847e-02,7.952522039413452148e-01,7.572325468063354492e-01,-1.106066927313804626e-01,-6.724599599838256836e-01,-2.492316484451293945e+00,-1.279228210449218750e+00,-1.660135149955749512e+00,2.182892560958862305e+00,5.022262930870056152e-01,-6.321450471878051758e-01,-1.299916028976440430e+00,-7.129337191581726074e-01,-6.998292207717895508e-01,-3.691834807395935059e-01,-1.279108524322509766e-01,-2.483360469341278076e-01,4.047588706016540527e-01,-5.314661860466003418e-01,-7.079988121986389160e-01,-8.240348696708679199e-01,-6.451274752616882324e-01
-4.529702365398406982e-01,1.704502701759338379e+00,3.307714223861694336e+00,1.280567497014999390e-01,-1.096699573099613190e-02,3.996087983250617981e-02,-3.819390237331390381e-01,7.204465568065643311e-02,-2.217457771301269531e+00,-3.918327808380126953e+00,-8.558981418609619141e-01,9.273540973663330078e-01,5.958011746406555176e-01,7.307838797569274902e-01,1.519422531127929688e+00,2.025167644023895264e-01,-1.970401406288146973e-01,3.313704729080200195e-01,4.737862050533294678e-01,5.627778768539428711e-01,1.132788434624671936e-01,2.291947752237319946e-01,6.014621257781982422e-01,-2.254294455051422119e-01,1.838077753782272339e-01,2.611414790153503418e-01,1.602405756711959839e-01,7.053197026252746582e-01,1.072189688682556152e+00
-8.088254928588867188e-01,-4.125323593616485596e-01,-1.145666956901550293e+00,-1.599245220422744751e-01,-1.372273862361907959e-01,-2.670504748821258545e-01,-1.998357027769088745e-01,1.984749287366867065e-01,-7.797089815139770508e-01,1.639267563819885254e+00,-1.836780458688735962e-01,1.256734371185302734e+00,-3.937505185604095459e-01,-6.036247014999389648e-01,2.195998907089233398e+00,3.042201995849609375e-01,5.613222718238830566e-01,-1.423348858952522278e-02,-4.507323503494262695e-01,2.932628393173217773e-01,1.987896710634231567e-01,1.565085351467132568e-01,3.343391120433807373e-01,1.318113505840301514e-01,4.921851456165313721e-01,8.089939355850219727e-01,1.158611699938774109e-01,-2.373330593109130859e-01,-3.350360691547393799e-01
6.127529963850975037e-02,-1.413036435842514038e-01,4.835481345653533936e-01,1.267927885055541992e-01,4.889737367630004883e-01,-2.666588425636291504e-01,-7.835431098937988281e-01,5.473140999674797058e-02,-4.187565147876739502e-01,4.196264743804931641e+00,-9.917467832565307617e-02,5.092037916183471680e-01,4.117605090141296387e-01,-4.689467906951904297e+00,4.804274141788482666e-01,-1.742887496948242188e-01,-5.427625179290771484e-01,7.527462244033813477e-01,-1.189003884792327881e-01,2.649961113929748535e-01,-1.854233630001544952e-02,-3.737771511077880859e-01,-6.606438159942626953e-01,1.836065948009490967e-01,-1.021695435047149658e-01,-7.373220324516296387e-01,-1.319962590932846069e-01,-5.204502940177917480e-01,-2.505716383457183838e-01
-1.093444898724555969e-01,8.635014891624450684e-01,-3.540816307067871094e-01,-1.022584438323974609e-01,1.739150658249855042e-02,6.871541738510131836e-01,-8.523529767990112305e-02,1.218600645661354065e-01,2.255262374877929688e+00,-2.574139356613159180e+00,2.079806663095951080e-02,3.028226792812347412e-01,-2.999581575393676758e+00,2.990414857864379883e+00,-2.924003601074218750e-01,5.129432678222656250e-02,5.123333930969238281e-01,2.345568872988224030e-02,-7.151688933372497559e-01,3.234681189060211182e-01,2.151453122496604919e-02,-7.198145985603332520e-02,-4.114136844873428345e-02,-1.877641826868057251e-01,-2.660827636718750000e-01,-7.982106804847717285e-01,6.396628171205520630e-02,5.195270180702209473e-01,-4.781977236270904541e-01
-8.849174976348876953e-01,-2.261710762977600098e-01,-9.349290132522583008e-01,-2.613584101200103760e-01,6.867085397243499756e-02,-1.916808038949966431e-01,1.125888586044311523e+00,7.491669803857803345e-02,-1.084471587091684341e-02,-2.061795741319656372e-01,8.768141269683837891e-02,9.964700937271118164e-01,1.968246698379516602e-01,9.378476142883300781e-01,1.016549587249755859e+00,-1.686893552541732788e-01,-2.406627684831619263e-01,-1.401179075241088867e+00,-5.701927468180656433e-02,6.427726745605468750e-01,3.707414120435714722e-02,9.922385215759277344e-01,-9.701333642005920410e-01,1.860337555408477783e-01,-1.493419766426086426e+00,-8.151773214340209961e-01,5.472453311085700989e-02,-7.191051244735717773e-01,-3.160008788108825684e-01
-5.550036579370498657e-02,9.326609969139099121e-01,2.577991008758544922e+00,1.855445951223373413e-01,1.857336521148681641e+00,-4.441967606544494629e-01,6.672349572181701660e-02,1.745703369379043579e-01,-1.961767911911010742e+00,-3.032846927642822266e+00,-1.155790910124778748e-01,1.534841179847717285e+00,1.136065840721130371e+00,4.498305916786193848e-01,1.571097135543823242e+00,2.431484013795852661e-01,5.054577253758907318e-03,-6.057870388031005859e-02,7.434420585632324219e-01,-4.061902165412902832e-01,1.049506902694702148e+00,1.213908314704895020e+00,1.041968166828155518e-01,1.614901721477508545e-01,7.897650599479675293e-01,1.289984583854675293e+00,1.108013033866882324e+00,2.770487964153289795e-01,1.439841538667678833e-01
1.106257215142250061e-01,-6.713649630546569824e-01,-1.543248742818832397e-01,-1.257498711347579956e-01,-2.510239779949188232e-01,-2.396484464406967163e-01,-1.222121357917785645e+00,-3.474685922265052795e-02,-2.548046827316284180e+00,1.725796461105346680e+00,6.773181259632110596e-02,6.832413077354431152e-01,3.172379732131958008e+00,-1.597404479980468750e+00,8.863475322723388672e-01,5.098276138305664062e-01,1.675026863813400269e-01,1.167865514755249023e+00,3.318963348865509033e-01,8.527258783578872681e-02,1.648812741041183472e-01,-8.024813234806060791e-02,-4.615671336650848389e-01,-2.476111799478530884e-01,-1.755989193916320801e-01,1.623009920120239258e+00,9.091003239154815674e-02,1.182020530104637146e-01,-1.813101172447204590e-01
-1.233576796948909760e-02,4.453220963478088379e-01,-1.469152569770812988e+00,8.260324597358703613e-02,-1.282974779605865479e-01,-8.272330164909362793e-01,-1.635844558477401733e-01,2.075742185115814209e-02,6.069698333740234375e-01,-2.196825981140136719e+00,-7.117989659309387207e-02,6.509044170379638672e-01,-8.179628252983093262e-01,3.438978910446166992e+00,2.796182036399841309e-01,4.276406764984130859e-01,-1.394595205783843994e-01,2.251869440078735352e-01,-9.587627137079834938e-04,-4.591647982597351074e-01,1.223112791776657104e-01,2.259441167116165161e-01,-2.230211943387985229e-01,-1.884219050407409668e-01,-1.530449688434600830e-01,-1.169810056686401367e+00,1.150969862937927246e-01,6.976194977760314941e-01,3.256052732467651367e-01
9.531088918447494507e-02,1.272775173187255859e+00,-1.882756471633911133e+00,-3.229386731982231140e-02,7.720057037658989429e-04,-1.265100836753845215e-01,-2.951420545578002930e-01,8.739420771598815918e-02,-5.650491714477539062e+00,1.439862132072448730e+00,5.423124879598617554e-02,7.970824241638183594e-01,4.132481575012207031e+00,3.510083854198455811e-01,8.042604923248291016e-01,-2.951863706111907959e-01,-2.897931635379791260e-01,1.799410283565521240e-01,-3.121376968920230865e-02,-1.374491453170776367e-01,4.521799683570861816e-01,2.943435013294219971e-01,-1.215504407882690430e+00,1.640951633453369141e-02,-7.339493036270141602e-01,5.798674225807189941e-01,3.932601213455200195e-01,5.072735548019409180e-01,7.932503819465637207e-01
-4.251987114548683167e-02,5.866985023021697998e-02,1.334400624036788940e-01,7.850412279367446899e-02,-6.035081744194030762e-01,-5.276628136634826660e-01,-5.007369071245193481e-02,-2.065741573460400105e-04,-1.342041511088609695e-02,-1.738004833459854126e-01,3.273676382377743721e-03,-6.116234064102172852e-01,-9.150167554616928101e-02,1.341724023222923279e-02,-8.417695760726928711e-01,3.157639503479003906e-01,5.899038791656494141e+00,-4.885752685368061066e-03,-7.480549812316894531e-01,-7.049944996833801270e-01,-7.146164774894714355e-01,7.904404774308204651e-03,-1.644325070083141327e-02,7.906207442283630371e-02,-4.004915058612823486e-01,3.499116599559783936e-01,-7.198500037193298340e-01,-9.024491310119628906e-01,-5.334339290857315063e-02
-1.409822404384613037e-01,-1.110431104898452759e-01,1.787022948265075684e+00,6.998550295829772949e-01,-2.582836747169494629e-01,-7.547170519828796387e-01,-6.106522679328918457e-01,5.313893407583236694e-02,6.077404618263244629e-01,-2.051653385162353516e+00,-1.264612972736358643e-01,1.266911625862121582e+00,-7.983628511428833008e-01,3.014612495899200439e-01,1.326488852500915527e+00,2.600603103637695312e-01,-3.495113253593444824e-01,3.577051311731338501e-02,3.868447244167327881e-01,1.195766687393188477e+00,4.479010403156280518e-01,3.573133945465087891e-01,-2.737226784229278564e-01,1.921384632587432861e-01,-3.404424488544464111e-01,-3.582946360111236572e-01,5.776231288909912109e-01,9.010052084922790527e-01,9.182363748550415039e-01
1.559159457683563232e-01,1.083910241723060608e-01,-1.087674647569656372e-01,1.694247126579284668e-01,-6.009570360183715820e-01,-1.458215266466140747e-01,-4.625399708747863770e-01,2.053973525762557983e-01,-4.302051290869712830e-02,5.061761736869812012e-01,-2.918190658092498779e-01,1.877274394035339355e+00,1.496787071228027344e-01,-4.171034991741180420e-01,2.447422266006469727e+00,1.946226656436920166e-01,2.256786525249481201e-01,4.478843212127685547e-01,4.075121283531188965e-01,1.269829124212265015e-01,-2.784520685672760010e-01,2.163604259490966797e+00,2.014698505401611328e+00,-6.846757233142852783e-02,1.017318010330200195e+00,6.536056995391845703e-01,1.632028841413557529e-03,6.523118019104003906e-01,2.056695222854614258e+00
2.872853577136993408e-01,-7.294654846191406250e-01,2.768190205097198486e-01,-2.353841215372085571e-01,3.668347299098968506e-01,9.288395047187805176e-01,-1.200827836990356445e+00,1.832163333892822266e-01,-1.897587776184082031e+00,-7.446450740098953247e-02,-5.724719166755676270e-02,5.919323563575744629e-01,3.452071428298950195e+00,-1.851734220981597900e-01,1.102688670158386230e+00,1.149220839142799377e-01,-4.726812243461608887e-02,1.127502918243408203e+00,3.681572377681732178e-01,1.816786527633666992e-01,2.971530258655548096e-01,-6.912913173437118530e-02,-1.255852699279785156e+00,1.411986947059631348e-01,-2.460071071982383728e-02,-1.070272564888000488e+00,3.677538037300109863e-01,-5.954905748367309570e-01,4.651933908462524414e-01
-1.488552987575531006e-01,1.663678735494613647e-01,-6.045893579721450806e-02,2.069381475448608398e-01,8.644232153892517090e-02,-9.605057835578918457e-01,-5.909761428833007812e+00,1.295333504676818848e-01,1.131333708763122559e+00,1.846678107976913452e-01,-8.771377056837081909e-02,4.171314239501953125e-01,-1.078652143478393555e+00,-8.804576098918914795e-02,5.605114102363586426e-01,3.059389114379882812e+00,-4.243846535682678223e-01,5.903811931610107422e+00,7.146908640861511230e-01,8.937824368476867676e-01,8.793498873710632324e-01,-6.905087232589721680e-01,-1.053832173347473145e+00,1.397415697574615479e-01,-8.044844269752502441e-01,-9.221085309982299805e-01,9.016025066375732422e-01,-2.494477182626724243e-01,-2.868360280990600586e-01
1.410149782896041870e-01,-1.112914204597473145e+00,-1.074979782104492188e+00,2.606324553489685059e-01,-4.379040002822875977e-01,5.604862421751022339e-02,-5.322870612144470215e-02,-3.189871609210968018e-01,-1.047193765640258789e+00,-2.046551465988159180e+00,-3.490896150469779968e-02,-5.701819658279418945e-01,2.143963813781738281e+00,3.209012746810913086e+00,-7.978970408439636230e-01,2.963467538356781006e-01,4.141653180122375488e-01,-5.007499456405639648e-02,3.945918008685112000e-02,-2.280111759901046753e-01,-2.000930905342102051e-01,-5.181255936622619629e-01,-9.133169800043106079e-02,1.570767164230346680e-01,-4.731453359127044678e-01,-5.797471404075622559e-01,-3.285478353500366211e-01,-6.667103767395019531e-01,-1.991753578186035156e-01
1.292739808559417725e-02,-2.842373847961425781e-01,-2.398266345262527466e-01,-2.307282984256744385e-01,-4.997130930423736572e-01,-7.728996276855468750e-01,-4.040203094482421875e+00,1.137987449765205383e-01,-1.513279438018798828e+00,-2.426529675722122192e-01,6.824588030576705933e-02,1.144919544458389282e-01,1.711263179779052734e+00,4.415816068649291992e-01,7.575577497482299805e-01,2.371848821640014648e+00,-1.096208214759826660e+00,4.179331779479980469e+00,6.813899874687194824e-01,7.272329330444335938e-01,3.604430556297302246e-01,2.652551233768463135e-01,9.905531406402587891e-01,3.728759288787841797e-02,2.090070009231567383e+00,-1.377350211143493652e+00,3.404111862182617188e-01,9.768681526184082031e-01,8.768226504325866699e-01
-1.815189793705940247e-02,1.659036874771118164e+00,3.678546547889709473e-01,-6.352406740188598633e-02,5.733179450035095215e-01,3.200258910655975342e-01,-1.477166295051574707e+00,2.350663766264915466e-02,1.381618976593017578e+00,8.841754198074340820e-01,1.024135202169418335e-01,4.332220852375030518e-01,-3.004788160324096680e+00,-1.229387044906616211e+00,1.210106849670410156e+00,1.399917125701904297e+00,-5.930127501487731934e-01,1.562651872634887695e+00,3.225378990173339844e-01,8.265976607799530029e-02,8.418615162372589111e-02,-2.109922468662261963e-01,2.107227563858032227e+00,1.982069015502929688e-01,1.848390460014343262e+00,-1.034520044922828674e-01,-1.591075910255312920e-03,-3.329771757125854492e-01,2.602435350418090820e-01
-2.355658560991287231e-01,-2.624573945999145508e+00,1.405441284179687500e+00,1.122922077775001526e-01,1.733731925487518311e-01,-3.267314136028289795e-01,-7.451958209276199341e-02,-9.302154928445816040e-02,2.332746744155883789e+00,-1.098795771598815918e+00,1.681926101446151733e-01,8.398435115814208984e-01,-5.315842032432556152e-01,-2.912212908267974854e-01,2.180774450302124023e+00,-8.215657621622085571e-02,-2.766612172126770020e-01,1.295610703527927399e-02,1.430595993995666504e+00,3.425203263759613037e-01,4.309797585010528564e-01,4.621112048625946045e-01,-1.530320495367050171e-01,-8.415228128433227539e-02,3.270551860332489014e-01,5.520860552787780762e-01,4.015538394451141357e-01,5.504535436630249023e-01,6.394326686859130859e-01
2.855175733566284180e-02,-7.702203989028930664e-01,-6.593134999275207520e-01,-8.624453097581863403e-02,-7.202950865030288696e-02,-2.364834994077682495e-01,1.599638938903808594e+00,-1.486819833517074585e-01,-1.751832842826843262e+00,-1.214809417724609375e+00,3.876368105411529541e-01,1.386701822280883789e+00,2.530694723129272461e+00,1.938180446624755859e+00,1.986387372016906738e+00,-4.693166017532348633e-01,9.551289677619934082e-02,-1.058817863464355469e+00,2.345730513334274292e-01,6.147615984082221985e-02,3.025046288967132568e-01,7.379608601331710815e-02,1.808880686759948730e+00,-3.003473579883575439e-02,-1.751793771982192993e-01,1.021617278456687927e-01,2.307903170585632324e-01,-5.001862645149230957e-01,6.741292774677276611e-02
1.308007836341857910e-01,1.553451180458068848e+00,7.471277564764022827e-02,7.966731488704681396e-02,-8.569656312465667725e-02,-1.123661994934082031e-01,-8.820611834526062012e-01,1.349657867103815079e-02,3.180898904800415039e+00,-6.623998284339904785e-01,-1.663232408463954926e-02,1.143495813012123108e-01,-4.318317890167236328e+00,6.175909638404846191e-01,-3.722611665725708008e-01,2.232672572135925293e-01,1.211789529770612717e-02,8.142633438110351562e-01,-4.072220623493194580e-01,2.980108559131622314e-01,-6.007750984281301498e-03,-4.281281232833862305e-01,-8.210181593894958496e-01,1.645477116107940674e-01,-7.127651572227478027e-01,8.901461362838745117e-01,-5.725812911987304688e-02,3.883709609508514404e-01,-6.987851858139038086e-01
-8.087736964225769043e-01,-8.414248824119567871e-01,1.502322077751159668e+00,-7.561534047126770020e-01,2.093847393989562988e-01,-6.515832990407943726e-02,1.143636584281921387e+00,2.330585122108459473e-01,1.976102828979492188e+00,-1.599401831626892090e+00,-3.050242178142070770e-02,8.557984232902526855e-01,-1.133028149604797363e+00,7.288888096809387207e-02,2.791779279708862305e+00,-3.870709538459777832e-01,-2.824960276484489441e-02,-1.214319586753845215e+00,1.241646558046340942e-01,9.292870759963989258e-02,7.555555552244186401e-02,8.739346861839294434e-01,1.701720356941223145e+00,2.661446630954742432e-01,1.488347291946411133e+00,4.817605316638946533e-01,1.821101307868957520e-01,3.575579226016998291e-01,6.344993710517883301e-01
-4.099335968494415283e-01,3.809494674205780029e-01,6.664297580718994141e-01,-1.196448579430580139e-01,3.090333640575408936e-01,-6.269296407699584961e-01,-1.019823830574750900e-02,3.885827958583831787e-01,1.183429479598999023e+00,2.754314661026000977e+00,-3.784950531553477049e-04,4.754234477877616882e-02,-1.544553875923156738e+00,-3.919294357299804688e+00,-8.820406794548034668e-01,6.358137130737304688e-01,-4.490342140197753906e-01,5.811263248324394226e-02,-7.550495862960815430e-01,-1.674775481224060059e-01,-4.653622210025787354e-01,-5.723620057106018066e-01,1.879305243492126465e-01,-2.457812130451202393e-01,-8.879623562097549438e-02,-3.240830302238464355e-01,-4.022008776664733887e-01,-4.927187263965606689e-01,-3.521197736263275146e-01
-1.111198589205741882e-01,8.683059811592102051e-01,6.123148798942565918e-01,3.553039133548736572e-01,1.360007971525192261e-01,-8.449409902095794678e-02,-2.517303228378295898e-01,-1.213397860527038574e+00,-9.232369065284729004e-01,-1.376078009605407715e+00,-9.564315676689147949e-01,-1.564271003007888794e-01,-1.919025368988513947e-02,7.260769605636596680e-01,6.602016091346740723e-02,-3.623239099979400635e-01,9.974587708711624146e-02,2.400795966386795044e-01,4.600698500871658325e-02,4.805720746517181396e-01,4.192213341593742371e-02,-7.613448053598403931e-02,-7.297527194023132324e-01,-1.126384735107421875e-02,-1.048941612243652344e+00,-1.265648365020751953e+00,6.206078082323074341e-02,1.735487282276153564e-01,-2.234869152307510376e-01
9.758574515581130981e-02,-3.732313394546508789e+00,9.742021560668945312e-01,5.539325624704360962e-02,4.062234610319137573e-02,-1.216757670044898987e-01,2.842295169830322266e-01,3.331160172820091248e-02,4.215117931365966797e+00,-9.365632534027099609e-01,-8.103144355118274689e-03,5.293719768524169922e-01,-4.127874672412872314e-01,-4.506597667932510376e-02,7.732542157173156738e-01,-3.657489717006683350e-01,-3.031360208988189697e-01,-2.484139651060104370e-01,-3.058972358703613281e-01,1.907323896884918213e-01,4.618765115737915039e-01,4.332506060600280762e-01,-1.662134379148483276e-01,-1.857816576957702637e-01,-2.100073248147964478e-01,7.024888396263122559e-01,4.169954657554626465e-01,2.811530232429504395e-02,7.389054298400878906e-01
7.773925364017486572e-02,-1.390865564346313477e+00,-1.066275835037231445e+00,1.214640215039253235e-01,-2.731698751449584961e-01,6.567922979593276978e-02,-1.398469060659408569e-01,1.771347038447856903e-02,9.301450848579406738e-01,2.867765426635742188e+00,-4.547038301825523376e-02,1.041428089141845703e+00,4.173217415809631348e-01,1.293924093246459961e+00,6.738964915275573730e-01,1.655454039573669434e-01,-2.534826099872589111e-01,6.481821089982986450e-02,4.842402637004852295e-01,-2.881093025207519531e-01,-5.554371476173400879e-01,-6.386817097663879395e-01,-5.332312732934951782e-02,2.080840170383453369e-01,4.800996929407119751e-02,-3.609431982040405273e-01,-4.807458519935607910e-01,-5.299060940742492676e-01,-4.925721585750579834e-01
4.823904335498809814e-01,3.307886600494384766e+00,-6.266326904296875000e-01,8.900756388902664185e-02,-9.304066002368927002e-02,4.234841559082269669e-03,-1.221967786550521851e-01,2.656055390834808350e-01,-2.710532665252685547e+00,1.975077271461486816e+00,-5.899310111999511719e-01,2.274118512868881226e-01,-3.094668090343475342e-01,-1.349224209785461426e+00,1.001536130905151367e+00,2.643182575702667236e-01,1.065749078989028931e-01,2.358658909797668457e-01,4.694890677928924561e-01,-3.905645310878753662e-01,2.396163195371627808e-01,3.815104067325592041e-01,-1.548052579164505005e-01,-9.720699489116668701e-02,8.450941443443298340e-01,2.799742817878723145e-01,3.826805055141448975e-01,3.874887228012084961e-01,5.392908453941345215e-01
1.879146844148635864e-01,-6.036954522132873535e-01,1.106418728828430176e+00,-2.290703356266021729e-01,-3.538945019245147705e-01,-8.001736402511596680e-01,2.317709207534790039e+00,7.400015601888298988e-04,-3.677538633346557617e-01,2.997034192085266113e-01,3.387291729450225830e-02,1.720730662345886230e-01,1.089391827583312988e+00,-1.139223575592041016e+00,-2.779134213924407959e-01,-1.706757187843322754e+00,4.858488142490386963e-01,-2.387182235717773438e+00,5.308714509010314941e-01,-4.090515971183776855e-01,1.078726872801780701e-01,-3.013236820697784424e-01,2.318982221186161041e-02,2.519815266132354736e-01,7.674607038497924805e-01,3.434474766254425049e-01,-1.622287034988403320e-01,8.471025824546813965e-01,-8.905106782913208008e-01
5.679454207420349121e-01,-8.519405126571655273e-01,4.638770222663879395e-01,1.197601184248924255e-01,-5.501881986856460571e-02,-5.308920145034790039e-02,-6.320336461067199707e-01,4.208644106984138489e-02,-5.998568534851074219e-01,-1.447504878044128418e+00,-6.404668092727661133e-02,5.851943492889404297e-01,1.277164578437805176e+00,1.031412839889526367e+00,6.856722235679626465e-01,3.626577556133270264e-01,3.472590819001197815e-02,6.810895800590515137e-01,1.804239898920059204e-01,7.262997329235076904e-02,6.574698090553283691e-01,-8.200919032096862793e-01,3.064656257629394531e-01,1.822483837604522705e-01,-1.479305773973464966e-01,-3.951767086982727051e-01,3.511127531528472900e-01,1.795819252729415894e-01,4.912072122097015381e-01
