7.101323008537292480e-01,2.166567593812942505e-01,3.403345942497253418e-01,5.845762416720390320e-02,-8.847698569297790527e-02,4.784830808639526367e-01,-1.205010488629341125e-01,-8.168128132820129395e-01,6.582364439964294434e-01,8.577260375022888184e-02,5.448441952466964722e-02,3.006738126277923584e-01,1.992433369159698486e-01,-1.285130381584167480e-01,-5.160467699170112610e-02,5.408656969666481018e-02,6.561869382858276367e-01,2.067312449216842651e-01,-3.887590169906616211e-01,-1.289302229881286621e+00,-5.654383301734924316e-01,2.230320572853088379e-01,-3.992020338773727417e-02,-5.169793367385864258e-01,4.243763685226440430e-01,-4.069590568542480469e-01,2.758094370365142822e-01,7.896903157234191895e-01,3.332330584526062012e-01,-4.181341826915740967e-01,-4.489777088165283203e-01,9.551946818828582764e-02,-7.001239061355590820e-01,-2.369094043970108032e-01,7.266144156455993652e-01,-5.858317017555236816e-01,-9.744209051132202148e-02,1.117216050624847412e-01,1.132559552788734436e-01,-1.891233474016189575e-01,4.512656107544898987e-02,-1.633346527814865112e-01,-4.049985408782958984e-01,2.428370993584394455e-03,5.553017258644104004e-01,1.366454660892486572e-01,6.974160671234130859e-01,-1.210576668381690979e-01,2.811000347137451172e-01,4.202504754066467285e-01
1.225894689559936523e+00,4.859423637390136719e-02,1.452299207448959351e-01,6.579040884971618652e-01,-4.502716958522796631e-01,-1.913412660360336304e-01,5.996670126914978027e-01,1.894781142473220825e-01,8.206908702850341797e-01,-1.600820571184158325e-01,-1.871619559824466705e-02,1.406062126159667969e+00,-7.471692562103271484e-02,-1.116126310080289841e-02,-3.918989002704620361e-01,8.617963790893554688e-01,8.225632458925247192e-02,-1.001447886228561401e-01,1.073076844215393066e+00,-4.161113202571868896e-01,3.365887701511383057e-02,8.401213288307189941e-01,-2.644965052604675293e-02,4.239396154880523682e-01,3.696514368057250977e-01,-1.587294787168502808e-02,-3.689325749874114990e-01,1.087406158447265625e+00,-7.849355936050415039e-01,6.417372226715087891e-01,3.983606100082397461e-01,2.721709609031677246e-01,-4.612123072147369385e-01,6.292840465903282166e-03,1.042046546936035156e-01,-2.572174966335296631e-01,3.781908750534057617e-01,-5.714401230216026306e-02,3.149197399616241455e-01,3.543767929077148438e-01,8.911385536193847656e-01,-4.842590093612670898e-01,-5.208761617541313171e-02,1.463332325220108032e-01,1.394976615905761719e+00,5.372386798262596130e-02,5.633885860443115234e-01,6.019660234451293945e-01,2.568090520799160004e-02,-5.325269699096679688e-01
6.632304191589355469e-02,-1.442455947399139404e-01,-2.691632509231567383e-01,3.427939414978027344e-01,5.142777785658836365e-02,6.307829022407531738e-01,-6.519461870193481445e-01,-8.720942139625549316e-01,6.423712968826293945e-01,6.424794346094131470e-02,-3.174831718206405640e-02,3.849474489688873291e-01,-2.750783562660217285e-01,9.751845002174377441e-01,-1.340498924255371094e-01,2.668446628376841545e-03,-7.166970521211624146e-02,-2.112674266099929810e-01,4.975253343582153320e-01,-7.755308598279953003e-02,1.475350618362426758e+00,5.126997828483581543e-01,5.990092754364013672e-01,1.100718900561332703e-01,1.792747825384140015e-01,1.049074649810791016e+00,3.829293549060821533e-01,1.151840165257453918e-01,-3.754076659679412842e-01,-7.018865942955017090e-01,4.608621597290039062e-01,8.873111009597778320e-01,1.774212270975112915e-01,-3.753939568996429443e-01,-1.947682201862335205e-01,-3.449372649192810059e-01,-1.517723649740219116e-01,-1.824994385242462158e-01,2.597976922988891602e-01,2.986496686935424805e-01,1.130413651466369629e+00,6.941580772399902344e-01,-9.824159145355224609e-01,4.078181460499763489e-02,2.835446298122406006e-01,-1.763249933719635010e-01,-8.551857471466064453e-01,-4.582521915435791016e-01,3.306197822093963623e-01,3.865288496017456055e-01
4.136126935482025146e-01,5.107820034027099609e-01,8.474689126014709473e-01,-6.107143163681030273e-01,8.654601573944091797e-01,3.033433854579925537e-01,4.199603199958801270e-01,-1.355837285518646240e-01,3.948427438735961914e-01,3.273066580295562744e-01,3.034597039222717285e-01,-3.238888680934906006e-01,1.054143980145454407e-01,-6.082829460501670837e-02,1.393798738718032837e-01,2.738385498523712158e-01,-1.661556027829647064e-02,1.372512936592102051e+00,4.164769649505615234e-01,-3.808128535747528076e-01,2.734317481517791748e-01,-7.730092853307723999e-02,8.021700978279113770e-01,-8.326673507690429688e-02,3.832288682460784912e-01,4.308791160583496094e-01,4.092059656977653503e-02,-6.738685965538024902e-01,4.914253354072570801e-01,-3.777138590812683105e-01,-8.865422010421752930e-01,6.644898653030395508e-01,2.658032476902008057e-01,1.489876657724380493e-01,-7.448141574859619141e-01,4.149888753890991211e-01,-1.354813575744628906e-01,6.622525453567504883e-01,-3.455348014831542969e-01,-3.450767099857330322e-01,-3.714305460453033447e-01,-4.155714511871337891e-01,-5.796650797128677368e-02,-6.946043968200683594e-01,-7.873380184173583984e-01,-2.590215802192687988e-01,2.230251580476760864e-01,5.767249464988708496e-01,-3.271692991256713867e-01,-2.398766726255416870e-01
-9.596820473670959473e-01,1.710437297821044922e+00,1.364470571279525757e-01,-5.041745901107788086e-01,-4.836592972278594971e-01,-5.727547407150268555e-01,3.815969824790954590e-01,-5.976809263229370117e-01,1.348855644464492798e-01,-3.993678092956542969e-01,-3.940847814083099365e-01,-1.421479225158691406e+00,-2.776418328285217285e-01,-2.162759155035018921e-01,3.462797403335571289e-02,-1.593288928270339966e-01,7.003918886184692383e-01,3.989213407039642334e-01,-2.340855002403259277e-01,7.320993393659591675e-02,-4.817431867122650146e-01,-8.405453562736511230e-01,-6.707076430320739746e-01,-3.557783365249633789e-01,1.291892975568771362e-01,5.296269655227661133e-01,8.272848129272460938e-01,-5.074527859687805176e-01,-1.900961250066757202e-01,2.211664617061614990e-01,-8.900111913681030273e-02,-7.983240485191345215e-01,-6.050406694412231445e-01,4.992401301860809326e-01,-4.092948883771896362e-02,-6.337779164314270020e-01,-1.919438391923904419e-01,3.010229170322418213e-01,-1.972403377294540405e-01,6.836422532796859741e-02,-1.235071420669555664e+00,-1.230865478515625000e+00,-8.289048671722412109e-01,-3.314376473426818848e-01,-5.808712840080261230e-01,-5.754225254058837891e-01,1.729561686515808105e-01,-7.503768056631088257e-02,-5.645222663879394531e-01,-1.302726268768310547e-01
7.940167188644409180e-01,1.879180371761322021e-01,3.357055783271789551e-01,-1.323228478431701660e-01,9.575075507164001465e-01,1.029396295547485352e+00,2.016067318618297577e-02,9.690380692481994629e-01,-1.064249277114868164e+00,1.814792007207870483e-01,1.928299516439437866e-01,2.026319801807403564e-01,3.630800545215606689e-01,-1.876120269298553467e-01,5.495016276836395264e-02,-1.268830597400665283e-01,-2.108889818191528320e-02,1.851160824298858643e-01,-7.260442972183227539e-01,-1.049435853958129883e+00,4.294352531433105469e-01,-3.886756300926208496e-02,1.196329116821289062e+00,-1.360389143228530884e-01,-1.332943439483642578e+00,6.847443431615829468e-02,-7.255877256393432617e-01,5.386833548545837402e-01,4.968423843383789062e-01,-9.181844592094421387e-01,-1.174806714057922363e+00,7.294098138809204102e-01,4.714142382144927979e-01,-9.495140612125396729e-02,-7.073003053665161133e-01,4.177481234073638916e-01,5.494739115238189697e-02,3.740884065628051758e-01,5.847626328468322754e-01,-1.013867259025573730e-01,-1.124931573867797852e+00,2.045448571443557739e-01,4.404455423355102539e-01,-5.311354994773864746e-01,-3.033657371997833252e-01,4.929981660097837448e-03,-3.732798099517822266e-01,3.465788066387176514e-01,-3.921350836753845215e-02,-1.353688389062881470e-01
-3.503084778785705566e-01,8.304925262928009033e-02,-3.993931114673614502e-01,2.102160155773162842e-01,-2.388634486123919487e-03,1.467901319265365601e-01,2.947911620140075684e-01,7.449454069137573242e-02,9.717564582824707031e-01,-4.457260668277740479e-02,2.282102555036544800e-01,-2.046916037797927856e-01,1.559565309435129166e-02,6.330979466438293457e-01,1.742057055234909058e-01,2.135074734687805176e-01,4.388527870178222656e-01,-5.643235445022583008e-01,-3.094743750989437103e-02,-7.176715880632400513e-02,8.194584250450134277e-01,8.277175426483154297e-01,6.558010578155517578e-01,-3.568897247314453125e-01,-1.080761179327964783e-01,7.484893798828125000e-01,5.435848236083984375e-01,6.269530057907104492e-01,-4.370648041367530823e-02,1.934909634292125702e-02,7.768563181161880493e-02,-4.328102767467498779e-01,5.531056523323059082e-01,-5.725156068801879883e-01,-8.233975172042846680e-01,-1.794100254774093628e-01,-1.245477944612503052e-01,2.308398783206939697e-01,-4.235382080078125000e-01,-1.256612390279769897e-01,-3.160726428031921387e-01,1.945224702358245850e-01,-1.614351756870746613e-02,-5.316326394677162170e-02,3.233010172843933105e-01,1.948434263467788696e-01,2.745563723146915436e-02,-2.246988415718078613e-01,3.878804743289947510e-01,4.532020092010498047e-01
-5.003176927566528320e-01,2.693296074867248535e-01,7.576313614845275879e-01,-3.869475126266479492e-01,2.669512331485748291e-01,7.137719392776489258e-01,9.858174920082092285e-01,-3.261592984199523926e-01,-9.433340430259704590e-01,3.494221866130828857e-01,2.881900072097778320e-01,1.010404974222183228e-01,2.055013924837112427e-01,8.282246589660644531e-01,-3.946202993392944336e-02,-4.605675339698791504e-01,-1.087119817733764648e+00,2.438230514526367188e-01,1.190537139773368835e-01,-1.098832964897155762e+00,-5.061993002891540527e-01,-1.466175764799118042e-01,5.916143655776977539e-01,-2.349903434514999390e-02,-1.307363748550415039e+00,1.004934981465339661e-01,-5.374745726585388184e-01,-3.656772375106811523e-01,4.252149760723114014e-01,-4.288614094257354736e-01,-5.950839072465896606e-02,-8.034572750329971313e-02,-8.376158773899078369e-02,2.289489209651947021e-01,-2.320126056671142578e+00,6.622119992971420288e-02,-4.206474870443344116e-02,-1.493670493364334106e-01,-4.074150025844573975e-01,1.217423826456069946e-01,-7.589621543884277344e-01,1.106768194586038589e-02,-7.438407093286514282e-02,-5.291932821273803711e-01,-7.013269066810607910e-01,1.675548404455184937e-02,1.527095317840576172e+00,-1.066263198852539062e+00,-7.140010595321655273e-01,5.052175372838973999e-02
4.184989631175994873e-01,-8.422488719224929810e-02,9.638682752847671509e-02,-3.329624831676483154e-01,3.810136914253234863e-01,8.426061272621154785e-01,1.402524560689926147e-01,-5.147371292114257812e-01,-8.107212185859680176e-01,2.503814399242401123e-01,4.973666667938232422e-01,-7.012388110160827637e-01,-2.373878508806228638e-01,1.292487680912017822e-01,-6.157505139708518982e-02,4.004510343074798584e-01,-5.584015250205993652e-01,1.192629560828208923e-01,-6.183651089668273926e-01,7.175702452659606934e-01,-5.584450066089630127e-02,6.226662993431091309e-01,7.274652123451232910e-01,2.050191760063171387e-01,8.505216240882873535e-01,-2.433832138776779175e-01,-1.071960385888814926e-02,2.013976126909255981e-01,4.084560275077819824e-01,-1.914786994457244873e-01,1.002910494804382324e+00,2.742206156253814697e-01,3.655074164271354675e-02,-1.007259413599967957e-01,-8.551168441772460938e-01,5.370774865150451660e-01,-9.692735970020294189e-03,-1.584566081874072552e-03,1.598036885261535645e-01,3.400056064128875732e-01,-9.387421011924743652e-01,5.255127549171447754e-01,-5.540846586227416992e-01,-7.477231621742248535e-01,-1.963298916816711426e-01,-1.888407468795776367e-01,-9.252102375030517578e-01,5.176073312759399414e-01,-3.924798369407653809e-01,-8.608432859182357788e-02
1.234637737274169922e+00,4.681424200534820557e-01,2.343698218464851379e-02,-2.539377808570861816e-01,-1.716181337833404541e-01,-3.952461183071136475e-01,-1.173245310783386230e+00,-4.589467644691467285e-01,-1.002283096313476562e-01,1.848722845315933228e-01,2.814554572105407715e-01,2.119219154119491577e-01,-4.499313533306121826e-01,4.690850675106048584e-01,-2.385074943304061890e-01,2.140388786792755127e-01,1.463938653469085693e-01,-1.893592029809951782e-01,7.327506542205810547e-01,2.569887936115264893e-01,7.515261173248291016e-01,8.744031786918640137e-01,-1.217595338821411133e-01,5.178017541766166687e-02,-2.140925973653793335e-01,5.658728480339050293e-01,4.027844071388244629e-01,1.009170055389404297e+00,2.628162503242492676e-01,2.114216983318328857e-02,1.043771743774414062e+00,-2.302639782428741455e-01,3.950703442096710205e-01,-4.518884122371673584e-01,-9.934149980545043945e-01,3.406400606036186218e-02,1.569098532199859619e-01,-4.802181944251060486e-02,-3.452711403369903564e-01,3.666089773178100586e-01,-2.935059666633605957e-01,-3.005985170602798462e-02,2.202413417398929596e-02,1.369613558053970337e-01,1.326431870460510254e+00,6.938204169273376465e-01,8.311945945024490356e-02,7.205861806869506836e-01,2.156337350606918335e-01,8.231915235519409180e-01
1.524871680885553360e-02,2.082647979259490967e-01,7.450212240219116211e-01,-6.304215788841247559e-01,2.842987179756164551e-01,6.272575259208679199e-02,-7.466527819633483887e-02,1.745673567056655884e-01,2.751627564430236816e-01,3.208313286304473877e-01,9.757170826196670532e-02,-4.016998708248138428e-01,3.032729960978031158e-02,2.616797685623168945e-01,-8.839401602745056152e-02,1.406113654375076294e-01,3.356792405247688293e-02,2.268169671297073364e-01,7.757040858268737793e-02,-1.643097251653671265e-01,-4.290167093276977539e-01,-3.071661591529846191e-01,9.442260861396789551e-02,1.954810023307800293e-01,6.460935622453689575e-02,-6.858711838722229004e-01,3.648564815521240234e-01,2.431653589010238647e-01,6.081050038337707520e-01,-1.094691082835197449e-01,-1.616445630788803101e-01,1.796916425228118896e-01,2.994460761547088623e-01,-4.405926540493965149e-02,2.893568277359008789e-01,2.065514773130416870e-01,-2.799318730831146240e-01,2.873547673225402832e-01,6.360934376716613770e-01,-3.674828708171844482e-01,-7.527762651443481445e-01,4.140365868806838989e-02,2.010451853275299072e-01,4.411577060818672180e-02,-1.323625892400741577e-01,-3.098089694976806641e-01,-2.387049049139022827e-01,5.502216145396232605e-02,-9.385306388139724731e-02,-1.391488313674926758e-01
2.700443565845489502e-01,-4.030777215957641602e-01,1.216546058654785156e+00,-4.710490107536315918e-01,4.518886506557464600e-01,-4.759158790111541748e-01,-5.966032743453979492e-01,-4.504162818193435669e-02,-8.304104954004287720e-02,2.599914073944091797e-01,-6.570564210414886475e-02,8.706469088792800903e-02,-5.063471570611000061e-02,9.086832404136657715e-01,-8.296811580657958984e-02,3.921019136905670166e-01,4.614707082509994507e-02,5.051102042198181152e-01,-4.851566851139068604e-01,2.867121398448944092e-01,2.846398949623107910e-01,6.226984858512878418e-01,1.474167555570602417e-01,2.985469400882720947e-01,3.755203187465667725e-01,5.359147191047668457e-01,3.177551925182342529e-01,-1.093876287341117859e-01,1.985867917537689209e-01,4.073072075843811035e-01,7.612525485455989838e-03,-1.870055645704269409e-01,3.694724440574645996e-01,9.173861145973205566e-02,-6.500794291496276855e-01,6.029471755027770996e-01,1.965712010860443115e-01,3.241456672549247742e-02,2.924516499042510986e-01,-3.459662199020385742e-01,-2.407969981431961060e-01,6.844698786735534668e-01,-4.153681099414825439e-01,-8.179834485054016113e-02,-4.108530879020690918e-01,4.522362649440765381e-01,-9.091349244117736816e-01,2.706892192363739014e-01,2.968585304915904999e-02,6.943485140800476074e-01
-1.821870088577270508e+00,-2.881669700145721436e-01,-3.042088449001312256e-01,-2.686790525913238525e-01,-1.933808773756027222e-01,-9.231428503990173340e-01,4.690452516078948975e-01,1.322072893381118774e-01,8.851680159568786621e-01,1.576386094093322754e-01,3.093721568584442139e-01,-5.390614867210388184e-01,1.216706633567810059e-01,1.362034380435943604e-01,1.988199055194854736e-01,4.639983177185058594e-01,5.373878479003906250e-01,3.088218867778778076e-01,-2.796697020530700684e-01,-1.795804947614669800e-01,1.437497325241565704e-02,2.581320106983184814e-01,5.808167457580566406e-01,-1.272085867822170258e-02,6.376035213470458984e-01,-5.945560336112976074e-01,-6.154801249504089355e-01,-1.205837488174438477e+00,4.703609645366668701e-01,-2.350397109985351562e+00,2.712760269641876221e-01,1.552840322256088257e-01,4.662663042545318604e-01,6.284631788730621338e-02,-9.740351885557174683e-02,-2.386111766099929810e-01,1.984270215034484863e-01,2.975396513938903809e-01,5.939449667930603027e-01,-3.957683444023132324e-01,-2.924267649650573730e-01,1.745745778083801270e+00,8.172379732131958008e-01,2.261315435171127319e-01,9.657679498195648193e-02,-3.653916120529174805e-01,-1.192520186305046082e-02,-2.238474130630493164e+00,-1.901864856481552124e-01,3.325081989169120789e-02
2.695636451244354248e-01,-3.875139951705932617e-01,-5.043497681617736816e-01,-8.021330833435058594e-01,9.083545207977294922e-01,1.017353497445583344e-03,7.678629755973815918e-01,5.690855979919433594e-01,-6.564782857894897461e-01,9.958425760269165039e-01,2.973469793796539307e-01,6.580373048782348633e-01,-2.206067800521850586e+00,3.207143023610115051e-02,-1.998892545700073242e+00,1.150701284408569336e+00,-9.856224656105041504e-01,-4.800915420055389404e-01,1.062031555920839310e-02,4.138362705707550049e-01,-3.523336648941040039e-01,-4.836379289627075195e-01,5.855755209922790527e-01,1.120989024639129639e-01,1.674047112464904785e-01,-5.860585570335388184e-01,1.300102472305297852e-01,-5.307022333145141602e-01,1.387920379638671875e+00,-4.122968912124633789e-01,-2.477872967720031738e-01,-1.417652845382690430e+00,1.319813609123229980e+00,5.975782498717308044e-02,6.491223722696304321e-02,2.948204576969146729e-01,-6.189292073249816895e-01,5.128476619720458984e-01,-4.613384306430816650e-01,-1.409430623054504395e+00,5.263754352927207947e-02,9.255439639091491699e-01,3.849663138389587402e-01,2.410401403903961182e-01,-1.556084752082824707e-01,1.404774427413940430e+00,2.882892964407801628e-03,1.132974401116371155e-01,1.610991835594177246e+00,-5.012219771742820740e-03
7.827250957489013672e-01,1.596194356679916382e-01,9.346123337745666504e-01,-3.751016259193420410e-01,1.415790200233459473e+00,6.334251165390014648e-01,3.830113649368286133e+00,-1.565519273281097412e-01,4.599064588546752930e-01,1.161310911178588867e+00,9.033139348030090332e-01,-8.911139965057373047e-01,-8.876179158687591553e-02,9.793524742126464844e-01,-1.095090806484222412e-01,-3.272376656532287598e-01,2.167798131704330444e-01,5.371342897415161133e-01,-5.287733674049377441e-01,9.625209569931030273e-01,2.612781226634979248e-01,9.362671971321105957e-01,1.514871358871459961e+00,7.863535881042480469e-01,6.866186261177062988e-01,6.703318953514099121e-01,1.496559858322143555e+00,-3.653223216533660889e-01,6.467056870460510254e-01,5.350210145115852356e-02,2.186525613069534302e-01,-4.952612519264221191e-01,3.544433712959289551e-01,6.572214961051940918e-01,2.180117130279541016e+00,1.040530323982238770e+00,2.314521372318267822e-01,1.088060498237609863e+00,-2.082908600568771362e-01,2.778826653957366943e-02,-8.246646262705326080e-03,1.224543333053588867e+00,1.283138692378997803e-01,1.064526140689849854e-01,6.649721860885620117e-01,1.262272000312805176e+00,2.770689249038696289e+00,-1.869581639766693115e-01,1.627327680587768555e+00,1.633631825447082520e+00
-4.012827575206756592e-01,6.569438576698303223e-01,1.004499569535255432e-01,-2.222276926040649414e-01,7.895748317241668701e-02,2.587848305702209473e-01,-2.019486427307128906e-01,9.198558330535888672e-01,-1.863731890916824341e-01,-5.374944210052490234e-01,-4.378318190574645996e-01,-3.850911185145378113e-02,-1.771947592496871948e-01,-3.462671041488647461e-01,-5.057249665260314941e-01,-8.793171048164367676e-01,-1.302861690521240234e+00,-3.099832534790039062e-01,-5.767443776130676270e-01,5.607822537422180176e-01,-6.489942967891693115e-02,7.291499059647321701e-03,2.631329596042633057e-01,1.366346031427383423e-01,-7.158544063568115234e-01,4.433742761611938477e-01,-2.171409130096435547e-01,-7.700199633836746216e-02,2.533409893512725830e-01,-5.650562644004821777e-01,-5.317628979682922363e-01,-3.019496239721775055e-02,8.714737892150878906e-01,-9.351212978363037109e-01,1.289900064468383789e+00,7.941058278083801270e-01,1.202590823173522949e+00,3.309361264109611511e-02,1.139632582664489746e+00,3.265661299228668213e-01,-1.623510599136352539e+00,1.989253014326095581e-01,1.063951179385185242e-01,-5.462235212326049805e-01,-1.693875193595886230e-01,-1.832014918327331543e-01,-2.240964621305465698e-01,-3.356094956398010254e-01,-6.898390054702758789e-01,-3.700116574764251709e-01
1.220831871032714844e+00,3.637164831161499023e-01,6.303535103797912598e-01,-5.470734462141990662e-02,3.128857016563415527e-01,-4.271625876426696777e-01,-1.096492767333984375e+00,-1.117911934852600098e-01,4.859367907047271729e-01,-4.273613989353179932e-01,-6.781437247991561890e-02,3.957615196704864502e-01,-1.562006920576095581e-01,7.339025735855102539e-01,-3.385030925273895264e-01,-3.484939038753509521e-01,-2.352232038974761963e-01,-2.252382338047027588e-01,3.938916623592376709e-01,-6.027645990252494812e-02,2.583246529102325439e-01,3.833327889442443848e-01,-2.739841043949127197e-01,2.479740679264068604e-01,-6.644704937934875488e-01,5.518186092376708984e-01,6.384690403938293457e-01,2.518062889575958252e-01,1.001132950186729431e-01,1.150331646203994751e-01,-2.984485775232315063e-02,-4.074258506298065186e-01,5.794136524200439453e-01,-3.701713383197784424e-01,-4.943014979362487793e-01,3.456594645977020264e-01,2.955834195017814636e-02,-4.443703293800354004e-01,3.618026077747344971e-01,6.491082906723022461e-01,-6.181610822677612305e-01,8.434820338152348995e-04,3.192685171961784363e-02,2.202306538820266724e-01,9.219319820404052734e-01,1.994599699974060059e-01,-8.308896422386169434e-02,2.761569917201995850e-01,7.351155281066894531e-01,9.565613865852355957e-01
1.250636577606201172e+00,2.838158607482910156e-01,3.306691646575927734e-01,2.975430488586425781e-01,2.475833415985107422e+00,-8.296108245849609375e-01,-6.654568910598754883e-01,8.405945450067520142e-02,-1.319285333156585693e-01,-2.683120593428611755e-02,1.598296523094177246e+00,3.392568528652191162e-01,4.112232272746041417e-05,1.421386748552322388e-01,-3.630128204822540283e-01,1.024791970849037170e-01,-5.678051114082336426e-01,-1.543086580932140350e-02,5.600305646657943726e-02,5.864933729171752930e-01,1.913304924964904785e-01,5.774794146418571472e-02,8.769148588180541992e-01,1.735836267471313477e+00,-4.301840662956237793e-01,-3.608992695808410645e-02,-3.618941009044647217e-01,7.145740836858749390e-02,1.527974456548690796e-01,1.371930599212646484e+00,9.474322199821472168e-01,-1.742842495441436768e-01,-3.472670316696166992e-01,4.168116748332977295e-01,-6.129984855651855469e-01,1.092282056808471680e+00,6.070674657821655273e-01,1.054995283484458923e-01,-1.292347759008407593e-01,-1.147464290261268616e-01,-2.184947133064270020e-01,-5.450537800788879395e-01,2.407737076282501221e-01,5.541693791747093201e-02,-2.478371709585189819e-01,1.328986585140228271e-01,-3.634174168109893799e-01,1.039881587028503418e+00,1.297423839569091797e-01,8.629377931356430054e-02
2.240078151226043701e-02,2.739219665527343750e-01,2.915745973587036133e-01,8.498231321573257446e-02,-5.673043131828308105e-01,-7.846353650093078613e-01,2.574440240859985352e-01,-4.486385732889175415e-02,1.939923405647277832e+00,-1.326656043529510498e-01,-1.747087836265563965e-01,7.388591021299362183e-02,1.547524705529212952e-02,1.555333137512207031e-01,-1.281179338693618774e-01,-1.892368793487548828e-01,2.540305852890014648e-01,1.857220530509948730e-01,1.422295093536376953e+00,-1.387358829379081726e-02,-3.803951144218444824e-01,-9.048371762037277222e-02,-4.394798576831817627e-01,-7.617712020874023438e-03,-5.062643066048622131e-02,-1.205959469079971313e-01,8.848711252212524414e-01,1.033902764320373535e-01,-7.751466333866119385e-02,1.829254180192947388e-01,5.605438351631164551e-01,4.407296478748321533e-01,3.451988697052001953e-01,-7.281486392021179199e-01,7.906863093376159668e-01,-1.929279863834381104e-01,-3.453899323940277100e-01,2.762341201305389404e-01,2.461392730474472046e-01,6.889201700687408447e-02,-7.511715292930603027e-01,2.559145912528038025e-02,6.812728643417358398e-01,7.046286463737487793e-01,2.105475515127182007e-01,3.907525166869163513e-02,3.485971987247467041e-01,-7.071341574192047119e-02,3.575204014778137207e-01,1.187344789505004883e-01
-8.194338530302047729e-02,1.648609995841979980e+00,1.463774085044860840e+00,-1.215270638465881348e+00,7.083697319030761719e-01,-1.658006459474563599e-01,-2.327590435743331909e-01,1.103750705718994141e+00,1.809953525662422180e-02,1.640554815530776978e-01,2.058888077735900879e-01,-7.782593965530395508e-01,-1.061062455177307129e+00,1.056956410408020020e+00,-7.046180963516235352e-01,9.368252754211425781e-01,-3.886918425559997559e-01,3.455825150012969971e-01,-1.917508691549301147e-01,-1.753764152526855469e-01,4.720893800258636475e-01,2.484525591135025024e-01,8.157539963722229004e-01,-5.628519058227539062e-01,-4.042373597621917725e-01,-1.354942680336534977e-03,3.973444402217864990e-01,-1.098978891968727112e-01,1.813818931579589844e+00,-3.687188327312469482e-01,2.899752557277679443e-01,1.502689242362976074e+00,-1.083146184682846069e-01,-6.079874634742736816e-01,-1.274248719215393066e+00,7.273057103157043457e-01,-1.191376566886901855e+00,9.635645747184753418e-01,1.554072648286819458e-01,-4.088034331798553467e-01,-1.124622225761413574e+00,6.152251958847045898e-01,8.957761526107788086e-01,-4.471037983894348145e-01,-1.040432304143905640e-01,6.491178870201110840e-01,-6.650835871696472168e-01,-5.816797614097595215e-01,2.217909544706344604e-01,3.256835043430328369e-01
1.251475363969802856e-01,7.693809270858764648e-01,4.341097772121429443e-01,-5.666817724704742432e-02,3.666279613971710205e-01,3.312825560569763184e-01,1.398287117481231689e-01,-2.224644646048545837e-02,-5.158980488777160645e-01,4.599669873714447021e-01,3.449298739433288574e-01,-7.437004148960113525e-02,-4.385707378387451172e-01,3.396275639533996582e-01,-1.626880466938018799e-01,-2.366326749324798584e-02,-8.324503898620605469e-01,6.767942104488611221e-03,-1.965769976377487183e-01,-8.603104948997497559e-02,1.970010623335838318e-02,-7.520395517349243164e-01,7.897146940231323242e-01,9.643466025590896606e-02,-5.590495467185974121e-01,-5.720462799072265625e-01,1.151332482695579529e-01,-1.937302201986312866e-02,1.083967089653015137e+00,-2.373285740613937378e-01,-1.733750253915786743e-01,2.321881353855133057e-01,7.005436420440673828e-01,-3.713359832763671875e-01,-1.271847728639841080e-02,2.817322611808776855e-01,-6.079310774803161621e-01,5.837764143943786621e-01,-2.433441132307052612e-01,1.193156167864799500e-01,-1.188833832740783691e+00,6.791571378707885742e-01,4.730866253376007080e-01,-3.593883812427520752e-01,-4.648986160755157471e-01,4.672845900058746338e-01,5.994190573692321777e-01,3.552753925323486328e-01,-2.406053841114044189e-01,1.807430535554885864e-01
4.903872013092041016e-01,5.127419233322143555e-01,4.142438173294067383e-01,2.391701638698577881e-01,-5.157104879617691040e-02,2.960686087608337402e-01,-5.455347299575805664e-01,-2.117987126111984253e-01,4.400724172592163086e-02,3.666402697563171387e-01,-1.486718803644180298e-01,1.740487217903137207e-01,-1.095111295580863953e-01,9.086123108863830566e-01,-1.899342536926269531e-01,3.019113838672637939e-01,2.372726500034332275e-01,-2.784991562366485596e-01,5.243854597210884094e-03,-2.380764782428741455e-01,1.524615585803985596e-01,4.014396369457244873e-01,2.745116651058197021e-01,2.110594511032104492e-01,-4.633311554789543152e-02,3.498947024345397949e-01,6.642469167709350586e-01,2.305707186460494995e-01,-5.599286779761314392e-02,5.664887428283691406e-01,-8.739409036934375763e-03,2.265349477529525757e-01,3.126653730869293213e-01,-5.309664085507392883e-02,-4.556278884410858154e-01,3.958391547203063965e-01,-4.188972413539886475e-01,2.489608712494373322e-02,3.591782748699188232e-01,4.632222354412078857e-01,-5.243269801139831543e-01,2.597759664058685303e-01,-2.795824781060218811e-02,-1.057416275143623352e-01,3.457549810409545898e-01,3.133968412876129150e-01,-9.518793821334838867e-01,1.722520440816879272e-01,1.884048879146575928e-01,7.540558576583862305e-01
6.611353158950805664e-02,2.889075279235839844e-01,6.925634741783142090e-01,-7.516467571258544922e-01,7.179119586944580078e-01,4.870274662971496582e-01,1.438214331865310669e-01,1.978885978460311890e-01,2.041850984096527100e-01,8.729490041732788086e-01,3.407261669635772705e-01,-3.424944579601287842e-01,6.020818278193473816e-02,3.780651390552520752e-01,1.674612462520599365e-01,-3.357241153717041016e-01,-1.881902217864990234e-01,6.075798273086547852e-01,-1.487637162208557129e-01,2.094288617372512817e-01,7.447347044944763184e-01,3.928851708769798279e-02,7.341994643211364746e-01,-1.245737820863723755e-01,3.081013858318328857e-01,2.839208245277404785e-01,1.177894622087478638e-01,-1.887684762477874756e-01,5.872155427932739258e-01,7.517944276332855225e-02,-5.119829773902893066e-01,1.274736970663070679e-01,3.241405487060546875e-01,6.488612294197082520e-01,1.255047440528869629e+00,4.742706194519996643e-02,-8.771083354949951172e-01,3.535735905170440674e-01,-1.991591751575469971e-01,-1.237283870577812195e-01,-7.110561132431030273e-01,3.986465632915496826e-01,-1.473842188715934753e-02,-9.363400936126708984e-02,-4.729959070682525635e-01,-7.873132079839706421e-02,4.381823837757110596e-01,1.908809505403041840e-02,-1.793469674885272980e-02,-7.868366688489913940e-02
-5.869489908218383789e-02,8.248076438903808594e-01,-6.978819519281387329e-02,6.008920259773731232e-03,-6.106696724891662598e-01,-4.354812502861022949e-01,-5.946755409240722656e-02,1.111216768622398376e-01,9.813740253448486328e-01,-3.533952683210372925e-02,-3.101899027824401855e-01,6.238854955881834030e-03,4.466557875275611877e-02,4.561984539031982422e-01,1.562839746475219727e-01,4.314235746860504150e-01,7.179323434829711914e-01,1.722876280546188354e-01,3.739070296287536621e-01,-6.071200966835021973e-01,9.059308171272277832e-01,6.573159098625183105e-01,2.602840363979339600e-01,-2.145839929580688477e-01,1.712805926799774170e-01,1.825294047594070435e-01,3.021687567234039307e-01,1.075598478317260742e+00,7.208634614944458008e-01,9.791804850101470947e-02,-1.643274873495101929e-01,7.040744423866271973e-01,-1.043707579374313354e-01,-7.986496090888977051e-01,-6.551827192306518555e-01,-1.448605209589004517e-01,-6.613214965909719467e-03,-1.160894706845283508e-01,-1.302141845226287842e-01,-7.723663002252578735e-02,-3.305213749408721924e-01,1.834932863712310791e-01,-1.431609839200973511e-01,-2.844411730766296387e-01,9.787150025367736816e-01,8.303701877593994141e-02,-1.813412010669708252e-01,-5.272707939147949219e-01,6.471695750951766968e-02,5.874119400978088379e-01
-2.624901235103607178e-01,1.321243286132812500e+00,2.705958485603332520e-01,-1.120779514312744141e+00,-3.922604620456695557e-01,2.968074381351470947e-01,4.138746559619903564e-01,-1.497095078229904175e-01,-2.769262902438640594e-02,-2.482649087905883789e-01,-7.141843438148498535e-01,-7.327058315277099609e-01,-1.421508640050888062e-01,1.070941835641860962e-01,3.462017476558685303e-01,-3.060005903244018555e-01,8.421381711959838867e-01,3.142113685607910156e-01,-3.750593364238739014e-01,-6.716461777687072754e-01,-3.697705864906311035e-01,7.897373437881469727e-01,-4.504799842834472656e-02,-2.153993844985961914e+00,-9.910975694656372070e-01,-3.473044335842132568e-01,8.679083585739135742e-01,3.924773037433624268e-01,1.010682344436645508e+00,1.109027504920959473e+00,-6.838110089302062988e-01,2.356756031513214111e-01,-8.980544805526733398e-01,-7.401426434516906738e-01,-1.572396419942378998e-02,-6.879215687513351440e-02,-1.239816069602966309e+00,6.293187737464904785e-01,1.045933723449707031e+00,-6.765677928924560547e-01,-4.236223697662353516e-01,9.108980000019073486e-02,-5.701629519462585449e-01,-8.778422474861145020e-01,8.282781243324279785e-01,2.301977276802062988e-01,-9.407727718353271484e-01,2.476540356874465942e-01,4.941424429416656494e-01,1.205780386924743652e+00
-1.093624472618103027e+00,1.586810499429702759e-01,-9.283711314201354980e-01,3.774349093437194824e-01,2.045701742172241211e+00,3.171265125274658203e-01,-5.286099314689636230e-01,3.654662072658538818e-01,2.970272302627563477e-01,2.825568616390228271e-01,1.378782272338867188e+00,-3.484713435173034668e-01,1.939383745193481445e-01,1.575544625520706177e-01,-9.304392337799072266e-02,2.642225325107574463e-01,-7.338356971740722656e-01,-6.071853041648864746e-01,1.006614327430725098e+00,2.502925097942352295e-01,-5.325469374656677246e-02,-1.061266660690307617e-01,1.131833791732788086e+00,1.164906024932861328e+00,-1.812274158000946045e-01,-7.421753555536270142e-02,-8.636241555213928223e-01,-7.652419805526733398e-01,3.348606824874877930e-01,9.732732176780700684e-01,1.440060377120971680e+00,2.214302569627761841e-01,1.023206263780593872e-01,-1.585703343152999878e-02,-4.180675446987152100e-01,3.256215155124664307e-01,4.954012930393218994e-01,2.346770614385604858e-01,2.412854507565498352e-02,5.153952166438102722e-02,-3.987796604633331299e-01,3.921052068471908569e-02,-2.168429195880889893e-01,-6.346620619297027588e-02,-2.253137826919555664e+00,3.387995958328247070e-01,-2.471973150968551636e-01,1.853283643722534180e+00,-2.164742499589920044e-01,-4.182300865650177002e-01
-4.512123167514801025e-01,3.366548418998718262e-01,-3.750197589397430420e-01,6.943358778953552246e-01,-2.480801641941070557e-01,7.258013356477022171e-03,4.907196462154388428e-01,-9.486107826232910156e-01,7.833867669105529785e-01,2.634656243026256561e-02,2.018694132566452026e-01,2.010935097932815552e-01,2.084420621395111084e-02,1.021791934967041016e+00,1.442741453647613525e-01,-3.797509148716926575e-02,5.881748795509338379e-01,-2.570010125637054443e-01,1.019378677010536194e-01,-5.859790444374084473e-01,8.044489026069641113e-01,1.839287728071212769e-01,4.036341309547424316e-01,-3.296582698822021484e-01,1.270064115524291992e-01,1.643368721008300781e+00,-1.393612176179885864e-01,-1.017030999064445496e-01,1.044026762247085571e-01,-4.392745196819305420e-01,6.343296170234680176e-01,-7.177422046661376953e-01,8.261077404022216797e-01,-7.676320523023605347e-02,-3.982192575931549072e-01,2.014518529176712036e-01,-2.320501208305358887e-01,3.488609492778778076e-01,-1.592878252267837524e-01,-8.305818587541580200e-02,-5.784214138984680176e-01,-1.160761639475822449e-01,3.519296050071716309e-01,-3.815034925937652588e-01,-2.722041215747594833e-03,3.606983693316578865e-03,-7.606915831565856934e-01,-6.199236512184143066e-01,-2.297602891921997070e-01,1.383694112300872803e-01
-3.374658823013305664e-01,-3.444932773709297180e-02,-2.586024999618530273e-01,-4.691702499985694885e-02,-2.493988126516342163e-01,-3.448721468448638916e-01,3.981495797634124756e-01,-5.557447075843811035e-01,2.690476179122924805e-01,1.961402446031570435e-01,3.135441243648529053e-01,-1.439963430166244507e-01,-3.107733130455017090e-01,-2.763310074806213379e-01,-1.958898454904556274e-01,-7.517034560441970825e-02,-2.965266108512878418e-01,-2.580286562442779541e-01,4.598911702632904053e-01,3.172252774238586426e-01,2.140454307664185762e-04,-8.152043819427490234e-02,-1.703662872314453125e-01,-5.512301921844482422e-01,1.437457650899887085e-01,1.155133172869682312e-01,2.789444923400878906e-01,-1.100667640566825867e-01,3.231719434261322021e-01,-4.578272104263305664e-01,-6.519085764884948730e-01,-2.551988363265991211e-01,-4.970564842224121094e-01,4.644284769892692566e-02,3.494269251823425293e-01,-6.505616307258605957e-01,-2.772020697593688965e-01,2.498115748167037964e-01,-8.810815811157226562e-01,6.516895443201065063e-02,-7.719461917877197266e-01,8.382607251405715942e-02,2.862091958522796631e-01,5.891326665878295898e-01,-3.115499317646026611e-01,1.419397536665201187e-03,2.202447652816772461e-01,-3.419534862041473389e-01,-2.711285352706909180e-01,-2.029720991849899292e-01
-2.530498802661895752e-01,5.276305675506591797e-01,4.159921109676361084e-01,1.852703467011451721e-02,2.181992232799530029e-01,-3.777668774127960205e-01,3.867516517639160156e-01,-5.205792933702468872e-02,6.259403824806213379e-01,9.399680793285369873e-02,2.621403336524963379e-02,3.281718194484710693e-01,-5.081760883331298828e-01,-1.401376165449619293e-02,-2.558447420597076416e-01,4.538650065660476685e-02,-2.413780838251113892e-01,3.312996029853820801e-01,-3.141886293888092041e-01,-5.887441635131835938e-01,-3.497108519077301025e-01,-6.157362461090087891e-01,2.364663332700729370e-01,-1.356640458106994629e-01,-5.809865891933441162e-02,-1.429068744182586670e-01,-9.188488870859146118e-02,-4.224322736263275146e-01,3.844500184059143066e-01,-8.281825184822082520e-01,-4.098095297813415527e-01,-9.541023522615432739e-02,1.831354759633541107e-02,-1.432118006050586700e-02,-6.077677011489868164e-01,-3.420814871788024902e-02,-9.426303207874298096e-02,5.552602186799049377e-02,3.031690418720245361e-01,-1.132510975003242493e-01,-5.843168497085571289e-01,2.937298119068145752e-01,-1.416255384683609009e-01,-3.232139050960540771e-01,-2.727613747119903564e-01,-4.589863419532775879e-01,-5.519696474075317383e-01,-4.384742379188537598e-01,-6.442679762840270996e-01,-1.651948541402816772e-01
9.625694155693054199e-02,-6.229792907834053040e-02,4.319280683994293213e-01,-2.717952728271484375e-01,6.642012596130371094e-01,-2.530499696731567383e+00,4.080234766006469727e-01,-4.752205610275268555e-01,4.387676715850830078e-01,3.348213136196136475e-01,-2.648470997810363770e-01,-3.625395298004150391e-01,-1.102467402815818787e-01,5.828662216663360596e-02,3.829539520666003227e-03,-6.911454200744628906e-01,-2.218248322606086731e-02,1.002516627311706543e+00,-3.160457685589790344e-02,1.501171290874481201e-01,-7.448592782020568848e-01,1.994937211275100708e-01,3.843270540237426758e-01,-8.098312467336654663e-02,2.377329207956790924e-02,-2.629984915256500244e-01,-1.726887077093124390e-01,8.819516301155090332e-01,2.345890700817108154e-01,9.413668513298034668e-02,-3.965964913368225098e-01,1.929051280021667480e-01,-8.728670477867126465e-01,-6.745595932006835938e-01,1.203807070851325989e-01,5.329622030258178711e-01,-2.824229896068572998e-01,5.793099999427795410e-01,-2.192817926406860352e-01,-6.201260089874267578e-01,2.589430212974548340e-01,2.123970985412597656e-01,2.793990671634674072e-01,-8.621571958065032959e-02,7.711866497993469238e-01,5.788891315460205078e-01,8.329135775566101074e-01,3.516293466091156006e-01,8.589865565299987793e-01,4.667859971523284912e-01
-5.829449295997619629e-01,-2.187819927930831909e-01,5.229663252830505371e-01,-6.415878534317016602e-01,6.996101140975952148e-01,1.177569150924682617e+00,6.993888616561889648e-01,-1.407927423715591431e-01,5.636901855468750000e-01,4.672489762306213379e-01,6.847001612186431885e-02,-7.078079581260681152e-01,1.075259894132614136e-01,-5.576734989881515503e-02,-9.267199784517288208e-02,-2.134807407855987549e-01,-2.394434064626693726e-01,2.356093972921371460e-01,-6.888686120510101318e-02,-2.247128933668136597e-01,3.520615631714463234e-03,6.924372911453247070e-01,6.328737139701843262e-01,-1.533050183206796646e-02,5.172326043248176575e-02,7.023044824600219727e-01,4.588399454951286316e-02,-5.141523480415344238e-01,7.279618084430694580e-02,-2.748791575431823730e-01,-1.548923403024673462e-01,1.913622617721557617e-01,-5.544458627700805664e-01,9.944286942481994629e-01,-7.986841350793838501e-02,1.139376312494277954e-01,2.636409401893615723e-01,3.637471199035644531e-01,4.881520867347717285e-01,1.598120853304862976e-02,2.645600140094757080e-01,5.619282275438308716e-02,-5.165810585021972656e-01,4.937363564968109131e-01,2.124334860127419233e-04,-1.232561096549034119e-01,2.414447367191314697e-01,-4.650977253913879395e-01,-3.594644367694854736e-01,1.034340411424636841e-01
-1.237235069274902344e+00,-1.144148856401443481e-01,3.999559879302978516e-01,-3.736012279987335205e-01,6.879498809576034546e-02,3.362272083759307861e-01,-1.554810851812362671e-01,2.624665200710296631e-02,5.845102667808532715e-01,-2.821648027747869492e-03,3.362916409969329834e-01,-5.611263513565063477e-01,-2.453275918960571289e-01,2.290140539407730103e-01,1.414117515087127686e-01,4.553265869617462158e-01,6.815368533134460449e-01,8.751147985458374023e-02,-1.068829536437988281e+00,-1.581682115793228149e-01,2.222615182399749756e-01,5.584102123975753784e-02,4.595935046672821045e-01,-4.979985356330871582e-01,5.206804275512695312e-01,-1.795091433450579643e-03,-1.266033291816711426e+00,-1.124469041824340820e+00,1.323319077491760254e-01,-6.556125879287719727e-01,2.180806733667850494e-02,-1.138214170932769775e-01,-9.873364865779876709e-02,7.528802752494812012e-01,-4.228499531745910645e-01,-4.322904348373413086e-01,4.058751463890075684e-01,4.072057306766510010e-01,1.058499217033386230e+00,1.152670502662658691e+00,-2.684693634510040283e-01,2.604226768016815186e-01,-5.279690623283386230e-01,-1.206736341118812561e-01,-3.353625535964965820e-01,-9.855014681816101074e-01,3.350490331649780273e-01,-1.159583449363708496e+00,-4.911348521709442139e-01,-1.857338845729827881e-02
7.779149711132049561e-02,-5.029385536909103394e-02,2.755225896835327148e-01,-3.837183862924575806e-02,5.109241008758544922e-01,6.605255603790283203e-01,4.799639582633972168e-01,-2.252143323421478271e-01,-5.564633607864379883e-01,8.189089298248291016e-01,6.282711625099182129e-01,2.180548161268234253e-01,-1.772779822349548340e-01,4.811957478523254395e-01,-2.127198576927185059e-01,2.683033347129821777e-01,6.757504343986511230e-01,-1.112798824906349182e-01,-7.974568009376525879e-01,8.070184290409088135e-02,4.448651671409606934e-01,5.414802432060241699e-01,5.733635425567626953e-01,3.050366342067718506e-01,4.971109703183174133e-02,-6.855899095535278320e-02,4.430671036243438721e-01,2.858525812625885010e-01,5.386453494429588318e-02,5.045412480831146240e-02,-7.409139871597290039e-01,2.491173148155212402e-01,3.719983100891113281e-01,2.637568116188049316e-01,6.489569544792175293e-01,5.113143920898437500e-01,1.356995105743408203e-01,-1.157634630799293518e-01,-7.092061918228864670e-03,-1.512061506509780884e-01,-3.417090177536010742e-01,3.035204112529754639e-01,-2.102854847908020020e-01,-1.720191240310668945e-01,-3.283194005489349365e-01,2.144744247198104858e-01,-1.632704138755798340e-01,-2.003970369696617126e-02,-5.402881279587745667e-02,9.010788798332214355e-02
6.044209003448486328e-01,-3.425979018211364746e-01,1.384826540946960449e+00,-1.900972127914428711e-01,8.418748974800109863e-01,-2.231401801109313965e-01,-2.790342867374420166e-01,1.866167485713958740e-01,4.836349785327911377e-01,-1.423088163137435913e-01,3.960993885993957520e-01,2.464392483234405518e-01,4.416483640670776367e-02,1.907331496477127075e-01,-1.872936040163040161e-01,-1.836396604776382446e-01,2.181711792945861816e-01,6.270693540573120117e-01,-4.475140571594238281e-01,-8.170080184936523438e-02,-1.475973129272460938e-01,1.103880852460861206e-01,8.603033423423767090e-02,5.108156800270080566e-01,6.382173895835876465e-01,1.988027840852737427e-01,3.701969385147094727e-01,2.986366152763366699e-01,-1.469897031784057617e-01,8.815059065818786621e-01,4.851842299103736877e-02,-1.910112798213958740e-02,-4.485239386558532715e-01,7.380538582801818848e-01,-1.608579307794570923e-01,1.350567102432250977e+00,2.828795909881591797e-01,-2.054326981306076050e-01,2.881610989570617676e-01,4.600338041782379150e-01,6.983198523521423340e-01,-7.577124238014221191e-01,4.628678560256958008e-01,8.634962141513824463e-02,9.254855513572692871e-01,2.017136365175247192e-01,-4.967764616012573242e-01,-4.528806209564208984e-01,4.586646556854248047e-01,4.226760473102331161e-03
-7.325816750526428223e-01,7.083795070648193359e-01,5.553625226020812988e-01,-4.208838641643524170e-01,-3.472777456045150757e-02,-4.478055834770202637e-01,6.246582418680191040e-02,-2.081444859504699707e-01,1.140135526657104492e-01,-7.123345974832773209e-03,-4.733954966068267822e-01,-3.981057703495025635e-01,-2.443773746490478516e-01,5.727924704551696777e-01,-5.563721060752868652e-02,1.077137440443038940e-01,-9.307599067687988281e-02,4.341970086097717285e-01,1.593118011951446533e-01,4.104456305503845215e-02,-1.067506149411201477e-01,-1.199321150779724121e+00,3.949635028839111328e-01,-3.072089552879333496e-01,-3.538743853569030762e-01,-3.796231746673583984e-01,4.657388031482696533e-01,-6.820664405822753906e-01,5.003087520599365234e-01,-1.714710295200347900e-01,1.446190625429153442e-01,3.488643765449523926e-01,5.488984584808349609e-01,-5.069768428802490234e-01,4.236359149217605591e-02,1.975217908620834351e-01,-3.836052417755126953e-01,-3.152053356170654297e-01,-1.295699477195739746e-01,-7.382208108901977539e-02,-1.166174769401550293e+00,5.782467722892761230e-01,1.452471762895584106e-01,9.607516229152679443e-02,-7.492076158523559570e-01,1.285595446825027466e-01,4.534500241279602051e-01,9.588225930929183960e-02,1.848958581686019897e-01,2.471358925104141235e-01
1.078436374664306641e-01,6.075375676155090332e-01,8.678250908851623535e-01,-6.587527990341186523e-01,2.365278154611587524e-01,-2.986099421977996826e-01,-6.228798031806945801e-01,6.086930036544799805e-01,2.192866951227188110e-01,-1.364399492740631104e-01,1.453188657760620117e-01,1.930446922779083252e-01,-9.091470241546630859e-01,1.302188992500305176e+00,-5.797192454338073730e-01,3.088823854923248291e-01,3.237572014331817627e-01,2.143511772155761719e-01,8.262928128242492676e-01,-4.784730374813079834e-01,4.549203217029571533e-01,2.294218242168426514e-01,3.287920951843261719e-01,-2.748410031199455261e-02,-1.134484037756919861e-01,4.357125759124755859e-01,6.850697994232177734e-01,-2.801066450774669647e-02,9.089426398277282715e-01,6.695748567581176758e-01,7.295370101928710938e-01,4.421485662460327148e-01,5.519865751266479492e-01,-1.015457153320312500e+00,-1.478886604309082031e+00,2.190628647804260254e-01,-1.090440273284912109e+00,1.507167518138885498e-01,5.541863441467285156e-01,8.192185163497924805e-01,-1.276633739471435547e+00,2.207118868827819824e-01,9.517219662666320801e-01,-7.742759585380554199e-01,7.154465913772583008e-01,5.407685637474060059e-01,-4.884805679321289062e-01,3.853532373905181885e-01,-3.508319854736328125e-01,6.904570460319519043e-01
-3.777641952037811279e-01,2.090151607990264893e-01,5.191355943679809570e-01,-3.870256245136260986e-01,2.639586925506591797e-01,-2.916037738323211670e-01,-7.447325587272644043e-01,5.597819089889526367e-01,-2.355805039405822754e-01,1.401343345642089844e-01,1.286656558513641357e-01,-2.732793390750885010e-01,1.508690975606441498e-02,2.607620060443878174e-01,-1.818245798349380493e-01,3.524358868598937988e-01,-4.700287282466888428e-01,-9.935509413480758667e-02,2.151191681623458862e-01,-1.934250891208648682e-01,-6.318749189376831055e-01,1.984730064868927002e-01,7.083814591169357300e-02,1.133622676134109497e-01,5.272224545478820801e-01,-6.198314428329467773e-01,1.406382173299789429e-01,-1.529469639062881470e-01,2.098615169525146484e-01,-3.307000100612640381e-01,-2.293551564216613770e-01,-2.664168179035186768e-01,-5.496482849121093750e-01,-3.211409449577331543e-01,-4.703689739108085632e-02,-1.165787130594253540e-01,1.606709659099578857e-01,-2.774351239204406738e-01,6.557527184486389160e-01,-2.800624072551727295e-01,-8.781468123197555542e-02,1.781894713640213013e-01,-7.156559824943542480e-02,4.397857785224914551e-01,-2.801563739776611328e-01,-1.642951369285583496e-01,-1.064324498176574707e+00,-1.712975502014160156e-01,-4.687361419200897217e-01,2.029637843370437622e-01
6.486339867115020752e-02,9.478388428688049316e-01,5.358067750930786133e-01,-3.902722522616386414e-02,3.039397597312927246e-01,5.128880143165588379e-01,-1.067030876874923706e-01,-1.317824721336364746e-01,1.442109942436218262e-01,3.103953897953033447e-01,2.498786300420761108e-01,3.416170179843902588e-01,-2.803957760334014893e-01,1.859401762485504150e-01,-6.600005924701690674e-02,2.679121680557727814e-02,-5.981814861297607422e-01,3.444990813732147217e-01,-4.852385520935058594e-01,-1.154259145259857178e-01,-4.292610585689544678e-01,-9.891231656074523926e-01,5.403193831443786621e-01,-3.143434822559356689e-01,1.256345957517623901e-01,3.092844784259796143e-01,-4.434674233198165894e-02,-3.383260667324066162e-01,6.600657701492309570e-01,-5.707350373268127441e-01,-3.422672674059867859e-02,6.318021565675735474e-02,5.188958644866943359e-01,6.326598525047302246e-01,8.061842322349548340e-01,1.752855330705642700e-01,-2.762638330459594727e-01,5.156984329223632812e-01,6.116097047924995422e-02,-1.954979598522186279e-01,-1.766109615564346313e-01,2.404526025056838989e-01,-1.047052592039108276e-01,-3.257946074008941650e-01,-3.163736760616302490e-01,1.889480501413345337e-01,-7.193580269813537598e-02,-1.655851602554321289e-01,-1.748439669609069824e-01,1.118156909942626953e-01
1.760573506355285645e+00,5.937646627426147461e-01,1.794259071350097656e+00,1.434066146612167358e-01,8.806529641151428223e-01,5.704255104064941406e-01,7.520507574081420898e-01,3.391803503036499023e-01,-5.317641496658325195e-01,3.524384275078773499e-02,-1.196711659431457520e+00,2.111449465155601501e-02,3.923388421535491943e-01,-6.106403470039367676e-01,2.031136304140090942e-01,-5.589734762907028198e-02,-1.955387443304061890e-01,1.472908735275268555e+00,-5.915939807891845703e-01,-4.654375091195106506e-02,-1.901846230030059814e-01,-2.374639749526977539e+00,6.018985509872436523e-01,6.613144278526306152e-01,-4.266342520713806152e-02,-2.303523197770118713e-02,8.639205992221832275e-02,-1.131303906440734863e+00,3.984800279140472412e-01,1.711844444274902344e+00,-3.774080574512481689e-01,2.252052426338195801e-01,-1.989733986556529999e-02,5.524945855140686035e-01,-1.278941631317138672e+00,1.915754914283752441e+00,-9.031403064727783203e-02,1.976529955863952637e-01,6.459955573081970215e-01,2.850432507693767548e-02,-5.566120743751525879e-01,-3.617034554481506348e-01,1.096555590629577637e-01,-7.558921724557876587e-02,8.640813827514648438e-01,-7.536923289299011230e-01,3.887563049793243408e-01,-6.497973799705505371e-01,9.406108409166336060e-02,-1.906894087791442871e+00
-2.778623811900615692e-02,5.669400691986083984e-01,8.054369688034057617e-01,6.456594169139862061e-02,6.307951211929321289e-01,-1.354731172323226929e-01,5.126228928565979004e-01,6.044858694076538086e-01,-5.385991930961608887e-01,-2.668065130710601807e-01,-2.224803566932678223e-01,-3.104873597621917725e-01,2.341715246438980103e-02,-5.840031057596206665e-02,-8.266756683588027954e-02,-3.208267688751220703e-01,-4.513611495494842529e-01,6.329925656318664551e-01,3.219439387321472168e-01,-2.814006805419921875e-01,-6.111424565315246582e-01,1.895552724599838257e-01,2.802867889404296875e-01,-2.350306324660778046e-02,-8.270583152770996094e-01,-1.009065747261047363e+00,-2.967094182968139648e-01,-2.383512705564498901e-01,6.385262608528137207e-01,-2.582239210605621338e-01,-5.234925150871276855e-01,1.021878793835639954e-01,-5.849291086196899414e-01,-5.736764669418334961e-01,-3.176721930503845215e-01,7.695759087800979614e-02,-4.060960710048675537e-01,6.835325360298156738e-01,-1.331252008676528931e-01,-2.552247047424316406e-01,-6.749626994132995605e-01,1.014062464237213135e-01,4.366286098957061768e-01,-2.982650101184844971e-01,-6.312794685363769531e-01,3.398809432983398438e-01,9.039969742298126221e-02,-1.138918008655309677e-02,2.214356511831283569e-01,-3.510384261608123779e-01
2.427511364221572876e-01,-1.298719495534896851e-01,8.758448362350463867e-01,-7.082308530807495117e-01,5.608165860176086426e-01,1.971402764320373535e-01,8.329867124557495117e-01,3.787256181240081787e-01,1.030857563018798828e-01,8.586899042129516602e-01,2.966819107532501221e-01,-7.187923192977905273e-01,-3.573663160204887390e-02,3.227316141128540039e-01,7.149805128574371338e-02,1.587575376033782959e-01,5.082643032073974609e-01,1.640207171440124512e-01,-5.080175995826721191e-01,4.058843553066253662e-01,3.781726658344268799e-01,5.568575263023376465e-01,9.637475013732910156e-01,1.662772893905639648e-01,4.126198589801788330e-01,3.802387118339538574e-01,2.102386802434921265e-01,2.404356300830841064e-01,5.235795974731445312e-01,-4.481135010719299316e-01,1.825108826160430908e-01,4.883563518524169922e-01,-6.038980484008789062e-01,-3.330862149596214294e-03,-1.297009140253067017e-01,2.946863472461700439e-01,3.165774345397949219e-01,3.211208879947662354e-01,-1.624444127082824707e-01,-2.184396833181381226e-01,3.183572888374328613e-01,7.322419881820678711e-01,2.403150498867034912e-01,-4.326966106891632080e-01,3.577049672603607178e-01,3.329391777515411377e-01,9.781616926193237305e-02,-3.298546746373176575e-02,3.443514704704284668e-01,-4.175876080989837646e-01
-3.356994595378637314e-03,2.890512645244598389e-01,1.115044355392456055e+00,-6.449205875396728516e-01,-7.664177566766738892e-02,6.784668564796447754e-01,-8.894842863082885742e-01,-8.899852633476257324e-01,6.590633988380432129e-01,1.042088121175765991e-01,3.284008502960205078e-01,-6.218824982643127441e-01,-1.994021832942962646e-01,7.360846400260925293e-01,-6.972303986549377441e-02,4.249704778194427490e-01,9.320226311683654785e-01,7.177009582519531250e-01,-9.940094947814941406e-01,1.254794001579284668e-01,1.074965119361877441e+00,2.274873703718185425e-01,3.980530202388763428e-01,-1.089658066630363464e-01,-9.294556826353073120e-02,-3.952206671237945557e-01,-5.846377611160278320e-01,-2.158505767583847046e-01,8.718542009592056274e-02,5.772795155644416809e-02,5.893228650093078613e-01,3.395629525184631348e-01,-2.772314310073852539e+00,-6.751752495765686035e-01,-4.162482619285583496e-01,-3.156685531139373779e-01,2.707326710224151611e-01,-3.795263469219207764e-01,1.538938283920288086e-01,1.761762022972106934e+00,-2.037054061889648438e+00,8.638182282447814941e-02,-1.590134263038635254e+00,-4.657022356986999512e-01,-7.392925620079040527e-01,-1.154970526695251465e+00,2.790161967277526855e-01,-4.403976202011108398e-01,-5.538426041603088379e-01,8.166732639074325562e-02
7.789960503578186035e-02,9.616944193840026855e-01,5.286108851432800293e-01,-6.808958649635314941e-01,1.947095394134521484e-01,4.605647623538970947e-01,5.528166890144348145e-01,-2.508913278579711914e-01,1.783126443624496460e-01,-4.988146424293518066e-01,-3.239617943763732910e-01,-9.938155412673950195e-01,8.909779042005538940e-02,-4.510889053344726562e-01,4.152525365352630615e-01,1.778987981379032135e-02,-4.060004949569702148e-01,6.692594885826110840e-01,6.080617904663085938e-01,-5.467699766159057617e-01,-7.373960018157958984e-01,-7.132147550582885742e-01,1.410187333822250366e-01,-7.363682389259338379e-01,-1.266774535179138184e+00,-4.063831269741058350e-01,5.772762298583984375e-01,-7.096214890480041504e-01,1.220305323600769043e+00,6.436700224876403809e-01,-2.677253186702728271e-01,9.735239744186401367e-01,4.051083326339721680e-01,-1.176416635513305664e+00,-4.038356840610504150e-01,8.127923123538494110e-03,-7.838966250419616699e-01,4.237613826990127563e-02,-5.657807588577270508e-01,-9.532305002212524414e-01,-1.081775903701782227e+00,1.424398273229598999e-01,3.936684131622314453e-01,-1.036046624183654785e+00,-1.197483837604522705e-01,-4.922864735126495361e-01,1.583427190780639648e-01,4.148863255977630615e-01,-6.380788236856460571e-02,-2.179861068725585938e-01
1.652067899703979492e-01,-6.918338686227798462e-02,-2.088997811079025269e-01,1.347570563666522503e-03,-2.042857259511947632e-01,-2.179407030344009399e-01,3.876583576202392578e-01,-2.284330129623413086e-01,-7.613586187362670898e-01,3.546427190303802490e-01,3.986381888389587402e-01,-2.274564206600189209e-01,-1.390091627836227417e-01,2.409115433692932129e-01,-1.564974933862686157e-01,1.313558697700500488e+00,-7.336689829826354980e-01,-4.930173456668853760e-01,-5.105038285255432129e-01,1.576544195413589478e-01,1.131219983100891113e+00,-5.498401522636413574e-01,3.685222864151000977e-01,3.395372331142425537e-01,4.117821455001831055e-01,-5.909365415573120117e-01,-5.849334597587585449e-02,-6.670487523078918457e-01,5.449842214584350586e-01,-1.182789921760559082e+00,-2.283144295215606689e-01,-1.972987949848175049e-01,4.664795100688934326e-01,-4.548578560352325439e-01,-1.403874397277832031e+00,-9.002234786748886108e-03,-4.230048358440399170e-01,2.654026448726654053e-02,2.490530163049697876e-01,5.186374485492706299e-02,-1.968501210212707520e-01,8.395472764968872070e-01,1.174667477607727051e+00,-3.010692894458770752e-01,-2.092472910881042480e-01,-2.637641131877899170e-01,4.332874715328216553e-01,-4.915711283683776855e-01,-5.895948410034179688e-01,-4.414335191249847412e-01
8.807035535573959351e-02,5.941263400018215179e-03,4.892786443233489990e-01,7.008659094572067261e-02,4.554978609085083008e-01,-6.010602712631225586e-01,4.103632271289825439e-01,9.300959063693881035e-04,-4.058133363723754883e-01,2.537454664707183838e-01,4.333881735801696777e-01,-3.475303575396537781e-02,3.990184515714645386e-02,2.599151432514190674e-01,-7.202767580747604370e-02,5.589269399642944336e-01,1.644941419363021851e-01,6.431742906570434570e-01,2.894277274608612061e-01,2.310169190168380737e-01,-2.079071104526519775e-01,9.391946196556091309e-01,4.101341366767883301e-01,2.078706771135330200e-02,-1.222478747367858887e-01,-4.731470942497253418e-01,6.799338757991790771e-02,8.748504519462585449e-02,2.840065658092498779e-01,-7.487044334411621094e-01,9.749277830123901367e-01,5.676434636116027832e-01,-9.260389953851699829e-02,-2.890280485153198242e-01,-6.811327934265136719e-01,5.052224174141883850e-02,6.247083097696304321e-02,3.070467710494995117e-01,6.426116228103637695e-01,-3.110047876834869385e-01,1.222221739590167999e-02,-1.353058367967605591e-01,-7.162816077470779419e-02,5.320645570755004883e-01,-2.477834224700927734e-01,4.465346932411193848e-01,-2.274172604084014893e-01,2.414395958185195923e-01,3.084037303924560547e-01,3.996625840663909912e-01
-5.140653252601623535e-01,-2.648102939128875732e-01,1.118326187133789062e+00,-3.715184926986694336e-01,6.151731014251708984e-01,-3.038126230239868164e-02,4.379323422908782959e-01,4.163035452365875244e-01,4.545673727989196777e-01,4.897964745759963989e-02,2.771733403205871582e-01,-1.196408987045288086e+00,1.863580048084259033e-01,4.075679779052734375e-01,-1.378863602876663208e-01,2.389145195484161377e-01,2.862506508827209473e-01,7.984947562217712402e-01,-1.290068328380584717e-01,-7.350794672966003418e-01,-6.266475915908813477e-01,-4.377273917198181152e-01,5.851109623908996582e-01,-4.634205996990203857e-01,-3.478096127510070801e-01,-1.898459494113922119e-01,-2.511759400367736816e-01,-3.698389530181884766e-01,-6.845165044069290161e-03,1.213591024279594421e-01,6.344938278198242188e-02,4.340876042842864990e-01,-3.630841076374053955e-01,-1.168102696537971497e-01,-6.036358475685119629e-01,3.198437392711639404e-01,2.788521051406860352e-01,5.278931856155395508e-01,-2.083794176578521729e-01,-1.151603907346725464e-01,4.954757690429687500e-01,-2.999530732631683350e-01,-2.482576668262481689e-02,2.748323380947113037e-01,-5.751635432243347168e-01,-6.279660463333129883e-01,7.075421512126922607e-02,1.649398654699325562e-01,-3.198573291301727295e-01,1.763924211263656616e-02
-4.637776613235473633e-01,1.123832821846008301e+00,6.050230860710144043e-01,-2.428755611181259155e-01,2.256627231836318970e-01,-5.930823087692260742e-01,4.626655280590057373e-01,7.279964536428451538e-02,3.296971023082733154e-01,-2.614454627037048340e-01,1.752909272909164429e-01,-9.704468846321105957e-01,1.500720828771591187e-01,-1.913125067949295044e-01,1.450152248144149780e-01,-3.010528087615966797e-01,-5.173245072364807129e-01,2.611651644110679626e-02,-4.557561874389648438e-01,-3.914508223533630371e-01,-6.483352780342102051e-01,4.717556834220886230e-01,3.096638321876525879e-01,-2.987028658390045166e-01,-5.248563885688781738e-01,-7.778298258781433105e-01,-6.739991903305053711e-02,5.881734937429428101e-02,1.455142974853515625e+00,-5.849449634552001953e-01,-3.875714540481567383e-01,2.324126362800598145e-01,-3.713378906250000000e-01,-6.610011458396911621e-01,-4.926524460315704346e-01,-3.101410269737243652e-01,-3.519748449325561523e-01,9.936209917068481445e-01,-3.432352542877197266e-01,-9.223508238792419434e-01,2.126442492008209229e-01,-5.558201074600219727e-01,-1.857921630144119263e-01,-1.540955901145935059e-01,-1.661482006311416626e-01,6.800550222396850586e-01,-8.653946518898010254e-01,-1.029543638229370117e+00,6.727914512157440186e-02,1.402246356010437012e-01
1.065020799636840820e+00,1.063284993171691895e+00,-4.268345832824707031e-01,-3.010391443967819214e-02,-1.089678525924682617e+00,-2.977572940289974213e-02,-3.451484739780426025e-01,-2.837808430194854736e-01,1.900935620069503784e-01,-5.115173757076263428e-02,-5.161054730415344238e-01,-4.202237725257873535e-01,-8.573397248983383179e-02,4.667015671730041504e-01,4.376873672008514404e-01,-6.325667500495910645e-01,1.230961561203002930e+00,-1.075723171234130859e+00,-3.418923318386077881e-01,-4.206721782684326172e-01,-6.189599037170410156e-01,1.413929820060729980e+00,-8.914720416069030762e-01,-2.373240470886230469e+00,7.894331961870193481e-02,3.617337942123413086e-01,1.699931979179382324e+00,1.641636490821838379e+00,1.285915970802307129e-01,-3.282643258571624756e-01,-4.895752668380737305e-01,3.412626385688781738e-01,-4.928117096424102783e-01,-3.167671561241149902e-01,-6.086257100105285645e-01,-1.768052577972412109e+00,-2.705898582935333252e-01,-4.745908081531524658e-02,4.022478163242340088e-01,-1.795352548360824585e-01,-5.484390258789062500e-01,-8.628574013710021973e-01,-1.657822914421558380e-02,-8.939295411109924316e-01,1.569201111793518066e+00,1.666177362203598022e-01,-6.729379892349243164e-01,1.319037675857543945e+00,2.380854189395904541e-01,2.449403285980224609e+00
1.536806076765060425e-01,4.213922321796417236e-01,-5.384799242019653320e-01,-2.123923599720001221e-01,4.857488274574279785e-01,-1.554660648107528687e-01,-3.815946877002716064e-01,2.045833915472030640e-01,-4.170754849910736084e-01,-2.607826292514801025e-01,-5.916681885719299316e-01,-9.341402351856231689e-02,-3.620028734207153320e+00,4.011077806353569031e-02,-3.444944620132446289e+00,2.401291579008102417e-01,-1.498907506465911865e-01,-2.587287724018096924e-01,8.065826296806335449e-01,-1.446995288133621216e-01,-1.098237782716751099e-01,-2.611169219017028809e-01,-3.430656716227531433e-02,-4.756750464439392090e-01,-2.699658274650573730e-01,-2.702293097972869873e-01,1.600393205881118774e-01,-9.589353203773498535e-02,5.798932313919067383e-01,3.934063911437988281e-01,9.142780303955078125e-02,5.216672420501708984e-01,6.303763948380947113e-03,-9.383463859558105469e-01,-3.988620936870574951e-01,-3.182975053787231445e-01,-2.789995372295379639e-01,-9.892131201922893524e-03,3.064818382263183594e-01,-4.336361587047576904e-01,2.908667027950286865e-01,-2.205167263746261597e-01,2.668182849884033203e-01,-3.291562497615814209e-01,-3.365053534507751465e-01,2.947495579719543457e-01,-2.598595619201660156e-01,3.228549063205718994e-01,-1.978918164968490601e-01,-2.337138652801513672e-01
3.042760789394378662e-01,-1.729332804679870605e-01,1.013999819755554199e+00,6.709795445203781128e-02,3.963694572448730469e-01,-2.832308709621429443e-01,-4.752583205699920654e-01,4.580921232700347900e-01,-2.842799127101898193e-01,6.486594676971435547e-01,3.558392822742462158e-01,6.037862896919250488e-01,-6.239774823188781738e-01,3.466821908950805664e-01,-5.573837757110595703e-01,6.959806680679321289e-01,-2.932193279266357422e-01,4.687239527702331543e-01,-2.114116102457046509e-01,-6.825501471757888794e-02,-4.903944954276084900e-02,5.110019445419311523e-01,8.207758665084838867e-01,-3.346424698829650879e-01,-2.401524186134338379e-01,3.282122611999511719e-01,8.731307983398437500e-01,-8.167330175638198853e-02,1.025674700736999512e+00,1.148881316184997559e+00,-1.885426230728626251e-02,4.063123464584350586e-02,4.001448452472686768e-01,-1.583376765251159668e+00,-8.583068251609802246e-01,1.179790973663330078e+00,-1.039199590682983398e+00,5.201709270477294922e-01,-2.764518260955810547e-01,-1.274444907903671265e-01,-1.159669280052185059e+00,4.896539449691772461e-01,8.259038925170898438e-01,-8.665968775749206543e-01,2.788543701171875000e-01,3.752707242965698242e-01,-1.138225197792053223e+00,6.521087884902954102e-01,-2.165567874908447266e-01,8.573607206344604492e-01
