-9.919364005327224731e-02,1.949483007192611694e-01,4.193792939186096191e-01,1.748855262994766235e-01,-1.092257630079984665e-02,9.159117937088012695e-02,-1.425226330757141113e-01,-5.711508542299270630e-02,4.763255119323730469e-01,-3.982937335968017578e-02,-1.050245948135852814e-02,5.965715646743774414e-02,1.196717619895935059e-01,-8.182749152183532715e-02,4.789111763238906860e-02,-2.679713815450668335e-02,-4.061204567551612854e-02,-1.545584294945001602e-03,-1.184271723031997681e-01,-1.121024787425994873e-02,7.707262877374887466e-03,-2.745013236999511719e-01,1.835965812206268311e-01,1.394138038158416748e-01,-9.588067233562469482e-02,-3.777705505490303040e-02,1.116131991147994995e-01,6.462331861257553101e-02,-3.283945918083190918e-01,-1.789360195398330688e-01,-1.853578239679336548e-01,-1.254827529191970825e-01,1.262234300374984741e-01,-9.477385878562927246e-02,2.829430103302001953e-01,-5.062406882643699646e-02,-7.952719181776046753e-02,8.600075729191303253e-03,-2.683787047863006592e-02,1.013770420104265213e-02,7.361548487097024918e-03,-3.607175648212432861e-01,5.778556317090988159e-02,-7.010457664728164673e-02,1.414947509765625000e-01,1.182597503066062927e-02,-1.874143481254577637e-01,-2.532454729080200195e-01,3.486855328083038330e-01,-4.491522014141082764e-01
7.929759100079536438e-03,1.187519803643226624e-01,-1.488186046481132507e-02,-1.556672304868698120e-01,-2.357651107013225555e-02,8.183658868074417114e-02,-1.196988075971603394e-01,1.188918426632881165e-01,1.498453170061111450e-01,-2.091944068670272827e-01,-1.272859722375869751e-01,7.118631154298782349e-02,-1.216846518218517303e-02,2.684061415493488312e-02,-1.186104044318199158e-01,9.368991479277610779e-03,-1.347823143005371094e-01,-6.593069434165954590e-02,-1.852949149906635284e-02,8.229033090174198151e-03,3.425710201263427734e-01,2.024735696613788605e-02,-4.452443867921829224e-02,-1.031493395566940308e-02,1.072067543864250183e-01,-1.437188386917114258e-01,3.634786233305931091e-02,-2.279835343360900879e-01,1.156199648976325989e-01,-1.307733058929443359e-01,-4.396837949752807617e-01,5.199188739061355591e-02,6.060943379998207092e-02,-1.102062016725540161e-01,1.469577699899673462e-01,-4.083984196186065674e-01,-1.558313965797424316e-01,2.782916091382503510e-02,7.417570799589157104e-02,7.441624067723751068e-03,-3.150182217359542847e-02,-7.630571722984313965e-02,-9.201317280530929565e-02,-1.521097403019666672e-02,1.042318642139434814e-01,-1.275420188903808594e-01,-4.163025319576263428e-02,1.606161147356033325e-01,2.207840085029602051e-01,4.937749728560447693e-02
6.787161529064178467e-02,3.337151557207107544e-02,1.281627863645553589e-01,3.047213144600391388e-02,-3.322178870439529419e-02,-1.551026999950408936e-01,4.461951926350593567e-02,-2.188735827803611755e-02,2.327383011579513550e-01,5.183533206582069397e-02,-2.501844055950641632e-02,2.509450726211071014e-02,-1.859683776274323463e-03,6.506513338536024094e-03,9.839824587106704712e-02,1.527849677950143814e-02,1.152984723448753357e-01,-2.078982740640640259e-01,-7.564548403024673462e-02,5.269011110067367554e-02,8.447012305259704590e-02,3.515695454552769661e-03,-1.458503305912017822e-01,2.718951087445020676e-03,1.414072792977094650e-02,-5.544615909457206726e-02,-1.932899504899978638e-01,1.329510658979415894e-01,-4.086557403206825256e-02,-9.612096846103668213e-02,-4.612628370523452759e-02,-9.584758430719375610e-03,2.748383267316967249e-04,-2.565517723560333252e-01,-4.183185100555419922e-02,5.423474684357643127e-02,8.246811479330062866e-02,-2.369582466781139374e-02,-6.619049608707427979e-02,4.198104143142700195e-03,-1.027096807956695557e-01,1.250917837023735046e-02,2.182280179113149643e-03,1.206105481833219528e-02,1.511731743812561035e-01,2.279053255915641785e-02,-2.706509828567504883e-02,-6.624589860439300537e-02,-9.253152459859848022e-02,-3.476653248071670532e-02
8.341003954410552979e-02,-7.799798250198364258e-02,8.773233741521835327e-02,3.591624498367309570e-01,-4.288989305496215820e-02,-7.959794998168945312e-02,-4.593537747859954834e-02,-1.932639069855213165e-02,2.128297239542007446e-01,1.259320378303527832e-01,-8.034425973892211914e-02,-4.756265506148338318e-02,-2.260842323303222656e-01,6.981933023780584335e-03,5.922073498368263245e-02,7.829716056585311890e-02,-1.498821098357439041e-02,-1.454582959413528442e-01,1.316921133548021317e-02,8.014975488185882568e-02,5.328920856118202209e-02,1.805574819445610046e-02,8.957519382238388062e-02,1.150114536285400391e-01,4.373512044548988342e-02,1.908278279006481171e-02,1.388743221759796143e-01,-4.880393296480178833e-02,7.562320679426193237e-02,-8.708902448415756226e-02,6.007741764187812805e-02,2.674941346049308777e-02,3.691173717379570007e-02,-9.000591188669204712e-02,7.151193916797637939e-02,-2.293778210878372192e-01,1.140889301896095276e-01,4.198946116957813501e-04,-1.634279079735279083e-02,4.353687539696693420e-02,-4.873964190483093262e-02,-1.374599430710077286e-02,2.243955433368682861e-01,-6.167270988225936890e-02,2.081524953246116638e-02,1.804508268833160400e-02,-1.483416110277175903e-01,-1.162501797080039978e-01,2.259487062692642212e-01,-2.984661161899566650e-01
-7.427609711885452271e-02,-2.585094571113586426e-01,-9.555344469845294952e-03,-2.582238242030143738e-02,7.504229247570037842e-02,-1.874930113554000854e-01,-4.264963418245315552e-02,-1.077173575758934021e-01,5.470544472336769104e-02,1.609784662723541260e-01,-1.837470568716526031e-02,-1.134438216686248779e-01,-2.121331728994846344e-02,-6.917644757777452469e-03,4.450099915266036987e-02,2.157083153724670410e-01,1.048888117074966431e-01,-1.345228105783462524e-01,4.464380443096160889e-02,2.739183008670806885e-01,3.369961082935333252e-01,1.262404471635818481e-01,3.638741374015808105e-02,3.910731896758079529e-02,1.530255526304244995e-01,2.927759885787963867e-01,2.934730648994445801e-01,-1.222136765718460083e-01,6.603441387414932251e-02,1.464353352785110474e-01,1.334164440631866455e-01,2.234903164207935333e-02,-1.937572509050369263e-01,-3.273772075772285461e-02,-4.317030310630798340e-02,3.426158428192138672e-02,2.027083486318588257e-01,2.533655241131782532e-02,-1.068430468440055847e-01,3.080914169549942017e-02,-1.232018172740936279e-01,-8.645552396774291992e-02,2.714488422498106956e-03,-2.427544258534908295e-02,1.592979282140731812e-01,-1.249190941452980042e-01,-1.983679831027984619e-01,-2.299205362796783447e-01,9.685182571411132812e-02,-2.806810438632965088e-01
2.560595273971557617e-01,-9.042024612426757812e-02,-2.577662765979766846e-01,3.086779415607452393e-01,2.408863157033920288e-01,2.382804751396179199e-01,-9.320256114006042480e-02,4.361006245017051697e-02,-2.546144425868988037e-01,5.872676614671945572e-03,-3.278388408944010735e-03,4.435974359512329102e-02,-1.018750444054603577e-01,2.787806279957294464e-02,1.127249971032142639e-01,-8.949261903762817383e-02,1.222369745373725891e-01,-8.467128127813339233e-02,-4.566835239529609680e-03,-8.743795007467269897e-02,1.598552912473678589e-01,-3.765495866537094116e-02,-7.360558956861495972e-02,-1.052994132041931152e-01,8.520099520683288574e-02,1.796036399900913239e-02,1.644079983234405518e-01,-1.841472536325454712e-01,1.103056147694587708e-01,-1.489709317684173584e-01,1.219326108694076538e-01,6.498676538467407227e-02,-1.491273939609527588e-01,-1.368287764489650726e-02,-1.976261138916015625e-01,7.294770330190658569e-03,-5.038191378116607666e-02,-3.781844303011894226e-02,1.614592969417572021e-01,-4.855152592062950134e-02,-3.027101978659629822e-02,1.762015372514724731e-02,-3.554305061697959900e-02,4.187095910310745239e-02,7.634059339761734009e-02,2.866393327713012695e-01,-3.324940800666809082e-01,1.006056293845176697e-01,-3.673220053315162659e-02,1.592769026756286621e-01
-1.140440851449966431e-01,-1.633898019790649414e-01,4.722665250301361084e-01,2.059927582740783691e-01,2.532207034528255463e-02,-1.059635207056999207e-01,2.356337457895278931e-01,-4.625622183084487915e-02,4.832328259944915771e-01,2.553772032260894775e-01,-1.457263678312301636e-01,1.027323603630065918e-01,-2.333624288439750671e-02,-1.849231719970703125e-01,-5.790197104215621948e-02,-1.111828684806823730e-01,4.142941534519195557e-02,2.397935390472412109e-01,-1.036739125847816467e-01,-4.259528592228889465e-03,2.546418905258178711e-01,-5.551535263657569885e-02,2.644950449466705322e-01,4.600620269775390625e-02,-2.223891317844390869e-01,1.655687838792800903e-01,1.883866339921951294e-01,2.682697027921676636e-02,-2.184861153364181519e-02,-2.688182294368743896e-01,3.495838027447462082e-03,-3.561614826321601868e-02,-3.117510080337524414e-01,-1.315109431743621826e-01,7.295882329344749451e-03,-4.313288629055023193e-01,-2.245323807001113892e-01,-2.925242669880390167e-02,-7.205856591463088989e-02,1.493187844753265381e-01,-5.926315113902091980e-02,-3.983650207519531250e-01,6.680823117494583130e-02,-5.494951736181974411e-03,-3.922320902347564697e-02,-6.670601200312376022e-03,-3.847822248935699463e-01,6.966838985681533813e-02,1.925708204507827759e-01,-2.367614209651947021e-01
1.207489892840385437e-01,-1.680251657962799072e-01,-5.604152083396911621e-01,5.587437655776739120e-03,3.188016265630722046e-02,6.222796440124511719e-02,-2.807121351361274719e-02,-2.560051977634429932e-01,2.995488047599792480e-01,1.997564882040023804e-01,-3.999644890427589417e-02,-1.713076978921890259e-01,-2.207225412130355835e-01,2.396827787160873413e-01,1.362324506044387817e-01,-2.054688334465026855e-02,5.253883451223373413e-02,4.310414195060729980e-02,1.757518202066421509e-01,4.140170812606811523e-01,2.932260930538177490e-01,-6.043281033635139465e-02,-3.083900511264801025e-01,7.108174264430999756e-02,4.232212901115417480e-02,8.196647465229034424e-02,7.161202430725097656e-01,1.821949183940887451e-01,-1.068054735660552979e-01,3.166729211807250977e-02,6.770548224449157715e-02,-8.560068160295486450e-02,-2.977354228496551514e-01,3.758081495761871338e-01,1.531234830617904663e-01,2.816801667213439941e-01,-1.522113978862762451e-01,-2.042480744421482086e-02,-2.485733479261398315e-02,1.252323295921087265e-02,1.807237043976783752e-02,-5.534098744392395020e-01,3.670860528945922852e-01,7.513810694217681885e-02,1.876705139875411987e-01,-2.803936898708343506e-01,1.682545617222785950e-02,-2.770056128501892090e-01,3.372189402580261230e-01,-1.329560726881027222e-01
-1.977230608463287354e-01,1.567888408899307251e-01,5.614062026143074036e-02,1.168094053864479065e-01,1.876230388879776001e-01,2.122581005096435547e-01,3.523157536983489990e-02,-2.009099274873733521e-01,3.923039436340332031e-01,4.324659332633018494e-02,-6.416026502847671509e-02,5.700070876628160477e-03,-3.789144158363342285e-01,7.018086314201354980e-02,-5.384185910224914551e-02,-2.405111193656921387e-01,-2.147079259157180786e-02,-1.509155780076980591e-01,2.198194339871406555e-02,-5.762522295117378235e-02,2.921934127807617188e-01,-1.535384058952331543e-01,1.324989795684814453e-01,-6.873887032270431519e-02,1.117979362607002258e-01,3.423243761062622070e-02,-3.841844797134399414e-01,-1.889932155609130859e-01,2.585415840148925781e-01,2.653509750962257385e-02,9.920604526996612549e-02,3.807648643851280212e-02,-2.439944595098495483e-01,-3.384036198258399963e-02,7.763082534074783325e-02,-2.126982994377613068e-02,2.341781556606292725e-01,4.861557856202125549e-02,1.379685103893280029e-01,3.413690626621246338e-02,-1.268101930618286133e-01,2.022094838321208954e-02,1.407870650291442871e-01,-2.701582759618759155e-02,2.509447336196899414e-01,-2.468487471342086792e-01,-1.985624432563781738e-01,-5.279137403704226017e-04,9.087157249450683594e-02,-7.391244918107986450e-02
2.770142257213592529e-02,2.545502595603466034e-02,9.607049077749252319e-02,-1.459930371493101120e-02,-8.834481984376907349e-02,-2.393622249364852905e-01,1.064242199063301086e-01,-2.442042902112007141e-02,3.904305100440979004e-01,-1.401506923139095306e-02,-8.617135882377624512e-02,-1.163051128387451172e-01,-2.929413132369518280e-02,-1.482204534113407135e-02,-8.380028605461120605e-02,3.571400418877601624e-02,-7.702472805976867676e-02,-2.847282290458679199e-01,1.511604897677898407e-02,2.109542340040206909e-01,3.793368935585021973e-01,2.589616738259792328e-02,4.184966534376144409e-02,1.208514273166656494e-01,6.937348749488592148e-03,-9.041307866573333740e-02,8.584295213222503662e-02,-1.217272356152534485e-01,-6.693577021360397339e-02,-2.699363529682159424e-01,-2.401388995349407196e-02,6.844569742679595947e-02,-6.473090499639511108e-02,-6.609507650136947632e-02,1.721787601709365845e-01,1.265399605035781860e-01,1.927133649587631226e-01,2.840123884379863739e-02,-1.192660555243492126e-01,4.659977182745933533e-02,-1.113920807838439941e-01,-4.640843719244003296e-02,-1.806766390800476074e-01,-1.051402390003204346e-01,-1.162936910986900330e-01,-7.153612375259399414e-02,-9.075278043746948242e-02,1.462913304567337036e-02,-2.252821065485477448e-02,-3.107988238334655762e-01
3.670342862606048584e-01,9.770754724740982056e-02,5.988879501819610596e-02,3.754068911075592041e-02,-9.221941232681274414e-03,1.713505983352661133e-01,-1.346571594476699829e-01,2.441270947456359863e-01,1.847179085016250610e-01,-3.941918909549713135e-01,-1.982740014791488647e-01,3.664829581975936890e-02,2.132214456796646118e-01,3.833334892988204956e-02,-7.598613947629928589e-02,2.027857303619384766e-01,-5.216365680098533630e-03,-1.691774874925613403e-01,-4.110634326934814453e-02,7.779797073453664780e-03,1.754913181066513062e-01,-2.386592701077461243e-02,-7.341906428337097168e-02,3.317913785576820374e-02,2.631579637527465820e-01,-1.687602251768112183e-01,-2.024128586053848267e-01,5.699117481708526611e-02,-1.423645764589309692e-01,-3.516805917024612427e-02,-2.595676481723785400e-01,-4.137103632092475891e-02,-8.582466095685958862e-02,-1.322592496871948242e-01,1.082140728831291199e-01,-3.437203764915466309e-01,-4.731184244155883789e-02,-1.359331980347633362e-02,7.044138014316558838e-02,-9.259469807147979736e-02,1.015655025839805603e-01,3.969952464103698730e-02,-7.594414055347442627e-04,2.772685512900352478e-02,8.693762868642807007e-02,1.086719408631324768e-01,-4.267218708992004395e-02,4.211912676692008972e-02,1.787780225276947021e-01,-1.473653167486190796e-01
3.549130260944366455e-01,6.392486095428466797e-01,9.921671450138092041e-02,2.716262638568878174e-01,2.466273903846740723e-01,2.199953943490982056e-01,1.295739412307739258e-01,7.757970690727233887e-02,3.005779087543487549e-01,4.417310357093811035e-01,-1.789101958274841309e-01,2.606106996536254883e-01,5.014435052871704102e-01,-2.364074438810348511e-01,5.715467929840087891e-01,2.109530717134475708e-01,3.336120843887329102e-01,1.047978922724723816e-01,-2.000541687011718750e-01,1.027960330247879028e-02,8.081218004226684570e-01,1.994898915290832520e-01,1.995855718851089478e-01,-3.328813016414642334e-01,2.408194839954376221e-01,2.583413422107696533e-01,5.843214988708496094e-01,1.308760792016983032e-01,8.663371950387954712e-02,-1.835541725158691406e-01,1.840845942497253418e-01,5.496951192617416382e-02,3.127789497375488281e-01,5.188860371708869934e-02,8.199588060379028320e-01,2.079284936189651489e-02,1.625121533870697021e-01,-5.344877243041992188e-01,-2.491248250007629395e-01,3.107640445232391357e-01,-3.801625967025756836e-01,7.289631962776184082e-01,2.095762938261032104e-01,2.792954444885253906e-01,1.471036374568939209e-01,1.316840201616287231e-01,-1.733883656561374664e-02,3.642215430736541748e-01,4.086945950984954834e-01,-9.851282835006713867e-01
-2.092961519956588745e-01,1.569135934114456177e-01,3.751054704189300537e-01,-4.903627093881368637e-03,1.967367827892303467e-01,1.507193297147750854e-01,2.664130628108978271e-01,1.187754347920417786e-01,1.531627774238586426e-01,-9.973563998937606812e-02,2.490205317735671997e-01,-5.602653324604034424e-02,-2.687127590179443359e-01,-1.381191611289978027e-01,-1.845903098583221436e-01,4.087996780872344971e-01,-3.011499345302581787e-01,-1.919300761073827744e-03,-6.020673736929893494e-02,-9.547757357358932495e-02,1.406183242797851562e-01,1.491655558347702026e-01,2.926058173179626465e-01,-9.295292943716049194e-02,1.906235814094543457e-01,9.555647522211074829e-02,1.030602231621742249e-01,-1.045505123329348862e-04,4.284039437770843506e-01,-3.144384175539016724e-02,-3.728952724486589432e-04,-5.884399265050888062e-02,5.739467740058898926e-01,-4.912475869059562683e-02,-4.727496802806854248e-01,1.049758642911911011e-01,4.218591451644897461e-01,-7.582744956016540527e-02,-5.230512619018554688e-01,-2.358117103576660156e-01,6.580952554941177368e-02,-9.649853408336639404e-02,-8.202410489320755005e-02,2.369316220283508301e-01,4.859287291765213013e-02,3.060087263584136963e-01,1.795092821121215820e-01,5.232350155711174011e-02,1.742645502090454102e-01,6.075072884559631348e-01
-8.218456804752349854e-02,1.635499149560928345e-01,3.550838232040405273e-01,2.799596190452575684e-01,6.983102560043334961e-01,2.639149725437164307e-01,-3.596761077642440796e-02,-1.323754638433456421e-01,4.404051303863525391e-01,-2.200104743242263794e-01,-7.087883353233337402e-01,-1.921301335096359253e-01,-4.521931707859039307e-01,4.667913541197776794e-02,-2.142851985991001129e-02,2.724151909351348877e-01,4.207585752010345459e-01,-2.589602172374725342e-01,-1.757550835609436035e-01,-4.212907850742340088e-01,7.916857004165649414e-01,2.761234045028686523e-01,3.722877800464630127e-01,5.397596210241317749e-02,6.803722381591796875e-01,3.873800635337829590e-01,1.924063712358474731e-01,-1.695045828819274902e-02,1.977668702602386475e-01,-4.209694862365722656e-01,2.013609558343887329e-01,-2.655051946640014648e-01,2.179780006408691406e-01,-3.725878298282623291e-01,-3.574214875698089600e-01,-3.278697729110717773e-01,9.492906928062438965e-02,-1.384570896625518799e-01,-5.968404412269592285e-01,-5.743877887725830078e-01,-2.713135480880737305e-01,-1.153632923960685730e-01,2.172749638557434082e-01,1.665109395980834961e-01,2.688825130462646484e-01,5.064566731452941895e-01,-2.669766917824745178e-02,2.187304645776748657e-01,8.036286830902099609e-01,4.141167700290679932e-01
-4.741257727146148682e-01,-1.621698588132858276e-01,2.706147357821464539e-02,-1.280433535575866699e-01,-2.977188676595687866e-02,-4.025838673114776611e-01,2.906409502029418945e-01,2.101353853940963745e-01,8.378040790557861328e-01,-1.834017224609851837e-02,-2.169595211744308472e-01,-1.493442710489034653e-02,1.840409189462661743e-01,8.444418758153915405e-02,-1.118176355957984924e-01,-2.565727755427360535e-02,9.093675762414932251e-02,-4.188849925994873047e-01,-6.816139817237854004e-02,-1.054485365748405457e-01,4.110580384731292725e-01,-1.147953048348426819e-01,9.894058108329772949e-02,1.868422478437423706e-01,3.867247998714447021e-01,-2.181697934865951538e-01,-3.534761965274810791e-01,-1.915393471717834473e-01,-2.687943875789642334e-01,-6.120023131370544434e-01,-4.260511398315429688e-01,1.485929787158966064e-01,-4.910222068428993225e-02,-7.618680596351623535e-02,4.867659211158752441e-01,3.512790203094482422e-01,3.371724784374237061e-01,4.349350556731224060e-02,-6.685841083526611328e-02,1.640174239873886108e-01,-2.252884954214096069e-01,7.993826270103454590e-02,-2.832580506801605225e-01,-1.284903138875961304e-01,-1.750124096870422363e-01,-1.841009557247161865e-01,-6.586109753698110580e-03,2.009792327880859375e-01,-1.375762075185775757e-01,-2.296234965324401855e-01
-3.326236009597778320e-01,-3.236848488450050354e-02,-4.405065774917602539e-01,6.043076980859041214e-03,3.731435909867286682e-02,-6.851011514663696289e-02,-1.567869931459426880e-01,-1.229379549622535706e-01,6.546095013618469238e-02,-6.050345301628112793e-02,-1.875943541526794434e-01,-3.611412644386291504e-01,-3.067093789577484131e-01,8.529548346996307373e-02,5.485036969184875488e-01,-9.296751767396926880e-02,-1.853786110877990723e-01,-1.304897814989089966e-01,-9.985662102699279785e-01,-2.277045100927352905e-01,3.366414010524749756e-01,-8.370809257030487061e-03,5.071277171373367310e-02,1.375584900379180908e-01,3.801061958074569702e-02,-4.345744475722312927e-02,-2.642648518085479736e-01,3.111359477043151855e-01,2.230757772922515869e-01,-9.910295158624649048e-02,-6.964901089668273926e-02,2.703858315944671631e-01,-2.107318639755249023e-01,5.241093412041664124e-02,4.584204554557800293e-01,-4.511708766222000122e-02,-2.462662160396575928e-01,-2.469403743743896484e-01,-2.025462836027145386e-01,-1.633010357618331909e-01,7.964023351669311523e-01,-3.047973215579986572e-01,-1.641683131456375122e-01,3.409304320812225342e-01,-8.621447486802935600e-04,-2.801920771598815918e-01,9.833355993032455444e-02,-2.514873743057250977e-01,-1.974563114345073700e-02,-7.406954169273376465e-01
-1.640739738941192627e-01,3.381791710853576660e-01,1.739507466554641724e-01,1.869021728634834290e-02,1.427328288555145264e-01,1.952980905771255493e-01,-3.666389361023902893e-02,1.748607754707336426e-01,2.011377662420272827e-01,-1.563911885023117065e-01,-5.466897413134574890e-02,6.687889248132705688e-02,-2.900680303573608398e-01,1.388894487172365189e-02,-4.287068545818328857e-02,1.755781620740890503e-01,7.293741405010223389e-02,-1.908770650625228882e-01,-3.439604490995407104e-02,1.774604469537734985e-01,2.013338804244995117e-01,-2.244398593902587891e-01,2.781385555863380432e-02,-6.013450678437948227e-03,6.935642659664154053e-02,-8.060742914676666260e-02,-4.165605306625366211e-01,-3.398293852806091309e-01,1.698720753192901611e-01,-5.285957455635070801e-02,-1.788032241165637970e-02,-3.351613134145736694e-02,-1.245057731866836548e-01,5.020950734615325928e-02,2.912925928831100464e-02,-2.048457711935043335e-01,4.570994526147842407e-02,-2.872635237872600555e-02,6.950789690017700195e-02,1.107257604598999023e-01,-4.073241725564002991e-02,1.058128289878368378e-02,4.921790584921836853e-02,1.034909952431917191e-02,1.264583468437194824e-01,7.743951678276062012e-02,-1.927239447832107544e-01,1.366574466228485107e-01,1.952314376831054688e-01,-1.039269492030143738e-01
5.003746971487998962e-02,2.500771582126617432e-01,1.803713589906692505e-01,2.225436568260192871e-01,-2.185881370678544044e-03,-3.422480821609497070e-01,2.024304270744323730e-01,8.679415099322795868e-03,5.546639561653137207e-01,-3.715118169784545898e-01,1.068087741732597351e-01,3.017854643985629082e-03,2.439452856779098511e-01,-7.228043675422668457e-02,3.602664545178413391e-02,-9.202516824007034302e-02,-7.628732919692993164e-02,2.539558112621307373e-01,-9.379145503044128418e-02,-2.423538565635681152e-01,2.386036664247512817e-01,5.981565336696803570e-04,2.212324589490890503e-01,5.523232370615005493e-02,-7.988072931766510010e-02,4.106830060482025146e-02,2.888610661029815674e-01,-3.413567841053009033e-01,2.547209896147251129e-02,-3.578279614448547363e-01,2.784267067909240723e-02,-6.393910199403762817e-02,-5.505061242729425430e-03,-1.528108026832342148e-02,-5.885470286011695862e-02,-1.354145407676696777e-01,-2.374034188687801361e-02,-2.608592063188552856e-02,-1.730699092149734497e-01,-1.464297324419021606e-01,4.341680184006690979e-02,-4.682580009102821350e-02,6.830698251724243164e-02,-3.428726689890027046e-03,-2.397180944681167603e-01,-2.280206531286239624e-01,9.572322480380535126e-03,-2.494227699935436249e-02,9.336971491575241089e-02,-2.332504838705062866e-01
-2.086182832717895508e-01,1.972747743129730225e-01,-4.877649992704391479e-02,2.684946954250335693e-01,2.329263985157012939e-01,-5.119018629193305969e-02,1.981930248439311981e-02,-5.426469445228576660e-02,7.600850611925125122e-02,1.252428442239761353e-01,-1.197428554296493530e-01,1.038747373968362808e-03,-1.711756289005279541e-01,1.314329355955123901e-01,-3.352006152272224426e-02,-2.832234799861907959e-01,3.245452046394348145e-01,3.165344148874282837e-02,-1.087971553206443787e-01,-1.148236989974975586e-01,4.595020115375518799e-01,-7.272011134773492813e-03,1.486057341098785400e-01,-8.818631619215011597e-02,1.511972844600677490e-01,-1.833474636077880859e-01,-2.060324847698211670e-01,-9.453461319208145142e-02,-1.595640033483505249e-01,-2.277968674898147583e-01,7.990874350070953369e-02,-5.120392143726348877e-02,3.218436241149902344e-02,-1.772478967905044556e-02,-1.236649788916110992e-02,7.846033573150634766e-02,-3.784437850117683411e-02,2.977924235165119171e-02,1.123657822608947754e-01,5.434150993824005127e-02,-5.120741948485374451e-02,5.808247253298759460e-02,-1.057923734188079834e-01,-8.730649948120117188e-03,1.282015293836593628e-01,-2.778180837631225586e-01,-2.675011157989501953e-01,-9.918587282299995422e-03,3.121868968009948730e-01,-1.959283202886581421e-01
-4.257230088114738464e-02,6.966912746429443359e-02,3.226297795772552490e-01,-3.245237842202186584e-02,2.180386520922183990e-02,1.343195438385009766e-01,-5.643280968070030212e-02,-3.211231529712677002e-02,2.390137165784835815e-01,7.738591730594635010e-02,1.865437254309654236e-02,8.871749788522720337e-02,6.754416972398757935e-02,-2.142366766929626465e-01,-2.282834947109222412e-01,9.525112062692642212e-02,1.161577105522155762e-01,6.081923469901084900e-02,-7.526860386133193970e-02,-1.590418964624404907e-01,-8.128502219915390015e-02,-1.224545296281576157e-02,-6.836749613285064697e-02,5.375029146671295166e-02,2.198770642280578613e-01,-2.306912466883659363e-02,3.759615356102585793e-03,3.811475634574890137e-02,-1.212479453533887863e-02,-5.350038409233093262e-04,-3.846694529056549072e-01,5.848415568470954895e-02,-1.539632081985473633e-01,9.029645472764968872e-02,7.254911959171295166e-02,-2.555732429027557373e-01,-7.726468145847320557e-02,5.747482646256685257e-03,5.354162678122520447e-02,-1.069609820842742920e-01,3.347023576498031616e-02,-7.288125902414321899e-02,-2.685796320438385010e-01,-4.545627906918525696e-02,7.026445865631103516e-02,-5.153875052928924561e-02,-2.081125825643539429e-01,2.799814641475677490e-01,1.101285964250564575e-01,-4.152929782867431641e-02
2.918120324611663818e-01,-1.678781956434249878e-01,-1.313518881797790527e-01,2.075341530144214630e-02,5.282613262534141541e-02,1.628019474446773529e-02,-7.019202411174774170e-02,-9.463229030370712280e-02,2.874207496643066406e-01,6.478925794363021851e-02,1.830866746604442596e-02,-1.433729827404022217e-01,-4.000608623027801514e-02,1.780577898025512695e-01,9.982258826494216919e-02,-4.252298176288604736e-02,-2.222940176725387573e-01,3.165671136230230331e-03,6.347297132015228271e-02,8.666028082370758057e-02,5.603882670402526855e-01,-1.087275445461273193e-01,-3.684935718774795532e-02,-7.839119993150234222e-03,-2.111595273017883301e-01,4.745034500956535339e-02,-4.694371297955513000e-02,-1.763942092657089233e-01,8.009093254804611206e-02,3.160728141665458679e-02,4.531189426779747009e-02,-1.591164473211392760e-04,-1.083106473088264465e-01,-3.618883490562438965e-01,1.278917044401168823e-01,-1.539223827421665192e-02,1.036391779780387878e-01,5.409004539251327515e-02,-1.719961017370223999e-01,-8.848510682582855225e-03,-1.001732945442199707e-01,-8.025358617305755615e-02,-6.045364961028099060e-02,-8.579935878515243530e-02,-1.573550105094909668e-01,-2.333111464977264404e-01,-1.174235045909881592e-01,-2.527818977832794189e-01,1.673786640167236328e-01,-1.984296590089797974e-01
1.738754808902740479e-01,-1.412060949951410294e-02,4.146683514118194580e-01,4.376718699932098389e-01,-2.446938678622245789e-02,-5.303189530968666077e-02,-9.146809577941894531e-02,7.240391522645950317e-02,5.918781161308288574e-01,1.847440153360366821e-01,-3.988900184631347656e-01,7.998175173997879028e-02,-1.683562994003295898e-01,-2.503412216901779175e-02,-1.782551407814025879e-02,-6.788581609725952148e-02,-5.526027828454971313e-02,5.670274794101715088e-02,-1.176480948925018311e-01,-3.893518820405006409e-02,6.679579615592956543e-02,-5.062006711959838867e-01,4.207606315612792969e-01,5.513163283467292786e-02,1.046041175723075867e-01,2.038881331682205200e-01,1.190608832985162735e-02,-1.543884724378585815e-01,-2.245514467358589172e-02,-2.779046893119812012e-01,1.369410380721092224e-02,-7.243166863918304443e-02,7.981237024068832397e-02,3.169459104537963867e-02,2.077783644199371338e-01,-2.948398590087890625e-01,-2.061872929334640503e-01,-4.698040336370468140e-02,1.285575628280639648e-01,1.243515014648437500e-01,1.907971315085887909e-02,-4.935617744922637939e-01,7.437462452799081802e-03,3.337946161627769470e-02,-2.177187800407409668e-01,-7.186788320541381836e-02,-4.175211191177368164e-01,-1.335437595844268799e-02,6.330327689647674561e-02,-1.677073389291763306e-01
-9.739598631858825684e-02,3.961970508098602295e-01,4.039693474769592285e-01,4.412107169628143311e-01,4.570940434932708740e-01,3.040858507156372070e-01,2.423891276121139526e-01,1.594220250844955444e-01,2.007221281528472900e-01,2.983606457710266113e-01,-6.613095402717590332e-01,1.082728654146194458e-01,8.934594690799713135e-02,-7.748231291770935059e-02,-5.088371038436889648e-01,3.119032979011535645e-01,4.211072921752929688e-01,8.239766955375671387e-02,-3.200613856315612793e-01,1.671735048294067383e-01,1.082700729370117188e+00,-2.849586904048919678e-01,3.679554760456085205e-01,1.136717051267623901e-01,-6.213382631540298462e-02,3.404284715652465820e-01,2.963730394840240479e-01,6.326028704643249512e-02,5.124211907386779785e-01,-9.444828331470489502e-02,8.635206520557403564e-02,1.011974662542343140e-01,5.081994533538818359e-01,-2.665174566209316254e-02,-1.187044978141784668e+00,2.400379627943038940e-02,1.589160412549972534e-01,-2.508706450462341309e-01,-1.395369619131088257e-01,-3.856556713581085205e-01,-1.029300242662429810e-01,1.657277904450893402e-02,8.723933249711990356e-02,2.926538512110710144e-02,1.238706558942794800e-01,-6.042936444282531738e-02,-1.883933544158935547e-01,5.021240711212158203e-01,4.421927630901336670e-01,-9.130765497684478760e-02
-4.449818134307861328e-01,6.874257326126098633e-02,6.874913573265075684e-01,1.732076890766620636e-02,9.648916870355606079e-02,-2.065344303846359253e-01,4.931301176548004150e-01,2.905676960945129395e-01,6.012706160545349121e-01,-2.829437553882598877e-01,-1.301498860120773315e-01,-9.929587692022323608e-02,-2.077349089086055756e-02,-7.690167054533958435e-03,-1.034560501575469971e-01,8.425698429346084595e-02,2.737777866423130035e-02,1.057620625942945480e-02,-1.219110637903213501e-01,-1.859064996242523193e-01,6.431450247764587402e-01,-3.469648659229278564e-01,-1.406496465206146240e-01,1.168960556387901306e-01,5.915354490280151367e-01,-1.434267014265060425e-01,-6.214480996131896973e-01,-2.670437991619110107e-01,-1.931074112653732300e-01,-4.381895959377288818e-01,-7.318077236413955688e-02,-1.480007320642471313e-01,1.122416034340858459e-01,-6.826633471064269543e-04,2.121575176715850830e-01,3.311704397201538086e-01,-1.362068019807338715e-02,7.063051313161849976e-02,-1.244618743658065796e-02,1.362881064414978027e-01,-5.686010792851448059e-02,-3.017741143703460693e-01,-1.177563071250915527e-01,-4.433370754122734070e-02,-3.654722496867179871e-02,-9.619887918233871460e-02,6.539092957973480225e-02,5.796808749437332153e-02,4.037720710039138794e-02,-2.297069579362869263e-01
-1.280702948570251465e-01,-6.119724735617637634e-02,2.248571813106536865e-01,3.228826522827148438e-01,4.957456514239311218e-02,-1.427796669304370880e-02,1.132674589753150940e-01,-2.564747072756290436e-02,3.350337147712707520e-01,-1.847881823778152466e-02,-4.403209686279296875e-02,-3.932449594140052795e-02,1.366157680749893188e-01,-5.833506956696510315e-02,2.051813006401062012e-01,-6.496088206768035889e-02,-7.228207588195800781e-02,9.460039436817169189e-02,-8.831270784139633179e-02,1.500823795795440674e-01,4.990472495555877686e-01,-4.656218225136399269e-04,-1.281826058402657509e-03,5.485916510224342346e-02,1.805866509675979614e-02,5.320075526833534241e-02,-3.068891121074557304e-03,-8.711528778076171875e-02,-2.575803101062774658e-01,-1.658668369054794312e-01,3.595257177948951721e-02,-6.376830488443374634e-02,-1.557727903127670288e-01,-7.478476315736770630e-02,1.021093316376209259e-02,-3.264534100890159607e-02,-3.932719118893146515e-03,4.673704132437705994e-02,-6.922665238380432129e-02,9.077080339193344116e-02,-1.269112825393676758e-01,-2.969379723072052002e-01,3.346306830644607544e-02,-2.575813792645931244e-02,7.157237827777862549e-02,-3.711718022823333740e-01,-2.172402143478393555e-01,-7.666698843240737915e-02,3.320020437240600586e-02,-2.208068072795867920e-01
3.651419654488563538e-02,-1.120546311140060425e-01,-3.468182985670864582e-04,3.538551330566406250e-01,-1.262404620647430420e-01,-5.667345225811004639e-02,6.805190443992614746e-02,2.849790826439857483e-02,3.110070228576660156e-01,1.213138923048973083e-01,-8.126563578844070435e-02,-8.109529502689838409e-03,2.136129438877105713e-01,1.628148853778839111e-01,9.900609962642192841e-03,-1.673363298177719116e-01,-6.038304790854454041e-02,-4.160049557685852051e-01,2.321391738951206207e-02,2.731663882732391357e-01,4.568952620029449463e-01,1.590642184019088745e-01,2.830918133258819580e-01,1.745099723339080811e-01,-1.027899980545043945e-01,-1.442064046859741211e-01,-2.532038278877735138e-02,3.544920589774847031e-03,-1.202503964304924011e-01,-4.107614159584045410e-01,7.410681247711181641e-02,1.962503418326377869e-02,-4.744288921356201172e-01,8.737167716026306152e-02,2.655955851078033447e-01,-1.441081613302230835e-01,-3.266761451959609985e-02,1.453146524727344513e-02,-1.892402321100234985e-01,-1.113327685743570328e-02,-1.715295910835266113e-01,-4.563234373927116394e-02,1.660228818655014038e-01,-1.898746043443679810e-01,-5.272575840353965759e-02,-4.690933972597122192e-02,-5.733211524784564972e-03,1.591652780771255493e-01,-1.300004683434963226e-02,-5.044116973876953125e-01
-1.071808040142059326e-01,3.563233911991119385e-01,1.637352705001831055e-01,5.285541340708732605e-02,4.418506100773811340e-02,3.155018985271453857e-01,-2.025991976261138916e-01,-1.441214047372341156e-02,3.649213314056396484e-01,-2.516003549098968506e-01,1.006025671958923340e-01,9.177003800868988037e-02,1.700183600187301636e-01,1.978704147040843964e-02,2.596556395292282104e-02,2.404092848300933838e-01,1.623476296663284302e-02,-1.277502924203872681e-01,-1.271351128816604614e-01,-4.265522584319114685e-02,3.380160629749298096e-01,-5.545926280319690704e-03,-2.599818408489227295e-01,1.097862794995307922e-01,4.173273444175720215e-01,1.957449615001678467e-01,-4.084432125091552734e-01,-8.750212937593460083e-02,-1.670590341091156006e-01,-1.293121725320816040e-01,-4.106224775314331055e-01,-1.087045297026634216e-01,-3.553958833217620850e-01,-4.729945212602615356e-02,1.541734784841537476e-01,-1.846518963575363159e-01,-5.445989966392517090e-02,-1.889776252210140228e-02,-1.933739893138408661e-02,4.307311773300170898e-02,-3.180245682597160339e-02,3.639825060963630676e-02,-3.301759362220764160e-01,-5.667562037706375122e-02,-1.581924408674240112e-01,-3.095381259918212891e-01,-2.041902542114257812e-01,8.969833701848983765e-02,2.890633046627044678e-01,-2.102160304784774780e-01
-1.338951438665390015e-01,4.464960694313049316e-01,-2.279110252857208252e-03,1.914433687925338745e-01,9.719126671552658081e-02,-9.304352104663848877e-02,-1.433961689472198486e-01,-1.988864243030548096e-01,1.649267822504043579e-01,1.171157881617546082e-01,-7.571145147085189819e-02,1.273660510778427124e-01,-3.511036932468414307e-01,1.699551343917846680e-01,-1.275319308042526245e-01,-6.175630167126655579e-02,2.318941056728363037e-01,-2.222058326005935669e-01,-9.525556862354278564e-02,3.313273191452026367e-01,3.706075251102447510e-01,1.737194657325744629e-01,7.788573950529098511e-02,-9.043028950691223145e-02,-7.499572634696960449e-02,4.109677672386169434e-01,-6.574425846338272095e-02,-2.994376122951507568e-01,3.477534055709838867e-01,-2.580702006816864014e-01,-3.514931499958038330e-01,-7.813990861177444458e-02,-1.326231565326452255e-02,-3.270201981067657471e-01,-1.075213402509689331e-01,-3.270756006240844727e-01,6.305157393217086792e-02,-7.731594145298004150e-02,-1.063158642500638962e-02,-1.148272454738616943e-01,-1.497430652379989624e-01,-2.212367504835128784e-01,-9.285946190357208252e-02,-1.840129122138023376e-02,-9.028062224388122559e-02,-2.628449201583862305e-01,-4.114632010459899902e-01,3.808107078075408936e-01,3.708612620830535889e-01,7.598440349102020264e-02
1.110134795308113098e-01,-6.012635231018066406e-01,-3.264543414115905762e-01,-1.371186506003141403e-02,6.934287399053573608e-02,2.332803979516029358e-02,5.700842943042516708e-03,1.153321284800767899e-02,2.648063562810420990e-02,2.821576595306396484e-01,-8.644861727952957153e-02,-3.779132664203643799e-02,-1.812406778335571289e-01,6.517419219017028809e-02,7.686630636453628540e-02,-4.011164233088493347e-02,3.701256215572357178e-01,-2.729725465178489685e-02,1.303594857454299927e-01,1.805533319711685181e-01,6.036887764930725098e-01,-8.737225085496902466e-02,5.610216036438941956e-02,-1.368612200021743774e-01,1.856113970279693604e-01,5.799233540892601013e-02,2.774917483329772949e-01,-2.217770740389823914e-02,1.417854726314544678e-01,1.226308867335319519e-01,3.390836417675018311e-01,1.341326981782913208e-01,1.378514245152473450e-02,1.644245535135269165e-01,-2.752562761306762695e-01,4.456298798322677612e-02,-2.700067311525344849e-02,-7.897886447608470917e-03,-6.370774656534194946e-02,1.168109551072120667e-01,-2.524139285087585449e-01,1.989499479532241821e-02,2.070835977792739868e-02,2.662769705057144165e-02,2.740469574928283691e-01,1.377429366111755371e-01,-2.110182195901870728e-01,-2.375385537743568420e-02,4.450757205486297607e-01,-2.173976898193359375e-01
-2.479418665170669556e-01,-1.366429775953292847e-01,3.738814964890480042e-02,1.694720995146781206e-04,-1.616195589303970337e-02,3.496488183736801147e-02,-8.522887527942657471e-02,1.818976551294326782e-02,2.685663402080535889e-01,-2.114879153668880463e-02,-2.396313659846782684e-02,-5.816830322146415710e-02,2.471096664667129517e-01,-3.269141539931297302e-02,-1.013087928295135498e-01,-1.090873628854751587e-01,1.927675493061542511e-02,8.190131187438964844e-02,1.978368870913982391e-02,-4.882538318634033203e-02,9.192992746829986572e-02,-1.062985807657241821e-01,6.875165551900863647e-02,-6.277026236057281494e-02,-1.573867052793502808e-01,4.972071573138237000e-02,1.801809668540954590e-01,-3.868465870618820190e-02,-2.283125929534435272e-02,-1.606588996946811676e-02,1.425075810402631760e-02,-4.182504024356603622e-03,-8.834822103381156921e-03,7.534950971603393555e-03,1.629197001457214355e-01,-3.673355579376220703e-01,-3.583621606230735779e-02,5.057933554053306580e-02,-6.712892651557922363e-02,-1.323765218257904053e-01,3.955420106649398804e-02,-1.207138523459434509e-01,-1.189283430576324463e-01,-6.309542804956436157e-02,2.050217837095260620e-01,-1.281552016735076904e-01,-2.198253422975540161e-01,5.828461050987243652e-02,1.997983604669570923e-01,-1.029560789465904236e-01
3.027395531535148621e-02,1.975330263376235962e-01,-3.956773132085800171e-02,1.367308944463729858e-01,8.444868773221969604e-02,-9.686782956123352051e-02,-3.042576275765895844e-02,-2.129308283329010010e-01,1.723818182945251465e-01,-1.109348088502883911e-01,7.652430795133113861e-03,-2.054722048342227936e-02,4.540027305483818054e-02,-3.350190818309783936e-02,2.269902825355529785e-01,-4.597803577780723572e-02,-9.058327227830886841e-02,2.750168442726135254e-01,1.027954518795013428e-01,1.458426355384290218e-03,3.268175721168518066e-01,-1.704430580139160156e-01,-6.920506060123443604e-02,-3.944357335567474365e-01,2.953359484672546387e-02,8.292765170335769653e-02,-3.172646835446357727e-02,-2.126046121120452881e-01,6.212892383337020874e-02,-3.191609680652618408e-02,2.672961652278900146e-01,2.415279299020767212e-02,-2.945376634597778320e-01,1.596289500594139099e-02,1.685083210468292236e-01,-1.888290978968143463e-02,2.590293288230895996e-01,2.639650106430053711e-01,-1.588905155658721924e-01,2.678733766078948975e-01,-7.833443582057952881e-03,-7.595927268266677856e-02,-3.145039379596710205e-01,6.200026348233222961e-02,1.203660517930984497e-01,-2.682607471942901611e-01,-3.805363476276397705e-01,-7.055824995040893555e-02,-2.896287292242050171e-02,-2.340869754552841187e-01
-1.132153198122978210e-01,-3.386568278074264526e-02,-1.122318357229232788e-01,2.876355648040771484e-01,-1.790518760681152344e-01,-1.600966453552246094e-01,-9.547830373048782349e-02,3.008640930056571960e-02,1.780059933662414551e-01,-5.265038087964057922e-02,-6.770332157611846924e-02,-1.315949559211730957e-01,-1.203404963016510010e-01,1.226080581545829773e-01,-2.939981967210769653e-02,3.062909655272960663e-02,2.320863679051399231e-02,-1.534767299890518188e-01,6.551876664161682129e-02,1.662985980510711670e-01,3.455097079277038574e-01,3.121549487113952637e-01,1.159569397568702698e-01,-1.960969716310501099e-02,2.718822658061981201e-01,-7.347282022237777710e-02,-5.956491455435752869e-02,-9.413493098691105843e-04,-1.238883063197135925e-01,-1.185303628444671631e-01,3.951216340065002441e-01,-6.217578798532485962e-02,-2.166151255369186401e-02,4.081879928708076477e-02,1.511028688400983810e-02,1.903690993785858154e-01,1.220088377594947815e-01,4.032319039106369019e-02,-4.761888831853866577e-02,1.121177971363067627e-01,2.505769394338130951e-02,1.102452352643013000e-01,2.770204283297061920e-02,-8.356394618749618530e-02,-9.037800133228302002e-02,4.242943599820137024e-02,1.875169724225997925e-01,-1.805664747953414917e-01,-4.457237198948860168e-02,-3.379912078380584717e-01
-1.547870784997940063e-01,1.702345311641693115e-01,5.711113661527633667e-02,7.639813423156738281e-02,-1.845558732748031616e-02,3.302760794758796692e-02,-5.522564798593521118e-02,-3.817843273282051086e-02,2.123394161462783813e-01,1.033968776464462280e-01,-3.024725615978240967e-02,1.111352890729904175e-01,-2.670440375804901123e-01,2.459927089512348175e-02,-2.119081020355224609e-01,-8.016091585159301758e-02,-7.560471072793006897e-03,-2.544677443802356720e-02,-1.742941886186599731e-02,-4.212648048996925354e-02,3.825365900993347168e-01,-1.751091182231903076e-01,-2.800428867340087891e-02,8.637606166303157806e-03,2.365445494651794434e-01,-1.047704443335533142e-01,-1.004721224308013916e-01,-1.189613193273544312e-01,-8.913096040487289429e-03,-2.338484674692153931e-01,-2.395975142717361450e-01,3.722045570611953735e-02,-3.092666520387865603e-05,-4.731925576925277710e-02,3.875019028782844543e-02,-3.359594345092773438e-01,-2.748735994100570679e-02,-3.674983978271484375e-02,1.013581678271293640e-01,3.641698881983757019e-02,-2.530801855027675629e-02,-1.360817998647689819e-01,-1.277388334274291992e-01,-3.041474521160125732e-02,1.464159339666366577e-01,7.533863186836242676e-02,-1.473498195409774780e-01,3.261623680591583252e-01,-3.975189477205276489e-02,3.370482474565505981e-02
1.239851713180541992e-01,-1.015904024243354797e-01,2.923918366432189941e-01,-4.306183755397796631e-02,1.583766043186187744e-01,1.189196109771728516e-02,1.641994714736938477e-01,2.733281347900629044e-03,5.019104480743408203e-01,3.782927617430686951e-02,-3.806249499320983887e-01,3.625169023871421814e-02,-7.412610203027725220e-02,-1.348751932382583618e-01,1.142606511712074280e-02,-2.973970957100391388e-02,-1.698475033044815063e-01,2.124780975282192230e-02,-3.522725030779838562e-02,-1.327112913131713867e-01,2.394032292068004608e-02,-1.503013074398040771e-01,-8.090180158615112305e-02,1.169301122426986694e-01,-1.133433636277914047e-02,1.125464215874671936e-01,5.084527656435966492e-02,1.409602314233779907e-01,-1.632421165704727173e-01,-4.433178901672363281e-01,1.666199117898941040e-01,1.951058208942413330e-02,2.479604929685592651e-01,6.282203644514083862e-02,9.466569125652313232e-02,-3.164554834365844727e-01,-1.674499064683914185e-01,-5.515991896390914917e-02,9.600912034511566162e-02,7.752171903848648071e-02,-1.624906435608863831e-02,-2.046191841363906860e-01,-5.898623540997505188e-02,1.315093487501144409e-01,-1.397747248411178589e-01,-1.114143654704093933e-01,-2.357744127511978149e-01,-1.910118460655212402e-01,2.793415486812591553e-01,3.178907930850982666e-02
2.459647208452224731e-01,-4.330361783504486084e-01,-7.670482993125915527e-02,1.230636388063430786e-01,9.588633477687835693e-02,8.824249356985092163e-02,-1.297859400510787964e-01,1.053230762481689453e-01,-1.930876970291137695e-01,1.842599064111709595e-01,-2.939182892441749573e-02,-5.681117624044418335e-02,3.501242399215698242e-01,7.002083957195281982e-02,-6.386654078960418701e-02,1.884720474481582642e-02,-3.251436725258827209e-02,-2.294119149446487427e-01,3.602180629968643188e-02,2.987726330757141113e-01,2.947758734226226807e-01,-4.783149063587188721e-02,-1.108459159731864929e-01,1.975023932754993439e-02,-7.070710510015487671e-02,3.229307010769844055e-02,2.014647871255874634e-01,7.780800014734268188e-02,-5.093507841229438782e-02,5.951459333300590515e-02,1.457250118255615234e-01,3.769474104046821594e-02,-9.873061627149581909e-02,6.982728838920593262e-02,4.212256148457527161e-02,-2.244139313697814941e-01,-4.992850869894027710e-02,-6.051729246973991394e-02,-7.173738628625869751e-02,-9.476075321435928345e-02,1.761122979223728180e-02,-1.854422241449356079e-01,6.886181235313415527e-02,-4.310789331793785095e-02,-7.223857194185256958e-02,4.434502124786376953e-02,-1.494550611823797226e-02,-3.372300649061799049e-03,1.907341778278350830e-01,-1.259113848209381104e-01
-2.359111607074737549e-01,1.197769418358802795e-01,2.414666265249252319e-01,-1.283770352602005005e-01,1.790259182453155518e-01,1.572016477584838867e-01,-1.706048995256423950e-01,-1.031221598386764526e-01,3.113680779933929443e-01,-1.014265641570091248e-01,4.896602779626846313e-02,-1.107220537960529327e-02,7.746061682701110840e-02,-7.774081826210021973e-02,-4.061470553278923035e-02,-7.808479666709899902e-02,1.801737248897552490e-01,2.663605846464633942e-02,-4.215967282652854919e-02,1.300273537635803223e-01,2.562893331050872803e-01,-8.098731935024261475e-02,1.624806085601449013e-03,4.050422459840774536e-02,3.506789207458496094e-01,3.409447669982910156e-01,2.144374698400497437e-02,-1.583177596330642700e-01,1.017769575119018555e-01,-3.105164133012294769e-02,-3.096163868904113770e-01,-4.526511207222938538e-02,-2.477701753377914429e-01,-1.122504100203514099e-02,6.031191721558570862e-02,-3.609765693545341492e-02,4.890345036983489990e-02,2.524358406662940979e-02,-4.954267665743827820e-02,-7.518033497035503387e-03,-5.777687206864356995e-02,-1.584940254688262939e-01,-1.955027729272842407e-01,-3.095764666795730591e-02,2.232224307954311371e-02,2.878533676266670227e-02,-1.881036907434463501e-01,-3.612147644162178040e-02,-9.467610158026218414e-03,-2.958960533142089844e-01
-2.573063224554061890e-02,2.668515779078006744e-02,-4.331633448600769043e-03,-6.072010844945907593e-02,-1.808103919029235840e-02,3.827034309506416321e-02,8.757994510233402252e-03,-1.260126978158950806e-01,4.801032841205596924e-01,-1.070091407746076584e-02,-1.135575249791145325e-01,-4.134109243750572205e-02,-1.468716114759445190e-01,1.230081692337989807e-01,-7.834606617689132690e-02,-2.351971343159675598e-02,2.853305041790008545e-01,-2.427973411977291107e-02,-3.804980590939521790e-02,5.560309067368507385e-02,4.872255027294158936e-01,-2.954081594944000244e-01,1.788849085569381714e-01,-1.310573369264602661e-01,-7.455887645483016968e-02,-1.384977698326110840e-01,5.865377187728881836e-02,-1.958335377275943756e-02,-1.574032455682754517e-01,-1.767609715461730957e-01,1.577420160174369812e-02,-6.218625977635383606e-02,-5.633180495351552963e-03,-7.632664591073989868e-02,1.054572537541389465e-01,-1.860879063606262207e-01,2.317825797945261002e-03,8.069184422492980957e-02,-7.025427371263504028e-02,1.720597445964813232e-01,1.989371515810489655e-02,-1.770170927047729492e-01,1.561542414128780365e-02,-7.204689830541610718e-02,3.889006748795509338e-02,3.834038740023970604e-03,-2.142974138259887695e-01,-2.197441607713699341e-01,1.220282018184661865e-01,-3.787530362606048584e-01
1.285709589719772339e-01,2.714024484157562256e-01,1.916722804307937622e-01,-3.312105834484100342e-01,6.041030213236808777e-02,7.283184677362442017e-03,-2.615736797451972961e-02,8.982235938310623169e-02,6.890706717967987061e-02,-1.846356987953186035e-01,-7.255342602729797363e-02,8.257179707288742065e-02,-1.026384159922599792e-01,-1.205408871173858643e-01,-1.031548678874969482e-01,2.941041588783264160e-01,3.075959393754601479e-03,-9.705883264541625977e-02,-5.298164114356040955e-02,1.516819559037685394e-02,1.774777472019195557e-01,-4.752947762608528137e-02,-3.098652660846710205e-01,1.009203344583511353e-01,2.485048472881317139e-01,-7.125678658485412598e-02,6.556052714586257935e-02,-1.894800066947937012e-01,2.126024365425109863e-01,-4.950161278247833252e-02,-5.695983171463012695e-01,7.948995381593704224e-02,-7.723978161811828613e-02,-1.886177808046340942e-01,9.394613653421401978e-02,-3.167716264724731445e-01,-8.246540278196334839e-02,-4.176986590027809143e-02,-4.034961387515068054e-02,-6.473102420568466187e-02,-6.395868211984634399e-02,4.532442986965179443e-02,-2.090181112289428711e-01,-3.920492963516153395e-05,-6.568287312984466553e-02,-6.530508399009704590e-02,-3.847191035747528076e-01,2.550387978553771973e-01,1.073241904377937317e-01,8.648657798767089844e-02
-2.196159660816192627e-01,4.517106413841247559e-01,3.398045599460601807e-01,5.940564908087253571e-03,1.507779955863952637e-01,8.915033936500549316e-02,-2.229611873626708984e-01,8.251032233238220215e-02,3.564766943454742432e-01,-1.553948074579238892e-01,1.273554712533950806e-01,-1.819641329348087311e-02,-3.411171957850456238e-02,-7.401704043149948120e-02,-5.839701741933822632e-02,1.683052629232406616e-01,2.117580473423004150e-01,-5.457416176795959473e-02,-1.265876293182373047e-01,-9.239643067121505737e-02,1.186754405498504639e-01,6.397398561239242554e-02,-2.071925997734069824e-01,6.454865634441375732e-02,4.307309091091156006e-01,-1.393026709556579590e-01,-2.483441978693008423e-01,-1.332624107599258423e-01,-1.104315370321273804e-01,-1.061441823840141296e-01,-3.878341019153594971e-01,-7.511646300554275513e-02,1.306100636720657349e-01,-2.822217941284179688e-01,1.158108487725257874e-01,-2.898603975772857666e-01,-4.103660583496093750e-02,5.084234289824962616e-03,-3.910972923040390015e-02,-1.876314356923103333e-02,7.135885767638683319e-03,4.688802361488342285e-02,-2.145220488309860229e-01,-1.767555996775627136e-02,4.854688420891761780e-03,-2.383836060762405396e-01,-2.556405961513519287e-01,1.215471699833869934e-01,1.727717071771621704e-01,-2.442794740200042725e-01
1.586297899484634399e-02,1.715870648622512817e-01,7.079005241394042969e-02,-1.469013839960098267e-01,2.195221930742263794e-02,-5.047423765063285828e-02,6.024751439690589905e-02,1.693254560232162476e-01,9.438741952180862427e-02,-2.288343310356140137e-01,-1.885255239903926849e-02,1.681587845087051392e-02,-2.286682426929473877e-01,1.387212518602609634e-02,-2.639903128147125244e-02,1.458502560853958130e-01,-8.683894760906696320e-03,-1.103028953075408936e-01,-6.924247834831476212e-03,1.181257143616676331e-01,2.598152160644531250e-01,4.431019350886344910e-02,-2.255852892994880676e-02,7.834380492568016052e-03,1.049524769186973572e-01,-2.946103811264038086e-01,5.022299662232398987e-02,1.524003781378269196e-02,-2.714396081864833832e-02,-1.990928202867507935e-01,-1.203942298889160156e-01,4.736068949569016695e-04,-7.732499390840530396e-02,-1.774724125862121582e-01,1.024272516369819641e-01,-4.632575064897537231e-02,1.093447506427764893e-01,5.788937583565711975e-02,-9.384285658597946167e-02,7.085087150335311890e-02,-1.576300337910652161e-02,-4.795241728425025940e-02,4.159298166632652283e-02,-6.644534319639205933e-02,4.458965361118316650e-02,-9.249867498874664307e-02,-2.148984819650650024e-01,1.471421273890882730e-04,3.102610111236572266e-01,-2.187600284814834595e-01
1.825389415025711060e-01,-1.894017010927200317e-01,3.317287191748619080e-02,4.818577468395233154e-01,6.665936112403869629e-02,-4.857567846775054932e-01,6.775425374507904053e-02,1.058071181178092957e-01,1.595117151737213135e-01,-6.606297940015792847e-02,-1.244394853711128235e-01,-4.989239946007728577e-02,-5.764959007501602173e-02,1.778654381632804871e-02,-1.586257666349411011e-02,-1.581821590662002563e-01,-8.508300781250000000e-02,-2.451294511556625366e-01,-2.710091136395931244e-02,-6.225073710083961487e-02,2.110795676708221436e-01,4.860819131135940552e-02,2.031896859407424927e-01,-1.675302237272262573e-01,-2.031990587711334229e-01,2.776175439357757568e-01,-2.639259994029998779e-01,-1.367993354797363281e-01,1.186573207378387451e-01,-5.153674483299255371e-01,5.272985622286796570e-02,-1.029885038733482361e-01,-1.938805878162384033e-01,-9.032020717859268188e-02,8.476197719573974609e-02,-8.384386077523231506e-03,-1.168581992387771606e-01,3.280441835522651672e-02,1.291598379611968994e-01,-1.350974738597869873e-01,1.923587173223495483e-02,-7.177988439798355103e-02,1.851218286901712418e-03,-1.886397786438465118e-02,-1.076434273272752762e-02,-1.829529367387294769e-02,-3.718435391783714294e-02,3.212860822677612305e-01,2.368501387536525726e-02,2.225441783666610718e-01
1.569718569517135620e-01,2.446494996547698975e-01,1.014003604650497437e-01,1.625464856624603271e-01,1.021893620491027832e-01,2.835086882114410400e-01,-1.588227897882461548e-01,5.828814581036567688e-02,3.104806542396545410e-01,-1.441810876131057739e-01,4.642953723669052124e-02,5.536898970603942871e-02,4.715904220938682556e-02,8.039580285549163818e-02,1.739042848348617554e-01,1.067229360342025757e-01,1.796035319566726685e-01,-1.846274733543395996e-01,-1.369479000568389893e-01,-2.031576931476593018e-01,2.016357332468032837e-01,1.029664278030395508e-01,-1.029641479253768921e-01,5.486278608441352844e-02,3.962182104587554932e-01,3.108508884906768799e-01,-1.232161670923233032e-01,-1.213013902306556702e-01,-8.702276647090911865e-02,-3.462687730789184570e-01,-2.530255615711212158e-01,-1.299249082803726196e-01,-1.474379748106002808e-02,-8.984414488077163696e-02,6.520892679691314697e-02,-1.512175649404525757e-01,7.834817469120025635e-02,-1.337208668701350689e-03,1.253288835287094116e-01,7.260279357433319092e-02,-3.924184292554855347e-02,-1.783945113420486450e-01,-3.266234099864959717e-01,8.192917704582214355e-02,1.005475521087646484e-01,-5.317729115486145020e-01,-3.099094331264495850e-01,-1.585469953715801239e-02,1.649887710809707642e-01,-2.474211901426315308e-01
5.715873837471008301e-02,-8.812988400459289551e-01,5.263518542051315308e-02,1.557358205318450928e-01,-6.759108603000640869e-02,2.600298635661602020e-02,2.176476567983627319e-01,-6.452675908803939819e-02,3.821664750576019287e-01,-2.128617912530899048e-01,4.251905158162117004e-02,-2.603459656238555908e-01,-2.695308923721313477e-01,2.636834383010864258e-01,-1.219911733642220497e-03,-2.580707967281341553e-01,1.554168313741683960e-01,3.673607110977172852e-01,5.344021320343017578e-01,8.308881521224975586e-02,6.028423309326171875e-01,5.308800339698791504e-01,-1.364174634218215942e-01,2.578674554824829102e-01,4.222050309181213379e-01,1.688523404300212860e-02,3.199940919876098633e-01,3.607370853424072266e-01,-4.399664327502250671e-02,1.520104855298995972e-01,1.770551651716232300e-01,-4.927891492843627930e-02,-3.418298661708831787e-01,8.105398416519165039e-01,-1.932145096361637115e-02,3.075754046440124512e-01,-8.873254805803298950e-02,-1.294162422418594360e-01,-8.189725875854492188e-02,2.405145391821861267e-02,3.504587709903717041e-02,1.789115965366363525e-01,5.130288600921630859e-01,1.400773078203201294e-01,2.928333282470703125e-01,-2.287823408842086792e-01,-1.472882181406021118e-01,-2.192872762680053711e-01,2.317197620868682861e-01,-4.017313718795776367e-01
-6.087813526391983032e-03,-5.150175094604492188e-02,2.225515991449356079e-01,1.813959330320358276e-01,-7.259491086006164551e-02,1.460519134998321533e-01,-6.764563173055648804e-02,-2.459554933011531830e-02,5.924690961837768555e-01,1.357304453849792480e-01,-1.282387971878051758e-01,-4.637734219431877136e-02,-2.385258488357067108e-02,-7.727900892496109009e-02,-4.741984605789184570e-02,-8.888728916645050049e-02,7.214578986167907715e-02,6.195696443319320679e-02,-3.405511006712913513e-02,4.801144078373908997e-02,9.223380684852600098e-02,-1.574793905019760132e-01,9.330307692289352417e-02,-2.650593221187591553e-02,-7.713250815868377686e-02,-3.245614096522331238e-02,1.974817067384719849e-01,1.613118946552276611e-01,-1.508673578500747681e-01,-3.017123937606811523e-01,1.897528171539306641e-01,-1.194766722619533539e-02,-5.526718124747276306e-02,-1.940345205366611481e-02,1.038708612322807312e-01,-3.839243352413177490e-01,-1.781355217099189758e-02,2.077698707580566406e-02,-4.468699172139167786e-02,3.897407790645956993e-03,-9.666196070611476898e-03,-3.711987435817718506e-01,1.272031813859939575e-01,-2.547945640981197357e-02,-2.816960513591766357e-01,1.512828618288040161e-01,-2.374311685562133789e-01,-1.190335303544998169e-01,1.359919905662536621e-01,-2.977982163429260254e-01
-9.908435493707656860e-02,2.550915479660034180e-01,-3.388118371367454529e-02,2.004012763500213623e-01,1.063505187630653381e-01,-1.275823102332651615e-03,-7.362243533134460449e-02,-5.431590229272842407e-02,1.590987890958786011e-01,-6.541889160871505737e-02,1.883142068982124329e-02,-2.983737178146839142e-02,-1.198167353868484497e-01,5.812695622444152832e-02,-6.570538971573114395e-03,2.572559416294097900e-01,1.014240905642509460e-01,7.838397286832332611e-03,-1.855013892054557800e-02,-2.869176492094993591e-02,4.084051847457885742e-01,-4.791579395532608032e-02,-4.587857797741889954e-02,-4.357020929455757141e-02,1.220039464533329010e-02,-8.629559725522994995e-02,-9.879837185144424438e-02,-2.256871014833450317e-01,9.997016936540603638e-02,-1.606550216674804688e-01,2.682479023933410645e-01,-3.735674172639846802e-02,-2.076585888862609863e-01,-7.728206366300582886e-02,-2.796487696468830109e-02,-1.052557211369276047e-02,2.666720189154148102e-02,7.326930295675992966e-03,-6.546745542436838150e-03,-5.299415439367294312e-02,-2.907682582736015320e-02,-1.001654788851737976e-01,1.018577888607978821e-01,-1.802889443933963776e-02,-8.551394194364547729e-02,-1.309252083301544189e-01,-2.351763397455215454e-01,-9.297129511833190918e-02,6.040467415004968643e-03,-1.395261287689208984e-01
-2.762778401374816895e-01,1.650210320949554443e-01,1.477351635694503784e-01,-2.599203884601593018e-01,1.961757242679595947e-01,8.178896456956863403e-02,1.591227799654006958e-01,4.531196504831314087e-02,4.185217022895812988e-01,-1.229062825441360474e-01,-2.991155907511711121e-02,2.535488083958625793e-02,-2.047864794731140137e-01,-5.203799903392791748e-02,-8.706087619066238403e-02,-5.847747251391410828e-02,1.419437527656555176e-01,-1.786964088678359985e-01,3.251476678997278214e-03,2.784562297165393829e-02,2.024370878934860229e-01,-3.932248055934906006e-02,1.073121931403875351e-02,3.024068893864750862e-03,-3.793260082602500916e-02,-5.714889615774154663e-02,-1.050653234124183655e-01,-1.567692011594772339e-01,1.527583152055740356e-01,-2.357057183980941772e-01,4.515816643834114075e-02,4.007719829678535461e-02,2.744791842997074127e-02,-2.023488879203796387e-01,1.415950655937194824e-01,-8.527898043394088745e-02,2.093025892972946167e-01,7.376724481582641602e-02,-1.289031207561492920e-01,-1.631478965282440186e-02,-5.014148727059364319e-02,6.033079698681831360e-02,1.317686289548873901e-01,-9.725840389728546143e-02,-3.704351484775543213e-01,-4.884059727191925049e-02,-1.294594258069992065e-01,-2.085131108760833740e-01,6.273777037858963013e-02,-1.217711940407752991e-01
1.215258389711380005e-01,4.276113584637641907e-02,1.829845607280731201e-01,8.101157844066619873e-02,1.633761376142501831e-01,-5.973471701145172119e-02,-3.143998682498931885e-01,3.172812238335609436e-02,7.208875417709350586e-01,1.070380359888076782e-01,-1.146192103624343872e-01,-3.703945502638816833e-02,-1.637023687362670898e-01,-6.784886587411165237e-03,-6.333267688751220703e-02,7.626478374004364014e-02,2.488399893045425415e-01,-8.651311695575714111e-02,-8.251434564590454102e-02,-6.836514174938201904e-02,1.586911380290985107e-01,-4.227131605148315430e-01,1.043700799345970154e-01,-9.912437200546264648e-02,1.642465591430664062e-02,-6.952787935733795166e-02,1.159121394157409668e-01,2.143779955804347992e-02,-1.077579036355018616e-01,-2.248282134532928467e-01,8.997045457363128662e-02,-1.942896842956542969e-02,4.631971195340156555e-02,5.969115346670150757e-02,8.964063227176666260e-02,-1.165660023689270020e-01,-4.864269401878118515e-03,6.026562303304672241e-02,1.073057204484939575e-01,1.123021394014358521e-01,-1.170272845774888992e-02,-3.662209510803222656e-01,-7.318928837776184082e-02,1.604188582859933376e-03,9.250245243310928345e-02,-2.242969349026679993e-02,-3.746194839477539062e-01,1.988735198974609375e-01,1.121615990996360779e-01,-3.556901812553405762e-01
-3.204566538333892822e-01,-5.182941257953643799e-02,-1.238953471183776855e-01,4.400139451026916504e-01,-2.048952132463455200e-01,-1.592904925346374512e-01,1.308563798666000366e-01,1.367450654506683350e-01,6.244364380836486816e-01,1.583549529314041138e-01,1.624193340539932251e-01,4.868201538920402527e-02,-3.226052522659301758e-01,1.687439233064651489e-01,4.738205112516880035e-03,-6.141943857073783875e-02,6.082173809409141541e-02,-2.741274833679199219e-01,-3.518288210034370422e-02,2.291590571403503418e-01,4.904454350471496582e-01,-1.639015041291713715e-02,-9.578121826052665710e-03,1.819326281547546387e-01,6.883183121681213379e-02,1.738757193088531494e-01,1.659306585788726807e-01,7.212137430906295776e-02,-1.077803373336791992e-01,2.243068665266036987e-01,1.312902420759201050e-01,-1.188315004110336304e-01,-2.319109439849853516e-01,6.484246114268898964e-04,3.204182088375091553e-01,-4.595793038606643677e-02,-1.691725850105285645e-01,2.255408465862274170e-01,-8.919893763959407806e-03,3.521103560924530029e-01,-1.346560269594192505e-01,-2.869111299514770508e-01,2.084041982889175415e-01,-2.607751190662384033e-01,7.081446796655654907e-02,-1.973278671503067017e-01,1.308975666761398315e-01,-1.739720255136489868e-01,2.700305283069610596e-01,-5.265072584152221680e-01
-3.041411936283111572e-01,2.737076282501220703e-01,1.687414497137069702e-01,-2.299277111887931824e-02,-9.943778812885284424e-02,-1.364307552576065063e-01,3.717294633388519287e-01,1.268583536148071289e-01,1.603583097457885742e-01,-2.616490982472896576e-02,-4.089636206626892090e-01,9.757618606090545654e-02,8.702336251735687256e-02,-2.974933981895446777e-01,-6.479168223449960351e-05,-8.497972041368484497e-02,-3.290361464023590088e-01,-9.976581484079360962e-02,-1.176958084106445312e-01,3.534832894802093506e-01,3.028065338730812073e-02,-3.960675299167633057e-01,-1.838033050298690796e-01,-5.230955481529235840e-01,-8.254369720816612244e-03,5.426971986889839172e-02,3.617635741829872131e-02,1.818843036890029907e-01,2.562023103237152100e-01,-9.326818585395812988e-02,-2.310040444135665894e-01,1.460118144750595093e-01,2.730966545641422272e-02,-5.664516240358352661e-02,2.492670565843582153e-01,-3.551753163337707520e-01,-2.022666931152343750e-01,-8.512391149997711182e-02,-2.969693243503570557e-01,1.639874130487442017e-01,2.943943738937377930e-01,1.857743561267852783e-01,1.144361309707164764e-02,1.635570079088211060e-01,-2.815232574939727783e-01,6.114459782838821411e-02,5.036531090736389160e-01,3.511373698711395264e-01,4.463022202253341675e-02,-9.785973280668258667e-02
2.608883082866668701e-01,2.188257724046707153e-01,1.410903781652450562e-01,4.019716382026672363e-01,8.374479413032531738e-02,-2.473548054695129395e-01,-1.315637230873107910e-01,-6.116034090518951416e-02,8.092700690031051636e-02,-3.688980638980865479e-02,-2.430754303932189941e-01,8.242557942867279053e-02,7.323880493640899658e-02,9.980081580579280853e-03,-1.691059768199920654e-02,1.199919059872627258e-01,8.486766219139099121e-01,-2.188269942998886108e-01,-3.589226603507995605e-01,9.770061820745468140e-02,2.505606710910797119e-01,2.014445960521697998e-01,8.610641956329345703e-02,-1.881335228681564331e-01,-3.263871371746063232e-01,7.349323481321334839e-02,-3.181810975074768066e-01,-3.828154802322387695e-01,2.224618643522262573e-01,-5.073545575141906738e-01,-2.065439969301223755e-01,-2.682312726974487305e-01,7.724568247795104980e-02,-4.707513749599456787e-01,6.243914831429719925e-03,-2.551187574863433838e-01,-8.304623514413833618e-02,-1.442791670560836792e-01,-3.693421483039855957e-01,-2.269312292337417603e-01,1.966525102034211159e-03,-3.232921659946441650e-01,-9.980930387973785400e-02,-1.134830191731452942e-01,-3.767603635787963867e-01,-4.742910563945770264e-01,-2.018566131591796875e-01,1.866887360811233521e-01,3.444903492927551270e-01,1.078595295548439026e-01
