-5.962596833705902100e-02,2.809552848339080811e-01,-2.822312116622924805e-01,-3.852433990687131882e-03,-1.017917394638061523e-01,4.004915058612823486e-02,2.971916832029819489e-02,-3.695540130138397217e-02,4.327935874462127686e-01,5.046315491199493408e-02,7.431054115295410156e-02,-2.808236889541149139e-02,-3.414729982614517212e-02,-3.812447935342788696e-02,-1.344206631183624268e-01,-1.743431985378265381e-01,-3.782448470592498779e-01,1.007927730679512024e-01,5.701186507940292358e-02,1.384885609149932861e-01,1.247644349932670593e-01,1.370262801647186279e-01,-1.161499693989753723e-01,-2.122053056955337524e-01,1.132320612668991089e-01,-1.095349863171577454e-01,-1.360935419797897339e-01,-1.829507946968078613e-01,-1.376585215330123901e-01,6.772084534168243408e-02,-6.508870422840118408e-02,-9.479191899299621582e-02,1.081248670816421509e-01,-1.149588078260421753e-01,1.481516808271408081e-01,-1.496138721704483032e-01,8.765459060668945312e-02,-1.344744712114334106e-01,3.618128597736358643e-02,5.463017895817756653e-02,1.355606168508529663e-01,2.010318487882614136e-01,2.651287615299224854e-01,1.820882037281990051e-02,-6.664557009935379028e-02,4.746980592608451843e-02,1.284396946430206299e-01,2.644142806529998779e-01,6.991434842348098755e-02,8.130046725273132324e-02
-6.541655957698822021e-02,-3.107320889830589294e-02,-1.328557729721069336e-01,3.180156350135803223e-01,2.400397807359695435e-01,2.848346158862113953e-02,-1.788803040981292725e-01,3.138119876384735107e-01,8.000052571296691895e-01,-1.719662398099899292e-01,9.493641257286071777e-01,-2.946336865425109863e-01,6.458857655525207520e-02,-2.345502674579620361e-01,-1.960218697786331177e-01,-2.689600586891174316e-01,-9.894366376101970673e-03,-5.244139581918716431e-02,3.222494125366210938e-01,1.730422973632812500e-01,1.022100672125816345e-01,2.865271829068660736e-02,1.587234288454055786e-01,1.346856504678726196e-01,2.815571427345275879e-01,-1.237782314419746399e-01,-5.324323475360870361e-02,-1.916977614164352417e-01,1.004493832588195801e-01,2.445180714130401611e-01,-3.726617395877838135e-01,-6.340494751930236816e-02,3.730406612157821655e-02,-2.911811880767345428e-02,-1.500095427036285400e-01,-5.444407835602760315e-02,-1.481356006115674973e-02,1.039868816733360291e-01,-2.956457436084747314e-01,9.401396661996841431e-02,1.578898131847381592e-01,-2.305474728345870972e-01,8.935367316007614136e-02,7.206326723098754883e-01,-1.487903743982315063e-01,2.892696261405944824e-01,-4.209187626838684082e-02,-1.591628342866897583e-01,-1.543068140745162964e-01,-6.978146731853485107e-02
-1.037116199731826782e-01,1.427232325077056885e-01,-1.582821309566497803e-01,-6.119449064135551453e-02,-1.292709261178970337e-02,4.593452811241149902e-02,7.024602033197879791e-03,-1.228516921401023865e-01,4.037636220455169678e-01,-3.052848577499389648e-02,3.188027441501617432e-01,1.264906078577041626e-01,7.994821667671203613e-02,-5.209716036915779114e-02,-2.392945587635040283e-01,1.008507609367370605e-02,-1.488003581762313843e-01,1.610922664403915405e-01,5.687539651989936829e-02,1.857583224773406982e-01,1.059167366474866867e-02,3.170817717909812927e-02,2.045390754938125610e-01,-1.340068578720092773e-01,-1.373291611671447754e-01,-3.547848388552665710e-02,-1.171758621931076050e-01,-5.157209932804107666e-02,-1.595818996429443359e-01,-1.568477898836135864e-01,-5.382138490676879883e-02,-1.011373475193977356e-01,3.475689291954040527e-01,-5.890940316021442413e-03,2.029267102479934692e-01,1.213063448667526245e-01,-5.359935015439987183e-02,-1.262941360473632812e-01,3.271216899156570435e-02,-1.033344045281410217e-01,6.595268845558166504e-02,1.850512176752090454e-01,2.863495647907257080e-01,-1.151600927114486694e-01,-8.773476630449295044e-02,8.355963230133056641e-02,-1.487412601709365845e-01,-1.463834494352340698e-01,-2.760765552520751953e-01,2.649936638772487640e-02
-5.046952515840530396e-02,7.922986894845962524e-02,-8.260255306959152222e-02,-3.480447083711624146e-02,-1.635497994720935822e-02,-2.732386067509651184e-02,2.152569033205509186e-02,-2.151313796639442444e-02,1.079709008336067200e-01,-1.656782627105712891e-01,-1.049266681075096130e-01,-1.870293170213699341e-02,1.128571759909391403e-02,4.103150591254234314e-02,-1.089860424399375916e-01,-2.122115343809127808e-02,-1.262461841106414795e-01,-4.560297355055809021e-02,-3.289996832609176636e-02,1.518817245960235596e-01,-7.768339663743972778e-02,2.878236118704080582e-03,1.511498391628265381e-01,-2.111152559518814087e-02,6.425681710243225098e-02,1.748352125287055969e-02,-7.018636912107467651e-02,-1.760097295045852661e-01,5.681734997779130936e-03,-1.221389789134263992e-02,-1.053853780031204224e-01,-1.103397905826568604e-01,-7.621003687381744385e-02,-1.427403241395950317e-01,2.364359050989151001e-02,8.744779974222183228e-02,2.923260256648063660e-02,6.182606518268585205e-02,2.934514731168746948e-02,-8.975529670715332031e-02,1.361249983310699463e-01,6.201623752713203430e-02,1.932099163532257080e-01,-4.328741226345300674e-03,2.941597253084182739e-02,-3.139048814773559570e-02,2.221064716577529907e-01,-5.590786039829254150e-02,3.584384545683860779e-02,-2.033991040661931038e-03
3.911149874329566956e-02,1.967459917068481445e-02,-5.180182307958602905e-02,-1.083992570638656616e-01,1.714999228715896606e-02,5.425826087594032288e-02,3.871298395097255707e-03,2.406715899705886841e-01,1.978829205036163330e-01,-5.949881300330162048e-02,5.556725859642028809e-01,-1.720152348279953003e-01,-2.982063218951225281e-02,-1.782256811857223511e-01,-4.324639588594436646e-02,-5.120948702096939087e-02,-9.074499458074569702e-02,-1.115684583783149719e-02,-1.964278668165206909e-01,5.493735671043395996e-01,1.645406335592269897e-01,6.215398386120796204e-02,-1.082550436258316040e-01,-4.317783415317535400e-01,-1.102919951081275940e-01,-1.751064807176589966e-01,-5.332250148057937622e-02,-2.078757584095001221e-01,-4.251625388860702515e-02,5.598523467779159546e-02,-1.557118147611618042e-01,-1.172342970967292786e-01,-2.614907324314117432e-01,2.489043623208999634e-01,-3.573175892233848572e-02,1.651577651500701904e-01,1.996626853942871094e-01,6.513069570064544678e-02,2.348646819591522217e-01,1.588455438613891602e-01,6.447204947471618652e-01,-3.047950267791748047e-01,2.351238280534744263e-01,1.880652308464050293e-01,5.247709155082702637e-02,1.898381486535072327e-02,3.779226839542388916e-01,1.147567704319953918e-01,-9.766982495784759521e-02,-4.249507933855056763e-02
5.115104839205741882e-02,-8.099961280822753906e-01,-4.702968150377273560e-02,1.082915067672729492e+00,-3.576517403125762939e-01,-1.143983304500579834e-01,2.533322870731353760e-01,-7.764598131179809570e-01,-2.251294553279876709e-01,4.881055653095245361e-01,2.199101299047470093e-01,1.408454179763793945e-01,-1.896967887878417969e-01,1.016959920525550842e-02,-5.450202822685241699e-01,2.392008453607559204e-01,-4.384630322456359863e-01,-5.312948226928710938e-01,9.097480028867721558e-02,6.379491686820983887e-01,6.790807843208312988e-01,-2.095349431037902832e-01,6.777421832084655762e-01,6.101609468460083008e-01,6.958200782537460327e-02,3.481774777173995972e-02,-2.079412490129470825e-01,1.730537563562393188e-01,2.154059708118438721e-01,-9.931522421538829803e-03,-7.159939408302307129e-01,4.285758435726165771e-01,9.925942122936248779e-02,-3.833706080913543701e-01,-1.091985031962394714e-01,-3.344484139233827591e-03,1.150672197341918945e+00,1.463373601436614990e-01,7.410013079643249512e-01,-3.547075688838958740e-01,2.049304693937301636e-01,-4.659004807472229004e-01,-1.782318204641342163e-02,5.536627769470214844e-01,-1.083971634507179260e-01,-6.422687172889709473e-01,-1.358714401721954346e-01,1.370955258607864380e-01,-1.638620644807815552e-01,-5.323702096939086914e-01
-2.562056779861450195e-01,-2.515071071684360504e-02,-2.514696717262268066e-01,-1.283297538757324219e-01,3.333246111869812012e-01,-1.660401187837123871e-02,3.544698357582092285e-01,-2.919223308563232422e-01,4.212447404861450195e-01,2.263771370053291321e-02,-3.301116405054926872e-03,-5.804394930601119995e-02,3.041425347328186035e-02,-3.011107444763183594e-01,-1.086038500070571899e-01,-3.266535401344299316e-01,-1.663733124732971191e-01,-1.632599085569381714e-01,4.105881601572036743e-02,6.087801456451416016e-01,1.024853587150573730e-01,1.815135926008224487e-01,-3.277561813592910767e-02,-1.857578903436660767e-01,7.171361893415451050e-02,-5.981724336743354797e-02,-3.729190826416015625e-01,-3.927613496780395508e-01,-6.245043873786926270e-02,-8.656227588653564453e-02,-6.785557270050048828e-01,3.114433288574218750e-01,6.249865144491195679e-02,4.188686907291412354e-01,1.530120819807052612e-01,8.723285794258117676e-02,4.813360050320625305e-02,-1.032951623201370239e-01,4.015370011329650879e-01,5.737028121948242188e-01,3.851124942302703857e-01,1.128778886049985886e-02,2.487569153308868408e-01,9.709576368331909180e-01,5.705062299966812134e-02,-2.138909697532653809e-01,5.946643352508544922e-01,-1.287042349576950073e-01,4.094117321074008942e-03,-4.469997882843017578e-01
5.848820507526397705e-02,-1.783984303474426270e-01,-3.127175569534301758e-01,-1.543871015310287476e-01,5.878140777349472046e-02,-7.401951402425765991e-02,-4.473140835762023926e-02,-8.644856512546539307e-02,1.211079396307468414e-02,8.008052594959735870e-03,-3.240250051021575928e-01,-2.157006710767745972e-01,-5.178222805261611938e-02,-2.171327173709869385e-02,9.876035153865814209e-02,-1.766548156738281250e-01,-1.759782880544662476e-01,-1.617162078619003296e-01,1.464926600456237793e-01,8.218276500701904297e-02,-2.896313369274139404e-01,-1.378182470798492432e-01,-2.319412231445312500e-01,-2.323765605688095093e-01,9.658502787351608276e-02,1.396302785724401474e-02,-1.228564679622650146e-01,-3.188839256763458252e-01,-1.136011555790901184e-01,-1.533135473728179932e-01,-1.254065781831741333e-01,-1.503157466650009155e-01,2.907854020595550537e-01,8.927026391029357910e-02,-1.290660351514816284e-01,-1.512578129768371582e-01,3.465264663100242615e-02,8.453754708170890808e-03,2.632007002830505371e-01,3.178902864456176758e-01,2.925332449376583099e-02,-9.497802704572677612e-02,4.902938902378082275e-01,1.216097250580787659e-01,1.271236687898635864e-01,-1.641882359981536865e-01,2.065662890672683716e-01,-2.880761027336120605e-01,7.587867230176925659e-02,-1.200533881783485413e-01
-1.256329894065856934e+00,4.787738323211669922e-01,5.289418101310729980e-01,-3.271020054817199707e-01,-1.280339598655700684e+00,-1.909542679786682129e-01,-1.030066013336181641e+00,7.759696338325738907e-03,-9.726361036300659180e-01,-2.363938391208648682e-01,7.139335274696350098e-01,-8.895054459571838379e-01,-2.686459422111511230e-01,-3.533541858196258545e-01,1.836785487830638885e-02,-1.124867677688598633e+00,3.608166575431823730e-01,-1.937124609947204590e+00,2.775089144706726074e-01,3.985977470874786377e-01,-6.355935931205749512e-01,1.151507139205932617e+00,-3.570635318756103516e-01,1.687119752168655396e-01,-7.031038403511047363e-01,-3.570292028598487377e-04,-6.227829456329345703e-01,-6.601162254810333252e-02,1.181736215949058533e-01,-6.587312817573547363e-01,4.537948668003082275e-01,-1.636182144284248352e-02,-3.660311400890350342e-01,-4.253168702125549316e-01,-1.196040153503417969e+00,-4.760668277740478516e-01,1.921750754117965698e-01,-1.170753836631774902e+00,-7.716639637947082520e-01,2.335122823715209961e-01,4.598424732685089111e-01,-3.379788398742675781e-01,-4.742238670587539673e-02,-4.457849264144897461e-01,-8.403878659009933472e-02,5.655471086502075195e-01,8.618786334991455078e-01,-4.250130355358123779e-01,1.109449625015258789e+00,5.132560133934020996e-01
3.540466129779815674e-01,1.503070473670959473e+00,-2.339043468236923218e-01,-1.033864021301269531e+00,-9.140475392341613770e-01,-6.258073449134826660e-01,1.826639622449874878e-01,4.899151027202606201e-01,1.409000635147094727e+00,-3.230311870574951172e-01,3.677200973033905029e-01,-1.873134672641754150e-01,-3.808127939701080322e-01,-6.737663745880126953e-01,-8.027842640876770020e-02,-1.030141592025756836e+00,-2.345792502164840698e-01,-6.377931237220764160e-01,3.822454512119293213e-01,1.415683031082153320e-01,4.136311709880828857e-01,4.751103520393371582e-01,1.321182250976562500e+00,-9.032703191041946411e-02,-1.963967978954315186e-01,8.750126361846923828e-01,2.842217385768890381e-01,-1.005817651748657227e+00,1.705385208129882812e+00,5.385120511054992676e-01,-7.068687081336975098e-01,1.189311966300010681e-01,-5.215874910354614258e-01,1.352774024009704590e+00,-4.018507599830627441e-01,5.716517567634582520e-01,-5.390900969505310059e-01,-3.151558339595794678e-01,-9.108405709266662598e-01,4.484471082687377930e-01,9.440132975578308105e-02,9.051600694656372070e-01,3.957869410514831543e-01,-3.192025423049926758e-01,-2.632909119129180908e-01,-1.515380889177322388e-01,4.441057518124580383e-02,-3.640494048595428467e-01,9.287232160568237305e-01,-3.680073916912078857e-01
-8.293521404266357422e-02,4.045704603195190430e-01,-1.182576864957809448e-01,1.939091533422470093e-01,-8.710514754056930542e-02,1.457135826349258423e-01,3.300625458359718323e-02,1.110168360173702240e-02,2.656812965869903564e-02,-2.401152551174163818e-01,-1.312844902276992798e-01,-7.903514057397842407e-02,4.443747177720069885e-02,-1.323215514421463013e-01,-1.053122580051422119e-01,2.990881502628326416e-01,-4.747446998953819275e-02,-1.218078732490539551e-01,1.845864504575729370e-01,-2.689006924629211426e-02,3.573940098285675049e-01,-3.139820322394371033e-02,4.069576561450958252e-01,1.802383810281753540e-01,9.346173703670501709e-02,-1.646957397460937500e-01,-2.784257233142852783e-01,-7.732098549604415894e-02,4.269608855247497559e-02,2.324032783508300781e-02,1.114800572395324707e-01,-6.074624136090278625e-02,-1.615511626005172729e-02,-1.020414382219314575e-01,-5.194550752639770508e-02,2.514619827270507812e-01,3.561421483755111694e-02,3.601014614105224609e-02,3.763098120689392090e-01,-2.579086460173130035e-02,2.751679718494415283e-01,-3.602702319622039795e-01,-1.811661422252655029e-01,-4.170500636100769043e-01,-2.467002570629119873e-01,9.660476446151733398e-02,4.565999209880828857e-01,-2.471920847892761230e-01,-5.824884865432977676e-03,1.211636140942573547e-02
-1.348060816526412964e-01,-2.421696484088897705e-01,-1.968482732772827148e-01,-1.711402684450149536e-01,3.029410913586616516e-02,-2.674050629138946533e-01,-3.753233700990676880e-02,3.124303817749023438e-01,2.653172984719276428e-02,-1.551354825496673584e-01,-3.666883707046508789e-01,-2.112188637256622314e-01,-1.822128775529563427e-03,-1.009101197123527527e-01,-1.557340919971466064e-01,-4.588122665882110596e-01,-4.089221656322479248e-01,-2.523974776268005371e-01,4.576414823532104492e-01,1.229342371225357056e-01,-3.710187971591949463e-01,1.639827638864517212e-01,-4.253093153238296509e-02,-2.674509882926940918e-01,3.233534991741180420e-01,-1.276123374700546265e-01,-1.305237710475921631e-01,5.213752985000610352e-01,-8.906713128089904785e-02,-1.096906736493110657e-01,-2.180876769125461578e-02,-5.329922423698008060e-04,-9.555367380380630493e-02,-3.677849844098091125e-02,-2.906019687652587891e-01,-3.859669566154479980e-01,-2.393565028905868530e-01,-1.527986675500869751e-01,7.061910629272460938e-01,7.464080303907394409e-02,2.187143117189407349e-01,2.006359845399856567e-01,5.430095791816711426e-01,3.468645215034484863e-01,3.272053301334381104e-01,-1.928315609693527222e-01,1.260478887706995010e-02,7.640107721090316772e-02,-1.596648059785366058e-02,-2.293664962053298950e-01
-1.147681549191474915e-01,1.743679493665695190e-02,2.684991247951984406e-02,7.082162052392959595e-02,8.152433484792709351e-02,-6.991107761859893799e-02,-6.227061618119478226e-03,-1.241093650460243225e-01,-1.366371512413024902e-01,4.301924258470535278e-02,1.587051451206207275e-01,-2.365260422229766846e-01,-1.460061371326446533e-01,1.204947009682655334e-02,-2.307118773460388184e-01,-2.772788703441619873e-01,8.622752502560615540e-03,1.016241498291492462e-02,2.061338163912296295e-03,1.823464334011077881e-01,3.697056174278259277e-01,-2.575729787349700928e-01,-4.164180904626846313e-02,1.336785703897476196e-01,-2.464918345212936401e-01,2.565658092498779297e-02,-2.355174869298934937e-01,-1.363087445497512817e-01,-1.456983536481857300e-01,-2.081988006830215454e-01,-4.216636419296264648e-01,-8.527608960866928101e-02,-1.183432042598724365e-01,9.701916947960853577e-03,4.548793137073516846e-01,-6.799559295177459717e-02,2.340213628485798836e-03,-1.772480159997940063e-01,3.809953033924102783e-01,1.122100185602903366e-02,-3.395311301574110985e-03,1.130691915750503540e-02,5.141330361366271973e-01,5.073859095573425293e-01,-7.818540185689926147e-02,4.423733055591583252e-02,-1.494356542825698853e-01,-4.782335832715034485e-03,2.019682377576828003e-01,2.861882150173187256e-01
-6.785422563552856445e-02,1.221261098980903625e-01,6.636573374271392822e-02,-1.741402447223663330e-01,8.685021847486495972e-02,-4.014471918344497681e-02,-2.606740035116672516e-02,-1.698622703552246094e-01,-6.571376323699951172e-02,3.239633738994598389e-01,7.781451195478439331e-02,-1.179931163787841797e-01,4.187599197030067444e-02,1.576809585094451904e-02,2.331476658582687378e-02,-1.853668242692947388e-01,-2.432562112808227539e-01,-1.686902791261672974e-01,2.993919188156723976e-04,4.622866585850715637e-02,-2.220085710287094116e-01,1.009616106748580933e-01,2.607152760028839111e-01,-6.787546724081039429e-02,1.043104454874992371e-01,6.061605364084243774e-02,-8.793947845697402954e-02,-1.840290427207946777e-01,-4.675027355551719666e-02,-1.330871134996414185e-01,-8.134226500988006592e-02,-7.749684620648622513e-03,-1.537347435951232910e-01,-1.272426396608352661e-01,-9.705594182014465332e-02,-3.704961240291595459e-01,9.417383372783660889e-02,6.373524200171232224e-03,-8.190084248781204224e-02,3.054624795913696289e-01,-1.547374427318572998e-01,7.328833639621734619e-02,3.299115598201751709e-01,3.072392046451568604e-01,1.685820072889328003e-01,-1.441087871789932251e-01,3.433309867978096008e-02,1.103276386857032776e-01,1.756636351346969604e-01,-8.432921022176742554e-02
-7.599654048681259155e-02,-2.373469993472099304e-02,4.691778123378753662e-02,-4.206357523798942566e-02,-6.455808132886886597e-02,4.666650202125310898e-03,-1.031782850623130798e-01,-9.859138168394565582e-03,2.658518254756927490e-01,5.780825763940811157e-02,9.913375973701477051e-02,-1.852734982967376709e-01,5.132263991981744766e-03,-7.382275909185409546e-02,9.126413613557815552e-02,4.815522953867912292e-02,-2.265268564224243164e-02,1.132696941494941711e-01,-9.952948987483978271e-02,1.751272529363632202e-01,2.441425994038581848e-02,-1.013911589980125427e-01,7.706928998231887817e-02,-2.249024212360382080e-01,7.901494950056076050e-02,5.523485690355300903e-02,6.724112480878829956e-02,3.600225597620010376e-02,-2.836092002689838409e-02,1.239972840994596481e-02,1.462455652654170990e-02,1.476824097335338593e-02,-6.806837022304534912e-02,-3.513071238994598389e-01,1.307337265461683273e-02,-8.323893696069717407e-02,2.702555805444717407e-02,4.312584549188613892e-02,-7.162608206272125244e-02,1.821210980415344238e-01,-1.948009058833122253e-02,1.904893815517425537e-01,2.882233262062072754e-01,6.650472432374954224e-02,-6.062918901443481445e-02,1.175547670572996140e-02,2.570927143096923828e-01,3.137066960334777832e-02,-2.423386126756668091e-01,-1.538459025323390961e-02
-1.219650059938430786e-01,1.624617427587509155e-01,-1.262667030096054077e-01,1.011797189712524414e-01,1.314074359834194183e-02,1.144639868289232254e-02,5.325110629200935364e-02,1.205292902886867523e-02,-2.818386852741241455e-01,2.376323789358139038e-01,-4.320483207702636719e-01,-1.788275241851806641e-01,4.766763746738433838e-02,-6.169595941901206970e-02,-2.869152426719665527e-01,-1.060613840818405151e-01,-3.431570827960968018e-01,-5.810901056975126266e-03,2.527084052562713623e-01,-2.289365977048873901e-01,4.471121728420257568e-01,1.078353449702262878e-01,5.822899341583251953e-01,1.566805993206799030e-03,-3.678797278553247452e-03,-7.762027531862258911e-02,-8.140602707862854004e-02,1.136905997991561890e-01,-9.428841620683670044e-02,-5.860876664519309998e-02,-1.364644709974527359e-02,1.390713360160589218e-02,-3.316576778888702393e-02,1.543032228946685791e-01,-3.178160637617111206e-02,-6.755021959543228149e-02,-2.251799218356609344e-02,8.108749240636825562e-02,6.352109462022781372e-02,2.556632272899150848e-03,1.542399171739816666e-02,1.019660308957099915e-01,1.432381570339202881e-01,-4.195566102862358093e-02,4.095099493861198425e-02,1.469979882240295410e-01,-1.312861312180757523e-02,-4.296826198697090149e-02,7.136689871549606323e-02,9.862946346402168274e-03
1.179170212708413601e-03,5.348313227295875549e-02,1.291703898459672928e-02,5.400925129652023315e-02,-2.771677263081073761e-02,-3.066664002835750580e-02,-6.764685385860502720e-04,8.138655126094818115e-02,-1.531841903924942017e-01,2.468348667025566101e-02,-1.997865736484527588e-01,-1.305824331939220428e-02,1.061424519866704941e-02,1.942495815455913544e-02,-1.919082999229431152e-01,-4.297164455056190491e-02,-2.132210433483123779e-01,-2.845929190516471863e-02,1.846856437623500824e-02,1.528213452547788620e-02,3.052817285060882568e-01,6.109886243939399719e-02,1.128758192062377930e-01,-3.721247240900993347e-02,4.703964665532112122e-02,-2.541576698422431946e-02,5.085728596895933151e-03,2.104219421744346619e-02,-3.124417178332805634e-02,2.826909534633159637e-02,-6.902621127665042877e-03,3.998586162924766541e-02,7.621411234140396118e-02,-1.411228030920028687e-01,-3.852583095431327820e-02,7.608944922685623169e-02,-2.885712496936321259e-02,3.228569030761718750e-02,-1.036067027598619461e-03,7.413782179355621338e-02,8.922777324914932251e-02,3.791802749037742615e-02,-8.998365141451358795e-03,3.319222927093505859e-01,-3.497565165162086487e-02,-2.158650569617748260e-02,-1.155664995312690735e-01,-3.090494498610496521e-02,9.634099155664443970e-02,-4.046745598316192627e-04
-1.752555668354034424e-01,4.019570350646972656e-01,-2.269310504198074341e-01,1.934471428394317627e-01,-6.813156604766845703e-02,-5.083859562873840332e-01,1.426135599613189697e-01,-1.959492862224578857e-01,1.422868013381958008e+00,-6.680184602737426758e-01,1.241023182868957520e+00,9.250698238611221313e-02,-5.579012632369995117e-01,-8.512721657752990723e-01,1.514338701963424683e-01,-1.864618062973022461e-02,-1.391033083200454712e-01,-1.237825825810432434e-01,-1.154487580060958862e-01,-1.648826301097869873e-01,8.623372316360473633e-01,-4.268335700035095215e-01,1.748436927795410156e+00,-3.854460120201110840e-01,9.232714027166366577e-02,1.872697919607162476e-01,1.959622502326965332e-01,2.357937246561050415e-01,1.433041542768478394e-01,-2.307905405759811401e-01,2.723602056503295898e-01,-2.717154622077941895e-01,5.947228670120239258e-01,2.163417935371398926e-01,1.271252036094665527e-01,2.974305748939514160e-01,1.147704049944877625e-01,-1.426247209310531616e-01,-5.725200772285461426e-01,-2.189905149862170219e-03,-7.310988754034042358e-02,1.215071156620979309e-01,-1.619000285863876343e-01,-1.036855131387710571e-01,-4.464071691036224365e-01,2.433491796255111694e-01,4.843320548534393311e-01,3.337345272302627563e-02,-1.798029243946075439e-01,-2.555259168148040771e-01
-4.121525585651397705e-02,5.864141583442687988e-01,1.363455057144165039e-01,3.777800798416137695e-01,-2.718550264835357666e-01,-1.863249391317367554e-01,-5.975153446197509766e-01,-1.532127410173416138e-01,3.509965837001800537e-01,5.483047366142272949e-01,-6.194760203361511230e-01,-2.067031413316726685e-01,-2.124798744916915894e-01,2.753546535968780518e-01,-2.859728932380676270e-01,-3.956374228000640869e-01,-4.685420393943786621e-01,-1.114064902067184448e-01,2.250063270330429077e-01,-5.003263950347900391e-01,2.751979231834411621e-01,-7.385213971138000488e-01,9.973194599151611328e-01,-2.880909144878387451e-01,-8.846911191940307617e-01,1.840586215257644653e-01,-2.638409435749053955e-01,-1.037477552890777588e-01,3.637603819370269775e-01,-9.138131141662597656e-02,3.728645145893096924e-01,-1.396984010934829712e-01,3.728467971086502075e-02,-2.690558433532714844e-01,7.551091164350509644e-02,6.679099798202514648e-02,4.559520781040191650e-01,-2.328743785619735718e-01,1.245218753814697266e+00,-5.155446529388427734e-01,4.200738370418548584e-01,3.517032265663146973e-01,9.958768635988235474e-02,-6.058557033538818359e-01,6.099328026175498962e-02,-4.470029175281524658e-01,-1.401081383228302002e-01,5.600799918174743652e-01,6.815869361162185669e-02,2.531189844012260437e-02
4.898717999458312988e-01,-1.555481851100921631e-01,-3.014348149299621582e-01,3.611651062965393066e-01,-5.656893923878669739e-02,-3.377852439880371094e-01,-3.757312521338462830e-02,-3.302171230316162109e-01,-3.856455981731414795e-01,3.854542970657348633e-01,-4.639108180999755859e-01,1.563652157783508301e-01,-3.988419473171234131e-01,-2.867270708084106445e-01,-2.577191889286041260e-01,1.339540816843509674e-02,-4.929165840148925781e-01,-4.551089555025100708e-02,1.324961781501770020e-01,3.128393590450286865e-01,2.643846869468688965e-01,-2.822207808494567871e-01,1.461809724569320679e-01,-3.953767009079456329e-03,-1.523201763629913330e-01,-4.828798472881317139e-01,-9.484435431659221649e-03,1.435057967901229858e-01,-4.780933260917663574e-01,-1.170600578188896179e-01,1.935909092426300049e-01,1.081058830022811890e-01,2.622482180595397949e-01,-2.566639184951782227e-01,-9.410429000854492188e-02,7.750823348760604858e-02,-1.715606153011322021e-01,-1.565524041652679443e-01,-1.467837393283843994e-02,2.419868409633636475e-01,3.277751207351684570e-01,3.179650008678436279e-01,8.239384740591049194e-02,2.662449181079864502e-01,-1.813539303839206696e-02,-2.012233883142471313e-01,-2.590274214744567871e-01,-6.380897760391235352e-02,4.232266843318939209e-01,-9.729213267564773560e-02
8.727890998125076294e-02,1.888926476240158081e-01,-2.108247876167297363e-01,-1.376383155584335327e-01,-2.152411825954914093e-02,-8.846826106309890747e-02,-4.917151480913162231e-02,7.591322064399719238e-02,4.171828329563140869e-01,-3.097154758870601654e-02,3.019345402717590332e-01,2.359724640846252441e-01,-1.178198233246803284e-01,-1.192408800125122070e-01,-7.899601757526397705e-02,-1.498585939407348633e-01,3.504985570907592773e-01,-4.412575811147689819e-02,-2.551168203353881836e-01,3.632003068923950195e-01,2.198137044906616211e-01,-2.297975122928619385e-01,-3.942051827907562256e-01,-3.551617637276649475e-02,7.881770282983779907e-02,-6.804201751947402954e-02,3.681474924087524414e-01,3.801669552922248840e-02,-1.115683987736701965e-01,1.385865762131288648e-04,-3.181074559688568115e-01,8.851394988596439362e-03,1.667378693819046021e-01,-3.192482516169548035e-02,7.279467582702636719e-02,-7.055630534887313843e-02,1.567963957786560059e-01,-1.840729713439941406e-01,-3.778422772884368896e-01,1.076942756772041321e-01,-1.909716799855232239e-02,4.231306612491607666e-01,-1.124463006854057312e-01,5.114248022437095642e-02,4.995327442884445190e-02,-1.757853776216506958e-01,-2.622076869010925293e-01,1.740762889385223389e-01,1.718405783176422119e-01,2.261618077754974365e-01
2.141832262277603149e-01,4.926167726516723633e-01,-6.895936280488967896e-02,-8.831065893173217773e-02,4.058999121189117432e-01,-2.872754819691181183e-03,-1.248372136615216732e-03,-3.476884067058563232e-01,5.387566685676574707e-01,-1.205374896526336670e-01,-1.650695204734802246e-01,4.321990907192230225e-01,-1.633083671331405640e-01,9.743351489305496216e-02,2.318587303161621094e-01,7.833425998687744141e-01,-6.900679320096969604e-02,-3.328381180763244629e-01,2.443173229694366455e-01,-3.856654465198516846e-01,6.282854080200195312e-01,-1.228429302573204041e-01,6.529540419578552246e-01,-3.518495708703994751e-02,-3.550414741039276123e-01,1.013067662715911865e-01,2.082373797893524170e-01,1.599038541316986084e-01,-2.831379473209381104e-01,-1.573297679424285889e-01,2.289091497659683228e-01,1.592052169144153595e-02,1.129664033651351929e-01,3.614581227302551270e-01,-1.444099005311727524e-02,-1.092191413044929504e-01,-2.157053351402282715e-01,3.838050961494445801e-01,-1.698347181081771851e-01,1.155320480465888977e-01,2.085337191820144653e-01,6.667125225067138672e-01,-1.597012430429458618e-01,1.018208026885986328e+00,4.913307353854179382e-02,1.163004860281944275e-01,1.775256246328353882e-01,-1.603708267211914062e-01,5.337718129158020020e-01,-6.629863977432250977e-01
3.646913543343544006e-02,-5.377061367034912109e-01,1.828404068946838379e-01,1.352560818195343018e-01,-8.399634957313537598e-01,1.145517360419034958e-02,-2.212934195995330811e-01,2.944197133183479309e-02,1.952899694442749023e-01,-5.467216968536376953e-01,-1.145465523004531860e-01,-1.751974076032638550e-01,-1.038343459367752075e-01,4.419751167297363281e-01,4.600523412227630615e-01,1.604659706354141235e-01,3.242635130882263184e-01,-4.186877310276031494e-01,9.381772577762603760e-02,2.117784470319747925e-01,2.020753920078277588e-02,2.643489241600036621e-01,2.357646673917770386e-01,4.786247313022613525e-01,-2.391396015882492065e-01,-2.573026120662689209e-01,9.098002314567565918e-02,-2.707497477531433105e-01,-3.055908083915710449e-01,-1.227386817336082458e-01,5.919204354286193848e-01,-3.684566318988800049e-01,6.545684486627578735e-02,-2.336861751973628998e-02,-7.192639112472534180e-01,2.090664356946945190e-01,3.018945157527923584e-01,-3.080670833587646484e-01,6.854520738124847412e-02,-4.730838239192962646e-01,2.530919313430786133e-01,-1.005482792854309082e+00,5.150164365768432617e-01,-1.090910911560058594e+00,-1.477349251508712769e-01,6.580914556980133057e-02,-1.271843314170837402e-01,7.012899033725261688e-03,1.197417229413986206e-01,5.724375247955322266e-01
-1.609417051076889038e-01,-6.322526931762695312e-02,-3.903566598892211914e-01,6.470634043216705322e-02,7.990924268960952759e-02,4.115585237741470337e-02,-8.805772289633750916e-03,1.521466821432113647e-01,4.206328094005584717e-01,-7.878857105970382690e-02,4.467801190912723541e-03,3.775608912110328674e-02,-4.803607240319252014e-03,3.913601487874984741e-02,-8.218194544315338135e-02,-4.854295849800109863e-01,-1.791809201240539551e-01,5.805648863315582275e-03,-1.440584510564804077e-01,3.275132775306701660e-01,3.211890757083892822e-01,-2.668697237968444824e-01,5.220806971192359924e-02,-2.873995304107666016e-01,1.294026523828506470e-01,-1.249395012855529785e-01,-1.865123063325881958e-01,-1.998114734888076782e-01,-4.710500687360763550e-02,-1.635984890162944794e-02,-8.678833395242691040e-02,5.891309678554534912e-02,-1.780701875686645508e-01,3.916245102882385254e-01,2.323449701070785522e-01,-4.687555134296417236e-02,-2.045454271137714386e-02,-4.866478964686393738e-02,3.007092475891113281e-01,-1.363035887479782104e-01,1.137646362185478210e-01,3.985066115856170654e-01,4.288804233074188232e-01,-3.029601275920867920e-02,1.613578945398330688e-01,-1.765991300344467163e-01,-1.045116260647773743e-01,-2.900970876216888428e-01,5.550911650061607361e-02,-1.514032185077667236e-01
5.541951581835746765e-02,1.969964653253555298e-01,-9.948968887329101562e-02,-2.300716750323772430e-02,-3.012980222702026367e-01,-2.386306673288345337e-01,3.747437894344329834e-01,5.632694065570831299e-02,6.506584286689758301e-01,-1.483920961618423462e-01,4.736857116222381592e-01,-1.721778512001037598e-01,-8.365481346845626831e-02,2.906258963048458099e-02,-5.804329738020896912e-02,-1.500648111104965210e-01,-8.350671827793121338e-02,3.369542583823204041e-02,-1.240970790386199951e-01,3.958213329315185547e-01,3.469710946083068848e-01,7.170911133289337158e-02,1.954086571931838989e-01,-1.303575783967971802e-01,1.551380753517150879e-01,-8.636716008186340332e-02,9.634986519813537598e-02,-1.362456232309341431e-01,-1.206275448203086853e-01,4.910249635577201843e-02,-2.709865570068359375e-01,-5.253821238875389099e-02,8.284293115139007568e-03,3.236632645130157471e-01,1.197704300284385681e-01,1.194901540875434875e-01,6.353579461574554443e-02,9.647312760353088379e-02,-5.140892267227172852e-01,-1.570867896080017090e-01,-1.710766255855560303e-01,1.401281058788299561e-01,2.125983089208602905e-01,-4.150974005460739136e-02,-9.053919464349746704e-02,-2.175990939140319824e-01,1.123901382088661194e-01,-5.464409291744232178e-02,2.094651013612747192e-01,-6.781450659036636353e-02
7.019176334142684937e-02,2.116579748690128326e-02,4.661115258932113647e-02,-2.326393499970436096e-02,-4.250606521964073181e-02,-4.069442301988601685e-02,2.897962369024753571e-02,-3.922206908464431763e-02,-9.311892092227935791e-02,5.907942540943622589e-03,-2.356027252972126007e-02,2.596104890108108521e-02,-1.758244261145591736e-02,-5.949341505765914917e-02,1.790847033262252808e-01,-4.268438369035720825e-02,-1.569241732358932495e-01,5.364979431033134460e-02,6.668528914451599121e-02,4.162088502198457718e-03,4.178917407989501953e-02,8.233544230461120605e-02,-5.739328265190124512e-02,3.834450989961624146e-02,-9.426536411046981812e-02,8.583671413362026215e-03,-2.514200285077095032e-02,-1.135053634643554688e-01,-1.513502094894647598e-02,5.647288635373115540e-03,-9.054436534643173218e-02,-1.811520308256149292e-01,-1.319510638713836670e-01,-4.830875992774963379e-02,2.226255275309085846e-02,4.609294235706329346e-03,9.028517641127109528e-03,-5.985210835933685303e-02,2.778774499893188477e-02,-1.035584881901741028e-01,1.221516802906990051e-01,-6.231135502457618713e-02,2.656226158142089844e-01,6.727033853530883789e-02,-4.583648219704627991e-02,-2.296373061835765839e-02,-7.925166189670562744e-02,7.296094298362731934e-02,6.982903927564620972e-02,-1.596842892467975616e-02
-4.359017685055732727e-02,5.561739206314086914e-01,-1.822950989007949829e-01,-1.352884471416473389e-01,2.030202746391296387e-02,1.087649017572402954e-01,5.402770265936851501e-02,-2.778003737330436707e-02,3.235965073108673096e-01,-1.414209008216857910e-01,-3.550786897540092468e-02,-4.159041494131088257e-02,8.476164191961288452e-02,-9.720083326101303101e-02,-2.373362518846988678e-02,-2.792660146951675415e-02,-1.185305714607238770e-01,5.207179114222526550e-02,-1.504458338022232056e-01,3.100026249885559082e-01,4.514335393905639648e-01,3.137622773647308350e-01,-9.304942190647125244e-02,-1.239632442593574524e-01,9.526511281728744507e-02,3.046758286654949188e-02,-2.257705777883529663e-01,7.343062013387680054e-02,-7.327842712402343750e-02,1.578411906957626343e-01,-2.357519119977951050e-01,8.523993939161300659e-02,2.099808119237422943e-02,1.294047683477401733e-01,1.154688596725463867e-01,-2.262107729911804199e-01,7.569277286529541016e-02,1.379543840885162354e-01,-2.438973784446716309e-01,1.136173605918884277e-01,1.219184920191764832e-01,7.681562751531600952e-02,2.214512228965759277e-01,2.314821816980838776e-02,-1.051486879587173462e-01,-2.172787338495254517e-01,5.993238091468811035e-01,2.409938275814056396e-01,1.333440542221069336e-01,-9.206549823284149170e-02
2.130458503961563110e-01,-1.150038540363311768e-01,3.501097857952117920e-01,-3.151718676090240479e-01,-6.718761920928955078e-01,-1.187322959303855896e-01,-2.428403347730636597e-01,2.850651144981384277e-01,2.380272895097732544e-01,3.102658689022064209e-01,8.162159919738769531e-01,-1.139809861779212952e-01,-2.126599103212356567e-01,8.677147328853607178e-02,2.534668706357479095e-02,-4.241414070129394531e-01,-3.622107207775115967e-01,4.592921137809753418e-01,-2.559877932071685791e-02,-6.081233918666839600e-02,3.962081074714660645e-01,9.348675608634948730e-03,1.281595230102539062e+00,-1.102964058518409729e-01,-7.171085476875305176e-02,-1.680384576320648193e-01,1.558177769184112549e-01,-6.605601906776428223e-01,-4.567600786685943604e-01,2.424365878105163574e-01,-2.880812287330627441e-01,-1.800463199615478516e-01,3.828007876873016357e-01,-4.832045435905456543e-01,4.858984053134918213e-01,3.600651919841766357e-01,-4.779519736766815186e-01,5.720813274383544922e-01,-9.445405006408691406e-01,3.898920118808746338e-01,1.922670304775238037e-01,6.858539581298828125e-01,2.767795324325561523e-01,-1.671747886575758457e-03,-3.415654301643371582e-01,9.289899468421936035e-02,-1.755499392747879028e-01,-5.299526453018188477e-01,1.722390204668045044e-01,7.313731908798217773e-01
5.744778513908386230e-01,-3.921720981597900391e-01,6.319894194602966309e-01,-1.279685974121093750e+00,7.534030675888061523e-01,-3.777216374874114990e-02,6.242547631263732910e-01,3.224172890186309814e-01,1.381054162979125977e+00,-5.699226260185241699e-01,3.243119418621063232e-01,-3.092116415500640869e-01,-6.993225961923599243e-02,-1.131966188549995422e-01,1.093711610883474350e-02,-1.569319248199462891e+00,-1.741846054792404175e-01,-3.913921415805816650e-01,2.043050825595855713e-01,1.686530560255050659e-01,1.069536089897155762e+00,2.207029312849044800e-01,2.007916450500488281e+00,-3.077112138271331787e-01,2.750248312950134277e-01,7.914559841156005859e-01,-2.112630940973758698e-02,2.967344783246517181e-02,1.638247966766357422e+00,8.800430297851562500e-01,-1.265151977539062500e+00,-2.471797764301300049e-01,1.248257830739021301e-01,4.123735427856445312e-01,-4.948067963123321533e-01,3.489323556423187256e-01,-1.384295105934143066e+00,1.228381842374801636e-01,-1.580624341964721680e+00,7.508171200752258301e-01,7.105145454406738281e-01,4.556107819080352783e-01,-3.535441160202026367e-01,2.950910329818725586e-01,9.646635502576828003e-02,-9.507383406162261963e-02,7.556952536106109619e-02,1.360148191452026367e-01,4.971875250339508057e-01,-1.062311083078384399e-01
8.919180929660797119e-02,2.931273579597473145e-01,-7.556360214948654175e-02,3.993619382381439209e-01,2.678256034851074219e-01,-3.385271728038787842e-01,5.545197725296020508e-01,-4.831900298595428467e-01,-3.535165190696716309e-01,4.855199456214904785e-01,9.160659462213516235e-02,3.419385254383087158e-01,-3.227970302104949951e-01,-2.026546597480773926e-01,-3.854133486747741699e-01,4.785710200667381287e-02,-1.439096927642822266e-01,-5.809588730335235596e-02,-1.184499263763427734e-01,1.240929588675498962e-01,2.020789086818695068e-01,2.652581334114074707e-01,5.291020274162292480e-01,-1.225603222846984863e-01,4.143725931644439697e-01,-2.646611034870147705e-01,-1.526940315961837769e-01,5.708690881729125977e-01,-4.501394927501678467e-01,6.224572658538818359e-02,-1.445641666650772095e-01,3.421121239662170410e-01,1.747075468301773071e-01,-2.457223981618881226e-01,-6.792225409299135208e-03,-1.748772710561752319e-01,2.123574614524841309e-01,2.081868201494216919e-01,1.734650321304798126e-02,1.747516170144081116e-02,2.006197273731231689e-01,-2.209394574165344238e-01,3.642311990261077881e-01,2.647045254707336426e-01,2.734754793345928192e-02,-2.414915263652801514e-01,1.919863522052764893e-01,6.258943676948547363e-01,3.799357414245605469e-01,-2.966099083423614502e-01
9.584068506956100464e-02,1.713260263204574585e-01,-1.086114943027496338e-01,-1.894396245479583740e-01,-1.499921232461929321e-01,1.743815140798687935e-03,-1.972580552101135254e-01,-8.390088379383087158e-02,-1.603686623275279999e-02,-7.951150089502334595e-02,-9.584272652864456177e-02,-1.432879567146301270e-01,-4.950355738401412964e-02,1.104411780834197998e-01,4.688890650868415833e-02,2.544996561482548714e-03,-2.003095746040344238e-01,-1.875323504209518433e-01,1.338224858045578003e-01,-5.511876195669174194e-02,3.935678899288177490e-01,-2.847380936145782471e-01,3.184156715869903564e-01,-2.421800233423709869e-02,2.800118923187255859e-01,9.608925879001617432e-02,-3.911774232983589172e-02,5.762852355837821960e-02,1.346662640571594238e-01,-3.772765770554542542e-02,-3.673271536827087402e-01,-2.691389322280883789e-01,1.196352094411849976e-01,-3.279989063739776611e-01,1.295691430568695068e-01,2.790810465812683105e-01,-1.354579627513885498e-01,-2.295158803462982178e-01,-1.556356847286224365e-01,-3.274712860584259033e-01,3.503223508596420288e-02,-1.934065967798233032e-01,2.592609822750091553e-01,-1.819069832563400269e-01,1.471199747174978256e-02,2.704831659793853760e-01,3.290222212672233582e-02,-1.673402339220046997e-01,2.159269899129867554e-01,-1.303435396403074265e-02
3.792232275009155273e-01,1.919376701116561890e-01,-4.551907181739807129e-01,-3.338786363601684570e-01,-2.553424239158630371e-01,-3.002188205718994141e-01,-1.996740400791168213e-01,4.308562874794006348e-01,6.184145808219909668e-01,-4.948608279228210449e-01,3.969052135944366455e-01,-3.249272108078002930e-01,-1.920852214097976685e-01,-3.399584069848060608e-02,8.878926187753677368e-02,-3.466359078884124756e-01,-1.769258230924606323e-01,7.754411548376083374e-02,-2.796046435832977295e-01,1.742794960737228394e-01,-1.266113948076963425e-02,-2.278425544500350952e-01,-1.669809818267822266e-01,-4.217679500579833984e-01,-2.199489325284957886e-01,-3.609857261180877686e-01,6.040213108062744141e-01,-1.483588851988315582e-02,-3.986609876155853271e-01,-1.004223898053169250e-02,-1.366378962993621826e-01,-1.194070130586624146e-01,3.303236886858940125e-02,2.503846585750579834e-01,-2.924076281487941742e-02,-5.115992948412895203e-02,4.992545768618583679e-02,-5.923002958297729492e-02,-1.448618322610855103e-01,-1.730846613645553589e-01,3.415974378585815430e-01,6.963220238685607910e-01,5.437359809875488281e-01,2.757138311862945557e-01,1.633010953664779663e-01,-1.416053920984268188e-01,-4.121094197034835815e-02,4.034417867660522461e-02,2.082370072603225708e-01,-2.483758479356765747e-01
5.700328201055526733e-02,3.029047846794128418e-01,-1.364773362874984741e-01,-3.830881416797637939e-02,-8.878244087100028992e-03,1.233950443565845490e-02,2.632787227630615234e-01,-1.936839818954467773e-01,6.498861312866210938e-01,7.640050351619720459e-02,4.262978434562683105e-01,-1.552046388387680054e-01,9.370850771665573120e-02,-2.581215500831604004e-01,-1.642284244298934937e-01,-1.336785256862640381e-01,4.293469712138175964e-02,1.523100882768630981e-01,9.824876487255096436e-02,1.081366315484046936e-01,-1.304625570774078369e-01,1.745409518480300903e-01,4.497245550155639648e-01,-1.526683717966079712e-01,1.384463906288146973e-01,-1.283757984638214111e-01,1.135530695319175720e-01,7.739938795566558838e-02,-1.557022333145141602e-01,1.377894729375839233e-01,-1.695266366004943848e-01,-1.096818894147872925e-01,-4.124313220381736755e-02,-2.142535001039505005e-01,1.683542877435684204e-01,5.971083790063858032e-02,2.710384316742420197e-02,-9.862041473388671875e-02,-8.750031888484954834e-02,7.480765134096145630e-02,3.388145565986633301e-02,-2.466715723276138306e-01,3.405711650848388672e-01,-8.133783936500549316e-02,-4.775844514369964600e-02,-5.293408408761024475e-03,4.651220738887786865e-01,7.329484820365905762e-02,-2.170758396387100220e-01,-6.718610227108001709e-02
1.820596009492874146e-01,2.202207595109939575e-01,-1.515728831291198730e-01,-1.138388887047767639e-01,-8.488366752862930298e-02,-2.862141095101833344e-02,-8.422457426786422729e-02,-1.200359910726547241e-01,2.180889435112476349e-02,2.010044902563095093e-01,-1.654063612222671509e-01,-5.335904285311698914e-02,-1.692425273358821869e-02,1.209336966276168823e-01,2.667793631553649902e-01,-7.327677216380834579e-03,-5.360560491681098938e-03,-1.079163551330566406e-01,-8.003034628927707672e-03,-2.064227461814880371e-01,2.998941242694854736e-01,-2.768294811248779297e-01,-2.517246603965759277e-01,-1.899603903293609619e-01,1.735606491565704346e-01,1.566588692367076874e-02,9.593126922845840454e-02,-2.648894190788269043e-01,-7.747681438922882080e-02,-5.544976890087127686e-02,-2.768025696277618408e-01,-2.299028187990188599e-01,8.412189036607742310e-02,6.724589318037033081e-02,-5.079657956957817078e-02,-8.288977295160293579e-02,5.203239247202873230e-02,-2.726785838603973389e-01,-1.639475673437118530e-01,-1.797765344381332397e-01,2.980333864688873291e-01,-5.440036300569772720e-03,3.913481831550598145e-01,-1.961497962474822998e-01,-5.073174089193344116e-02,-1.515978574752807617e-01,-2.819555103778839111e-01,1.088814437389373779e-01,3.255130350589752197e-01,1.277813762426376343e-01
-5.349283106625080109e-03,2.870387732982635498e-01,3.338079750537872314e-01,-2.862196564674377441e-01,-1.036520242691040039e+00,2.575443983078002930e-01,-1.948657073080539703e-02,-6.228949427604675293e-01,-3.004220426082611084e-01,9.259689599275588989e-02,3.586465120315551758e-01,1.225267425179481506e-01,-3.323126435279846191e-01,-3.314225077629089355e-01,8.863325119018554688e-01,-6.714276075363159180e-01,6.680153012275695801e-01,-1.319342702627182007e-01,3.944624066352844238e-01,2.254729717969894409e-01,-3.579513132572174072e-01,1.982738226652145386e-01,-1.355658471584320068e-01,-1.127842068672180176e-02,-2.716396450996398926e-01,7.859595865011215210e-02,-2.982805669307708740e-01,2.305461168289184570e-01,-1.658239811658859253e-01,2.481278777122497559e-02,7.826768606901168823e-02,-3.524277806282043457e-01,-2.496556341648101807e-01,-1.281015723943710327e-01,-1.292276680469512939e-01,-2.141081960871815681e-03,-1.851683557033538818e-01,-1.167023554444313049e-01,4.946099817752838135e-01,4.869379475712776184e-02,-1.619299501180648804e-01,-7.812605500221252441e-01,5.460785627365112305e-01,8.714341521263122559e-01,2.361332774162292480e-01,1.083886146545410156e+00,-1.752730607986450195e-01,-3.059495389461517334e-01,2.999338805675506592e-01,6.534907817840576172e-01
-6.585861742496490479e-02,-3.265596926212310791e-03,1.173506826162338257e-01,-7.529373466968536377e-02,-3.068785741925239563e-02,4.148405976593494415e-03,-1.830060221254825592e-02,-9.480364620685577393e-03,1.200546100735664368e-01,5.179869383573532104e-02,1.651841998100280762e-01,-5.767007917165756226e-02,-1.558251585811376572e-02,-4.028558265417814255e-03,-5.661690607666969299e-02,-1.182565167546272278e-01,-1.483932286500930786e-01,-5.820227041840553284e-02,-1.831559464335441589e-02,4.878850281238555908e-02,-2.377710938453674316e-01,6.177242845296859741e-02,1.084130927920341492e-01,-4.062408953905105591e-02,1.336077451705932617e-01,1.074660122394561768e-01,-4.158747196197509766e-02,-3.246958926320075989e-02,1.936742290854454041e-02,-6.541550159454345703e-02,-7.639627903699874878e-02,3.352179750800132751e-02,2.127969115972518921e-01,-2.314845025539398193e-01,-7.234406471252441406e-02,-2.769757211208343506e-01,1.482167630456387997e-03,6.508583575487136841e-02,-1.110174804925918579e-01,1.628727614879608154e-01,2.652060426771640778e-02,-2.747193910181522369e-02,1.772524975240230560e-02,-1.418226659297943115e-01,-2.317325770854949951e-02,1.255689188838005066e-02,-4.911025613546371460e-02,2.220720201730728149e-01,3.447042405605316162e-02,-5.301277711987495422e-02
-5.418535470962524414e-01,7.053938508033752441e-01,2.665351144969463348e-02,3.325333595275878906e-01,1.467587053775787354e-01,-5.619538426399230957e-01,-3.408745825290679932e-01,-2.026894092559814453e-01,1.954952925443649292e-01,-4.607146680355072021e-01,-4.352107942104339600e-01,-8.367137908935546875e-01,-4.769765734672546387e-01,-1.013033747673034668e+00,-2.192481905221939087e-01,-8.594560027122497559e-01,-7.738968729972839355e-02,-8.730400800704956055e-01,5.772635340690612793e-01,-1.912461966276168823e-01,3.053778111934661865e-01,7.198413461446762085e-02,5.239411070942878723e-02,-5.080643296241760254e-01,-2.793760597705841064e-01,2.702956199645996094e-01,-2.813670635223388672e-01,5.459560453891754150e-02,1.525398343801498413e-01,-3.428039252758026123e-01,4.469743669033050537e-01,1.658196598291397095e-01,-8.630185574293136597e-02,4.819797873497009277e-01,-2.136449366807937622e-01,4.351901113986968994e-01,4.923442751169204712e-02,-6.022518873214721680e-01,-2.700401842594146729e-01,3.719817399978637695e-01,5.392318367958068848e-01,-6.581210345029830933e-02,-1.718886494636535645e-01,-2.746940553188323975e-01,-7.567549943923950195e-01,4.863295704126358032e-02,8.566090464591979980e-01,-2.471722960472106934e-01,5.568789839744567871e-01,3.394248187541961670e-01
1.045420672744512558e-02,4.039030149579048157e-02,-2.049632966518402100e-01,1.462329477071762085e-01,-3.943685442209243774e-02,-9.685905277729034424e-02,1.233734935522079468e-01,-1.031392738223075867e-01,7.374051213264465332e-02,7.608607411384582520e-02,-1.556035876274108887e-01,-1.856729686260223389e-01,-5.423319339752197266e-02,6.369587965309619904e-03,9.545551985502243042e-02,4.094155505299568176e-02,-3.618672192096710205e-01,3.766073286533355713e-02,-2.777859941124916077e-02,1.311776489019393921e-01,1.025834828615188599e-01,-7.535070180892944336e-02,-6.350120157003402710e-02,1.732005178928375244e-02,3.373886272311210632e-02,-7.930627465248107910e-02,-5.191691592335700989e-02,-3.861824423074722290e-02,-1.112283617258071899e-01,-3.929091617465019226e-02,-2.396616339683532715e-02,8.139368146657943726e-02,-1.570033580064773560e-01,6.067870929837226868e-02,3.772357944399118423e-03,-1.450368016958236694e-01,9.088084101676940918e-02,2.007771469652652740e-02,-2.002130076289176941e-02,-6.095233932137489319e-02,2.968729734420776367e-01,3.822267651557922363e-01,2.316454201936721802e-01,-1.291028112173080444e-01,7.959276437759399414e-03,-1.711976714432239532e-02,-2.056908756494522095e-01,7.314141839742660522e-02,9.790843725204467773e-02,3.083869256079196930e-02
-2.235774248838424683e-01,3.325980007648468018e-01,5.590082406997680664e-01,-3.231912851333618164e-01,-1.741037815809249878e-01,8.288778066635131836e-01,-1.866271495819091797e-01,-4.581693708896636963e-01,2.793876528739929199e-01,-3.058374226093292236e-01,7.795742750167846680e-01,3.512365520000457764e-01,7.925187945365905762e-01,7.376148104667663574e-01,6.871844530105590820e-01,1.408503055572509766e+00,7.599037289619445801e-01,1.193608269095420837e-01,3.669038712978363037e-01,6.773917935788631439e-03,5.638153553009033203e-01,2.097737640142440796e-01,-1.189002394676208496e-01,8.394172787666320801e-01,8.434984087944030762e-02,-8.189945667982101440e-02,3.974497616291046143e-01,4.484298825263977051e-01,-2.590919256210327148e+00,-4.896466434001922607e-02,-5.756814479827880859e-01,-2.416863590478897095e-01,1.596551775932312012e+00,2.837377190589904785e-01,5.579913258552551270e-01,3.635322749614715576e-01,1.622325330972671509e-01,7.424709796905517578e-01,9.922053813934326172e-01,3.282853960990905762e-01,1.191366538405418396e-01,-7.464402914047241211e-02,1.975719809532165527e+00,6.284784078598022461e-01,9.423689246177673340e-01,1.781921386718750000e-01,5.194019675254821777e-01,3.871032595634460449e-01,6.547912955284118652e-01,-3.092316389083862305e-01
-2.622079476714134216e-02,-1.155497729778289795e-01,1.100174337625503540e-01,-2.354533039033412933e-02,-2.112343162298202515e-02,-9.473295882344245911e-03,1.047755777835845947e-02,-1.749928146600723267e-01,2.202773094177246094e-02,-2.916509509086608887e-01,3.150787055492401123e-01,1.366103589534759521e-01,-4.834910109639167786e-02,9.028833359479904175e-02,2.336071282625198364e-01,7.451099902391433716e-02,2.168936580419540405e-01,-1.041056588292121887e-01,1.215845048427581787e-01,-2.686278335750102997e-02,-3.198471665382385254e-01,7.033891975879669189e-02,2.990173399448394775e-01,1.864291727542877197e-01,-1.385584473609924316e-02,-3.125653415918350220e-02,-8.627968281507492065e-02,1.285135596990585327e-01,1.578766852617263794e-02,-9.013670496642589569e-03,2.781342267990112305e-01,-2.759743481874465942e-02,1.218717172741889954e-01,2.370129711925983429e-02,-1.967965960502624512e-01,1.906537562608718872e-01,-2.574533037841320038e-02,-1.827260851860046387e-02,6.038487330079078674e-02,-2.244908958673477173e-01,-1.249089166522026062e-01,-3.881497085094451904e-01,2.811247017234563828e-03,-3.742209970951080322e-01,1.362472586333751678e-02,-2.337524667382240295e-02,-2.509165368974208832e-02,-1.166347563266754150e-01,-1.321127116680145264e-01,2.400075495243072510e-01
-5.633699893951416016e-01,-2.993776798248291016e-01,-4.213341772556304932e-01,-1.232252001762390137e+00,9.154776334762573242e-01,2.717208564281463623e-01,9.947585463523864746e-01,2.373583763837814331e-01,3.638510704040527344e-01,-4.581308364868164062e-01,5.113037824630737305e-01,-4.435431957244873047e-01,-8.607883751392364502e-02,-5.502272844314575195e-01,6.151211857795715332e-01,-4.552505910396575928e-01,5.117835402488708496e-01,5.452927350997924805e-01,-3.078593611717224121e-01,9.082124233245849609e-01,2.625358700752258301e-01,2.413563132286071777e-01,3.548816218972206116e-02,-4.933139681816101074e-01,-1.862930506467819214e-01,-2.731462940573692322e-03,-2.418545037508010864e-01,-8.651323318481445312e-01,1.476141959428787231e-01,-2.451642602682113647e-01,-8.431518673896789551e-01,1.842758297920227051e+00,3.718336820602416992e-01,-1.040155887603759766e-01,9.702371060848236084e-02,-1.950927823781967163e-01,1.296754926443099976e-01,-1.667278259992599487e-01,1.358517527580261230e+00,8.991162776947021484e-01,3.378450572490692139e-01,1.114953517913818359e+00,1.178473979234695435e-01,1.046090364456176758e+00,-4.304148256778717041e-01,7.838650345802307129e-01,1.242700368165969849e-01,4.072714745998382568e-01,-9.080810546875000000e-01,-7.096970826387405396e-02
1.045904397964477539e+00,2.458311766386032104e-01,5.937968492507934570e-01,3.948117494583129883e-01,-1.038860917091369629e+00,-2.433972656726837158e-01,-1.280490756034851074e+00,-3.929087817668914795e-01,7.162734866142272949e-01,-1.666451543569564819e-01,2.310806363821029663e-01,-6.341608613729476929e-02,-9.981288015842437744e-02,-2.777524590492248535e-01,-4.231796786189079285e-02,-7.050608992576599121e-01,-2.199820727109909058e-01,-7.105505466461181641e-01,8.891555070877075195e-01,1.056733354926109314e-01,3.767955303192138672e-01,1.344767510890960693e-01,5.837963819503784180e-01,-4.396579265594482422e-01,-2.761837244033813477e-01,-1.169689893722534180e+00,6.121906638145446777e-01,-3.945745229721069336e-01,-1.368099927902221680e+00,-4.151479005813598633e-01,-1.131279096007347107e-01,-2.380506247282028198e-01,2.021755725145339966e-01,-2.041327953338623047e-01,-7.029236108064651489e-02,1.797309815883636475e-01,5.860157012939453125e-01,2.330379039049148560e-01,-3.457294404506683350e-01,-2.735050916671752930e-01,7.321185469627380371e-01,-3.252774104475975037e-02,1.035772204399108887e+00,-2.510686814785003662e-01,-1.356719583272933960e-01,3.636477887630462646e-02,-1.045075803995132446e-01,-1.612087339162826538e-01,6.319121718406677246e-01,1.382732838392257690e-01
-1.758634485304355621e-02,2.329843491315841675e-01,9.219128638505935669e-02,-2.095681428909301758e-01,-1.031593009829521179e-01,1.016039624810218811e-01,8.999475091695785522e-02,-2.129123955965042114e-01,5.508086085319519043e-01,1.882286518812179565e-01,6.826546192169189453e-01,1.055650934576988220e-01,-8.361400663852691650e-02,-1.218298152089118958e-01,-2.054643258452415466e-02,-2.590717673301696777e-01,4.963251203298568726e-02,3.008835390210151672e-02,1.348764896392822266e-01,3.076651394367218018e-01,-1.288916468620300293e-01,-2.037081867456436157e-02,-3.138330578804016113e-01,-7.975412160158157349e-02,1.752024516463279724e-02,9.031601250171661377e-02,8.529104292392730713e-02,1.371157616376876831e-01,4.781728610396385193e-03,1.408237218856811523e-01,6.751871109008789062e-02,1.976680941879749298e-03,2.273301780223846436e-01,-2.489970028400421143e-01,-9.142196923494338989e-02,-2.712430357933044434e-01,-6.649065017700195312e-02,1.368291955441236496e-02,2.010894119739532471e-01,2.568095624446868896e-01,-3.757653012871742249e-02,-3.177852928638458252e-01,1.280111167579889297e-02,2.487849146127700806e-01,-7.454236596822738647e-02,3.604632616043090820e-02,-1.973333954811096191e-01,2.559394240379333496e-01,3.003362379968166351e-02,1.834670603275299072e-01
2.661964111030101776e-02,3.648412227630615234e-01,-9.165616333484649658e-02,-1.388383656740188599e-01,-5.130282416939735413e-02,-5.072108469903469086e-03,-3.879509167745709419e-03,1.094286590814590454e-01,4.199047684669494629e-01,4.358374774456024170e-01,6.119809746742248535e-01,2.745176851749420166e-01,-1.898859068751335144e-02,-6.597587466239929199e-02,2.410381659865379333e-02,-2.020964212715625763e-02,-2.485516220331192017e-01,1.733440160751342773e-01,-1.611142456531524658e-01,3.791803717613220215e-01,2.893277816474437714e-02,-6.120805069804191589e-02,2.064776569604873657e-01,-3.924501240253448486e-01,4.164048731327056885e-01,-1.249240338802337646e-01,-8.102563768625259399e-02,1.746769100427627563e-01,-2.252536714076995850e-01,1.708360575139522552e-02,1.504705697298049927e-01,9.121461212635040283e-02,-1.967364363372325897e-02,1.367583423852920532e-01,4.912685602903366089e-02,-2.901229262351989746e-01,-4.934835433959960938e-02,3.890756517648696899e-02,-1.455707997083663940e-01,2.297995239496231079e-02,5.614114925265312195e-02,3.227599263191223145e-01,3.137547075748443604e-01,4.239727854728698730e-01,2.241000346839427948e-02,-2.190057635307312012e-01,5.982031226158142090e-01,9.392665326595306396e-02,3.284459933638572693e-02,-7.368662208318710327e-02
2.230068743228912354e-01,2.006045132875442505e-01,1.468605846166610718e-01,-1.356559246778488159e-01,9.331378154456615448e-03,-1.281885206699371338e-01,8.932529389858245850e-02,1.338056940585374832e-02,-9.093286842107772827e-02,2.383193969726562500e-01,-7.472541183233261108e-02,-9.400286525487899780e-02,1.483523845672607422e-02,3.032760322093963623e-01,2.598280310630798340e-01,-1.782298833131790161e-02,6.707085669040679932e-02,-1.777903176844120026e-02,-2.870723046362400055e-02,-2.863529026508331299e-01,2.172769606113433838e-02,-1.976131647825241089e-01,-2.228285558521747589e-02,2.345501482486724854e-01,-3.029815852642059326e-01,3.961771354079246521e-02,5.371663719415664673e-03,-2.350387126207351685e-01,-1.759910881519317627e-01,-1.698442399501800537e-01,-2.519117295742034912e-01,-2.015243023633956909e-01,1.923383213579654694e-02,-1.515490114688873291e-01,-1.042602509260177612e-01,1.157532930374145508e-01,1.795575022697448730e-01,-1.753712296485900879e-01,-3.986219167709350586e-01,7.303940504789352417e-02,1.984221637248992920e-01,4.215496778488159180e-02,4.405520260334014893e-01,1.574402600526809692e-01,-3.731273114681243896e-02,-2.030829936265945435e-01,-1.466274112462997437e-01,1.945702880620956421e-01,2.105497419834136963e-01,3.310883790254592896e-02
-4.255685210227966309e-02,6.345565915107727051e-01,1.618327647447586060e-01,-2.370534539222717285e-01,-7.983306795358657837e-02,-7.272738963365554810e-02,9.745780378580093384e-03,1.328796148300170898e-01,7.819166034460067749e-02,-2.997633814811706543e-02,-2.945873141288757324e-01,-1.519670933485031128e-01,-8.328220248222351074e-02,1.094140671193599701e-02,-8.565790206193923950e-02,4.073869064450263977e-02,-9.288400411605834961e-02,4.555618762969970703e-02,5.602160841226577759e-02,-1.198418661952018738e-01,9.521012753248214722e-02,6.107288971543312073e-02,3.794433549046516418e-02,-2.943117916584014893e-01,2.316581457853317261e-01,1.395766139030456543e-01,1.234472841024398804e-01,4.328686371445655823e-02,-9.067782014608383179e-02,1.261054724454879761e-01,-1.714695394039154053e-01,-1.426978856325149536e-01,3.243930172175168991e-03,1.952355541288852692e-02,2.369977766647934914e-03,-3.001396656036376953e-01,6.882183253765106201e-02,1.256677806377410889e-01,6.960697472095489502e-02,1.066362932324409485e-01,9.253674000501632690e-02,-2.055551297962665558e-02,3.912354707717895508e-01,2.156147919595241547e-02,9.345865808427333832e-03,8.875569701194763184e-02,1.529052257537841797e-01,5.002270936965942383e-01,1.107125654816627502e-01,-5.798534676432609558e-02
4.461154714226722717e-02,-8.081281781196594238e-01,-9.144195914268493652e-02,2.162540704011917114e-01,-1.452417373657226562e-01,-1.596724092960357666e-01,-2.446401119232177734e-01,4.687066376209259033e-02,1.960343271493911743e-01,1.019833683967590332e-01,1.896994113922119141e-01,6.572921574115753174e-02,-1.232745796442031860e-01,-1.028701364994049072e-01,-2.181313633918762207e-01,-4.877165257930755615e-01,-2.592151463031768799e-01,-1.274962574243545532e-01,2.488649934530258179e-01,2.773469686508178711e-01,2.667267620563507080e-01,-1.079800277948379517e-01,3.893115520477294922e-01,-3.652754127979278564e-01,-7.349120080471038818e-02,5.667338520288467407e-02,2.089975029230117798e-02,-1.938061863183975220e-01,4.050103724002838135e-01,1.937414705753326416e-01,1.258775889873504639e-01,8.484134823083877563e-02,-2.311841845512390137e-01,-1.925562024116516113e-01,-1.580826342105865479e-01,2.315219789743423462e-01,-1.782880350947380066e-02,2.442116439342498779e-01,6.507327556610107422e-01,-7.898204028606414795e-02,2.719190418720245361e-01,6.296532228589057922e-03,-2.711822651326656342e-02,-1.238008290529251099e-01,-9.679004549980163574e-03,-2.811361253261566162e-01,-2.092635184526443481e-01,-3.393245637416839600e-01,4.750288277864456177e-02,6.894270330667495728e-02
6.322442553937435150e-03,5.131692290306091309e-01,4.419535771012306213e-02,-1.546161025762557983e-01,1.237556897103786469e-02,-4.621162265539169312e-02,1.531489640474319458e-01,-4.106702208518981934e-01,1.463992744684219360e-01,1.801485270261764526e-01,-4.770906567573547363e-01,-7.201833277940750122e-02,-1.203391700983047485e-01,-6.847012042999267578e-02,-1.373746339231729507e-02,-5.036155134439468384e-02,-1.923061907291412354e-01,1.167259514331817627e-01,2.094099372625350952e-01,-2.642010748386383057e-01,-6.955661624670028687e-02,-1.634307354688644409e-01,1.656982749700546265e-01,-1.146836802363395691e-01,3.674780726432800293e-01,1.266681998968124390e-01,7.378643751144409180e-02,9.778270125389099121e-02,-1.482340246438980103e-01,-9.041330218315124512e-02,-1.174653246998786926e-01,-1.790923178195953369e-01,-6.852941960096359253e-02,-2.776433154940605164e-02,1.327683217823505402e-02,-2.931775748729705811e-01,-5.082562938332557678e-02,2.757827378809452057e-02,1.941372305154800415e-01,-1.542163640260696411e-01,1.897461563348770142e-01,2.092717587947845459e-01,4.411363601684570312e-01,-3.985904902219772339e-02,-1.198688223958015442e-01,-2.094638049602508545e-01,1.397664099931716919e-02,6.071072816848754883e-01,2.706742286682128906e-01,6.014600396156311035e-02
-1.192292943596839905e-01,-1.330593973398208618e-01,-1.498285979032516479e-01,3.323972225189208984e-02,-1.892789499834179878e-03,-3.062100848183035851e-03,-1.622940413653850555e-02,-1.833178848028182983e-02,1.059158220887184143e-01,4.300299566239118576e-03,6.662413477897644043e-02,-4.088171198964118958e-02,8.298628032207489014e-03,-3.946501761674880981e-02,1.837015897035598755e-02,1.610096916556358337e-02,-4.301672577857971191e-01,6.889297813177108765e-02,-1.498411502689123154e-02,3.390983045101165771e-01,3.227958977222442627e-01,1.878714747726917267e-02,-7.079219818115234375e-02,-1.023920997977256775e-01,1.368330866098403931e-01,-4.391189292073249817e-02,1.323313172906637192e-02,-1.582579500973224640e-02,-4.509069770574569702e-02,1.070945709943771362e-02,-1.069513987749814987e-02,1.272558979690074921e-02,8.390148729085922241e-02,-9.131524711847305298e-02,-2.448462136089801788e-02,2.435766905546188354e-01,6.036262214183807373e-02,8.591806143522262573e-02,-8.243802934885025024e-02,-1.311083585023880005e-01,1.485440284013748169e-01,3.841887712478637695e-01,1.743813045322895050e-02,3.451151847839355469e-01,-1.658083498477935791e-01,-8.223664760589599609e-02,4.711925983428955078e-02,-2.128358334302902222e-01,1.013722568750381470e-01,1.384873241186141968e-01
8.115576207637786865e-02,5.556093528866767883e-02,-1.519255489110946655e-01,2.938795136287808418e-03,-1.297899633646011353e-01,-5.473290011286735535e-02,-1.358932852745056152e-01,-4.324670508503913879e-02,-3.510871902108192444e-02,1.638443470001220703e-01,-1.522754132747650146e-01,-2.570648491382598877e-01,-5.292142182588577271e-02,-7.331467419862747192e-02,-1.221947148442268372e-01,-1.202052235603332520e-01,-2.900762259960174561e-01,5.802643299102783203e-02,4.199325293302536011e-02,3.727623447775840759e-02,5.379010736942291260e-02,4.124183952808380127e-02,-8.853670209646224976e-02,-2.451627850532531738e-01,-1.415375769138336182e-01,-6.080094724893569946e-02,-3.266894258558750153e-03,1.503305733203887939e-01,-1.222775354981422424e-01,1.353355199098587036e-01,4.911933559924364090e-03,-1.574811041355133057e-01,1.090276986360549927e-01,7.440541684627532959e-02,9.662237018346786499e-03,-7.146142423152923584e-02,3.142711520195007324e-02,-8.941330015659332275e-02,2.114148437976837158e-01,-8.788664638996124268e-02,6.988478451967239380e-02,2.243814170360565186e-01,3.892559111118316650e-01,-2.445397824048995972e-01,4.388188198208808899e-02,-2.628335170447826385e-02,-9.820057451725006104e-02,-5.647319182753562927e-02,4.872822761535644531e-02,-1.366417258977890015e-01
