-3.211100702174007893e-04,-1.415784237906336784e-03,2.587272226810455322e-02,5.717487074434757233e-04,-2.889823867008090019e-03,-8.198730065487325191e-04,3.737193346023559570e-02,2.491374500095844269e-03,-4.518589004874229431e-03,-1.753317192196846008e-03,-5.931616760790348053e-04,4.934389726258814335e-04,-4.322047752793878317e-04,-4.034303128719329834e-02,-2.169128041714429855e-03,-1.601212890818715096e-03,-6.807815516367554665e-04,-6.225047982297837734e-04,-9.103150223381817341e-04,-7.050098502077162266e-04,6.468495726585388184e-02,1.191274859593249857e-04,-6.421364960260689259e-04,-2.269356744363903999e-03,-5.797165213152766228e-04,1.248311400413513184e-01,5.334013621904887259e-05,-2.276152372360229492e-04,-5.040134419687092304e-04,-2.510769409127533436e-04,6.512373802252113819e-04,1.449693809263408184e-03,9.474540129303932190e-04,-1.068659941665828228e-03,-7.116876658983528614e-04,-2.391684800386428833e-03,-1.397135900333523750e-03,-2.397367497906088829e-04,1.587729156017303467e-01,3.267563588451594114e-04,-2.826215932145714760e-03,-1.700572087429463863e-03,1.288314815610647202e-03,-1.285281963646411896e-03,-2.682328049559146166e-04,-3.730361349880695343e-04,-1.879330957308411598e-03,7.224839646369218826e-05,1.657202374190092087e-03,-5.721143679693341255e-04
