-2.749609947204589844e-02,-7.939486950635910034e-02,-1.460682507604360580e-02,-3.024171292781829834e-01,-5.438017472624778748e-02,-4.317761957645416260e-01,-3.943780064582824707e-01,-7.949064671993255615e-02,-6.271488070487976074e-01,-1.082161255180835724e-02,-8.216562867164611816e-02,-3.220847249031066895e-01,-6.213955581188201904e-02,-1.866406761109828949e-02,-4.867983981966972351e-02,-9.735421091318130493e-02,3.106448352336883545e-01,3.710699081420898438e-02,-3.786813467741012573e-03,-1.650091111660003662e-01,-1.931168287992477417e-01,1.626446992158889771e-01,-6.568900942802429199e-01,-3.256128728389739990e-01,5.844904780387878418e-01,-5.100790262222290039e-01,4.445895552635192871e-02,-7.077182084321975708e-02,3.399255573749542236e-01,1.067991554737091064e-01,7.181522995233535767e-02,5.574074387550354004e-01,2.845780849456787109e-01,-4.212015867233276367e-01,-1.941549405455589294e-02,-6.665551662445068359e-01,1.426052302122116089e-01,-3.236757516860961914e-01,-3.433221280574798584e-01,1.375963687896728516e-01,3.150389194488525391e-01,-2.004754841327667236e-01,-1.706332713365554810e-02,7.836771607398986816e-01,1.018835902214050293e-01,-1.745879501104354858e-01,-4.155089706182479858e-02,1.518249213695526123e-01,2.231855131685733795e-02,9.369379281997680664e-02
-3.291234374046325684e-01,2.382640242576599121e-01,-1.119341999292373657e-01,-6.618542671203613281e-01,3.896696269512176514e-01,3.425796627998352051e-01,-2.251330316066741943e-01,7.162705063819885254e-01,2.268429286777973175e-02,7.410346269607543945e-01,2.026052772998809814e-01,1.604422926902770996e-01,1.921722292900085449e-01,-9.288742393255233765e-02,2.351418435573577881e-01,5.767551064491271973e-02,5.782897472381591797e-01,4.233722388744354248e-01,-1.045730188488960266e-01,-3.596845269203186035e-02,9.449665993452072144e-02,1.230719089508056641e-01,1.926430165767669678e-01,-1.138801313936710358e-02,-3.082098662853240967e-01,5.743792057037353516e-01,4.362027049064636230e-01,3.710472881793975830e-01,3.400736153125762939e-01,3.164268434047698975e-01,3.057265579700469971e-01,-4.261305332183837891e-01,3.099602162837982178e-01,-1.441005915403366089e-01,7.634679973125457764e-02,-6.396885514259338379e-01,6.744764000177383423e-02,3.512188494205474854e-01,-3.487671017646789551e-01,1.322794109582901001e-01,-1.864767372608184814e-01,-2.876788079738616943e-01,3.142247498035430908e-01,-2.689245045185089111e-01,-3.899987339973449707e-01,3.633421957492828369e-01,-1.549284458160400391e-01,-3.407794237136840820e-01,7.256119698286056519e-02,-1.962953507900238037e-01
-2.402978092432022095e-01,-7.315876334905624390e-02,-4.775010347366333008e-01,8.275339007377624512e-02,3.546917140483856201e-01,9.632790833711624146e-02,9.999170899391174316e-02,1.705226302146911621e-01,-1.243719160556793213e-01,-8.040481060743331909e-02,-1.249512135982513428e-01,-2.039286866784095764e-02,-2.481082528829574585e-01,7.315173000097274780e-02,-1.488348245620727539e-01,5.926388874650001526e-02,1.717073202133178711e+00,-4.387238025665283203e-01,-1.770606040954589844e-01,-2.535100579261779785e-01,-5.155995488166809082e-03,1.164317503571510315e-01,2.183116078376770020e-01,-1.941615790128707886e-01,-1.355129759758710861e-02,-6.133932992815971375e-02,-1.746252924203872681e-01,-3.169852793216705322e-01,2.529326379299163818e-01,-2.874917089939117432e-01,-1.492593139410018921e-01,3.262235969305038452e-02,-8.275946229696273804e-02,2.303888201713562012e-01,1.518662739545106888e-02,9.833447635173797607e-03,1.177526563405990601e-01,2.982263639569282532e-02,-1.402810215950012207e-01,-2.177720367908477783e-01,-6.874430924654006958e-02,1.046716496348381042e-01,-1.868971437215805054e-01,-5.766681954264640808e-02,6.643861532211303711e-02,2.964931130409240723e-01,-9.079535305500030518e-02,2.598826587200164795e-01,-3.767626881599426270e-01,2.463726699352264404e-02
-3.977271541953086853e-02,7.486152052879333496e-01,-1.538312584161758423e-01,1.135830655694007874e-01,-4.035262763500213623e-01,1.460740268230438232e-01,8.033414930105209351e-02,-3.577126264572143555e-01,-6.626361012458801270e-01,-5.607190355658531189e-02,-1.956918239593505859e-01,-3.318471908569335938e-01,1.913124173879623413e-01,2.684899568557739258e-01,-1.565142273902893066e-01,1.264248136430978775e-02,1.803170144557952881e-01,7.031074166297912598e-01,-2.676431834697723389e-01,-1.173525601625442505e-01,1.350474208593368530e-01,1.948657035827636719e-01,1.286233663558959961e-01,5.618478059768676758e-01,2.910673320293426514e-01,-1.028007417917251587e-01,1.040833741426467896e-01,3.813020288944244385e-01,1.252009272575378418e-01,1.238641515374183655e-01,-3.705022037029266357e-01,1.049998477101325989e-01,-1.678126677870750427e-02,8.079428970813751221e-02,1.435244083404541016e-01,-2.259963154792785645e-01,-1.807260513305664062e-02,-3.422435745596885681e-02,5.214456319808959961e-01,4.573711454868316650e-01,1.152896285057067871e-01,2.393479831516742706e-02,-4.199689999222755432e-02,5.750946998596191406e-01,-2.750972285866737366e-02,-1.463578343391418457e-01,-2.249833196401596069e-01,1.718151271343231201e-01,3.172867000102996826e-01,3.826054632663726807e-01
1.064466610550880432e-01,2.919200956821441650e-01,-2.414831519126892090e-01,1.050929166376590729e-02,4.271571524441242218e-03,-8.276313543319702148e-01,-2.027319557964801788e-02,2.026272565126419067e-02,3.317322209477424622e-02,-2.570143342018127441e-01,1.557690948247909546e-01,-4.597986862063407898e-02,-2.204726785421371460e-01,-8.998900651931762695e-03,6.339245289564132690e-02,-2.126626372337341309e-01,1.572279214859008789e+00,9.017714112997055054e-02,-1.680890023708343506e-01,-2.104837894439697266e-01,3.467978164553642273e-02,7.049719244241714478e-02,-1.519840955734252930e-01,1.390312984585762024e-02,1.421819478273391724e-01,-3.117951154708862305e-01,1.416275203227996826e-01,1.389364898204803467e-01,4.141492843627929688e-01,-1.718274131417274475e-02,-2.776678204536437988e-01,9.612444043159484863e-02,-1.772160381078720093e-01,-1.074933037161827087e-01,-3.376133441925048828e-01,7.637112587690353394e-02,1.148447990417480469e-01,-2.686547636985778809e-01,-3.826275467872619629e-01,6.883180141448974609e-02,-3.280158713459968567e-02,1.490559875965118408e-01,-2.479025907814502716e-02,-2.217176109552383423e-01,1.702395975589752197e-01,-2.318675369024276733e-01,-3.121835738420486450e-02,-3.589597046375274658e-01,-4.252057895064353943e-02,-3.526971936225891113e-01
7.549079507589340210e-02,-1.487309187650680542e-01,-8.581755310297012329e-02,6.116385757923126221e-02,1.893074512481689453e-01,4.940505325794219971e-02,1.626686006784439087e-01,2.838232219219207764e-01,1.765199899673461914e-01,1.460896730422973633e-01,-1.931258738040924072e-01,1.697367876768112183e-01,7.100144028663635254e-02,1.182154193520545959e-02,4.442817270755767822e-01,-1.327107995748519897e-01,-3.719722330570220947e-01,-2.243781238794326782e-01,-1.766266077756881714e-01,-1.038940772414207458e-01,1.423217654228210449e-01,-3.038708865642547607e-02,3.421899396926164627e-03,3.275528550148010254e-02,1.111610885709524155e-02,2.449293062090873718e-02,1.887635141611099243e-01,2.789491228759288788e-02,-1.161454692482948303e-01,-1.334016770124435425e-01,-2.278865426778793335e-01,-2.725450098514556885e-01,9.962473064661026001e-03,5.959386005997657776e-02,-4.190691709518432617e-01,2.797490060329437256e-01,9.688716381788253784e-02,4.218445159494876862e-03,-1.583116203546524048e-01,-4.538040161132812500e-01,-1.648193448781967163e-01,-1.177739873528480530e-01,-2.021058648824691772e-01,-5.768239498138427734e-01,-4.003610908985137939e-01,5.315284058451652527e-02,7.043603062629699707e-02,-1.928108781576156616e-01,-5.007961392402648926e-01,-3.451105952262878418e-01
1.872537583112716675e-01,-1.640445291996002197e-01,3.343219161033630371e-01,-4.090559482574462891e-01,2.034913897514343262e-01,-3.295599222183227539e-01,-2.339538931846618652e-01,-2.412302605807781219e-02,3.840138912200927734e-01,2.347852438688278198e-01,-1.014903113245964050e-01,3.903162479400634766e-01,-5.115428566932678223e-01,1.347511857748031616e-01,3.206345736980438232e-01,4.737234208732843399e-03,1.854923963546752930e-01,-1.053058743476867676e+00,7.915149629116058350e-02,1.696127057075500488e-01,-9.692272543907165527e-02,-5.765085220336914062e-01,-2.025035768747329712e-01,-3.091401159763336182e-01,3.058543801307678223e-02,-2.340922355651855469e-01,1.297716051340103149e-01,-6.774228811264038086e-01,1.848199814558029175e-01,-1.185425072908401489e-01,3.755845129489898682e-01,-3.092725276947021484e-01,2.784763276576995850e-02,-2.648855149745941162e-01,3.056903742253780365e-02,1.871773302555084229e-01,-2.267048656940460205e-01,1.442500650882720947e-01,8.066505193710327148e-02,7.432010769844055176e-02,2.322209030389785767e-01,1.479931771755218506e-01,3.456447720527648926e-01,1.972472667694091797e-01,2.890009619295597076e-02,-9.706440567970275879e-02,1.129492595791816711e-01,1.109981387853622437e-01,3.422717750072479248e-01,1.891166269779205322e-01
-3.971370160579681396e-01,-2.740564756095409393e-02,1.759645640850067139e-01,-1.118867173790931702e-01,2.473663091659545898e-01,1.716704070568084717e-01,-6.091481447219848633e-01,-9.439522027969360352e-02,6.817327439785003662e-02,2.141878604888916016e-01,-1.937567256391048431e-02,-4.100737161934375763e-03,5.853584408760070801e-01,-4.971403628587722778e-02,-1.087671220302581787e-01,1.260897666215896606e-01,-5.606361199170351028e-03,1.004851050674915314e-02,1.084024757146835327e-01,-6.883120536804199219e-02,-1.378087997436523438e-01,5.475623160600662231e-02,3.337956666946411133e-01,-2.117678225040435791e-01,-4.096797481179237366e-02,-3.258997499942779541e-01,-2.300994694232940674e-01,2.464426457881927490e-01,-3.627742454409599304e-02,-3.701872751116752625e-02,-1.204881370067596436e-01,-2.175655066967010498e-01,-2.764474600553512573e-02,-1.648807078599929810e-01,-4.441695511341094971e-01,-2.528852317482233047e-03,-7.783824950456619263e-02,-3.781765326857566833e-02,-3.177459836006164551e-01,-5.868322029709815979e-02,2.464444935321807861e-01,1.917046457529067993e-01,-9.832929074764251709e-02,-3.638883531093597412e-01,2.285906672477722168e-01,1.840664260089397430e-02,9.482422471046447754e-02,1.227966785430908203e+00,1.273526310920715332e+00,-2.837791919708251953e+00
-3.861309289932250977e-01,-2.351239472627639771e-01,4.629064351320266724e-04,-2.010887414216995239e-01,-2.549217045307159424e-01,-3.599504232406616211e-01,1.666158884763717651e-01,-2.836284041404724121e-01,-3.812312781810760498e-01,-4.043280184268951416e-01,-7.175556570291519165e-02,8.922939002513885498e-02,-1.294106394052505493e-01,-3.144031763076782227e-01,2.872725203633308411e-02,-1.417297311127185822e-02,3.382078111171722412e-01,9.100894443690776825e-03,-4.616371095180511475e-01,-3.576219081878662109e-01,2.443968690931797028e-02,3.611466884613037109e-01,-5.920322611927986145e-02,-6.174299120903015137e-01,1.552824117243289948e-02,-5.496817082166671753e-02,-9.715946391224861145e-03,8.383743464946746826e-02,4.077050387859344482e-01,2.039262950420379639e-01,-1.109058037400245667e-01,-3.092226386070251465e-01,6.613380461931228638e-02,2.457309886813163757e-02,1.055449247360229492e-01,-2.899461686611175537e-01,2.445719987154006958e-01,-3.573157191276550293e-01,-2.554778754711151123e-01,-2.350317090749740601e-01,3.847370743751525879e-01,1.279146671295166016e-01,2.205739021301269531e-01,5.661036372184753418e-01,6.841358542442321777e-02,-8.124159276485443115e-02,-3.482664823532104492e-01,3.754270672798156738e-01,3.400868177413940430e-01,2.268042117357254028e-01
-1.241143196821212769e-01,3.522554636001586914e-01,2.277865074574947357e-02,2.301942855119705200e-01,2.316367626190185547e-01,3.300647735595703125e-01,-1.433442533016204834e-01,-5.992892012000083923e-02,-9.143735282123088837e-03,6.284108757972717285e-01,1.693632453680038452e-01,-5.354845896363258362e-02,1.845541298389434814e-01,-3.833217322826385498e-01,3.070560991764068604e-01,-1.693757921457290649e-01,2.793586254119873047e-01,8.567363768815994263e-02,-1.632514595985412598e-01,-4.621796905994415283e-01,9.483506530523300171e-02,2.605637311935424805e-01,3.022328317165374756e-01,-5.593260005116462708e-02,-1.300847530364990234e-01,-2.811611890792846680e-01,-4.416128695011138916e-01,-1.272336393594741821e-01,3.205266594886779785e-01,1.102702841162681580e-01,-9.503865987062454224e-02,3.561295866966247559e-01,2.797248959541320801e-01,-1.018263846635818481e-01,3.285367786884307861e-02,-2.202711254358291626e-01,3.150617331266403198e-02,2.946936488151550293e-01,1.919192820787429810e-01,5.957190990447998047e-01,2.893388867378234863e-01,2.755538001656532288e-02,-1.116216089576482773e-02,-2.156951278448104858e-01,-2.008428052067756653e-02,3.485733866691589355e-01,-3.131934106349945068e-01,-1.711148321628570557e-01,5.056555569171905518e-02,3.502946197986602783e-01
-3.924649059772491455e-01,-1.774354279041290283e-01,-4.114193320274353027e-01,-5.528246238827705383e-02,-1.773481070995330811e-01,2.255498319864273071e-01,1.506727095693349838e-02,-3.419844210147857666e-01,-4.424205049872398376e-02,-8.733972162008285522e-02,-1.955136209726333618e-01,2.055043727159500122e-01,2.734369933605194092e-01,-6.017674207687377930e-01,2.945054173469543457e-01,-1.811962127685546875e-01,-5.624926686286926270e-01,7.206460833549499512e-02,-6.174467802047729492e-01,-9.689909815788269043e-01,-1.525180190801620483e-01,4.015510976314544678e-01,1.628108471632003784e-01,2.234080620110034943e-02,-1.601597964763641357e-01,-3.054459393024444580e-01,-5.562629699707031250e-01,7.269686460494995117e-02,-5.195505619049072266e-01,3.062465786933898926e-01,-3.969288766384124756e-01,-7.003909349441528320e-02,-2.069794572889804840e-02,8.493594825267791748e-03,1.529570072889328003e-01,4.751303791999816895e-01,-1.526509076356887817e-01,-3.079431653022766113e-01,-8.265034109354019165e-02,-3.596850633621215820e-01,2.040261775255203247e-01,-1.843525022268295288e-01,-3.748275041580200195e-01,-1.495149880647659302e-01,-6.154819130897521973e-01,1.538219898939132690e-01,-6.135339736938476562e-01,2.075337804853916168e-02,-3.259215131402015686e-02,3.209251165390014648e-01
8.219195902347564697e-02,1.480425149202346802e-01,-2.525090873241424561e-01,7.485289871692657471e-02,8.106596767902374268e-02,2.568378672003746033e-02,2.837778814136981964e-02,6.134748458862304688e-03,-6.906912475824356079e-02,1.083422228693962097e-01,-1.655407100915908813e-01,-6.451429426670074463e-02,9.312644600868225098e-02,2.871643900871276855e-01,1.093137860298156738e-01,4.327075928449630737e-02,-4.846134781837463379e-01,4.971922840923070908e-03,1.924820989370346069e-01,-4.623162001371383667e-02,-1.091224327683448792e-01,6.955275684595108032e-02,-5.317351222038269043e-02,2.752729691565036774e-02,-2.293306291103363037e-01,-4.886345937848091125e-02,1.419602632522583008e-01,-1.743287444114685059e-01,-3.143754899501800537e-01,1.787155568599700928e-01,-2.905659191310405731e-02,1.475494503974914551e-01,-2.413977831602096558e-01,3.313312828540802002e-01,4.971770197153091431e-02,2.057012468576431274e-01,-8.478723466396331787e-02,-6.697249412536621094e-02,2.597004473209381104e-01,2.062474787235260010e-01,-8.921890705823898315e-02,1.614475548267364502e-01,-2.866833843290805817e-02,-1.901352703571319580e-01,2.120389603078365326e-03,2.451274842023849487e-01,3.799910545349121094e-01,-4.151582419872283936e-01,-3.457738757133483887e-01,-5.032241344451904297e-01
6.414572149515151978e-02,1.909767687320709229e-01,1.195198893547058105e-01,4.928551018238067627e-01,-5.823552608489990234e-02,-4.352167248725891113e-01,-5.175349116325378418e-01,3.032730147242546082e-02,-1.138274222612380981e-01,2.742795646190643311e-01,-1.514479964971542358e-01,1.167710274457931519e-01,-5.521154999732971191e-01,3.412578254938125610e-02,4.640250802040100098e-01,1.277386099100112915e-01,-8.166608959436416626e-02,-7.898961305618286133e-01,-3.973877057433128357e-02,-1.233729720115661621e-01,4.617308080196380615e-01,-5.193606615066528320e-01,-9.258355200290679932e-02,2.979078590869903564e-01,-9.214062988758087158e-02,-7.959815263748168945e-01,1.196850538253784180e-01,-3.322096467018127441e-01,-9.698967635631561279e-02,-3.368500769138336182e-01,2.459629327058792114e-01,-2.094436995685100555e-02,7.894846051931381226e-02,-2.747149467468261719e-01,4.711444675922393799e-02,2.387470006942749023e-02,-1.545017934404313564e-03,-1.616075634956359863e-01,1.909207552671432495e-01,1.155047193169593811e-01,1.462171375751495361e-01,-2.442494034767150879e-01,1.633357405662536621e-01,6.247844696044921875e-01,3.310274779796600342e-01,-2.220752388238906860e-01,2.549972757697105408e-02,3.375584185123443604e-01,8.762710094451904297e-01,-1.380469948053359985e-01
4.055737704038619995e-02,2.239521741867065430e-01,-7.838646322488784790e-02,-2.539173327386379242e-02,4.852581396698951721e-02,-2.682477533817291260e-01,4.553803801536560059e-01,-5.044597387313842773e-02,-1.264960598200559616e-02,1.424899417906999588e-02,-5.593934282660484314e-02,-9.424051642417907715e-02,-1.470500230789184570e-01,-8.449779450893402100e-02,6.194106861948966980e-02,1.826361656188964844e+00,-1.033437810838222504e-02,-1.786382645368576050e-01,1.021814271807670593e-01,-1.410311311483383179e-01,4.504995644092559814e-01,1.357984393835067749e-01,-1.609686017036437988e-01,8.585106581449508667e-02,4.555243253707885742e-02,-1.283329427242279053e-01,-2.660373225808143616e-02,-1.397031843662261963e-01,-1.912922784686088562e-02,2.725097723305225372e-02,-1.795411258935928345e-01,2.235619425773620605e-01,1.286930143833160400e-01,-1.153403073549270630e-01,-8.129022717475891113e-01,-9.171949326992034912e-02,2.621480524539947510e-01,-5.787465721368789673e-02,-1.734682023525238037e-01,-1.146192153100855649e-04,-2.904717810451984406e-03,-1.304918825626373291e-01,-4.405985772609710693e-02,2.518891990184783936e-01,-1.960315406322479248e-01,9.260451048612594604e-02,-1.739847064018249512e-01,3.727614283561706543e-01,-1.012554287910461426e+00,5.269332528114318848e-01
-7.626242190599441528e-02,1.314729899168014526e-01,-2.788778841495513916e-01,-2.722359001636505127e-01,2.643769085407257080e-01,-9.090624749660491943e-02,-3.290936648845672607e-01,2.134064733982086182e-01,-1.425991207361221313e-01,4.374528825283050537e-01,1.194041445851325989e-01,4.192728921771049500e-02,4.142427146434783936e-01,-1.561014652252197266e-01,1.192025616765022278e-01,1.245160102844238281e-01,-1.643989235162734985e-02,4.038434475660324097e-02,-3.784052133560180664e-01,-6.123377084732055664e-01,7.069998234510421753e-02,8.891139179468154907e-02,-2.251557856798171997e-01,2.396455407142639160e-01,-3.511390089988708496e-02,-1.451015658676624298e-02,-1.068032626062631607e-02,-9.473685920238494873e-02,2.078026831150054932e-01,6.735784560441970825e-02,-1.111959367990493774e-01,2.322913706302642822e-01,3.421607613563537598e-01,-1.516710072755813599e-01,-1.840658038854598999e-01,3.566816449165344238e-02,3.403306007385253906e-01,1.280299276113510132e-01,-2.915405854582786560e-02,-1.054283156991004944e-01,3.421628475189208984e-01,-2.356998771429061890e-01,1.310802996158599854e-01,1.664069592952728271e-01,-5.966050624847412109e-01,4.437785223126411438e-02,-3.046151101589202881e-01,-9.094490110874176025e-02,-3.775525987148284912e-01,-1.878483891487121582e-01
2.164169400930404663e-01,-1.175739988684654236e-01,2.332901954650878906e-01,-5.161732435226440430e-01,1.067067310214042664e-01,-4.224822819232940674e-01,1.359615027904510498e-01,2.286687195301055908e-01,-5.098498985171318054e-02,2.794107794761657715e-01,2.084054611623287201e-02,-2.374605648219585419e-02,-4.057909846305847168e-01,-1.889815479516983032e-01,-7.182135246694087982e-03,3.162537142634391785e-02,2.837268412113189697e-01,-1.325280547142028809e+00,-2.735463678836822510e-01,3.267880976200103760e-01,1.320432573556900024e-01,-6.555519700050354004e-01,-1.717789769172668457e-01,-5.538317933678627014e-02,3.197023645043373108e-02,3.511651754379272461e-01,-3.935712203383445740e-02,-7.554618716239929199e-01,2.143320292234420776e-01,1.516969352960586548e-01,4.542210698127746582e-01,-3.120926916599273682e-01,-3.646919131278991699e-01,1.241239830851554871e-01,1.693117916584014893e-01,1.573485732078552246e-01,-3.334847688674926758e-01,-1.730380654335021973e-01,1.616230010986328125e-01,2.077341228723526001e-01,4.197070002555847168e-02,-1.219898182898759842e-02,2.327219992876052856e-01,1.849021911621093750e-01,-2.324826419353485107e-01,-7.950495928525924683e-02,-8.558444678783416748e-02,-4.293459653854370117e-01,-3.593376874923706055e-01,-2.393722906708717346e-02
4.692083299160003662e-01,-2.571086585521697998e-02,5.506615638732910156e-01,1.537807732820510864e-01,-2.708231508731842041e-01,3.211685717105865479e-01,-8.817434310913085938e-02,2.207401767373085022e-02,-6.491464972496032715e-01,1.262382566928863525e-01,-7.408282756805419922e-01,7.338280975818634033e-02,8.463778533041477203e-03,1.631678193807601929e-01,-2.868441939353942871e-01,1.630029231309890747e-01,3.111583292484283447e-01,1.217315644025802612e-01,2.983067929744720459e-01,-5.171737670898437500e-01,1.059699803590774536e-02,3.522294163703918457e-01,-1.362542212009429932e-01,-6.417723745107650757e-02,2.072004675865173340e-01,-3.638042807579040527e-01,2.126856893301010132e-01,-2.090360224246978760e-01,1.467236429452896118e-01,-2.152117490768432617e-01,-4.231953024864196777e-01,3.888738751411437988e-01,7.880598306655883789e-02,4.004922509193420410e-01,1.112242490053176880e-01,-3.793970122933387756e-02,2.317817807197570801e-01,-2.904903143644332886e-02,-3.994139730930328369e-01,-2.546201348304748535e-01,-4.581722021102905273e-01,2.795730233192443848e-01,-2.668838798999786377e-01,-1.547118574380874634e-01,3.268284201622009277e-01,-5.076492428779602051e-01,5.710774287581443787e-02,9.669351577758789062e-02,-2.751347720623016357e-01,1.873011440038681030e-01
2.849695086479187012e-01,7.530861999839544296e-03,6.526641249656677246e-01,2.673880942165851593e-02,9.975565224885940552e-02,4.349807202816009521e-01,-3.868888691067695618e-02,-2.556270956993103027e-01,-3.119712769985198975e-01,4.061831533908843994e-02,-4.524175822734832764e-01,3.175321519374847412e-01,-2.530631721019744873e-01,3.471209201961755753e-04,3.586415350437164307e-01,1.390826702117919922e-01,2.965498566627502441e-01,-7.573434114456176758e-01,1.485153138637542725e-01,-2.302031666040420532e-01,2.700674533843994141e-01,-6.703776121139526367e-02,-1.441223919391632080e-01,9.188067167997360229e-02,5.405536293983459473e-01,-4.955742955207824707e-01,-7.846157997846603394e-02,-7.835542559623718262e-01,4.850260317325592041e-01,1.248724758625030518e-01,-2.170315384864807129e-02,-1.200475245714187622e-01,-9.586268663406372070e-02,-5.379482731223106384e-02,2.048740237951278687e-01,-5.130613688379526138e-03,1.416350603103637695e-01,-1.591870188713073730e-02,-2.156527787446975708e-01,1.646103113889694214e-01,-2.557888627052307129e-01,6.842668354511260986e-02,3.661897778511047363e-01,2.067195177078247070e-01,-1.328626275062561035e-01,-1.978643834590911865e-01,-6.845860928297042847e-02,3.280615210533142090e-01,2.654302120208740234e-01,5.737381801009178162e-02
-2.740784920752048492e-02,-2.382562756538391113e-01,3.290369734168052673e-02,-1.614000201225280762e-01,-1.529861539602279663e-01,1.247284933924674988e-01,-1.820317357778549194e-01,-1.211914420127868652e-02,2.013614326715469360e-01,-1.693244725465774536e-01,9.390510618686676025e-02,-4.105894640088081360e-02,-2.288289517164230347e-01,-3.001855015754699707e-01,8.262336254119873047e-02,-9.569256752729415894e-02,-1.659503936767578125e+00,-1.987117528915405273e-01,1.712568998336791992e-01,-2.370798736810684204e-01,4.478114470839500427e-02,1.720450003631412983e-03,-1.376991719007492065e-01,6.818692386150360107e-02,-5.761960148811340332e-02,-4.426978994160890579e-03,-1.675842702388763428e-01,-2.369997203350067139e-01,-1.682429194450378418e+00,5.984137952327728271e-02,-1.646440029144287109e-01,-2.586917877197265625e-01,-1.049910113215446472e-01,-6.271046400070190430e-02,-3.425274789333343506e-01,-3.394252955913543701e-01,1.596366055309772491e-02,1.396189033985137939e-01,-4.061300158500671387e-01,-2.222335711121559143e-02,1.268868744373321533e-01,9.737636148929595947e-02,1.272664964199066162e-01,-7.117896676063537598e-01,-8.759582787752151489e-02,1.824503578245639801e-02,2.274365425109863281e-01,-6.647088527679443359e-01,-5.317193865776062012e-01,-6.118430495262145996e-01
2.485397160053253174e-01,2.247355431318283081e-01,8.389738202095031738e-01,-8.271944522857666016e-02,-1.747658997774124146e-01,2.438688129186630249e-01,-3.074196167290210724e-03,3.777874261140823364e-02,-5.797753334045410156e-01,-1.120693683624267578e-01,-4.739752709865570068e-01,6.927925348281860352e-02,8.493870496749877930e-02,-1.051001474261283875e-01,9.787920117378234863e-02,5.949006974697113037e-02,1.798470318317413330e-01,2.813459187746047974e-02,-1.407967060804367065e-01,2.433378845453262329e-01,-1.693969815969467163e-01,4.193862080574035645e-01,-2.344539910554885864e-01,-6.226172670722007751e-02,4.061553999781608582e-02,-9.369510412216186523e-02,-1.947758160531520844e-02,-5.203235149383544922e-01,1.272075474262237549e-01,-2.485485672950744629e-01,-3.811205923557281494e-01,1.550352126359939575e-01,1.763841509819030762e-01,1.991395205259323120e-01,2.074797302484512329e-01,-2.472215592861175537e-01,7.706470042467117310e-02,-5.191262345761060715e-03,-8.151248097419738770e-01,7.070685271173715591e-03,-5.528411269187927246e-01,-1.272953152656555176e-01,2.562701404094696045e-01,-4.374799728393554688e-01,-1.870214343070983887e-01,-2.872620820999145508e-01,-2.522206604480743408e-01,4.524671435356140137e-01,-3.420018255710601807e-01,1.407509297132492065e-01
1.376949697732925415e-01,-8.133161813020706177e-02,-1.100021973252296448e-01,8.673466742038726807e-02,-1.810456067323684692e-01,-2.252421230077743530e-01,1.158804298029281199e-04,-3.102613687515258789e-01,-1.240405142307281494e-01,6.001509353518486023e-02,1.611255556344985962e-01,-2.884969860315322876e-02,-2.641676962375640869e-01,1.969063878059387207e-01,8.498611301183700562e-02,-1.138934865593910217e-01,5.913274884223937988e-01,-3.782793283462524414e-01,6.698869913816452026e-02,-1.269662678241729736e-01,-9.762845933437347412e-02,9.941917657852172852e-02,9.238841384649276733e-02,-2.491216063499450684e-01,3.365272656083106995e-02,-7.049496471881866455e-02,-7.279455661773681641e-02,-1.255832612514495850e-01,1.695668697357177734e+00,-1.160437762737274170e-01,-8.300479501485824585e-02,1.086530014872550964e-01,-5.678448453545570374e-02,2.106615900993347168e-01,-1.287252455949783325e-01,-1.145819853991270065e-02,2.243233919143676758e-01,-1.239472851157188416e-01,9.165259450674057007e-02,6.699386984109878540e-03,-1.424407511949539185e-01,3.717682138085365295e-02,-1.699610948562622070e-01,-3.216221928596496582e-01,3.457154631614685059e-01,1.657284051179885864e-01,-1.011658161878585815e-01,1.200890243053436279e-01,1.598277240991592407e-01,1.224895566701889038e-01
1.089231446385383606e-01,-3.090045042335987091e-02,1.634943038225173950e-01,-9.945166856050491333e-02,-8.828772604465484619e-02,-1.258321702480316162e-01,-4.998674243688583374e-02,-1.115720719099044800e-01,1.394387185573577881e-01,-5.520044267177581787e-02,2.839616537094116211e-01,-1.840031594038009644e-01,-1.262720525264739990e-01,1.012499332427978516e-01,1.152480915188789368e-01,-2.160387039184570312e+00,2.332618460059165955e-02,-1.027734484523534775e-02,8.620594628155231476e-03,1.803786903619766235e-01,-3.860905766487121582e-02,-1.464182436466217041e-01,-1.512701809406280518e-01,2.255260571837425232e-02,1.064654323272407055e-03,2.317804545164108276e-01,1.637360304594039917e-01,2.386074662208557129e-01,5.860926955938339233e-02,-5.067435503005981445e-01,3.207366466522216797e-01,-4.567945376038551331e-02,1.554700583219528198e-01,-3.272265195846557617e-01,1.298432797193527222e-01,5.037942901253700256e-02,-3.369771242141723633e-01,-4.910811549052596092e-04,-5.132437944412231445e-01,-3.512132214382290840e-03,-3.368315696716308594e-01,-1.084805093705654144e-02,-4.475418105721473694e-02,5.517607182264328003e-02,-2.771384119987487793e-01,-1.353009790182113647e-01,-2.536628209054470062e-02,-2.528018131852149963e-02,-6.705389171838760376e-02,-8.261250257492065430e-01
-2.819404900074005127e-01,-9.706325083971023560e-02,-7.842172980308532715e-01,-6.045029684901237488e-02,6.869025528430938721e-02,-2.351407855749130249e-01,1.273127272725105286e-02,1.255752444267272949e-01,1.009281501173973083e-01,-1.407665908336639404e-01,1.999025344848632812e-01,-3.453208208084106445e-01,2.095610648393630981e-01,-1.917846798896789551e-01,-1.050582230091094971e-01,2.939769439399242401e-02,2.235421538352966309e-01,3.504706621170043945e-01,-1.075915917754173279e-01,-3.909004330635070801e-01,2.024941444396972656e-01,-3.436825051903724670e-02,2.805145680904388428e-01,1.575542986392974854e-01,4.661610722541809082e-02,4.150431454181671143e-01,5.871161073446273804e-02,5.763319730758666992e-01,2.462613880634307861e-01,3.840724378824234009e-02,5.766495317220687866e-02,-1.450196057558059692e-01,1.111142933368682861e-01,-1.607953608036041260e-01,-2.999834530055522919e-02,-1.254528202116489410e-02,7.911656796932220459e-02,1.370837241411209106e-01,4.163075983524322510e-01,1.019039228558540344e-01,3.048873245716094971e-01,-1.722621358931064606e-02,-3.771806955337524414e-01,2.978837192058563232e-01,9.056956321001052856e-02,1.786995530128479004e-01,-1.030497439205646515e-02,-3.642646968364715576e-01,3.788247704505920410e-01,-4.265830665826797485e-02
3.018807172775268555e-01,3.350639045238494873e-01,1.884486228227615356e-01,-2.606520950794219971e-01,2.057790458202362061e-01,1.262390911579132080e-01,1.195387262850999832e-02,2.960778772830963135e-01,-3.988329768180847168e-01,7.987442016601562500e-01,-4.313394427299499512e-01,-6.196514004841446877e-04,6.589587032794952393e-02,3.051197528839111328e-01,2.425182461738586426e-01,-2.850815355777740479e-01,3.092193007469177246e-01,-6.527005881071090698e-02,-4.992563426494598389e-01,2.739476263523101807e-01,-1.408132910728454590e-01,-5.765760689973831177e-02,-9.845088236033916473e-03,2.133943736553192139e-01,-4.795626401901245117e-01,-1.491133719682693481e-01,4.765523970127105713e-01,-6.984618306159973145e-01,1.489753127098083496e-01,1.362311188131570816e-02,1.726397573947906494e-01,2.121407091617584229e-01,5.000608786940574646e-02,-1.364142596721649170e-01,-1.024914234876632690e-01,6.347365379333496094e-01,4.624766707420349121e-01,1.665239036083221436e-01,-7.041430473327636719e-02,-1.692506521940231323e-01,-7.404839992523193359e-02,-2.252410650253295898e-01,3.852357566356658936e-01,9.746351093053817749e-02,-7.660518884658813477e-01,3.140725791454315186e-01,-3.787586987018585205e-01,-2.491361200809478760e-01,-1.942643076181411743e-01,-4.209469258785247803e-02
-3.191059529781341553e-01,1.479620784521102905e-01,-9.793608784675598145e-01,-2.308564633131027222e-01,5.523185059428215027e-02,-7.361704707145690918e-01,-1.521746665239334106e-01,-1.646800041198730469e-01,-5.343691259622573853e-02,4.849457181990146637e-04,3.080720603466033936e-01,-4.006604105234146118e-02,-3.645369112491607666e-01,1.706838160753250122e-01,1.590856760740280151e-01,2.013011723756790161e-01,1.880555599927902222e-01,-3.510746359825134277e-01,-1.015605628490447998e-01,1.133822798728942871e-01,2.133143246173858643e-01,-3.461304605007171631e-01,1.200722828507423401e-01,3.425540030002593994e-01,-1.540309786796569824e-01,-5.552646145224571228e-02,1.188216730952262878e-01,1.583292782306671143e-01,1.103957369923591614e-01,1.660017818212509155e-01,2.610897421836853027e-01,6.659663468599319458e-02,-1.295120269060134888e-01,-2.101541310548782349e-01,-5.472171120345592499e-03,3.325699567794799805e-01,-1.844605803489685059e-01,-1.020176634192466736e-01,2.606034278869628906e-01,2.171203196048736572e-01,4.042454063892364502e-01,-2.144367098808288574e-01,-2.451873011887073517e-02,5.340687632560729980e-01,-5.646780598908662796e-03,2.300076782703399658e-01,1.574780195951461792e-01,-1.291122734546661377e-01,4.341332912445068359e-01,1.262130737304687500e-01
-1.142264604568481445e-01,1.642811745405197144e-01,-1.378264576196670532e-01,3.669377416372299194e-02,1.719880104064941406e-01,-3.141772150993347168e-01,1.033953428268432617e-01,4.289592802524566650e-01,1.850776523351669312e-01,7.390492558479309082e-01,-1.776151955127716064e-01,-1.993159204721450806e-01,-6.559455394744873047e-02,-3.333347141742706299e-01,-1.203402653336524963e-01,-8.670070022344589233e-02,2.833244204521179199e-01,1.208999529480934143e-01,1.182963699102401733e-01,8.222527056932449341e-02,9.091310948133468628e-02,-2.178698629140853882e-01,1.730715185403823853e-01,-1.108865216374397278e-01,-3.287644088268280029e-01,4.278175532817840576e-02,-4.333052411675453186e-02,1.338679045438766479e-01,2.142097800970077515e-01,2.624131739139556885e-01,-2.485111728310585022e-02,-2.303675711154937744e-01,3.951633721590042114e-02,2.068429589271545410e-01,-9.673845767974853516e-02,1.238036714494228363e-02,2.953943908214569092e-01,1.200458183884620667e-01,-1.337036788463592529e-01,2.494266927242279053e-01,5.616769194602966309e-02,-6.741720438003540039e-02,-1.891720108687877655e-02,-2.449324429035186768e-01,-8.595836907625198364e-02,-1.486648619174957275e-01,2.249627411365509033e-01,2.015912719070911407e-02,-1.990877836942672729e-01,-7.490803301334381104e-02
2.336423546075820923e-01,7.089283317327499390e-02,3.529693782329559326e-01,2.807222306728363037e-01,-1.836383789777755737e-01,2.377862669527530670e-02,2.816914580762386322e-02,-1.082193553447723389e-01,-9.207698702812194824e-02,1.942881941795349121e-01,-3.459564447402954102e-01,3.255345523357391357e-01,-1.675587445497512817e-01,1.170523581095039845e-03,1.385209113359451294e-01,1.290039867162704468e-01,-9.022074937820434570e-02,-7.588381767272949219e-01,3.456786274909973145e-01,6.386247277259826660e-02,3.721158802509307861e-01,-2.593095898628234863e-01,-4.071682393550872803e-01,-4.527842700481414795e-01,2.192775718867778778e-02,-5.856876969337463379e-01,-2.413763701915740967e-01,-8.527439236640930176e-01,-1.106488630175590515e-01,-2.535288631916046143e-01,-1.592482179403305054e-01,3.156220912933349609e-02,1.755632907152175903e-01,3.499858975410461426e-01,4.111984670162200928e-01,2.128962874412536621e-01,-1.284747719764709473e-01,-3.065812885761260986e-01,3.576194122433662415e-02,-2.184866964817047119e-01,4.105572402477264404e-02,2.133471816778182983e-01,3.214201629161834717e-01,2.159079313278198242e-01,4.460365474224090576e-01,-4.906643033027648926e-01,2.427910566329956055e-01,2.903139293193817139e-01,-7.870621979236602783e-02,3.158827126026153564e-01
-2.704738974571228027e-01,-2.945759566500782967e-03,-2.932646274566650391e-01,2.024134248495101929e-01,-1.247945502400398254e-01,2.179672271013259888e-01,3.609139919281005859e-01,-7.027851790189743042e-02,-3.642548620700836182e-01,2.238298952579498291e-02,9.565578401088714600e-02,-3.304313421249389648e-01,5.413178205490112305e-01,6.186542659997940063e-02,-3.713825345039367676e-01,1.785628870129585266e-02,1.787682622671127319e-01,9.857473969459533691e-01,6.289390474557876587e-02,-2.285961061716079712e-01,-1.276555806398391724e-01,5.619581937789916992e-01,3.678342401981353760e-01,3.518974483013153076e-01,1.564314514398574829e-01,3.679901063442230225e-01,-4.373839125037193298e-03,6.752508878707885742e-01,1.610778868198394775e-01,1.757040619850158691e-01,-4.888612627983093262e-01,3.806822001934051514e-01,8.243880420923233032e-02,2.656227946281433105e-01,-8.197560161352157593e-02,-2.958229780197143555e-01,2.600115537643432617e-01,1.354835480451583862e-01,1.778094172477722168e-01,-4.269142076373100281e-02,-4.947388470172882080e-01,7.517161220312118530e-02,-5.094159245491027832e-01,-4.114358127117156982e-01,2.919263541698455811e-01,1.898391544818878174e-01,9.297588467597961426e-02,-2.555731311440467834e-02,-6.015383601188659668e-01,-9.773439168930053711e-02
1.481859087944030762e-01,-8.366446942090988159e-02,5.944874286651611328e-01,-1.590780913829803467e-01,3.290359973907470703e-01,5.493313670158386230e-01,-7.995510846376419067e-02,2.806184440851211548e-02,-4.155924916267395020e-01,7.019507139921188354e-02,-2.744194865226745605e-01,1.433324217796325684e-01,-4.197435826063156128e-02,4.024158045649528503e-02,2.747829556465148926e-01,-2.111297398805618286e-01,2.449507266283035278e-01,-1.222129240632057190e-01,-1.273632049560546875e-01,-6.348770856857299805e-02,-1.189523115754127502e-01,2.868804335594177246e-02,2.087489813566207886e-01,-2.741277515888214111e-01,-7.170047610998153687e-02,8.138520643115043640e-03,7.900335639715194702e-02,-5.479377508163452148e-01,2.466505467891693115e-01,3.441812098026275635e-02,-1.858161687850952148e-01,4.415672272443771362e-02,2.152302302420139313e-02,1.655478179454803467e-01,1.297550499439239502e-01,-1.925214082002639771e-01,2.566269934177398682e-01,2.353568971157073975e-01,-4.475522041320800781e-01,1.845715492963790894e-01,-4.755159616470336914e-01,-7.204630225896835327e-02,1.434550732374191284e-01,-3.208723962306976318e-01,-4.051591753959655762e-01,1.758546829223632812e-01,-2.361695617437362671e-01,1.234294325113296509e-01,3.265602290630340576e-01,-5.407502874732017517e-02
-5.827177762985229492e-01,-2.789688408374786377e-01,-1.106139183044433594e+00,3.620374202728271484e-01,1.437712162733078003e-01,-2.904314398765563965e-01,2.045344561338424683e-01,-3.051222767680883408e-03,3.592555522918701172e-01,1.213598549365997314e-01,3.556470274925231934e-01,-1.363940387964248657e-01,1.471910905092954636e-02,-1.569958180189132690e-01,-9.780044853687286377e-02,5.155267938971519470e-02,-1.627494841814041138e-01,-2.336121052503585815e-01,-4.943979084491729736e-01,-2.253676652908325195e-01,2.508336603641510010e-01,-3.762855529785156250e-01,3.714100718498229980e-01,3.230415284633636475e-01,-3.200861215591430664e-01,2.348151206970214844e-01,1.294870674610137939e-01,2.793276607990264893e-01,-1.405197381973266602e-01,2.641307115554809570e-01,1.765098869800567627e-01,-4.786761105060577393e-01,-3.148497939109802246e-01,-1.606446504592895508e-01,-2.987403571605682373e-01,6.879538297653198242e-02,-9.702672064304351807e-02,2.303401231765747070e-01,1.293459236621856689e-01,-1.358699500560760498e-01,9.682374447584152222e-02,9.340800344944000244e-02,-4.916926324367523193e-01,6.313437223434448242e-02,-1.495741754770278931e-01,1.752516813576221466e-02,1.721213310956954956e-01,-3.388546407222747803e-01,-1.161900237202644348e-01,-7.605682592839002609e-03
-1.404283195734024048e-01,-4.164873361587524414e-01,6.255713291466236115e-03,-3.252421021461486816e-01,-4.047412797808647156e-02,2.871096432209014893e-01,-1.041587516665458679e-01,6.121389940381050110e-02,-3.963392972946166992e-02,-2.542904615402221680e-01,-2.148972824215888977e-02,1.324213016778230667e-02,-2.352273017168045044e-01,-5.308414623141288757e-02,-3.729985058307647705e-01,-4.765753075480461121e-02,-3.155077695846557617e-01,-2.454566359519958496e-01,2.328531593084335327e-01,1.074687615036964417e-01,2.182057350873947144e-01,-1.420904248952865601e-01,-1.099924519658088684e-01,1.510688066482543945e-01,2.513446509838104248e-01,-7.013197243213653564e-02,1.395403891801834106e-01,1.801273375749588013e-01,-1.413119882345199585e-01,-1.631385236978530884e-01,6.495496630668640137e-02,3.722419217228889465e-02,-3.425580561161041260e-01,-2.335937768220901489e-01,-1.081520766019821167e-01,-4.788104295730590820e-01,-1.814667582511901855e-01,-2.936156392097473145e-01,-2.483141273260116577e-01,-1.418001353740692139e-01,2.846582233905792236e-01,1.459356993436813354e-01,-1.740259379148483276e-01,2.191942781209945679e-01,8.212194591760635376e-02,4.816702380776405334e-02,3.709121346473693848e-01,-2.297870069742202759e-02,2.321420162916183472e-01,1.331520825624465942e-01
9.715764224529266357e-02,-1.417106539011001587e-01,-2.338640838861465454e-01,1.426396146416664124e-02,1.896708458662033081e-01,2.910798192024230957e-01,3.509806692600250244e-01,-1.957933306694030762e-01,-1.928321123123168945e-01,-1.944311261177062988e-01,-8.278166875243186951e-03,-1.649757474660873413e-02,-2.304084748029708862e-01,2.002137899398803711e-01,2.478137314319610596e-01,6.071171164512634277e-02,-9.945775270462036133e-01,-4.474833607673645020e-01,-4.286323487758636475e-02,3.092809617519378662e-01,6.879691779613494873e-02,-2.289843559265136719e-01,1.556852608919143677e-01,-2.239449322223663330e-01,-4.234477281570434570e-01,3.000380396842956543e-01,3.582299351692199707e-01,1.842562481760978699e-02,-1.189422726631164551e+00,-1.795915663242340088e-01,-2.998120486736297607e-01,1.778676733374595642e-02,-5.223100185394287109e-01,3.116564154624938965e-01,-2.802194468677043915e-02,7.849549651145935059e-01,-2.636302411556243896e-01,-1.594657748937606812e-01,-1.947552859783172607e-01,-7.152526378631591797e-01,-5.937927961349487305e-01,3.334967792034149170e-01,-8.543306589126586914e-01,-1.912312358617782593e-01,3.124299645423889160e-02,1.929888576269149780e-01,-4.172663390636444092e-01,6.219911947846412659e-02,-1.624329835176467896e-01,1.782449334859848022e-02
-1.009456142783164978e-01,-1.703015565872192383e-01,1.318844258785247803e-01,-4.746731221675872803e-01,1.899840831756591797e-01,2.193247973918914795e-01,-2.275725267827510834e-02,-1.481132060289382935e-01,3.634969294071197510e-01,-1.891470700502395630e-01,1.124121323227882385e-01,4.134060740470886230e-01,2.435854971408843994e-01,-4.988950788974761963e-01,-2.731073275208473206e-02,3.711282461881637573e-02,1.385422229766845703e+00,4.110135883092880249e-02,-1.424305886030197144e-01,1.214365568011999130e-02,-5.015432834625244141e-01,1.125434711575508118e-01,-4.648459702730178833e-02,-3.178715705871582031e-01,2.022238522768020630e-01,1.659590601921081543e-01,-3.608559966087341309e-01,5.143543332815170288e-02,1.458545088768005371e+00,4.170884788036346436e-01,2.601711153984069824e-01,-1.517652720212936401e-01,1.963713318109512329e-01,-9.259273111820220947e-02,-2.572975456714630127e-01,-2.551084756851196289e-01,2.264262884855270386e-01,-2.109338790178298950e-01,-8.866780996322631836e-02,1.970708966255187988e-01,1.986422240734100342e-01,-2.089380919933319092e-01,3.515725731849670410e-01,-2.215728163719177246e-01,-5.814135074615478516e-01,1.985434293746948242e-01,-4.011611342430114746e-01,1.561932712793350220e-01,-9.041752666234970093e-02,1.733779311180114746e-01
-4.587867856025695801e-01,-1.784018129110336304e-01,-7.436649501323699951e-02,-5.054169297218322754e-01,1.686397641897201538e-01,-2.168338596820831299e-01,4.945776239037513733e-02,-2.401746213436126709e-01,5.919540524482727051e-01,1.989442408084869385e-01,-3.524830937385559082e-01,8.487852215766906738e-01,7.824621349573135376e-02,-8.390685319900512695e-01,-2.760830879211425781e+00,-1.522449254989624023e-01,-1.223374754190444946e-01,-6.093837618827819824e-01,-5.449174046516418457e-01,-4.900943860411643982e-02,-3.207761421799659729e-02,7.056505233049392700e-02,-3.459213376045227051e-01,-1.073174953460693359e+00,2.256178297102451324e-02,-3.382654786109924316e-01,1.267623454332351685e-01,-8.559985160827636719e-01,-2.084533870220184326e-01,3.098488450050354004e-01,7.127134501934051514e-02,-2.627316303551197052e-02,3.016387224197387695e-01,-6.027959659695625305e-02,-3.641276434063911438e-02,-2.979438602924346924e-01,5.206546783447265625e-01,-1.415542066097259521e-01,-6.561878919601440430e-01,-1.530973017215728760e-01,3.048153221607208252e-01,-5.058314204216003418e-01,-4.849541001021862030e-03,1.076495647430419922e-01,-3.004208803176879883e-01,-1.563239395618438721e-01,-3.736624717712402344e-01,2.085063606500625610e-01,4.569750130176544189e-01,2.772168815135955811e-01
-4.772690534591674805e-01,-6.837390661239624023e-01,-1.168897971510887146e-01,4.660501480102539062e-01,-1.089111715555191040e-01,1.634867675602436066e-02,-2.883804738521575928e-01,-3.250921070575714111e-01,4.525948762893676758e-01,-6.134319901466369629e-01,4.432095959782600403e-02,2.512482702732086182e-01,1.126075610518455505e-01,-6.789709329605102539e-01,-6.709637641906738281e-01,8.765240013599395752e-02,1.325256675481796265e-01,-2.814183533191680908e-01,-5.203458070755004883e-01,-2.158461362123489380e-01,1.540290415287017822e-01,2.614252865314483643e-01,-1.515102386474609375e-01,-4.720560014247894287e-01,4.403192996978759766e-01,-1.063044518232345581e-01,-7.385824918746948242e-01,-1.351216882467269897e-01,7.848328351974487305e-02,8.036067336797714233e-02,-8.772756904363632202e-02,8.945421129465103149e-02,-1.332317292690277100e-01,-4.764306545257568359e-02,2.669303119182586670e-01,-2.990737557411193848e-01,-5.604285746812820435e-03,-1.702951341867446899e-01,3.167525231838226318e-01,-6.904944032430648804e-02,4.291270971298217773e-01,-3.481942117214202881e-01,-2.050576061010360718e-01,5.337908267974853516e-01,1.886594295501708984e-01,-1.726625412702560425e-01,-6.336562633514404297e-01,1.257528513669967651e-01,3.800221383571624756e-01,4.491412341594696045e-01
-2.152080088853836060e-01,1.373555809259414673e-01,-8.642023801803588867e-01,-6.876835823059082031e-01,2.618614137172698975e-01,-4.768222272396087646e-01,-1.677417382597923279e-02,2.673941552639007568e-01,7.194555997848510742e-01,1.490914523601531982e-01,4.886980056762695312e-01,-4.137736931443214417e-02,-3.676685690879821777e-01,7.246150821447372437e-02,3.197492063045501709e-01,-1.943022385239601135e-02,1.396416723728179932e-01,-4.098260104656219482e-01,1.138221696019172668e-01,-2.075243592262268066e-01,1.584170609712600708e-01,-6.419515013694763184e-01,6.414733529090881348e-01,3.622964620590209961e-01,1.873525977134704590e-01,2.747896313667297363e-01,1.248881891369819641e-01,3.908920586109161377e-01,1.980521231889724731e-01,2.564315795898437500e-01,3.897709846496582031e-01,-4.580773711204528809e-01,-2.786069810390472412e-01,-2.585061192512512207e-01,-1.608173996210098267e-01,-6.487858947366476059e-03,-3.100868165493011475e-01,7.607861608266830444e-02,3.252385854721069336e-01,1.017345562577247620e-01,3.426981270313262939e-01,9.573193639516830444e-02,-2.983707785606384277e-01,4.133894145488739014e-01,2.702178955078125000e-01,8.850067108869552612e-02,1.575469225645065308e-01,-4.190225601196289062e-01,5.715940594673156738e-01,-1.109889149665832520e-01
2.917713299393653870e-02,2.421779036521911621e-01,-3.873889446258544922e-01,3.385592103004455566e-01,-5.046496912837028503e-02,4.772126972675323486e-01,3.455267846584320068e-01,-3.612944856286048889e-02,-1.547000557184219360e-01,1.872497797012329102e-01,-1.118828058242797852e-01,-3.173996508121490479e-01,5.459055900573730469e-01,-3.490471839904785156e-01,-2.502194941043853760e-01,2.392731839790940285e-03,2.243293225765228271e-01,1.062963247299194336e+00,7.186781615018844604e-02,-3.174777328968048096e-01,-3.720605969429016113e-01,2.837010920047760010e-01,3.836982548236846924e-01,1.555260270833969116e-01,-1.617030426859855652e-02,4.422364011406898499e-02,6.174821779131889343e-02,7.603432536125183105e-01,1.436452418565750122e-01,2.971799112856388092e-02,-1.612303853034973145e-01,3.175568208098411560e-02,5.383733287453651428e-02,3.405188322067260742e-01,1.116213109344244003e-02,-4.961691796779632568e-01,2.227364629507064819e-01,2.677308619022369385e-01,1.184378787875175476e-01,5.715657770633697510e-02,-1.674597114324569702e-01,-2.658286988735198975e-01,-1.599997878074645996e-01,-4.121537506580352783e-01,-2.303317785263061523e-01,-1.200577337294816971e-02,-2.842339873313903809e-01,-3.627520501613616943e-01,-3.190649151802062988e-01,-1.438357532024383545e-01
4.084923118352890015e-02,2.319262772798538208e-01,4.382914602756500244e-01,2.517812848091125488e-01,-3.549200892448425293e-01,1.460354924201965332e-01,-1.209753155708312988e-01,1.613507717847824097e-01,-6.722961068153381348e-01,1.795455068349838257e-01,-3.481274843215942383e-01,-9.550176560878753662e-02,1.596348285675048828e-01,2.017534822225570679e-01,1.415097862482070923e-01,-5.165195465087890625e-01,-8.220745623111724854e-02,9.548360854387283325e-02,-2.583103775978088379e-01,2.326399385929107666e-01,-4.225421696901321411e-02,2.130699306726455688e-01,7.312457077205181122e-03,-3.163924217224121094e-01,-2.094441503286361694e-01,-2.601561546325683594e-01,-9.278547018766403198e-02,-6.705863475799560547e-01,-1.348748058080673218e-01,-3.063954114913940430e-01,-5.345058441162109375e-01,3.413857892155647278e-02,-1.168313845992088318e-01,-2.535040974617004395e-01,2.039564549922943115e-01,-4.217115230858325958e-03,3.640939295291900635e-01,-2.405187813565135002e-03,-1.014850854873657227e+00,-1.501353234052658081e-01,-4.183116853237152100e-01,9.705005586147308350e-02,1.975024640560150146e-01,-4.264182448387145996e-01,-1.889008730649948120e-01,-2.154307961463928223e-01,-5.694864690303802490e-02,3.804079890251159668e-01,-4.042395055294036865e-01,-8.501009084284305573e-03
3.322336375713348389e-01,1.714190095663070679e-01,6.171115040779113770e-01,2.359447441995143890e-02,-1.123247072100639343e-01,4.357106089591979980e-01,3.027013875544071198e-02,8.595376461744308472e-02,-8.798990249633789062e-01,2.131245881319046021e-01,-5.560749769210815430e-01,2.830057346727699041e-04,1.903254240751266479e-01,7.593317329883575439e-02,-4.886440336704254150e-01,5.696503445506095886e-02,7.657116651535034180e-02,1.024673953652381897e-01,2.091418355703353882e-01,-9.812794625759124756e-02,1.104459315538406372e-01,2.339758537709712982e-02,1.102568879723548889e-01,1.061085890978574753e-02,1.677108705043792725e-01,7.715275138616561890e-02,-1.314916312694549561e-01,-4.534576535224914551e-01,2.167962044477462769e-01,-2.470318228006362915e-01,-4.344829022884368896e-01,7.709997892379760742e-02,9.041774272918701172e-02,2.931685149669647217e-01,-1.864315010607242584e-02,-2.299370169639587402e-01,2.577922940254211426e-01,6.632450222969055176e-02,-1.006797328591346741e-01,3.257091343402862549e-01,-3.205857574939727783e-01,1.021994799375534058e-01,2.804500758647918701e-01,-4.376309216022491455e-01,6.154678761959075928e-02,-6.003485247492790222e-02,-6.651645898818969727e-02,2.033097147941589355e-01,-1.873632371425628662e-01,2.951333224773406982e-01
-4.159593954682350159e-02,2.484114617109298706e-01,-9.928202629089355469e-01,2.028656601905822754e-01,2.655629217624664307e-01,5.342501029372215271e-02,2.959716618061065674e-01,4.650677554309368134e-03,1.976732350885868073e-02,5.326636135578155518e-02,1.203729771077632904e-02,-4.555249214172363281e-01,5.227981209754943848e-01,6.649585068225860596e-02,-5.075115561485290527e-01,-6.809578835964202881e-02,-6.458387523889541626e-02,6.614315509796142578e-01,-3.203954547643661499e-02,9.329681098461151123e-02,2.498141378164291382e-01,3.441081047058105469e-01,2.724300324916839600e-01,1.272081434726715088e-01,-2.469601035118103027e-01,2.346376627683639526e-01,1.094533279538154602e-01,3.355197310447692871e-01,-2.621222659945487976e-02,-6.787478923797607422e-02,-2.728688418865203857e-01,1.192572563886642456e-01,-2.064721882343292236e-01,2.654446661472320557e-01,-2.861441671848297119e-01,-3.539650738239288330e-01,3.859232962131500244e-01,2.054832428693771362e-01,2.582510113716125488e-01,-1.088660061359405518e-01,-2.173374593257904053e-01,-1.127954944968223572e-01,-4.484623074531555176e-01,-4.862594977021217346e-02,2.451195120811462402e-01,1.077614426612854004e-01,-7.727123796939849854e-02,-1.382369250059127808e-01,-3.853695839643478394e-02,1.345583796501159668e-02
1.941651701927185059e-01,-2.945770621299743652e-01,-9.617286175489425659e-02,-9.283306449651718140e-02,-2.811949849128723145e-01,-6.982786208391189575e-02,4.508352279663085938e-01,5.632801353931427002e-02,1.542196720838546753e-01,-5.111765861511230469e-01,-9.782975539565086365e-04,7.326302677392959595e-02,-6.172978281974792480e-01,-3.598599880933761597e-02,7.741342484951019287e-02,-1.490138322114944458e-01,-3.477494046092033386e-02,5.514141917228698730e-02,-9.748051315546035767e-02,-8.357109129428863525e-02,-2.032852917909622192e-01,-5.006188992410898209e-03,-5.168961882591247559e-01,7.920040935277938843e-02,-3.977137058973312378e-02,3.635339140892028809e-01,-3.776400908827781677e-02,-2.895954549312591553e-01,-1.903554983437061310e-02,1.290427595376968384e-01,1.357155665755271912e-02,-1.237467452883720398e-01,-3.359781205654144287e-02,7.574835419654846191e-02,4.022020399570465088e-01,9.965163189917802811e-04,1.749190129339694977e-02,5.423822253942489624e-02,-2.124226652085781097e-02,-3.640900179743766785e-02,-2.543487846851348877e-01,1.385938655585050583e-02,2.113903164863586426e-01,-5.715989693999290466e-02,-2.811958193778991699e-01,-9.436086565256118774e-02,-1.245587989687919617e-01,-1.553231358528137207e+00,-1.339183568954467773e+00,2.183497667312622070e+00
9.534905850887298584e-02,-1.224281452596187592e-02,-4.000521004199981689e-01,1.146976947784423828e+00,-2.378565669059753418e-01,1.151186507195234299e-02,4.522836580872535706e-02,1.162244472652673721e-02,1.784598678350448608e-01,9.420607984066009521e-02,-5.750130489468574524e-02,-2.754846215248107910e-01,-8.667697757482528687e-02,1.573505997657775879e-01,3.253364562988281250e-01,1.356018185615539551e-01,-4.308321177959442139e-01,-3.026424050331115723e-01,-7.397081390081439167e-06,-1.265774965286254883e-01,-1.954325139522552490e-01,-6.137318909168243408e-02,-9.819759428501129150e-02,2.895289957523345947e-01,2.632240056991577148e-01,-9.257757663726806641e-02,2.094059288501739502e-01,1.772924661636352539e-01,-3.236071765422821045e-01,-2.465698719024658203e-01,-6.792550534009933472e-02,2.497496269643306732e-02,-2.297121286392211914e-02,2.125780843198299408e-02,-3.812824189662933350e-02,1.906461454927921295e-02,1.826813817024230957e-01,-8.346743881702423096e-02,1.484710574150085449e-01,2.438243329524993896e-01,7.153678685426712036e-02,2.224131673574447632e-02,-2.438911050558090210e-01,-3.029600977897644043e-01,1.689585000276565552e-01,-1.105229333043098450e-01,7.728895545005798340e-02,3.121508099138736725e-02,-5.648443102836608887e-01,3.213035687804222107e-02
3.407811820507049561e-01,4.062969684600830078e-01,-5.600890517234802246e-01,-2.682131230831146240e-01,3.171519935131072998e-02,-2.569042444229125977e-01,1.195874363183975220e-01,2.213939279317855835e-02,-3.717731833457946777e-01,6.404923647642135620e-02,-5.716082453727722168e-02,-2.388258874416351318e-01,-2.349996380507946014e-02,7.604829967021942139e-02,-1.054665893316268921e-01,-4.276801191736012697e-04,8.626883476972579956e-02,5.270550251007080078e-01,-1.607648283243179321e-02,-1.862952113151550293e-01,2.119336575269699097e-01,1.793376803398132324e-01,1.525980383157730103e-01,3.200652599334716797e-01,1.697157770395278931e-01,2.733062207698822021e-01,6.875336170196533203e-01,5.473492145538330078e-01,2.917581424117088318e-02,-2.345769405364990234e-01,-2.286498099565505981e-01,-4.042656421661376953e-01,-1.811801195144653320e-01,1.287529915571212769e-01,-1.004283353686332703e-01,-5.952868238091468811e-02,-2.392446435987949371e-02,-7.099578529596328735e-02,-5.024142265319824219e-01,1.743261814117431641e-01,-4.549174010753631592e-01,1.086869239807128906e-01,1.009375676512718201e-01,9.292536228895187378e-02,-2.869921028614044189e-01,-1.716093868017196655e-01,2.867158353328704834e-01,1.605947911739349365e-01,-3.442915380001068115e-01,-6.273614764213562012e-01
-4.725540280342102051e-01,-5.192242190241813660e-02,-6.925477385520935059e-01,4.447266831994056702e-02,1.271546930074691772e-01,6.987218260765075684e-01,-6.159957125782966614e-02,-3.711891174316406250e-01,1.314447075128555298e-01,3.423274755477905273e-01,3.664976954460144043e-01,-1.443324983119964600e-01,2.968145608901977539e-01,6.346616148948669434e-02,-5.105420947074890137e-02,1.243668347597122192e-01,3.698958158493041992e-01,3.634379506111145020e-01,4.557020962238311768e-01,-6.327204704284667969e-01,-4.756473004817962646e-02,2.184152603149414062e-01,4.191845357418060303e-01,2.352114021778106689e-01,7.375395298004150391e-02,-2.181642688810825348e-02,-2.482234537601470947e-01,4.703210890293121338e-01,2.608485519886016846e-01,3.278002738952636719e-01,-4.689578711986541748e-02,5.368629097938537598e-01,2.481137365102767944e-01,2.530979514122009277e-01,3.668728098273277283e-02,-2.712785825133323669e-02,7.024369388818740845e-02,-5.712758004665374756e-02,2.666335999965667725e-01,-2.579020857810974121e-01,-4.827957600355148315e-02,-2.681249976158142090e-01,-5.522727966308593750e-01,2.444364503026008606e-02,2.617045938968658447e-01,2.591153681278228760e-01,-8.391743153333663940e-02,-2.320752441883087158e-01,1.575104594230651855e-01,4.204925298690795898e-01
9.698701649904251099e-02,6.490626931190490723e-01,-5.510129332542419434e-01,9.018192291259765625e-01,5.177342295646667480e-01,5.834185518324375153e-03,-4.816419184207916260e-01,3.997088968753814697e-01,-1.067763473838567734e-02,8.676074147224426270e-01,2.729589939117431641e-01,-3.947983384132385254e-01,-3.427602648735046387e-01,-5.988828092813491821e-02,2.456578612327575684e-01,-3.456089496612548828e-01,-7.614907622337341309e-02,-4.903758317232131958e-02,1.608027666807174683e-01,3.531022071838378906e-01,3.379557728767395020e-01,2.901758849620819092e-01,-2.566887736320495605e-01,4.340703785419464111e-01,1.973367333412170410e-01,-1.718869954347610474e-01,1.360027343034744263e-01,-7.242333292961120605e-01,2.109835445880889893e-01,1.326281111687421799e-02,-1.329606622457504272e-01,1.946843713521957397e-01,2.872594296932220459e-01,1.299641132354736328e-01,2.182663381099700928e-01,-4.777944684028625488e-01,2.310432940721511841e-01,-1.862486004829406738e-01,-8.758263289928436279e-02,6.936440616846084595e-02,1.498561054468154907e-01,1.323890239000320435e-01,3.048205971717834473e-01,4.598136246204376221e-01,1.910065859556198120e-01,1.762567013502120972e-01,3.560242354869842529e-01,1.226139366626739502e-01,5.456421375274658203e-01,2.900340557098388672e-01
1.757100522518157959e-01,1.282964497804641724e-01,-8.809532225131988525e-02,1.137898802757263184e+00,-1.024762988090515137e-01,-4.645452648401260376e-02,-1.341478973627090454e-01,-4.202957451343536377e-01,3.769620358943939209e-01,1.701304465532302856e-01,1.836109906435012817e-01,7.055982947349548340e-02,1.725626364350318909e-02,3.315942585468292236e-01,-1.115589141845703125e+00,2.823904715478420258e-02,-3.174006566405296326e-02,-2.437523007392883301e-01,1.070646010339260101e-02,2.713735103607177734e-01,-1.093643605709075928e-01,-3.055088520050048828e-01,1.123393103480339050e-01,1.000907540321350098e+00,-3.336625993251800537e-01,-3.216372728347778320e-01,9.987717866897583008e-02,-4.619890153408050537e-01,3.558762744069099426e-02,-2.008840143680572510e-01,7.403781171888113022e-03,8.281119167804718018e-02,-4.044047892093658447e-01,4.274835586547851562e-01,1.854950785636901855e-01,3.191395699977874756e-01,-3.459480702877044678e-01,-4.659997224807739258e-01,8.636736869812011719e-02,1.265153288841247559e-03,2.332239598035812378e-01,4.101951718330383301e-01,1.336620151996612549e-01,-2.164065241813659668e-01,2.059823423624038696e-01,1.841854006052017212e-01,2.405135035514831543e-01,-2.634980082511901855e-01,-2.148748040199279785e-01,2.327046692371368408e-01
5.015990734100341797e-01,7.401852011680603027e-01,2.162058055400848389e-01,-8.077193498611450195e-01,-3.625594377517700195e-01,1.214434206485748291e-01,-3.703423961997032166e-02,-3.641988635063171387e-01,-2.405909448862075806e-01,8.574244379997253418e-01,-3.459654152393341064e-01,8.294323831796646118e-02,2.384171783924102783e-01,-4.851033166050910950e-02,-8.830648660659790039e-02,1.093036588281393051e-02,7.236334681510925293e-02,2.678125202655792236e-01,-4.203614965081214905e-02,-3.028769791126251221e-01,-5.005115270614624023e-02,-6.766096353530883789e-01,-1.198129281401634216e-01,8.720932006835937500e-01,-2.372143566608428955e-01,-3.225656449794769287e-01,-2.377113550901412964e-01,-9.532394260168075562e-02,-1.855453252792358398e-01,3.765967488288879395e-02,2.668195664882659912e-01,2.593883275985717773e-01,3.846479952335357666e-01,-4.578515589237213135e-01,2.399172782897949219e-01,-4.200859367847442627e-02,1.639594137668609619e-01,1.783856749534606934e-01,5.947665572166442871e-01,5.812247991561889648e-01,2.085639163851737976e-02,-2.226381897926330566e-01,-1.979254931211471558e-01,3.482470661401748657e-02,-1.886223405599594116e-01,-1.080397963523864746e-01,2.600800432264804840e-02,-7.852704823017120361e-02,1.327359527349472046e-01,-1.141939610242843628e-01
2.838434875011444092e-01,3.319053649902343750e-01,-1.806858777999877930e-01,-7.135652750730514526e-02,-2.465669214725494385e-01,5.493892431259155273e-01,-1.435229331254959106e-01,2.452792227268218994e-01,-5.865325331687927246e-01,1.370993405580520630e-01,2.674622833728790283e-01,1.435370650142431259e-02,5.738648585975170135e-03,1.454435586929321289e-01,1.029374673962593079e-01,1.991690695285797119e-01,5.133824348449707031e-01,4.787797108292579651e-02,-3.711053729057312012e-02,2.518480718135833740e-01,9.143950045108795166e-02,-8.262099325656890869e-02,-2.600256502628326416e-01,3.172351121902465820e-01,-1.445780396461486816e-01,2.434221506118774414e-01,3.120079636573791504e-01,2.237745672464370728e-01,4.888015091419219971e-01,-2.390117198228836060e-01,2.013174146413803101e-01,3.173851668834686279e-01,-2.212476283311843872e-01,1.354906708002090454e-01,2.708837985992431641e-01,4.706619977951049805e-01,-4.705370366573333740e-01,2.735747098922729492e-01,8.519406616687774658e-02,-1.711408197879791260e-01,-6.210721731185913086e-01,5.582579970359802246e-02,-2.891137599945068359e-01,1.961857229471206665e-01,3.338048756122589111e-01,3.774937614798545837e-02,3.211840242147445679e-02,2.885833978652954102e-01,3.191475272178649902e-01,1.896922849118709564e-02
1.818483918905258179e-01,-2.611839473247528076e-01,-3.221048116683959961e-01,-8.786644786596298218e-02,9.285391867160797119e-02,-1.699202507734298706e-01,1.265956461429595947e-01,-3.559134006500244141e-01,1.089391931891441345e-01,-1.424650400876998901e-01,3.885984793305397034e-02,-1.229461934417486191e-02,-4.139352589845657349e-02,-1.583098471164703369e-01,4.097263514995574951e-02,4.967629909515380859e-03,6.091645956039428711e-01,-2.106132209300994873e-01,-2.389248609542846680e-01,-4.526919499039649963e-02,-1.141226440668106079e-01,-2.635120153427124023e-01,3.504529222846031189e-02,8.087476342916488647e-02,-2.579955756664276123e-01,-7.812774926424026489e-02,-1.786678913049399853e-03,1.203215401619672775e-02,1.632382154464721680e+00,2.741490676999092102e-02,-2.490287274122238159e-01,-1.229697987437248230e-01,-2.035382539033889771e-01,-1.269290298223495483e-01,-4.669917747378349304e-03,-8.289361000061035156e-02,1.128530502319335938e-01,1.493449956178665161e-01,-2.243689596652984619e-01,-7.668985426425933838e-02,-4.443365335464477539e-02,7.195876538753509521e-02,-2.614369615912437439e-02,3.329255431890487671e-02,8.645690977573394775e-02,-1.699950844049453735e-01,7.347096223384141922e-03,2.524012029170989990e-01,-4.121129810810089111e-01,-1.077975481748580933e-01
-1.258411705493927002e-01,6.401380151510238647e-02,-2.259850949048995972e-01,1.105712652206420898e-01,-2.445994317531585693e-02,-2.471787631511688232e-01,5.935685336589813232e-02,2.513357102870941162e-01,5.669084191322326660e-02,5.044148564338684082e-01,-1.744902506470680237e-02,-1.156236007809638977e-01,-3.095628693699836731e-02,-3.118935227394104004e-01,1.826495379209518433e-01,5.769665166735649109e-02,-1.641055643558502197e-01,-2.685747444629669189e-01,-2.087458819150924683e-01,-2.179028838872909546e-02,-1.941845118999481201e-01,2.063361406326293945e-01,-4.737202078104019165e-03,-6.519665569067001343e-02,-1.065070088952779770e-02,-1.194777339696884155e-01,9.127701073884963989e-02,1.264640688896179199e-01,-2.111650258302688599e-01,1.935750246047973633e-01,1.419760882854461670e-01,-7.182204630225896835e-03,-9.058441221714019775e-02,-1.556279808282852173e-01,-1.688104569911956787e-01,2.800548821687698364e-02,4.073963761329650879e-01,3.089725077152252197e-01,-5.295335873961448669e-02,4.160251617431640625e-01,-4.060512483119964600e-01,-2.450808510184288025e-02,8.733784407377243042e-02,-5.294084548950195312e-02,-2.564991414546966553e-01,1.978127211332321167e-01,1.504548043012619019e-01,1.078456267714500427e-01,-4.570254981517791748e-01,-1.195101737976074219e-01
